6
256,32,32,32,32,3
-0.049904,0.116067,0.059928,0.113821,0.099341,-0.024874,-0.008188,0.039543,0.018620,-0.103088,-0.063610,0.050682,-0.004659,-0.004961,-0.006503,0.141343,0.007107,-0.041015,-0.073642,0.003466,0.025967,-0.031414,-0.037513,-0.013373,0.030215,-0.013721,-0.114504,0.013123,-0.003822,-0.064360,-0.013793,-0.131866
-0.089958,0.038615,0.055358,-0.070313,-0.073414,0.002497,-0.009497,-0.031910,0.004946,-0.003899,0.016506,-0.115565,-0.001982,-0.004896,0.048178,0.056836,-0.059816,-0.136445,0.041416,0.046693,0.131231,0.169981,0.059298,0.071768,0.052196,0.015263,0.066148,0.051458,0.094863,-0.112530,-0.042877,0.071460
0.129266,0.057514,-0.051449,0.051341,0.159833,0.055868,0.089180,-0.092005,0.009847,-0.069812,-0.062313,0.115561,-0.032510,0.046036,0.055970,0.042355,0.069312,-0.006728,0.124752,0.052836,0.153715,0.104427,-0.045873,0.003577,-0.043786,-0.174165,0.013174,0.176467,0.149587,-0.138148,-0.049676,-0.017562
-0.010507,-0.051745,0.045874,0.169950,-0.046551,-0.034698,0.068870,-0.090446,0.021078,-0.039748,-0.045938,0.010198,0.035601,0.033920,-0.105395,-0.083020,0.236317,-0.035790,-0.051747,-0.024719,0.046331,-0.131401,-0.064024,0.018285,0.051940,-0.039118,-0.015477,-0.056866,0.080281,-0.023258,-0.088809,-0.102843
-0.070484,-0.140812,0.046358,0.024635,-0.123196,-0.018570,-0.084109,-0.008744,0.010334,0.093448,0.084233,-0.099698,0.140905,-0.022920,0.027046,-0.106040,0.095037,-0.030616,0.079197,0.033677,0.020060,0.012109,0.043033,0.150325,-0.057916,-0.034062,-0.007536,-0.027019,-0.069864,-0.012578,0.096699,0.054869
0.013427,-0.088068,-0.028513,0.103635,-0.009922,0.090977,0.001500,-0.002933,-0.045539,-0.001485,0.003625,-0.072349,-0.005752,-0.043358,-0.026685,0.066834,-0.006929,-0.057747,0.070948,-0.006048,0.039900,-0.019946,0.021343,-0.031898,0.076794,-0.062506,0.007069,0.034598,-0.028880,0.044858,0.011324,0.028806
0.022757,-0.009752,0.020364,0.016741,0.114705,0.097788,0.173182,0.017953,0.121567,-0.046626,-0.026407,0.064193,-0.070356,-0.009310,0.027994,0.029881,0.014227,-0.017752,-0.005986,-0.080395,-0.019406,-0.161570,0.023370,-0.040820,-0.017290,0.191594,-0.030111,0.034829,0.092085,-0.020117,-0.059262,-0.126318
0.059008,-0.016243,0.039683,-0.030252,-0.019308,-0.025317,-0.038609,0.116587,0.082951,-0.003297,-0.010003,-0.035239,-0.132618,-0.053607,-0.119242,-0.115681,-0.016611,0.101466,-0.074990,-0.078619,0.016848,0.101070,0.072797,0.056429,0.076883,0.019194,0.023456,0.157329,-0.095032,0.104318,-0.037277,-0.054476
0.069582,0.016043,0.015443,0.004685,0.031332,-0.021482,0.052939,0.026151,0.098622,-0.010422,-0.003208,-0.053727,0.068165,0.154835,-0.047448,-0.163561,-0.039258,0.071101,-0.061831,-0.031348,-0.010908,0.062700,0.049396,0.152868,0.019280,0.084569,0.030811,0.113287,0.047951,0.080441,-0.067897,-0.005937
0.016357,0.031663,0.083964,-0.097821,-0.028635,-0.067340,-0.017196,0.034758,0.082031,-0.076973,-0.100941,-0.030016,-0.041707,0.089084,-0.015510,-0.109606,-0.052669,-0.001289,0.022442,0.000460,0.121684,0.060257,0.104802,-0.035785,-0.062008,0.030526,0.005544,-0.047309,-0.035371,0.064997,0.020613,-0.071165
0.039947,0.071015,0.070946,0.127614,-0.022465,0.118911,-0.045723,-0.009732,0.005626,0.208111,0.006407,-0.035277,0.046893,-0.031913,0.093904,0.051421,0.095227,0.020153,0.168782,0.123398,0.029924,-0.182484,0.078397,-0.113174,0.004713,0.022690,-0.158999,0.036186,0.128637,-0.019457,-0.009354,0.025026
0.110404,-0.005796,0.135141,-0.024203,-0.025569,-0.078574,0.021994,0.090162,-0.040038,-0.048422,0.053469,-0.035923,0.020482,-0.029210,-0.004705,0.034250,-0.024238,0.015313,0.020933,0.147755,0.091202,-0.062365,0.076561,-0.106062,-0.072628,0.085036,-0.007688,0.015999,0.023033,0.080441,0.093350,-0.005965
0.037055,-0.147632,-0.028165,0.076271,-0.012062,0.116217,0.011824,-0.063959,-0.064878,-0.028629,0.021293,0.006592,0.185863,0.038336,-0.003346,0.035824,-0.022777,0.046048,0.033016,-0.016335,-0.054109,0.074311,-0.029130,-0.012933,0.041226,0.007091,0.098778,0.005760,-0.018374,-0.097638,-0.042612,0.000498
0.123165,0.071693,-0.021959,0.111971,0.097411,-0.030475,0.189827,-0.050361,0.039242,0.187212,0.054143,0.099318,-0.065177,-0.005311,0.168633,-0.109015,0.011519,-0.140644,0.089033,0.043877,0.030459,0.121346,0.075324,-0.072922,0.010175,0.054247,-0.066918,0.053209,-0.010457,-0.090430,0.114680,0.061512
-0.201592,-0.042901,-0.016542,-0.020254,0.034894,0.000301,0.017504,-0.053601,0.036727,-0.066360,0.020234,0.064164,-0.010708,0.002012,0.216504,-0.055136,0.036946,0.163204,0.008980,0.063618,0.025533,0.099674,-0.158899,-0.058782,0.009706,0.059875,0.049199,0.027839,0.020349,0.046874,-0.099242,-0.015186
-0.026877,0.095154,0.077400,-0.029473,-0.015926,0.022284,0.066679,-0.041584,0.083735,-0.021261,-0.017944,0.061400,0.053779,-0.104854,-0.000076,0.079794,-0.101329,-0.146217,0.061637,-0.030283,0.018676,-0.080903,0.037940,0.086604,-0.033666,-0.195971,-0.031988,-0.070666,-0.053417,0.014259,-0.054059,0.046509
0.066777,0.068668,0.060784,-0.041180,-0.055360,0.080198,0.025960,-0.162618,-0.024988,0.014221,0.040169,-0.042685,0.125936,0.088757,0.055563,0.015856,-0.057712,-0.069456,0.045815,0.006766,-0.053947,-0.042680,-0.025041,0.070467,0.131379,0.022484,0.131189,-0.004983,-0.049469,-0.138218,0.020410,0.006556
0.063434,0.159096,-0.098887,-0.042130,0.010845,0.052086,0.030020,0.074979,0.051406,-0.090300,0.107303,0.039219,-0.026118,0.100748,-0.034877,0.025771,-0.024408,-0.078069,-0.039248,0.080982,0.047149,-0.020969,0.018797,-0.008687,-0.006186,-0.050907,0.036198,-0.041717,0.014388,-0.117498,0.065618,0.026948
-0.030963,-0.063008,-0.010968,0.095946,-0.073654,-0.064693,-0.131470,-0.061829,-0.056408,-0.070817,-0.047325,-0.018600,0.070058,0.000480,-0.004055,0.057776,-0.042289,0.021101,-0.059177,0.156286,0.047992,0.018886,-0.018426,0.012494,-0.031576,-0.088042,-0.040945,0.171663,-0.099823,-0.099887,-0.004213,-0.037394
-0.079854,-0.050400,-0.059341,0.097195,0.120417,-0.028824,-0.004545,0.053909,0.024559,0.107985,-0.066260,0.004905,-0.043400,0.059920,0.107196,-0.035103,0.148865,-0.003400,0.054944,-0.050537,0.043548,-0.047749,0.062435,0.085653,0.003568,0.054840,0.022204,-0.016260,-0.008846,-0.046098,0.090391,-0.077024
0.163003,-0.067850,0.141969,-0.059053,-0.006223,0.171518,-0.007704,0.015759,0.001935,0.004590,-0.011031,-0.036726,-0.071724,-0.027182,0.037525,0.045801,-0.100024,0.034082,0.059813,-0.033834,0.036280,0.019469,-0.019689,-0.031945,-0.060008,0.030115,0.126990,0.071439,0.009550,0.008084,-0.117737,-0.028023
-0.052987,-0.014187,0.021988,-0.041272,-0.005073,-0.098712,0.027777,-0.054777,-0.072381,0.076121,0.134555,0.003053,0.017900,-0.071866,0.031971,-0.120835,-0.024960,0.083828,0.087042,0.015905,-0.048299,-0.003408,0.036049,0.059441,-0.022771,-0.011671,-0.123725,0.054096,0.063881,-0.005694,0.026966,0.007878
-0.042136,0.021753,-0.036834,-0.005622,-0.018997,0.076306,0.104976,0.041659,0.089588,-0.042631,0.057298,0.004891,-0.041770,0.006988,-0.018610,0.057464,0.006272,-0.129954,-0.030450,-0.106067,0.001817,-0.089241,0.025185,-0.000580,-0.087844,0.001410,-0.048153,0.085460,-0.011691,0.038445,-0.025656,0.081467
-0.026126,0.073437,-0.021053,0.078100,0.020850,0.057347,-0.036727,0.022154,0.005951,-0.015515,-0.025688,0.066921,-0.105565,-0.051112,0.027327,0.028696,0.043374,0.130679,-0.042474,0.107782,-0.016901,-0.024968,-0.076990,0.026250,-0.025593,-0.084911,-0.012688,-0.046553,-0.025278,-0.011265,-0.032666,0.025486
0.046712,0.050807,-0.136529,-0.107418,0.000414,0.083863,0.055051,-0.086675,0.021713,-0.030979,0.002675,-0.018251,-0.044715,0.003654,-0.052722,0.044701,0.046819,0.034212,0.050877,-0.049441,-0.080526,0.086778,-0.021130,0.065632,-0.002418,0.149092,-0.007759,0.037736,-0.016407,-0.010151,-0.044016,-0.220920
-0.094746,0.058397,0.008246,-0.070544,0.038723,-0.023065,-0.089223,0.009059,-0.158633,-0.005437,-0.012075,0.060606,-0.048661,0.057041,0.068397,0.030532,-0.009786,-0.021603,-0.217187,-0.021116,0.081424,-0.032154,0.113420,0.015017,0.118850,-0.041854,-0.010679,-0.029750,0.033179,-0.028688,0.055809,-0.050078
0.015789,-0.064497,-0.023325,0.001003,-0.029741,-0.048139,-0.001499,-0.095511,0.222574,-0.170983,-0.114927,-0.006341,0.043992,-0.108012,-0.098154,-0.067520,-0.037180,-0.116290,-0.052491,-0.026353,0.079306,0.022836,-0.065204,-0.180695,0.074789,0.018726,0.002207,-0.025529,-0.021450,0.032219,0.041987,-0.050870
-0.013362,0.025632,-0.050818,-0.076852,-0.178532,-0.071739,-0.100965,0.050519,-0.061731,0.041839,-0.076888,-0.126010,-0.061115,-0.025758,-0.017055,0.093403,-0.002680,0.040508,-0.076634,0.058569,-0.029228,-0.080321,-0.022839,-0.136564,-0.131082,-0.137748,0.138138,-0.018809,0.045672,-0.011152,0.032855,0.061881
0.050526,-0.027479,0.146975,0.049153,0.004271,0.068536,0.035749,-0.105244,-0.114981,-0.062817,0.008090,-0.024958,0.060114,0.018317,0.045015,0.033615,0.022525,-0.074463,0.020681,-0.025743,-0.096903,0.098131,0.108259,-0.146049,-0.108138,0.146031,0.045516,-0.019571,-0.014306,-0.052846,0.137530,0.080125
-0.164408,0.070474,-0.092155,0.054879,0.118677,-0.042777,-0.022817,-0.071758,-0.053406,0.009253,-0.020072,0.152555,0.099487,-0.002912,0.071868,-0.077472,-0.154023,-0.008657,-0.125963,-0.081131,0.158790,-0.071973,0.053706,0.016604,0.068587,0.009783,-0.068981,-0.145129,-0.117974,-0.106108,-0.047148,-0.038157
-0.075622,-0.028003,-0.121367,0.052255,-0.141309,-0.058762,-0.026025,0.073800,-0.037208,-0.191254,0.070469,0.044559,0.067758,-0.058742,-0.170725,0.084118,-0.012976,-0.003186,0.058304,0.031985,0.043003,-0.085657,0.095169,-0.021605,-0.012524,-0.068289,-0.054149,-0.104367,0.131012,0.011183,-0.112449,-0.019719
0.048605,0.099336,0.026210,-0.023104,0.032574,0.057198,-0.077431,0.052522,0.054417,0.003914,0.086521,0.000729,-0.036779,0.141921,0.096181,0.054816,-0.054977,0.159392,0.007693,0.052449,0.069003,-0.025182,0.036127,0.116636,-0.074461,-0.032795,-0.060353,-0.005660,0.034812,0.049370,-0.001300,0.118895
-0.027085,0.069815,-0.077102,-0.085748,0.111919,-0.007258,-0.046572,0.035568,0.007462,-0.000119,-0.042923,0.006342,-0.214705,0.066448,-0.101928,-0.036412,-0.041320,0.072505,0.058297,0.118552,0.016843,0.105967,0.067920,0.052625,0.021348,-0.053505,-0.006293,-0.163559,0.011185,0.080134,0.123102,-0.011866
-0.019519,0.147867,0.062303,-0.082382,-0.103746,-0.038776,0.006185,0.080684,0.063996,-0.038055,-0.058300,-0.123273,-0.115260,-0.040152,-0.145604,0.174334,-0.057981,-0.015187,0.008562,0.042612,0.055590,-0.030411,0.150067,0.028590,0.021472,0.125473,-0.034549,0.052069,0.043928,-0.086286,-0.097109,-0.007114
0.084550,-0.064837,-0.029085,-0.002238,0.105936,-0.021445,-0.021795,-0.062042,0.029986,-0.131338,-0.016988,0.021388,-0.014484,0.009540,0.022925,-0.007979,0.141404,0.091566,0.114704,0.044904,-0.011124,0.014664,0.044077,-0.070708,-0.083932,-0.159790,-0.028897,0.078539,-0.050431,-0.009642,-0.016146,-0.031398
0.041489,0.027351,-0.078348,0.015288,-0.124454,-0.057058,-0.035926,-0.117162,0.104288,-0.082970,0.060424,0.126270,0.075085,-0.026441,-0.030010,-0.087885,-0.112245,-0.052023,-0.091027,-0.016828,-0.036077,-0.122137,0.004741,0.031185,0.038305,0.035635,-0.055263,-0.036986,0.000686,0.086920,-0.139842,0.049186
0.063729,0.087670,0.069903,-0.030544,-0.045308,-0.073456,-0.058692,-0.023952,0.069941,-0.132603,0.021711,0.061528,0.025605,0.089553,-0.077531,-0.060107,-0.097811,-0.038160,0.036979,0.148188,0.069215,0.084805,0.005656,-0.031041,0.118253,-0.006220,0.023685,0.088433,0.099589,0.015933,-0.001603,0.016774
-0.004910,-0.049277,-0.036304,0.012285,-0.019249,0.034414,-0.006290,-0.056065,0.042389,0.037661,0.050673,0.061807,-0.038761,-0.005143,0.029180,-0.021913,0.014207,0.038015,0.059666,0.038244,0.087205,-0.022976,0.006918,0.071644,-0.012394,-0.006162,0.079420,0.014316,-0.019869,0.018698,0.069946,0.094669
0.040235,-0.075496,-0.079184,-0.124978,0.156713,0.065628,0.009015,0.048501,-0.004612,0.011838,-0.079550,0.006459,0.011939,-0.053422,-0.054574,0.006326,-0.005711,0.128688,0.114042,0.004349,-0.049020,-0.012345,0.065591,0.015928,-0.027313,0.000012,0.128732,-0.105024,0.018094,-0.097685,-0.028486,0.039964
0.012332,0.062307,0.001048,0.011554,-0.057690,0.109116,0.002009,0.149149,-0.022316,0.011466,0.006805,0.033683,-0.060646,0.074032,-0.001560,0.040611,-0.035703,-0.027448,0.051418,-0.199185,0.014128,-0.022002,-0.040568,-0.030758,0.143932,-0.091433,-0.077089,0.039865,0.101183,0.025333,0.057669,0.060753
-0.052550,-0.137400,0.008372,-0.171905,0.019992,-0.011635,0.003197,0.047993,0.078289,0.034044,0.017611,0.007005,0.038326,0.121773,0.125587,-0.074461,0.109310,0.044561,0.012298,0.086031,-0.046315,0.080611,-0.053834,0.078456,-0.076068,0.072006,-0.033056,-0.023098,0.024721,0.038910,-0.021003,-0.094415
0.028587,-0.018274,-0.032659,0.019935,0.077118,-0.068559,0.046322,-0.085006,-0.080568,0.012646,-0.028964,-0.026853,-0.048743,-0.113183,-0.013516,0.053588,-0.048309,0.016453,-0.033318,0.007356,0.102408,0.039369,0.076814,-0.039498,-0.052927,-0.022764,0.098885,0.019567,-0.039983,-0.040031,0.020030,-0.007838
0.022606,-0.043034,-0.161583,-0.044449,0.026190,0.069659,0.012423,-0.039374,0.005147,-0.106614,0.056289,0.074963,0.060277,-0.129888,-0.059525,0.104391,-0.114064,-0.044611,0.028638,0.108658,0.047799,-0.054365,0.063674,-0.039624,0.000918,-0.036043,0.082427,-0.007955,-0.111170,0.009901,0.008397,0.138183
-0.033950,0.094854,-0.067398,0.071633,-0.000923,0.078061,0.067492,0.002401,0.131926,-0.046139,-0.095104,-0.094904,-0.114010,-0.005773,0.023652,0.096043,0.031253,-0.031061,-0.038138,0.004859,-0.002463,0.143240,0.046042,0.037841,-0.001530,0.055134,-0.002705,0.062710,-0.103835,0.036255,-0.132633,0.006780
0.041845,-0.009940,0.032763,-0.069391,0.024550,0.020217,-0.089193,-0.065977,0.023997,0.053357,0.101637,0.058873,-0.121353,-0.090788,0.118776,0.227253,0.093995,-0.137293,0.059210,-0.064258,-0.000428,0.025485,0.014892,0.124051,0.044225,-0.064938,0.011205,0.051100,0.076805,0.067782,0.054813,-0.053663
0.044455,0.046582,-0.081173,-0.047567,0.010638,0.074793,0.042908,0.090896,0.061624,-0.155332,-0.058147,0.154640,-0.018344,0.028299,0.057548,0.010359,0.015937,0.131910,-0.018376,-0.053348,0.130137,0.129168,0.059419,-0.013587,0.012827,0.033470,-0.029675,-0.032575,-0.015683,-0.014531,-0.007125,-0.095633
0.079566,0.063942,0.034974,-0.049581,0.059137,0.079226,-0.033143,0.127298,0.022703,-0.060142,-0.053384,0.017798,-0.014864,-0.043096,-0.014341,-0.108777,-0.003985,0.011121,0.006742,-0.071298,0.081224,0.038694,0.075053,-0.127469,0.037246,-0.012466,0.051966,0.044895,0.059806,0.076883,-0.002753,0.045711
-0.044747,0.038378,-0.057832,-0.001158,-0.006756,0.031730,0.057842,0.021122,0.029826,-0.043822,-0.070396,-0.061495,0.066478,0.002672,0.051090,-0.099993,-0.073787,-0.130541,-0.058281,-0.047599,-0.013305,-0.026288,0.057901,-0.168129,-0.059382,-0.190421,0.059220,0.074024,0.023704,0.077226,0.021367,0.031097
-0.010412,0.073941,-0.028955,0.018982,0.085252,0.077147,-0.089539,0.095655,0.047258,-0.030734,0.090617,0.044553,-0.000408,0.121907,0.033330,-0.043067,-0.040507,-0.053809,-0.014650,-0.065265,0.016492,0.000939,0.041441,-0.031605,-0.095715,0.057925,-0.048039,-0.011311,-0.073733,0.050393,-0.039072,-0.042419
-0.014465,0.141670,-0.026495,0.009531,-0.041967,-0.076454,-0.060722,0.061330,-0.019431,0.123872,0.129146,-0.003624,0.069225,0.026147,-0.068049,0.037756,-0.153397,-0.067626,-0.095199,0.039505,-0.107437,-0.130466,-0.134861,0.034066,0.129878,0.071642,0.008475,-0.027814,0.007342,-0.022927,-0.051567,0.056305
-0.066190,0.036353,-0.056457,-0.032491,0.024653,-0.078259,0.065018,-0.021621,-0.034957,0.027956,-0.014480,-0.037074,0.065462,0.122065,0.121011,0.055128,-0.071671,0.015831,0.063577,-0.024211,0.091434,-0.162389,0.069014,0.001183,-0.020592,0.074603,0.047185,-0.055195,0.080699,0.000272,0.141098,0.013493
-0.080423,-0.090231,-0.087304,-0.057835,-0.018328,0.055092,-0.073219,0.036526,0.086214,-0.024875,-0.128110,-0.046140,0.008143,0.018017,0.056334,0.087271,0.108364,0.038434,0.019903,0.029083,0.030020,0.031387,-0.058096,0.068984,-0.049766,-0.083957,-0.093935,-0.015205,-0.022677,-0.082634,-0.089799,0.033690
0.056246,0.009885,0.016627,0.041637,0.023249,-0.075135,-0.016042,0.039223,0.005270,0.007142,0.120008,-0.107772,-0.002828,0.104805,0.019631,-0.060778,0.025490,0.113445,0.064773,0.014065,-0.007813,-0.016236,-0.054772,0.020630,0.016051,-0.098118,-0.006188,0.072594,-0.059752,-0.080328,0.042305,-0.209462
0.069354,0.084283,-0.082497,-0.083314,0.075654,-0.047616,0.084090,-0.030059,0.079638,-0.041773,0.151756,0.132414,-0.071626,-0.055456,-0.031206,0.116341,0.021693,-0.040851,-0.033773,-0.077075,0.032691,-0.019642,0.050405,-0.022241,-0.063440,0.049699,0.092476,0.125146,-0.043650,-0.085772,0.039431,-0.046328
0.055000,0.034364,-0.024745,0.051532,-0.018369,0.043714,-0.030889,0.064448,-0.007113,0.035615,-0.090018,0.100484,-0.023109,-0.063877,-0.014373,0.084208,-0.012995,0.096981,0.042157,0.022258,0.012808,0.101206,0.055880,0.118937,-0.011773,0.011338,-0.017077,0.103499,-0.052613,-0.042808,0.028533,0.032195
0.077975,0.060914,0.092466,0.069390,-0.051916,-0.008162,0.034114,0.009288,0.147291,0.025891,0.004442,0.025836,0.028926,-0.015547,-0.005402,-0.013438,-0.041352,0.086300,0.078933,-0.074624,0.024886,0.109931,-0.001446,0.060985,-0.152356,-0.004582,-0.017142,-0.100952,0.064126,-0.091849,-0.109578,-0.030545
0.064381,-0.016284,-0.103555,0.000687,-0.136762,0.046877,0.017140,-0.035440,0.037670,-0.138550,0.083680,0.000107,0.004303,0.016887,-0.127158,0.070736,0.122801,0.101878,0.002578,0.063309,-0.081395,0.092400,0.134683,-0.011587,-0.036180,0.025763,-0.001004,0.109677,-0.073311,-0.055282,0.035399,0.066088
0.062869,-0.006883,-0.141260,0.024989,-0.017418,0.025969,0.045023,0.009375,-0.020358,0.053798,0.034071,0.039227,-0.085275,-0.119962,-0.006277,0.012535,-0.012730,0.044110,-0.044141,0.029267,-0.069532,0.086832,-0.028216,-0.047366,-0.081168,-0.051954,0.164489,0.046571,-0.068602,-0.089930,-0.049810,0.043583
-0.004435,-0.013830,-0.148608,0.070872,-0.175342,0.012914,0.139778,0.021853,0.070499,-0.167349,0.019222,-0.082129,-0.136947,-0.049837,-0.007569,0.014783,0.035784,0.076099,-0.046327,0.166499,0.000375,0.083994,0.071371,-0.130590,0.141092,0.049350,-0.041613,0.018885,0.043669,-0.055106,0.039489,0.067918
-0.000436,0.070619,0.200373,0.031704,-0.075947,0.050956,0.002804,-0.018120,0.086864,0.072590,0.025081,-0.019425,-0.074144,-0.080265,0.049878,0.064830,0.017514,-0.062140,0.052707,0.103472,0.054750,0.093367,-0.058567,0.066396,0.008998,0.074574,-0.036917,-0.033793,-0.019327,-0.030914,0.052620,0.003518
0.051568,-0.057361,0.071960,0.017674,-0.044124,-0.057180,0.024969,-0.074961,0.018319,0.048913,0.094844,-0.082567,0.203591,-0.142639,-0.074370,-0.006960,-0.015902,0.109242,0.005477,-0.012015,0.082842,0.064862,0.026961,0.048710,0.059254,0.013007,-0.022919,0.014882,-0.044484,0.028156,0.009513,-0.059406
0.000820,-0.033797,0.106330,-0.056361,0.046209,0.040618,-0.016925,-0.037577,-0.011327,-0.136295,0.008859,0.110574,-0.103657,-0.057659,0.022151,-0.101215,-0.058656,-0.012779,0.062716,0.005309,-0.101873,0.072725,-0.050935,-0.076489,0.113244,-0.055081,-0.048727,-0.041260,-0.077278,0.001822,0.053717,0.152454
0.058203,0.108756,0.133990,-0.013951,-0.123442,0.068875,-0.159881,-0.129265,-0.003734,-0.001725,0.002490,0.043483,0.041018,-0.067322,-0.004182,-0.034804,0.011129,0.123859,-0.022930,-0.072233,-0.099306,0.010874,-0.022086,-0.181911,0.002806,-0.090387,0.026291,0.004457,0.028672,0.001122,-0.096046,0.090539
-0.094803,0.011990,0.152294,0.070584,0.053799,-0.001529,0.017981,-0.016077,0.172240,0.128621,0.017232,0.031600,0.158179,0.046177,0.140425,0.026249,0.037737,-0.095920,0.061135,0.118071,-0.133461,-0.081547,-0.018435,-0.232313,-0.043297,-0.145425,0.029209,-0.122894,-0.115084,-0.079954,0.000478,0.100802
-0.089738,0.062521,0.051549,-0.003045,-0.024444,0.047363,0.059604,-0.070329,-0.063334,0.028593,0.110472,-0.065487,0.126905,-0.100363,0.108222,-0.041886,0.010335,0.189824,0.065613,-0.167283,-0.096355,0.010816,0.007351,-0.009457,-0.110144,-0.083027,0.057457,0.115078,0.053434,0.048159,-0.023949,-0.075516
-0.056995,-0.081710,-0.080442,-0.011449,0.053732,-0.100006,-0.007254,0.022872,-0.085117,0.036597,-0.050029,0.014002,-0.024096,0.073118,-0.104408,0.103927,-0.031800,0.018846,-0.002419,0.007941,0.093492,0.062531,0.030693,-0.039753,0.073778,-0.026332,0.019320,-0.072853,-0.057943,0.077511,0.077098,0.012973
0.041003,0.130875,-0.062697,-0.007066,0.035277,-0.154153,0.031179,0.057385,0.044084,0.020696,0.010567,-0.072701,-0.135068,-0.047166,-0.122642,0.037757,0.004087,0.070759,-0.165074,0.087071,0.060552,-0.147819,0.120414,-0.084441,-0.136539,0.192379,0.089136,0.077076,-0.130923,-0.054016,-0.063138,-0.007320
0.008806,-0.050252,-0.043551,0.039828,0.002453,-0.132648,-0.043164,0.077763,-0.154601,-0.006519,-0.014983,-0.062507,-0.020455,-0.016938,-0.024179,-0.009229,0.092505,0.061417,0.007223,0.039938,0.028547,0.028403,0.001423,0.028102,-0.009473,-0.172674,0.065643,0.036337,-0.013180,-0.007660,0.014603,0.099427
0.017125,-0.066128,-0.005833,0.045904,-0.028162,-0.063818,0.128774,0.031592,-0.048401,0.075010,-0.044382,0.011435,0.024884,-0.030967,0.015670,0.005421,0.050735,0.128948,-0.018535,-0.004869,0.001514,0.005105,-0.034073,-0.084294,-0.114870,0.005541,0.051326,0.034076,-0.042385,0.082094,0.057582,0.067700
0.121802,-0.053553,0.087049,-0.008780,-0.044709,0.066572,0.028198,-0.007535,0.066019,0.016119,-0.098648,-0.081132,0.045760,-0.041687,-0.023386,0.202425,0.062021,-0.016821,0.105379,0.000617,0.018096,-0.113083,-0.034898,-0.000695,0.001837,-0.024589,-0.028228,-0.015696,-0.101174,-0.015092,0.036361,0.016192
-0.046493,-0.000903,0.021512,-0.008898,-0.023607,0.052599,0.019734,-0.037357,-0.039178,0.148731,0.012025,-0.062052,-0.040194,-0.036468,0.107980,-0.082780,-0.062794,0.089420,0.093802,0.024603,-0.017412,-0.047916,0.012093,0.106381,0.030878,0.074472,0.082860,-0.048171,-0.046740,-0.046991,-0.092571,0.023381
-0.001255,0.025955,0.030464,-0.039315,-0.148753,0.027768,-0.109636,-0.035069,0.063940,0.012402,0.040709,0.084030,-0.005614,-0.113072,0.010330,-0.062698,-0.014270,0.091985,0.005802,0.104975,-0.045782,0.001428,0.016526,0.018711,0.050890,0.079965,-0.073632,0.014701,-0.009370,0.105396,-0.028160,0.030518
-0.073686,0.027552,-0.025145,0.019281,0.107349,0.056071,0.035342,-0.061695,0.014675,0.015582,0.103157,0.071192,0.065806,-0.001454,0.007792,-0.086888,0.091246,0.062387,-0.009922,0.179757,0.046444,0.044715,-0.067641,0.090735,-0.006005,0.068261,0.039778,0.068542,-0.026459,-0.057636,-0.114562,-0.016655
-0.015942,0.036642,0.069206,0.017976,0.056058,-0.052858,0.061286,-0.003446,0.098855,0.043015,-0.150122,0.004736,0.037523,0.010357,0.128919,0.013348,-0.071883,0.018091,-0.041451,0.123458,0.024634,0.088888,0.018968,0.030126,0.064741,-0.045448,0.073982,0.030173,0.055205,-0.033375,-0.027076,0.058473
-0.006926,0.025603,0.049255,-0.111537,-0.006384,0.059446,-0.083447,0.018158,-0.106194,-0.070557,0.075892,0.037613,0.079880,0.023320,0.027405,0.046745,-0.025799,-0.044937,0.059338,-0.104446,0.044919,0.034296,-0.002684,0.000350,-0.019619,0.048272,-0.013227,-0.021719,-0.007898,-0.056884,0.108848,-0.035725
0.096041,-0.163129,0.048927,-0.021780,0.008413,0.074280,0.057397,0.064915,-0.006523,0.136484,0.064717,-0.170806,-0.155812,0.009088,-0.026742,0.019133,-0.055584,-0.002518,-0.013457,-0.047339,-0.114497,-0.044212,-0.024249,-0.012400,-0.004309,0.015594,0.005728,0.001632,0.042791,0.056987,-0.032389,-0.006430
-0.033541,-0.055531,-0.007098,0.041757,-0.030769,0.034948,-0.001476,-0.017543,-0.026087,0.035925,0.202843,-0.098443,-0.062384,0.116233,-0.027226,-0.033068,-0.079722,-0.099593,0.124979,0.050509,0.023511,0.039492,-0.029529,-0.053768,-0.012433,0.073719,-0.112218,0.029411,-0.041595,-0.103460,0.056537,-0.135108
0.005603,0.104218,0.015144,-0.057404,-0.078375,0.077731,-0.001940,0.093102,-0.000338,0.066925,0.116714,0.096327,-0.182989,0.067262,0.057943,0.113374,0.064295,0.069681,0.073483,0.049079,0.039483,0.058398,-0.081322,-0.032079,0.074708,-0.061343,-0.039975,0.029374,-0.032789,0.002338,0.020857,-0.001364
0.003255,-0.012216,0.078629,-0.059218,-0.019887,-0.026243,-0.010195,0.013981,0.120677,-0.001310,0.078899,-0.097193,0.091156,0.076784,-0.098254,-0.015711,0.001176,-0.038629,0.040809,-0.090428,0.061904,0.102900,-0.155187,-0.007483,-0.051198,0.048167,0.002369,0.032222,-0.015370,-0.056195,-0.015651,-0.076382
0.029863,0.149952,-0.011815,-0.055706,-0.109448,-0.011768,0.060737,0.007211,0.053928,0.056374,0.014419,-0.034507,-0.102608,0.109622,0.049272,0.089466,0.046507,-0.030054,0.010167,0.008884,-0.136064,0.116596,-0.044814,-0.007358,-0.064791,-0.068366,-0.063018,0.018096,-0.016226,-0.031720,0.026524,0.029292
0.051709,-0.091773,0.136640,-0.014904,0.045484,-0.043688,0.147486,0.053090,0.027052,0.181941,-0.172260,0.065193,0.052958,0.035119,-0.041551,-0.001019,-0.038538,0.069638,-0.059899,-0.179276,-0.182321,0.014476,-0.057342,0.066486,0.011995,0.021529,0.006322,0.109159,-0.034093,-0.016126,-0.061027,0.062278
0.088820,0.068949,-0.031398,-0.106498,-0.073622,0.046509,0.045979,0.069065,0.131527,-0.020008,-0.153914,-0.006004,0.119823,0.000658,-0.095643,-0.035267,0.156245,-0.056110,-0.072003,-0.028032,0.043176,-0.016002,0.001689,0.097958,0.015864,-0.022205,-0.029651,-0.017951,-0.053292,-0.026051,-0.000799,0.066210
0.065908,-0.004236,0.082721,-0.210318,-0.092798,-0.026690,0.047550,0.068601,0.026454,0.076436,0.020020,0.040971,-0.089761,0.116154,-0.008551,0.080556,-0.022662,-0.108454,-0.027156,-0.012761,-0.012553,-0.027038,0.047449,0.033753,-0.106423,0.085716,0.068241,0.027327,0.101150,0.035163,-0.053883,0.077781
-0.004827,-0.128299,-0.057611,-0.025687,0.036685,-0.078385,0.129772,0.048158,-0.000174,-0.005739,-0.021335,-0.015281,0.062851,0.027347,0.069529,-0.093842,0.018225,0.036822,-0.156537,-0.004335,0.038047,-0.043545,-0.055846,0.083328,-0.033602,0.012444,0.018420,0.008608,-0.056093,-0.044149,-0.022032,-0.016222
-0.008908,0.046162,-0.054089,-0.039560,0.012512,-0.022616,0.049935,0.054847,0.081422,-0.094606,0.116098,0.117628,0.064383,-0.042720,-0.064305,0.039209,0.099719,0.117871,-0.021427,0.018330,0.053879,-0.147005,-0.151941,-0.075451,0.013236,0.033188,-0.004903,-0.007351,-0.107440,0.062376,-0.126581,0.024632
-0.009850,0.050544,-0.048333,0.007279,0.070924,-0.120726,0.065025,-0.022688,0.047016,0.040858,0.057047,-0.036510,0.154834,-0.142767,0.011754,0.124099,0.092350,-0.015734,0.006717,0.018727,0.026494,0.011607,0.085630,0.003415,0.003313,-0.094310,-0.043377,0.061969,-0.052076,-0.016799,0.044802,-0.015641
-0.068858,-0.010112,0.045880,-0.077854,-0.015911,-0.159491,0.036698,-0.010123,0.002186,0.041389,-0.063649,-0.067748,0.078772,0.051517,0.024706,-0.004765,0.050098,-0.103799,-0.074704,0.076153,-0.000660,-0.025878,-0.093596,-0.036352,-0.076454,0.072825,0.067476,0.149257,0.080877,0.029982,0.005808,-0.087188
0.049515,0.072570,0.108373,-0.118507,-0.018041,-0.014868,0.003824,-0.049348,0.099898,-0.179433,0.004481,-0.021290,0.104319,0.113716,0.091589,0.011989,-0.021322,0.036044,-0.015372,-0.062115,-0.005408,0.148873,0.081338,-0.105820,0.056549,-0.085183,-0.041732,-0.028887,-0.107403,0.041269,-0.011917,-0.022875
0.043045,0.100709,0.221576,0.155076,-0.137283,0.059144,0.010387,0.152814,0.077886,0.068490,-0.048927,0.005865,-0.067720,0.019000,0.007724,-0.010272,0.081697,-0.024177,0.039236,-0.089585,0.064444,-0.015690,0.086698,0.043056,0.017655,0.034853,-0.003137,0.010279,0.011541,-0.056873,0.132010,0.034732
0.072631,-0.052551,0.031750,0.125459,-0.006596,-0.033967,0.108896,0.003555,-0.098922,-0.024672,-0.021413,-0.022825,-0.011117,-0.031921,0.062190,0.003431,-0.031978,0.034261,0.010344,0.046179,-0.002796,0.027552,-0.079204,-0.089488,0.041110,-0.081476,-0.082829,0.034361,0.025362,-0.104318,0.039716,-0.027210
0.074572,-0.229420,0.115278,0.013324,-0.021894,-0.037452,-0.030085,0.004140,0.066140,0.031032,-0.001033,0.038775,-0.013160,-0.006849,0.135691,-0.119974,-0.030647,0.083797,0.027048,-0.068563,-0.046801,-0.057584,-0.083605,-0.118518,0.067016,0.069058,0.045415,-0.072445,-0.097585,-0.046331,0.069400,-0.037548
0.007643,-0.034760,0.146804,-0.038795,-0.050142,0.034480,-0.095106,0.069159,0.007350,-0.000631,0.034303,0.019909,-0.064221,0.058765,0.078106,-0.093280,-0.188143,0.032706,0.042943,-0.072699,0.065993,0.137588,-0.104997,-0.017678,-0.041326,-0.071551,0.003757,0.062075,0.067987,-0.028020,0.073645,-0.112689
-0.106989,0.056127,0.011786,0.193707,-0.019119,-0.038412,0.053630,-0.092537,0.050489,0.179265,-0.029979,-0.113361,-0.124590,0.037966,-0.059570,0.001891,-0.061471,-0.040360,0.004456,-0.002298,-0.009931,0.062015,-0.104082,0.025926,-0.026236,-0.070437,-0.075669,0.013020,0.060898,-0.148035,0.017900,-0.057595
0.028995,0.016901,-0.015965,0.033022,0.039729,-0.062093,0.053785,0.039968,0.185360,0.191746,-0.027951,-0.041441,0.037595,0.039043,-0.093927,0.137042,0.004692,-0.119746,0.053612,0.161305,-0.093381,0.159898,-0.094713,-0.082126,0.084983,-0.002588,0.039526,0.102098,0.062253,0.017370,-0.082985,0.197861
-0.008553,-0.023471,0.003930,0.038524,-0.017856,-0.041365,0.090567,-0.029473,-0.000107,-0.041745,-0.024805,-0.035034,-0.087737,0.047129,-0.034027,0.017367,0.025273,-0.043280,0.104578,-0.104598,0.038059,0.015107,-0.046988,-0.097602,-0.067960,-0.004253,0.092763,0.044389,0.014976,-0.038201,-0.105181,-0.038769
0.048770,0.015298,0.017293,0.077915,-0.097840,0.107230,0.098809,-0.082738,0.002561,0.166337,0.080581,-0.030506,-0.068112,0.001800,0.022827,0.113844,-0.054753,-0.041170,0.082598,0.055014,0.015043,0.040493,-0.020575,-0.157477,0.074313,0.019832,-0.074652,-0.020708,0.027141,0.020377,0.114713,-0.011865
-0.023889,-0.040089,0.138064,-0.007488,0.058358,0.152775,0.107706,0.069619,0.061199,-0.104511,0.062858,0.102324,-0.065738,-0.012320,0.109732,0.020956,-0.047647,0.094455,-0.012907,-0.229678,0.020851,-0.094065,0.034585,-0.024421,0.106044,0.093224,0.020649,0.103871,-0.051228,-0.004297,-0.018236,0.083541
0.077750,-0.005924,0.036785,-0.066402,0.079119,-0.045885,-0.011079,-0.166128,0.082282,0.005433,0.036593,0.204444,0.057719,-0.025671,0.094823,0.047694,-0.062087,0.085076,-0.016228,-0.046371,0.013136,-0.206544,-0.022138,0.074503,-0.063796,0.047411,0.009486,-0.046320,-0.105069,0.043497,-0.100499,-0.057781
-0.053392,0.007994,0.059640,-0.010051,0.083822,0.004219,0.098355,-0.015639,-0.103836,-0.198019,0.000697,0.042106,0.025920,0.059636,0.208425,-0.004045,-0.025928,0.082012,0.018405,-0.082336,-0.000295,-0.091947,-0.067084,-0.019883,-0.005135,0.015962,-0.136264,-0.091563,-0.003623,0.025079,0.092204,0.002115
0.043804,0.053882,-0.092725,-0.128199,-0.029006,0.048599,0.037731,-0.036643,-0.028446,0.116839,0.016739,-0.001425,-0.040827,-0.010247,-0.008700,-0.093182,-0.106693,0.002653,-0.093810,0.026575,-0.020707,0.115508,0.152821,-0.035195,0.068256,0.018997,0.100356,-0.050796,0.022447,0.131304,0.007762,-0.060282
0.000661,-0.000283,0.005363,0.030979,0.032205,0.107885,0.026267,-0.024280,0.029738,-0.120401,-0.095959,0.055119,-0.124150,-0.054842,0.060508,0.015440,0.065623,0.068618,-0.119026,0.143074,-0.020372,-0.154927,0.081131,-0.023456,-0.048222,-0.025278,0.046858,0.035832,-0.007881,-0.088175,0.045681,-0.014499
-0.026610,-0.024941,0.051561,0.044052,0.054673,-0.125485,0.054625,0.036048,0.092176,-0.006961,0.051070,0.117261,0.108325,-0.039761,-0.082289,-0.007347,0.005315,-0.057455,-0.023242,-0.092935,0.085919,-0.032652,0.015669,0.060729,-0.068344,-0.072983,0.012259,-0.027459,0.045605,0.000219,0.152365,0.108632
0.049690,-0.080664,0.051408,-0.009868,-0.072468,-0.021720,-0.086698,-0.041787,-0.005824,-0.029261,0.077267,0.110866,0.028164,0.168439,0.006772,-0.130463,-0.062634,0.135255,0.079908,-0.122949,-0.098479,-0.038891,-0.041050,-0.051587,-0.043288,0.016790,-0.043763,-0.024629,-0.023603,-0.085281,-0.036205,-0.033470
0.029012,0.010566,-0.058956,0.051114,0.001023,-0.067109,0.099875,-0.013802,-0.076673,0.115590,-0.054175,0.059746,-0.074097,-0.012800,-0.070832,-0.040096,0.097209,-0.000349,-0.041294,-0.003450,-0.131597,-0.048851,0.025675,0.053957,0.075164,0.028445,0.016744,0.080959,0.014471,0.023123,0.070757,0.041873
-0.025766,0.070081,0.011760,0.070755,0.066726,-0.104855,0.013081,-0.105130,-0.037067,0.020224,0.109354,-0.129855,0.019349,-0.005020,0.017334,-0.012250,0.047642,-0.081428,0.109740,-0.021425,0.027655,-0.090762,-0.007219,-0.072970,0.019046,0.021370,-0.046739,0.056707,-0.017179,0.029121,0.072699,-0.093156
-0.048981,0.077653,-0.063623,0.012733,-0.044275,-0.036432,0.008072,0.092371,-0.082465,-0.021295,-0.015495,-0.098704,0.033824,0.216157,-0.007036,0.066782,-0.052552,0.003900,0.013342,0.005339,-0.050523,0.020240,0.021423,0.143588,0.098361,-0.088309,0.092541,-0.044180,0.030725,-0.018356,0.050197,-0.006768
0.006696,-0.143414,-0.092010,0.054024,0.007431,-0.063618,-0.000479,0.044752,-0.032925,-0.005269,-0.024677,0.047808,0.033755,0.102640,-0.184041,0.002894,0.022653,0.035028,0.102915,0.009526,-0.030676,0.007748,-0.160852,0.059956,-0.133231,0.005551,-0.082005,0.076323,0.067947,-0.113567,0.007781,0.052310
-0.048100,-0.109622,0.002238,-0.020160,-0.043814,0.096783,0.203889,-0.131242,-0.012179,0.020661,-0.132578,-0.094625,-0.106903,0.170422,0.127488,0.096094,0.022781,-0.091098,0.081143,-0.106966,0.070855,-0.077458,0.007076,-0.049002,0.122925,0.184230,-0.044670,-0.097456,0.085409,-0.054847,0.126953,-0.082882
0.082404,0.078877,-0.008125,0.069765,0.008845,-0.099452,0.142215,-0.025844,0.082222,0.196511,0.003584,-0.034538,-0.118845,-0.083586,-0.085840,0.034170,0.022924,-0.064801,0.022855,0.025584,0.094395,0.016254,0.027578,0.089833,-0.070143,0.003794,-0.031340,0.092806,0.086941,0.068714,-0.010516,-0.108064
0.082255,-0.042112,0.025433,0.117324,0.020306,0.042751,0.106349,0.050323,0.022734,0.201113,0.014150,0.022507,-0.244378,-0.012951,0.029447,0.092372,0.049688,0.066203,-0.013418,0.091134,-0.136411,0.091036,-0.038648,-0.052252,0.099901,-0.082541,-0.016476,0.194476,-0.017187,0.031172,0.003148,0.009660
-0.019217,0.031319,-0.032125,0.071641,-0.085723,-0.060128,-0.078989,-0.013131,-0.030808,0.094021,-0.130115,-0.100807,0.002050,-0.043814,-0.131158,0.071681,-0.012313,-0.066953,-0.018935,0.017078,-0.004637,0.124719,-0.087168,-0.084900,0.061574,-0.052448,0.027239,-0.047580,0.017452,-0.020443,-0.019743,0.038958
0.037365,-0.117652,0.109329,-0.135036,0.108933,-0.031868,0.012289,0.038329,-0.050466,0.011724,0.070362,0.098751,0.057404,0.092714,0.174037,0.092446,0.115421,-0.014626,0.016525,-0.030937,0.012736,0.080901,-0.068843,-0.012171,-0.027658,-0.029256,-0.018000,-0.036667,-0.159293,-0.003335,0.080279,-0.113015
-0.044648,0.008111,-0.058359,0.142102,-0.057337,0.050927,0.054842,0.045321,-0.045564,-0.052752,-0.043878,-0.011814,0.076226,-0.001946,-0.095115,0.059110,0.026327,-0.114867,-0.205092,-0.110264,0.076154,-0.148304,-0.062958,0.086432,0.078454,-0.003387,0.056751,0.066385,-0.040044,-0.033721,-0.104972,0.029990
0.055625,-0.024965,0.003080,-0.100106,-0.040850,-0.116939,-0.056250,0.022833,0.033078,0.036654,-0.013737,0.094602,-0.032527,0.039679,-0.070767,0.038994,-0.053650,-0.065359,0.003890,-0.058283,-0.046112,-0.040006,0.039101,0.037645,-0.011803,0.017616,-0.037108,-0.104328,0.049142,0.007000,0.060586,-0.061213
0.068649,-0.025283,0.068945,-0.033279,-0.082493,-0.017787,-0.029123,0.107960,-0.009405,-0.027004,0.065796,0.009021,0.022946,-0.166793,-0.009456,0.103014,-0.029622,-0.049975,-0.076891,0.031657,-0.046082,0.145375,0.020203,0.080511,-0.001168,0.002876,0.028968,0.041270,-0.018039,0.049732,0.104248,-0.097215
-0.010823,0.024794,0.070312,-0.063739,0.071662,-0.006188,0.135750,0.003736,0.027666,0.021291,-0.077608,0.101288,0.083144,-0.125164,-0.115687,0.039294,0.010595,0.085177,0.003645,-0.067531,0.016958,-0.028287,-0.023544,0.023386,0.045358,-0.036412,-0.105103,0.068848,0.079849,0.022715,-0.014186,0.089404
0.028235,0.016905,0.000845,0.038424,-0.167189,-0.005799,0.082279,-0.063293,0.104812,-0.066635,-0.032907,-0.122454,-0.055683,0.062373,-0.074840,-0.228134,0.016743,-0.090751,0.012708,0.128721,0.101548,-0.045589,-0.010668,-0.058520,0.061792,-0.019713,0.056023,-0.101683,0.031652,-0.064971,0.145503,-0.083226
-0.015756,0.129557,-0.137234,0.102865,0.029903,-0.021850,0.095422,0.094964,-0.107574,-0.049960,0.072555,0.019871,0.041893,0.113961,-0.035012,0.117190,-0.017291,-0.025494,-0.087108,-0.033717,-0.072319,-0.033306,-0.022575,0.011870,-0.029565,0.079969,0.014557,-0.021812,0.103476,-0.092991,-0.103855,0.046559
0.020498,-0.060627,0.016067,0.001690,-0.053268,-0.039534,-0.022343,0.113407,0.063384,0.262735,0.032047,0.042057,0.038175,-0.043952,0.096361,-0.092493,0.041199,0.047023,0.013112,-0.096142,0.001009,-0.002202,-0.029107,-0.071259,0.006229,-0.136492,-0.067682,-0.141445,-0.033547,-0.048565,-0.046607,0.033706
-0.064951,0.078826,0.000325,0.023650,0.094343,-0.112196,-0.070924,0.036438,-0.068515,0.052948,-0.032249,-0.038085,-0.070487,0.003676,0.052915,-0.071123,0.122561,-0.074555,-0.025499,-0.033152,0.042756,-0.038685,0.027382,0.082992,-0.103497,0.118219,0.021111,0.014175,0.004103,0.009521,-0.069054,-0.024246
0.074950,0.030661,0.086666,-0.046612,0.056360,0.006601,-0.018985,0.027245,-0.108928,-0.009365,0.079721,0.034224,-0.164871,0.121655,0.049169,-0.073128,0.013348,0.096867,-0.020547,-0.145559,-0.004660,0.113100,-0.011562,0.015301,0.004221,0.073190,-0.012685,-0.015180,0.026646,-0.136436,-0.034414,-0.107684
-0.059088,-0.102069,0.129971,0.045923,0.018644,0.049808,-0.111735,0.136736,0.086376,-0.041211,-0.021528,0.025645,-0.104904,0.136379,-0.031757,-0.106866,-0.113747,-0.010621,-0.006729,-0.022389,0.029331,-0.104147,-0.026567,0.036870,0.024325,0.065841,-0.064571,0.124516,0.064398,-0.068743,0.007768,0.019662
0.086656,0.077652,-0.106012,0.028944,0.006550,0.133381,-0.032172,0.079661,-0.096806,-0.019345,-0.021968,0.000998,-0.056669,0.053289,-0.031744,0.185310,-0.066024,0.067467,-0.093490,-0.003236,-0.094364,-0.018882,0.114118,-0.034095,-0.009728,0.071799,0.039132,-0.037714,0.022141,-0.115246,-0.071810,-0.063218
-0.119176,0.009448,0.087913,-0.027164,-0.128607,0.017773,0.038155,-0.138454,0.038310,-0.072922,-0.223019,-0.123075,-0.151995,0.155789,-0.116674,0.001138,0.119727,-0.094117,0.020883,-0.078090,-0.004303,0.111607,0.006062,-0.043422,0.032348,-0.003348,-0.043124,0.058290,-0.035340,-0.020830,-0.016712,0.058000
-0.053553,-0.160842,-0.045984,-0.032731,0.020903,0.050222,0.035710,-0.051894,0.028257,-0.078020,-0.171136,0.022360,-0.109059,0.066307,-0.010285,0.052811,-0.123267,-0.056277,0.010838,0.019914,-0.013659,0.024445,0.048941,-0.006917,0.048679,-0.026017,0.003452,-0.046889,-0.049756,0.125751,0.138502,0.106476
-0.093926,-0.006939,-0.091021,0.034094,0.077011,0.061245,0.010120,0.010062,-0.058658,0.160959,-0.005580,0.068451,-0.118350,0.230431,0.059095,0.044813,-0.029050,-0.024320,0.076859,-0.019972,0.100605,-0.127446,0.028235,0.054979,0.079476,0.072354,0.095989,0.100112,0.016208,0.063151,-0.058185,0.037878
-0.114389,0.068825,-0.151785,-0.005927,0.037646,0.006926,-0.086795,-0.069373,-0.009558,0.159042,-0.008790,0.031884,0.066025,-0.014287,0.047290,0.124566,-0.075832,-0.033069,-0.105040,0.054536,0.001649,0.016084,0.029475,-0.105165,-0.046639,-0.079556,-0.088905,0.037223,0.050120,-0.078431,-0.037191,0.089449
0.074042,-0.031138,-0.161023,0.029803,-0.039024,-0.108536,-0.035720,0.036399,-0.177094,0.012078,0.002558,0.030832,0.204966,-0.031119,-0.081492,-0.057033,0.010988,0.042759,-0.016538,0.052147,-0.023303,-0.007333,-0.042720,-0.110836,0.121412,0.067880,-0.058542,-0.001416,-0.032377,-0.023114,-0.041147,-0.031720
0.018984,0.025449,-0.032848,0.155718,0.006240,-0.069499,0.063839,0.023586,-0.184256,-0.008582,0.037402,-0.020762,0.044473,0.017824,-0.039670,0.051760,0.078933,-0.114979,0.015631,0.045694,0.155289,0.007920,-0.014500,0.076198,0.031687,0.027515,-0.090611,0.015102,0.086359,-0.004330,-0.085391,0.036450
0.014314,-0.159459,0.053046,-0.000496,-0.033632,-0.084660,-0.041825,-0.038691,-0.046882,0.032926,0.026069,0.123250,-0.005512,0.135346,-0.043577,-0.225109,0.127791,0.005885,0.069821,0.034926,-0.000364,-0.023808,0.054267,-0.055728,-0.033953,-0.020446,0.020355,0.124154,0.051140,0.050138,-0.013205,0.171328
-0.074347,-0.089112,-0.054816,-0.067021,-0.013201,0.038537,0.000546,-0.028946,0.027836,0.105235,0.043705,-0.058359,0.123427,-0.126667,-0.063269,-0.087044,-0.093324,-0.090040,-0.093999,-0.105287,0.040260,-0.047477,-0.080854,0.109026,-0.046933,0.022426,0.084185,-0.010269,-0.069044,0.003908,0.008948,-0.108903
0.017254,-0.050219,0.075512,0.098950,-0.045421,0.145544,0.074640,0.035778,-0.006100,-0.012583,0.078317,-0.052346,0.077482,-0.071891,0.093390,0.073375,-0.039353,0.064750,-0.000167,0.067116,-0.111502,0.001798,0.104217,0.007110,0.048517,-0.104568,0.067723,-0.004153,0.021515,0.050612,0.031174,-0.055665
-0.029747,-0.145432,-0.068266,0.005088,0.056872,0.018900,-0.072437,0.052303,-0.000577,-0.009167,-0.057526,-0.103794,0.032553,0.075713,-0.040766,-0.028759,0.091030,0.068560,0.037264,0.250838,-0.021787,-0.145347,-0.047673,-0.062895,-0.025354,0.058379,-0.064895,0.094755,-0.056570,0.014041,0.117587,-0.106723
0.033240,-0.077751,-0.032698,0.026445,-0.084834,0.091534,0.006529,0.118378,0.111922,-0.143293,-0.080350,-0.132739,-0.142201,0.047780,-0.123027,-0.072252,0.066478,-0.017816,-0.068921,0.062462,-0.018461,-0.026467,-0.049751,-0.043883,0.008547,0.068323,0.046558,0.100980,0.013718,-0.018482,-0.053275,-0.015342
0.076904,0.003805,0.011069,-0.104244,0.035967,0.084316,0.086687,0.120475,-0.162365,-0.013570,-0.011993,0.078017,0.006141,0.005373,-0.033803,0.122122,0.078268,0.118624,-0.051623,0.019396,0.142868,0.042835,0.144631,0.123131,-0.069392,-0.057850,-0.093300,-0.046232,0.063632,-0.041452,-0.043315,-0.001156
0.069103,0.040019,0.022366,0.066559,0.052226,0.007552,-0.002139,0.001513,-0.056143,-0.140247,0.070176,0.133207,-0.025752,0.124769,-0.044192,-0.146072,0.056661,-0.040075,-0.082067,-0.070410,0.107444,-0.165481,0.078830,0.027957,0.043388,-0.208886,0.044562,0.040851,0.110288,-0.127921,-0.076528,0.008387
0.045954,-0.103647,0.048708,-0.196780,-0.035983,0.102492,-0.031717,0.177937,0.108913,-0.069018,-0.013722,-0.078380,-0.066773,0.044186,0.069509,-0.020391,0.001559,-0.058282,-0.048709,0.035449,0.033343,0.038689,-0.052090,0.062119,0.017695,-0.027191,-0.041746,0.040759,-0.173216,-0.098250,-0.138925,-0.023749
0.040503,-0.034017,-0.059054,-0.055206,-0.050543,0.088676,0.033986,-0.058167,-0.005551,-0.050308,-0.075054,0.017647,0.068098,-0.052244,-0.089998,-0.073041,0.074346,-0.042331,-0.005270,-0.019322,0.095099,-0.146929,0.069342,0.039444,0.018737,0.050740,0.015849,-0.007764,0.008354,-0.021048,-0.013892,-0.047943
-0.041091,0.055842,0.058032,0.002487,-0.048936,-0.023228,-0.074943,0.056949,0.090685,-0.014688,0.082138,0.035612,0.029479,0.079810,0.009580,0.061155,-0.192931,0.046965,0.096138,0.053351,0.133229,-0.119852,-0.050475,-0.003627,0.093598,0.026257,-0.035235,-0.072701,0.067544,-0.060638,0.045358,-0.021394
0.061804,0.038769,-0.016822,0.006972,0.085578,0.039882,0.082356,0.032835,-0.043831,0.081896,-0.199850,0.016792,-0.019621,0.095360,-0.079486,-0.016937,0.064701,0.067611,0.102435,-0.184721,0.003639,-0.027801,0.039630,0.162015,-0.071756,-0.121615,-0.065813,0.022692,0.090443,0.054613,-0.063732,-0.037175
-0.022286,-0.005788,-0.127355,0.065814,-0.011519,0.032832,0.007764,0.025821,-0.104646,0.042404,0.030661,0.002618,0.015088,0.051562,0.078372,0.085964,0.078498,0.031437,-0.099367,-0.067782,-0.002688,-0.105621,0.020179,0.007650,0.014900,-0.072733,0.002597,0.045851,-0.059415,0.056191,0.096569,0.082668
0.076551,0.025375,0.114322,-0.017512,-0.020097,-0.075170,0.011189,-0.091160,0.052323,0.122976,-0.011821,-0.016623,0.053792,-0.017012,-0.163702,0.025541,0.090009,0.005665,-0.022355,-0.080726,-0.077578,-0.096098,-0.016070,-0.124538,-0.088339,-0.046686,-0.028192,-0.004683,-0.013422,0.124652,-0.026112,-0.135714
0.020086,-0.100478,-0.121587,-0.123953,0.054851,-0.104383,-0.026819,-0.006673,-0.127292,0.064754,0.004438,0.022552,0.014743,0.190955,-0.018121,-0.018157,0.094333,-0.195579,0.008859,0.078587,-0.100866,0.010194,-0.139889,-0.007922,0.088801,0.118218,-0.075710,0.067371,-0.148320,0.031278,0.019492,0.145866
0.056738,-0.046922,-0.027833,-0.099472,0.168924,-0.033786,-0.137044,0.091697,0.040604,0.147604,0.004944,0.032419,0.071229,0.074165,-0.094852,0.086830,-0.071541,0.077847,0.013463,-0.018791,0.027214,0.068121,0.085672,0.002790,-0.021270,0.086673,-0.143793,0.154259,-0.058966,0.020706,0.033242,-0.080622
0.024750,-0.093550,0.100269,0.165438,0.055764,-0.032446,0.087122,0.029250,0.003319,-0.084233,0.027572,0.055994,-0.006729,-0.026278,-0.055747,0.041502,-0.061451,-0.042498,-0.052394,-0.055868,0.039157,0.005994,0.103887,0.012378,-0.107029,-0.061159,-0.044363,0.020349,-0.121281,0.159164,-0.057508,0.161580
0.052884,0.153130,0.080640,0.089305,-0.040212,-0.035602,0.019657,0.050374,0.011380,0.124582,-0.067420,-0.035785,-0.061882,-0.068778,-0.033121,-0.048188,0.041840,-0.067179,-0.099405,-0.022252,-0.150497,0.018973,-0.000219,-0.053723,0.077162,0.015669,-0.063345,0.045146,0.091688,-0.041714,-0.027413,0.066647
-0.059100,0.086708,-0.001940,0.003587,-0.008807,0.005916,-0.057249,-0.131965,0.062944,0.088293,-0.070795,-0.090470,-0.027126,0.023333,0.027336,-0.089861,-0.135651,-0.136286,-0.010238,-0.109387,0.021692,0.048648,-0.042146,-0.024034,0.014246,-0.069413,0.089825,-0.049302,-0.027005,-0.023412,0.052216,-0.001143
0.112625,0.071980,-0.030887,-0.036812,-0.013561,-0.101660,0.003749,-0.013730,-0.135582,-0.081143,0.130745,-0.058172,0.045365,0.040119,0.005501,0.156237,-0.052150,-0.006614,-0.057807,0.123417,-0.019512,0.050871,0.017760,0.060934,0.001252,0.070406,-0.088415,0.056305,-0.043151,0.037881,-0.057919,0.020870
-0.008292,0.005667,0.011840,0.086799,0.048465,-0.022681,0.074736,-0.014449,0.102601,-0.092313,0.000847,0.050960,0.050155,-0.084975,0.001364,0.017863,-0.044159,0.005961,0.009413,0.028915,-0.086170,-0.090573,-0.009464,-0.041231,-0.090000,0.022509,0.062144,0.023332,-0.079015,0.036709,0.177125,-0.086411
-0.020536,0.027508,0.013158,0.054556,-0.074246,-0.115726,0.007155,-0.018551,0.017420,0.039999,-0.024872,-0.027884,0.060443,0.067600,-0.022118,-0.129425,0.090329,0.124573,-0.038119,-0.021768,-0.010911,0.227939,0.146480,0.062139,-0.036653,0.027384,0.003068,-0.104838,0.083448,0.056902,0.043560,-0.027059
0.010299,0.080394,-0.075477,-0.138178,0.029650,0.127569,-0.091235,-0.045377,-0.038945,0.022528,0.015701,0.048310,0.081259,0.154448,-0.128731,-0.037252,0.078549,-0.096886,0.051024,0.001853,-0.038873,-0.056668,-0.001602,-0.061249,0.076838,-0.133784,-0.054587,0.053507,-0.040327,-0.037773,-0.031164,-0.009315
0.027786,-0.127829,-0.125355,0.028813,0.222565,-0.040652,0.064842,-0.113932,-0.056460,0.062814,-0.023880,0.022770,-0.021654,-0.146397,0.042054,-0.029417,0.042794,0.025790,0.116875,-0.032320,0.005706,-0.072774,0.075816,-0.015633,0.040959,-0.043906,0.022349,-0.042153,0.080121,0.159726,0.046992,-0.138332
0.160667,0.000519,0.094819,-0.148184,-0.010019,0.114696,0.021697,0.010805,0.078185,0.052803,-0.032530,0.180992,-0.012287,-0.104810,-0.079677,-0.026167,0.020862,0.124310,0.005402,-0.067960,0.072530,-0.112428,0.014835,0.001596,-0.044894,-0.096413,-0.075386,-0.055518,-0.046383,0.078818,0.022078,0.027136
0.003268,-0.066675,0.065622,0.141493,0.047333,0.048993,-0.032545,0.005683,0.067729,0.039840,0.105645,0.043102,0.121030,-0.061774,-0.077442,0.029582,0.011943,-0.177174,0.138359,0.033209,0.037068,-0.104392,0.081004,0.022803,0.092240,-0.005809,-0.098598,-0.055045,-0.024255,0.057792,0.030905,0.058461
0.160627,-0.020038,0.007056,0.014522,-0.118284,-0.005208,0.103206,0.135484,-0.032209,0.049029,0.082288,0.016585,0.005480,-0.071337,0.009138,0.062493,0.079444,0.048346,0.008896,-0.064002,0.133444,-0.015113,-0.073712,-0.011091,-0.155459,0.176578,-0.007231,0.000821,-0.018584,-0.105144,0.009919,-0.050726
-0.001649,-0.042914,-0.017500,0.072613,0.058081,-0.043688,0.013654,0.033656,0.050963,0.035440,-0.070146,0.091037,-0.204581,-0.014454,-0.012504,-0.018011,-0.019778,0.149343,-0.042242,0.044275,-0.191398,-0.036656,0.065024,-0.047966,-0.128821,-0.044700,0.044313,-0.063531,-0.015377,0.031400,0.067908,0.045127
-0.033802,0.030277,0.015955,0.041257,0.002878,0.076199,-0.022498,0.057138,-0.090156,0.138058,0.048199,-0.109433,-0.011216,-0.061950,0.085722,-0.090429,-0.030984,0.002420,-0.089234,0.098568,-0.013655,-0.060333,-0.046376,-0.009233,-0.020873,-0.038271,0.071933,-0.078494,-0.028497,-0.074844,-0.159033,0.070934
0.067399,-0.027843,0.014062,0.060951,-0.073337,0.137691,-0.019230,0.037905,0.151844,-0.047320,-0.101712,-0.057430,0.001323,0.097251,-0.052160,0.038259,0.078684,0.062076,0.018716,0.039627,-0.009621,-0.002647,-0.123131,0.011961,0.039042,0.079494,-0.011399,-0.063288,-0.197201,0.003517,-0.002164,0.039388
0.011296,-0.007676,-0.007335,-0.036087,0.087864,0.006872,0.049105,-0.164667,0.097584,-0.107879,-0.134770,-0.013118,0.037228,0.073001,0.087657,0.038152,0.003350,0.055038,0.020618,0.051486,-0.004995,-0.151984,-0.033523,-0.056739,0.105708,-0.008901,-0.056884,-0.088117,0.029699,-0.059628,-0.002920,0.074195
-0.079977,0.031283,-0.029414,-0.114791,0.060055,-0.137390,-0.065886,-0.182383,-0.065615,-0.160727,-0.193998,0.009760,-0.000926,-0.111376,0.080849,0.164802,-0.028059,-0.112660,-0.038153,0.076202,0.076906,0.029009,-0.082900,0.027469,0.049136,0.031227,0.013516,0.056830,-0.152406,-0.094122,-0.019271,-0.006780
0.046682,0.043905,-0.024870,0.082178,0.062987,-0.012651,0.077205,0.061451,-0.122597,0.010727,0.014042,-0.129148,0.056357,-0.141988,-0.001416,0.109339,-0.005255,-0.029198,0.016834,0.128321,-0.076611,-0.051532,-0.059853,-0.045236,-0.065204,-0.049445,-0.091756,0.028469,0.065426,-0.144718,0.088631,0.050300
0.098288,0.079865,0.051769,0.095089,-0.149733,-0.115293,-0.061111,0.010555,-0.028785,0.116673,-0.062413,0.009117,0.071688,-0.017987,0.076647,-0.107094,0.022233,-0.144726,-0.010378,-0.033234,0.034018,-0.044945,-0.089817,-0.123292,0.081816,0.048302,-0.039129,-0.127930,0.003434,-0.060360,-0.025731,0.039399
0.004561,-0.041177,0.093253,-0.044923,-0.002762,-0.001336,-0.024962,-0.061628,0.091698,-0.000043,0.104728,-0.050409,-0.028595,0.118739,-0.072269,-0.069575,0.000621,0.042787,0.030209,0.005120,0.009198,-0.021042,0.041582,-0.092056,-0.020128,0.096212,-0.088476,-0.077758,0.074620,0.064544,0.032738,0.038295
-0.084234,0.034319,0.190130,-0.037618,0.017353,-0.062442,-0.078412,-0.091566,0.033786,-0.083403,0.005714,0.044829,0.128021,0.019244,0.031805,-0.023820,0.031219,0.026882,0.044789,0.006424,-0.058304,-0.053868,0.073292,-0.007361,-0.049845,0.012062,-0.009407,0.048719,-0.105806,0.073923,0.081032,-0.033260
0.070160,-0.019139,0.146999,0.074946,0.087623,0.011149,0.119118,0.003624,0.162935,-0.089763,-0.067395,0.010444,0.166283,-0.050817,-0.072198,-0.026727,-0.002219,-0.143210,-0.027726,0.099536,-0.148534,-0.026760,0.016291,-0.014502,-0.031665,-0.000321,-0.089971,-0.040174,0.040877,-0.101053,-0.001757,0.048715
0.007368,-0.025828,0.021174,-0.054025,-0.055022,-0.077866,-0.017779,-0.036757,0.026387,-0.098600,0.020312,-0.022671,0.092943,-0.012318,-0.126525,-0.088276,0.078388,0.056749,-0.085692,0.075188,-0.008763,0.089273,0.005262,-0.035160,-0.003812,0.039127,0.037152,0.049333,-0.001999,0.006958,-0.039453,-0.017060
0.091924,-0.050026,0.027502,-0.004272,0.029974,-0.013107,0.075528,0.083838,0.026172,0.062539,-0.118193,0.061614,0.034095,0.045039,-0.015205,0.003246,0.080058,0.061311,0.110864,-0.026922,-0.025539,0.040985,-0.015642,0.000618,0.044627,0.009435,0.077742,-0.089940,-0.000098,0.003277,-0.094193,-0.008397
-0.018577,0.016683,0.029455,0.067208,-0.006660,-0.069048,0.061051,-0.056682,-0.024809,-0.001458,-0.049399,-0.174595,0.038355,-0.066119,-0.023034,0.067166,-0.077106,0.096765,0.050720,-0.006172,0.039185,0.009643,-0.028580,0.101288,0.014704,0.015891,-0.058785,-0.074166,-0.004319,-0.029702,0.040928,0.036329
0.142590,-0.073778,0.006299,-0.036160,-0.159045,-0.049773,0.038788,0.097864,-0.011484,-0.100559,-0.009546,0.091843,-0.075654,-0.021837,-0.060041,-0.017703,-0.043249,-0.042672,0.069432,0.030127,-0.022972,0.121614,0.178066,-0.070475,-0.146150,-0.035359,-0.157860,-0.089833,0.057584,-0.033949,0.056249,0.013104
-0.196224,0.089827,0.036530,-0.012070,0.107134,0.042110,0.040781,0.109925,0.049386,-0.033283,0.033510,-0.086623,-0.074196,-0.007308,0.053614,-0.101943,0.084605,0.019586,0.045120,-0.133842,-0.011078,-0.057906,-0.113303,-0.027089,-0.049265,-0.050326,0.061858,-0.129141,0.060504,0.020168,-0.017669,0.149449
0.066084,-0.097150,0.014664,-0.012452,-0.023774,0.071030,-0.065988,-0.010591,-0.068362,0.048654,-0.027484,0.150169,-0.069070,-0.009589,0.069683,0.046715,-0.001251,0.063566,0.021206,-0.069826,-0.077483,-0.109274,0.015977,0.024483,-0.095987,-0.022684,-0.004339,-0.004674,-0.109192,0.114878,-0.058368,-0.115731
0.021067,0.026984,-0.060228,0.027922,0.055038,0.073359,-0.108835,-0.108438,0.004479,0.014395,0.057637,0.112870,0.000651,0.023701,-0.004665,-0.067985,0.016874,0.129824,0.000164,0.027746,-0.032659,-0.102002,-0.010562,-0.158544,0.041323,0.157072,0.053183,0.060961,0.066639,0.012907,-0.047072,-0.157629
-0.033785,0.019339,0.008320,-0.017658,-0.097573,-0.068469,-0.078719,0.169628,-0.152176,0.032112,0.120987,-0.072278,-0.107378,0.009921,-0.072345,-0.081842,0.190659,-0.057915,-0.035386,0.062992,-0.101334,-0.103692,-0.111853,-0.055652,-0.064152,0.012919,0.081943,0.058308,0.067264,0.011519,0.118304,0.096026
0.074717,-0.060580,-0.054111,-0.078144,0.056656,-0.019166,-0.021213,-0.047656,0.011929,-0.061767,-0.076947,-0.020593,0.071073,-0.005356,-0.085389,-0.049893,-0.043964,-0.063986,0.094768,-0.122269,-0.016879,-0.020520,-0.014701,-0.052209,-0.059876,-0.007126,-0.012642,-0.028112,-0.039775,0.046976,-0.083777,-0.014493
0.081640,0.093492,-0.050537,0.063343,0.123260,-0.022218,-0.013157,-0.029077,0.116864,-0.084404,0.067445,0.054152,-0.067614,0.005516,-0.053407,-0.113975,-0.047664,-0.033982,0.035837,-0.033814,-0.020413,-0.012779,0.015297,0.077034,-0.054940,-0.002344,-0.001132,-0.082680,-0.002897,0.123632,-0.038472,0.095875
0.160153,0.081548,-0.032305,-0.163553,0.042909,0.014811,0.087400,-0.020871,0.079571,0.023467,-0.020555,0.004980,-0.038034,0.007134,-0.019325,-0.007677,0.019074,0.046661,-0.046931,-0.019842,-0.169822,0.041905,-0.048346,-0.017859,0.079530,0.074221,0.142438,0.078866,-0.071481,0.077938,0.102057,-0.078048
0.104986,0.141141,0.039354,-0.069549,0.241081,-0.002750,0.050066,-0.019284,-0.056788,0.166444,-0.015074,0.064613,0.040835,0.049639,-0.068238,0.172812,-0.175192,-0.026179,0.057605,-0.030080,-0.091089,0.017721,0.007744,0.090563,0.155183,-0.048700,-0.082309,0.064606,0.035595,0.001043,-0.077857,-0.114469
0.015248,0.058560,0.042436,0.035383,0.052176,-0.149802,0.100829,-0.063531,-0.120415,-0.035928,-0.023254,0.037784,0.002647,0.010629,0.093233,-0.030863,0.006587,0.093382,-0.046697,-0.142794,-0.036050,-0.051284,0.017197,-0.035061,-0.036043,-0.112790,-0.087610,-0.084312,0.017795,-0.057165,-0.037865,-0.063446
0.090310,-0.038081,-0.017978,-0.020608,-0.024788,0.033741,-0.023354,-0.122291,0.014804,-0.149309,0.116966,0.121518,0.092348,0.007293,0.036299,0.031438,0.038581,-0.039569,-0.007293,-0.013072,-0.008478,-0.069930,-0.078293,-0.002551,-0.068121,-0.055847,-0.026869,-0.011042,0.142676,-0.005824,-0.083423,-0.044568
0.037063,0.035517,0.036664,-0.004434,0.039005,0.023074,0.104929,-0.135349,-0.023460,0.168064,-0.147183,0.100878,0.060811,-0.036179,-0.024743,-0.142531,-0.055209,-0.044189,-0.037715,-0.127075,-0.006193,0.077305,-0.041008,0.047673,0.024892,-0.141737,-0.075606,0.136152,0.057090,-0.012788,-0.045476,-0.090788
0.055511,0.002336,0.111464,0.075614,0.070888,0.123587,-0.096783,0.153402,-0.118025,0.078379,-0.003900,-0.031106,0.022590,-0.007490,0.058247,0.076523,0.015560,-0.091138,0.079027,0.016338,-0.100139,-0.148347,-0.045669,-0.001376,0.021568,-0.012369,-0.078961,0.053106,-0.003997,0.055024,-0.043362,-0.073881
0.074862,-0.040469,0.027116,-0.025799,-0.089001,-0.031017,-0.014291,0.013633,-0.000074,-0.174493,0.069092,-0.190533,0.022325,-0.014220,0.147155,0.013818,0.112830,0.035069,-0.006743,0.091731,0.108660,-0.004071,0.080996,0.076150,-0.016333,-0.014102,-0.041160,-0.068223,0.062842,-0.036724,0.006263,-0.147590
-0.072918,0.074282,-0.017784,0.034745,0.053384,0.034894,0.021572,0.032270,0.012086,-0.128196,-0.014976,-0.079755,-0.020176,0.111477,-0.111840,0.017393,0.082856,0.045363,0.097773,0.026948,0.102889,0.058089,0.083440,-0.049961,-0.112890,0.049949,0.027703,0.025041,0.034744,-0.006322,0.018899,0.133220
-0.031241,-0.047577,-0.036898,0.035504,-0.001614,-0.071246,-0.028616,0.143729,0.000826,-0.093129,0.237911,0.005723,-0.142715,0.007385,-0.084542,0.002803,0.056293,-0.029975,0.094383,-0.032006,-0.085563,-0.064070,-0.005076,-0.115136,-0.086435,0.011734,0.043316,0.084434,0.157293,0.069071,0.001244,-0.071483
0.043893,0.047708,0.069864,-0.071037,0.006395,0.063873,0.031328,-0.045448,-0.003743,-0.115716,-0.097832,-0.000926,-0.009622,0.011392,-0.048926,0.044895,0.060574,-0.020027,-0.006720,-0.029592,-0.138564,0.065597,-0.016282,0.076769,0.043282,-0.086994,-0.027523,-0.066388,0.045125,0.045129,0.078234,0.042088
0.000571,-0.061322,0.092868,-0.081877,-0.023371,0.029449,-0.013427,-0.090610,0.013423,-0.032555,-0.051935,-0.013664,-0.050070,-0.050850,-0.071824,-0.082725,-0.005854,-0.055007,0.045198,-0.040973,-0.168728,0.041783,0.007436,-0.041310,0.028339,-0.004241,0.031912,-0.043865,-0.037476,-0.028420,0.100057,0.167224
0.009385,0.057719,-0.098176,0.161170,0.099353,-0.088742,-0.029425,0.023119,0.114129,-0.032438,-0.127887,-0.093025,0.071017,-0.061459,-0.066659,-0.029212,0.101453,0.006176,0.072845,0.146346,-0.029583,-0.029672,0.071740,-0.129925,0.008341,-0.034238,-0.077696,-0.053572,0.033466,-0.143625,-0.189768,0.028713
0.008515,-0.094396,0.053787,-0.014342,-0.062914,0.009129,-0.005231,0.108522,-0.065492,0.117509,-0.022534,0.086405,0.134834,-0.053395,0.047285,0.029679,-0.088118,-0.022302,-0.061240,0.048917,0.019638,-0.093332,0.148196,0.083274,-0.003789,0.006987,0.014867,0.046328,0.032093,0.127353,-0.028668,-0.029942
0.088723,0.150641,0.003302,-0.155119,-0.231811,0.065167,-0.151926,0.144056,-0.030594,0.059622,0.088119,0.175395,-0.102859,0.176020,0.019350,-0.077412,0.008540,0.055585,0.059440,-0.056778,0.018663,-0.015591,0.114546,0.039114,-0.075587,0.060303,0.018153,-0.007533,0.062256,-0.038805,0.058150,0.149560
-0.024510,-0.041367,-0.034214,-0.023409,0.005932,-0.031404,-0.094347,0.077372,0.064899,0.046151,-0.035929,-0.056584,0.006214,0.030474,-0.065693,-0.016329,0.000322,0.129163,-0.056836,0.017311,-0.033504,-0.015288,-0.042438,0.112836,-0.028659,-0.008622,0.064736,-0.009266,0.057807,0.094025,-0.043900,0.085174
-0.106154,-0.017467,-0.028437,0.128782,-0.109339,-0.057731,0.043257,0.087936,-0.050591,0.191845,0.063941,0.149634,-0.039276,-0.089007,-0.039040,0.042665,-0.060661,0.073646,-0.022643,-0.054524,-0.143090,0.063549,-0.116224,-0.070318,-0.082268,0.072111,0.065808,0.043927,0.028208,0.046412,-0.058989,0.029228
0.049873,0.023502,-0.044848,0.041466,0.065689,-0.031597,0.124732,0.027455,-0.013018,0.044596,0.114467,-0.071008,-0.002826,0.020849,0.078697,-0.108731,0.070432,0.045422,0.013405,-0.014805,0.077869,0.079830,-0.098497,-0.021646,0.005958,0.069385,-0.055129,0.148041,-0.003874,-0.010653,0.157509,-0.040614
-0.032157,-0.027352,0.026922,0.009643,-0.014399,-0.013004,-0.023456,-0.004794,0.011618,0.018287,-0.063975,-0.033138,-0.043144,0.125180,0.117559,-0.013929,-0.048800,-0.101054,0.004925,0.136222,0.066338,0.028633,-0.048397,0.023859,-0.028883,-0.055576,-0.078251,-0.038032,-0.090918,-0.084910,-0.035920,-0.123074
0.070206,0.026476,0.029336,-0.001870,-0.101231,0.038830,0.003634,-0.066882,-0.082192,0.011503,0.011163,0.016146,-0.006789,0.191029,0.149642,-0.128467,-0.070769,-0.008414,-0.089406,0.057048,0.008757,-0.089511,-0.022176,-0.026435,0.055643,0.075132,-0.040961,0.026299,0.041033,0.032990,0.042882,0.082278
-0.128358,-0.110125,0.000010,-0.009946,0.034931,0.047665,0.020309,-0.013529,0.090798,0.047176,0.037163,0.003123,-0.000807,0.050561,-0.013435,-0.005569,0.047792,-0.121209,0.021360,-0.080239,-0.026847,-0.071836,0.033554,-0.008692,0.031745,0.033539,-0.085470,-0.086196,-0.061216,-0.023631,0.075027,0.018783
-0.008130,0.056086,-0.068677,0.034090,0.007999,-0.069352,0.000932,-0.078374,0.057301,-0.062772,-0.001555,0.064901,0.005378,0.018688,0.005332,-0.069071,-0.148540,0.037802,-0.014668,0.012463,-0.152813,-0.002945,0.041406,-0.072090,0.044666,0.070445,-0.019420,0.117346,0.087981,-0.025390,0.041892,0.033684
-0.095834,0.061414,-0.000791,0.082953,0.042011,-0.009149,-0.018994,0.056562,-0.034716,0.033991,-0.102386,0.011266,-0.121136,0.035717,-0.026212,-0.022146,0.060889,0.091599,0.059235,0.104400,0.092482,-0.058960,0.129982,-0.059404,0.044893,0.067214,0.014088,0.050582,0.010320,0.016976,0.018695,0.059756
-0.056228,0.050495,0.042691,-0.052218,0.008662,0.025830,-0.015988,0.020394,0.012158,-0.045221,0.034041,-0.124052,0.021198,-0.066474,0.041067,0.042113,0.114054,-0.082876,-0.069393,0.065805,-0.039983,0.075712,-0.041417,0.051509,-0.056175,0.030965,0.018178,-0.073458,-0.045652,-0.002762,-0.083497,0.017885
0.077795,-0.018569,0.077298,-0.031466,0.043942,-0.028241,0.001519,0.060507,0.043643,-0.044734,-0.090710,-0.002926,0.119221,0.033823,-0.146993,-0.080226,-0.055894,0.000189,0.053308,-0.026930,-0.045072,-0.035541,-0.100070,-0.021740,0.016095,-0.056702,0.037220,0.078033,0.147833,-0.063029,0.037402,0.072643
-0.047785,-0.049908,-0.043924,0.025782,0.108028,-0.062471,-0.034421,0.035647,0.046280,-0.084422,0.069489,-0.018494,0.097109,-0.039757,-0.082496,0.125182,-0.028015,0.025364,0.006060,-0.008256,-0.031419,-0.061000,0.052926,-0.092226,-0.041833,0.034145,-0.011036,-0.063302,0.148125,0.005897,-0.024264,-0.061692
0.030422,0.045547,0.016325,-0.141526,-0.061105,-0.050685,-0.005883,-0.037423,0.105564,-0.029575,0.004859,-0.020698,-0.276240,-0.062709,0.010297,-0.008366,0.041313,0.006379,-0.029186,-0.014786,-0.061518,-0.076324,-0.037501,-0.093170,-0.021529,-0.030208,0.064115,-0.118560,-0.018037,-0.016359,0.135719,0.016918
0.017736,-0.045922,0.074438,0.094108,-0.053534,0.016877,-0.020549,-0.062748,-0.002311,-0.107452,0.096574,0.105252,-0.066909,0.035001,0.036435,-0.161168,-0.059659,-0.016291,0.011331,0.021329,-0.003449,0.056724,0.008930,0.131889,0.047163,0.119416,0.080034,-0.018765,0.083829,-0.131740,-0.048571,-0.060400
0.109691,-0.016551,0.046383,0.038473,0.026913,-0.038850,0.028309,-0.080404,-0.114279,0.032577,-0.131335,-0.060026,-0.052656,0.015685,0.007821,0.011241,0.040529,0.147675,0.083592,-0.030163,0.001402,0.074643,-0.005636,0.063749,-0.000309,0.141677,-0.034095,0.041092,0.000466,-0.076353,0.022316,-0.127615
-0.024961,0.093755,0.084746,0.082495,0.011182,-0.019381,0.172803,0.052965,-0.109633,0.073141,-0.027510,0.063285,0.093764,0.072758,0.013036,0.108202,0.161500,-0.150571,0.049187,-0.012320,-0.084620,0.022868,-0.018107,-0.092815,0.030385,0.055565,-0.123038,0.061533,-0.086478,0.062766,-0.070348,0.111617
0.030552,0.092833,0.001664,0.016654,0.022705,-0.050315,0.022587,0.082515,-0.032132,-0.011806,0.084824,-0.149312,-0.056081,0.098125,0.058259,0.033582,0.089569,-0.075685,0.181359,-0.009091,-0.090350,0.016253,-0.130346,0.066842,0.055211,-0.079541,-0.013026,0.002148,0.068925,0.012462,0.046180,0.015690
0.044906,0.045478,0.144677,-0.027681,0.057222,0.047971,-0.082678,0.082743,-0.053947,-0.151395,0.059809,-0.029358,-0.114569,-0.051443,-0.069934,-0.000109,0.045833,-0.071131,0.014889,-0.042151,-0.060355,-0.128754,-0.108921,-0.071407,0.027407,-0.149138,0.032987,-0.057077,0.048506,0.005496,-0.099180,0.142465
0.012873,0.012382,-0.155044,-0.116164,0.033923,0.038414,0.150914,-0.012363,0.126747,0.064616,0.073557,0.068652,-0.113817,0.019240,0.006198,0.090090,-0.088291,-0.101403,0.050264,-0.027393,-0.060429,-0.018223,0.009878,0.055602,-0.001999,-0.006522,-0.022883,0.095503,0.029521,0.030388,-0.097166,0.070976
0.093743,-0.060267,-0.141096,0.089299,0.063373,0.120354,0.022968,-0.040840,0.192948,-0.105830,-0.098018,0.100565,0.021098,0.015160,0.108747,-0.018463,0.030633,-0.210698,0.116280,0.039300,0.111198,0.102158,-0.066227,-0.004528,-0.004709,-0.035571,0.069070,0.107745,-0.001117,-0.044709,0.117804,0.074312
0.077541,0.059757,-0.035819,0.019489,-0.041747,0.047031,0.032458,0.014103,0.040571,-0.044680,0.059023,0.005247,-0.023883,-0.105831,-0.032633,0.023454,-0.044923,-0.056124,-0.070055,0.024560,0.026889,0.035721,0.021290,-0.043025,-0.058429,0.057455,-0.070472,-0.034909,-0.057361,0.094988,-0.027327,-0.031403
0.116644,0.108166,0.085137,0.062948,-0.117237,-0.012151,-0.028724,0.001392,0.030321,-0.035143,0.082973,0.078206,0.010231,-0.005701,0.069250,0.024402,0.044698,-0.111749,0.101929,-0.003909,-0.093102,-0.078291,-0.017252,-0.058635,-0.082057,-0.062191,-0.039118,-0.100256,-0.099690,-0.068068,-0.023277,0.039234
-0.100899,0.041081,0.080120,0.091791,0.017916,0.095312,-0.030263,0.093414,0.065137,0.103385,0.009155,0.038412,0.003995,-0.055692,0.002803,-0.086677,0.078229,-0.090246,0.053059,-0.015084,-0.039879,0.038502,-0.086902,0.053262,0.033258,-0.108814,-0.030842,0.031560,-0.068889,0.013320,0.086634,0.129506
0.011113,-0.066657,-0.060480,0.063422,0.064307,0.055678,0.047869,-0.133473,0.005087,0.058341,0.059714,-0.001550,-0.013702,-0.040308,0.005896,-0.088098,0.038599,0.024432,0.066740,-0.000033,0.025290,0.050813,0.034522,-0.039354,-0.031571,0.062806,0.080549,0.069736,-0.082349,-0.046757,0.018242,-0.000592
-0.009140,-0.090657,0.039366,0.080764,-0.009360,0.031933,0.046263,-0.036993,0.003455,-0.122200,0.042566,-0.070312,0.032868,-0.080947,-0.042042,-0.056792,-0.037841,-0.128149,0.040484,-0.033598,-0.094015,0.060011,0.015718,-0.115996,0.080157,-0.007599,-0.037008,0.026310,-0.103410,-0.038128,0.041600,0.072639
-0.062686,-0.062472,-0.004750,0.069076,-0.065898,-0.063314,0.045255,0.054506,0.035954,0.028806,0.002872,0.116695,-0.041870,0.007225,0.053672,-0.045342,-0.023486,0.137950,0.032174,0.054558,-0.027753,-0.080521,-0.078063,0.011159,-0.118853,-0.028285,-0.100823,-0.073946,0.092796,0.023246,0.082945,-0.024312
-0.104768,0.044709,-0.004505,-0.000340,0.085435,-0.000147,-0.027076,-0.011710,-0.039457,-0.051071,-0.030409,-0.064771,-0.001303,-0.105393,-0.000517,-0.129487,0.070390,0.077085,0.081064,0.115627,0.001766,0.051810,0.043781,0.031450,-0.063178,0.018342,-0.091630,-0.071915,0.005252,-0.124687,-0.033325,0.011597
0.128592,0.070843,0.064180,-0.092313,0.070169,-0.096755,0.091757,-0.126266,-0.020357,0.002450,-0.099970,-0.036416,-0.090246,0.026436,-0.036716,-0.066643,0.064985,-0.102643,0.013617,0.046026,0.081823,-0.099352,0.038377,-0.009571,0.035845,-0.003378,0.112854,-0.083456,0.012372,-0.020257,-0.040806,-0.030329
-0.099755,0.013497,0.095152,-0.069387,-0.006504,0.021833,0.017475,-0.051689,-0.037512,-0.040398,-0.049593,0.020079,-0.153755,-0.084441,-0.002464,-0.004465,0.158274,0.038542,-0.058838,0.075637,0.300071,-0.042249,0.115647,0.016728,0.105758,-0.058350,-0.019594,0.062281,0.059026,-0.011674,0.142997,0.093845
-0.066954,-0.056590,-0.034905,0.014583,0.116051,-0.091117,0.032124,-0.046702,-0.041090,-0.013250,0.067023,0.149159,0.035936,0.114510,0.089917,0.043480,-0.090618,0.030202,0.114643,-0.058518,0.004658,-0.028375,-0.000286,0.004266,-0.102086,0.168273,-0.088541,0.037968,0.021275,-0.028930,-0.009390,0.093998
0.047942,-0.010406,-0.002920,-0.098355,0.088669,0.102285,0.067665,-0.046503,0.061954,0.020688,0.026749,0.025293,0.104653,0.085478,0.055115,0.045909,0.052177,0.054250,0.043651,-0.021125,-0.022896,-0.013525,0.060507,0.012550,-0.086263,0.025498,-0.004449,0.019581,0.195414,-0.066328,0.059995,-0.005019
-0.143936,0.059468,0.083095,-0.036378,0.001888,0.071756,-0.045500,0.069215,0.059517,0.051899,-0.033774,-0.096684,-0.022565,-0.129504,0.005710,-0.139198,-0.068797,-0.066641,-0.017477,0.070691,0.020974,-0.023141,0.127314,0.041686,0.000428,0.064422,0.126776,0.003957,0.087632,-0.006551,0.022431,0.058668
0.078001,-0.059630,-0.023837,0.118909,-0.030581,-0.013972,-0.013695,-0.020110,0.040557,-0.056855,-0.090675,-0.002829,-0.000191,-0.014059,0.148279,0.020986,-0.053217,-0.037161,0.141828,0.092126,-0.075538,-0.001699,-0.002745,-0.066229,-0.060694,-0.092720,-0.114432,0.010707,0.047894,0.119039,-0.066280,0.005423
0.068031,-0.126540,-0.030186,0.008188,0.041654,0.156689,0.131161,0.137162,-0.018227,-0.009528,-0.082760,0.014757,-0.064141,0.009371,-0.029885,-0.094222,0.054446,-0.023247,0.105325,0.082229,-0.066960,0.101927,0.042700,-0.106394,0.077076,-0.014167,-0.021466,0.024674,-0.059336,0.035594,-0.053020,0.069894
-0.129323,0.109913,-0.134959,-0.026446,0.054226,0.002606,-0.113408,0.002575,-0.076080,-0.034885,-0.016787,-0.042847,-0.011620,-0.084533,0.139282,-0.145007,0.021798,-0.073757,-0.010662,0.097059,-0.075212,-0.012699,0.009476,-0.065766,0.058651,0.139183,0.102601,0.013929,-0.229147,0.002741,0.022061,0.006258
0.129532,-0.082547,0.075681,0.027818,0.103587,-0.004180,0.145780,-0.028671,0.015349,-0.038498,-0.083006,0.025586,-0.027401,-0.036867,-0.110169,0.046953,0.129449,-0.101140,-0.042003,0.079673,0.000443,0.151691,-0.046425,0.114299,-0.087649,0.046554,0.315320,0.057273,-0.035336,0.013327,-0.033316,0.007648
0.027018,0.028904,-0.124489,0.008264,-0.010839,-0.006534,0.050389,-0.129277,0.119936,0.119249,-0.016796,-0.112932,0.009395,-0.012284,-0.020605,0.011700,0.048858,0.192499,-0.150278,-0.122254,0.044504,-0.008605,-0.012505,-0.041350,-0.122164,-0.043881,-0.089215,0.109505,0.001083,-0.003040,0.088897,-0.039761
-0.046265,0.023425,-0.018015,0.090378,-0.003510,0.013567,0.131491,-0.143759,-0.023352,0.126283,0.104386,0.037564,-0.002804,0.115704,-0.140118,0.088296,-0.138498,0.090844,0.003612,-0.101382,-0.116234,-0.050234,-0.031511,0.084028,0.010628,-0.016898,-0.074763,-0.123912,-0.108665,0.013160,0.003173,0.016515
0.057188,-0.000430,-0.030824,0.005262,-0.020372,-0.049092,0.053764,0.002480,-0.064877,0.014408,0.054274,-0.018567,0.174012,-0.192728,0.026524,0.011480,0.021200,-0.123450,-0.010424,0.110411,-0.066205,-0.080496,0.017343,0.004369,-0.049359,-0.062526,0.087345,-0.060958,-0.090872,0.035053,-0.079121,0.082787
-0.046556,0.059770,-0.250488,0.126637,-0.030030,-0.046821,0.067860,-0.027191,-0.186368,-0.068148,0.093590,0.078608,-0.010665,-0.011157,0.107622,0.014683,-0.006255,-0.161668,-0.064032,-0.024815,-0.036217,-0.110858,0.098403,-0.001180,0.001886,0.003807,0.093572,-0.038808,-0.003073,0.015646,-0.066292,0.064883
0.073848,-0.097744,-0.107072,0.058129,0.022971,0.012256,-0.001426,-0.002760,-0.064528,-0.131630,0.063920,0.023502,0.019568,0.101118,-0.068232,0.121523,0.031407,-0.001327,0.023524,-0.101559,0.054039,-0.018269,-0.003902,-0.036741,0.071579,-0.034655,0.060911,0.050505,0.038908,0.058553,0.086861,0.005772
0.058676,-0.033523,-0.005732,-0.022482,0.053217,0.018794,-0.008036,0.021269,-0.021850,0.056172,-0.001916,-0.037782,0.028804,0.020105,-0.082880,0.064215,0.006535,-0.096676,-0.059746,-0.025349,0.012637,-0.146598,0.011663,0.111899,-0.039899,-0.027467,0.015775,-0.063905,0.087553,-0.028256,-0.008211,0.042942
-0.044629,-0.049650,-0.079316,0.083752,-0.008086,-0.054452,0.079534,-0.013018,-0.064428,0.000288,0.048813,-0.029799,0.073524,-0.108628,-0.002051,-0.009636,-0.032672,-0.081760,-0.024918,0.110719,-0.106003,-0.081097,0.028851,0.033767,0.065518,0.052699,-0.077378,-0.017615,0.056818,0.013062,-0.114473,-0.009779
0.034420,0.100842,0.033467,0.060390,-0.048670,-0.017154,-0.022522,0.039127,-0.103721,0.025374,0.010148,-0.023337,0.024154,-0.035537,0.056986,0.004916,-0.025290,-0.097388,-0.017406,-0.049120,-0.039289,-0.037033,-0.066439,-0.068868,0.006208,-0.050110,-0.039690,-0.141864,-0.013106,0.031002,0.050044,0.053892
-0.158357,-0.074907,0.111400,-0.009381,0.174961,0.028591,0.044266,-0.026647,0.037745,-0.180030,-0.148399,-0.090350,-0.039932,-0.088856,0.039006,0.032544,-0.042565,0.098191,-0.018196,0.065135,0.112538,0.028655,-0.027371,-0.199455,-0.107570,-0.145995,0.114152,-0.093023,0.098306,-0.085064,0.103288,0.046349
-0.118007,-0.033079,-0.169311,-0.069584,0.084874,0.171162,0.024408,-0.003404,0.058149,-0.108598,0.023176,-0.105273,0.056661,0.017886,0.018854,-0.017769,-0.135404,-0.136557,-0.110811,-0.041587,0.060521,-0.121443,0.036043,-0.052196,-0.123638,-0.082125,0.151312,-0.109376,-0.067920,0.002769,-0.053996,-0.081310
-0.024573,-0.000534,0.142652,-0.187525,0.047043,0.154101,0.056707,0.005855,-0.042488,-0.007724,-0.185065,-0.015856,0.018532,-0.028477,-0.032649,0.024926,0.005506,-0.033831,0.004797,-0.070463,-0.027873,0.043816,-0.009028,-0.026119,-0.037802,-0.077130,-0.075191,0.020223,-0.026755,0.100962,0.056786,0.102134
0.067496,0.019391,0.060542,-0.030874,0.028030,-0.093469,0.043680,0.003441,-0.085139,-0.032056,-0.031849,-0.020177,-0.109038,-0.117939,-0.052375,0.067803,-0.016482,0.143455,-0.043902,0.031665,0.052339,-0.034093,0.058082,-0.056555,0.176460,0.058982,-0.096719,0.051970,0.069861,-0.054139,0.077201,-0.083552
0.050555,-0.009040,0.100063,-0.027286,-0.037374,-0.062733,0.000420,0.013675,0.019542,-0.006839,0.013102,0.099095,0.064074,-0.031553,0.022194,0.042537,0.037153,-0.022325,-0.029923,-0.083977,0.063451,0.054641,0.069545,-0.026376,-0.025909,0.015050,-0.038244,0.079581,0.081420,-0.043137,0.121738,-0.070958
-0.001321,0.078376,0.081262,0.038298,-0.067974,-0.020196,-0.013978,-0.100207,0.032450,-0.028002,0.002675,0.097713,0.178105,0.074846,0.028386,-0.010205,0.024979,0.057913,0.017869,-0.099838,-0.039461,0.046488,0.152563,-0.113806,-0.007716,0.014858,-0.030285,0.027793,0.023698,0.030155,0.113937,-0.031762
-0.067447,0.094729,0.060818,0.006629,-0.098289,0.053686,-0.059412,0.013798,0.033202,0.089754,-0.018929,0.026215,-0.091871,-0.057872,0.124183,0.123601,0.085770,-0.115542,-0.013992,0.040074,0.070585,-0.105014,0.037652,0.003270,-0.063058,0.005062,-0.085401,0.006010,-0.046842,0.002268,0.055279,-0.140360
0.037519,-0.063242,-0.045769,-0.104844,0.014330,-0.075762,-0.114898,0.068953,-0.162080,0.056420,-0.075741,0.018223,-0.110184,-0.023008,0.054120,0.069693,-0.012426,0.095984,0.004442,0.199537,0.033846,-0.026784,0.047733,0.219299,-0.121399,-0.089449,0.016789,0.035918,-0.030547,-0.014861,0.187759,-0.139337
0.051600,-0.123650,0.008935,-0.030449,0.054931,0.027720,0.070585,-0.001957,0.110928,0.045239,-0.129519,0.039460,-0.178064,-0.041402,0.096980,-0.089693,-0.018704,-0.104737,-0.188674,-0.070214,0.093572,0.059740,-0.017633,-0.048870,0.097866,-0.125630,-0.045119,-0.085603,0.018754,-0.043467,0.112802,-0.125046
-0.006625,-0.112258,-0.148230,0.025912,0.104453,-0.007415,-0.018862,-0.036997,0.119428,-0.162085,-0.142825,0.030575,-0.032898,-0.194163,0.016130,-0.105323,-0.045055,0.057784,-0.001989,-0.007429,0.092226,0.088426,0.189179,0.057456,0.040628,-0.006947,0.033074,-0.018561,0.107885,0.072429,0.127281,-0.039560
0.004635,-0.078555,0.124782,-0.105394,0.030420,-0.079602,-0.015774,0.075957,-0.050807,-0.071105,-0.093081,-0.031717,-0.019984,-0.093058,0.005631,0.055683,0.010890,0.196131,0.113482,0.076796,0.132893,0.011821,0.054472,-0.068356,-0.108918,0.069817,-0.033516,0.092310,0.057252,0.009875,0.140835,0.028689
-0.108006,-0.036610,-0.023913,-0.022853,-0.005410,0.094335,-0.086498,-0.121602,0.060503,0.016915,-0.051679,0.066898,0.033065,-0.089572,-0.084820,-0.136942,0.054888,0.065155,-0.050097,0.114741,0.074898,0.181916,0.222006,-0.098043,0.066557,0.085078,-0.037081,-0.080185,0.066616,-0.027502,-0.028623,0.040917
-0.096156,-0.039168,-0.026807,-0.002242,0.002873,0.041949,-0.066642,-0.079128,-0.067406,0.075643,0.038739,-0.038203,-0.033351,-0.071401,-0.083536,-0.058714,-0.012990,0.147217,0.005617,0.126458,0.106037,-0.000703,0.122297,-0.067199,-0.058421,0.048072,-0.013853,-0.007368,0.043627,-0.030719,0.025385,-0.011364
-0.285549,-0.036483,0.034262,-0.084667,-0.051786,-0.012769,-0.039690,-0.102991,-0.060617,-0.163296,-0.226303,0.068653,0.131192,-0.079688,-0.141825,-0.050026,0.018862,0.057055,-0.064526,0.101048,0.075336,0.023814,0.113459,-0.009003,-0.068973,-0.139198,0.017763,0.102381,-0.070934,-0.039792,0.033111,0.050064
-0.142186,0.044974,0.129260,0.077762,0.146646,-0.073539,0.033955,-0.090800,0.033457,-0.036454,0.153164,-0.010677,-0.031192,-0.049065,-0.085803,0.011277,0.004249,-0.101760,-0.064004,0.079300,0.061344,-0.095888,0.094682,-0.012195,0.120264,0.076549,-0.006657,-0.078550,-0.074342,0.064897,0.010179,0.083260
-0.199601,0.134136,0.037162,-0.093969,-0.014937,-0.081836,0.033502,0.013892,0.071871,-0.000237,0.062816,0.010184,-0.013133,-0.133142,0.055697,-0.069926,-0.071821,0.029454,-0.071516,-0.062217,0.100961,-0.016515,0.123938,-0.150751,0.026092,-0.001427,-0.042983,-0.049663,0.050337,0.023347,0.068479,-0.054346
-0.102790,-0.037582,0.246833,-0.073790,0.086653,0.007276,-0.011811,0.013640,0.048538,-0.252429,0.073494,0.004462,-0.057962,-0.101396,-0.013936,0.037369,-0.059666,0.124144,-0.008145,-0.014474,0.088874,0.094443,-0.073415,-0.099638,-0.078880,-0.060454,-0.118881,0.095439,0.057468,0.091152,0.228618,0.066717
-0.404147,-0.077693,-0.040346,-0.015486,-0.242545,0.045620,-0.043564,0.150490,0.058841,-0.127897,0.110450,-0.233822,-0.006483,-0.191744,0.209399,0.044587,-0.010352,-0.167830,0.099726,0.049616,-0.136786,0.000682,0.052779,0.012443,-0.035439,0.019270,-0.016551,-0.185993,-0.110553,0.129276,-0.097519,0.018555
-0.180825,0.065692,0.127563,0.087198,-0.083063,0.077033,0.008719,-0.065328,0.090539,0.028928,0.027993,-0.095308,0.086678,-0.007283,0.018986,-0.036866,-0.028523,-0.020172,0.140105,-0.009197,-0.038419,-0.011513,-0.182145,0.157101,-0.008538,-0.025546,0.041509,-0.064361,-0.095597,0.089385,-0.003721,-0.024522
-0.051471,-0.085058,0.100090,0.105929,0.081245,0.076268,0.083437,0.029427,-0.063479,-0.030762,-0.123605,-0.025145,0.127162,-0.003305,-0.066140,-0.011564,-0.109982,0.149844,-0.067987,-0.041649,0.034562,-0.033687,0.049962,0.107283,0.074656,0.081619,0.111823,0.159985,0.118058,0.047010,-0.019234,-0.057955
-0.059618,-0.117205,0.055066,0.002929,-0.048458,-0.013574,-0.066437,0.030282,-0.166051,-0.021696,0.158646,0.149694,0.080085,-0.059621,0.031424,-0.034705,-0.038301,0.009507,0.029308,-0.071685,-0.004925,0.010056,-0.164550,-0.085002,0.002587,-0.047744,0.056339,0.106478,0.035586,-0.112473,-0.044647,-0.037528
-0.076568,-0.011066,-0.026202,-0.079158,-0.065676,-0.039089,-0.051914,-0.025229,-0.000594,0.057412,-0.097362,0.003670,0.119547,-0.093852,0.107667,-0.086386,-0.063110,0.014595,-0.096223,-0.032105,0.083378,-0.023477,0.025065,-0.098216,0.030924,-0.002794,0.025944,-0.033912,0.056515,0.023637,-0.128556,-0.020865
0.072150,-0.016597,0.081882,-0.028845,0.006724,0.036688,0.026288,-0.101883,-0.071084,-0.060857,-0.061736,0.032651,0.044401,-0.077578,0.048174,-0.051731,0.118474,0.081691,-0.039368,-0.100555,-0.016776,0.045662,-0.016800,0.096797,0.076329,0.033124,0.033732,0.015035,0.071457,0.064148,-0.124238,0.059756
-0.001248,0.048898,0.047278,-0.279919,0.199518,-0.065169,0.075021,0.158870,0.004788,0.011829,-0.051844,0.024606,-0.095698,-0.128574,0.036926,-0.088785,0.039082,0.083693,0.000584,0.061804,-0.006267,0.057764,0.028721,0.095781,0.043524,0.080733,-0.198224,0.018368,0.054970,0.069921,-0.013156,-0.007149
0.129334,0.108109,-0.136470,-0.121289,-0.032617,-0.293157,0.156169,0.181372,0.197036,0.203494,0.269716,0.494925,-0.113044,-0.240066,0.003594,-0.119227,0.018625,0.280482,-0.132047,-0.302005,0.340142,0.015402,-0.025181,-0.119083,-0.088297,0.184773,0.259190,0.085494,-0.239633,0.092365,0.333649,-0.262377
0.213606,0.014042,0.053450,0.113914,0.225249,-0.166877,-0.009224,0.012829,0.068618,0.075988,-0.078735,-0.198966,-0.042358,-0.083801,0.191878,0.241755,0.114252,0.133312,-0.089568,-0.262600,0.082242,0.119312,-0.284466,-0.085901,-0.196692,-0.016375,-0.028915,0.092765,0.205556,-0.131734,-0.242431,-0.083751
-0.206934,-0.057955,-0.014213,-0.111755,0.030196,0.095623,-0.223110,0.024276,-0.233956,0.029361,0.124689,-0.001351,0.074610,-0.151616,0.117522,-0.233573,0.182171,0.103404,0.028899,0.171609,0.036423,0.101509,-0.102643,0.057755,-0.227609,-0.120379,-0.075685,0.105750,0.078070,0.090749,0.025810,0.194486
0.258199,-0.014666,-0.223776,0.017433,0.410474,0.168116,-0.171840,0.298156,-0.325446,0.238537,0.060337,-0.015370,0.442598,-0.098422,0.112326,0.130548,0.111159,0.181065,0.092249,-0.145438,-0.187444,-0.171617,0.046750,0.010548,0.256595,-0.222964,0.051747,-0.193175,0.251253,-0.145090,-0.263194,-0.026194
-0.063943,0.030269,0.174072,0.202432,0.354646,0.089464,0.153396,0.166535,-0.049786,-0.242078,0.175359,0.321015,-0.022038,-0.239702,-0.267867,0.014843,0.456564,0.138239,0.216475,0.156100,0.215524,-0.288653,0.029819,-0.241106,-0.148762,0.276183,0.390613,0.113415,-0.213980,0.141714,-0.221426,-0.115978
0.080659,0.024436,0.227005,0.026147,0.486475,-0.169641,0.063870,-0.092822,0.404184,-0.217531,-0.046408,0.201604,0.102447,-0.241145,0.152032,-0.054539,0.093948,0.112242,-0.029536,0.234064,-0.020779,-0.197177,-0.109845,0.112020,-0.005434,0.024044,0.190221,-0.027566,-0.195134,-0.064311,0.066824,0.082121
0.092632,0.109170,-0.243434,-0.402729,-0.527012,0.244153,-0.003302,-0.017586,-0.298752,-0.021963,-0.438064,-0.030655,-0.198460,-0.106708,0.019009,-0.171012,0.215568,0.289031,-0.240621,-0.051474,-0.368197,-0.157100,0.057602,-0.237322,0.100705,0.111428,0.035211,0.186624,0.170404,0.023885,0.117614,0.093190
0.190920,-0.236809,0.171176,0.215283,-0.332215,0.060134,0.257633,0.116060,0.215552,-0.019339,-0.190731,-0.127228,0.010326,-0.152075,0.051094,0.163854,-0.089675,-0.043265,-0.008262,-0.157062,-0.114389,-0.227504,0.153670,0.006927,0.016025,0.122911,-0.075711,0.245030,0.101430,0.063399,-0.191592,0.316646
0.212329,-0.050754,-0.055153,-0.113334,-0.025626,0.319202,0.059303,0.276180,0.435789,-0.046876,-0.171600,0.276965,-0.247493,0.194097,-0.057845,0.063914,0.117339,-0.053442,-0.015565,-0.073086,-0.288393,-0.036529,0.114994,-0.013406,0.220869,0.025554,0.015523,-0.058794,-0.049804,-0.057356,-0.085923,-0.084452
-0.556075,-0.082223,-0.225889,-0.267341,0.206384,0.168127,-0.218895,0.101172,-0.217392,-0.040562,0.223771,0.314557,-0.236129,-0.149767,0.115303,-0.234661,0.356618,-0.001650,-0.250668,0.062460,-0.029563,-0.295837,-0.157012,0.060006,-0.047945,-0.039653,-0.145612,-0.116720,0.069129,-0.085304,-0.239654,0.154707
-0.041790,-0.119772,-0.239776,-0.230073,-0.100007,0.057021,0.096549,-0.113149,-0.104235,0.008750,0.259397,0.179620,-0.240956,-0.011062,0.005977,0.177431,0.293353,-0.210391,-0.011735,0.295521,-0.179217,-0.102803,0.176705,-0.172896,-0.281959,-0.031875,0.135853,0.095023,-0.014418,0.034734,0.180104,0.115790
0.125795,-0.037822,-0.209225,0.284381,0.187086,0.048880,0.073829,-0.318523,-0.189025,-0.010065,0.246242,-0.168672,0.041600,0.114317,-0.159543,0.194092,-0.144436,0.351858,0.028257,0.302688,-0.211679,0.219420,0.289645,0.081777,0.036125,-0.094473,-0.061111,0.092709,-0.086418,-0.036422,0.000474,0.263715
0.138955,0.362386,0.056742,0.349089,0.113530,-0.433264,-0.212101,-0.151451,0.221921,-0.195599,-0.287156,0.272940,0.131153,0.179839,0.125273,0.052919,-0.024088,-0.059183,-0.092095,0.146920,-0.081005,0.290379,0.009259,-0.154347,-0.040830,0.040015,0.133951,-0.228523,0.432076,-0.100041,0.290572,-0.174613
-0.325377,0.038104,0.131907,-0.421613,0.285439,0.091652,0.174261,0.255259,-0.331543,-0.227127,0.092265,0.063782,0.335792,0.134031,0.208062,-0.163728,0.023228,-0.101462,0.148821,0.026006,0.232584,-0.065513,-0.225899,-0.156337,-0.167298,-0.285510,0.149022,-0.051194,0.044891,0.083183,-0.226178,-0.119685
0.066189,0.238152,-0.193399,0.234834,-0.195150,-0.263514,0.053117,0.259155,-0.046174,-0.074798,0.050047,0.146181,-0.328619,0.217424,-0.062857,0.065585,-0.157232,-0.078637,0.059373,0.271644,-0.073634,-0.179344,0.050083,-0.204552,0.001739,-0.107064,-0.072600,0.064896,0.230382,0.258648,-0.060303,0.239603
-0.214113,-0.196651,-0.024828,-0.208574,0.081952,0.112109,-0.265239,-0.091946,-0.006880,0.195921,0.305036,0.122611,-0.076510,-0.101858,0.053006,0.156270,0.131800,-0.036913,-0.116666,0.286981,-0.135205,-0.042567,0.258380,0.257164,0.035221,-0.158376,-0.079115,0.167812,0.039075,-0.021139,0.190641,0.016829
0.205377,0.078349,-0.128886,0.031612,0.099055,0.368557,-0.105364,-0.034791,-0.348266,-0.225184,0.445969,0.076971,0.289318,0.097126,-0.017497,-0.032294,0.114199,-0.209737,-0.208927,-0.486673,-0.091364,0.095589,-0.249199,0.225842,0.148690,-0.030368,-0.027242,-0.008448,0.299666,-0.049338,0.139403,0.157672
0.062184,0.354180,-0.216922,0.031794,-0.396109,-0.040040,-0.228015,0.170564,0.060948,-0.009798,0.294764,0.215279,-0.080168,0.135910,0.166924,0.141654,0.132462,-0.112778,0.167580,-0.329985,-0.067206,-0.282452,-0.108974,0.110116,-0.063312,0.013757,0.255344,0.041965,0.151548,-0.318058,0.044727,0.024309
-0.344542,-0.029628,0.010575,0.095366,0.190979,0.301056,0.109678,-0.198765,0.033487,-0.197089,-0.185808,0.053134,0.076585,-0.284113,-0.224284,-0.161977,-0.236436,0.143547,-0.154116,0.117792,0.046726,0.085946,-0.202504,-0.091139,-0.104043,0.285651,-0.119218,0.224152,0.418235,0.074090,-0.176468,0.168339
0.221023,-0.118123,-0.168532,-0.049770,0.450944,0.293761,0.184576,0.091700,0.398232,0.227448,0.007928,-0.045196,0.391286,-0.130052,0.115643,0.151963,-0.062587,-0.181926,-0.072407,0.237298,0.063807,-0.268867,-0.213763,0.074660,0.051654,-0.211321,0.286474,0.207544,0.177906,-0.143711,-0.285060,-0.035490
-0.122007,-0.011589,-0.119334,-0.293068,0.361776,-0.315002,-0.342703,-0.108032,0.002496,-0.081642,0.245219,0.102212,0.092226,-0.008263,-0.146691,-0.165797,0.121765,0.167238,-0.088922,-0.462692,0.014757,-0.346464,-0.137834,0.217809,-0.021891,-0.018050,0.183769,0.133700,-0.059448,0.164373,-0.340458,0.126306
0.000105,-0.197975,0.144550,-0.080227,0.538288,0.039111,-0.129119,0.036288,0.031372,-0.113690,-0.167131,0.130352,0.438646,0.194402,-0.202575,-0.170512,0.316977,-0.194806,-0.250859,0.397385,-0.167021,0.079315,-0.188523,0.020450,0.143383,0.032278,-0.064157,0.253941,-0.123192,0.063025,0.060699,-0.217338
0.165558,0.243472,-0.069437,-0.103531,-0.156446,0.298853,0.315532,-0.102061,0.308264,0.013932,0.181739,-0.228289,-0.083000,-0.147506,-0.276730,0.232095,-0.077146,-0.090596,-0.192550,0.025778,0.140793,0.153998,0.151838,0.176656,0.230302,-0.161002,0.162663,-0.077312,-0.006370,-0.030108,-0.174975,0.074356
0.212237,0.211081,-0.041144,0.451868,0.119353,-0.391058,0.102311,0.061622,0.210631,-0.087386,0.039480,-0.086588,-0.153187,-0.117789,-0.122137,0.133697,-0.291324,0.138949,-0.153977,-0.200607,-0.255030,0.045727,-0.080072,0.158834,0.368986,0.220096,-0.101834,-0.211670,0.253055,-0.034444,0.055186,-0.165408
0.160959,-0.215185,-0.025974,-0.241201,-0.085967,0.394615,0.104918,0.203905,-0.064251,-0.096280,0.313246,-0.037937,-0.446820,-0.045705,-0.193765,-0.019270,-0.064395,-0.279473,-0.141012,0.001434,-0.066040,-0.136161,-0.011940,0.203394,0.044770,0.177301,-0.130313,-0.206004,-0.170386,-0.219832,-0.196892,-0.087365
0.102123,0.034951,0.138342,0.377819,0.107401,-0.452960,0.061546,0.126212,0.406530,0.002842,0.251457,0.093247,0.026377,0.147431,0.150498,-0.201484,0.054279,-0.041028,-0.142155,0.175335,0.134613,-0.220283,-0.246545,-0.159279,0.216457,-0.053273,0.062952,0.266909,0.100989,0.030686,-0.117612,-0.101187
-0.101562,-0.265799,0.064525,0.020470,-0.144769,0.402552,0.374382,-0.282181,-0.171167,-0.192426,0.020048,-0.342212,0.055438,0.235247,-0.026107,0.207759,-0.199114,-0.130181,0.048661,0.293809,-0.028003,-0.084206,-0.229157,0.003575,0.160591,-0.051964,-0.249450,0.146099,0.204142,0.050175,-0.135440,0.215350
0.018216,0.061928,0.007417,0.243336,-0.439038,0.053882,-0.113970,0.269834,-0.159710,0.034387,-0.273583,0.235769,0.097688,-0.015647,0.325232,-0.260466,-0.019006,0.058272,0.030566,-0.125440,-0.004357,0.186295,0.092563,-0.185115,-0.295798,-0.053128,0.011818,-0.125500,0.073095,-0.079808,0.187188,0.191085
0.364401,0.307566,0.100677,0.035806,0.202565,0.126334,-0.081798,0.171210,0.005505,-0.230848,0.313404,0.198026,0.190346,0.075423,-0.257601,-0.151370,-0.012604,0.021200,0.146000,0.412019,0.026794,-0.007621,-0.211066,-0.062615,0.277332,-0.021506,0.233677,-0.032449,0.175117,0.171458,-0.032603,-0.256812
0.189840,0.012783,0.111991,0.384809,0.207852,-0.274771,-0.061990,0.162935,-0.070480,0.116166,-0.046276,-0.142369,0.206338,-0.085732,-0.211050,-0.034293,-0.018311,0.289426,0.038165,0.273528,-0.170122,0.209991,0.058128,-0.110189,0.047636,0.108210,0.138079,0.261326,-0.177451,0.204175,0.245000,-0.062725
0.235316,0.231975,0.264515,0.396519,0.359370,-0.043734,0.056580,-0.147853,0.165746,-0.252365,0.075947,0.216200,-0.240604,0.223694,-0.135722,-0.052358,0.266814,-0.037171,-0.081966,0.144473,0.108290,-0.132978,0.141545,-0.211666,0.191386,0.181994,0.183490,-0.186315,-0.017835,0.097026,-0.084220,-0.009443
-0.160479,0.267108,-0.159843,0.279418,-0.169844,-0.109081,-0.322957,0.206121,-0.217730,-0.075755,0.016003,0.452357,0.074100,-0.168027,0.201268,0.338594,-0.034520,0.134495,0.157379,0.233127,-0.127895,-0.028070,-0.065283,-0.214000,0.114262,-0.192818,0.266365,-0.050660,-0.113751,0.081849,-0.099362,-0.214170
-0.083704,-0.066384,-0.048759,-0.073905,-0.388199,-0.637752,0.113446,-0.047336,-0.122813,-0.218733,-0.102752,0.319034,-0.329105,0.154045,-0.056559,-0.119501,-0.178289,0.044992,0.007645,0.060018,-0.134319,-0.013252,-0.103349,0.013786,-0.041839,0.225243,-0.200373,0.185424,0.127955,0.155612,0.110633,-0.224108
0.285377,-0.035117,-0.109529,0.133603,-0.071560,-0.356442,-0.222687,0.394966,-0.146545,-0.004511,-0.245280,0.108348,0.050133,-0.131771,-0.131467,0.032260,0.178209,0.072473,0.236166,0.152842,0.025106,-0.123989,0.287215,0.051005,0.293195,-0.184940,-0.200619,-0.089489,-0.263461,-0.001429,-0.132962,-0.077850
-0.059864,-0.192441,-0.128445,0.021344,0.120721,-0.266305,-0.072569,0.107692,0.030561,0.150722,0.009636,-0.198355,-0.048026,-0.185218,-0.056172,0.217883,-0.151002,-0.245416,0.108739,0.227878,0.036838,0.089868,-0.195413,-0.185436,-0.122321,-0.205934,-0.233523,-0.276699,-0.080683,-0.043664,0.211226,-0.241909
-0.129728,0.149723,0.110263,-0.008757,-0.185451,-0.465846,-0.200584,0.505262,0.218423,-0.223833,-0.127021,0.499632,-0.463926,0.402043,0.026820,-0.138009,0.069547,0.162348,0.147547,-0.012009,0.185823,0.132360,-0.026003,0.123128,0.205339,-0.076677,0.146084,-0.109796,0.058626,0.035295,-0.433770,0.147744
-0.396913,-0.046013,0.074424,0.347099,-0.326630,-0.160000,-0.218416,-0.038671,-0.165508,0.394612,0.327936,0.326035,-0.494301,0.070331,0.377602,-0.315157,-0.112050,0.332960,-0.072262,0.193938,-0.276505,0.271865,-0.219111,-0.063158,-0.334690,0.416705,-0.214879,0.528758,-0.130443,0.145485,0.279001,-0.050804
-0.034859,0.117121,0.118788,-0.182939,0.100752,0.477065,0.199986,-0.218039,0.294405,0.433047,-0.145182,-0.262622,0.189589,0.100736,-0.276763,-0.242336,0.147424,-0.021438,-0.122788,-0.161882,0.306915,-0.170208,-0.214432,-0.152907,-0.204326,0.230556,-0.174071,-0.308671,0.164981,-0.114881,0.220608,-0.214348
-0.032446,-0.206909,0.145438,-0.227762,0.233916,0.240600,0.055060,0.268853,-0.237105,-0.027328,0.099891,-0.114161,0.359092,0.167264,0.122817,-0.281617,0.227594,-0.080773,-0.091354,0.176886,-0.074282,0.187120,-0.185760,-0.236754,-0.038743,-0.243613,-0.226866,-0.325283,-0.213552,-0.230983,-0.096749,0.150104
0.185700,-0.120992,0.099164,-0.057883,0.030067,0.209885,-0.112240,0.405120,-0.220191,-0.210161,0.145476,0.183510,0.243491,-0.063852,0.303367,0.188807,-0.198248,-0.250116,0.139689,-0.189219,0.053690,-0.040467,-0.140560,0.094484,-0.067407,0.157815,-0.077386,0.034072,-0.011829,-0.235788,0.230782,0.183936
-0.145368,0.100581,0.124517,-0.364406,0.107324,-0.443231,-0.065212,0.394801,-0.180071,-0.102167,0.236284,0.164956,0.344817,0.095553,0.106054,0.185124,0.084066,0.052839,0.234671,0.265936,0.097913,0.124239,-0.100484,-0.215805,-0.339433,-0.443323,-0.184300,-0.304672,0.236126,-0.041477,0.023551,-0.023783
-0.037967,-0.098997,-0.029653,0.018994,-0.146724,0.058404,0.137816,0.136851,0.089676,0.139367,-0.078081,-0.009116,0.056352,-0.083104,0.044831,0.166805,0.202942,-0.120010,0.196619,0.095010,-0.071513,-0.058788,0.245099,-0.204882,-0.005686,-0.260959,-0.013770,-0.127457,0.087470,0.169956,-0.031742,-0.095060
-0.046321,-0.252486,0.253319,0.452777,0.174354,0.231896,-0.138008,0.292209,0.049997,-0.032866,-0.111954,-0.284326,0.505289,-0.249183,0.171646,0.155785,0.043512,0.002565,-0.015601,-0.041892,0.188070,-0.022534,-0.083705,-0.143326,0.117917,0.060810,-0.215594,0.076292,-0.091094,-0.159710,0.383355,-0.218412
0.229486,0.095635,0.127333,0.333601,0.297081,0.106741,0.021542,0.491234,-0.006050,-0.068287,0.170269,0.205716,0.451867,-0.369638,0.308728,-0.136672,-0.118602,-0.149621,-0.279017,-0.107887,0.160595,0.256137,0.130153,-0.188101,0.024335,-0.103386,-0.018774,0.351366,-0.171914,0.055111,0.071961,0.329995
0.174373,0.208378,0.183021,0.009484,-0.154071,-0.172318,-0.058200,-0.160899,0.061738,0.039278,0.030239,-0.004760,-0.469884,0.086417,-0.019239,0.136515,0.208630,-0.057584,0.010066,-0.209487,-0.365109,0.087602,0.192279,-0.051934,0.025190,0.444062,0.111567,0.366281,-0.004949,0.120646,0.228803,0.085545
0.180404,0.127200,-0.081582,-0.121157,0.271013,0.165969,0.103009,-0.184181,0.151972,0.177087,0.101225,-0.034577,-0.124464,-0.237717,0.201655,0.017556,-0.166472,0.065000,-0.028001,0.137928,0.180823,-0.166401,0.174135,-0.101007,0.093226,0.088944,0.133910,0.095798,0.239307,-0.099083,-0.216252,-0.023035
0.025722,-0.001392,-0.129824,0.060167,-0.093258,0.067956,-0.213448,-0.282143,0.093658,-0.022242,0.131612,0.138150,-0.248822,-0.131968,0.234982,0.027925,-0.214215,0.001732,-0.151176,-0.142848,-0.375745,0.023942,-0.099272,-0.105174,0.085571,0.093694,0.163801,0.175956,-0.137477,-0.149638,0.107491,0.207141
-0.193825,-0.069458,0.227888,-0.110941,0.096272,-0.165108,-0.159830,0.133812,0.182879,-0.163004,0.213989,-0.056330,0.089892,0.195087,-0.177885,-0.009456,0.065471,0.178002,-0.021680,-0.172396,0.225424,0.199313,0.286502,0.242710,0.095614,0.123554,-0.171763,0.213125,-0.033251,0.193390,-0.228698,-0.149326
0.238906,-0.189257,0.003426,0.427709,-0.008162,0.271024,0.238602,-0.044239,-0.041669,0.177528,0.133114,0.243506,-0.044897,-0.307597,0.319517,0.048034,-0.233238,-0.275336,0.079473,-0.019392,0.136425,-0.155605,-0.071289,-0.109834,0.249014,-0.013438,0.108145,0.254627,0.037797,-0.211969,0.198181,-0.064790
0.037348,-0.003317,0.204754,-0.264082,-0.145821,-0.197672,-0.087149,0.101130,-0.273178,0.225143,0.194718,0.011466,-0.044808,-0.014554,-0.258961,0.168364,-0.046792,-0.253003,0.096057,0.203239,-0.278954,0.177847,-0.151679,0.186672,0.181373,0.188219,0.061096,0.299078,-0.031771,-0.241965,-0.043581,-0.043252
0.023891,-0.177052,-0.121623,-0.000210,-0.204907,0.019331,0.071287,-0.084345,0.189960,0.019387,0.190388,-0.210271,-0.018424,0.231717,-0.158308,0.210944,0.018744,-0.233281,0.059219,0.084584,0.041868,-0.231221,0.170883,0.029777,0.189566,0.156242,-0.204465,-0.164977,0.070759,-0.025663,-0.200826,0.177731
0.020626,-0.137696,-0.288508,0.157511,-0.196988,0.556911,-0.225331,-0.221516,-0.065291,0.505556,0.336850,-0.223939,0.260365,0.381612,-0.094916,-0.215039,-0.015093,-0.196818,0.108855,-0.050058,-0.111453,0.097839,0.033541,-0.186982,-0.347016,0.261713,-0.218552,0.104229,-0.189214,0.006379,-0.069047,-0.006476
0.062495,0.213920,-0.092526,-0.073695,-0.221977,0.049130,0.160244,-0.307073,-0.244942,-0.099140,-0.129053,0.290470,0.026227,-0.142571,-0.099835,0.281933,-0.068679,-0.169801,-0.142625,-0.014872,-0.329804,0.290625,-0.157668,0.084375,0.147604,0.220736,-0.160941,0.065782,0.095957,0.098084,0.197125,0.025562
0.273944,0.033320,-0.044279,0.170462,0.158195,-0.115115,-0.245842,-0.189463,0.120000,0.246688,-0.009635,-0.177884,0.246203,0.077773,0.160009,0.109700,-0.202269,-0.063559,-0.145649,-0.188774,0.184859,-0.144618,-0.121087,-0.027255,0.232021,-0.135269,0.242128,0.013205,0.174311,0.183851,0.369257,-0.208234
0.069256,-0.008135,0.118828,-0.061339,0.250690,0.224273,-0.132512,0.231792,-0.224910,-0.258099,-0.099061,0.244331,0.100422,0.050696,0.157260,0.204613,-0.243846,0.193453,-0.166825,0.062057,-0.050138,0.053812,0.012452,0.005095,0.037544,-0.242401,0.105970,-0.149081,-0.243144,-0.221925,-0.114630,0.183081
0.037127,-0.081492,-0.243451,-0.231269,0.197706,-0.178327,-0.160675,-0.250955,-0.197952,0.224626,-0.153118,0.083720,-0.133456,0.023338,0.143293,-0.131723,0.165111,0.128035,0.160679,-0.181593,-0.018450,-0.115820,0.008925,0.071003,-0.148943,-0.165654,-0.143362,0.226999,0.091200,-0.109043,-0.166984,0.080316
-0.259142,-0.250114,0.139512,0.115948,-0.302980,-0.394993,0.091194,0.176967,-0.007677,-0.058978,0.014810,-0.112844,-0.174506,0.093675,0.019828,0.173429,0.225268,0.174470,-0.036655,-0.232551,-0.255624,0.027554,0.230722,-0.249759,-0.112076,0.088520,-0.000345,0.158654,0.252273,-0.168526,-0.243020,0.099867
-0.025187,-0.084602,-0.170511,0.091023,0.008636,-0.213432,-0.159036,-0.082333,0.253060,-0.022551,0.098241,0.298880,-0.234088,-0.049839,0.140759,-0.239359,-0.007569,-0.125572,0.167752,0.024634,-0.002197,-0.178126,0.159102,-0.020292,0.190939,0.178530,0.014602,-0.095902,0.000610,0.008964,0.030664,-0.155992
0.031513,-0.175516,0.146585,0.047324,0.172440,-0.172364,0.206020,0.133228,-0.282784,-0.006588,-0.040984,0.114035,0.191219,-0.249472,0.168120,0.224617,-0.157624,0.285153,-0.091332,-0.099871,0.119582,-0.051454,-0.139260,-0.007149,-0.104361,0.128123,0.062125,0.300122,0.030434,0.007602,0.304325,-0.079155
0.069039,-0.152453,0.127980,0.222144,0.102694,0.046502,-0.184360,-0.130334,0.143053,0.092026,0.118727,0.055606,-0.145136,0.002743,0.071354,0.087460,-0.041726,0.074920,-0.121237,0.117675,-0.095973,0.253076,0.188533,0.169533,-0.022450,0.189705,-0.038084,0.022464,0.027691,-0.066585,0.230842,0.161026
-0.127283,0.076657,0.094405,-0.146780,0.071970,-0.070987,-0.237389,0.318822,0.397094,0.286038,-0.288520,0.149491,-0.155606,0.425552,-0.151508,0.087507,0.126821,0.114672,-0.119647,-0.235007,0.170008,0.225435,-0.094042,-0.028278,0.187686,-0.168762,0.096358,-0.091464,0.009310,0.115477,-0.252573,0.032859
0.104664,-0.218693,0.242249,0.090812,0.029023,-0.021426,-0.019351,0.094831,0.180912,-0.046863,0.138367,-0.046136,0.145246,-0.054855,0.090891,0.085405,-0.051167,0.150366,0.052916,-0.180590,0.090843,0.256059,-0.043898,-0.211208,0.063621,-0.192951,0.051204,0.173983,0.076465,0.156497,-0.233633,0.118833
0.021063,-0.004024,-0.166997,0.023865,-0.142023,0.057371,0.132685,-0.326256,-0.063015,-0.131556,-0.062709,-0.335356,0.180056,-0.147037,-0.027003,-0.000334,0.021912,0.195224,-0.108918,0.082633,0.044481,-0.025043,-0.105096,0.021368,-0.049355,-0.016890,0.079359,0.159836,-0.123775,0.113484,0.118800,-0.035602
-0.009285,0.214911,-0.129553,-0.021671,0.171783,0.142852,-0.147587,-0.103073,0.251724,-0.064892,-0.007153,-0.037753,-0.089475,0.383442,-0.092600,0.141518,-0.131288,-0.311897,-0.078933,0.134077,-0.052161,0.222122,0.169173,-0.241997,-0.081810,0.120384,-0.068562,-0.121330,-0.268173,-0.104572,-0.128330,-0.173762
0.341704,0.250702,0.121005,-0.227281,-0.223527,-0.092426,-0.068324,-0.143201,0.220719,-0.038617,-0.180192,0.183165,-0.278827,0.072937,0.243847,-0.194103,-0.198479,-0.018094,-0.124958,-0.064238,0.048027,0.108018,0.068826,-0.197502,-0.072674,-0.077397,0.049418,-0.109171,-0.262880,0.249167,0.168988,0.182671
-0.000452,-0.039033,0.031605,0.015668,0.120764,-0.034100,-0.086334,-0.028771,-0.007291,-0.126907,0.232857,0.193668,-0.064973,-0.018865,0.240139,-0.241077,0.035236,0.087085,0.158147,0.135321,0.228748,0.248565,-0.034333,-0.052402,-0.205312,-0.182893,0.156569,-0.127313,-0.044077,-0.038695,-0.049273,-0.244569
0.189770,-0.003274,-0.199334,0.141337,0.094327,0.150511,-0.102287,-0.048996,0.045885,0.271280,0.095090,0.164711,0.069659,-0.043559,0.096246,-0.025444,0.042512,0.209860,-0.013793,0.086439,-0.010578,-0.146729,0.077562,0.072950,0.247571,-0.144591,-0.119972,-0.234843,-0.097744,-0.181836,0.218020,-0.088928
0.295301,0.205008,0.242771,-0.198071,0.026223,0.024823,0.443568,-0.212020,-0.047837,-0.146261,-0.019022,0.360207,-0.153134,-0.047147,-0.300500,0.315185,0.157399,-0.186998,0.005061,0.122495,-0.135039,0.194308,-0.152277,0.354106,0.131630,-0.202493,0.229878,0.200217,0.274686,0.215913,0.255493,-0.190630
0.098424,-0.280395,-0.094221,-0.007935,-0.230422,-0.013166,-0.330540,-0.039269,-0.068314,-0.011880,-0.152211,-0.186699,-0.258506,-0.017996,-0.114076,-0.137505,-0.171651,-0.173322,0.098418,0.253144,-0.054855,0.257032,-0.043421,0.098397,0.268126,-0.105722,0.443942,-0.022785,-0.066802,0.052324,0.024554,-0.231147
0.193419,-0.278875,0.025114,0.237688,0.059015,0.070855,0.240843,0.188280,-0.063523,-0.196492,0.160281,0.445082,0.242425,-0.080454,-0.095981,0.171851,-0.236546,-0.006863,0.281284,-0.411402,-0.159961,0.169335,0.113025,0.263324,-0.247425,-0.025255,0.729255,0.364308,0.113009,-0.453853,-0.365469,-0.150014
-0.033361,0.022504,-0.150793,0.026108,0.136927,-0.129977,0.235133,-0.188929,-0.171210,-0.257005,-0.169447,-0.063467,0.135574,-0.206511,0.207008,-0.129671,-0.107608,0.058179,0.215926,0.036892,0.235289,0.067662,0.197682,-0.059240,0.137174,-0.116646,0.023879,-0.013634,0.238208,0.044519,-0.241335,0.091649
0.337659,-0.162624,-0.120941,-0.382082,-0.074410,0.411859,-0.283057,0.030342,-0.048786,0.225655,-0.355785,0.032475,0.028437,-0.004397,0.036056,-0.050411,0.077841,0.333977,-0.048796,0.493602,-0.049100,-0.061954,-0.091154,-0.188758,0.399104,0.049665,0.284687,-0.092948,0.046814,0.322549,0.366375,0.215349
-0.151399,0.120485,0.107179,0.065224,0.230931,0.191283,-0.017805,0.145034,0.183949,0.179117,0.121204,-0.255095,0.249194,-0.060003,0.062502,-0.080818,-0.184026,0.204770,-0.115711,0.310626,0.052545,-0.219559,-0.131840,0.127007,-0.105311,0.052027,0.045929,-0.082255,0.255606,-0.080649,0.129261,0.141201
