6
256,16,16,16,16,3
0.038769,0.056584,0.168131,-0.110369,-0.115160,-0.055126,0.115360,-0.034913,-0.106260,0.074361,0.026289,0.037022,0.044268,0.181343,-0.088043,0.030942
0.067309,0.086181,-0.008043,0.014080,0.004707,-0.040921,-0.114861,-0.124912,0.168576,-0.129372,0.039506,0.090557,0.124715,-0.064565,0.054319,0.049314
-0.030503,0.124599,0.078315,-0.122894,-0.042995,0.097309,-0.009233,0.042009,0.230136,0.098171,-0.000191,-0.125355,0.101299,-0.077269,0.105263,-0.037885
0.010831,0.191678,-0.157371,0.035585,0.053723,0.045701,-0.088201,-0.118474,-0.192317,-0.153084,0.352004,-0.022087,-0.143182,0.120360,-0.031866,-0.025564
-0.057913,0.297260,-0.008771,0.137569,-0.047730,0.063289,0.010292,0.122849,-0.076061,-0.083313,-0.144772,0.096017,-0.057314,-0.062134,-0.101612,-0.001052
-0.003589,0.012524,-0.015883,-0.185369,-0.100793,0.027916,0.104931,-0.019223,-0.038289,0.216353,-0.040340,0.010784,0.073518,-0.068598,-0.034573,-0.118253
0.122558,-0.016298,-0.056179,-0.140457,0.148490,-0.097641,-0.125859,0.013732,0.007011,-0.030301,0.017301,0.092006,0.063146,0.010862,0.180156,-0.006079
0.050853,-0.286855,0.117827,-0.037079,-0.044791,0.007638,-0.073338,-0.059935,-0.061230,-0.002204,-0.082483,-0.071083,0.033373,0.127032,0.050016,0.140952
0.056260,-0.261247,-0.045955,-0.054828,-0.203325,0.097159,-0.164717,0.273143,-0.199643,-0.027667,0.159350,-0.170755,-0.016053,0.133254,0.029482,-0.050656
-0.130652,0.147090,0.109687,0.152904,0.118701,-0.036820,0.013617,0.106884,-0.035427,-0.032619,-0.091350,0.081669,0.034873,-0.212038,0.012587,0.045953
0.095472,0.048557,-0.061884,0.086338,0.005229,0.087446,0.013036,0.042872,0.224316,0.141770,0.026845,0.117901,0.143218,0.106381,0.099075,0.051191
-0.060288,0.157421,-0.011726,0.044062,-0.201054,-0.051407,-0.069508,0.136286,0.090386,-0.060448,0.190862,0.080865,-0.031384,0.155313,0.045226,0.113418
0.229399,0.046589,-0.109504,-0.071562,0.046076,-0.161597,0.082830,-0.087484,0.071477,-0.020228,-0.095987,0.014418,-0.138504,0.000462,-0.033216,-0.106766
0.056011,0.014921,-0.111632,0.218337,0.112240,0.175182,0.063695,0.021015,0.016129,0.068017,-0.171424,0.030888,0.136627,0.016557,-0.120046,0.151379
0.052787,0.030138,0.111913,-0.051180,-0.020393,-0.172130,0.022085,0.015520,0.061624,-0.153054,-0.092500,0.016263,-0.094054,-0.095223,0.110725,-0.097871
0.041432,-0.047432,0.026602,-0.171586,0.183506,-0.055257,0.055044,-0.120938,-0.076675,0.134949,-0.115424,0.006700,-0.010486,-0.065524,-0.173817,-0.150714
-0.070373,0.085481,0.013456,-0.154607,0.099462,-0.035326,-0.075311,-0.057104,0.124567,0.056691,0.135624,0.063181,-0.170808,-0.080360,0.058600,-0.021673
-0.072961,-0.163229,0.016819,0.074266,0.006558,0.139679,0.131912,0.118561,-0.001368,-0.000449,-0.243941,-0.215845,0.153933,0.059621,0.198511,0.001650
-0.026026,0.164325,-0.049720,-0.145427,-0.114424,0.043967,0.211948,-0.123353,0.007319,0.100484,0.242259,0.079845,-0.046936,0.067348,-0.085888,-0.005461
0.070166,0.130721,-0.183519,0.061106,0.072387,-0.009704,0.069408,-0.009415,-0.041091,-0.133882,-0.040066,0.168774,0.051070,0.023076,0.014578,0.043007
0.035692,0.107712,0.012370,0.079427,0.102906,0.064205,-0.123603,0.082396,-0.049000,0.026531,-0.026765,-0.057157,0.110831,0.050433,0.103018,-0.049975
0.034058,-0.176077,-0.027035,0.109782,-0.122911,-0.117854,-0.021911,-0.005803,-0.059681,0.000269,-0.021662,-0.037473,-0.000375,-0.022393,0.023811,0.040689
0.094100,-0.080171,0.116189,-0.032460,0.028809,0.156584,-0.023941,-0.121805,-0.016714,-0.068982,-0.164670,-0.010644,-0.064451,-0.080810,-0.031205,-0.033482
-0.045766,0.111977,0.007351,0.001043,0.024963,0.013857,-0.081273,0.097758,0.003778,0.087923,-0.041054,-0.039676,0.047686,-0.049138,-0.121453,0.029822
-0.004665,0.080142,0.069295,-0.047104,-0.006158,0.044199,-0.009532,0.025934,-0.001477,-0.001663,0.120929,-0.060074,0.114420,-0.145861,0.096993,-0.010278
-0.040770,-0.100484,-0.102800,0.103560,0.037343,-0.115276,-0.024755,-0.158778,0.035249,-0.120625,-0.120790,0.191733,-0.206053,0.078928,-0.041037,-0.142296
-0.015439,0.064565,-0.019816,-0.177554,-0.025625,-0.042058,-0.063668,0.139299,-0.115683,-0.051631,0.237980,-0.233970,0.045327,-0.083662,-0.029819,-0.063293
-0.041448,-0.121679,0.106877,-0.085275,-0.062596,-0.000148,0.148110,-0.020003,-0.020729,-0.006277,0.064355,0.106927,-0.031949,-0.003873,-0.035394,-0.061331
-0.138548,0.074572,0.032485,0.028144,0.062355,0.071646,0.030835,0.225420,0.094028,0.086979,0.020202,0.008394,-0.009648,-0.034073,-0.142284,0.164956
0.118677,0.101118,-0.021849,-0.015909,-0.011429,-0.131824,0.067988,0.004718,-0.025679,-0.139876,0.027933,-0.186897,0.011703,-0.133865,0.046455,-0.224466
-0.151908,0.175925,-0.113246,-0.128257,-0.074356,-0.153399,-0.003813,-0.118997,0.032989,-0.167418,-0.044607,0.056605,-0.152320,-0.056884,0.045305,-0.007086
0.082265,-0.095335,-0.093058,-0.067552,-0.065532,0.010580,0.171323,-0.105925,0.050166,-0.102900,0.089454,0.089315,0.051822,0.192168,0.050702,-0.052970
0.047207,0.089165,-0.041610,0.146507,-0.067942,-0.053109,0.044627,-0.025674,0.200195,-0.114784,0.023116,0.038885,0.043932,-0.168077,-0.149328,0.025426
0.008183,0.073618,0.065023,-0.100647,-0.068829,-0.128609,-0.004788,-0.092652,0.019251,-0.061411,-0.048863,0.109416,-0.124332,-0.013049,-0.032295,0.080007
-0.098979,0.077415,-0.094187,0.112899,-0.012334,0.116041,0.043831,0.052156,-0.079460,-0.176585,-0.029196,0.105801,0.089122,0.045580,-0.047803,0.000687
-0.043748,0.071612,-0.143013,-0.133135,-0.010377,-0.031731,-0.025045,-0.043636,-0.049570,-0.014126,-0.067140,-0.150973,-0.020298,-0.147081,0.146757,-0.003364
-0.019886,0.020083,-0.037358,-0.009999,0.011290,0.248725,-0.079716,-0.060835,0.085287,-0.028284,-0.103434,-0.057932,0.075542,-0.081446,0.005560,0.022517
0.176435,-0.180749,0.092915,-0.005254,0.039662,0.033624,-0.023987,-0.010339,-0.093801,0.015152,0.028929,-0.026694,-0.029102,0.106324,-0.184774,-0.021269
-0.090213,0.075037,-0.113604,-0.134659,-0.079627,0.116911,-0.026452,0.031270,0.106157,-0.024126,0.032396,0.036777,0.104931,0.009823,0.131176,-0.036615
-0.061025,-0.081399,0.028917,0.167769,0.045095,0.066528,-0.032805,0.007292,0.001005,0.036929,-0.050867,-0.063851,-0.008413,0.042254,0.001238,0.053529
0.039169,-0.191042,-0.166815,0.048934,0.024641,0.020331,-0.067063,-0.138022,-0.095887,-0.214742,0.184625,-0.016448,-0.005263,0.204351,0.091097,-0.044215
0.010578,0.114168,0.069671,-0.032140,0.044791,0.000242,0.005129,0.157693,0.042415,-0.048763,0.053680,0.064289,0.010786,-0.131552,-0.080567,0.083013
-0.119830,0.041900,-0.006021,-0.133653,-0.004279,0.083768,-0.172148,0.089394,-0.093357,-0.104990,0.063689,-0.101153,0.009549,-0.004572,-0.045658,-0.061404
-0.141869,-0.004104,-0.103676,-0.053765,0.159221,-0.081683,0.050322,0.090373,-0.017396,0.099924,-0.053068,0.027135,-0.133561,-0.097380,0.064344,-0.048047
0.211643,0.126981,-0.052506,0.085642,0.038293,-0.007801,0.049976,-0.017295,-0.018506,-0.131486,0.041505,0.049881,0.168103,-0.024945,0.110843,0.062759
-0.102853,-0.126506,0.084751,0.011820,0.104901,0.065857,-0.199920,-0.064550,0.119422,-0.067966,-0.117979,-0.014571,0.014459,0.072750,0.098273,-0.068937
-0.093512,0.023505,-0.123032,-0.016986,0.038908,0.085882,0.091234,0.314776,0.078487,-0.091091,0.040551,-0.153670,0.143080,-0.072389,0.055652,0.080597
0.053135,-0.178654,-0.137088,-0.104991,-0.049368,0.316815,-0.063148,0.121642,-0.082881,0.082647,-0.032563,-0.092111,0.258512,-0.040443,-0.026760,0.181879
0.016492,-0.215674,0.050211,0.103289,-0.078298,-0.004492,0.063295,-0.068567,-0.147149,0.115428,-0.114818,-0.166322,0.084658,0.053984,0.112294,0.050649
0.094505,0.093880,-0.048804,-0.117594,-0.052745,0.066992,0.020723,-0.170328,0.128237,0.006420,0.084281,0.032540,-0.019197,0.032026,-0.061141,0.069490
0.033055,-0.059072,0.116390,0.086578,0.102194,0.102357,0.096524,0.051489,-0.030635,0.045530,-0.042103,0.135995,0.116002,-0.034292,0.001548,-0.126332
-0.056744,0.038990,-0.044135,-0.076544,-0.056375,0.081066,-0.020801,0.032121,-0.055682,0.002012,0.042499,0.021456,-0.024006,0.172484,0.030916,0.008218
-0.071955,-0.073005,0.053735,0.041496,-0.119411,-0.009432,0.112517,-0.009671,-0.136932,0.057265,0.031911,0.143987,-0.027747,0.010014,0.091821,-0.097816
-0.036016,0.019563,0.004961,0.092622,-0.107268,-0.046700,-0.039899,-0.022838,-0.050753,-0.050249,-0.013099,-0.021825,-0.005656,0.040680,-0.031498,0.150243
0.059089,-0.048340,-0.000297,-0.063672,0.111904,-0.005423,-0.000701,0.072245,0.118302,-0.078697,-0.025270,0.033058,0.089929,0.097197,0.098902,0.059056
-0.044571,-0.001516,0.018874,0.026240,0.033360,0.083526,0.016502,0.026746,0.051494,-0.007198,-0.042484,0.124689,0.033268,-0.135541,-0.041642,-0.059915
-0.052421,0.103170,-0.071765,0.023364,0.091514,-0.180567,0.019649,0.116798,0.025925,-0.064081,-0.111197,0.045920,-0.030701,-0.156704,0.019784,0.061819
-0.019080,-0.207405,0.153855,-0.192035,0.175214,-0.027282,-0.029201,0.089758,0.142141,0.124380,-0.151722,0.111150,-0.018838,0.077362,0.089378,-0.128675
-0.050427,0.121291,-0.096166,-0.024067,0.011251,0.108683,-0.190481,0.041730,0.055767,0.037282,-0.166363,-0.025328,-0.024990,0.003902,0.029031,0.022990
-0.047243,0.094799,0.026914,0.033368,0.060899,0.105493,0.000461,0.007406,0.126756,-0.050477,-0.141312,-0.043269,0.048772,-0.165824,-0.004139,0.201244
-0.098841,-0.085093,-0.039597,0.096841,-0.043347,0.049996,-0.058716,0.041146,0.097973,0.047041,-0.318391,-0.087100,0.012857,0.001996,0.025464,0.088290
0.130205,-0.064028,-0.145690,0.014528,0.088876,-0.133189,-0.132620,-0.049080,-0.137428,-0.006220,0.118619,-0.190475,-0.028641,0.090101,0.048203,-0.073215
0.003817,-0.162272,0.030870,0.023851,0.017301,-0.032500,0.348502,-0.069613,0.026940,0.165192,0.146185,-0.023291,-0.117192,-0.000636,0.051789,-0.140227
-0.289909,0.061391,0.061192,0.119208,-0.012812,0.063192,0.109167,0.128770,0.169353,0.346533,-0.103170,-0.092670,0.144555,-0.074322,-0.076867,-0.034522
-0.079188,-0.420235,0.188112,0.019160,-0.280250,0.100036,-0.023042,-0.034724,0.023438,0.056704,-0.166626,-0.034900,0.018504,0.231325,-0.051991,0.035548
-0.035083,-0.002018,-0.206248,0.042758,-0.152138,-0.098383,-0.026725,0.119783,-0.039587,0.156535,0.197641,-0.206230,-0.034297,-0.001372,-0.020248,-0.128741
0.032816,-0.099232,0.012867,-0.073464,-0.094337,0.141228,-0.054851,-0.066861,0.086914,-0.059346,0.041320,-0.084831,-0.103749,0.071392,-0.007649,0.039110
0.019645,-0.028178,-0.087259,0.062219,0.053971,0.030111,-0.026029,-0.038709,-0.037154,-0.097103,-0.092519,0.063027,-0.047808,-0.078967,-0.117508,-0.103447
0.037677,0.036832,0.126606,-0.005781,0.035837,0.000987,0.037036,-0.069481,0.026673,-0.010158,-0.007874,0.174585,0.002097,0.026865,-0.007288,0.034934
0.042553,-0.188031,-0.101184,0.062517,-0.051301,0.134559,-0.021758,0.091634,0.015967,-0.043447,0.110555,-0.064857,0.012350,0.229628,0.012611,-0.024229
0.022678,-0.079480,0.096755,-0.006573,-0.010075,0.027227,-0.003138,-0.025602,0.039272,0.185799,-0.197851,0.028257,0.036973,-0.054416,-0.057359,0.044216
-0.041550,0.043514,0.099097,-0.082397,0.029830,-0.020488,-0.048089,0.043210,-0.189488,0.017686,0.061703,0.060094,-0.010581,0.013229,0.074450,0.024950
0.043261,-0.033027,0.071390,0.187991,-0.007941,0.088693,0.004979,-0.047776,0.169960,-0.112099,0.028155,-0.035346,-0.005137,0.019058,-0.174240,-0.087755
-0.140726,0.138738,0.011907,0.020759,0.035812,0.054243,-0.047052,0.039900,0.047130,-0.103409,0.026226,0.137926,-0.018285,-0.029436,0.059988,0.128121
-0.049354,-0.049782,-0.077554,0.061712,0.029029,-0.076262,-0.047148,0.122928,-0.235036,0.091077,-0.191299,-0.137014,0.018831,-0.105293,0.065112,-0.049955
0.119461,0.057442,-0.001645,0.065480,-0.145873,0.082279,-0.110497,-0.074883,-0.014987,0.247001,-0.022782,0.068581,-0.197757,0.087158,-0.002565,-0.059987
-0.075585,0.051296,0.005020,-0.046993,0.207579,-0.000186,-0.074110,-0.057046,0.291881,0.051968,-0.084035,0.059558,-0.002773,0.081062,-0.022930,0.158715
0.242210,-0.017255,-0.065756,-0.025935,-0.010872,-0.041696,-0.113326,0.057318,0.067157,0.232930,0.054904,0.036373,0.137902,0.059369,0.122088,0.012153
-0.081294,-0.053961,-0.022515,-0.001180,0.180714,-0.108866,-0.030625,-0.014437,-0.231286,0.023687,-0.226416,-0.029523,-0.024915,-0.006663,0.102528,0.043871
-0.165153,0.185764,-0.082232,-0.031213,0.149820,0.096405,0.116628,0.007715,-0.045213,0.128252,0.040835,0.150304,-0.110047,-0.081847,-0.026729,0.115884
0.210693,-0.361791,0.003564,-0.076028,-0.162016,-0.057276,0.008246,-0.100814,-0.028659,0.079147,0.054584,0.016071,-0.003566,0.026913,-0.060002,0.103649
-0.018930,-0.087342,0.055735,-0.082454,0.068845,-0.000376,0.083439,0.168549,0.030416,-0.005313,0.053103,-0.053679,0.000849,0.160750,0.098129,-0.011534
0.039201,-0.214620,0.035879,0.096664,-0.165301,-0.154749,-0.037094,0.034216,0.066673,-0.050687,-0.004396,0.031800,0.011925,-0.000777,0.142482,0.092705
0.054684,-0.158520,0.011646,-0.022087,0.016265,-0.101862,0.003770,-0.026259,-0.070291,-0.047730,0.002707,-0.049791,0.116745,-0.017464,0.055170,0.054048
-0.052345,-0.001469,0.207975,0.006838,-0.029577,0.132282,-0.176435,-0.020410,-0.087351,-0.092891,0.072675,0.058195,-0.054464,-0.010860,-0.015545,0.041320
0.035763,-0.091163,-0.153880,-0.113020,-0.215259,-0.004974,0.037374,-0.214277,0.123356,-0.031114,-0.117832,0.039118,0.100116,0.114335,0.066718,0.055740
-0.062174,0.175507,0.077555,0.080324,-0.062711,-0.048400,0.066561,0.018272,-0.208445,-0.060451,0.209754,0.059873,0.038036,0.005556,-0.020035,0.042160
0.067757,-0.067547,-0.071637,-0.055475,0.036442,-0.118157,-0.068677,0.047979,-0.037835,-0.046278,0.015326,-0.002249,-0.004959,-0.209059,0.000082,-0.169489
0.017806,-0.047721,-0.079640,-0.002535,-0.107179,0.014793,0.139981,0.026978,-0.066922,0.044409,0.000250,0.144349,-0.101573,0.094781,-0.061972,0.105904
0.023131,0.332604,0.090228,-0.045345,-0.060858,0.060527,-0.002680,-0.074104,0.050191,0.159274,-0.223947,-0.017431,-0.068443,-0.040249,-0.084161,-0.021361
-0.087539,-0.435666,0.035824,0.014740,-0.000518,0.035349,-0.066621,0.161025,0.123433,-0.058258,-0.068438,-0.018249,0.004633,0.011607,-0.027256,0.107128
0.277929,-0.027631,-0.126352,-0.103317,0.145278,-0.114819,0.027266,-0.072971,-0.038171,0.211806,-0.038499,-0.033481,-0.001692,0.157808,0.059421,-0.035004
-0.057586,0.157869,0.051014,0.121712,0.032639,0.072189,-0.203263,-0.064162,0.006628,0.150775,-0.105864,-0.038565,-0.108360,-0.032914,0.030404,0.022468
-0.134875,0.125550,-0.005264,0.016154,0.048610,0.062336,-0.032630,-0.013917,0.114602,0.060849,-0.047870,0.116778,-0.111251,-0.057391,-0.094886,0.084490
0.011305,0.043787,0.087333,-0.073363,-0.157566,0.000114,-0.029554,-0.081804,0.040094,0.220389,0.062603,0.062792,0.095734,0.032798,0.042610,-0.054593
-0.096345,0.037682,-0.010978,-0.152347,0.086667,0.049279,0.075457,0.110259,0.180587,0.446849,-0.018056,-0.071665,0.088714,-0.020578,0.082553,0.041420
0.179923,0.024740,0.004591,0.077025,0.051494,0.013084,-0.203369,0.050173,0.030715,-0.071493,-0.018310,-0.072006,0.050398,0.184156,0.051539,0.075958
-0.030496,-0.328520,0.076447,0.079661,-0.257267,-0.113547,-0.130764,0.131648,-0.054524,0.084315,-0.073016,-0.035544,-0.101402,0.026528,0.008475,0.072258
0.028480,-0.102329,-0.078245,-0.280525,-0.027703,-0.029943,0.039692,-0.112136,-0.030830,-0.052702,0.135222,-0.148095,0.104244,0.046865,-0.176413,0.180742
0.001146,-0.087108,-0.042464,0.064933,-0.056802,-0.149702,0.042841,0.118496,0.025873,0.031700,-0.112006,-0.017255,-0.184115,-0.011519,0.071489,-0.030006
0.099050,-0.089209,0.057580,0.030899,-0.005556,0.010333,0.016039,-0.046829,0.058125,-0.253587,0.105941,0.039948,-0.028803,-0.115335,-0.132649,-0.107076
-0.045832,0.089541,0.022512,0.049196,-0.066478,-0.025256,0.013053,0.034477,0.024256,0.062019,-0.027358,0.015656,-0.124148,0.161109,-0.005595,0.115874
0.032376,-0.308482,-0.105764,0.031503,0.155871,0.046312,0.072797,0.003662,-0.090294,-0.018736,0.005499,0.031520,-0.040026,-0.022054,-0.099043,-0.023726
-0.016980,0.126817,0.103716,0.063071,-0.088011,0.128352,-0.121425,-0.077591,-0.040700,0.116127,-0.105550,-0.071151,0.130034,0.048499,0.065789,0.074888
0.067855,-0.009653,0.008248,-0.114986,-0.064289,0.016471,0.035984,-0.176816,-0.087003,0.082689,0.037985,-0.020715,0.206989,0.005642,0.124052,-0.005614
0.008635,0.024398,-0.152934,0.115561,-0.017321,-0.076403,0.145496,-0.018309,-0.081392,0.033687,-0.101832,-0.038259,-0.234969,0.164019,0.060213,-0.089154
0.099667,0.002373,-0.102994,0.018578,0.139326,0.035290,-0.124491,-0.012319,0.105346,-0.056700,0.069775,-0.030777,0.014961,-0.016436,-0.103986,0.032059
-0.049113,0.026515,-0.005898,0.046674,-0.048763,0.042529,-0.285689,0.127713,0.075600,0.004662,0.003906,-0.045388,0.011114,0.026618,-0.030463,0.043674
0.006948,0.044644,-0.154208,-0.108474,-0.004412,-0.046201,0.021724,0.017545,0.103181,0.115401,0.082815,0.175448,0.026245,0.134043,0.101845,-0.046133
0.135089,-0.053368,-0.024167,0.070219,0.021393,0.000589,-0.016056,-0.047864,0.014448,0.019070,0.106764,-0.019182,-0.066194,0.180894,0.062602,0.060258
-0.141106,0.126297,0.011262,-0.057055,0.185449,0.008686,-0.026462,-0.017480,0.051414,0.034820,0.047726,0.119005,-0.105172,-0.120285,-0.120577,0.048109
-0.090045,0.033707,-0.109923,0.048869,0.077135,-0.018176,0.088486,0.132560,0.209519,-0.084908,-0.113192,0.038240,0.165159,0.084894,0.111145,0.079360
-0.090649,-0.042251,0.117701,-0.071998,-0.233555,-0.135448,-0.140002,-0.076520,-0.051894,-0.169905,-0.043957,0.094971,-0.011677,-0.087853,-0.162144,0.083630
-0.138299,0.041276,0.022296,0.043251,0.009329,-0.024757,0.162499,-0.032560,0.172292,0.120392,-0.155022,-0.046328,-0.015432,0.061295,0.095383,0.098625
0.081549,-0.134102,0.011626,0.117351,0.152975,0.020427,-0.030316,-0.041989,-0.018277,-0.044808,-0.059858,0.011956,-0.085958,-0.041891,-0.003818,-0.036297
-0.125300,-0.088748,0.089517,0.068595,0.030733,-0.056979,-0.137494,0.163865,-0.115038,0.018906,0.048220,-0.145897,0.074157,0.001495,0.155559,0.031300
0.191255,-0.024321,-0.129781,-0.090740,-0.062882,-0.008481,0.082340,-0.076086,0.066837,-0.184767,-0.104367,0.023603,0.033718,0.006670,-0.075419,0.094923
-0.094447,0.077508,0.148483,-0.024450,-0.045029,0.015998,-0.082364,0.084427,0.112856,0.039908,-0.031070,-0.044885,0.130748,-0.225709,0.080902,-0.086914
0.127752,-0.165394,0.068128,0.136581,0.011873,-0.046123,-0.019711,-0.086374,0.006805,0.021033,-0.090243,0.112141,-0.008091,0.099945,0.004684,-0.083986
-0.080761,0.004338,-0.007174,-0.119629,0.163595,-0.049734,0.066149,-0.098789,-0.116886,-0.177794,0.087824,0.135472,0.095607,-0.094505,-0.012735,0.138126
0.029616,0.037587,-0.033080,-0.178265,0.037764,-0.121021,-0.037228,0.070945,-0.025256,0.119160,0.018788,-0.090842,-0.000575,-0.073712,0.031546,0.148581
-0.026003,-0.045119,0.010695,-0.029504,0.041942,-0.025371,0.000480,0.125339,-0.089990,-0.011012,-0.005019,-0.065924,-0.017549,-0.043336,-0.028499,-0.007173
0.219354,0.014654,0.043856,-0.006252,-0.030990,-0.049939,-0.024351,-0.037069,0.238305,-0.161776,-0.004152,0.097240,0.063275,-0.052328,-0.040407,-0.030847
-0.122935,-0.036656,-0.088918,0.010404,0.113476,-0.101695,-0.110527,0.099521,0.025421,0.086572,0.161301,-0.132258,0.063359,0.069594,0.040802,0.059019
-0.068292,-0.246324,0.016181,0.018588,0.212769,0.063247,-0.047500,0.063728,-0.087916,0.131127,0.230221,0.151102,-0.178085,0.097201,-0.002671,-0.293000
0.103958,0.227250,0.102741,0.117026,0.051618,0.144518,0.099519,-0.217508,0.035787,0.035473,-0.085451,0.114499,-0.205857,-0.058417,-0.076262,-0.052838
0.043035,-0.018618,0.119844,0.020426,0.032093,0.033123,-0.102704,-0.102801,-0.028873,0.162623,0.058810,0.068661,0.006818,0.087934,-0.100981,0.111254
0.118656,0.152483,0.149545,-0.019839,-0.042916,-0.199206,-0.114321,0.041810,-0.033643,-0.091851,0.010070,0.047521,0.021502,0.116707,0.096654,0.108718
-0.063620,0.146524,-0.080461,-0.135663,-0.040876,-0.137083,-0.000590,-0.143247,0.097147,-0.137263,-0.021249,-0.182049,-0.015562,-0.022550,-0.047431,0.200643
0.065048,-0.103409,0.072638,0.215854,0.092887,-0.001007,-0.024375,0.148233,-0.123291,0.015117,-0.012495,-0.049561,0.031659,0.045258,-0.084611,0.021959
-0.072782,-0.157858,0.119738,-0.080620,-0.091964,0.104866,0.007559,-0.165163,0.026136,0.174337,0.059114,0.014332,0.072402,-0.084037,0.024374,-0.163133
-0.172662,-0.007525,0.036835,-0.147498,0.097828,0.045055,-0.052538,-0.011895,0.056005,-0.063236,-0.083295,0.106750,-0.059980,-0.025981,0.024413,0.049031
0.178245,0.101034,-0.090864,0.084998,-0.138822,-0.064489,-0.006450,-0.020313,0.085167,-0.145652,-0.032764,0.048244,0.170628,0.132884,0.089561,0.110206
-0.061915,0.075403,0.052819,-0.086170,-0.011676,0.123099,-0.151107,0.131347,-0.028423,0.011714,0.128767,-0.098744,-0.022580,0.065721,-0.025053,-0.108483
0.091215,0.058085,-0.116939,0.083748,-0.025622,-0.168081,0.091144,-0.057861,0.021121,-0.305050,0.018061,0.068719,-0.144614,-0.030928,-0.043081,0.237893
0.036774,0.088574,-0.051946,0.053179,-0.238402,-0.080795,0.101021,0.018578,0.030174,-0.125365,-0.031850,0.034402,0.079224,-0.147265,-0.009381,0.058103
0.055332,0.024226,-0.034718,0.027709,-0.106954,0.028907,0.037671,-0.029998,0.033467,0.143983,-0.077798,0.018139,0.055868,-0.060755,-0.064836,-0.101511
0.253714,-0.107515,-0.081752,-0.007661,-0.039978,-0.016121,-0.160599,0.116570,-0.038128,-0.123785,0.072097,-0.020415,0.029219,0.113021,0.054390,-0.153274
0.005976,-0.049029,-0.059328,-0.106273,-0.161913,0.011892,0.058516,-0.052149,0.191895,0.139912,-0.033021,0.135534,0.034211,-0.018875,0.010255,0.030072
0.029050,0.086916,-0.046173,-0.009144,-0.183953,-0.033456,0.156292,0.029457,0.125135,-0.089481,0.047163,0.047226,-0.074193,0.038544,-0.027942,-0.175675
0.018451,0.004246,-0.045666,-0.046943,-0.071372,0.035334,-0.017611,0.024133,0.123400,0.064635,-0.074585,-0.043591,-0.126132,-0.005546,-0.083712,0.146759
-0.139328,-0.159511,-0.006287,0.074779,-0.055578,-0.024088,0.205626,0.089941,-0.063593,0.217517,0.058234,-0.142810,0.063808,0.119909,-0.096543,0.288699
0.202462,-0.132259,0.022659,0.066973,0.082706,0.028321,-0.040475,-0.088779,0.036136,-0.038966,0.125038,0.070163,0.055502,0.151641,-0.075912,-0.104775
0.012775,0.052808,0.066730,0.134795,-0.017021,0.128021,-0.068765,0.003018,-0.026663,-0.224223,0.218515,0.022672,-0.046674,0.051661,0.120725,0.033885
0.134824,-0.058936,0.086399,0.072614,-0.202261,-0.173510,-0.012578,0.007009,-0.074939,0.067623,-0.031191,-0.213704,-0.076379,0.180444,-0.078780,0.100750
-0.185442,0.002093,0.053206,0.037681,0.008691,-0.073561,-0.077320,0.237279,0.043440,0.078169,-0.107309,0.041058,-0.139573,-0.024573,0.023036,0.082169
0.038438,-0.012840,-0.074953,0.130794,0.067118,-0.078718,0.013882,0.001311,0.037948,-0.180628,0.051842,-0.076778,-0.085661,-0.082590,-0.056901,0.002684
0.076275,-0.027189,0.023216,0.004956,-0.090880,-0.030066,0.106752,0.060364,0.076587,0.048420,-0.085201,0.066215,0.055849,0.064448,0.051004,0.028711
-0.006720,-0.014958,0.023661,-0.028512,-0.039923,0.075111,0.069810,-0.022732,-0.083789,0.100846,0.133269,-0.040274,0.068944,0.049006,0.034222,-0.176820
0.057812,-0.057294,0.027029,-0.064828,0.203524,0.082041,0.007552,-0.052017,-0.069987,0.022309,0.082446,0.070401,0.023911,-0.023059,0.018952,0.005484
-0.127165,0.284415,-0.025968,0.032343,0.008182,-0.203504,0.009890,-0.106443,-0.043648,-0.315749,0.030379,0.118838,-0.048592,-0.116526,0.056340,0.060678
0.117011,-0.051649,-0.013190,-0.024987,0.089377,0.143190,-0.082569,-0.097571,0.004757,-0.113635,0.016690,0.074080,0.148071,-0.018331,-0.028143,0.039884
0.058899,-0.124547,0.094812,-0.051328,0.057893,-0.033397,-0.192304,0.239069,-0.025638,0.131912,-0.006841,0.080703,0.068628,0.019813,-0.083680,0.060888
0.069645,-0.000146,0.015120,0.053778,-0.161187,0.114446,0.031345,-0.036114,0.001290,0.200655,-0.080298,-0.138259,0.049864,0.009230,-0.000961,-0.085006
0.120818,0.032384,0.000865,-0.054431,-0.003873,-0.122971,0.151986,0.073538,0.088780,0.063912,-0.053255,-0.069762,0.003010,0.035268,0.072106,0.171098
-0.025408,-0.140070,-0.035644,-0.126814,0.136445,0.080758,-0.127279,-0.037727,-0.094136,-0.013407,0.093891,0.021044,-0.065635,0.157155,-0.003707,-0.048276
0.135574,0.054774,-0.147638,0.159458,-0.106907,-0.097560,0.012296,-0.130921,0.020011,-0.200313,-0.114207,-0.101474,0.023574,-0.133419,0.102447,0.087463
-0.121601,0.089812,-0.061042,0.044707,-0.198630,0.024920,-0.040628,0.125047,0.037041,-0.181037,0.119868,0.001608,0.012535,0.004133,0.085540,-0.055947
-0.022044,-0.133594,-0.172494,-0.197886,-0.061564,0.152796,-0.005411,-0.104351,0.076331,-0.075631,-0.005770,-0.160614,0.065646,-0.099370,0.007901,0.085556
-0.036927,0.110959,0.145781,-0.084698,-0.043179,-0.058740,0.064812,0.017958,-0.121279,-0.173498,0.125338,-0.029672,0.020996,-0.012322,-0.093658,0.175901
0.073860,-0.033940,-0.021447,0.171067,-0.082203,0.057792,0.109843,0.018777,0.068533,0.088345,-0.095584,0.134694,0.066550,-0.006513,-0.115210,-0.016683
-0.065004,0.191414,0.066499,0.024810,-0.174055,0.038778,-0.026024,-0.093356,0.105359,-0.217850,-0.132080,-0.154778,0.106501,-0.065158,0.058601,0.021999
-0.018722,0.032349,-0.016924,0.012689,0.077002,0.025503,-0.059925,0.101920,-0.118426,0.216933,0.005338,-0.109062,-0.065072,-0.070007,0.107728,0.158076
-0.008805,0.086858,0.123312,-0.004500,-0.098883,-0.105944,0.184615,-0.077250,0.042018,-0.078689,-0.074034,0.042411,-0.039486,0.027476,-0.056868,0.036735
-0.097709,0.199631,-0.021469,-0.088934,0.095845,-0.017389,-0.003572,0.063277,-0.077067,0.041847,0.158393,0.092928,-0.088405,0.007393,0.054925,0.000489
-0.043046,0.041733,0.057091,0.058259,-0.112847,-0.045554,0.029778,-0.054619,-0.139299,-0.104929,0.014592,-0.027635,0.164612,-0.100685,0.121064,0.060095
-0.143781,-0.043601,0.063984,-0.025301,0.125160,-0.050633,0.036169,0.049344,0.108140,0.075078,0.086142,0.062756,-0.005092,0.095291,-0.057423,0.051183
0.059174,-0.010494,0.004545,0.117980,-0.012828,0.122327,-0.040694,-0.068458,-0.162648,-0.107786,-0.055866,0.039140,0.039311,-0.077549,0.019851,-0.006876
-0.101003,-0.076248,0.095527,-0.102956,0.112402,-0.021093,0.108087,-0.035452,0.038453,-0.125899,0.161822,0.120081,-0.043377,-0.040080,0.001599,-0.065331
0.164852,-0.005933,-0.023442,-0.066497,0.029927,0.008486,-0.078835,0.043512,-0.119095,0.128224,0.041056,-0.036786,0.118326,0.069265,-0.065877,-0.158545
0.014482,-0.086147,0.018261,-0.030591,0.122535,-0.139803,-0.169396,0.070269,0.001540,-0.030459,-0.078059,0.165880,-0.019640,0.021581,0.094002,0.059985
0.193671,-0.053471,0.080745,0.126001,-0.266941,0.112768,-0.014474,0.056679,0.067403,0.062562,0.041889,-0.038658,0.129121,-0.130515,-0.037795,-0.166642
0.069660,0.022902,-0.064340,0.087104,-0.022304,-0.114393,0.180093,-0.195179,-0.026538,-0.069587,-0.092652,-0.025551,0.073279,0.114012,0.122283,0.069994
-0.101741,-0.128657,0.123712,-0.017400,0.003670,0.055414,-0.122382,0.151567,-0.030406,0.005753,-0.043604,0.027013,-0.103898,0.011664,-0.086592,-0.088172
0.010826,0.223592,0.048274,0.084189,0.092244,0.165441,0.091539,-0.023997,-0.033992,0.025916,-0.005365,-0.009958,0.029841,-0.142901,-0.051036,0.152884
0.132966,-0.254521,0.061506,-0.204944,0.142422,-0.062166,0.030896,0.064784,0.102563,0.170765,0.091252,-0.005510,-0.047945,0.044236,-0.129197,0.038832
-0.086861,-0.224179,0.004609,-0.052939,-0.074416,0.023845,0.159746,-0.082139,0.191660,-0.052727,0.062967,-0.082099,-0.074420,-0.088148,-0.171236,0.198231
-0.055823,0.124252,0.143822,-0.046664,-0.085554,0.065957,-0.034579,-0.035231,-0.108604,0.088838,0.175823,0.193681,0.127795,-0.187289,0.019960,0.061003
0.024701,0.037515,-0.055517,-0.002245,-0.011989,-0.013242,-0.016244,0.217648,0.081185,0.097623,-0.064643,-0.110033,-0.068804,-0.161034,0.071199,-0.117233
0.037970,0.013377,-0.009468,-0.015414,0.015257,0.025455,0.075475,-0.067391,-0.161071,0.060430,-0.088609,-0.014349,0.047483,0.075602,-0.018003,-0.043555
-0.022161,0.160561,0.050778,0.069301,-0.007698,-0.136765,0.029193,-0.078543,0.009297,-0.013589,-0.070259,0.025812,0.019610,-0.042405,0.112378,0.123427
-0.033492,0.003721,0.032173,-0.050253,-0.012515,0.105904,-0.103862,0.138851,-0.172962,0.079403,0.334238,0.069278,-0.001747,0.048431,-0.120308,-0.152381
0.111572,-0.077975,0.007227,0.123284,-0.046820,0.052949,-0.103634,-0.152383,0.009978,-0.217578,-0.017714,0.065266,0.013950,0.043628,0.068719,0.031410
0.048014,0.023033,-0.165921,-0.068950,-0.042811,-0.131683,0.134269,-0.041446,0.074977,0.017827,0.065716,0.004995,-0.016107,0.039686,0.055621,-0.130706
0.021646,-0.080086,-0.007584,-0.054440,0.051263,-0.233515,0.040243,0.227941,-0.190264,0.048659,0.002024,-0.089496,-0.027645,-0.162351,0.014537,-0.066499
0.019279,-0.038679,0.113951,0.049214,-0.086232,0.202617,-0.011359,-0.060362,0.098771,0.094384,0.045715,0.003896,-0.047113,-0.024306,-0.076913,0.030798
-0.126593,0.134998,-0.051048,-0.059074,-0.012610,-0.000565,0.156187,-0.030691,0.053179,-0.114062,-0.088921,0.047987,0.314692,-0.041785,0.029624,-0.067592
0.009070,0.122448,-0.031005,-0.109652,-0.041205,-0.161651,-0.118033,-0.115535,-0.046459,0.017635,-0.056801,0.148845,-0.029756,0.144510,0.187055,0.120286
0.154249,-0.072961,-0.182293,-0.045891,-0.079561,0.100555,0.083083,0.059308,0.049942,-0.103336,-0.064042,-0.100444,0.005852,0.141586,0.136308,-0.129159
0.011655,0.054466,0.169597,0.192901,-0.084883,0.098064,-0.020613,-0.154217,-0.153328,0.001798,0.213836,-0.099644,-0.057710,0.058531,0.094857,-0.068931
-0.193208,-0.012142,-0.007337,-0.112575,0.050191,-0.045964,-0.073660,-0.066499,0.016537,0.045240,-0.154330,0.057483,0.012774,0.048724,-0.230349,0.056079
0.157625,0.015869,-0.011748,-0.072840,-0.141970,0.096208,0.108635,0.356263,0.134515,-0.115779,0.175066,-0.083593,-0.079230,0.033080,0.058902,0.015432
-0.212567,-0.119898,-0.043869,0.021554,-0.153227,-0.090167,0.017619,-0.103474,0.139753,-0.119705,0.055764,-0.114517,0.163840,0.026091,0.156470,-0.013362
-0.050193,-0.008014,-0.060802,0.129981,-0.011482,0.079432,0.077371,-0.007116,-0.082545,0.118320,-0.186327,-0.004448,-0.171155,0.048632,-0.135155,0.223951
0.068771,-0.155636,0.033969,-0.144051,0.076287,-0.122283,0.056784,0.021166,0.051798,0.183543,0.043058,0.106808,0.155096,-0.026130,0.063908,0.072083
0.059996,-0.017340,-0.008623,0.038740,-0.091397,0.056039,0.087483,0.040195,0.063249,0.059284,-0.022643,-0.025362,-0.043205,-0.052345,0.176515,-0.005060
-0.012603,0.081707,-0.094550,-0.099966,-0.051158,-0.021399,-0.017560,0.053228,0.012341,0.053237,0.058233,0.132196,-0.021724,0.148755,-0.116326,-0.146057
0.049611,0.169203,-0.046500,-0.113938,0.008559,-0.045808,0.084168,0.163610,-0.011906,0.077424,-0.136571,-0.086662,0.008010,-0.010870,-0.048987,0.185314
-0.047550,0.107580,0.016238,-0.057037,-0.120302,0.224977,0.003782,-0.039980,0.238114,-0.019871,-0.026679,0.066292,0.065623,-0.023082,0.015601,-0.078950
-0.029945,-0.136111,-0.058692,-0.009734,-0.004579,0.086771,-0.049782,-0.060073,-0.051505,-0.152835,0.045818,0.001447,-0.066392,0.053576,0.101887,-0.000459
-0.119068,0.057988,-0.078102,0.115711,-0.156468,-0.019641,0.052384,0.111262,-0.052534,-0.014019,0.073608,-0.068764,0.039904,-0.190303,-0.111950,-0.054443
-0.102444,0.154962,0.014962,-0.060138,0.192268,-0.261895,-0.036450,-0.050355,-0.102524,-0.143612,-0.209006,0.062560,-0.093487,-0.169512,0.001621,-0.051907
0.250422,-0.102190,0.058524,0.132345,-0.034056,-0.157216,-0.053429,0.093366,0.116094,0.003671,0.127662,-0.154292,-0.090372,-0.076753,-0.057294,0.042426
-0.007618,-0.124147,0.117196,-0.057645,0.271092,-0.163493,0.086309,0.072117,0.047846,-0.024639,0.047386,0.126891,0.083256,0.084403,-0.098819,0.091877
-0.067919,-0.012121,0.205805,0.233398,-0.128433,-0.006876,0.097354,0.144928,-0.068492,0.212235,0.151925,0.154891,0.147987,0.154761,-0.025967,0.139236
-0.072315,0.014482,0.054101,-0.255287,-0.079839,0.083154,-0.050436,0.004417,0.048628,0.106852,-0.172748,-0.067345,0.194175,-0.143647,-0.176282,-0.015669
0.102732,-0.112887,-0.084862,-0.065241,-0.055153,0.042776,-0.121387,0.094243,-0.018738,0.071574,-0.145959,-0.167484,-0.085716,-0.173198,-0.171173,0.041974
-0.139581,0.142445,-0.013619,-0.104260,-0.199819,0.003752,-0.105139,-0.085413,-0.100278,0.086014,0.141055,0.125198,0.065798,0.219294,-0.274216,0.015685
0.010387,0.090246,-0.091183,-0.088226,0.011843,-0.141176,0.030854,-0.026104,0.083107,-0.012840,0.079962,0.059807,-0.021792,-0.093961,-0.052284,0.142864
-0.136706,-0.044632,0.024068,-0.075542,-0.124364,-0.244319,-0.075993,0.194891,-0.001416,-0.060855,-0.312507,-0.039062,0.082100,0.009813,-0.116339,0.131870
-0.143957,0.081954,0.052855,0.102737,0.010694,0.108395,-0.066294,0.176954,0.185521,-0.085430,0.053546,0.112443,0.073569,0.050825,-0.112557,-0.024259
-0.080848,0.027374,0.008734,0.006709,0.102579,0.100168,-0.060393,0.181696,0.060071,0.137996,-0.059727,-0.047352,0.041836,-0.096026,-0.131153,-0.004465
0.042278,-0.030120,-0.050455,-0.055883,-0.003192,0.049837,-0.022701,-0.112486,0.044556,-0.043168,-0.027027,-0.060676,-0.121625,-0.183229,-0.150085,-0.080971
-0.069972,0.001793,-0.077033,-0.017936,0.070162,0.010953,-0.096666,-0.164360,0.120439,-0.186974,-0.030404,0.004681,0.027277,0.059026,0.055686,-0.145777
-0.070246,-0.079151,0.079451,-0.146033,-0.104242,0.028829,0.091288,0.023647,-0.176414,0.057700,0.173838,0.029117,0.170146,0.041826,-0.058349,-0.026203
0.100523,0.253000,-0.153714,0.069154,0.123594,-0.214457,-0.141937,-0.042365,0.009085,-0.023832,0.069712,0.166618,-0.020257,-0.122713,-0.049901,0.072820
0.146287,0.014574,-0.046222,0.129725,0.030143,-0.045882,-0.147278,0.151769,0.052002,-0.133677,0.029250,0.121015,0.041080,0.099706,0.191163,-0.096930
0.311419,-0.064027,0.078640,-0.003208,-0.064568,-0.043006,0.068269,0.110317,-0.082185,0.041345,0.148346,-0.019707,-0.020985,-0.100472,-0.208127,-0.052799
0.111533,-0.077682,0.025857,0.091793,-0.097487,0.156597,-0.092727,0.121921,-0.015360,0.127078,-0.029535,-0.044576,0.090115,0.042316,0.027556,0.146098
-0.060134,0.002327,-0.019985,-0.118044,-0.085902,0.004233,0.089410,0.069120,0.021799,0.113326,-0.246675,0.029152,0.049226,0.052257,0.019129,0.000443
-0.133520,0.059287,0.028473,0.039166,0.018370,-0.043786,-0.069818,-0.069295,0.026219,-0.113497,0.068755,0.031835,-0.080941,-0.008737,-0.309911,-0.022033
0.111231,-0.154144,0.051055,-0.001690,0.129248,-0.017187,0.077859,0.005844,0.093440,-0.071473,0.005988,0.046540,0.036926,0.105057,-0.064092,0.047295
-0.029393,0.062915,-0.059302,0.184065,-0.015239,-0.089468,0.351838,-0.000326,-0.031692,-0.147404,0.076347,-0.009024,0.060728,0.281588,-0.212219,0.045333
-0.014393,0.066337,0.134361,-0.043057,0.178581,-0.047373,-0.058916,0.037160,0.106597,0.206468,0.247694,0.218926,0.008272,0.111467,-0.148679,0.222175
0.001837,0.177915,-0.034546,0.071027,0.063156,0.312648,0.109065,0.042570,-0.048365,-0.061516,-0.173514,0.095184,-0.026319,-0.171656,-0.104515,0.006821
0.070452,-0.184815,-0.010991,0.071642,-0.041847,-0.016971,0.024261,-0.088339,0.172985,0.013252,0.016648,-0.088246,-0.147663,-0.114515,-0.188879,0.031165
0.030541,0.027073,0.078536,0.034715,-0.007691,-0.063399,0.040942,-0.092612,-0.071378,-0.061322,0.000777,-0.030651,-0.035163,0.042906,-0.149765,-0.048885
-0.148584,-0.066938,-0.106050,-0.072342,-0.062376,-0.252490,-0.103036,-0.007329,-0.137115,-0.214042,-0.004306,-0.089554,-0.003248,-0.065052,-0.256549,-0.005063
-0.025843,0.058618,0.047056,0.095996,-0.026600,0.029470,0.026024,0.068764,-0.088761,-0.160495,-0.074673,0.002274,-0.019888,0.031202,-0.167477,0.098438
0.188675,0.130889,0.037419,0.051548,-0.089847,-0.149208,0.051963,0.057882,0.099678,0.102540,0.140013,0.130196,0.021986,-0.018546,-0.025478,0.118246
0.053262,0.083083,-0.108043,-0.005124,0.001030,0.014490,0.022344,0.042038,0.051311,0.046418,-0.166579,0.063267,-0.014314,-0.038534,-0.143614,-0.190015
-0.056166,0.124519,0.039964,-0.054286,0.007146,-0.021195,0.169120,-0.004571,-0.144192,0.005179,-0.041619,-0.211374,0.014607,-0.144457,-0.212435,-0.049879
0.108240,-0.100700,0.063076,-0.081146,-0.003391,0.109137,-0.022507,-0.108757,0.063282,-0.063538,0.316787,-0.017979,-0.002539,0.081175,-0.165692,-0.071086
-0.231616,0.036412,0.001224,-0.152805,0.164888,0.006168,-0.010795,-0.082425,-0.090837,-0.000815,-0.026891,-0.007038,-0.064836,-0.010307,-0.203624,0.020595
-0.058252,-0.170239,-0.037973,0.011508,0.019629,0.088841,-0.023946,-0.193034,0.014478,0.010289,-0.041199,-0.028408,-0.146241,0.085867,0.160783,-0.087095
-0.045889,0.171018,-0.078632,-0.019009,-0.268282,-0.020426,0.073914,0.087574,-0.054251,-0.010599,0.040447,-0.164781,0.159924,-0.044920,0.025921,0.030716
0.044371,-0.052965,0.132423,0.078074,-0.062321,0.121409,0.181775,-0.054255,-0.158117,0.006706,0.151229,-0.104998,-0.024851,0.045371,0.016435,0.063344
-0.109429,0.060703,0.017526,0.021761,0.179868,0.022705,-0.027547,-0.021435,0.112872,0.134795,0.020688,0.201828,0.008938,-0.108650,0.079498,0.079357
-0.168554,0.045433,0.148361,0.023845,-0.024240,0.103079,-0.062683,0.148749,-0.048423,0.126912,-0.097623,0.037960,-0.014514,0.059625,0.079098,-0.125197
0.062005,-0.179874,-0.092552,-0.211270,0.065268,-0.018235,-0.190018,0.017476,0.202133,-0.053491,-0.075812,-0.018565,0.058992,0.194308,0.155959,-0.284426
0.045241,0.044966,0.086269,0.138982,0.004565,-0.166545,-0.246758,-0.089367,-0.144063,-0.177574,0.209069,0.000697,-0.180168,-0.078838,-0.091662,-0.095783
0.179196,0.005049,-0.116319,0.054978,-0.143007,0.218874,-0.115188,0.047382,0.001066,-0.225787,0.131653,0.106470,0.139628,-0.005083,0.055852,-0.356320
0.165231,-0.061170,-0.101449,0.022846,-0.038125,0.017481,-0.137323,0.007462,-0.110119,-0.111406,-0.034105,-0.083748,0.006735,0.131468,0.004729,-0.082444
0.232268,0.228396,0.014801,0.044476,0.178526,-0.007226,0.005841,0.071808,-0.044811,-0.006306,-0.043495,0.087220,-0.148259,-0.094736,-0.030868,-0.184220
0.193876,0.020086,-0.090041,0.054004,0.158882,0.056244,-0.157792,-0.162685,0.116715,-0.114848,0.056016,0.050584,0.074797,-0.076528,0.036497,-0.094049
-0.040584,0.159657,0.035906,0.102914,-0.109906,0.234416,0.028037,-0.247390,-0.215081,0.020643,-0.107358,-0.117678,-0.109707,-0.084408,-0.084188,-0.234943
-0.003177,-0.010542,0.097916,0.263255,0.027398,-0.004621,0.030698,-0.072895,0.063195,0.134073,0.029677,-0.111482,-0.259193,-0.189759,-0.183039,-0.221447
0.056183,-0.081882,0.159781,0.084267,-0.272880,-0.125789,0.047797,0.001094,0.032743,0.091315,-0.129650,-0.007947,-0.029863,-0.011094,0.111858,0.000424
-0.010658,0.016294,0.127169,0.009499,0.070582,0.217632,-0.004138,-0.056349,-0.066735,0.166903,-0.174999,-0.021007,0.073175,0.079202,0.225935,0.031865
-0.217349,-0.073310,-0.072762,-0.210037,0.031210,-0.186627,0.003950,-0.110274,0.091631,0.038848,-0.002475,0.208144,0.081771,0.159475,-0.188306,-0.197468
-0.008300,0.201227,-0.091375,-0.233473,-0.041569,-0.179728,-0.237898,0.080524,0.041514,-0.010102,0.029779,0.074518,0.193422,0.108338,0.139455,-0.228062
0.072918,-0.142960,0.221496,-0.136902,-0.110327,-0.039394,0.021720,-0.253329,0.025493,0.104413,0.107147,0.064637,0.039926,0.047491,0.058419,0.083808
-0.007250,-0.076713,0.131468,0.137814,-0.044822,0.219586,0.062380,-0.133401,0.026900,0.001807,-0.169259,0.136613,0.022351,0.036897,-0.085675,-0.017185
0.157117,-0.074253,0.004438,-0.012495,-0.085788,-0.079180,0.002891,-0.135012,-0.000387,-0.148920,-0.058907,-0.005760,0.162696,0.103473,0.096602,0.103010
-0.007637,-0.152219,0.035682,-0.011131,-0.031796,-0.019907,0.214288,-0.345290,-0.096868,-0.077954,0.182970,-0.027295,-0.032613,-0.102732,0.055322,0.017362
0.010407,-0.137712,-0.130581,0.006430,0.046097,0.238639,0.227148,-0.179859,0.087367,-0.298988,-0.049678,-0.072004,-0.094627,-0.047517,0.029954,0.131092
0.510749,-0.147829,0.467705,-0.264401,-0.679849,0.542516,0.557402,0.304868,0.215443,0.271201,0.275570,-0.002737,-0.518575,0.467003,-0.122632,0.246790
0.200303,0.017906,0.065196,0.610970,-0.048030,0.003001,-0.105377,0.078219,-0.517546,-0.522388,-0.661811,0.416366,-0.330317,0.155750,0.088498,0.263673
-0.151295,-0.226120,0.468912,0.186802,0.180370,-0.189680,-0.169193,-0.343793,-0.356226,0.018083,-0.251335,-0.163464,-0.537034,-0.105128,0.169703,-0.147470
0.245256,-0.347094,-0.263330,-0.045935,0.227703,0.475783,-0.029303,-0.040362,0.646867,0.464921,0.409320,0.010288,-0.173577,0.329708,0.139584,0.527934
-0.365689,-0.140825,-0.173997,-0.072180,-0.132245,0.104037,0.118644,-0.341204,-0.553709,-0.363235,-0.131249,0.573473,-0.054409,0.307677,-0.207650,0.865863
0.079698,0.296063,0.466066,0.323641,-0.300638,0.378306,-0.111803,0.414212,0.094878,0.380286,0.205979,-0.243460,0.085174,0.247217,0.243890,-0.108199
-0.017834,-0.085538,0.250905,0.081701,-0.186981,-0.083613,0.355738,0.459615,-0.567443,0.500067,0.113764,0.060901,-0.182140,0.225698,0.199170,0.208258
-0.434405,-0.186088,0.419489,0.357571,0.389008,0.143190,-0.040661,0.706210,-0.074993,0.524681,-0.154046,-0.109843,0.188544,-0.088654,-0.445911,-0.156573
-0.019173,0.025561,0.013475,-0.070921,-0.234016,-0.007944,0.238998,-0.021050,-0.213071,-0.315402,0.402617,0.286648,0.412068,-0.030189,-0.339344,0.550036
0.349354,-0.173911,-0.168250,-0.157254,0.195226,0.350456,-0.617426,0.075291,0.125046,-0.270972,-0.193611,-0.111177,-0.018961,0.080337,0.035645,-0.028702
0.513865,-0.303366,0.348862,-0.108106,0.091869,0.559683,0.006318,0.187617,-0.022784,-0.132343,-0.118173,0.136927,0.194829,-0.440063,0.513451,0.436698
-0.117419,-0.309983,-0.108783,-0.182721,-0.306944,0.184913,0.412442,-0.110306,0.344126,0.346638,0.201158,0.029141,0.518965,0.035915,0.069635,-0.079984
-0.197716,-0.062678,-0.280390,-0.008081,-0.250163,-0.324487,-0.302838,-0.019328,0.435197,0.051654,0.055292,0.365323,-0.754743,0.511674,-0.042724,0.087613
0.186119,-0.214773,-0.163805,0.047830,0.291649,-0.355758,0.247200,0.388684,0.001190,0.240312,-0.308953,0.591683,0.138630,0.576059,-0.257103,-0.308882
0.357134,0.186747,0.078486,0.457867,0.194378,0.567468,0.390341,0.450402,-0.122733,0.159639,0.695689,0.095408,0.546722,-0.206990,0.199833,0.228563
0.408355,0.141836,0.632686,0.451481,0.155534,0.355280,-0.590861,0.348962,0.343006,-0.016209,-0.499368,-0.362458,0.138793,-0.013826,-0.434480,-0.176907
-0.371156,-0.303182,-0.186981,-0.568444,0.206375,-0.021541,-0.177749,-0.317441,0.026855,-0.447196,0.078034,-0.169839,0.066657,0.571562,0.166756,0.099001
-0.130518,-0.039301,-0.117010,0.003688,-0.209746,-0.323225,0.020429,0.364801,-0.015964,0.174543,-0.177721,-0.193295,-0.076100,-0.169923,-0.073802,-0.085345
-0.453047,0.002135,-0.247356,0.346003,-0.334646,-0.339498,0.352934,-0.181329,0.038489,-0.091261,-0.579400,0.329620,0.594820,-0.209028,0.392964,0.256534
-0.137589,-0.201415,-0.349780,0.093157,-0.195177,-0.322196,-0.196441,-0.210762,0.227472,-0.120440,-0.115333,-0.340088,0.585747,-0.265223,0.004832,-0.223221
-0.256403,-0.253999,-0.512036,-0.295456,0.288573,-0.434203,0.367710,0.005887,-0.070826,0.135401,0.362563,0.231563,-0.089795,0.578079,0.118011,-0.474621
0.030634,0.003904,-0.162677,-0.381671,0.251887,-0.257732,-0.382070,0.342659,-0.016146,-0.372242,0.168376,-0.450531,0.786576,0.528238,-0.119548,-0.216169
-0.194061,0.259458,-0.225857,-0.276664,0.273146,-0.333339,-0.034775,-0.057131,0.615024,0.028357,0.083747,0.372523,-0.091472,-0.824413,-0.317042,0.207720
-0.206451,0.032906,0.490325,0.317205,-0.116339,0.599978,0.147007,-0.501537,0.148424,-0.072694,-0.422629,-0.176857,0.580678,-0.369691,-0.102634,-0.244763
0.059137,-0.315658,0.220692,-0.421410,-0.233509,0.187013,0.544745,-0.129861,-0.521807,0.260000,0.451915,-0.520944,-0.104804,0.249219,-0.260872,0.144631
0.689516,-0.059831,0.551442,0.054897,-0.038577,0.192658,0.164711,-0.248992,-0.063921,-0.327211,-0.210095,0.254547,0.547024,-0.344656,-0.061838,0.150181
-0.164766,-0.316104,0.314638,0.024290,0.121306,0.682748,-0.266080,0.187058,-0.558145,0.390875,-0.360232,0.243310,0.634402,0.063328,-0.319667,0.171119
0.351964,-0.121578,0.105606,-0.298504,-0.124356,-0.079535,0.117016,0.013393,0.706029,0.462175,0.565329,0.357427,-0.289492,0.243886,-0.059834,-0.002110
-0.210918,-0.149403,0.287277,-0.570355,-0.267497,-0.271855,-0.170469,0.161859,-0.649588,-0.195915,0.426197,-0.102466,0.093536,0.734812,0.162822,0.149368
0.630008,-0.205838,-0.208256,0.289282,-0.191019,0.333262,0.144606,0.270760,0.517976,0.187896,0.001215,0.266138,-0.521869,0.280166,-0.469576,0.513164
-0.349647,0.051032,-0.073129,0.077974,-0.245026,-0.109404,0.259398,-0.038702,0.656639,0.021764,-0.204760,0.461501,-0.180021,-0.047065,-0.262544,-0.291076
0.475124,0.125801,-0.400855,-0.074291,-0.311381,-0.714524,-0.387884,0.222394,0.228809,-0.220093,-0.123182,-0.356610,-0.002260,0.493411,0.131694,-0.143910
0.174113,-0.230443,0.340811,-0.104424,0.027018,-0.001427,0.018307,0.094504,0.681899,0.586145,0.543554,0.047000,0.230351,-0.037524,0.161549,0.164371
-0.065574,0.033889,-0.352001,0.315279,0.185649,0.247519,0.149169,-0.227152,-0.073247,0.102497,-0.172884,-0.043506,-0.289262,-0.347148,-0.172874,-0.098696
0.101820,-0.229539,0.379468,-0.290309,0.778764,0.283780,-0.141862,0.016650,-0.266674,0.227115,-0.532165,0.043979,0.103356,-0.283067,-0.015427,0.539535
0.660104,-0.222719,-0.174883,-0.093593,-0.270706,0.220309,0.221880,-0.007015,-0.301031,-0.149960,0.324694,-0.125989,-0.559173,-0.021276,0.608865,0.242477
-0.084558,-0.278107,0.082148,-0.050950,0.204022,-0.182058,-0.188386,-0.127981,0.044303,0.163230,-0.026986,-0.034791,0.035877,0.349884,0.200325,-0.181709
0.139565,-0.020241,-0.409499,-0.389908,0.529201,-0.231867,-0.021946,-0.311572,-0.516237,0.137201,-0.710280,-0.101143,-0.334005,0.169781,-0.114563,0.766548
-0.421400,-0.307753,0.288528,0.287100,-0.275760,-0.180379,-0.167832,0.284761,0.062126,0.209564,-0.582604,-0.143919,-0.179277,-0.036015,0.138515,-0.406503
0.508299,0.204228,-0.152071,-0.378278,-0.362450,0.079541,-0.130936,-0.342592,0.087080,0.232665,0.427342,-0.012621,-0.007457,-0.192359,0.352645,-0.290889
0.581285,-0.338185,0.136308,0.339439,-0.665638,-0.172135,0.096432,-0.154965,0.381480,0.191287,-0.137951,0.166930,0.093255,0.122408,0.666262,-0.743682
0.370894,0.297775,-0.168929,0.266647,-0.204914,0.335316,-0.219487,-0.196251,0.184345,-0.261772,0.387583,-0.170567,-0.013638,-0.084168,0.175515,0.338899
-0.179561,0.266210,0.213387,-0.139941,-0.091121,-0.185631,-0.118856,0.325063,0.408237,0.364700,0.353600,0.391632,0.470257,0.061837,-0.029183,0.190660
0.553830,-0.070398,-0.099036,-0.075196,-0.272909,-0.159009,-0.219360,-0.140992,-0.364470,0.136562,0.129897,-0.242127,-0.361440,0.246317,0.071328,0.426222
0.116586,-0.211612,0.183955,0.489950,0.438625,-0.253255,0.601515,-0.272959,0.193083,-0.903837,0.185791,-0.721448,0.126173,-0.224457,0.644841,0.192905
-0.853237,0.141904,0.543595,0.195421,0.457648,-0.185220,0.231437,-0.094491,0.367578,0.203243,0.297255,0.512586,0.598449,-0.342517,-0.236846,-0.089014
0.279164,0.315722,-0.285195,0.056279,-0.216439,-0.114705,-0.282699,0.224621,-0.116520,0.221307,0.362474,-0.134480,-0.271814,0.307363,-0.238039,-0.348082
0.366946,0.081652,-0.093875,0.001864,0.319430,0.270697,0.012635,-0.022074,-0.140512,0.173389,-0.479859,-0.072957,0.151374,0.093736,-0.055652,0.434229
0.064870,1.428691,0.127837
0.139186,0.182118,0.266067
-0.147307,-0.828300,-0.328481
-0.365050,-0.049807,-0.499932
1.064681,-0.883464,-0.224018
-0.055756,-0.147467,0.216256
0.196899,0.032707,-0.626071
0.013642,-0.101099,-0.222993
-0.858553,-0.716563,-0.051232
0.278882,-0.227211,0.991748
-1.184104,0.694766,-0.003566
0.137889,-0.323499,0.845026
-0.253875,-0.875357,0.057070
0.323089,-0.155873,-0.081155
-0.263810,0.954837,-0.602311
1.354276,0.232538,-0.235261
