10
256,16,16,16,16,16,16,16,16,3
0.071847,0.088795,-0.158440,0.120538,0.012890,0.021564,0.164436,0.026355,0.006465,-0.181605,-0.092631,-0.180752,0.014107,0.153308,0.071793,-0.051229
-0.081624,0.081740,-0.069417,0.049909,-0.036958,0.086928,-0.046469,-0.109521,-0.187698,0.060078,0.081055,-0.063775,0.044797,-0.032867,0.067845,0.041224
0.086602,-0.017968,0.035916,-0.003375,0.076143,-0.028659,-0.022184,0.203026,0.095293,-0.026768,-0.148556,0.074790,0.028513,0.166111,-0.022010,0.113475
-0.194158,0.196261,-0.054345,-0.085844,0.030138,0.185723,-0.130610,0.065899,-0.029120,-0.116391,0.045987,0.029708,-0.000456,0.115533,-0.022072,-0.062659
0.128238,0.128351,-0.186435,0.045206,-0.008926,0.037858,0.066961,-0.013973,-0.057747,0.039064,0.003917,-0.029247,-0.009361,-0.014416,-0.107021,0.016107
0.046057,-0.084630,0.001645,0.065695,-0.144505,-0.130579,-0.021669,-0.181973,-0.019370,0.005914,0.120211,-0.067408,-0.093214,0.059004,0.180414,0.125059
-0.100747,0.146549,-0.043063,-0.042603,0.150303,0.086607,0.007886,0.069280,-0.128323,0.006698,-0.134921,0.092989,-0.005987,0.003271,0.142641,0.062924
-0.023230,-0.203187,0.125844,-0.040440,-0.000628,-0.020619,-0.193725,-0.016211,0.002395,-0.021158,-0.030578,0.004064,0.010024,-0.125695,-0.170030,0.123577
-0.199152,-0.138430,0.094206,0.002562,0.209283,-0.124095,0.014650,0.096498,-0.037187,0.115781,-0.073557,0.102874,0.161879,-0.015812,0.090184,-0.181063
0.020091,0.053193,0.005790,0.089728,-0.128527,-0.071961,-0.027205,-0.130070,0.007658,0.114467,0.113115,-0.004227,0.024828,-0.133594,-0.210399,0.027485
0.249539,-0.016307,0.042620,0.064695,-0.012730,0.075230,-0.046748,0.081680,0.051119,0.061708,0.077685,0.123560,0.100227,-0.058930,-0.017144,-0.157661
-0.086216,0.242336,0.036217,0.070037,0.012556,-0.123570,0.021629,-0.095902,0.244985,0.172573,0.170389,0.048354,0.015887,-0.039091,-0.089495,-0.111094
0.015470,-0.107867,0.131988,0.039391,-0.120850,0.217471,0.096077,0.014419,0.128339,0.135565,-0.044182,-0.011472,-0.074606,0.144794,-0.131647,-0.215361
0.165942,0.036168,-0.078384,-0.185699,-0.047204,0.032093,0.178392,-0.242576,0.102825,0.046066,0.121382,0.113111,-0.066597,-0.040294,0.046730,0.050443
-0.046437,0.035785,-0.056387,-0.076745,0.049988,0.099124,0.103326,-0.098367,0.188820,0.060587,-0.058582,-0.174610,-0.162274,0.126596,-0.033323,-0.150346
0.050271,-0.070968,0.001315,0.119657,0.123553,-0.051041,0.134237,-0.011422,0.002404,0.134864,0.036252,-0.125481,0.100171,0.063547,0.162693,-0.080051
0.063381,0.108842,-0.213263,0.147987,-0.096225,0.159374,0.284248,0.210720,0.058516,-0.036731,-0.080213,-0.123819,0.151196,0.194538,-0.192326,0.034449
-0.142159,-0.056381,-0.027901,0.122804,0.011422,0.044161,-0.021345,0.112377,-0.015195,0.017706,-0.094824,0.093664,0.022016,-0.011764,0.049132,0.006694
-0.011419,0.181148,-0.062474,0.097424,0.140536,-0.205005,0.097242,0.085622,0.041618,-0.066192,0.029511,-0.033499,-0.042615,0.013330,0.062610,-0.171449
0.078591,0.097394,0.127753,-0.087249,-0.024072,0.024273,-0.036466,-0.016412,-0.044537,0.062150,0.025829,-0.029598,-0.006885,-0.066020,0.065388,0.165968
-0.034763,-0.096042,0.121704,-0.016295,0.036846,0.101545,-0.044865,-0.186358,-0.073799,-0.069173,-0.054467,0.103671,-0.114691,-0.082989,-0.076746,0.024402
-0.070675,-0.143091,-0.060486,0.032923,0.069809,0.080635,-0.040027,0.011029,-0.186477,-0.047420,0.031281,-0.034632,-0.062652,0.015673,-0.055320,-0.038004
0.063742,-0.062666,-0.033970,-0.117787,0.044463,0.022580,-0.046258,-0.085583,-0.016012,0.125094,0.122955,0.021204,-0.038971,-0.131338,0.004634,0.000358
-0.085748,-0.034174,-0.054569,-0.014156,-0.004763,0.046128,0.039432,-0.055465,-0.012255,0.120116,0.057315,-0.015704,0.045983,-0.003712,0.017437,-0.107725
0.035230,0.070532,-0.054862,0.031779,0.084495,-0.093487,-0.046140,-0.057435,0.016683,-0.022506,0.031182,0.019186,0.129564,-0.109384,0.068433,0.008524
0.123458,-0.024261,-0.010561,-0.036724,0.049349,-0.055988,0.040676,0.166159,0.084478,0.094017,-0.000723,-0.072144,-0.021039,0.182620,0.069322,-0.083084
-0.153260,0.087364,-0.008447,-0.023613,-0.033348,-0.150977,-0.077697,0.159738,0.039344,-0.036966,-0.190491,0.041297,-0.025588,0.018709,0.030886,0.062973
-0.015270,-0.058822,0.137740,0.097518,0.015298,-0.096395,-0.014648,0.092417,0.034237,-0.000763,-0.064580,-0.010304,0.006021,0.063779,0.101417,0.032377
0.057004,-0.032089,0.003137,-0.037438,0.037089,0.055777,0.056324,-0.024065,0.013975,-0.028557,-0.057853,0.026187,0.086547,-0.140298,-0.121085,0.040117
0.039252,0.193594,-0.137190,-0.077113,-0.232544,-0.008569,0.218185,0.052258,0.066912,0.068250,0.126247,-0.194819,0.084005,-0.027272,-0.020519,-0.032735
0.098499,0.107768,-0.080775,0.018879,-0.080457,-0.131930,-0.061695,-0.100490,0.087882,0.071464,-0.088161,-0.075470,0.080734,0.149278,-0.053037,0.059477
0.035583,-0.067300,-0.026474,-0.058555,0.111900,0.034274,0.137697,0.030937,0.135367,-0.017401,-0.015718,0.229734,-0.064203,0.042060,-0.031145,-0.085243
0.137422,0.297779,0.053141,-0.125486,-0.003658,0.029338,-0.122173,-0.009736,-0.125007,0.198176,0.053541,-0.100014,-0.075360,-0.059305,0.110918,0.070837
0.077231,0.001600,-0.003332,-0.061878,-0.080759,0.031947,0.063600,-0.020639,0.194974,-0.083322,-0.077279,-0.196497,-0.036960,0.180529,0.055418,0.054355
0.002877,0.080093,-0.080568,0.183836,-0.054813,-0.157410,0.025468,-0.125802,0.045018,-0.025673,-0.083571,0.191497,0.134949,-0.065725,-0.100740,-0.061274
0.070979,0.099370,-0.138033,-0.099035,-0.082584,-0.091691,0.036371,0.099212,0.041469,0.024539,0.034608,-0.079445,0.120348,0.087414,-0.031712,-0.003948
-0.037597,0.045289,-0.003966,-0.007717,-0.047328,-0.024245,-0.037069,-0.024744,0.081506,-0.056634,-0.063030,0.114182,0.066243,-0.064592,0.092111,-0.016751
-0.009807,0.022789,0.076138,-0.084798,-0.001693,0.006646,0.063802,-0.055709,-0.036067,-0.015130,0.065647,-0.004770,-0.027576,0.040643,-0.020166,0.154512
-0.049554,0.049974,0.005761,0.082120,0.064593,-0.037465,0.010892,-0.121499,0.075100,-0.148012,-0.121875,0.057426,-0.048664,-0.007831,-0.099956,0.086734
-0.016515,-0.153565,0.006182,0.001294,-0.054175,0.090203,0.010997,0.097341,-0.079818,0.007535,-0.010560,0.054655,-0.147527,0.059983,-0.079968,-0.031599
-0.025820,-0.139724,0.070417,0.006774,0.047517,0.027274,-0.093223,-0.018050,-0.025903,0.075206,-0.015894,0.096404,-0.122416,-0.176881,-0.018167,0.097101
-0.107045,-0.175144,0.173700,0.049148,0.028931,0.035177,0.035251,0.024536,0.009316,-0.041742,-0.014452,0.164098,0.062874,-0.011368,0.052286,-0.175588
-0.164173,0.136323,-0.026164,-0.008219,0.033765,-0.110342,-0.117820,-0.057372,0.131553,0.008238,0.042001,0.034724,0.032951,-0.067358,0.117676,0.045903
0.052701,-0.115456,-0.048969,-0.128950,-0.069260,0.113577,0.040270,0.004131,-0.066337,0.087042,-0.074852,-0.004323,0.026091,0.072508,-0.004849,-0.071780
0.112732,0.126603,0.050037,0.007484,-0.089865,0.113180,0.042860,-0.117441,0.104942,-0.014517,0.019402,0.099918,-0.002102,-0.168940,-0.096512,0.033004
-0.191933,0.007603,0.128368,-0.119665,0.069887,0.009559,-0.068374,-0.055685,-0.123208,-0.083542,0.023006,0.001615,0.004762,-0.027146,0.061242,-0.154413
-0.181419,0.113826,0.154543,0.164245,-0.029885,0.087196,-0.048824,0.152085,-0.161952,0.026880,-0.189542,0.081148,0.138342,-0.082873,0.126199,-0.031775
-0.129192,0.100905,-0.087057,0.167455,-0.025536,-0.127651,0.062834,-0.188964,-0.020463,0.067679,0.010757,0.012214,0.045430,-0.099939,0.022697,0.009629
-0.067019,-0.013078,-0.033966,-0.016985,0.072425,-0.037186,-0.039735,0.071808,0.086999,-0.116002,-0.060482,0.144196,0.098334,-0.075825,0.084488,0.098960
-0.069459,-0.152584,0.134493,0.031596,0.035881,-0.015878,-0.036442,0.121123,0.079718,0.050483,-0.014470,-0.009564,0.003072,-0.005445,-0.044991,0.116713
-0.141072,0.039501,0.026161,-0.003323,0.125785,0.154903,-0.011238,-0.026148,0.054083,0.062886,-0.126960,0.017051,-0.006151,0.089122,0.001421,0.100105
0.184512,-0.129707,0.057041,-0.005387,0.057215,-0.131858,-0.042590,-0.168500,0.128586,0.092882,0.067634,-0.075500,0.131433,0.019466,0.062473,0.062855
-0.016723,0.055387,-0.019071,-0.091648,-0.042531,0.014940,-0.005564,0.062676,-0.043386,0.094476,-0.018332,0.055003,0.039895,0.066708,0.001511,0.094926
0.106509,-0.215629,-0.019004,-0.063438,0.076707,0.075807,-0.047947,-0.085118,-0.003429,0.101080,-0.043937,-0.018603,0.098410,0.071342,0.035906,-0.101779
-0.107423,-0.075578,-0.042727,0.068715,0.046949,-0.152911,0.113861,-0.092810,-0.045050,-0.019403,0.071286,0.048332,-0.003879,0.013381,-0.043387,-0.024235
0.007955,0.007958,-0.086149,-0.081670,0.021718,0.044854,-0.055550,0.001110,0.125634,-0.028778,0.007537,0.090950,0.105537,-0.027323,0.131447,-0.168838
0.013664,0.089331,0.081661,-0.158112,-0.159933,-0.115800,-0.019385,-0.051107,-0.078925,-0.017241,-0.120756,0.024723,0.029561,-0.083231,0.019562,0.160114
-0.008341,0.079428,0.023148,0.003799,-0.111573,0.012583,0.012579,-0.013053,-0.036169,0.000453,-0.225024,-0.119554,0.183479,-0.082350,0.128115,0.000423
0.111685,-0.144628,0.015569,0.083988,-0.079707,-0.152543,0.093264,-0.104649,-0.078713,0.174124,-0.130319,0.074215,-0.003161,0.099491,-0.022957,0.021364
-0.084346,-0.057857,-0.082432,-0.046841,0.062447,0.180744,0.087796,0.132006,-0.026845,0.035439,0.117160,-0.102322,0.015307,-0.040651,0.018535,0.062686
-0.131990,-0.102693,0.007416,-0.068275,0.012163,0.161881,-0.041258,-0.300290,-0.130355,-0.055079,-0.055311,-0.015735,-0.089426,0.045148,-0.025886,-0.088391
-0.089026,-0.385193,-0.033090,-0.138882,-0.146573,0.146138,-0.176948,0.314951,-0.097369,-0.057763,-0.072523,-0.022593,-0.102171,0.073510,0.012111,0.086525
0.020446,-0.040054,0.001897,0.052594,0.030028,0.174163,0.002077,0.100601,-0.017791,-0.121735,-0.158789,-0.118935,-0.006866,-0.135119,0.038286,-0.002871
-0.116412,-0.076332,-0.044280,-0.122199,-0.012854,0.207248,0.216022,-0.054203,0.119913,0.056976,-0.075184,-0.084286,-0.227470,-0.243769,-0.033806,0.060303
0.004707,-0.329267,-0.010913,-0.080063,-0.019783,-0.151360,0.143477,0.094131,0.087779,0.005004,0.029866,-0.142544,0.035629,-0.344245,-0.105856,-0.032870
0.127729,0.054312,-0.000950,-0.042612,0.008896,-0.014104,-0.094155,0.029846,0.085115,-0.056616,-0.027090,0.026087,0.013812,0.070248,-0.021412,-0.095978
0.101475,-0.038492,0.096367,0.056898,0.049846,-0.168025,0.090131,0.027393,0.196976,0.086202,-0.115995,0.013435,0.113921,-0.042017,0.086957,0.030281
-0.030530,-0.052248,-0.088598,0.055489,-0.051291,-0.101466,0.067428,-0.054822,-0.010977,-0.039007,-0.011798,-0.000097,-0.016444,0.109701,-0.155952,0.108493
0.121526,0.007613,0.184607,-0.126306,0.090262,-0.144479,-0.078551,-0.127138,-0.168142,0.022968,0.038771,-0.056954,0.124326,0.051634,0.034554,-0.027433
0.097776,-0.021164,0.002439,0.035841,0.047793,-0.018675,-0.044418,0.107760,-0.038832,0.034947,0.085122,0.034431,-0.088791,-0.137917,0.009644,-0.057330
-0.122052,-0.187380,0.008980,-0.098872,0.015123,0.063102,-0.132898,-0.038840,0.046200,0.057063,-0.089819,0.096130,0.012802,-0.001771,-0.005706,0.055722
-0.041360,-0.154703,0.046549,-0.079452,-0.026548,-0.072487,0.152050,0.045880,-0.109170,-0.070854,0.030628,0.038523,0.090916,-0.005564,0.132146,-0.017792
0.097174,0.054345,0.178205,-0.184773,-0.190109,0.105503,0.022425,0.041645,-0.055962,0.070749,-0.016648,-0.119181,0.107436,0.130304,-0.088134,-0.023262
0.060714,-0.069965,0.055107,0.093225,-0.014572,-0.016443,0.039436,-0.010861,0.020898,0.136992,-0.090881,0.144557,-0.044647,-0.033765,0.054522,-0.050060
-0.211999,-0.013207,0.123770,-0.047689,0.022570,0.128601,0.011549,0.170166,-0.152235,-0.198865,-0.080637,-0.015545,-0.121928,-0.043216,0.269061,0.031944
0.172274,0.073515,0.004668,-0.017491,0.010070,0.063884,-0.148052,-0.177040,0.052521,0.064710,0.115602,0.092199,0.096868,-0.149062,-0.051452,0.011338
-0.111182,0.202097,-0.039650,0.081816,0.056756,0.193257,-0.204206,0.033478,-0.020482,0.010019,-0.044896,-0.043765,0.000987,0.155457,0.007863,-0.005988
0.015977,0.028965,0.095624,-0.034592,0.118264,0.246008,-0.186738,-0.035955,-0.180003,0.076685,0.060110,-0.045815,0.052219,-0.173645,0.047826,0.047629
-0.108812,-0.013937,0.050416,0.018750,0.106170,-0.054501,-0.022634,0.091379,-0.063088,-0.111242,-0.059200,0.123236,-0.089837,-0.142727,0.110031,-0.156498
-0.235446,-0.131611,-0.067603,-0.116242,-0.020872,0.334323,0.059534,0.023307,-0.040613,-0.072541,0.086523,0.065124,-0.046379,-0.003981,-0.054900,-0.183120
0.086263,-0.219095,0.180274,0.073285,-0.063883,0.063084,-0.167644,0.008386,-0.254924,-0.007872,-0.047631,0.072624,-0.106581,-0.317872,-0.033141,-0.036075
-0.015298,-0.077542,0.000912,0.057866,0.088507,-0.026021,0.191208,-0.048335,-0.216448,-0.088991,-0.076210,0.036975,-0.024619,-0.076877,-0.299905,-0.054166
0.106946,-0.197705,0.138403,-0.115795,-0.211619,0.190567,-0.145651,-0.083571,-0.027498,0.025340,0.063437,-0.059202,0.002492,-0.069570,-0.190503,0.023895
-0.054748,-0.022992,0.044685,-0.112902,-0.055787,-0.116520,0.159554,0.017643,-0.055376,0.006223,0.101347,0.071987,-0.048669,0.085024,-0.065556,0.000344
0.128602,-0.096522,0.056368,-0.042182,0.140338,-0.146985,0.009091,-0.106174,0.051926,0.123652,-0.160654,-0.010638,0.060082,0.065859,0.003279,0.000086
-0.082996,-0.054702,-0.122102,0.020725,0.189500,-0.058126,0.092709,-0.170024,-0.017172,0.010953,0.055044,-0.091207,-0.044160,-0.073013,-0.003813,-0.096756
0.006290,0.059959,-0.040305,0.004653,-0.184932,0.073948,-0.055342,0.031820,-0.075495,-0.085967,0.047286,-0.011060,0.116761,0.126258,-0.191405,0.037040
0.156962,-0.063346,0.036602,0.000136,0.122878,-0.018080,0.058914,-0.002270,-0.043019,0.021092,-0.015097,-0.009024,0.009219,-0.019902,0.106983,-0.029040
0.014506,-0.001040,0.087519,0.074788,-0.040778,-0.044477,0.053288,-0.017141,0.046672,0.093604,0.039036,0.090545,-0.069194,-0.034064,0.182330,-0.042535
0.015071,0.006843,-0.052363,-0.134505,0.041523,0.014520,-0.061608,-0.099174,0.076406,0.080879,-0.006864,0.069340,-0.045507,0.223565,0.100927,-0.127226
0.085323,-0.144120,0.033374,-0.132459,0.129523,-0.059801,0.021545,-0.072901,-0.008830,-0.016671,-0.167004,0.006341,-0.045973,-0.029141,0.060491,-0.010092
0.044269,0.109120,0.036147,-0.015207,-0.049813,0.203530,-0.038186,0.070664,-0.050038,0.001313,-0.045569,-0.140456,0.049364,-0.069215,0.021233,0.168625
-0.052886,-0.041268,-0.130134,-0.026164,-0.059909,0.051677,-0.290059,0.060102,0.059412,0.050749,0.049085,0.050934,-0.083231,0.081859,0.008912,-0.134622
0.250660,0.102188,-0.047531,-0.007654,0.079112,0.085016,-0.143583,0.130831,-0.076289,-0.180356,-0.094000,0.087051,-0.126415,0.121129,-0.081796,-0.006480
-0.116649,0.022188,0.067660,0.143522,-0.087159,0.054663,0.088230,-0.089542,0.020242,0.026300,0.095961,0.015279,-0.021257,-0.105816,0.006879,-0.069132
0.173150,0.038066,-0.174562,-0.004344,-0.144817,0.291345,-0.060572,0.102366,-0.064010,-0.023285,0.037664,-0.131923,-0.042202,-0.057541,0.155602,0.064803
0.134022,0.091192,0.040517,0.119274,0.182914,-0.143662,0.085901,-0.257630,0.027208,0.064140,-0.172936,0.003397,0.027797,-0.347999,0.155911,-0.065590
-0.088184,-0.134488,-0.037224,0.050275,-0.033086,-0.055998,-0.091207,0.097182,0.020660,0.111642,0.048644,0.046876,0.016847,-0.173165,-0.119529,0.092971
-0.166367,-0.012394,0.009306,0.047214,0.118577,0.046459,0.044834,0.112071,0.022472,0.013698,-0.143718,0.050661,-0.074862,-0.051723,0.025430,0.006647
0.134112,-0.113277,-0.007709,0.011088,-0.135142,-0.009257,0.056316,-0.172492,-0.093140,-0.014707,0.049676,0.028190,-0.026449,-0.077179,-0.007733,-0.087803
-0.092863,-0.061681,0.014533,0.014747,-0.132578,-0.195987,-0.014966,0.166839,0.020670,-0.031525,0.131407,0.042424,0.163956,-0.087109,0.132489,0.085797
0.168662,0.052878,0.076893,-0.019148,0.120031,-0.058743,0.108215,-0.230140,0.103887,-0.052164,0.021307,0.030173,-0.042647,0.059204,0.139490,-0.120205
-0.040804,-0.170918,-0.109494,-0.097421,0.012065,0.034114,-0.023238,0.078235,-0.179661,0.011433,-0.005457,-0.028644,0.069658,-0.020768,0.129034,0.234278
0.026419,-0.078264,0.002145,0.064053,0.045058,-0.126574,-0.243619,-0.013525,0.145117,0.150987,0.104156,0.009625,-0.056201,0.013670,-0.102278,-0.128960
-0.071204,0.004192,0.027291,-0.024765,0.116091,0.170425,-0.037523,-0.007879,-0.059048,0.067753,-0.001125,-0.103755,-0.043720,-0.145839,-0.093634,0.006261
0.055095,0.103792,0.095185,-0.155650,-0.094518,-0.042927,-0.020309,-0.023723,0.022364,-0.067576,-0.019077,-0.023137,0.095480,-0.058635,-0.108631,0.065353
0.090838,0.001986,0.045592,-0.050965,-0.122598,0.177418,-0.034155,0.080766,-0.152807,0.073269,0.038499,0.034907,0.047538,0.031905,-0.087274,-0.051267
0.004445,0.011483,-0.020479,0.096731,0.039904,-0.092759,-0.191914,0.056979,-0.011712,-0.147886,-0.093095,0.078668,-0.105851,0.205334,0.161332,0.013041
0.222709,0.112182,-0.009749,-0.018728,0.263208,-0.002418,-0.106563,0.025808,-0.000084,0.024510,0.202528,-0.197249,-0.052732,-0.123285,0.005466,0.029327
0.201071,-0.024377,0.009387,-0.168059,0.030271,0.127489,-0.036659,0.059871,-0.100163,0.043622,-0.016140,0.135014,-0.094101,0.114032,0.032189,0.014936
0.019825,0.038986,0.210610,0.084119,0.038507,-0.145355,-0.201888,-0.017201,0.052627,-0.112979,0.065633,-0.066641,0.016567,-0.003858,0.006048,-0.211176
0.256853,0.094775,-0.293837,0.059343,0.047505,0.048885,-0.074695,0.037218,0.122410,-0.083679,-0.007521,0.043249,0.079441,-0.007040,0.096658,0.019961
-0.155857,-0.208251,0.064545,0.138915,0.007594,-0.133927,-0.163965,0.090970,0.019943,-0.071353,0.071715,0.078710,-0.070026,0.279496,-0.240527,0.002614
-0.049406,-0.065277,-0.046680,-0.006621,-0.088146,0.081554,-0.066336,0.000729,0.005086,-0.103453,-0.033455,0.062879,-0.203076,-0.081965,-0.153672,0.083788
0.046686,-0.032189,0.092701,-0.092174,-0.049820,-0.083474,-0.018907,-0.076403,0.022887,-0.145497,0.048005,-0.020999,0.070986,-0.056921,-0.042184,-0.009272
0.107486,-0.174754,-0.072405,-0.044820,-0.020792,0.091535,-0.001879,0.008634,-0.041894,-0.015576,0.007333,-0.012434,0.022919,-0.186350,-0.203197,0.044590
-0.160395,0.108235,0.281777,-0.002054,0.081439,-0.127074,-0.061178,-0.064901,0.151677,-0.055415,-0.042464,-0.062329,0.053141,0.015050,-0.050935,-0.007831
-0.042621,-0.055750,-0.068672,0.062836,-0.068801,0.090524,0.002365,0.164237,-0.004467,0.148736,0.152418,0.067614,-0.108427,0.058439,0.092576,-0.052645
0.165596,-0.019592,-0.144872,-0.045700,-0.048381,-0.018263,0.076661,-0.198243,-0.019781,-0.159608,-0.060927,-0.092819,-0.058791,0.025297,0.011793,-0.119665
-0.060789,0.228245,0.107156,-0.041454,-0.030763,-0.026007,0.027727,-0.165934,0.060790,0.082462,-0.212643,0.103143,0.063122,-0.031977,-0.077924,-0.048643
0.099111,-0.015808,-0.207989,0.125460,-0.085260,0.153117,-0.003204,-0.007720,-0.229261,-0.008245,-0.068267,0.114963,-0.126663,-0.067317,0.024027,-0.066297
-0.056978,0.041496,0.003806,-0.032638,0.031234,-0.045362,-0.008223,-0.104171,-0.040848,0.259567,-0.066132,0.054355,-0.015595,0.046617,0.147171,-0.002779
0.227299,0.039832,0.077028,0.134380,0.009755,-0.181547,0.180739,-0.019946,-0.047168,-0.052290,-0.044446,-0.127295,0.224623,0.041151,0.026540,0.037765
0.063990,-0.002150,-0.138063,-0.018531,0.133607,-0.004823,-0.387358,0.073207,0.018047,0.068064,-0.022549,0.027092,-0.063811,0.025010,-0.021858,-0.062954
0.077469,-0.096599,0.074926,-0.060323,-0.114855,-0.026307,-0.183274,-0.001960,0.076579,-0.021910,-0.085972,-0.007570,0.074650,0.093789,0.066376,0.155672
0.294786,0.180843,-0.014726,-0.183579,-0.025456,0.102606,-0.095415,0.046563,0.145401,-0.013745,0.066963,-0.017549,0.003059,0.080475,-0.057352,0.172302
0.058962,-0.160344,-0.027097,-0.064250,0.059846,-0.088212,0.137529,0.063689,-0.038044,-0.137048,0.117840,-0.165349,0.021227,-0.130526,-0.034403,-0.109024
0.052182,0.181287,0.031333,-0.170130,-0.140311,-0.134457,0.024785,0.076982,-0.096112,-0.074891,0.092514,0.147182,-0.054698,0.043027,-0.150010,0.073562
-0.023410,0.067904,0.054806,-0.010047,-0.111964,-0.038447,0.163717,0.113323,0.094882,-0.039824,0.076280,-0.148780,0.168945,0.073199,-0.034790,0.073954
0.027080,0.092501,-0.128384,-0.197782,-0.062057,0.140955,-0.027846,-0.042863,-0.063629,-0.072978,-0.028917,0.076760,-0.034170,0.084009,0.053800,0.036433
-0.056940,-0.329730,0.091011,0.039497,0.041802,0.040262,0.112118,0.058808,0.007082,0.049823,-0.079126,-0.056298,-0.045325,0.035632,-0.028611,-0.020916
-0.197288,-0.163459,0.107581,0.078053,-0.073837,-0.057054,-0.080303,-0.009670,0.221052,0.003559,-0.021459,-0.032886,0.124126,-0.056785,0.015727,0.062077
-0.050420,0.102004,0.308309,-0.070711,-0.112692,0.073566,-0.058357,-0.093115,-0.028477,0.024293,0.181139,0.069285,-0.018218,0.063839,0.016644,0.060138
0.057067,-0.062602,0.081197,-0.102907,-0.133594,-0.152173,-0.175135,-0.055570,0.021461,0.052659,-0.002431,0.063704,-0.131218,0.031131,-0.013730,-0.047584
0.116986,0.081129,-0.138449,-0.033592,0.190877,-0.028059,0.167833,0.064620,-0.072298,0.142184,0.155205,0.036639,-0.064959,-0.124347,-0.122909,0.058312
0.027972,0.089126,-0.247661,-0.084146,0.185700,-0.105676,-0.006115,-0.097124,-0.054279,-0.163978,0.141010,-0.066188,0.056083,0.018662,0.134895,-0.048849
-0.053172,-0.006788,-0.010691,-0.068158,-0.042514,0.082920,0.105326,-0.083825,-0.060974,0.086956,0.022766,0.022142,-0.218922,0.029376,-0.133480,-0.023175
-0.001148,-0.118772,-0.061682,0.062494,0.011815,-0.000318,-0.043551,0.084163,-0.025146,0.110500,-0.147479,0.053912,0.122552,0.053611,-0.040937,0.035118
-0.137476,0.149687,0.098256,0.206714,-0.078073,-0.054876,-0.006190,-0.019500,0.144674,0.000340,0.031510,0.075189,-0.081266,-0.063467,-0.055195,-0.038672
-0.089887,0.109561,-0.061167,-0.011297,0.026357,-0.203760,-0.205491,0.140165,-0.011436,-0.006146,0.113715,-0.036108,0.157873,0.016893,-0.097714,-0.053324
0.045207,-0.003058,-0.043061,-0.034267,0.027165,0.109771,-0.111692,0.066821,0.104019,-0.089297,-0.057920,0.139287,-0.030590,-0.020185,-0.000260,-0.050722
0.037628,-0.156509,0.003014,-0.007467,0.009633,-0.035386,0.103405,-0.012840,-0.055772,-0.171652,-0.035698,-0.067760,-0.099213,-0.084011,-0.084601,0.018633
0.218073,-0.022772,-0.064373,-0.025158,-0.057550,0.084530,0.001989,-0.014692,-0.047162,0.112161,0.179647,0.052474,0.167682,0.074805,0.090302,0.057276
0.335492,-0.037341,-0.013790,-0.174159,0.045487,-0.139768,-0.074110,0.316416,-0.151562,-0.040278,-0.128684,0.020185,-0.094949,0.118013,-0.233510,-0.008379
-0.018694,-0.172469,-0.109115,-0.009191,0.074389,0.074935,0.042042,0.168953,-0.071102,0.017971,0.181896,-0.031921,-0.097261,0.074154,-0.030242,0.046912
-0.103507,-0.075672,0.154093,-0.003395,-0.115071,0.028400,-0.092833,-0.055191,0.123232,-0.182788,0.026461,0.184223,-0.131992,-0.000160,-0.093236,-0.176367
0.029064,0.013457,0.078782,-0.021879,-0.141637,0.105051,-0.007634,0.115722,0.030037,-0.043407,0.023745,-0.043898,0.021205,-0.024050,0.008657,-0.066074
0.164261,-0.019152,-0.072859,0.164797,0.068880,0.001424,0.101527,-0.015775,-0.004421,0.130636,0.032835,0.039048,0.052430,0.096226,-0.084269,-0.102486
-0.005061,0.036111,-0.175562,-0.037212,0.050861,0.012837,0.264690,0.153330,-0.117346,0.053470,-0.242732,-0.102503,-0.037493,0.018952,-0.151112,0.179940
-0.117877,-0.022810,-0.018236,0.154958,-0.018664,-0.110713,0.038913,-0.154445,0.085270,-0.005997,0.137595,0.088094,0.092873,-0.089374,-0.059174,-0.067508
0.021916,0.069722,-0.088482,-0.021314,0.028715,-0.067984,-0.136299,0.012370,0.076064,-0.044514,0.111498,-0.101269,0.062388,0.079009,0.024312,-0.221386
0.041495,0.076906,-0.043240,-0.241203,0.061498,-0.055600,-0.053087,-0.091085,-0.049408,0.121435,-0.008665,0.009030,0.000056,0.085000,-0.023882,0.211546
-0.054390,-0.097008,-0.117587,-0.147063,0.134743,0.155998,-0.202250,-0.104351,0.016878,0.000606,-0.013382,0.041994,-0.030951,-0.088067,-0.183817,-0.020084
-0.081665,-0.099140,-0.104100,-0.026211,-0.093698,0.092645,0.035484,-0.048797,-0.021243,-0.118905,-0.061345,0.001946,0.008547,-0.046370,-0.088330,0.101703
0.056422,0.014154,0.254192,0.019999,-0.023233,-0.171027,0.083025,-0.034047,0.000608,-0.002291,-0.020151,-0.001768,-0.097164,0.010241,-0.056531,0.004072
0.173630,-0.100672,0.052102,0.024661,-0.055438,0.119989,-0.092122,0.070507,-0.132806,-0.134441,-0.078282,0.101594,-0.034397,0.043491,0.128922,-0.064868
-0.091709,0.066484,0.031686,0.029948,0.150582,0.139322,-0.085859,-0.145785,-0.008770,0.141121,0.109348,0.037990,-0.153717,-0.056700,0.127292,-0.151559
0.015228,0.067427,0.028311,0.062799,-0.022092,-0.207458,-0.015242,0.078590,-0.094405,0.056541,0.074923,-0.031644,0.162451,0.025682,-0.104843,0.077711
-0.019915,0.243700,0.054865,-0.132998,0.068109,0.003926,-0.010417,-0.008990,-0.048777,-0.169565,-0.034159,0.189836,-0.019510,0.009416,0.026980,-0.019639
-0.033779,-0.065709,0.004799,-0.166777,-0.062164,-0.203426,-0.025667,0.119973,0.018403,-0.093140,-0.032949,-0.049503,-0.009499,-0.093560,0.145386,-0.010438
-0.051546,0.016116,0.152338,-0.037724,0.047444,0.100633,-0.059867,0.028468,0.120549,0.084530,0.042541,0.061990,-0.168254,-0.304087,-0.101932,-0.128670
-0.002656,0.061650,0.085838,-0.079098,0.040935,-0.063469,0.079574,0.079594,-0.204831,0.180442,0.072034,-0.090548,0.091596,0.176462,-0.098407,0.029584
0.067513,-0.030302,-0.115791,-0.107500,-0.005302,0.028415,-0.042816,0.040549,0.025121,-0.077711,-0.031861,0.067718,0.153647,-0.064422,-0.237929,0.070083
-0.163981,-0.017138,0.056625,-0.204175,-0.037443,-0.102525,0.070955,0.064088,0.019315,-0.010625,0.043077,0.050501,-0.200662,-0.055550,0.090412,-0.103646
0.006369,0.236919,-0.134205,-0.108833,0.004252,0.089082,-0.176395,-0.021728,0.100280,-0.279401,-0.079890,0.052275,-0.066886,-0.008789,-0.077755,-0.132069
-0.018680,-0.022776,0.290654,0.116551,0.048601,0.085504,0.268576,0.080891,0.180634,0.124326,-0.017168,-0.214942,0.109115,0.044156,-0.225670,0.066938
0.012516,-0.010501,0.109725,0.108812,-0.111462,-0.072936,-0.174251,-0.026138,-0.001415,0.086728,0.000072,0.079700,-0.013199,0.066142,-0.138775,0.145855
-0.118112,-0.004932,-0.156273,-0.090448,-0.074587,-0.091903,0.031293,-0.077363,0.124913,-0.019492,0.017536,0.093835,-0.142230,0.007158,-0.028196,0.100629
0.046108,-0.005004,0.077687,-0.010361,0.023198,-0.078168,-0.125638,-0.028416,-0.223592,0.122828,-0.051218,-0.080138,0.044199,-0.129455,0.010830,0.129019
0.094634,0.077413,-0.187929,0.037147,0.139440,0.189638,0.046597,0.072588,-0.072289,-0.017593,-0.090109,-0.159251,0.036867,0.048958,0.192778,-0.186218
-0.000797,-0.089701,-0.379810,-0.044147,0.067317,0.001925,0.075104,0.055410,-0.133276,0.039250,0.037099,0.026409,0.005643,-0.041904,0.301113,-0.102245
-0.105190,-0.235074,0.070330,-0.112324,-0.020945,0.000661,-0.043689,-0.003913,-0.048685,-0.033824,-0.170012,0.067110,0.075085,0.154271,0.160824,-0.010070
0.030979,0.099080,0.101052,0.119734,-0.196306,-0.127341,-0.056490,0.071716,0.081046,-0.017875,0.261888,-0.050212,0.028525,0.184708,0.001237,0.053616
0.180000,-0.163646,-0.038001,0.064860,-0.033707,-0.009222,0.115690,-0.165211,0.016933,0.038902,-0.061323,-0.009376,0.044336,-0.052040,-0.196541,-0.045572
0.094197,-0.023114,0.144902,0.049822,0.011208,0.086890,0.144604,0.052023,-0.035223,-0.077945,-0.066583,0.012716,-0.041212,-0.033749,-0.133198,-0.138334
-0.137776,-0.052538,-0.224073,0.061134,-0.106639,-0.122051,0.082272,0.047000,-0.189605,-0.185498,-0.112005,0.227298,-0.083737,-0.062657,0.091866,-0.029797
0.097185,-0.012823,0.134940,0.019890,0.017238,-0.014981,-0.050467,0.023527,-0.122818,-0.086202,-0.067212,-0.085549,0.282984,-0.296751,-0.127304,-0.055166
0.092375,0.103908,-0.254849,-0.073400,0.019877,-0.086210,0.023995,0.097220,-0.245200,-0.000479,0.045134,-0.041002,0.135357,-0.087539,-0.072319,0.068879
-0.018862,-0.031434,-0.146261,0.041278,0.103562,0.132210,-0.055748,-0.001392,0.047203,-0.028418,-0.079728,0.007516,0.072909,0.074072,-0.037737,0.036547
-0.198467,0.088385,-0.166395,0.087140,-0.168053,0.070776,0.052166,-0.041314,0.088086,-0.088009,0.126397,0.002616,0.032871,0.030339,-0.001136,-0.033591
0.032351,0.019421,-0.215758,-0.060743,-0.058176,0.008874,0.091751,0.097682,0.055474,0.010675,0.076788,0.119616,-0.133222,0.021283,-0.005569,0.040998
-0.156971,-0.001144,-0.114971,-0.068820,0.097812,0.029474,-0.172549,-0.123587,0.188827,0.085689,-0.124484,-0.057790,0.220350,0.011562,-0.057604,-0.037612
0.121544,0.133889,0.302244,0.011439,-0.164992,-0.196184,-0.085069,0.029383,-0.010683,-0.069874,0.191458,0.008120,0.204827,-0.111290,-0.025423,-0.015172
-0.042376,0.046642,-0.062978,0.094489,0.078154,0.103379,0.072411,0.017702,0.052321,0.068006,-0.112522,-0.111030,-0.112636,-0.196576,-0.009593,-0.092680
-0.039456,0.015216,-0.148982,-0.024440,0.060842,-0.163599,0.072211,0.099518,-0.188141,-0.020713,0.004781,0.020990,-0.189649,0.118964,-0.013187,0.024206
-0.061730,-0.026765,-0.080985,-0.104339,-0.004661,-0.027328,0.140682,-0.109021,0.235414,-0.082495,-0.205658,0.009638,-0.014819,-0.063327,0.013506,0.125860
0.050416,0.049052,-0.052707,0.159718,-0.061526,-0.099270,-0.077679,0.045878,0.049157,0.089189,0.012467,0.016375,-0.111573,0.164204,0.020578,0.015638
0.027428,-0.050522,0.225440,-0.012567,-0.079275,-0.025472,-0.226983,0.028620,0.002520,-0.010331,0.047707,0.035471,-0.024276,-0.093958,0.121789,-0.014809
0.048292,0.004934,0.104131,0.077337,0.085887,0.002050,0.137073,-0.027593,-0.170499,-0.097515,0.035053,-0.009834,-0.101066,0.137483,0.046182,0.085539
-0.041367,-0.107990,0.172166,0.041116,0.109483,-0.085907,0.086777,0.023526,-0.051069,0.036326,0.145111,-0.005824,-0.018547,0.063353,0.114201,-0.016849
-0.120394,0.099546,0.096080,-0.107719,-0.102202,0.180654,-0.159683,0.085819,-0.008035,0.215887,0.066243,0.029752,-0.110698,-0.049435,0.116093,-0.008184
-0.149464,0.036544,-0.056049,-0.083912,0.145327,-0.076463,0.027887,0.126959,-0.078751,-0.042033,-0.097165,0.159506,-0.000138,-0.097859,-0.222693,0.065863
-0.063528,0.080301,-0.062518,-0.024089,0.071700,-0.116755,-0.019494,0.124010,0.189865,-0.187130,0.007775,-0.011280,0.048927,0.027852,0.070606,0.013714
-0.004555,-0.102654,0.205623,-0.068314,-0.059557,-0.006170,0.025386,0.029739,-0.056690,-0.209640,-0.026567,0.094206,-0.044044,0.214993,-0.045184,-0.029128
0.060097,-0.033202,-0.065375,-0.081510,-0.162329,-0.118391,-0.156546,-0.133863,-0.035724,0.004370,0.153550,0.058596,-0.051286,-0.119033,-0.073568,0.134828
-0.014360,-0.158679,0.132117,-0.106496,-0.001501,-0.015061,0.051664,-0.080030,-0.008889,0.172223,-0.041509,0.039572,-0.021082,0.128922,-0.163778,0.133401
-0.073429,0.065983,-0.121504,-0.098350,-0.091382,0.156600,0.017885,-0.027060,-0.044752,-0.051615,-0.014448,-0.028975,0.067359,0.171438,0.013482,0.051174
0.077622,0.255008,-0.166678,-0.079644,-0.017466,0.013256,0.124270,0.055204,-0.049507,0.066497,0.031779,0.058077,0.042662,0.015704,0.083369,-0.115022
-0.050173,0.209941,0.032619,-0.126456,-0.088361,-0.175544,0.038982,0.066070,-0.087909,-0.016150,-0.114142,0.009538,-0.055742,-0.151446,-0.023501,-0.039708
0.010252,-0.032947,0.057816,0.008318,0.135086,0.043978,-0.040881,-0.138143,-0.024603,-0.030338,-0.145425,-0.095836,0.067344,-0.062656,0.054901,0.028908
-0.044053,-0.065702,-0.306090,-0.045209,0.173501,-0.025302,-0.060428,-0.076514,-0.057964,-0.192110,-0.064650,0.130367,0.033947,-0.105514,0.134759,-0.072552
0.097489,0.047109,0.228532,-0.062190,-0.125351,0.045960,0.051284,-0.078715,0.146429,-0.221834,-0.077640,-0.214660,0.077874,0.126629,-0.089830,0.016171
-0.034097,-0.064320,0.179244,0.216509,-0.020790,0.083799,-0.012730,0.088228,-0.042202,0.006963,-0.043109,0.039294,0.007216,0.082327,-0.071450,0.070884
0.026919,-0.048534,0.072783,0.083505,-0.089623,-0.026921,-0.106965,0.072686,0.086265,0.180502,0.032542,-0.155507,-0.029362,-0.194741,0.033795,-0.109630
-0.004484,-0.078614,-0.089079,-0.116957,-0.163269,0.094275,0.054867,0.244752,-0.026346,0.141942,-0.052402,0.150176,-0.144628,-0.087921,-0.209102,0.082791
-0.123613,-0.098316,0.033031,-0.013692,-0.073110,0.172292,0.035738,0.002826,0.042618,-0.039075,-0.007925,0.053939,-0.056683,-0.083192,-0.000073,-0.061016
0.099867,-0.075717,-0.187863,-0.091663,-0.011849,-0.088674,-0.188135,-0.037891,0.101393,0.032206,-0.054619,-0.034880,-0.012570,0.181626,-0.008838,-0.089388
0.027942,-0.031335,-0.026398,-0.099940,-0.093847,-0.000936,0.060505,0.154118,-0.001437,-0.107483,0.053281,-0.049736,0.059355,0.037066,0.030011,0.150744
-0.004550,-0.059908,0.036771,0.006417,-0.064466,0.011169,0.192767,-0.004872,0.062093,-0.147615,0.027547,0.137105,0.011963,0.046412,-0.232185,0.096865
0.178066,-0.204289,-0.065195,0.115750,-0.214923,-0.047334,-0.011568,-0.098954,0.098569,0.110818,0.022744,-0.087433,0.024109,0.233200,-0.171165,0.057577
0.126999,0.046615,0.147195,-0.083291,-0.224916,-0.119859,-0.018051,-0.032213,0.095672,0.085964,-0.048014,-0.026809,-0.161139,0.088058,0.080175,0.009082
0.022309,0.201952,-0.015544,-0.069929,0.000163,0.006253,0.107224,-0.039396,-0.047239,0.042381,0.021745,0.059040,0.032703,-0.061527,0.077203,-0.089524
0.040778,-0.072744,0.109790,-0.092607,-0.029475,-0.184353,-0.064017,-0.105876,0.057643,0.099308,-0.025127,-0.041778,-0.033631,0.050158,-0.184002,0.076493
-0.062258,-0.240393,0.111915,-0.010476,0.128094,0.070225,-0.044493,0.104833,0.116357,-0.104524,-0.072194,-0.210015,0.074970,0.034014,-0.025439,-0.073943
-0.016164,-0.088903,0.012710,-0.023274,0.122976,-0.003551,0.040638,-0.013401,-0.024477,0.019627,0.029480,0.071285,-0.025774,0.131929,0.035073,-0.017534
-0.081818,0.074022,-0.241667,-0.039039,-0.112317,0.255336,-0.145372,0.244928,-0.050386,-0.306913,0.007849,0.060750,-0.038518,0.117361,0.010211,0.042255
-0.065680,0.138964,-0.155644,0.029012,0.122494,-0.102972,0.095421,-0.041377,-0.023983,-0.030776,-0.016951,-0.036363,0.068080,-0.118399,-0.011207,-0.010160
-0.076671,0.323589,0.088981,0.038257,-0.047831,-0.172470,-0.232714,-0.079784,0.011870,0.135533,-0.013832,-0.072174,0.047829,-0.009028,-0.086791,0.056627
-0.024507,-0.060039,0.017679,0.129028,-0.022283,0.007091,0.028891,-0.006128,0.004157,-0.001399,0.078651,0.183117,0.111999,-0.084809,-0.220964,0.020405
-0.061523,0.097720,0.047468,-0.081917,-0.062547,0.045524,-0.119733,-0.070424,-0.021813,-0.028933,-0.039547,0.045443,-0.092989,0.026143,0.002805,0.104934
-0.022931,-0.146134,-0.057071,-0.052919,-0.162174,-0.055189,0.109462,0.101300,-0.133847,-0.162940,0.020823,-0.028819,0.066064,-0.139028,0.189552,-0.018478
-0.143268,0.080148,-0.062390,0.030875,0.008311,-0.238707,0.156965,0.082927,0.209929,0.040171,-0.030502,-0.151422,0.079994,-0.147349,0.066083,0.082667
-0.354557,-0.021351,-0.079776,0.120946,-0.026709,-0.235584,0.303131,0.047462,-0.063527,-0.084662,0.155646,-0.071784,-0.083369,-0.042880,-0.070712,0.196971
0.011417,0.161036,-0.227201,-0.025049,0.010654,0.191281,-0.029477,-0.034748,-0.041991,0.167158,-0.142472,0.081040,0.068496,-0.084451,0.397047,0.060898
0.106568,-0.257631,-0.242571,0.067990,0.082158,-0.026551,-0.014022,0.180694,-0.143071,-0.195234,-0.088821,0.245193,-0.086876,0.003349,-0.093452,-0.185850
0.345700,-0.049023,-0.159753,0.053858,0.107809,0.217646,-0.009744,-0.105777,0.063960,-0.002398,-0.161860,-0.162217,-0.093699,0.001497,-0.058514,0.168174
-0.115304,-0.223667,-0.203265,-0.005192,0.002758,0.111266,-0.024443,0.133673,0.052699,0.132013,-0.006330,-0.002129,-0.049026,0.115088,0.008191,-0.037866
-0.096161,0.023244,-0.218204,-0.194707,-0.064051,-0.058283,-0.034106,-0.048478,-0.123980,0.055229,-0.139971,0.035198,-0.079651,0.015958,0.067373,-0.081524
0.047892,0.075943,0.160048,-0.007503,-0.159798,-0.076482,-0.063743,-0.019202,-0.027851,0.046276,-0.053460,0.089355,0.081055,0.003793,-0.016317,-0.013005
-0.053707,0.199997,0.001638,-0.107722,-0.200027,0.084728,0.021754,-0.094085,-0.056850,-0.001405,-0.087217,0.014535,0.065611,-0.134957,-0.025707,0.030087
-0.059378,0.003261,0.047704,-0.173698,-0.107549,0.150427,0.127513,-0.140443,0.042706,0.072526,0.071106,-0.086870,-0.001047,-0.082814,0.060121,0.041935
-0.021809,0.230296,-0.110038,-0.044518,-0.104471,-0.066305,0.040763,0.010364,0.239562,0.068912,0.048615,-0.035008,-0.055613,0.093484,0.006614,0.152991
-0.113402,0.147523,-0.002176,0.095241,0.202637,-0.119548,-0.065681,0.075424,-0.031271,0.103318,-0.009961,-0.018184,0.162230,0.031899,0.144546,-0.098406
-0.093505,-0.008696,0.071726,0.104715,0.004472,0.000736,-0.020631,0.137990,-0.022662,0.079003,0.125737,-0.088623,0.015875,-0.014290,-0.031136,-0.014839
0.026088,-0.034683,-0.073886,0.093141,0.073941,-0.137650,0.179445,-0.189346,0.022066,-0.070188,0.040910,-0.055036,-0.029028,0.101535,-0.161696,0.094361
0.012895,-0.050459,-0.095342,0.003078,-0.065336,-0.026375,0.068170,-0.178269,-0.094188,-0.099757,-0.047049,0.004466,0.089789,-0.111266,0.005889,-0.013725
0.087829,0.119827,-0.140625,0.041257,0.078939,0.043983,-0.107455,-0.068082,-0.061146,-0.088050,0.003922,0.055526,0.002454,-0.025244,-0.069253,-0.056613
0.056018,0.187433,-0.018262,-0.018845,0.198029,-0.032466,-0.046607,0.099822,0.086116,0.051437,-0.115376,0.059594,0.139093,0.000642,0.118232,-0.125909
0.013393,0.060751,0.081765,0.094953,-0.019218,-0.083633,-0.003592,-0.101207,0.030735,0.041100,-0.007499,-0.002371,-0.295384,-0.214148,0.024242,0.000607
0.089823,0.005761,0.116821,0.040411,-0.071760,-0.252909,-0.028224,-0.136232,-0.028261,-0.056698,-0.057385,-0.084053,0.194948,0.062205,-0.090677,0.025382
0.024250,0.239815,-0.004191,-0.018636,0.228937,-0.213755,-0.255197,-0.121675,-0.023213,-0.249411,-0.008703,0.062240,-0.074718,-0.253594,-0.238756,-0.092838
-0.066406,0.032758,-0.096715,-0.028632,0.156166,-0.121625,0.100410,-0.158430,-0.237464,-0.064620,-0.246896,0.047877,0.160340,-0.023180,-0.002689,-0.089584
-0.189408,0.124935,0.319737,-0.126161,0.165939,-0.031545,0.149445,-0.081649,-0.308064,-0.064606,-0.008848,-0.033823,0.176624,0.072737,0.047608,0.112565
-0.031640,0.162371,0.264000,-0.032746,0.039882,0.190791,0.013717,-0.073449,-0.152302,-0.107449,-0.027971,-0.211380,0.225418,-0.211949,0.074817,-0.065665
-0.030664,-0.042088,0.174204,-0.120885,-0.005161,0.331165,-0.058412,-0.139402,0.108587,-0.134846,-0.067810,-0.094768,0.053964,-0.112667,0.137394,-0.004544
-0.070305,-0.106803,0.623029,0.120132,0.056013,-0.026288,-0.123854,0.115418,0.109465,-0.098726,0.062725,-0.051930,-0.026933,-0.030889,-0.044529,-0.075323
-0.144970,-0.147608,-0.111313,0.088099,-0.053323,0.184603,0.108589,-0.111909,0.073667,-0.025297,-0.178080,0.017138,-0.067005,-0.110087,-0.087207,-0.114544
-0.175465,-0.036053,-0.125149,0.071075,-0.055359,0.145033,0.122676,-0.010777,-0.075552,0.096416,0.043288,-0.072167,0.169876,-0.143409,-0.345139,0.005153
-0.227350,-0.127627,0.113508,0.183868,0.344216,0.186861,0.285033,-0.283830,-0.166661,0.271478,0.027679,-0.167341,-0.041179,0.169496,-0.120435,-0.144322
-0.188305,-0.083559,-0.078931,0.118024,-0.007398,-0.135476,-0.048604,-0.109949,0.086179,-0.044044,-0.141469,-0.249998,0.036999,0.164002,0.264450,0.188693
0.099803,-0.118214,-0.213056,0.085554,-0.036481,0.083493,-0.013972,0.070060,0.018956,0.189908,0.084638,-0.084918,-0.013362,0.053666,0.235928,-0.092362
0.109402,-0.037060,0.177627,0.018346,-0.127172,-0.063953,-0.002126,0.077419,-0.008507,0.168085,0.086731,-0.123417,-0.047412,0.148634,0.150134,0.060112
-0.316243,0.158532,0.021206,0.127129,-0.086743,0.002357,0.177678,0.026835,-0.004589,-0.270931,-0.003090,-0.037317,-0.148537,-0.003358,-0.079074,0.081751
-0.069772,0.027092,-0.177097,0.060640,0.026766,-0.083228,0.111436,0.079482,-0.196656,-0.249636,-0.036458,-0.057414,-0.005711,0.048845,0.134787,0.166126
-0.110046,-0.099790,0.017488,-0.031105,0.162246,0.046535,-0.095444,-0.000347,-0.081324,-0.155472,0.160941,0.038111,-0.152299,-0.073925,0.041364,-0.126169
-0.118834,-0.032311,-0.179756,0.111654,0.023957,-0.355950,0.216822,-0.086021,0.053888,-0.025691,0.081594,0.121948,0.000454,-0.036526,-0.418663,-0.099457
0.235098,-0.111146,0.182116,-0.257948,-0.136381,0.133776,-0.195845,0.439336,-0.001555,0.085483,-0.328983,0.045758,0.128592,0.207556,0.200960,-0.428771
0.269590,-0.235964,-0.532088,-0.218078,-0.296706,-0.719156,-0.689436,0.008395,0.048449,-0.229466,0.073330,-0.381515,0.559210,0.007139,0.421300,-0.440520
-0.204995,-0.121012,-0.077096,-0.223526,0.074501,-0.181152,0.299917,0.012453,0.050610,0.045740,0.317752,-0.299746,0.450072,0.298830,0.081762,0.323001
0.389345,-0.069869,0.158368,-0.317785,0.033396,-0.204637,-0.042111,0.417426,-0.014299,0.437059,0.404450,-0.200053,-0.160677,-0.175478,0.134306,-0.319948
0.463028,-0.020141,0.381408,0.304881,0.083608,0.035381,0.075890,0.044042,0.237577,-0.257344,-0.019399,-0.440777,0.033299,0.265734,0.016650,0.018258
0.262787,-0.144138,0.200927,-0.294825,-0.156493,0.009130,-0.083222,0.187583,-0.268326,0.406124,-0.409297,-0.005451,0.034360,0.106311,-0.193453,-0.492968
-0.056010,-0.116486,0.106119,-0.213098,0.117212,0.008068,-0.056460,0.221097,-0.128735,0.098574,-0.151809,-0.388926,0.619514,0.202955,-0.152877,0.462345
0.287714,-0.028819,0.158333,-0.138999,0.265127,-0.413686,0.241376,0.269564,-0.044600,-0.584365,-0.386267,-0.163436,0.275343,0.034037,-0.300098,-0.039785
0.430103,0.179794,0.303097,0.215729,0.017047,-0.028451,-0.459625,0.448864,0.141409,0.577867,-0.345696,-0.137223,-0.247594,-0.116873,0.054513,-0.270509
-0.105646,0.332123,-0.160871,0.015152,-0.326488,0.424890,-0.338106,-0.639426,-0.354414,0.388857,-0.228606,-0.069787,0.104188,-0.081947,0.387003,-0.002230
0.173608,-0.280076,-0.183682,0.259080,0.121286,-0.220649,-0.263141,0.822302,0.083843,-0.465705,0.057240,0.569937,0.408710,0.070050,-0.277318,-0.035190
0.391027,-0.229605,0.078672,-0.299775,0.031257,0.174640,0.253608,-0.044542,0.190206,-0.202846,0.135720,0.140381,0.065468,0.651103,-0.271404,0.021556
0.314319,-0.133801,0.254935,0.320424,-0.045868,0.081718,0.084369,0.178288,0.499394,-0.428298,-0.368075,-0.269066,0.672278,-0.378745,-0.421275,-0.196903
-0.286414,-0.216751,-0.231032,-0.024708,0.587703,0.094618,-0.060937,-0.375492,-0.047779,-0.474287,-0.091981,-0.319237,0.335941,0.210945,-0.148004,-0.447141
-0.298446,-0.076020,0.061964,-0.312079,0.186703,0.447840,0.312685,0.376495,-0.314119,0.408471,-0.496743,0.044759,-0.192119,-0.219391,-0.125419,0.398304
0.307983,-0.237941,0.202591,0.039532,-0.198872,-0.032354,-0.062255,0.217238,-0.332131,0.297881,-0.356920,0.328015,-0.272779,0.157310,-0.139845,0.834539
0.411886,-0.222621,0.541446,0.057702,0.036393,0.393378,0.098857,0.622974,-0.246334,-0.372366,-0.311387,0.097865,0.447526,-0.193868,-0.240531,0.638617
-0.357668,0.222319,0.131411,0.287952,0.133547,-0.173091,-0.025072,0.149898,0.170964,-0.348606,0.260761,-0.225206,0.424014,-0.174750,0.035721,-0.044553
-0.222439,-0.319150,-0.194417,-0.218813,0.431712,0.434044,-0.226279,-0.094073,-0.140164,-0.080147,-0.160352,0.422586,0.217596,0.003625,-0.043477,0.026753
-0.041317,0.199965,-0.076937,0.277952,-0.035601,0.046343,-0.103379,0.153697,0.119985,-0.128988,-0.388788,-0.396238,-0.259594,0.017031,0.177192,0.151378
0.156183,0.095562,0.286694,-0.142929,0.260727,0.114596,0.202184,-0.363912,0.240585,-0.155252,-0.013204,0.174937,-0.203608,-0.172301,-0.277483,0.398786
0.337533,-0.081911,-0.293551,-0.339205,0.115950,-0.220271,0.055141,0.002473,0.144450,-0.203415,0.393537,0.034223,0.521353,0.000120,-0.046038,-0.325816
-0.003678,-0.215931,-0.367279,0.131598,0.214229,0.358740,-0.073473,0.243609,0.051789,0.032649,-0.049198,0.295346,0.001384,0.420712,-0.144219,-0.699779
-0.055284,0.367027,0.578060,-0.355810,-0.262944,0.036049,-0.127318,0.422819,-0.246328,-0.416982,0.332543,0.116988,0.001742,0.381521,0.135303,-0.478540
-0.081611,-0.456826,0.205439,-0.140622,-0.209625,0.060486,-0.325590,-0.155872,-0.255590,-0.169071,0.165035,-0.132652,0.360533,-0.014662,0.134142,-0.465336
-0.284569,0.310899,0.194849,0.157330,-0.048694,-0.460987,0.491866,0.269075,0.024403,-0.045242,0.018842,0.532295,0.636078,0.441231,0.004059,-0.012867
-0.232119,0.537544,-0.294249,0.147950,-0.048596,-0.062385,0.304709,-0.331368,0.363587,0.162326,-0.062762,-0.240425,-0.506226,-0.014915,0.248656,0.570212
0.135334,0.005031,-0.235421,0.132627,0.261464,-0.190248,0.077610,-0.107554,-0.027537,0.029253,-0.469561,0.437567,0.307474,-0.187366,-0.240070,-0.408113
0.551045,0.387642,0.324291,-0.293993,0.187088,-0.243234,-0.035909,-0.279499,0.322025,0.288025,0.237207,-0.593077,0.186121,-0.224866,-0.347466,0.265647
0.435288,0.059647,0.277550,-0.087132,0.328295,-0.025097,0.333088,0.139890,-0.352551,-0.229135,-0.459627,-0.408271,0.045705,-0.404697,-0.338839,0.214382
-0.343176,0.407148,0.049673,0.002999,-0.403924,-0.122894,0.338969,0.172667,-0.211811,0.236775,0.384217,-0.069908,0.236413,-0.070186,0.104579,-0.108774
-0.023206,-0.361197,-0.490616,-0.085026,0.119688,-0.106077,-0.356238,-0.364100,-0.316541,-0.152549,-0.036903,0.133760,0.239992,-0.125640,-0.204855,1.065311
0.340104,0.488975,-0.167090,0.360637,-0.077904,-0.379690,0.363671,0.166040,-0.426648,0.039926,-0.109671,-0.342663,-0.347572,0.367059,0.308413,0.082792
-0.123665,0.262314,0.447240,-0.068473,-0.372969,0.377579,0.154287,-0.049574,0.202630,0.547485,0.135501,-0.100732,-0.065537,-0.269090,-0.336588,-0.179127
0.292900,0.290430,0.490597,0.336641,-0.043186,0.026944,-0.108471,0.432879,0.265064,0.599609,0.095936,-0.259251,0.620514,0.275884,0.462164,-0.185009
-0.062627,-0.152317,0.273518,-0.034381,-0.329206,-0.221907,0.026031,-0.340669,0.307126,-0.090754,-0.217287,-0.191464,0.088174,0.196720,0.181079,-0.074403
0.377675,0.155956,0.069947,-0.240456,0.453825,-0.170478,0.389241,0.200196,-0.127801,-0.374237,-0.061859,0.090793,-0.094417,-0.005496,-0.374659,-0.254622
-0.276210,0.611958,-0.046916,-0.001750,-0.284414,-0.232837,-0.289258,0.370138,-0.076480,-0.295829,0.225732,0.181275,-0.287718,-0.226789,0.021399,0.210071
0.136043,-0.292256,0.149952,-0.046134,0.312961,-0.111609,0.013638,-0.004722,0.273862,0.382141,0.339368,0.247769,0.264516,-0.412703,-0.359107,0.048489
0.296599,-0.115379,0.298045,0.414425,-0.277964,-0.155046,0.076177,-0.133974,-0.282213,0.302086,-0.290842,0.030735,0.577314,0.305415,0.117785,-0.280805
-0.129466,0.328048,0.072698,0.225542,0.021834,-0.055404,0.030953,0.081608,-0.188564,0.065404,-0.077296,-0.324288,0.095676,-0.128360,-0.083853,-0.217798
-0.145326,-0.180833,0.328172,-0.167526,0.317045,-0.125360,-0.193317,-0.223053,-0.269140,0.059036,0.033948,0.266056,-0.304907,-0.427932,0.128371,0.093142
-0.267862,-0.353141,-0.233881,0.211300,0.086456,-0.229530,-0.482937,0.169707,0.393447,0.371851,-0.151523,-0.216268,0.190429,-0.041645,-0.522096,0.252641
0.306196,-0.223816,0.200195,0.452268,-0.490526,0.153910,-0.044548,0.220794,0.468476,0.363028,0.069691,-0.090790,0.663053,0.135787,0.109607,0.139573
-0.039990,0.030252,-0.344709,-0.189479,0.708166,0.079627,0.425994,-0.557477,0.489765,0.000002,-0.106407,-0.199708,0.408200,0.521955,0.402463,-0.372184
-0.150916,-0.211395,0.135158,0.319325,-0.272213,0.162014,-0.349547,-0.160550,0.470658,-0.093525,0.374307,0.217322,0.089973,-0.052712,0.067719,0.275062
-0.177973,-0.038531,-0.253404,-0.334799,-0.213845,0.176954,0.093824,0.174482,0.147894,0.168565,0.078250,0.160992,0.342595,0.060470,0.142729,-0.307811
-0.340416,0.318953,0.749659,0.009633,0.563450,0.355038,0.132945,0.237110,-0.507109,0.338963,-0.189330,-0.323049,-0.722420,-0.292622,0.108271,0.196651
0.192075,-0.173953,0.382906,0.143605,-0.030651,0.360781,-0.348696,0.362711,0.373360,-0.115038,-0.225024,-0.061654,0.323482,-0.355154,-0.193522,-0.241823
0.300314,-0.260287,0.335769,-0.066010,0.258445,0.061335,0.242460,-0.288946,0.024595,-0.091889,0.177115,-0.347675,-0.077041,-0.151860,0.293215,0.674907
0.399945,-0.120612,-0.035573,0.501599,0.306820,-0.067024,-0.030351,-0.565381,0.167680,-0.075309,0.028547,0.222070,0.096870,0.598774,0.262143,0.541905
0.351851,-0.315339,0.029917,0.292490,0.084723,-0.094543,-0.067515,-0.397932,0.263027,0.266339,0.356647,0.287182,-0.030860,-0.380499,-0.249701,0.002994
-0.398533,0.004455,0.140198,0.346727,-0.136435,-0.074242,-0.349378,0.498290,-0.182771,-0.253974,-0.273646,-0.464231,-0.118630,0.373602,0.303157,0.497718
-0.259835,0.088848,-0.142106,-0.356882,-0.054894,0.238172,0.346403,-0.329898,0.045130,0.302068,0.288538,-0.116769,0.259018,-0.139915,-0.177833,0.186547
-0.047863,-0.261527,0.052936,0.337818,-0.258710,0.080261,-0.228126,0.512269,0.117123,-0.057490,0.308605,0.031758,0.056621,-0.033480,0.458237,0.357221
0.061009,-0.024405,-0.213933,0.351224,-0.052495,-0.015328,-0.143941,-0.359963,0.070193,0.096492,0.158088,0.401892,-0.098070,0.057168,0.138976,-0.281805
-0.289436,-0.104848,-0.484360,-0.030021,-0.325287,0.277942,-0.021406,0.315070,-0.054971,0.453775,-0.119383,0.561376,-0.212542,0.180064,-0.146368,-0.556124
0.406097,0.146441,0.196116,0.206823,-0.340406,-0.225274,-0.125685,-0.303308,-0.003073,0.357921,0.425672,0.481097,-0.146186,0.690355,-0.275159,0.445848
0.369802,-0.313739,-0.114784,0.149772,0.093868,-0.350938,0.339054,-0.378103,-0.324157,0.149204,-0.043790,-0.252730,-0.117860,-0.289686,-0.255429,-0.224573
0.145040,0.188302,-0.222204,-0.206566,0.234137,-0.129639,-0.205479,0.021231,-0.260017,0.260659,-0.039472,-0.224229,-0.345637,-0.240330,-0.234727,-0.092482
0.347711,-0.099089,-0.242908,0.399884,0.257785,0.045994,0.131475,0.642326,-0.011291,-0.253744,-0.246895,0.533723,-0.315632,-0.304854,-0.484577,-0.513025
0.226569,0.044529,0.159250,-0.013770,-0.364180,0.238817,-0.219989,0.581036,0.180902,-0.015337,0.097528,0.436672,-0.167244,-0.245685,-0.424021,0.022459
0.254237,-0.062924,0.375393,0.144661,0.057976,-0.209089,-0.205600,0.434405,0.149584,-0.532384,0.030096,-0.341503,-0.272667,-0.128097,-0.265555,0.387092
0.153750,0.315537,-0.072794,-0.232395,-0.135354,0.294046,-0.088458,0.333308,-0.100564,-0.150367,-0.280210,0.269460,0.318429,-0.262455,-0.301019,-0.349616
0.133563,0.112246,0.010445,0.340915,-0.030687,-0.250864,0.332833,0.506389,0.062577,0.656789,0.599526,-0.344544,-0.194294,-0.028403,-0.300882,-0.014208
0.344378,0.294122,-0.079597,0.050552,-0.307298,-0.051611,0.194315,-0.264285,0.207674,0.109887,-0.075189,-0.074145,-0.239300,0.106510,-0.272774,-0.328373
0.228059,0.170874,0.131954,0.301910,0.118507,-0.243036,-0.326039,-0.437692,-0.221037,-0.061652,0.411491,0.105539,-0.014819,-0.050561,0.264972,-0.267081
0.153732,-0.203921,-0.100143,0.349236,-0.282064,0.211848,0.222400,0.695569,0.525701,0.455870,0.085275,-0.096697,-0.222752,0.376304,0.163950,0.154265
-0.131104,0.134089,0.079963,0.178457,0.230568,-0.034911,-0.234009,-0.250899,0.056284,-0.318949,-0.156281,0.054693,-0.035899,-0.179748,-0.191346,0.150815
0.051329,-0.023589,0.127527,-0.340115,0.050666,-0.083858,0.031593,0.119968,0.068377,-0.136729,0.342582,-0.173232,-0.071809,0.162545,-0.079710,-0.208429
0.314905,0.255545,-0.033231,0.284561,-0.084656,0.270080,-0.287903,-0.068268,-0.145795,-0.099659,0.056988,-0.292787,-0.110910,-0.127844,-0.044070,0.070625
0.174460,0.333322,0.984660,-0.634882,0.051332,0.444491,0.311528,0.495621,0.232688,-0.017959,0.326953,0.164973,0.034402,-0.216500,0.578528,-0.237376
-0.054715,-0.202318,0.214506,0.030698,-0.349430,0.048999,-0.062010,0.086050,0.051598,0.391147,0.307599,-0.175949,-0.301874,-0.051912,-0.193907,0.220162
0.283213,-0.319511,0.039199,0.466075,0.083839,0.344941,-0.397299,-0.075471,-0.511377,-0.264652,-0.460909,-0.027188,-0.330858,-0.026164,0.236871,0.069011
0.309070,-0.151938,-0.119174,0.541411,-0.040947,-0.008474,-0.071315,0.262484,-0.249297,-0.196634,0.280682,-0.172179,-0.022658,0.402821,0.041651,0.190168
-0.436557,0.044879,0.276576,0.268688,-0.013286,-0.120862,-0.071943,0.720319,0.084273,-0.169335,-0.259425,0.023335,-0.141170,-0.457196,-0.214260,-0.227356
-0.343912,-0.227872,-0.162384,0.239138,-0.007790,-0.109172,0.082587,-0.008366,0.105862,0.139126,-0.103452,0.067634,-0.297102,0.201043,-0.337501,0.034639
0.357533,-0.019613,-0.480376,0.176473,0.070835,-0.220420,0.070643,-0.196846,-0.366553,-0.496364,-0.493432,-0.095432,0.322413,0.349342,-0.409175,0.394692
0.504793,0.067809,-0.022588,-0.026139,-0.327419,-0.250980,-0.434345,-0.064732,0.109069,0.235369,-0.367061,-0.061252,0.092326,0.598355,0.378234,0.220603
0.560788,-0.295728,-0.557916,-0.153052,-0.010178,-0.364661,0.080970,-0.348258,0.037414,0.367148,0.544586,-0.292570,-0.331263,0.506783,0.420119,0.473253
0.428465,-0.327011,0.124316,-0.242006,-0.178775,0.106692,0.514594,0.176993,0.264073,-0.202628,0.167456,0.336294,0.140491,0.377887,0.382627,0.327657
-0.060789,-0.122968,0.323984,-0.203636,-0.091873,0.135606,-0.007739,-0.222783,0.214822,-0.197391,-0.224325,-0.312846,-0.097882,-0.087539,0.247205,0.154037
-0.370551,0.547624,-0.253436,0.213450,-0.418949,0.134339,0.306172,0.273509,-0.228959,-0.300635,-0.648961,-0.254752,-0.266797,0.007945,0.389295,0.080554
0.102215,-0.272459,-0.187933,0.201224,0.530699,0.336007,0.238875,0.067046,0.452596,0.246833,0.223462,0.072837,0.537877,-0.328440,-0.526029,-0.246350
0.323296,0.048320,0.314174,-0.350858,0.296608,-0.091211,0.171538,0.133128,-0.127806,0.151964,-0.061384,-0.010828,-0.232378,-0.111591,-0.283365,-0.184822
-0.078529,-0.336992,-0.043811,-0.100746,0.284386,0.189981,-0.359256,-0.181689,-0.281700,0.109415,-0.146460,-0.002672,0.039147,-0.003436,0.342957,0.164617
0.111170,-0.231706,-0.350578,0.293060,0.377516,0.452040,-0.272252,0.364146,-0.010248,0.257750,0.093395,-0.320883,-0.427324,0.219753,-0.173277,0.185978
-0.208950,0.174113,-0.341816,0.704784,0.135276,0.579384,-0.367177,-0.284193,-0.307440,0.484546,-0.323058,-0.181988,0.421299,-0.342627,-0.247985,0.031992
-0.034021,-0.058378,0.067264,0.072540,0.027119,0.186587,-0.124553,0.421554,-0.136893,0.442219,0.316464,0.124962,-0.377889,-0.057120,0.223271,-0.186462
0.442666,0.089568,-0.219200,0.064980,0.380124,-0.253727,0.318122,0.302680,-0.482283,0.590362,0.476388,-0.291637,-0.258694,0.251222,-0.041317,-0.212204
0.585941,0.410208,-0.267060,0.470866,0.402285,0.587360,0.655128,0.390691,-0.160530,0.606934,0.134572,0.056173,-0.009829,0.080575,0.366318,-0.100973
-0.023335,0.239639,0.180921,0.178403,0.189978,-0.326919,-0.259363,-0.226901,-0.330899,-0.023358,0.021625,-0.007234,0.036021,-0.266030,-0.134281,0.089157
0.231414,0.283054,-0.127011,0.074599,0.084391,-0.097206,-0.325303,-0.011621,-0.144356,-0.108703,0.185024,-0.161538,0.327105,-0.095908,0.276678,0.184815
-0.112408,-0.112192,-0.145622,-0.228002,0.073866,-0.419061,-0.039391,0.395436,0.469738,-0.395058,0.312626,0.041231,0.369926,0.075898,0.256328,-0.337854
0.083104,-0.147716,-0.040227,-0.158783,-0.188201,-0.361502,0.198813,0.170674,-0.011829,-0.075758,-0.072881,-0.319222,-0.163302,0.014410,0.659219,-0.132910
0.050892,0.109763,0.198391,0.354984,-0.321652,-0.248331,-0.247098,-0.428460,0.420891,-0.172626,0.413204,0.159754,0.065127,0.334737,0.029623,0.035957
0.128461,0.114407,0.426417,0.293996,0.358045,-0.002286,-0.325402,-0.073475,0.086863,-0.010340,-0.407635,0.305941,-0.095504,-0.404384,0.411032,0.247829
0.206467,0.343991,-0.279003,0.253764,0.278802,-0.275090,0.174204,0.032897,-0.199192,-0.075440,0.241624,-0.227798,0.134444,0.204168,-0.396524,-0.213846
-0.175044,0.309408,0.161405,0.266888,-0.304175,0.112737,-0.268689,-0.272946,0.306728,-0.340300,-0.348192,-0.042419,-0.169013,-0.154216,0.338891,-0.005361
-0.604891,0.301430,-0.288526,0.205228,0.088813,-0.467481,0.520093,0.092045,0.322391,0.236751,-0.195228,-0.067900,0.221730,0.380227,0.221840,0.364070
-0.320115,0.040619,0.189532,0.128790,-0.015291,-0.232729,-0.144273,0.072391,0.146563,0.376371,-0.408114,0.381226,-0.134171,-0.117154,0.486634,0.425199
-0.685005,-0.494169,0.047286,-0.023106,-0.374329,-0.067690,0.482206,0.099848,-0.143783,-0.073844,-0.043808,0.131666,0.126351,0.545537,-0.233754,0.088789
0.323093,0.016976,0.214756,0.607341,0.461038,0.305516,-0.540847,0.202175,-0.235045,0.209061,-0.077030,0.225321,0.253827,-0.502889,-0.120619,-0.003265
0.161432,0.312499,0.170435,0.199720,0.225642,-0.327325,0.188392,-0.280332,-0.189738,0.379333,-0.073965,0.056209,-0.222601,-0.645719,0.184795,-0.019587
-0.351871,-0.033597,0.340535,0.105997,-0.308406,0.241025,-0.325254,-0.006967,-0.220077,-0.321029,0.482049,0.488486,-0.262799,0.041505,-0.085101,-0.425842
-0.432804,0.364498,0.271668,-0.317976,0.485569,-0.183985,0.577856,-0.402274,-0.277269,0.235437,-0.697295,-0.039984,-0.257004,0.059478,0.297089,0.406340
0.305833,-0.385425,-0.460450,-0.520870,-0.342821,0.209972,0.381567,0.123742,-0.144286,-0.305043,0.285827,0.403831,0.165144,-0.425019,0.092675,-0.189430
-0.033291,-0.001589,-0.221606,-0.261394,0.288388,0.283834,0.022352,0.196929,-0.028049,0.201941,-0.178678,0.389054,-0.140203,-0.324641,-0.326640,0.102566
-0.077416,-0.155072,-0.274710,0.371622,-0.175944,0.077964,-0.342484,-0.063564,-0.148821,-0.277042,-0.297867,0.604802,-0.064074,0.566801,-0.117797,0.131347
0.315968,0.242972,-0.196372,-0.012458,-0.411829,-0.182791,-0.422885,-0.109108,-0.231568,-0.000419,0.159463,0.239137,0.197604,-0.292445,-0.263939,-0.077903
0.438714,-0.047021,0.177806,-0.129453,0.020412,0.304151,0.161601,0.111664,-0.279834,0.161909,0.357562,-0.258765,-0.359197,-0.871921,-0.164707,-0.372480
-0.208342,-0.030731,0.333267,-0.042399,0.027346,0.248370,0.367355,-0.045524,0.008639,0.215763,0.102402,-0.016377,-0.233980,0.229842,-0.014908,0.105481
0.923068,0.423412,-0.141285
0.340170,-0.002119,-0.479062
-0.079852,0.289648,-0.493897
0.324664,0.673397,-0.489566
0.583249,0.083042,-0.549410
0.203938,-0.506512,0.396435
0.706326,-0.455467,0.594333
0.161982,-0.196986,0.066797
-0.275630,0.062164,-0.340644
0.150895,-0.354187,-0.249942
0.135158,0.433587,0.794204
-0.660877,0.466794,0.193962
-0.315949,-0.014932,-0.406052
-1.372400,0.569516,0.004705
-0.441365,-0.514244,-0.318849
-0.644130,-0.326458,0.008988
