6
256,8,8,8,8,3
0.109853,-0.123242,-0.191762,0.060137,-0.009103,-0.023559,0.170806,0.125584
0.210926,0.225530,0.290264,0.007087,0.140622,0.038673,-0.235260,-0.200844
-0.051670,-0.150544,0.269326,0.021330,-0.258770,-0.074603,0.146009,0.087972
-0.010998,-0.042292,0.264859,-0.222890,-0.187651,-0.145826,0.052580,-0.152436
0.175267,0.253366,0.108244,0.237751,0.166933,0.268825,-0.024221,0.035806
-0.076111,-0.002713,-0.253747,-0.223010,0.080279,-0.128045,-0.190223,0.038720
-0.002735,0.028877,-0.138597,-0.088489,0.090800,0.156535,0.071605,-0.146938
0.007870,0.105542,-0.052902,0.013788,0.028367,-0.221993,0.039503,-0.014388
-0.174475,0.268742,-0.004580,-0.061068,-0.302984,-0.197478,0.280794,-0.200955
0.068661,-0.030220,0.047152,0.097837,-0.149256,0.244982,-0.044321,0.034787
0.130808,0.182767,0.271587,-0.178146,0.256719,0.036828,0.152311,0.017815
-0.034776,-0.154094,0.193679,-0.050687,0.002955,0.064002,-0.008173,0.097711
0.136163,0.121964,0.115168,-0.153302,-0.057379,0.016718,-0.028084,-0.160508
0.389437,0.178360,0.158326,0.297093,0.038685,0.183160,0.220167,-0.002677
-0.093260,0.008257,-0.073053,-0.213322,0.173079,-0.002553,-0.276488,-0.090078
-0.228813,-0.307290,-0.128967,-0.112762,-0.154579,0.091232,-0.143910,0.231982
0.110580,-0.056434,0.269888,-0.053069,-0.071211,0.019378,0.042757,-0.097889
-0.065778,-0.068589,-0.090012,0.135971,-0.214140,-0.005824,0.079437,-0.028296
-0.143521,0.068916,0.009120,-0.196283,-0.134168,-0.452453,0.030691,-0.041030
0.082308,0.056444,0.049824,0.059304,0.118570,0.303980,-0.128709,0.043772
0.062841,0.071820,0.205483,0.155874,-0.040456,-0.105931,-0.072040,-0.054339
0.011707,0.127407,-0.061466,0.010664,0.170542,-0.063617,-0.031906,0.035206
0.276086,0.147798,-0.165306,0.188284,0.114443,0.036965,0.171353,0.020136
-0.027255,-0.125224,0.115606,-0.102946,0.068541,0.291733,-0.055080,0.162644
0.075239,0.055148,0.069237,0.042884,-0.032710,0.024934,0.127717,-0.044107
-0.274617,-0.266349,-0.087400,-0.043228,-0.174251,-0.112360,-0.186694,-0.007732
-0.081319,0.017913,0.022071,-0.036231,-0.107049,-0.083129,0.100557,-0.068606
-0.046756,0.083950,-0.128899,-0.103089,0.054840,-0.220764,-0.004908,0.008741
0.020083,-0.133497,0.027757,0.099271,-0.057254,0.265338,0.298101,-0.068055
-0.191760,-0.018968,-0.032754,0.026776,-0.182040,-0.094222,-0.212679,0.121479
0.146660,-0.431598,-0.113485,-0.037870,-0.132065,-0.015787,-0.054809,0.012658
0.101846,0.051371,-0.080321,-0.228891,0.339966,0.431951,0.158335,-0.146078
-0.219567,-0.347776,0.202192,-0.026375,0.009674,-0.026809,-0.066732,0.061327
0.105873,0.199155,-0.148864,-0.019670,-0.018949,-0.137448,-0.010496,-0.116009
-0.084211,-0.090601,-0.006784,0.149031,-0.043005,0.128605,0.067827,-0.024371
0.013630,0.061801,0.023070,0.017115,-0.213794,-0.041185,0.018898,-0.070594
-0.048363,0.004766,0.084654,-0.088400,-0.074684,-0.101106,0.080356,-0.034746
0.023990,0.138224,0.035729,0.193482,0.194200,0.007535,-0.069839,0.191903
-0.093030,0.045120,0.032091,-0.016885,-0.068307,0.041967,0.055389,-0.070302
0.205673,0.089710,-0.017626,0.020495,0.117133,-0.052842,-0.059514,0.157593
-0.069810,0.169282,-0.045182,-0.141800,0.051195,0.206098,0.064074,-0.305047
0.176017,-0.003805,0.178667,0.259579,0.142427,-0.005266,0.097664,0.086048
-0.083066,0.032723,0.000552,-0.014380,-0.461757,0.177750,-0.018846,-0.045150
-0.158732,-0.122158,-0.097005,0.024266,0.086613,-0.428471,-0.149705,0.068147
-0.199444,-0.214230,0.026467,-0.009737,0.107658,-0.182892,0.085123,0.058209
-0.123679,-0.124886,-0.150578,-0.246122,-0.236736,0.117841,-0.012144,-0.069480
-0.340226,0.198635,0.103721,-0.060945,-0.050795,-0.238390,0.144421,0.226459
-0.064135,0.044205,-0.155049,0.003373,-0.088359,0.036066,-0.197655,0.118696
-0.040461,-0.004207,-0.079259,0.132662,-0.124567,0.112083,-0.026755,-0.023903
-0.023388,-0.067056,0.177245,-0.048364,0.058080,-0.041125,0.131676,0.054582
0.260014,0.318410,0.089951,0.123560,0.187000,0.130417,-0.144447,0.175058
0.054820,0.089542,-0.006675,0.175383,-0.029328,-0.097245,0.086006,-0.094119
0.225795,0.157982,-0.130092,-0.162085,-0.103486,0.050678,0.016076,-0.060137
-0.123972,0.079478,-0.002140,0.140418,0.089439,-0.114781,0.033371,-0.015350
-0.096385,0.194644,0.017804,0.021729,-0.100094,-0.124943,0.135563,0.047135
0.080325,0.007422,0.063137,0.147267,-0.121933,0.138198,-0.031103,-0.126629
-0.033936,-0.049552,-0.012262,0.249568,0.077945,0.099756,-0.084400,0.115136
0.005791,0.021990,-0.017499,-0.235298,-0.076659,0.027491,-0.009337,-0.114438
-0.328348,0.006912,-0.360042,0.022385,-0.100723,-0.161393,0.051553,-0.047885
0.128409,-0.107918,0.296503,-0.018423,0.145287,0.288024,-0.041799,-0.077531
0.109461,0.199422,-0.057543,0.145736,0.054588,-0.252169,-0.209407,-0.053649
-0.095759,-0.146421,-0.010431,-0.096751,0.015726,-0.089511,0.068396,0.082168
0.148771,-0.166745,0.192452,0.354756,0.217869,0.145344,-0.088118,0.357353
0.277642,-0.141411,-0.348998,-0.184737,0.040330,0.035187,0.128452,0.415342
0.062908,0.095854,0.030970,0.351409,0.344474,-0.018816,-0.056968,0.481056
-0.222757,-0.235898,-0.324724,0.001568,-0.123627,-0.246296,0.059095,-0.142511
-0.104597,-0.047997,-0.002960,0.013524,-0.201849,-0.011342,0.198725,-0.050238
-0.019542,0.054533,-0.068061,0.117892,0.101675,-0.096383,-0.024728,0.199881
-0.078662,0.031533,0.064453,0.130243,0.000984,-0.076739,0.021997,-0.031727
-0.115691,0.023139,-0.140682,0.034847,0.010464,0.078273,-0.002903,-0.082549
0.131163,0.037446,-0.143253,0.019623,0.026022,-0.030774,-0.109567,-0.107918
-0.115655,-0.037325,0.059007,0.090651,0.047841,0.198377,0.063148,0.093967
-0.075648,0.120508,0.189595,0.030033,-0.206177,-0.125488,-0.014321,-0.050590
-0.057534,-0.079023,-0.004372,-0.120506,-0.081709,0.050089,0.185259,-0.080200
0.078439,-0.115006,0.041404,0.144689,0.039544,0.021534,-0.262465,0.157175
-0.166058,0.035465,-0.255998,-0.026889,0.144247,0.071594,0.113859,-0.294964
0.255989,0.180030,0.247503,-0.171926,0.028641,-0.148966,0.113787,-0.153871
0.367174,0.124977,-0.078906,-0.058878,0.043126,-0.291961,-0.100094,-0.015370
0.081948,0.244222,-0.093365,-0.009528,0.125907,0.248567,-0.025421,0.072367
0.075681,-0.102784,0.025309,-0.173631,0.111361,-0.132035,0.144875,0.125156
0.079657,0.047493,-0.315367,-0.518461,0.426826,-0.011290,0.092789,-0.124454
-0.140337,-0.158629,-0.089311,-0.220798,-0.018439,0.157773,-0.095400,0.211490
-0.052358,0.098690,0.023559,0.132834,0.051283,-0.194827,0.031764,-0.283310
-0.229688,-0.228547,-0.172512,-0.009994,-0.041895,0.184793,-0.055793,-0.030525
0.062871,0.118996,-0.186281,-0.018748,-0.065584,-0.150554,0.151426,0.018545
0.058817,0.176638,-0.046514,-0.001109,0.182878,-0.075502,-0.046039,0.176635
-0.026308,-0.129130,0.084940,-0.013190,0.115342,0.088950,0.013126,0.144340
-0.052274,-0.039381,-0.032891,-0.054685,-0.048360,-0.098291,0.006658,0.018397
-0.013827,0.025679,-0.132785,0.046982,0.046875,-0.019378,0.036736,0.097687
-0.033933,0.158011,-0.102918,-0.069659,-0.152245,-0.277551,-0.001827,-0.080145
-0.126451,-0.012302,-0.053439,0.113898,-0.052518,0.074419,0.021773,-0.093127
0.246541,0.075259,0.172062,-0.067466,-0.079513,0.104833,0.047601,-0.269973
0.211868,0.221385,0.094437,-0.118376,0.119934,-0.090381,-0.031230,-0.300184
0.123190,0.074726,0.225664,0.162510,0.145770,-0.151317,0.131466,0.129974
0.150010,0.067715,-0.085302,-0.164099,0.113964,-0.045340,-0.141479,-0.018967
0.382457,0.052980,0.175048,0.033450,0.142561,-0.207482,0.080293,0.120398
0.039866,0.128969,-0.012766,0.024336,-0.172062,0.215699,0.056210,-0.068367
-0.101293,0.042137,-0.112447,0.300863,0.039766,-0.082987,0.091113,-0.016192
0.055029,-0.009461,0.075358,0.146907,-0.046166,0.123543,-0.086375,0.227518
-0.034140,0.108773,-0.173309,0.104229,0.189059,-0.050538,0.037606,0.024752
-0.229281,-0.013639,0.305253,-0.002656,-0.240277,0.141558,-0.005158,-0.180123
0.047636,-0.090776,-0.172839,-0.050434,0.120600,-0.118368,-0.023841,-0.102906
-0.134352,0.023254,-0.173940,-0.102023,0.014703,-0.198414,-0.027657,0.170765
0.053095,0.116248,-0.086928,0.100906,0.009643,0.057648,0.132628,-0.149157
0.253244,-0.020300,-0.059247,-0.122075,-0.048690,-0.047754,-0.029831,0.057947
-0.130844,0.024408,0.183295,0.105181,0.150367,0.158104,-0.106902,0.127422
0.004347,0.133624,0.052742,-0.223858,0.040199,0.186449,0.117395,-0.368964
0.170438,0.049719,0.116045,0.190675,-0.098824,-0.036826,-0.061736,-0.034537
0.179724,-0.053032,-0.063367,0.133370,0.154458,-0.025625,0.016051,-0.094138
0.243370,0.070781,0.064508,0.062508,-0.018699,-0.140666,0.328541,-0.071667
-0.069875,-0.064004,-0.088999,-0.109294,-0.081034,-0.071734,0.077167,-0.123154
0.215445,0.095527,0.281078,0.060762,0.057083,0.053476,-0.020438,-0.050643
-0.074553,-0.137210,-0.173738,-0.125721,0.044111,-0.149741,-0.220878,-0.000201
0.036629,0.088326,0.142920,-0.033846,-0.058438,0.114791,0.063296,-0.102098
0.143376,0.011966,-0.084192,0.080442,-0.164096,-0.008255,0.064210,-0.065653
-0.126765,-0.092135,-0.185722,-0.052060,0.045735,-0.121892,0.029364,-0.001143
-0.064053,0.140785,0.123881,-0.079596,-0.064000,0.017937,0.029859,0.020653
0.164377,0.025330,0.112843,0.074180,-0.077134,0.149381,-0.071700,-0.275507
-0.263197,-0.195856,-0.043096,0.217053,0.110188,-0.028811,-0.067471,0.138452
-0.127228,0.011886,0.073781,-0.183496,0.162675,0.063675,-0.166170,0.171345
0.057445,-0.079970,-0.033423,0.095168,0.257160,-0.035742,0.021323,0.080505
-0.177318,0.246699,0.039328,0.089907,0.111141,-0.001667,-0.021208,-0.008534
0.087389,0.050930,0.137678,-0.168541,-0.165843,0.076906,0.027738,-0.211563
0.191663,-0.112507,-0.254296,-0.055208,0.002966,-0.088289,0.227693,-0.042119
-0.105864,0.046544,0.136546,0.131236,-0.096675,-0.077189,-0.185061,0.087406
0.146462,-0.007222,-0.054861,-0.282912,0.013456,-0.132307,0.210178,-0.313495
0.004011,-0.107949,-0.043890,-0.054989,0.052845,-0.178208,0.017087,0.117986
0.021876,0.051686,0.197759,0.058325,-0.075331,-0.048166,0.161721,-0.181886
-0.024571,-0.173776,0.009979,-0.062969,-0.173322,0.031816,-0.074659,-0.073387
0.083889,0.165195,0.065725,0.144861,0.159713,-0.039066,-0.009906,0.150765
0.047758,-0.076498,-0.156732,-0.106610,0.016855,0.021820,-0.156697,0.080694
-0.282180,0.014556,-0.077970,0.072034,0.007539,-0.119498,-0.086178,0.039521
0.116628,0.033441,0.100292,0.124631,-0.179912,-0.117794,-0.005819,0.022773
0.076525,0.309875,0.176644,0.104645,-0.193561,0.106414,-0.000546,-0.344774
-0.074639,0.016614,0.093221,0.004319,0.039409,-0.158799,0.162476,0.004663
-0.098270,-0.015662,0.185904,0.142717,0.053353,-0.067836,-0.008965,-0.049700
0.103242,-0.028181,-0.167806,-0.203145,-0.043955,0.016847,-0.006313,-0.012880
-0.027331,0.016486,-0.075003,0.123048,-0.027330,0.111602,0.042453,0.016871
0.019910,-0.207850,0.080832,-0.203579,0.011851,0.174616,-0.081364,-0.097956
-0.042443,0.028562,0.050333,-0.215383,-0.084250,-0.074599,0.014328,-0.001487
0.087157,0.232634,0.166098,-0.006383,0.085881,-0.096857,0.222088,-0.002221
0.050830,-0.072874,-0.053014,0.138435,0.418983,0.210287,-0.105869,0.253682
0.197828,0.057893,-0.077455,-0.146372,-0.091534,-0.028941,0.300771,-0.031776
0.027280,0.116450,0.070134,0.059008,-0.199069,0.030519,0.320288,-0.212150
0.271839,-0.135251,-0.127127,0.035131,-0.126755,-0.069286,0.060765,0.006907
-0.002811,0.153872,0.118987,-0.175660,0.187839,-0.004594,-0.111593,-0.109450
-0.152987,-0.125223,0.007714,-0.183783,-0.001828,0.020324,0.043347,-0.059702
-0.049122,-0.259503,-0.154971,0.158842,0.059449,0.165751,0.049215,0.069851
-0.163504,0.076917,-0.101694,-0.337061,-0.199080,0.202046,0.067473,-0.036393
0.179147,-0.062219,0.183080,0.333238,-0.129578,-0.003578,0.137152,0.038868
-0.143575,-0.003808,0.126234,-0.044459,-0.040778,-0.132366,-0.027490,-0.043132
0.068331,0.034048,-0.071976,0.173511,0.109886,-0.164268,-0.182241,0.162685
-0.242652,0.053245,-0.058426,-0.058596,0.020190,-0.063732,0.098819,-0.074615
0.330445,0.249429,0.125378,0.036951,0.224447,0.122733,-0.141993,-0.032198
0.152344,0.223034,0.171379,-0.012075,0.052900,0.112632,0.149148,0.026926
0.006194,0.049826,-0.157801,0.147291,-0.112135,-0.060932,0.007122,-0.052338
0.061425,-0.007140,0.027534,-0.087227,0.066167,-0.287809,0.015645,0.176832
-0.435850,0.050097,0.245170,-0.136007,-0.132221,0.193754,0.069711,-0.233634
0.024233,-0.090999,0.151003,0.235061,0.003763,-0.089438,0.135163,0.060055
0.204236,0.145845,0.023310,-0.086186,0.054267,-0.087535,0.030906,0.281472
-0.146604,0.038007,-0.117876,-0.086892,0.274915,0.206431,0.095466,0.258215
0.156833,-0.065141,0.072106,-0.124831,0.125220,-0.134768,-0.064715,0.211155
-0.167394,0.030480,-0.169133,0.093446,0.161928,-0.214061,0.282391,0.142068
-0.104162,-0.092856,0.003007,-0.076664,-0.183783,-0.080948,-0.084983,0.054784
-0.030360,-0.115832,0.090527,0.011492,-0.197004,0.145341,0.063718,-0.036527
0.026610,0.257349,0.133647,-0.136318,0.120468,0.089815,0.024651,-0.047086
0.202131,-0.009394,0.016399,-0.031707,-0.188273,-0.046394,0.037474,-0.225008
-0.055824,0.054874,0.042533,0.081937,0.098810,0.028939,0.026376,0.031261
-0.039090,-0.028603,0.052667,-0.056868,-0.034790,-0.068971,-0.030472,0.068886
0.061742,-0.040944,-0.030341,0.206222,-0.079873,-0.034506,-0.100095,-0.018830
0.278634,0.027683,-0.090365,0.214957,0.035911,0.166397,-0.090843,0.022558
-0.150620,-0.073459,-0.006030,-0.288370,-0.269739,0.026523,0.120160,-0.121476
-0.228136,0.046660,0.079492,-0.005192,0.218391,-0.149560,-0.080850,0.215226
0.171248,-0.040334,-0.062808,0.154720,0.120845,-0.095625,-0.216820,0.059863
-0.224465,-0.076863,0.044442,-0.021154,0.180246,0.177884,0.247353,0.206293
0.266995,0.315023,0.161842,-0.283076,-0.065040,-0.026703,-0.040670,-0.148542
-0.068042,-0.011725,0.099212,0.034254,0.139739,-0.143928,0.097953,0.193196
-0.261768,-0.026694,0.076333,-0.054658,-0.010017,-0.068364,0.162604,-0.232074
-0.016841,-0.081086,0.019944,-0.086507,-0.072379,0.103409,-0.028091,-0.025441
-0.011957,-0.052254,-0.064542,-0.231775,0.135257,0.114405,-0.107641,0.083713
0.065650,-0.157976,0.058322,0.168320,-0.288557,0.060331,0.162780,0.132024
0.090440,-0.046977,-0.065384,0.052987,0.080370,0.051566,-0.095132,-0.128993
-0.204065,0.080845,0.003889,0.023252,-0.245535,-0.093432,0.071649,-0.145778
-0.085952,-0.077952,0.049012,0.247847,-0.080811,0.029987,-0.212208,-0.017263
0.059419,0.137225,-0.051001,-0.143066,-0.056691,-0.008890,0.235734,-0.033839
0.055371,0.036942,0.109773,0.063398,0.152506,-0.112879,-0.025201,0.104290
0.216679,-0.045255,-0.084914,-0.155056,-0.207613,0.212824,-0.107309,-0.025831
0.096518,0.096333,-0.098696,-0.018788,-0.045417,-0.267986,0.047179,-0.072086
-0.134268,-0.124479,-0.153428,0.114504,-0.172837,0.308985,0.142109,0.075245
-0.133527,-0.040262,0.138458,-0.238140,0.070830,0.204379,-0.061694,-0.018077
-0.033902,-0.228101,-0.388443,-0.034036,-0.073600,-0.071181,-0.331260,-0.141528
-0.259775,0.349459,0.380206,-0.304109,-0.285295,0.086379,0.311530,-0.355980
0.004570,-0.092817,0.004438,-0.116885,-0.064951,-0.067043,0.053372,0.014384
-0.050486,0.071183,-0.085835,0.077347,0.016396,0.002011,0.151244,0.123729
0.372291,-0.011478,-0.311896,-0.002489,0.043505,0.046992,0.074824,0.084988
-0.186852,0.003409,-0.028339,-0.023102,-0.049473,-0.038930,-0.055668,0.118732
-0.020589,0.101175,0.090834,0.106440,-0.079925,0.016171,0.004211,-0.235212
0.174756,0.102531,0.066367,-0.100276,0.054640,-0.138048,0.042927,0.114653
-0.077328,0.061191,0.213906,0.049679,0.036346,0.109000,0.042429,-0.169051
-0.255935,-0.019479,-0.005859,0.166202,-0.014471,0.098107,-0.156549,-0.122341
0.197002,-0.228178,0.138597,-0.025052,-0.210159,0.043440,-0.037107,0.025146
-0.265642,0.081269,0.074672,-0.157317,0.140122,0.016723,-0.193176,-0.043668
-0.003566,-0.048480,-0.025062,0.051831,-0.066323,-0.042350,0.132368,-0.037173
0.432396,0.155615,-0.134502,-0.158612,-0.064644,-0.093093,0.029699,0.043102
0.435233,-0.074609,-0.119586,0.080153,-0.025847,-0.123894,-0.035269,0.212983
0.213256,0.010662,-0.270935,0.004150,0.235927,-0.065638,0.153396,0.133824
-0.208038,-0.125976,-0.088686,-0.165984,-0.059993,-0.054905,0.201308,-0.175825
0.543364,0.161991,-0.174323,-0.053000,-0.030009,0.083088,0.128138,0.005217
-0.011629,-0.028539,0.143440,-0.254784,-0.041382,0.440451,0.001724,-0.171401
-0.149146,-0.202156,-0.298077,0.098910,-0.140932,0.018650,0.056792,0.111721
-0.130493,0.083613,0.047785,-0.015818,-0.080531,-0.063214,-0.089082,-0.087287
-0.077583,-0.260472,-0.013098,0.198636,0.042512,0.008479,0.121286,0.080100
-0.035239,0.102292,-0.050473,-0.233483,-0.003951,-0.022685,-0.037121,0.001909
-0.051831,-0.011131,0.173903,0.036957,0.113342,0.211949,-0.150841,0.003689
0.018116,-0.028395,-0.048710,-0.185759,0.088331,-0.023828,-0.102975,0.142139
-0.052614,-0.151111,0.078471,-0.063376,0.054773,-0.111267,0.093145,-0.092119
-0.135259,0.114055,-0.007977,0.084680,-0.089352,0.004824,0.209382,-0.106237
-0.052532,-0.166751,0.062816,0.028113,-0.182906,-0.013130,0.049892,-0.214295
-0.011614,0.511730,0.098174,0.177203,0.102427,-0.160501,0.249883,0.094269
0.105507,0.032019,-0.039282,0.148049,0.178446,0.214585,-0.110590,0.334792
0.239077,0.029026,-0.170562,-0.134386,-0.328774,-0.111506,-0.044517,-0.344575
0.045838,0.137345,0.100737,-0.068449,-0.189602,-0.080317,-0.054866,-0.112059
0.028629,-0.007912,-0.069532,0.050432,-0.104636,0.082417,-0.223770,0.196810
0.429590,-0.006523,-0.055741,-0.149124,0.155327,-0.168200,-0.059077,-0.030897
-0.201039,0.086750,0.121577,0.209706,0.233852,-0.236226,0.410142,0.385125
-0.088811,-0.331566,-0.379429,-0.218804,0.099830,-0.061120,-0.066691,0.010008
0.006854,-0.067762,0.246718,-0.073842,0.102594,-0.000794,0.006618,-0.082143
-0.088816,-0.115921,-0.279868,0.168330,-0.035923,-0.122014,-0.102067,0.152989
-0.098965,0.076395,0.084315,0.105698,0.037907,-0.056732,-0.040476,-0.067214
0.066806,-0.118568,-0.097283,0.113685,-0.131716,0.222374,0.013621,0.045700
0.076206,-0.122084,-0.174542,-0.107735,-0.160283,0.257611,0.002374,-0.101096
0.333658,-0.004915,0.132471,-0.076023,0.123790,-0.242814,-0.064073,0.432594
-0.407872,0.284341,0.574971,-0.095982,0.340309,0.239899,-0.256678,-0.187584
0.045312,-0.327701,-0.442298,0.031730,-0.210470,-0.064693,-0.072975,0.102974
-0.114906,0.097207,-0.029319,-0.059105,-0.029728,-0.168175,-0.029605,-0.419720
-0.055692,-0.260644,-0.080532,0.003041,0.122199,0.167022,-0.096675,0.401937
-0.215481,0.103717,0.180987,-0.191366,0.284498,0.021816,0.089610,0.114537
0.179859,0.081691,-0.020038,0.092354,0.014051,0.050292,-0.029071,0.063607
0.249239,0.131835,0.072762,0.012105,-0.124971,-0.010356,-0.249733,-0.138409
-0.207116,0.254395,-0.031050,-0.312185,-0.199262,-0.258784,-0.225757,-0.016243
-0.339663,0.372666,0.570052,-0.020079,-0.223681,-0.294164,-0.200161,-0.319171
-0.085468,-0.052610,0.365818,0.101364,-0.319787,-0.148791,-0.498078,-0.065811
-0.112600,0.343395,0.189274,0.156285,0.117948,0.061973,0.000852,-0.158537
0.060522,0.318542,0.279044,-0.120217,-0.153527,-0.109497,-0.233842,-0.154505
0.159897,0.166302,0.385095,-0.106010,0.119902,-0.079938,-0.306778,-0.229959
-0.276919,0.228454,0.491080,0.031316,0.376731,-0.021276,-0.199339,0.061150
0.016209,-0.368916,0.197591,0.160699,0.197125,0.025335,-0.217237,0.077158
-0.127820,0.222415,0.016630,-0.181945,0.256178,0.287898,-0.209752,-0.158637
-0.069331,0.067476,0.235960,-0.016906,-0.030020,-0.121446,-0.023953,0.125486
0.000477,-0.161320,-0.292312,-0.206832,-0.172348,-0.116218,-0.568365,0.174785
0.156127,-0.009255,0.034004,-0.083391,-0.286228,-0.022550,-0.038696,-0.323535
0.195347,0.130661,-0.187297,0.107708,-0.031812,0.005843,0.086348,-0.053947
0.205323,0.019758,-0.029149,0.031197,0.405979,0.096612,-0.184920,0.201194
-0.054873,-0.095517,-0.140029,-0.011616,-0.051374,0.158889,0.049572,0.086681
-0.050944,-0.138073,-0.032362,-0.030138,-0.063351,0.008304,-0.024170,-0.112889
-0.177351,-0.046959,0.119148,-0.414834,0.233460,0.086552,0.122608,0.244552
-0.292891,0.377243,0.001883,0.016522,1.099513,0.241923,0.420427,-0.036123
0.276341,0.323724,0.428111,0.090964,-0.306327,-0.407735,0.662120,0.059672
0.354598,-0.910568,-0.183225,0.487647,0.427736,0.277482,-0.523689,0.369305
-0.803018,1.158690,-0.029492,-0.620631,-0.611422,-0.400754,0.264192,0.780920
-0.659840,0.466775,0.346473,0.141995,0.116912,-0.379532,0.139535,0.656128
0.934007,0.066886,0.832340,-0.108673,-1.177401,0.176656,0.278442,-0.156723
-0.024986,0.052404,0.284118,1.335501,-0.269229,-0.426679,-0.473307,0.443000
0.906142,-0.412135,0.466288,0.410258,0.144391,0.487972,0.696049,-0.145046
0.894120,0.057892,0.737661,-0.610001,-0.721017,0.185261,0.739965,0.261101
-0.183413,0.081024,0.366557,-0.613415,0.694567,-1.107539,0.348879,-0.165271
0.400173,0.456544,0.068532,0.867131,0.275246,-0.521782,-0.375385,-0.302761
0.576894,-0.465524,0.760743,0.643330,0.957775,0.422266,-0.230154,0.020541
-0.079533,0.669054,-0.145053,0.405034,0.353804,1.184268,0.469620,-0.217466
0.792933,0.038878,0.394324,-0.244383,0.026734,-0.189942,-0.328584,-0.027141
0.295740,1.055222,0.330934,0.206455,-0.104887,-0.145172,-0.446880,-0.381829
-0.121919,0.033849,-0.485471,-0.444061,0.501860,-0.296858,-0.298046,-0.455925
-0.270142,-1.076217,0.290892,0.471377,0.277733,0.250735,-0.175559,-0.175748
-0.236222,0.282074,-0.137838,0.583452,-0.362108,0.679622,-0.283920,1.205645
0.041144,-0.838966,-0.193513,0.258237,0.709138,-0.090319,-0.371295,-0.468260
0.205205,0.464960,-0.097975,0.356587,-1.316665,0.328572,-0.113451,-0.106489
-0.427190,1.070526,0.937162,-0.203116,0.420550,0.030003,0.032134,-0.778190
-0.415852,-0.530995,0.546836,-0.625013,-1.131121,0.093288,-0.166458,0.743811
-0.265626,-0.488527,0.822830,-0.122993,-0.239424,-0.460580,-0.020016,-0.446532
0.230267,0.094225,-0.352980,0.203569,-0.288150,-0.317738,-0.276642,0.476901
0.273188,0.465292,0.160675
0.525453,-1.613142,0.259015
-0.896571,-0.179059,-0.875964
0.542340,0.631390,-0.400561
1.636600,-0.433420,-0.757525
0.039700,0.726498,0.073769
-0.353265,0.313094,0.261603
-0.576781,-0.784952,1.199414
