6
256,128,128,128,128,3
0.026227,0.017881,-0.014749,-0.050280,-0.063074,-0.086812,-0.059158,0.074243,-0.008136,-0.089858,-0.093967,-0.047649,0.010901,0.003295,0.015046,0.087498,0.087977,-0.017175,0.014887,-0.078290,0.107852,-0.035988,-0.076184,0.010323,-0.058122,-0.090358,0.081488,-0.076354,-0.091490,0.066100,0.022315,0.032386,-0.023687,0.032434,-0.058016,-0.037531,0.018817,-0.100461,0.115076,-0.045981,-0.009914,0.074891,0.065719,-0.025053,-0.064868,0.056235,-0.085300,0.058617,-0.008883,-0.005477,-0.002085,0.083630,0.041676,0.054768,0.081037,0.058055,-0.000684,-0.082521,0.006953,-0.012569,0.046400,0.030379,-0.022513,0.001672,0.072159,0.041913,-0.026534,-0.005131,0.089191,-0.038727,0.052914,0.024197,0.058331,0.090428,-0.036536,-0.078973,0.056378,0.056285,0.005787,-0.041609,0.037052,-0.093093,-0.059230,-0.001926,-0.038782,0.021585,0.010111,0.009593,0.006785,0.083439,0.056419,0.054870,-0.031283,0.048765,-0.031404,-0.017445,-0.077419,-0.086689,-0.049429,0.009934,0.008892,0.013589,0.046805,0.058150,-0.036384,0.023934,0.095023,0.018442,-0.059857,-0.014996,-0.071358,0.074383,-0.067239,0.023323,0.041953,0.018286,-0.017636,-0.065978,0.009437,0.008589,-0.071071,0.044904,0.051549,-0.093297,0.055166,-0.010217,-0.040659,-0.047721
-0.054622,-0.096768,0.023599,0.100185,0.033985,0.004200,0.085527,-0.038705,0.062419,0.072388,-0.079027,0.055965,0.007953,-0.028704,-0.033044,-0.004691,0.011576,0.000513,-0.043849,-0.042983,0.064054,-0.060712,-0.028442,0.046580,0.026374,-0.028062,0.073003,-0.030000,-0.141637,0.003485,-0.053076,-0.038785,-0.011884,0.072201,-0.093390,-0.006871,0.000550,0.042413,0.004042,0.085838,0.003023,0.020427,-0.068071,0.039035,0.031510,0.053887,-0.099351,0.070235,-0.007364,-0.022807,0.092654,0.047569,0.108910,0.003543,0.074262,-0.004318,-0.080045,0.040845,0.075613,0.019601,-0.020266,0.045320,0.014647,-0.071073,0.029468,0.063727,-0.075284,-0.045259,-0.007363,0.008792,0.084551,0.068511,0.002140,-0.037314,-0.051863,0.017914,-0.014690,0.043074,0.024064,-0.042424,-0.036258,-0.040145,0.100388,0.029775,-0.075522,-0.046492,0.041874,0.003004,-0.047088,-0.017358,-0.026366,-0.069296,-0.023552,0.011310,-0.022837,-0.001972,0.002721,-0.051304,0.002205,0.031010,-0.006670,0.032493,0.024710,-0.043069,0.030322,-0.084364,0.015463,0.059750,0.062518,-0.064013,-0.091781,0.088621,0.038985,0.023950,0.062390,0.061818,0.004481,0.021879,0.035249,-0.013364,0.073410,-0.076763,0.009221,0.075058,0.068086,-0.033409,0.063190,0.056464
-0.084061,-0.013211,-0.091705,-0.000429,-0.020420,0.080394,-0.020386,-0.044667,-0.036822,0.042716,0.030295,0.083169,-0.022540,-0.006216,-0.104544,0.019810,0.080947,-0.087856,0.037756,0.136130,-0.079702,0.001833,0.099102,0.014603,-0.046652,-0.022751,0.004023,-0.018674,-0.057231,0.074766,-0.119398,0.064189,0.029692,0.075358,0.041935,-0.088113,-0.084054,-0.030058,0.095165,-0.015204,0.035807,-0.076576,0.012823,0.026090,-0.030786,0.048817,-0.021222,0.103650,-0.031481,-0.060639,-0.097436,-0.062318,0.013876,0.021849,0.052660,-0.004740,0.071461,0.053127,0.077294,-0.072008,-0.082992,0.075660,0.051275,0.053787,0.041520,0.050842,0.077324,-0.014202,0.020204,0.069629,-0.008385,0.003098,0.071556,-0.034377,0.003481,-0.002405,0.000858,-0.061783,0.001258,-0.054259,0.036584,-0.098063,0.098451,0.047131,0.080463,0.006472,0.064707,0.005941,-0.016197,-0.002823,0.021599,0.027191,0.041477,0.016204,0.088561,-0.015363,0.052939,0.020650,0.027909,0.007687,-0.011627,0.031157,-0.044458,-0.042012,0.085001,0.021313,-0.046046,-0.003622,0.003785,-0.066044,-0.067749,0.005253,0.022870,-0.012110,-0.010290,-0.063655,-0.079611,-0.058299,-0.018662,0.066559,-0.025135,-0.043672,-0.035080,0.011174,0.078864,0.060408,0.031660,0.007654
-0.052425,-0.017176,-0.047598,0.131918,0.013844,0.033166,-0.040519,0.055663,0.031680,0.032938,-0.115419,0.121257,-0.079202,-0.053520,0.071101,0.015897,-0.035377,-0.090257,0.031226,0.013653,-0.017756,0.040000,0.015668,-0.051556,0.054241,-0.018431,0.011528,-0.023112,-0.013111,0.026646,-0.025398,-0.045143,-0.062920,0.053131,0.032725,0.062044,0.054285,-0.000195,-0.069991,0.096897,-0.061148,0.024334,0.039915,-0.011560,-0.067854,0.014385,0.005100,0.018942,0.010781,0.030304,-0.079895,0.027876,-0.054683,-0.021793,0.067948,0.025314,0.070566,0.035864,0.005947,-0.019126,-0.018961,-0.089877,-0.000680,-0.011156,0.045385,0.052778,-0.010116,0.108517,-0.032401,0.048096,0.035804,-0.062505,0.139172,0.011881,-0.014521,0.057053,-0.033088,0.003252,-0.081575,0.032223,0.057596,-0.027836,0.021458,-0.065168,-0.051600,-0.017958,0.023815,-0.126921,0.002090,0.021853,0.081807,0.053782,-0.067069,0.083995,-0.044082,0.042496,-0.016958,-0.062713,0.030436,-0.040636,-0.114620,0.071645,0.081877,-0.041548,0.073492,0.025516,-0.025714,0.049965,0.094088,-0.049509,-0.038436,-0.082356,-0.050253,0.012510,0.079580,-0.008886,-0.079412,0.007435,0.076725,0.001315,0.087148,0.005181,-0.008752,0.022659,0.018080,-0.037267,0.040944,0.035174
0.049707,-0.026184,0.041890,0.040081,-0.093087,0.040154,-0.057576,0.047721,0.086447,0.017314,-0.094497,0.109752,-0.090085,-0.108860,-0.029839,-0.018117,-0.046451,0.023590,-0.025466,-0.043525,-0.057383,0.029421,0.051232,-0.032647,0.058958,-0.012160,0.012737,0.088433,-0.039344,-0.059105,0.069824,-0.057739,-0.011655,0.100732,-0.076455,0.075244,0.002387,-0.057290,0.081200,0.034624,0.087366,-0.054691,0.078449,0.042480,-0.044545,-0.145868,0.003229,0.045934,0.028790,-0.065117,0.062650,0.030136,0.076653,-0.026724,0.070966,-0.037559,-0.051408,0.023457,-0.006514,-0.048779,-0.093398,0.067311,-0.025100,0.133287,-0.028614,-0.001332,0.051690,0.012796,-0.087273,-0.098454,0.024531,-0.031843,0.070255,-0.058366,-0.049593,-0.068700,0.046014,-0.022432,-0.028737,0.059270,0.053916,-0.066699,-0.092336,-0.027216,-0.055774,0.048040,0.032180,0.004416,0.027414,0.068291,-0.034801,0.093786,-0.035565,-0.011351,-0.040239,0.043484,-0.031732,-0.020725,-0.029335,0.073394,-0.041654,0.095930,-0.075603,0.012565,-0.049105,0.008150,0.032582,0.020183,-0.033771,-0.008089,-0.030603,0.011993,0.035350,-0.045445,-0.044226,-0.080473,-0.096954,0.050489,0.094479,0.050294,-0.068695,0.022489,0.029364,0.074564,-0.080630,-0.011594,0.041993,-0.039870
0.006417,0.066565,-0.084196,0.018775,-0.000942,-0.041149,0.035800,0.022152,-0.063783,0.041260,0.017739,0.071552,-0.077715,0.034324,0.119119,-0.084530,0.012193,-0.033490,-0.055661,-0.042346,-0.074715,-0.023775,0.072034,-0.045215,-0.037813,-0.030504,0.036066,0.038203,0.011677,0.036576,-0.033571,-0.027977,-0.043372,-0.017254,0.039337,-0.022124,0.006623,-0.037826,-0.084051,0.065246,-0.015318,-0.027747,-0.007393,0.016002,-0.027104,0.008818,-0.029686,-0.031037,-0.068811,0.054774,0.007256,-0.009658,0.070466,0.081678,0.047180,-0.005436,0.014602,-0.072884,-0.065904,0.020997,0.043395,-0.000829,0.042084,-0.022072,-0.090340,-0.024500,-0.066872,-0.035602,0.023121,0.025040,-0.042699,-0.002629,0.079363,-0.089580,-0.028395,-0.091505,0.106867,0.068707,-0.021783,0.030670,-0.021037,0.028271,-0.028863,0.067559,0.074352,0.052320,0.057850,0.056682,-0.047931,-0.005494,-0.021854,-0.040519,-0.004061,-0.026820,0.053563,-0.102249,-0.000094,-0.029216,-0.005878,0.005853,-0.071649,-0.058016,-0.071503,-0.012170,-0.040488,0.032465,0.065404,0.011453,-0.084869,-0.070235,-0.026071,0.044635,-0.062319,0.037768,-0.034580,-0.002661,0.020185,0.081706,0.019220,0.097841,-0.024971,0.015898,-0.007870,0.004868,0.041640,-0.001739,-0.036575,0.076521
0.086802,0.074939,-0.055386,0.048136,-0.045116,-0.045200,0.028946,-0.005582,0.076526,-0.030901,-0.020916,-0.045395,-0.027651,0.015697,-0.047542,-0.028295,0.034332,-0.044374,0.113786,-0.008443,-0.121757,-0.021336,0.088477,-0.068856,0.083213,0.002416,0.044859,-0.060153,0.004515,0.088747,0.039026,0.026981,0.120465,-0.091393,-0.064740,-0.044323,-0.067305,0.054963,-0.001654,-0.063713,-0.082005,-0.008726,-0.009827,0.083411,-0.073425,-0.057229,0.064019,0.003582,-0.020677,0.007706,0.050015,0.047134,0.067679,-0.023203,0.019672,0.025729,-0.022914,-0.078578,0.014256,-0.004100,-0.062551,0.052837,0.067026,-0.030978,0.048498,-0.023223,-0.080365,0.111925,-0.101922,-0.048622,0.014864,0.003970,-0.022110,-0.084301,0.019470,-0.092819,0.086624,-0.037794,0.038677,0.067534,0.078527,0.075138,-0.000740,-0.053788,-0.015831,-0.007932,0.014631,0.004803,0.010646,-0.012896,0.077377,0.023967,-0.070475,0.067204,0.109811,0.019529,0.060268,0.073299,-0.108579,0.098630,-0.051345,-0.088122,-0.031880,0.055307,0.038398,-0.034722,0.006472,-0.008988,-0.034125,-0.005993,-0.052748,-0.013676,0.041697,0.066336,-0.021996,0.005782,0.022204,0.009729,0.038186,0.048528,-0.018132,0.002546,0.018238,-0.084919,0.011126,-0.033888,-0.086594,-0.059370
-0.040452,0.052882,-0.057839,0.036369,-0.050611,-0.016339,-0.074648,-0.021072,-0.007738,-0.011879,-0.022010,-0.091043,-0.021149,-0.001285,0.021102,0.121026,-0.041193,-0.006783,-0.003136,0.056163,0.027050,-0.058032,0.024270,-0.034343,-0.086178,0.012138,-0.015923,0.020380,-0.003039,-0.103669,-0.016954,-0.041456,-0.019088,-0.013971,0.042503,-0.018158,-0.041967,0.057006,0.052788,-0.025452,0.024351,0.047690,-0.126426,0.022934,-0.109464,-0.008597,-0.051243,-0.024482,-0.036706,-0.007053,0.066246,-0.003222,-0.108803,-0.046822,-0.013149,-0.059499,-0.007799,0.038551,0.008493,0.027226,-0.044950,-0.024994,-0.046501,-0.043995,0.051628,-0.057772,-0.074383,0.066012,0.024712,0.046601,-0.033724,0.010661,0.048430,0.028416,0.014951,0.032331,0.045411,0.042132,0.051627,-0.079897,-0.094331,-0.074840,0.052416,-0.085215,-0.049877,-0.111596,-0.054002,0.010936,-0.064441,-0.013588,-0.085892,-0.020548,-0.070283,-0.049270,0.074766,0.012335,0.073983,0.082909,0.070140,-0.017578,-0.089153,-0.082106,0.054570,-0.026909,0.012132,-0.041614,-0.056006,-0.046703,-0.068864,0.097832,0.002206,-0.000019,-0.055187,-0.033213,0.042338,0.099014,0.047002,0.079432,-0.078962,-0.075355,0.050212,-0.052697,0.054101,0.070928,0.001130,-0.021580,-0.031613,0.050114
-0.100717,0.043970,-0.106327,0.076598,-0.033902,0.076706,0.024119,0.056338,-0.024083,-0.013703,0.059621,0.014853,-0.052404,0.045956,-0.126871,-0.020284,0.069190,0.001331,0.015451,-0.001324,0.015708,0.094233,0.033614,-0.060170,0.014543,0.128597,-0.072824,0.034138,0.046927,-0.044283,0.057637,0.002779,0.065237,-0.034299,0.018587,-0.008930,0.031610,0.039568,-0.035428,0.006581,-0.058637,0.072752,0.035930,-0.050872,-0.049597,-0.061335,0.100015,0.095602,-0.047762,0.080603,-0.013381,-0.001929,0.096172,-0.070257,-0.077269,0.024337,-0.019406,0.053822,0.038324,0.031788,-0.022745,-0.040374,0.030304,0.005933,-0.049448,-0.029772,0.055277,-0.031716,-0.058465,0.038300,-0.027384,0.015171,0.111638,-0.046073,0.018967,0.001781,-0.015228,-0.011752,0.031560,0.014268,0.078966,-0.015763,0.030220,-0.078884,-0.037253,0.015488,0.030132,-0.058306,-0.021425,-0.133768,0.034948,-0.058402,-0.054388,-0.073111,0.023898,-0.038953,0.071086,-0.020276,0.080857,-0.050992,0.020824,-0.080276,0.051419,0.026140,0.028041,0.042321,-0.041930,-0.050737,-0.086177,-0.041301,0.092744,0.046303,0.059747,0.035198,-0.009927,-0.048894,0.035388,0.031135,-0.110318,-0.056652,-0.080972,-0.027662,-0.046104,0.037974,-0.048920,0.067455,0.032549,-0.048092
-0.057457,-0.048631,0.000783,0.080847,0.012842,0.063322,0.051632,-0.037152,0.068096,-0.032795,-0.011395,0.007988,-0.050172,-0.026154,0.036308,-0.065631,-0.077849,0.032461,-0.023596,-0.029988,-0.020325,-0.054842,-0.059910,-0.024331,0.012463,0.034462,-0.089093,0.035086,-0.055683,0.041998,0.016915,-0.054539,0.054273,-0.005844,-0.036109,-0.037770,-0.017442,-0.002051,-0.042074,0.039077,0.082040,0.062942,-0.080828,0.079302,0.035252,-0.077298,0.027203,0.038695,0.090341,-0.050835,-0.021889,0.042737,-0.015916,0.082611,0.068656,0.053284,-0.063055,-0.013852,-0.040746,-0.031565,-0.080510,-0.000074,0.023921,-0.016509,-0.073038,-0.013518,0.028235,-0.021047,0.025695,-0.017308,-0.062831,0.043898,0.067866,-0.000060,-0.031161,0.074392,-0.085008,0.062702,0.046980,-0.018051,-0.054782,-0.025227,0.035883,-0.072721,0.068206,-0.000237,0.088811,-0.011345,0.031980,0.029800,-0.031809,0.068207,-0.093601,-0.089972,-0.041694,0.014855,0.057729,-0.014753,-0.057552,-0.036520,0.014000,0.034039,0.042089,0.006635,-0.000851,-0.073856,0.071278,0.050134,-0.098222,0.033678,-0.002562,-0.075581,0.085017,0.012854,-0.028182,-0.057479,-0.045636,-0.091022,0.019656,-0.008559,-0.034531,-0.060761,-0.006798,0.031842,-0.103012,-0.016244,-0.066018,-0.029029
-0.057124,0.077652,0.007535,0.131050,0.004880,-0.001208,-0.040149,-0.080243,0.003026,0.053354,0.055254,0.040755,0.004205,0.024434,0.080186,0.055625,0.076966,0.015221,0.072250,0.128928,-0.090374,-0.017567,-0.066728,-0.035981,-0.027566,0.026823,-0.033621,0.040040,-0.003656,0.023666,-0.027933,0.060700,0.028736,0.064364,0.068687,0.057016,0.013606,-0.069110,0.051658,0.006030,-0.010552,-0.065200,0.022937,0.062632,-0.028134,0.009570,-0.014952,-0.058967,-0.015230,-0.036620,0.068364,-0.009279,0.109928,0.048986,-0.014150,0.004968,0.056034,0.102256,-0.054764,-0.014169,0.002478,0.019251,-0.047004,-0.061971,-0.032866,-0.012001,-0.003886,0.051985,-0.039073,-0.015321,-0.045049,-0.038037,0.025712,-0.033812,0.031469,0.012394,-0.025120,0.088462,-0.016894,-0.026898,-0.033672,-0.036880,-0.049923,0.026808,0.064803,-0.055523,-0.014403,0.014229,0.055634,0.039101,-0.055880,0.104608,0.030156,0.080106,0.020712,0.125029,0.027175,-0.055020,-0.094673,0.077505,-0.075198,0.067610,0.027505,0.061917,0.045461,-0.024959,-0.078800,-0.037390,0.036244,-0.000460,0.038756,-0.079525,-0.071751,-0.002972,-0.017709,-0.104707,0.036237,-0.125171,-0.016663,-0.107115,-0.010612,0.016367,-0.000720,0.029589,0.094897,0.006747,-0.028351,-0.038847
-0.033190,0.058619,0.056083,0.125702,-0.027426,-0.062659,0.006395,-0.081486,0.008171,-0.039645,0.032264,0.038092,-0.015551,0.078993,0.066912,-0.029915,-0.060613,-0.050506,-0.078316,-0.010571,0.055103,0.031542,-0.064577,0.041063,-0.038202,0.025636,0.028870,-0.000963,0.043586,-0.085685,-0.073413,-0.023752,-0.017253,-0.029497,0.002281,0.048886,-0.087073,0.037915,0.105735,0.003999,0.112358,0.061801,-0.064137,-0.015840,-0.004617,-0.070935,-0.069279,-0.023569,-0.076981,0.090789,0.046488,-0.016141,0.080384,0.106201,-0.028252,-0.006079,0.071888,0.059555,-0.029804,-0.019397,0.010008,-0.028415,0.082165,0.002306,0.038247,-0.060029,0.030522,0.131984,0.051606,-0.030524,0.024767,0.047541,0.001178,0.076124,-0.065373,0.113492,-0.002525,0.028148,0.033080,0.035682,0.001512,-0.004288,0.005853,-0.069675,0.019160,0.053318,0.034547,0.066208,-0.026473,0.042163,-0.037246,-0.011813,0.089664,-0.013687,-0.043678,0.011549,-0.055710,-0.090097,0.047831,0.033822,0.016079,0.063874,-0.046048,-0.024996,0.018109,-0.024806,0.065010,-0.018139,-0.064909,0.023418,0.067947,-0.015287,-0.010510,0.017129,0.024196,0.053296,0.039696,-0.060990,-0.078616,-0.019021,-0.010745,0.096761,0.118313,0.014112,0.056361,-0.001849,-0.000760,0.124126
-0.029638,-0.098156,-0.053401,-0.036269,0.097143,-0.067925,0.059459,0.073983,0.051816,-0.049370,0.109390,-0.009268,0.049581,-0.013622,0.045508,0.059988,-0.024046,-0.008274,-0.090877,-0.000678,0.030496,0.004671,-0.120763,0.061621,-0.029468,-0.034294,0.102915,-0.062256,-0.079824,-0.064702,-0.106361,0.028419,-0.022996,0.070324,0.020357,-0.048133,-0.062743,-0.052169,0.004712,0.070973,-0.005077,0.001109,-0.020793,-0.014085,-0.092956,0.006555,-0.099589,-0.043191,-0.038735,0.028593,-0.019813,0.069794,0.117931,0.140876,0.013440,0.078145,-0.018891,0.028729,0.063152,-0.060999,-0.037120,-0.059660,-0.030912,0.027297,-0.011077,0.039420,-0.010232,-0.022955,0.000826,-0.050996,0.067393,-0.074858,-0.037483,0.083358,-0.072813,-0.074646,0.081939,0.044230,0.005052,0.069805,-0.012932,0.038194,-0.015553,0.015419,0.117161,0.100620,-0.047385,0.046333,0.057319,-0.034455,0.006355,0.069812,0.060958,-0.052107,0.077190,-0.086501,-0.073275,0.000447,-0.106104,0.054893,0.020610,-0.002818,0.036470,0.022732,0.005761,-0.021191,-0.008308,-0.048173,-0.053057,0.057324,0.090139,-0.062704,0.058681,0.097658,-0.050129,0.037463,0.051420,0.097062,0.049659,-0.108433,0.099961,0.124476,-0.033792,0.076543,0.022951,0.091145,0.047132,-0.027725
0.041694,-0.072085,-0.130878,0.022362,0.041435,0.050169,-0.025574,-0.091451,-0.069539,0.079807,-0.086590,-0.106881,0.128103,-0.066526,-0.018647,0.096175,-0.035082,0.058016,0.055714,0.063194,0.044552,0.019149,-0.015912,0.054445,0.018272,-0.042018,-0.049614,0.099463,-0.047095,-0.039594,0.007771,-0.039088,-0.006818,0.064477,0.088620,0.013462,0.017670,0.003474,0.024199,-0.065916,-0.002598,-0.111888,0.051391,-0.002292,-0.058657,-0.015303,0.003194,0.035436,-0.029358,0.030968,0.077639,-0.034277,0.077996,0.093349,0.096209,-0.093059,-0.000560,0.044815,-0.032938,-0.035508,0.018662,-0.015839,0.045622,-0.078671,0.040298,-0.005605,-0.013916,0.017787,0.055997,0.037034,0.019483,0.041407,-0.026511,-0.061085,-0.079036,0.046936,0.051104,-0.008088,-0.008547,-0.078350,-0.059250,0.013204,0.016199,0.038222,-0.023682,0.090619,0.081261,0.058404,-0.016274,0.031810,0.022251,0.004671,0.089562,0.052571,-0.036088,0.090849,-0.073931,0.090478,-0.044452,0.037564,-0.027911,0.031428,0.054610,0.073735,0.011871,-0.086393,0.053496,0.050196,0.049277,-0.000107,-0.034289,-0.066608,0.091097,0.082974,0.020424,0.040078,-0.016494,0.080569,0.105758,0.006436,0.039027,0.109763,0.063212,0.006087,0.056701,0.061442,0.064312,-0.038050
-0.001178,0.009956,-0.097651,-0.077233,0.014348,0.009972,-0.020988,-0.028267,-0.059701,-0.049201,0.047625,-0.012080,-0.088443,-0.034907,0.015363,0.025925,-0.014925,-0.007507,0.073001,-0.058873,0.067644,0.007807,-0.058981,-0.093291,-0.093982,0.057506,-0.001165,0.006835,0.004983,0.039857,-0.011151,-0.049491,-0.018364,0.082683,0.023702,0.034363,-0.065552,-0.056011,-0.055487,-0.091796,0.075755,0.052181,0.029427,0.081722,0.004832,-0.044025,0.063024,0.006258,0.031179,-0.038646,-0.021857,-0.026458,0.058207,0.080913,0.096213,-0.022846,0.102469,-0.083620,0.035856,-0.064305,0.069721,-0.018571,0.017734,0.006378,0.004232,-0.058688,-0.064376,-0.013968,-0.022590,0.013978,-0.008757,0.020998,0.069009,-0.050501,0.005555,-0.024200,0.006927,0.130241,-0.041084,-0.017436,-0.011096,-0.021883,-0.033878,0.064779,-0.004253,0.068261,0.029759,-0.013211,0.036481,-0.033749,-0.036475,0.013760,0.037383,0.029264,-0.034389,-0.021592,-0.088295,-0.015474,0.012440,0.005098,0.081402,0.048689,-0.071900,0.022377,-0.055336,-0.096602,0.063742,0.052129,0.047008,-0.081027,-0.025502,-0.073433,-0.034716,-0.034063,-0.010625,0.083212,-0.066452,0.000792,0.054258,-0.071625,0.079527,-0.032497,-0.045646,0.002760,0.012401,-0.004399,-0.047653,-0.066948
0.037783,-0.008251,-0.027180,-0.037651,0.024242,0.089387,-0.043592,-0.000656,0.035959,-0.037559,-0.139255,-0.014581,0.026508,0.025694,0.025180,-0.015282,0.056754,0.019650,0.039306,-0.053416,-0.064395,0.030433,-0.021849,0.045794,-0.068372,0.078156,0.041843,-0.028915,-0.077645,-0.027458,-0.155265,0.082708,0.056704,0.030663,0.094168,0.013741,-0.040013,-0.029477,-0.084461,0.054829,0.043638,0.075693,0.052116,-0.007446,-0.005290,-0.069355,-0.029115,0.026990,-0.048630,-0.060970,0.074629,0.117051,0.011745,0.001035,-0.037004,0.075729,-0.001730,-0.048987,0.014253,-0.074255,0.027824,-0.087390,0.048064,-0.078386,0.019444,0.000235,0.059865,0.026548,0.082276,0.054720,0.092039,0.009767,-0.081224,0.057780,0.113679,-0.034467,0.031896,-0.051642,0.066266,0.081759,-0.097966,-0.029902,0.041343,0.018661,0.014518,0.023350,-0.070079,-0.010256,0.057736,0.031662,-0.074874,-0.037791,0.096884,-0.043045,-0.080817,-0.038799,0.012819,-0.079381,0.013028,-0.065490,0.053282,0.042930,-0.074258,-0.014977,0.002345,-0.094437,-0.048444,-0.030830,0.096028,-0.026317,-0.032425,-0.025165,0.015290,-0.041371,-0.049392,0.088464,-0.086874,-0.072531,-0.009434,-0.041116,0.073792,0.086860,-0.070600,0.026593,-0.009492,-0.066216,-0.002965,-0.010830
-0.054875,0.001737,0.095104,-0.041273,-0.016508,-0.022514,0.071194,0.091878,-0.052927,-0.004712,0.021474,-0.000663,-0.005473,0.088076,-0.075584,-0.051878,-0.054868,0.061622,-0.012909,-0.056352,0.004032,0.080650,-0.065522,0.017021,-0.070434,-0.018169,0.050576,0.020022,0.022613,0.036623,-0.061431,0.036636,0.060538,-0.042765,0.012889,-0.022165,0.086726,0.068320,0.000743,-0.077392,0.016115,0.053473,0.032699,-0.000951,0.032573,-0.005289,0.013878,0.066241,0.079024,0.113962,0.000908,0.031270,0.049998,0.007480,-0.013773,-0.072128,0.039142,0.076526,-0.016349,-0.099146,0.028839,0.066716,0.029695,0.037109,-0.045335,-0.006408,-0.016300,-0.083377,-0.068098,-0.077230,-0.004837,-0.078373,-0.070051,-0.041600,-0.014148,-0.026946,-0.050301,0.091056,-0.056812,0.056766,-0.065007,-0.043223,0.082545,-0.087377,-0.013837,0.080381,0.043608,0.073987,-0.022110,-0.083277,0.083239,-0.077639,0.023061,0.019841,-0.059002,-0.035959,-0.021220,-0.089901,-0.002649,-0.006719,0.061900,0.020381,-0.047287,-0.013491,-0.025324,-0.069081,0.046218,0.028968,0.058094,0.040516,0.015397,-0.031372,0.014135,-0.068299,0.073019,-0.042700,0.068272,-0.031688,0.073470,-0.014193,0.037417,-0.037060,0.049862,0.036934,0.067092,-0.100708,0.015402,0.059351
0.017147,0.084825,0.075567,0.089956,0.008839,0.014189,-0.040329,-0.029603,0.026724,0.020604,-0.102803,0.040499,0.007398,0.045749,0.006324,-0.046005,0.050662,0.074321,-0.007060,0.082960,-0.008582,-0.057842,-0.023988,-0.070968,-0.010608,0.045362,0.055129,0.086599,-0.097441,0.049108,-0.043309,0.057817,0.008866,0.093421,-0.039901,-0.103221,-0.045112,0.076025,0.022115,-0.025067,0.026388,0.048926,0.013692,-0.027045,-0.046556,0.026360,-0.073531,0.004190,-0.011916,0.035612,0.070527,-0.050922,0.088372,0.006142,-0.031988,0.036563,-0.019252,0.056469,0.071969,0.050241,0.014804,0.047617,0.074947,-0.066488,0.090672,0.046237,-0.050538,-0.028931,0.044384,-0.109847,0.053312,-0.026756,-0.072331,-0.065352,-0.036474,-0.018280,0.065680,-0.026103,0.008204,-0.032472,0.065080,0.055467,0.043856,-0.066609,-0.108865,0.009959,-0.042539,0.069697,0.035975,0.076191,-0.014954,0.039014,0.040127,-0.028236,-0.004170,-0.020999,0.035418,-0.079098,0.030307,0.020563,0.009709,-0.059023,-0.057418,-0.025974,0.016852,0.032574,0.014360,-0.048256,-0.026488,-0.068679,0.035117,0.025743,-0.098347,0.018419,0.010566,-0.060171,-0.021409,0.021389,0.033975,-0.011750,0.049959,-0.029070,0.000349,-0.087590,0.017636,-0.058336,0.048181,0.091691
0.051359,0.012381,0.041466,-0.058164,0.024102,-0.032386,-0.043528,-0.042287,0.020292,-0.081122,-0.082885,-0.058363,0.038024,0.055320,0.032122,0.004912,0.020958,-0.074550,-0.046373,-0.038710,0.033962,0.036251,-0.017024,-0.045945,0.033274,0.030181,0.080765,-0.061615,0.056810,-0.008876,0.006455,-0.026617,0.016104,0.021090,-0.092759,-0.005050,-0.061251,0.067013,-0.014504,0.027667,0.006540,-0.053245,0.100121,0.011732,0.031410,0.015612,0.021953,-0.019486,0.084735,-0.009889,0.055585,-0.075379,-0.007181,-0.046619,-0.050198,0.021505,0.018813,0.045884,0.066481,-0.023083,0.008423,-0.070055,-0.105449,-0.027233,-0.066366,0.021052,-0.040017,0.027978,0.052710,-0.002422,-0.026490,-0.039599,0.003619,0.035381,-0.059219,-0.011236,-0.058793,-0.072187,-0.008372,-0.034598,-0.070052,0.040979,0.059795,-0.040511,0.061676,-0.024205,0.009600,-0.033376,-0.000689,-0.068887,0.017777,-0.053935,0.039778,-0.013367,-0.072057,-0.060866,-0.034488,-0.013235,0.098278,-0.074067,0.052487,0.052463,-0.001462,0.067127,-0.083865,0.003677,-0.045581,-0.068046,-0.010453,0.039443,-0.044707,-0.053558,0.069311,0.044718,-0.021794,-0.005331,0.060023,0.042951,0.079683,0.064822,0.016850,0.117128,-0.017439,-0.077088,0.036939,-0.062482,-0.016652,-0.016811
0.022008,0.072475,0.005916,0.102269,-0.002259,0.009741,-0.004146,-0.017090,-0.077520,0.036270,-0.080833,0.105264,-0.018915,0.009353,0.026381,0.076746,-0.030566,0.032016,0.038546,0.056421,-0.040035,0.018042,-0.038460,0.075235,-0.019508,0.057023,0.017021,-0.008420,0.046334,-0.015473,0.059578,0.054084,-0.066926,0.080663,0.024350,-0.039557,-0.032811,-0.094667,0.021288,0.015700,-0.060783,0.043863,0.005510,0.067979,-0.001657,-0.045776,0.039684,0.066975,0.084007,-0.046276,0.063943,-0.042222,-0.025803,-0.025185,0.002087,-0.051212,0.055175,-0.013116,0.013179,0.032048,0.064993,-0.040525,-0.036630,-0.008159,-0.025376,-0.026907,0.067427,-0.066726,-0.027639,-0.067893,-0.074626,0.025726,0.118699,-0.024662,0.060707,-0.079836,0.009636,0.002974,0.098558,0.079706,-0.003612,-0.018335,-0.060362,-0.013712,0.029827,-0.022082,0.078301,-0.078743,-0.002516,0.013829,0.061214,0.092232,-0.014755,0.041790,0.012788,0.094097,-0.024828,0.074232,-0.073960,0.046829,-0.062321,0.037489,0.093146,0.030798,-0.015954,0.025030,0.006221,-0.040482,-0.075726,0.066493,0.075689,-0.075949,0.033681,0.014843,-0.022076,0.024719,0.079792,-0.033758,0.039540,-0.049499,0.047555,-0.044162,-0.066880,0.027985,-0.080857,-0.015996,0.078051,-0.037415
0.039569,-0.059975,-0.005121,0.092405,0.037234,0.084806,0.029929,-0.089922,0.004709,-0.003354,-0.030323,0.065312,0.055748,-0.096887,-0.022142,-0.063874,-0.093657,0.040664,-0.004808,0.010477,-0.018139,-0.067684,0.043814,0.063463,0.068788,-0.059033,-0.092026,-0.004706,0.066139,0.071882,0.006956,-0.009200,0.000349,-0.050095,-0.028388,0.055094,-0.074362,-0.000409,0.078511,0.066722,-0.074516,-0.035123,0.117882,0.044636,0.012565,-0.089209,-0.034509,0.080959,0.062845,0.000725,0.030827,-0.035724,-0.051985,-0.049522,-0.081709,0.000726,-0.007660,-0.033980,-0.032990,-0.007041,0.089850,0.019653,0.014699,0.080365,0.014211,-0.061730,-0.060586,-0.036330,-0.035567,0.126237,0.087115,0.035653,-0.014580,-0.014501,-0.020505,0.071152,0.017677,-0.021496,0.085164,0.086574,-0.031124,0.002998,0.019105,-0.018168,-0.009194,0.001664,-0.051328,-0.062363,0.082950,0.019829,-0.073277,-0.035602,0.053078,0.063849,0.027423,-0.011237,0.024272,0.007421,-0.074601,-0.063789,0.027252,0.043991,-0.071806,-0.015981,-0.044740,0.039260,-0.020344,0.002531,-0.012038,-0.035345,0.078122,0.051796,-0.078443,-0.015129,-0.009776,0.088021,0.032440,0.078405,-0.001209,0.116470,-0.114842,0.115305,0.109702,0.033924,0.068368,-0.009357,-0.065578,0.083375
0.019015,-0.000714,0.050701,-0.021634,0.003800,-0.069337,-0.005238,-0.039655,-0.099107,-0.050206,-0.033296,-0.018481,0.019763,-0.091593,0.074352,-0.077031,-0.041363,-0.087694,0.021729,-0.048957,0.008879,-0.008459,-0.000785,0.037349,0.057706,-0.024920,0.007085,-0.042207,0.077790,0.061975,-0.022513,0.036762,0.018724,0.021461,0.028275,-0.020293,0.041483,-0.056675,-0.018520,-0.036035,0.031963,-0.092552,0.033815,-0.100823,0.056722,-0.059886,0.068988,0.094128,0.087681,0.011082,0.018987,0.005701,0.016588,0.050832,-0.045828,0.021981,-0.004816,0.097567,0.001017,-0.095136,-0.023518,0.044454,0.033574,0.090548,-0.053392,0.019426,0.009901,0.008651,0.056643,-0.054438,0.032242,0.005830,-0.035858,-0.039205,-0.033212,-0.071640,0.045199,0.082608,0.078833,-0.008248,0.084973,-0.056237,-0.042467,-0.052421,-0.015484,0.016004,-0.077162,0.076895,0.066818,0.086912,0.039590,-0.000188,0.094520,-0.083781,-0.003799,0.030220,-0.078371,-0.035323,0.011929,-0.008573,-0.063549,0.009165,0.002165,-0.065997,-0.085459,-0.032391,-0.050981,-0.087038,0.023937,0.017398,0.043034,0.016758,0.002222,0.086395,-0.003903,-0.044265,-0.058924,0.116319,0.099233,-0.001525,-0.025877,0.073201,-0.045108,-0.071980,0.014161,-0.077037,0.001117,0.016004
0.027133,0.045557,0.000818,0.066817,-0.042166,0.059399,0.054788,0.102782,-0.092200,0.053022,-0.037071,0.007168,0.036537,0.038219,-0.054012,0.052043,0.022319,-0.084882,0.071642,-0.041346,0.071279,0.046987,0.046276,-0.035931,-0.053750,-0.047148,-0.027813,-0.064289,-0.049909,-0.068862,0.029977,0.037203,-0.062868,0.083009,0.007479,0.053424,0.018772,-0.070047,0.062815,-0.000618,-0.072776,-0.055444,-0.081513,0.030002,-0.028200,-0.025160,-0.098513,0.012925,-0.056087,0.052025,0.068415,-0.088055,-0.095710,-0.007175,-0.037133,0.015847,-0.027223,-0.048705,0.076399,-0.101844,-0.017508,-0.061972,-0.004550,0.079298,0.090752,0.075175,-0.041556,-0.044683,-0.000354,-0.093071,-0.056536,-0.060036,-0.020129,-0.055091,0.020206,-0.041617,0.040451,0.106692,-0.023902,0.063391,-0.084417,0.031469,0.082411,0.028429,-0.091074,-0.055344,-0.065510,-0.028806,-0.060804,0.013167,-0.019615,-0.070324,0.049288,0.050100,-0.020834,-0.118687,0.022671,0.106568,0.080351,-0.009707,0.014525,0.073374,0.103301,-0.048801,0.011077,0.034275,-0.038200,0.031579,-0.045952,0.023327,-0.017474,0.100105,-0.017308,-0.008931,0.054458,0.056503,0.019029,0.063261,-0.007102,-0.061701,0.005162,0.006240,0.029529,0.044709,0.021531,-0.059564,0.106188,0.086462
-0.015066,-0.049311,-0.100485,0.075712,-0.055688,0.003788,0.064643,0.064171,0.004897,-0.019130,-0.000515,-0.079272,0.090539,0.035843,0.002066,0.016701,0.025192,-0.089363,0.024643,0.055246,0.015446,0.030246,-0.059457,0.072919,0.047622,-0.078043,-0.096958,0.094360,0.017663,0.030338,-0.033293,-0.077828,0.056274,0.037529,-0.066468,0.096309,0.024345,-0.022447,0.046585,0.026594,-0.026783,0.086256,-0.080899,-0.063595,0.089563,0.065522,-0.082010,0.004983,-0.045443,0.024388,-0.028127,-0.013729,-0.003991,0.000064,-0.032105,-0.009610,-0.106717,-0.006680,0.033217,-0.029879,-0.050190,-0.044540,-0.038566,-0.005900,0.055826,0.002268,0.056980,0.008195,-0.054315,0.046899,-0.074232,-0.057224,0.052212,-0.060415,0.040921,0.049105,0.020351,0.051817,-0.042125,0.047357,0.082684,0.039379,-0.038031,-0.058321,-0.025078,0.025235,-0.018087,0.054833,-0.075333,0.015681,0.003473,-0.011494,0.057115,-0.082160,-0.011470,-0.037355,0.026974,-0.024711,-0.023039,-0.074833,-0.084665,-0.024021,-0.079924,-0.055316,-0.051595,0.065584,0.074697,0.002038,0.023733,0.066119,-0.065032,0.039217,0.051571,0.049563,0.013886,0.026367,-0.023564,0.037257,-0.067054,-0.015519,0.039899,-0.032344,-0.030501,0.005466,-0.062941,0.039726,-0.017789,-0.034209
-0.072157,-0.027883,0.070831,0.076665,0.092012,-0.003741,0.003930,-0.075030,0.075270,0.066829,0.112493,-0.048867,-0.072315,-0.040573,-0.030471,0.059676,0.033458,-0.086488,0.030586,-0.007524,-0.073287,-0.028058,-0.033873,-0.060344,0.062641,0.032417,-0.000179,-0.062991,-0.054436,0.079694,-0.057038,0.011719,0.090072,-0.023260,-0.020692,0.072921,0.044981,-0.046367,-0.003387,0.082583,-0.050646,0.065087,0.030147,0.033396,0.030166,0.006277,0.089517,0.007679,-0.105007,-0.032710,0.067492,0.029256,-0.035237,-0.059823,-0.005128,0.036310,-0.051191,0.006190,0.071778,0.008821,0.049585,-0.047081,0.038812,0.068737,0.120227,0.014699,-0.064569,-0.019634,-0.069694,0.047760,-0.041985,0.040035,-0.002914,-0.021141,0.094639,-0.073577,-0.094344,0.088664,-0.050655,-0.063292,-0.048414,0.059540,0.097500,0.042640,-0.012667,-0.107353,0.003297,-0.075964,-0.043037,0.058220,-0.033142,0.028028,0.022284,0.019281,-0.010048,0.055919,-0.014477,-0.047716,0.109722,0.007399,0.113353,0.058136,0.014606,-0.002188,-0.037968,-0.014323,-0.054570,-0.089011,-0.040086,-0.088090,-0.062950,0.019389,-0.110370,0.028866,-0.059060,0.089080,-0.014842,0.046601,0.010680,0.053632,0.004984,-0.049511,0.042825,-0.007507,-0.061989,-0.052991,0.080786,-0.089656
0.014526,0.016738,-0.075059,0.077470,0.073796,0.054019,0.077398,-0.057381,-0.004707,0.020779,-0.040132,0.052097,-0.080179,0.047512,-0.044387,0.019869,0.042380,-0.059550,-0.048563,-0.012638,0.010836,0.018238,-0.080306,0.026136,0.031337,0.015123,-0.056949,-0.076175,0.072437,-0.049999,0.001791,-0.068736,-0.017564,-0.000468,-0.059715,0.046459,-0.100202,-0.078595,-0.042985,0.010203,0.022678,0.041540,-0.043221,-0.053826,-0.050066,-0.005716,0.059405,0.017496,0.087782,0.058413,-0.020925,0.072508,0.050498,0.127054,-0.072087,-0.030210,0.040614,0.080730,-0.068778,0.070895,-0.011870,-0.000170,-0.049263,0.050977,-0.016736,0.073848,0.002485,0.021443,-0.104148,-0.012117,-0.014557,-0.076899,0.010110,-0.098607,-0.019217,0.091904,0.008015,0.005558,-0.067732,-0.042594,-0.078500,-0.063529,0.009345,-0.082181,0.014406,-0.006104,0.003954,-0.033431,0.060677,0.045119,-0.059789,0.061587,-0.146554,0.049731,-0.046587,0.011153,0.091702,-0.013094,-0.087051,0.009053,0.004117,-0.057188,-0.108418,0.030104,-0.023215,0.001117,0.075300,0.021958,-0.006515,-0.050312,0.030918,-0.043041,0.034701,0.063751,0.031329,-0.038781,0.090386,0.041140,0.037404,0.086546,0.045394,0.037218,-0.027024,-0.059526,0.033813,0.041657,-0.090348,-0.020193
0.013731,0.012304,0.047920,0.012087,-0.055243,0.076820,-0.015536,0.001838,0.067348,-0.084675,0.053146,0.086939,-0.054463,0.068396,0.017229,0.114324,0.012257,-0.015790,0.011522,0.052949,0.028611,-0.043614,0.031941,-0.058526,0.046336,0.021054,0.019098,-0.004023,0.052336,-0.074211,0.092084,0.021157,0.039900,-0.057428,-0.064394,0.095409,-0.071780,0.069647,-0.098101,-0.068829,0.120045,0.032695,0.001491,-0.012566,-0.077651,-0.035002,0.096998,0.034829,0.057258,-0.004135,-0.107906,-0.037082,0.029811,0.009066,0.073440,0.082280,0.045992,0.000658,0.028269,0.044247,0.100558,-0.078866,-0.021824,0.031856,-0.046636,0.053314,-0.053137,0.033334,0.004312,0.072207,-0.027275,-0.102081,0.030791,-0.041548,-0.022710,-0.019884,-0.047041,0.075212,-0.055256,0.020326,-0.042246,-0.070182,-0.086527,-0.062902,0.017263,0.081711,-0.011084,-0.017750,0.022520,0.001578,0.020811,0.053941,-0.117842,0.036903,-0.030832,0.015211,0.034648,0.005932,-0.000866,0.058459,0.007934,0.016554,-0.038279,-0.028236,0.048316,-0.044834,0.000821,0.065072,-0.049213,0.018454,0.000381,-0.022574,-0.009948,0.016083,-0.066696,0.039960,0.095448,-0.039984,-0.048780,0.080955,-0.029759,-0.045512,0.009965,-0.049741,-0.019619,0.069839,0.061014,-0.013363
-0.066417,-0.041091,0.099271,-0.046615,0.010081,-0.073214,-0.052799,-0.037298,0.008633,0.070256,-0.013713,-0.079808,-0.023788,0.076485,0.015894,-0.014753,0.036958,0.019911,0.093173,-0.033800,0.001497,0.031991,0.044043,-0.044378,0.042532,0.099854,0.058917,0.051249,-0.078899,-0.077783,-0.001148,0.090103,0.023787,-0.016448,-0.024639,-0.029185,-0.032564,0.001362,-0.046724,0.037883,0.016461,0.006576,0.078914,0.048576,0.074769,-0.024254,0.087112,-0.006913,0.063104,-0.031175,0.041458,-0.010200,0.062351,0.062119,0.078593,0.042646,-0.103864,-0.001843,-0.078362,-0.053603,-0.108343,0.031687,0.016784,-0.020739,0.037739,0.002904,-0.045212,0.063686,0.061178,0.022316,0.021904,-0.041312,0.028432,-0.009058,0.067901,0.036832,-0.079325,0.014943,0.062359,-0.066966,0.030790,-0.049226,-0.008044,0.033586,-0.015869,0.087253,-0.064876,0.087706,-0.010004,-0.018038,0.046837,-0.017661,0.015967,-0.075408,-0.015194,-0.004532,-0.011957,-0.070484,-0.070306,-0.033050,-0.028776,-0.061678,0.005811,0.095238,0.016651,-0.086454,0.077968,0.031126,0.112549,0.024796,-0.001434,-0.051717,-0.002125,0.032116,0.037193,-0.123573,-0.005821,-0.032126,-0.099269,-0.075101,0.006241,-0.043795,-0.020535,-0.091264,-0.004472,0.063489,-0.064341,0.014995
0.051343,-0.018745,0.059756,0.025152,0.008510,-0.042243,0.081482,0.045131,0.070444,-0.050644,-0.000683,-0.020522,0.096313,0.002538,0.049739,0.034460,-0.076287,0.016934,-0.045763,0.010564,-0.008461,-0.043888,-0.080299,0.019916,0.006370,-0.016895,0.051401,0.028591,0.050147,0.016332,0.097524,0.059429,0.033471,0.071294,-0.023271,0.058080,0.044899,0.065133,0.022506,0.014570,-0.044099,-0.082510,0.107437,0.051080,0.103314,0.026707,0.034162,0.009931,-0.026971,-0.032812,-0.045631,0.085024,-0.021944,0.005972,0.049439,0.044156,0.014063,0.059623,0.071274,-0.076698,-0.034748,-0.056919,0.105832,-0.048245,-0.044027,0.096093,0.012644,-0.012545,0.110342,0.038507,0.038869,0.051414,0.050883,0.002551,0.066945,0.006796,-0.069485,0.023372,0.073404,-0.018156,0.032293,0.001992,-0.099902,0.039118,-0.051207,0.007998,-0.064371,0.109646,-0.020581,-0.016641,-0.076314,-0.035321,0.046870,0.075264,-0.050734,-0.025142,0.062289,0.018076,0.030578,-0.080400,-0.050460,-0.043014,-0.069474,0.024724,0.069758,-0.000399,0.078204,0.078269,0.047373,0.058567,0.085110,0.001777,-0.091497,0.030407,0.045132,-0.025660,0.075565,-0.056618,-0.048554,-0.020473,0.134131,-0.040623,0.035010,0.097066,-0.026465,0.010736,-0.019082,0.037551
-0.030583,0.060216,0.057526,-0.010871,0.087928,-0.074531,-0.006662,0.030731,-0.016608,0.071396,0.075777,0.015284,0.072785,-0.067829,0.065521,0.015540,0.009917,0.075114,-0.013445,0.011471,-0.018752,0.024720,-0.046702,-0.058229,0.020641,-0.045555,0.046804,0.047691,0.020861,-0.058194,-0.020060,0.028339,-0.089344,0.068778,-0.111242,0.045696,-0.062199,0.113740,0.058636,-0.033795,-0.008007,-0.063253,-0.006903,-0.019622,0.052975,0.017021,-0.002708,-0.023793,-0.034266,-0.008640,0.031140,-0.039266,0.003402,0.069452,0.023340,-0.075275,0.058439,-0.055755,0.033355,0.003791,-0.040864,-0.039227,0.040925,-0.018296,-0.003366,0.057713,-0.088098,0.061736,0.070150,-0.071142,0.059286,-0.049132,0.063169,0.033536,-0.000179,-0.087821,0.003249,-0.045391,-0.023010,-0.073963,-0.025460,-0.024426,0.015634,-0.034906,-0.081549,0.098981,-0.002072,-0.043527,0.060849,0.055527,-0.042440,0.036379,0.061038,-0.017673,0.005709,-0.019376,-0.089759,0.073401,-0.057269,0.017525,0.096887,-0.056361,-0.064457,-0.013119,0.052594,-0.038867,0.021952,0.015093,-0.024925,0.047812,0.029603,-0.063957,-0.064015,0.065802,0.006441,-0.013279,-0.102612,0.022619,-0.080266,0.003176,0.034305,0.058201,-0.054663,-0.001314,-0.001833,0.000698,-0.055207,0.005993
0.044621,0.075565,0.054257,0.079911,0.031778,-0.071193,-0.002619,-0.019333,-0.095862,0.005042,0.075660,0.050445,-0.177043,0.080497,-0.050519,0.084306,-0.047063,-0.027151,0.034653,-0.044547,0.074254,-0.057765,0.063820,0.014288,-0.036690,-0.044841,0.079137,0.078516,0.072392,-0.067133,0.001713,0.067827,-0.057345,0.105986,-0.014913,0.100853,-0.021158,0.000562,-0.031895,-0.062963,-0.025332,-0.101095,0.042221,0.035295,0.073789,0.030984,0.064301,0.053762,-0.008346,-0.004023,-0.059734,-0.016851,0.081887,0.105791,0.084973,0.033371,0.086527,0.003086,0.094346,0.107266,0.045079,-0.087568,0.078480,-0.075264,-0.016402,-0.019351,0.019869,-0.016570,-0.021204,0.040812,0.009987,-0.006268,0.008871,0.008533,0.033205,0.006312,-0.010566,0.011578,0.043082,0.018091,-0.037763,0.043527,0.039084,-0.018244,0.093345,-0.014157,0.064403,0.086851,-0.051531,0.038967,-0.061484,0.030553,-0.007423,0.011717,-0.094588,0.102571,-0.074068,0.042669,-0.051547,0.011314,-0.067037,0.051432,0.053484,-0.037513,-0.019699,0.034456,-0.028521,0.115434,-0.011065,-0.055982,0.063370,0.037361,0.021018,0.067261,-0.100722,0.026776,-0.061216,-0.035737,-0.080890,0.050753,0.019665,0.049123,-0.077824,-0.080169,0.034074,-0.064946,0.038876,-0.064061
-0.058823,-0.001817,-0.023036,-0.046507,-0.064452,0.090876,-0.058665,0.025537,-0.018205,0.009662,0.032488,-0.000409,-0.066582,0.070707,0.033684,-0.030910,-0.013247,0.017308,0.092591,0.012169,0.009223,-0.034309,-0.041569,0.060375,-0.066801,0.031743,0.077748,-0.003295,0.031930,-0.075109,-0.107471,0.022903,0.000675,0.062380,0.057748,-0.073603,-0.023552,0.079012,0.010849,0.014160,0.013502,-0.079156,0.063127,0.051828,0.019327,-0.024728,0.093458,-0.008181,-0.073365,0.060619,-0.030621,-0.026836,-0.046554,0.040976,0.067150,-0.035847,-0.067942,-0.022002,0.001392,0.022428,-0.041673,-0.083148,-0.040522,0.062885,-0.081415,0.061681,0.017771,-0.083074,0.001473,0.038058,0.090130,0.077917,-0.102486,-0.091580,-0.049903,0.059248,0.034805,-0.069967,0.069689,0.042219,-0.061786,-0.028273,-0.018042,0.057912,0.041042,-0.065346,-0.008821,0.035573,-0.030586,0.069745,0.062097,0.020633,-0.029094,-0.032085,0.032384,0.056584,0.001578,0.056038,-0.031905,-0.020444,-0.008648,-0.000477,0.016185,0.087920,0.014887,0.076442,0.086830,-0.001192,0.081614,0.063825,-0.038950,0.074554,-0.002423,0.094976,0.094611,0.085571,0.078526,0.018713,0.031760,-0.039551,0.108877,0.037389,-0.088276,-0.011424,-0.012203,0.067504,-0.045426,0.009026
0.012937,-0.069319,0.029505,0.093121,-0.054210,-0.062467,-0.044052,0.009565,0.076148,-0.034525,-0.004813,-0.047205,0.111245,0.017015,-0.061560,0.040509,0.039530,0.005217,-0.086977,0.072779,-0.062088,-0.012444,-0.005609,-0.029236,0.049493,-0.065797,0.005272,-0.014825,0.010092,-0.043654,-0.016470,0.093045,-0.047705,0.094136,0.067653,-0.095912,0.043501,-0.018715,0.072460,0.042028,-0.022434,-0.005817,0.021784,-0.009705,0.051020,-0.055200,-0.051124,-0.026746,0.049300,-0.081251,-0.054642,-0.094836,-0.119367,0.001351,-0.030059,0.015906,0.006745,-0.053507,0.041101,0.037865,0.049485,0.029195,0.008993,-0.003047,-0.099551,0.062949,-0.063178,0.062261,-0.041219,-0.023533,0.069593,-0.021910,-0.059213,0.089832,-0.043744,0.092330,-0.007327,0.003328,0.060359,-0.050235,0.066964,0.006423,-0.047733,-0.078844,0.041395,-0.068763,0.046265,0.015378,0.033854,0.083517,-0.066725,-0.105711,0.001527,-0.056323,-0.007915,0.034520,0.045601,-0.029091,0.010775,0.033650,-0.089313,0.016564,-0.102946,-0.008560,0.020048,-0.038277,0.020680,0.018794,-0.010859,0.026929,0.000122,-0.081124,0.062785,0.025866,0.065685,0.085816,0.013995,0.047263,0.032396,0.045760,0.044836,-0.013399,-0.094596,0.024765,0.109858,0.000099,-0.011803,-0.006284
-0.030863,0.026284,0.023295,-0.068294,-0.009133,0.070739,0.003988,0.025746,0.057195,0.007844,-0.015578,-0.072150,-0.038625,0.034834,-0.004197,0.018220,0.071440,0.050696,0.018331,-0.017843,0.009406,-0.057683,-0.011295,0.078350,0.052824,0.034220,-0.029318,-0.005844,0.055717,-0.030489,0.105455,-0.020219,0.029318,-0.039308,-0.011442,-0.011898,0.077288,0.076130,0.051963,0.005112,-0.026628,-0.015776,-0.047700,0.048171,0.037003,-0.001172,0.006344,0.083873,0.071611,0.035292,0.018917,-0.047708,0.057036,-0.009055,-0.010901,0.020237,-0.015264,-0.085947,0.059746,-0.069319,-0.090068,-0.090005,0.023809,-0.021113,-0.045583,-0.034664,0.035204,0.021397,-0.027560,-0.039839,-0.048344,-0.040200,0.068448,0.033081,0.099863,0.017251,0.001398,0.010030,0.027943,-0.065046,0.030272,-0.072653,-0.006924,-0.026026,-0.056948,-0.096034,0.011104,-0.037625,-0.047126,-0.050446,-0.040149,0.019985,-0.036206,-0.025827,0.033545,0.075427,0.049251,-0.040469,-0.057220,0.028948,-0.004203,0.011652,0.019734,-0.054103,-0.004769,0.053706,0.044260,0.075680,0.055744,-0.050996,-0.055488,-0.002185,-0.001709,0.033279,-0.006940,0.039000,0.067563,-0.004808,0.082196,-0.058944,0.089429,0.098514,0.076845,0.043748,0.074980,-0.036350,-0.034794,-0.047771
-0.010190,0.079480,0.021216,-0.056450,0.065358,-0.019596,-0.068405,-0.030221,0.047816,0.027145,-0.063435,0.028463,0.038402,0.034391,-0.056190,0.007691,-0.060124,0.037536,-0.020930,0.091193,0.049060,-0.054694,-0.006678,0.025444,-0.041411,0.001185,-0.006356,0.038494,0.009122,0.009663,-0.000687,0.096541,0.055738,-0.021078,0.068359,-0.048187,-0.032824,-0.049371,0.054074,-0.026782,0.018092,-0.111001,0.036571,0.005024,0.086362,0.087567,-0.043189,0.044420,-0.057057,0.024005,-0.012974,0.016095,-0.010065,0.046484,-0.026432,-0.040668,0.045090,0.068742,0.058295,-0.057886,-0.025086,-0.085403,-0.029345,0.002177,0.019407,0.044321,-0.035035,-0.024719,-0.060637,0.024453,-0.041641,0.045151,0.035105,-0.016124,-0.031774,0.078888,-0.064965,0.029459,0.087511,0.107958,0.075325,0.119397,0.040781,0.056087,-0.068925,-0.037167,-0.017979,0.048766,-0.004739,0.048877,-0.039391,0.068791,-0.062434,0.044711,-0.019800,0.101542,-0.127899,0.028624,0.002233,-0.018237,-0.077007,-0.054572,-0.022795,0.038194,-0.010144,0.014986,0.039603,-0.017074,0.031945,0.019756,0.089543,0.095961,-0.049805,0.061069,0.078477,0.082141,-0.091152,-0.064255,0.038527,-0.034319,-0.002838,-0.045295,0.027934,-0.007364,0.080761,-0.028953,-0.002735,-0.027470
0.012823,0.110679,0.049251,0.032363,0.002907,-0.024666,-0.067657,-0.033440,0.002643,0.019466,-0.005142,0.003192,-0.090288,0.018290,0.022589,-0.015416,-0.093928,-0.067389,0.024154,0.107619,-0.011440,-0.061667,0.038299,-0.050169,0.013191,0.067251,-0.012950,0.099856,0.006880,0.025839,0.022580,0.034889,0.055172,-0.127355,0.039364,0.023205,0.078558,-0.002018,-0.051915,0.002020,-0.023500,0.014924,-0.087009,-0.029058,-0.079561,0.002542,0.047124,0.016142,-0.046017,0.001259,0.021231,-0.029691,-0.077794,-0.058216,-0.021442,-0.083584,-0.019852,0.059594,-0.046239,-0.085893,-0.080565,-0.005226,0.033553,0.000669,-0.089015,0.058797,-0.032728,-0.058271,-0.014962,0.016087,0.019882,-0.076652,-0.019574,0.066488,-0.054873,-0.081510,-0.029205,-0.061192,-0.001068,-0.068588,-0.062392,0.016693,-0.034607,-0.016387,-0.035122,-0.024249,0.125202,0.044618,0.078694,0.065253,0.048981,0.027288,0.045257,-0.078305,-0.009510,0.069446,0.008650,-0.056383,-0.068330,-0.106179,0.043369,0.020995,-0.057150,0.018764,-0.025897,0.050110,0.011740,-0.085388,-0.005116,0.016533,0.009334,0.042382,0.032321,0.073284,-0.074866,-0.038373,0.064852,0.080317,0.050846,-0.025209,0.071580,0.002125,0.036797,-0.039749,-0.047046,0.015659,0.070238,0.016075
0.015877,0.075466,-0.035975,0.077615,0.029332,-0.093220,-0.076464,0.068005,-0.015349,0.081097,0.019810,-0.109871,-0.001629,-0.005129,0.065419,0.064530,-0.037615,0.011833,-0.036696,0.058846,0.041599,-0.019707,-0.053342,0.036054,-0.035033,-0.010873,-0.032438,-0.020286,0.019653,0.029541,0.012463,0.054711,0.064493,-0.070360,-0.059532,-0.006111,0.014134,-0.020047,-0.026600,-0.091386,0.050403,0.037347,-0.032888,-0.038583,-0.028535,-0.040506,0.029956,0.088996,0.050829,0.056654,0.070186,-0.073045,0.016316,0.035947,0.069682,-0.083319,0.001168,0.055717,-0.004241,0.088888,0.011226,-0.054195,0.076085,-0.029803,0.000877,0.088179,0.052764,-0.029524,0.082262,-0.056028,0.011173,0.027933,-0.037470,0.009827,-0.035944,0.049836,-0.027347,-0.001074,0.054120,0.067979,0.044498,0.112620,-0.057375,-0.067871,-0.004903,-0.087951,-0.014710,0.034256,-0.014660,-0.070076,0.045305,-0.069054,0.018743,-0.025048,-0.062160,0.015360,-0.058626,-0.065171,0.033739,0.019111,-0.026777,-0.014301,-0.010077,-0.014946,-0.040190,0.052479,-0.080844,-0.091043,0.058191,-0.077872,0.103439,-0.024943,-0.004400,0.076590,0.059748,-0.064558,-0.042904,0.097762,0.034483,-0.038807,-0.065698,0.014366,-0.053284,-0.020610,-0.022599,-0.045528,-0.049016,-0.008540
0.060521,-0.000133,-0.058916,0.079817,-0.026298,-0.007798,0.065481,-0.085341,0.008726,-0.035231,-0.011224,-0.005898,-0.114719,0.023230,-0.049125,0.033358,-0.040669,-0.020405,0.049100,0.022772,0.060353,-0.076995,0.060153,0.046919,0.006195,0.012679,0.090654,0.026467,-0.008097,-0.041316,0.006991,0.056408,-0.011320,-0.072395,-0.020687,-0.078294,-0.044248,-0.027173,-0.108203,-0.044218,0.028218,-0.075478,0.046651,0.036152,0.054393,0.113178,0.007829,0.020204,0.037435,0.011314,0.033456,-0.108582,0.041019,0.027311,-0.027906,-0.033314,0.055463,0.058005,0.070680,0.058397,0.046122,-0.055938,-0.005504,0.055016,0.049112,-0.011406,-0.062190,-0.021298,-0.014794,-0.127580,0.068168,0.009666,0.040169,0.065587,-0.105829,-0.076327,-0.029070,0.001284,0.056567,-0.066140,-0.031206,-0.008081,0.005393,-0.054730,-0.098555,-0.042515,-0.036989,0.031100,0.079764,-0.103031,-0.044617,-0.034250,0.029430,-0.034660,0.065800,0.073399,0.000078,0.116719,-0.079994,-0.002274,0.019534,0.007399,-0.082305,0.043136,0.104052,-0.019779,-0.102502,-0.032161,0.043470,0.038026,-0.015034,0.011576,-0.019116,-0.019963,0.120043,-0.077413,0.000711,-0.015741,-0.007883,-0.049350,0.004040,0.031715,-0.037203,0.045187,0.025105,-0.073500,0.086264,-0.094223
-0.033177,-0.059535,0.009969,0.050002,-0.071804,-0.087583,0.004439,-0.021664,-0.021485,-0.042399,0.027610,0.051029,0.032658,0.099294,0.017734,0.041055,-0.099484,-0.049762,0.008507,0.036090,-0.026046,0.052009,-0.023338,-0.020751,-0.077008,0.022769,0.085230,0.039769,0.046696,-0.067447,-0.023201,0.073946,-0.075973,-0.010897,-0.043333,0.091201,0.035779,0.022473,-0.007933,0.023078,-0.022539,-0.067317,0.008866,0.002649,0.033313,-0.057248,-0.097737,0.062127,0.101244,-0.019601,0.065348,0.028343,0.085859,-0.059055,0.006090,-0.079275,0.039443,0.022761,0.035727,0.064557,-0.075698,-0.036569,0.052031,0.085411,-0.158602,-0.061251,-0.064662,0.009463,0.032750,-0.103766,0.066117,0.030733,0.040199,0.042764,0.059704,0.006575,-0.015901,-0.009015,-0.035762,0.077733,-0.094646,0.064738,0.043432,0.080692,-0.024692,0.098299,-0.014291,-0.007851,-0.036622,-0.039633,-0.025989,0.069071,0.104491,0.039957,-0.021327,0.010380,0.074164,0.078012,0.082653,-0.018397,-0.080294,0.062750,-0.092453,-0.060311,0.050329,-0.029828,0.012215,0.024336,0.061034,0.074925,0.084564,-0.039439,0.040124,-0.050476,-0.039796,-0.085607,-0.008387,0.063438,-0.095179,-0.115201,0.031737,-0.025178,-0.053915,0.097615,0.005095,-0.040136,0.067663,-0.086597
0.047524,0.059041,0.023901,0.027341,-0.058784,-0.076279,0.049728,0.090316,-0.027350,-0.033752,0.048795,-0.081613,0.098260,-0.056869,0.054359,0.007508,0.028033,0.001747,-0.077533,0.058507,0.004972,-0.001822,0.048642,0.010372,0.015756,-0.016599,0.022084,0.080797,-0.039122,0.011368,0.053535,0.070016,0.035522,0.044220,0.030151,-0.072517,-0.049931,0.061990,0.090813,0.023088,-0.034198,-0.062442,-0.043385,-0.029324,0.025298,0.014917,-0.015745,-0.016905,-0.062596,0.010371,-0.100399,-0.053459,0.011260,-0.105689,0.022260,-0.082343,-0.044477,0.051693,-0.018377,-0.056852,-0.094335,0.017834,0.083766,-0.039725,-0.086518,0.014327,0.010556,-0.046632,-0.050236,-0.041774,0.021672,-0.007201,-0.002491,0.031815,-0.047783,-0.003985,0.045148,0.056558,0.061300,0.012755,-0.063343,-0.020439,-0.003224,-0.025447,0.038089,0.008994,0.045691,-0.053514,-0.040216,0.074488,0.044079,-0.017136,-0.048385,-0.083902,0.064995,-0.015419,-0.006845,-0.010265,0.001535,-0.038173,-0.008021,-0.011268,0.044871,0.037698,0.061329,-0.026279,-0.031764,-0.025762,0.011510,-0.006496,0.062436,0.003798,-0.012563,-0.018823,0.085369,-0.048707,-0.012521,-0.007328,-0.013631,-0.013105,-0.053514,-0.022502,0.046192,0.035960,-0.020190,-0.031812,0.041256,-0.069999
-0.014295,0.069227,-0.043941,-0.010888,0.026513,-0.049378,0.024656,-0.067028,0.012212,0.039403,0.061432,0.036572,-0.084463,0.034069,-0.013679,-0.006364,0.071565,-0.033951,-0.034097,0.048329,-0.004140,-0.054824,-0.089452,0.091848,0.055130,-0.039730,0.012923,0.022648,0.029918,0.001196,0.034387,-0.015094,-0.062310,0.061429,-0.035568,-0.081487,-0.018105,-0.005481,0.039052,0.055530,0.055695,0.064854,-0.023269,0.053977,0.025144,-0.029095,-0.012706,0.093335,-0.009210,-0.068685,0.030896,0.001730,-0.097996,0.001537,-0.028495,-0.086086,0.056391,0.080181,-0.076988,-0.049920,0.034095,0.045492,-0.070203,0.068767,-0.062466,0.044328,0.010144,0.038666,-0.000001,-0.046282,0.070326,-0.036837,0.065714,0.015889,-0.052089,-0.067239,0.073963,-0.049624,-0.019014,-0.037799,-0.016758,0.035906,-0.039428,0.039646,-0.155045,0.072474,-0.025309,0.008376,-0.010973,-0.024510,-0.046241,0.005753,0.080240,-0.030316,0.047308,0.035317,-0.064241,-0.003160,0.015693,0.024086,0.085015,-0.013776,-0.039860,-0.034101,0.076113,-0.027519,-0.078735,-0.001761,-0.044233,0.044961,-0.030824,-0.059247,-0.044563,0.037701,0.015611,-0.029040,-0.068874,0.023317,0.092205,0.048387,0.020403,0.047108,-0.023753,0.014171,0.042053,0.084444,-0.030267,0.044634
0.042542,0.033797,-0.027697,0.006088,0.019019,0.011912,-0.079938,0.073379,0.053285,-0.040610,0.001368,0.033775,0.034914,-0.036340,0.059219,-0.038867,-0.001322,-0.070688,-0.038117,0.035467,0.066967,0.031256,0.029334,0.003107,0.065152,0.017624,-0.034970,-0.060273,-0.020243,0.033826,0.140815,-0.022108,0.010290,0.095242,0.017350,0.034109,-0.022627,-0.099779,0.110715,-0.058159,0.055027,-0.050143,-0.028147,0.001182,-0.019846,-0.009751,0.045565,0.014413,-0.053328,0.013172,-0.008917,0.063170,-0.015688,-0.051919,-0.006540,-0.036677,-0.025372,-0.080548,-0.061058,-0.015329,-0.054787,-0.002594,0.047445,-0.028943,0.016770,0.039439,-0.034698,0.067167,-0.003413,-0.072462,0.042479,-0.029181,-0.030328,-0.037116,-0.109906,-0.010347,-0.012373,-0.034518,-0.035274,0.051404,0.071001,0.095295,-0.039181,-0.034323,0.010515,-0.089102,0.027555,0.028598,-0.038696,-0.031886,-0.051387,0.067142,-0.012823,-0.021223,-0.032194,0.057058,0.058623,-0.030904,-0.095081,-0.017506,-0.004896,0.058515,-0.109468,-0.073727,0.002955,0.015999,0.034976,0.010879,0.008084,-0.030878,0.000690,-0.033697,-0.033699,0.028670,0.006798,-0.045018,-0.012854,-0.025828,0.011494,-0.033381,0.037977,0.010306,-0.034477,-0.008259,-0.006298,0.052433,-0.035308,0.056916
0.042776,0.036774,0.080472,0.011339,0.009557,-0.058933,0.032324,-0.078474,0.065266,0.008983,0.039393,-0.071968,0.031659,0.005532,0.007685,0.008622,-0.008519,-0.033340,0.014376,0.001035,-0.014704,-0.053629,-0.015621,0.018292,0.072575,0.087131,0.004287,-0.061411,-0.075244,0.047613,-0.023779,0.026143,0.013653,-0.059188,0.028934,0.059072,0.013956,0.035577,0.006921,-0.010210,0.042701,0.036162,0.070235,0.019933,0.017315,-0.065261,-0.082299,0.018064,-0.054974,0.024914,-0.047376,0.022597,0.061817,-0.035635,-0.042480,0.014589,0.049494,0.025187,-0.034623,0.051430,0.020750,0.023380,0.104978,0.087038,0.011243,0.040416,0.027334,0.006651,-0.038946,-0.015530,-0.019321,0.012628,0.026095,-0.077131,0.034024,-0.023953,-0.091441,0.051771,0.005881,0.016981,0.010441,0.012951,0.031296,0.045014,0.058373,-0.091446,-0.073198,-0.058168,0.046625,0.038110,0.033786,-0.002092,0.026790,-0.080950,0.004902,-0.029803,0.052470,-0.064414,0.074695,-0.096315,-0.081318,0.009023,0.056832,-0.034081,0.010286,0.106292,-0.021983,0.031056,-0.049877,-0.062883,-0.081474,0.007854,-0.041222,0.060675,0.002038,0.008242,0.074124,0.042191,-0.088972,-0.046603,0.040593,-0.010076,-0.023211,-0.022484,0.014410,0.018126,-0.064314,-0.063217
0.014046,0.019335,0.061117,0.091058,-0.062145,0.002043,-0.040610,-0.011397,-0.033218,0.020579,-0.034095,0.015031,0.052829,0.017376,0.089618,0.050923,-0.027885,0.014664,-0.081266,0.064507,-0.058831,0.087508,0.038176,0.062063,0.055386,-0.039258,0.078478,0.063706,0.009310,-0.036526,-0.004362,-0.032427,0.036079,-0.084938,-0.075639,-0.059422,-0.053926,-0.006961,0.022415,-0.005052,0.006878,-0.071313,0.073507,0.043302,0.011951,0.056449,0.063982,0.031396,-0.066234,0.083705,0.084535,0.085057,0.021268,-0.062906,-0.052522,0.019932,0.119809,0.024791,-0.015189,0.067630,0.002237,-0.069796,0.148524,0.028431,0.050904,-0.004304,0.079849,-0.017588,0.079116,0.026971,0.042672,0.062857,0.083787,0.054389,0.066676,0.008976,0.040120,0.085336,-0.056713,-0.050128,0.006889,0.017462,0.029105,0.031691,-0.025636,-0.040416,-0.059444,0.022102,-0.003016,0.011255,-0.001570,0.034229,0.092528,-0.071639,-0.017572,-0.063404,0.012844,0.054133,-0.019277,-0.034477,-0.079942,-0.095913,-0.045925,0.076572,0.018708,-0.021210,0.096828,0.017085,-0.108589,0.005256,-0.040898,0.045301,0.075912,-0.116349,-0.059550,-0.028337,0.030253,-0.087974,-0.029212,-0.076465,0.120017,0.033699,0.070731,-0.089844,0.028813,0.085700,-0.047858,-0.110144
0.000472,-0.081108,0.069858,0.052129,0.011123,-0.022175,-0.029559,0.085347,-0.049188,0.047491,0.025202,-0.016219,-0.035367,-0.061079,0.068694,0.047563,0.007225,0.040766,0.039923,-0.037533,0.002253,-0.048297,-0.000849,-0.015511,-0.009502,0.034668,0.070737,0.039524,-0.066867,-0.044331,-0.049700,0.081230,0.091043,-0.039373,-0.052037,-0.021104,-0.006884,0.010569,-0.006950,0.044925,0.079149,-0.063970,0.119083,-0.072616,0.044849,0.061149,0.027338,0.077661,-0.050040,0.000894,-0.064150,0.012834,-0.028737,-0.042041,-0.076896,-0.058741,-0.020497,-0.093734,-0.018032,-0.085886,-0.033008,0.000315,0.058235,0.044013,-0.022418,0.035333,-0.069189,0.035897,0.070852,0.005766,0.020842,0.097324,-0.070901,0.063704,-0.044303,0.093759,-0.026945,0.010025,0.031266,-0.035652,0.002622,0.002239,0.058030,-0.050089,0.040310,0.051632,-0.027579,0.073052,-0.011935,0.053919,0.003751,-0.008721,-0.039727,0.055461,0.091108,-0.059574,-0.077202,0.079955,0.013491,0.051545,0.065634,0.001616,0.027974,0.078867,0.012182,0.053836,-0.082513,-0.054777,0.034758,-0.004143,-0.056956,0.002337,-0.088175,0.003220,-0.042925,0.077740,0.020027,0.059584,0.066512,0.024703,0.019627,0.023842,0.029565,-0.067113,-0.085984,0.078317,-0.012006,-0.050349
0.026617,-0.090360,0.042605,0.086571,0.035270,-0.025778,0.044065,0.044472,0.013921,-0.044857,0.045524,-0.005809,-0.086518,-0.101718,0.060784,0.039994,-0.008597,-0.052127,0.066817,0.052431,-0.049140,-0.032366,-0.046863,-0.024154,0.089307,0.095367,0.068728,0.093836,0.026860,-0.011060,0.097580,-0.077915,-0.077085,-0.007382,0.033282,-0.027856,-0.033459,0.083583,-0.004538,-0.049057,-0.035844,0.014243,0.060092,0.007316,-0.085399,0.096206,-0.019937,-0.079635,0.092211,-0.001567,-0.024340,-0.146461,-0.072356,-0.076947,0.092059,0.006698,0.017676,0.081731,-0.078372,0.086446,0.052931,0.068332,0.099431,0.034386,-0.100497,-0.019171,0.080799,0.122808,-0.049754,0.036444,0.097801,-0.027778,0.035149,-0.014778,0.030756,0.057114,0.083594,0.040176,-0.082625,-0.082866,-0.051870,0.037504,0.074015,-0.087563,-0.095570,-0.024810,0.105690,-0.006298,-0.068132,-0.025136,-0.061238,-0.047600,0.043926,-0.072185,0.027310,-0.091001,-0.094682,0.074035,-0.039668,0.004064,0.081355,-0.091732,-0.042428,-0.020782,0.009812,0.060259,0.064636,0.071999,-0.014422,-0.031317,-0.039682,0.052676,0.057715,0.071759,0.009096,0.012247,0.030249,0.050828,0.046102,0.085260,0.041247,0.012338,-0.108958,-0.095979,-0.039223,-0.017439,-0.054104,0.084206
-0.053867,0.026310,-0.000126,0.109374,-0.044638,-0.004933,-0.058907,0.037344,0.080654,-0.104500,-0.001974,-0.045886,-0.088903,-0.096197,-0.001417,-0.086987,-0.076209,0.054549,0.028237,-0.039360,-0.043205,0.039524,0.010066,-0.022289,-0.036982,0.076530,0.059993,-0.085159,-0.034113,-0.068888,0.099210,0.054652,0.024583,-0.009327,0.039796,-0.057593,0.073197,0.075700,0.035685,0.025229,-0.035547,0.055553,0.034863,0.060051,-0.066544,-0.019316,0.006665,-0.001378,-0.072249,-0.015663,0.000565,-0.012693,-0.063826,-0.015053,0.099663,-0.020242,0.018639,-0.008629,-0.031368,-0.015758,-0.026786,-0.061783,0.039171,0.074429,-0.035481,0.074696,-0.073597,-0.052983,-0.073162,0.039674,0.053998,0.040940,-0.017717,0.073522,-0.014291,-0.089576,-0.040689,0.076088,-0.074726,0.076332,-0.129497,0.009224,-0.028468,-0.048596,0.091271,0.016124,0.052260,-0.020512,0.041201,0.061100,0.001829,0.032805,0.062741,-0.098541,0.069072,-0.076380,-0.022404,-0.027602,0.009930,-0.133352,-0.020490,-0.060440,-0.091850,0.057262,-0.007335,0.034871,-0.019951,0.047245,-0.095195,0.036189,-0.075497,-0.009776,0.069852,0.022806,0.014592,-0.107035,0.054246,-0.079841,0.006528,0.041831,0.135534,-0.096959,-0.040705,-0.088822,0.043697,-0.050518,0.043856,-0.017059
0.081258,-0.105563,-0.075019,0.045640,-0.071302,-0.069036,-0.017287,-0.061581,0.076524,0.065716,0.045375,-0.060190,-0.092445,-0.048013,0.069447,0.037446,-0.039589,-0.052593,0.081557,-0.037147,0.036516,0.057616,0.062511,0.004631,-0.051305,-0.002597,0.039059,-0.063026,-0.034752,0.019407,0.029627,0.033232,0.088828,-0.042231,-0.074341,-0.042844,0.094734,0.042641,-0.005891,0.051788,-0.027180,0.081069,0.101027,-0.041557,-0.027635,0.080561,0.066384,-0.099840,-0.047954,0.049995,0.131211,0.085460,-0.005943,0.009831,0.040510,0.031106,-0.025143,0.086751,-0.033889,0.020966,0.071703,0.016625,-0.038144,0.034402,-0.056494,0.001186,-0.030210,0.021787,-0.022936,0.017265,-0.049347,0.027076,-0.050327,0.079347,0.032771,-0.067537,-0.012165,0.047157,-0.023518,0.035268,0.024771,-0.083220,-0.012291,-0.002440,0.105229,-0.041593,-0.042659,0.012529,-0.049280,0.054390,0.002006,-0.017586,0.110950,0.016312,0.064306,-0.073502,0.001311,-0.083565,-0.076845,-0.017682,0.053414,0.029628,0.019048,-0.028652,-0.045351,-0.077820,0.071136,-0.035422,0.038811,0.046416,0.000950,-0.013198,0.035574,-0.029778,0.020226,-0.043873,0.103028,-0.023667,0.075811,-0.013282,-0.087642,-0.070344,-0.032979,-0.053698,0.059001,-0.069871,0.056980,0.031198
-0.100345,0.044599,0.073139,-0.030601,0.066214,-0.030659,-0.007138,-0.024322,0.054417,0.069233,0.024785,-0.058995,0.018336,0.076737,0.032667,-0.000127,0.013302,0.000739,0.060983,0.001763,0.019727,0.044599,0.044645,-0.052572,-0.038476,0.074601,-0.060123,-0.020761,0.013326,0.006341,0.021644,0.012144,-0.010527,-0.045964,0.091980,0.018076,0.060312,-0.077903,-0.088355,0.020758,-0.038570,-0.072322,0.017486,-0.049053,-0.031340,-0.084738,-0.000150,0.031770,-0.042151,-0.040680,-0.013090,0.047936,0.031480,0.099082,-0.007134,0.003916,0.030560,0.057861,-0.082751,-0.037652,-0.063935,-0.065941,-0.039623,0.046005,0.054113,-0.060492,-0.077392,0.056073,-0.049035,0.038745,0.005333,-0.069206,-0.062022,0.060201,-0.041993,-0.073454,0.047148,0.029413,-0.045757,-0.026295,-0.085133,0.081522,0.044026,-0.082177,-0.047945,-0.006682,0.074696,-0.112562,0.026274,-0.043625,0.006846,0.025476,-0.051748,0.045410,0.013297,0.093281,-0.068710,-0.021320,-0.034696,-0.001211,-0.068908,-0.077370,0.032081,-0.011742,-0.024919,0.019575,-0.005524,-0.039586,-0.018116,-0.024810,-0.001928,-0.014321,0.013747,0.032041,0.079585,0.032448,-0.078763,0.040877,-0.054810,0.068668,-0.052150,0.000219,-0.161436,0.065926,0.097637,0.019061,-0.055893,0.003365
-0.053021,0.034593,0.026279,0.001552,-0.008842,-0.027190,0.028403,0.061846,0.033816,-0.039110,0.059506,0.012323,-0.013458,0.136380,0.037254,0.095216,0.039791,-0.072965,0.014006,-0.018355,0.023831,-0.064560,0.001255,0.087914,-0.018924,0.081981,0.100315,-0.038484,0.086755,0.064402,-0.074896,-0.052957,-0.054911,0.054821,0.041409,-0.076071,-0.019332,0.028666,0.010309,-0.048659,0.064734,-0.085291,0.035811,-0.035759,-0.048471,0.059361,0.085942,-0.018657,-0.072112,-0.049831,0.062236,0.017628,0.005021,0.084830,0.023583,-0.068312,-0.033504,0.006561,0.015141,-0.063946,0.111071,-0.011275,0.048054,-0.020234,0.040454,-0.034247,-0.026231,-0.028252,0.074064,0.038877,0.002546,-0.033389,-0.014652,0.080841,0.016327,0.062855,-0.092252,0.050050,0.062479,0.019806,0.094739,-0.036402,-0.049295,0.026952,-0.061792,0.003022,0.037281,-0.013460,0.038807,-0.034032,-0.054945,-0.045809,0.009125,-0.087603,0.075545,-0.037138,0.085780,0.048729,0.058775,0.029939,0.026966,0.049991,0.058512,-0.003081,0.019818,-0.072565,0.009584,0.003382,-0.001626,-0.005402,0.023941,-0.046492,-0.112756,0.038180,0.034038,-0.003478,-0.092997,-0.079883,0.047494,-0.033309,0.071193,-0.077240,-0.020550,-0.034190,-0.006326,-0.020792,-0.034975,0.017853
-0.098825,0.084380,0.000409,0.059891,-0.001523,-0.049327,0.048761,-0.079336,0.041557,-0.068563,-0.117226,-0.036774,-0.052630,0.040650,-0.033731,0.015367,0.062638,0.012372,0.070920,0.007416,0.036472,0.056541,-0.047862,-0.019212,-0.073795,0.055206,-0.038704,0.019148,0.130222,0.077291,0.055881,0.003900,-0.073817,-0.080318,-0.017628,-0.059688,-0.081243,0.017241,-0.076805,0.032603,-0.000675,0.065452,-0.111909,0.006641,-0.002419,-0.048206,-0.005257,0.087825,0.032973,0.059470,0.077731,0.047319,0.093673,0.020527,0.025483,-0.039536,0.053699,0.013046,-0.040179,-0.049761,0.051893,0.037891,-0.012073,0.107304,-0.028541,0.026678,-0.038465,0.039378,-0.078915,-0.027048,0.013756,0.016182,0.072905,0.038826,-0.015691,0.084262,0.014489,0.022806,0.017741,0.063729,-0.071852,0.045359,-0.018058,-0.042338,-0.017821,-0.014087,0.005869,-0.050233,-0.043047,0.025206,0.039391,-0.039176,0.010457,-0.073044,0.065381,-0.016248,0.048711,0.092760,-0.036261,0.041898,0.078754,0.046375,-0.032481,-0.050211,0.053667,-0.098860,0.031537,-0.064718,-0.053521,-0.014376,0.027033,-0.069244,0.049382,0.083012,-0.034767,0.058419,0.026438,0.074247,-0.044844,0.033422,0.126809,-0.043035,0.021096,0.062870,0.077693,0.012960,0.028521,0.082678
0.045269,0.098558,0.049062,-0.070126,0.098883,0.001994,0.012392,0.000548,0.050435,0.018627,0.022882,0.017321,-0.035783,-0.061529,0.006877,-0.087837,0.034508,-0.063451,0.085744,0.108546,0.101623,0.019446,0.018428,0.033267,0.007490,-0.045124,-0.068513,-0.010228,0.022261,-0.014085,0.026221,0.075339,-0.079957,-0.054486,0.046987,0.015028,0.042715,-0.018851,-0.084375,0.029463,-0.002907,-0.014271,-0.034640,-0.019528,0.006526,-0.053254,-0.058037,-0.038864,-0.062528,-0.007957,0.084251,0.002307,-0.021901,0.024608,0.036402,0.003211,0.112526,-0.050488,0.035122,-0.002645,-0.047474,0.013684,-0.071484,0.054767,0.086135,0.089518,0.053654,-0.050659,-0.052290,0.040885,0.024853,-0.038151,0.045750,-0.008863,-0.062391,-0.057471,0.052910,-0.001130,0.072863,0.016161,-0.040949,0.070328,-0.070306,-0.058253,-0.016618,-0.028635,-0.018514,0.084792,0.086755,-0.096740,0.026898,-0.030346,0.013767,-0.088403,0.011588,0.122875,-0.013898,0.038009,-0.079229,-0.042310,-0.058464,0.097933,0.081774,-0.034260,-0.064145,0.001062,0.062035,-0.003836,0.023139,-0.053245,-0.029275,-0.042136,0.019583,-0.043552,0.044256,-0.010704,0.034005,-0.013529,0.053315,0.033321,-0.030738,0.001201,-0.005696,0.012100,0.055830,0.086692,0.044260,0.040014
-0.030758,-0.000221,0.068972,0.065066,0.007617,-0.052353,-0.029006,-0.076191,0.041734,0.031812,-0.042852,0.008117,-0.055559,0.051023,-0.060996,-0.007385,-0.005166,-0.072850,0.007202,0.028544,-0.023584,-0.047270,-0.062674,0.047574,-0.031541,0.019341,-0.043064,0.032438,0.032306,0.018678,-0.017385,-0.039358,0.043865,0.017641,0.100180,-0.094030,0.015564,-0.049830,-0.036667,0.030540,0.021360,-0.011881,-0.034087,-0.076850,0.027117,-0.000660,-0.096622,0.001106,-0.054278,0.068723,0.006785,0.021903,0.066311,0.045676,0.059402,-0.052391,0.080126,-0.056628,0.063279,0.068923,-0.025028,0.064669,-0.058618,0.061141,0.026591,0.063147,0.015353,0.002088,0.062854,-0.027461,-0.073731,0.074510,-0.016656,-0.030008,0.001278,0.026638,0.085546,0.026015,-0.008130,0.070144,-0.092492,-0.043027,0.015383,-0.033926,0.091350,-0.052852,0.015598,-0.018577,-0.052674,-0.023301,0.131542,0.057620,-0.075727,-0.047181,0.075861,0.068837,-0.065341,-0.065612,0.022714,-0.013839,0.097146,-0.042047,0.004007,0.044447,-0.056783,-0.052375,0.013582,-0.003592,-0.019597,-0.054611,0.079415,0.017739,-0.100916,0.047074,0.037337,0.027003,0.064707,-0.063600,-0.002054,0.005297,0.003292,-0.066035,0.027147,-0.020550,-0.088553,0.021013,-0.025886,0.116952
-0.041501,-0.007718,-0.006462,0.050521,-0.021657,-0.004989,0.064876,-0.010232,0.006006,0.098256,0.015299,-0.029474,-0.048810,-0.015124,0.064587,0.035253,0.049435,0.044963,0.059425,0.056638,0.090466,0.040974,0.047088,0.006111,0.052768,0.075028,-0.088753,0.004381,0.059694,-0.049645,-0.080129,0.113225,-0.024928,0.038374,0.007848,-0.034788,-0.036721,-0.053379,-0.030341,-0.012137,0.044527,-0.000233,-0.061025,-0.006476,-0.025271,0.067721,0.039457,-0.042886,-0.039346,-0.050311,0.049569,-0.014777,-0.030155,-0.067911,-0.036616,0.010663,0.000824,-0.023081,-0.004071,0.033838,0.059224,0.021646,-0.102590,0.064170,-0.040165,0.041156,-0.059094,0.049041,-0.015240,-0.003077,-0.031439,0.025405,0.066565,0.059636,-0.013611,0.015807,0.084474,0.058043,-0.032608,-0.051337,-0.073248,-0.042407,0.016052,-0.041573,-0.031087,0.017639,-0.021737,0.057110,-0.003335,0.025230,0.064662,0.061069,0.077913,0.042569,0.027061,-0.067974,-0.017656,0.033244,0.075043,0.007375,-0.098679,-0.012565,0.119733,0.071483,-0.073050,0.005465,-0.062352,0.013124,-0.082231,-0.016833,-0.011058,-0.054185,0.047577,-0.012771,-0.040640,-0.065406,-0.048563,-0.071380,0.023947,-0.067607,0.107783,0.027199,0.037288,-0.011423,0.076769,0.059080,-0.111681,0.034958
-0.033229,-0.041429,0.035973,0.114518,0.045941,0.064874,-0.103266,-0.020887,-0.046905,-0.035536,-0.056773,-0.064726,-0.026108,0.051421,0.032554,0.016235,0.074802,0.083627,0.041033,-0.085451,0.039605,0.002648,0.002762,-0.031684,-0.064856,0.049422,0.005534,0.086764,-0.057007,-0.018925,-0.061505,0.024400,-0.036500,0.076022,-0.041005,0.051712,-0.047049,0.048124,0.017467,0.038557,-0.027556,0.063763,-0.095189,0.042919,0.091497,-0.069065,0.044366,0.011465,-0.022323,-0.017676,0.045973,-0.022858,-0.086092,-0.048036,-0.029895,0.065280,-0.020682,0.077869,0.051228,0.017857,-0.040046,0.027918,0.034893,0.041856,-0.045159,-0.048596,0.025659,-0.039270,0.052781,-0.031179,0.046213,0.005081,0.020014,-0.036210,0.026325,0.080966,0.002501,-0.030725,0.041585,0.046180,0.074182,0.064099,0.031962,-0.064026,-0.129329,0.057351,-0.078516,-0.016086,0.021211,0.013978,-0.082374,0.026852,0.056043,0.052110,0.025961,-0.027735,-0.065493,0.057171,-0.015002,-0.001873,0.022769,0.021683,0.068376,0.026620,0.029582,0.001911,0.051019,-0.111089,-0.081198,0.037721,-0.056604,0.002951,-0.011143,0.035253,0.022693,-0.044413,-0.016032,0.044781,-0.027207,-0.014103,-0.009201,-0.004637,0.016702,-0.026381,-0.068674,-0.013521,-0.075765,-0.010739
-0.115363,0.023344,-0.039458,0.009948,0.039528,-0.104022,0.078865,-0.014716,-0.000487,-0.035517,-0.084896,-0.069207,0.082486,0.018793,0.104989,-0.082710,-0.070155,-0.013605,-0.041289,-0.105780,0.006910,-0.011553,-0.007110,-0.051347,-0.043737,-0.044014,-0.067538,0.025185,0.017099,0.069623,-0.003090,-0.003876,-0.013602,-0.060348,-0.058373,-0.072424,-0.018756,0.060908,-0.002309,-0.042086,-0.040535,0.096427,-0.076058,-0.013941,0.029194,-0.039785,-0.024747,-0.011621,-0.029925,-0.064545,-0.014146,-0.030960,0.075314,-0.092449,-0.010156,-0.020064,-0.063155,-0.035269,0.030345,0.005276,-0.078877,0.065788,-0.050072,0.013295,0.116075,0.084889,0.055166,0.026834,-0.045308,0.060569,0.096974,0.006417,-0.031563,0.023798,-0.034244,-0.055469,-0.036239,-0.027974,-0.056472,-0.012090,0.069644,-0.010737,-0.080398,-0.093023,-0.010772,0.000755,-0.005514,0.006763,-0.036793,-0.017121,-0.004712,-0.043657,0.029341,0.026323,-0.060549,0.061268,-0.025800,-0.008704,-0.097876,-0.063261,0.043664,0.032917,0.053597,0.014485,-0.038678,0.044201,-0.013846,0.016880,0.039492,0.056215,-0.040250,0.011799,-0.018737,0.022580,-0.009583,0.064811,0.014166,-0.075656,0.087332,0.012772,0.093397,-0.045500,-0.061430,-0.063342,-0.021463,-0.031975,-0.052368,0.001286
-0.015821,0.027778,0.061599,-0.013880,0.018563,0.029934,0.019035,0.054363,0.027917,0.028281,-0.050086,-0.038861,0.054499,0.036335,-0.053548,0.053997,0.023515,0.087802,-0.071901,-0.086749,-0.027911,-0.055189,-0.085145,-0.072956,0.011117,0.065119,-0.032507,-0.041117,-0.053003,0.063446,-0.018825,-0.034732,0.041281,0.055290,-0.070849,-0.051123,-0.072625,0.001843,0.104321,0.057352,0.003826,0.000374,0.056542,0.031822,-0.012833,-0.016478,-0.060197,0.051185,-0.021660,0.068006,0.096789,-0.036472,0.052760,-0.073502,-0.011656,-0.019368,-0.015547,0.116421,-0.032064,0.051291,0.099165,-0.078908,0.044939,0.097484,0.000427,-0.019346,0.027636,-0.059421,0.087886,0.015156,0.026473,-0.050249,0.024434,0.006962,-0.057194,0.038777,0.071127,-0.031218,-0.065834,0.042522,0.066170,0.022581,0.002359,-0.071885,-0.005062,0.043965,0.032136,0.040729,0.063603,0.058217,0.032208,0.079054,-0.024975,-0.094394,0.046714,-0.004138,-0.052398,0.020513,-0.030492,-0.034021,-0.033158,0.073163,-0.041430,0.019705,-0.068467,0.051856,0.089410,-0.071447,0.007492,0.070857,-0.074605,-0.026700,-0.029744,0.127774,0.034301,0.056464,0.023611,0.079402,0.041337,-0.020355,0.085185,0.006663,0.048916,0.032296,-0.003074,0.044699,-0.104856,-0.024710
-0.009338,-0.017832,-0.073203,-0.004085,0.104358,0.073040,0.006951,0.057721,-0.024648,-0.081181,-0.010092,0.072910,0.023612,0.011491,-0.004142,0.060538,0.062523,-0.006236,0.036140,-0.012656,0.052386,-0.022849,0.023130,-0.009688,0.037923,0.023933,-0.007160,0.071411,-0.046531,-0.011931,-0.085122,-0.000887,0.007440,0.069972,-0.020860,0.050068,-0.072439,-0.051990,0.031298,0.067657,0.074907,0.046838,0.052124,-0.019343,-0.050945,-0.084814,-0.037173,0.062800,-0.002695,-0.055098,-0.042938,-0.065625,-0.047210,0.003697,-0.105181,0.002730,-0.056838,0.085063,0.006775,-0.049979,0.033889,0.050750,-0.105576,0.052370,-0.027851,0.071323,-0.066594,0.010984,0.108670,-0.044479,-0.060351,0.088193,-0.081495,-0.020483,-0.064112,-0.065974,-0.054000,-0.093184,-0.008983,-0.077079,-0.045558,-0.002985,-0.071022,-0.035343,0.103126,-0.013717,-0.033207,0.031101,0.083716,-0.035925,0.046042,0.110668,0.057502,0.051668,-0.050237,-0.088337,0.053414,0.042158,-0.033421,-0.061278,0.008827,-0.058683,-0.024882,0.022379,0.036344,-0.021158,-0.063825,0.039360,-0.007401,-0.027674,-0.029509,0.086091,-0.067260,-0.024632,-0.100502,0.044386,0.044306,-0.065537,0.011958,-0.004110,0.036259,0.096007,-0.011420,-0.016859,-0.066802,0.014352,0.060476,0.076622
0.027895,0.017016,-0.047491,0.000022,-0.002790,-0.032728,-0.009398,-0.054896,-0.008153,0.065340,0.046275,0.088432,-0.108136,-0.064800,0.007835,-0.007124,-0.037090,-0.086896,-0.032697,-0.005687,-0.006203,0.042491,-0.012964,0.026355,-0.000824,0.148647,0.030715,0.002496,-0.101649,0.047880,-0.000368,-0.038677,0.054029,-0.082219,0.009068,-0.026696,-0.044566,0.028952,0.075884,0.070402,-0.021887,0.121886,-0.047544,-0.026267,-0.045712,-0.029359,-0.020719,-0.000561,0.088126,0.095829,0.020522,-0.069368,0.001090,-0.052997,0.067605,-0.009305,0.062144,0.052926,0.018225,0.046469,0.099959,-0.021062,0.016975,0.072110,-0.015104,-0.055263,-0.031059,0.033125,-0.022631,0.023346,-0.051767,0.064848,-0.075434,-0.011731,0.015498,-0.083800,0.045685,0.033812,0.003892,0.033578,0.000751,0.056834,-0.079999,0.036009,0.060222,-0.037047,-0.076343,-0.001480,0.089836,-0.035731,0.065524,-0.012594,-0.002870,-0.052510,-0.066444,0.026784,-0.058880,-0.016908,-0.060729,-0.015761,0.059194,0.021665,0.008826,0.070825,-0.061697,-0.058517,0.014645,0.030927,0.030292,0.033667,0.011506,-0.025016,-0.035395,0.066367,0.064791,0.096257,0.077483,0.042797,-0.083250,-0.101430,0.040585,-0.025137,-0.063225,-0.071163,-0.046603,0.030895,0.089734,-0.042227
0.019768,0.057727,-0.039741,-0.073060,0.127046,-0.025182,-0.027982,0.020670,0.035942,-0.013887,-0.092328,0.090858,0.052883,-0.040975,0.119903,0.051290,-0.072647,-0.086665,-0.007905,-0.001674,-0.029230,-0.074015,0.079894,-0.045397,-0.041752,-0.019784,0.066202,0.032797,-0.050910,-0.107465,0.000945,0.004308,0.034339,-0.025528,0.020873,-0.065912,0.048689,0.048019,0.008157,0.069862,0.063969,0.116876,-0.005057,-0.003738,-0.023552,-0.051145,-0.054707,0.074699,-0.072032,-0.078233,0.049833,0.039973,-0.022100,-0.073207,0.026401,0.058373,0.106143,-0.057177,0.026361,-0.049548,0.006227,-0.006969,0.092342,-0.069352,-0.008446,-0.093579,-0.060034,-0.063786,-0.034174,0.016688,-0.007392,0.022823,0.047137,-0.035129,0.054229,-0.000067,0.011670,-0.044154,-0.078263,-0.000478,0.068733,0.049699,-0.064274,0.008092,-0.027837,-0.015639,0.067455,-0.050199,0.057792,-0.082170,-0.060931,0.030265,0.011316,-0.081322,0.082015,-0.036538,-0.041287,0.010445,0.071006,-0.060122,0.027207,0.004375,0.043975,-0.093211,0.043365,-0.050464,0.041846,-0.016485,0.065848,-0.027208,-0.032251,0.014803,0.010410,0.001355,0.065442,-0.038378,-0.007459,0.065979,0.070341,-0.045622,-0.027942,-0.012151,-0.049586,-0.072094,0.059818,-0.124931,-0.045083,0.014771
0.046795,-0.062407,-0.013642,0.044619,-0.006911,0.075556,0.030995,0.070503,-0.015834,0.051965,0.043865,0.077434,0.050707,-0.065362,0.086679,-0.058095,0.026622,-0.007239,0.105972,-0.010903,-0.067849,-0.009934,0.113261,0.089169,-0.067864,0.000845,0.025128,0.032864,0.008588,0.027753,0.048958,0.053013,0.052859,-0.063803,0.085185,-0.007942,-0.003688,0.134306,-0.074534,0.024764,0.004914,-0.002682,-0.045796,-0.163803,-0.031402,-0.031105,0.050111,0.061433,0.024624,-0.024660,0.058053,-0.053079,-0.040313,0.042470,0.074389,-0.014742,0.026191,-0.015791,0.038121,-0.009027,0.035294,0.023810,0.086314,0.027510,-0.008589,0.043503,-0.013298,0.039465,0.082215,-0.013639,-0.002943,0.088571,-0.095489,-0.007458,0.020859,-0.030816,0.048467,0.042749,-0.110338,-0.004609,0.025289,-0.063673,-0.093439,0.042210,0.006472,-0.042857,-0.034255,0.010846,-0.056382,0.065344,-0.089339,-0.083158,-0.006175,-0.014643,0.018603,-0.066684,-0.035277,0.016470,0.110790,-0.001379,0.047573,0.071853,-0.053743,-0.036883,0.014863,0.011068,-0.023897,-0.024543,-0.037105,0.048406,0.080160,-0.034928,0.031436,0.039284,0.068381,0.094978,0.132983,-0.044925,0.068995,0.072318,-0.032320,-0.081530,-0.034976,-0.003248,0.031068,0.037362,0.038135,-0.032331
-0.028044,-0.037045,-0.070109,0.026925,0.108456,-0.072420,-0.036530,0.011946,0.025074,0.053471,-0.120413,-0.056840,-0.004862,-0.083861,0.021806,-0.026443,0.064951,0.003300,0.023861,0.076945,-0.007508,-0.050586,-0.066671,0.084584,-0.013496,-0.019583,-0.004068,0.026745,0.006641,0.036682,-0.065518,0.036502,0.015455,-0.071867,-0.008917,0.069402,0.106857,0.055010,-0.047772,-0.025668,0.009269,-0.033014,-0.049494,-0.072150,-0.028419,0.046758,0.116761,0.008975,0.035122,-0.091522,-0.057427,0.013364,-0.070102,-0.083470,0.028243,0.037783,-0.067432,0.019818,-0.061046,0.059783,-0.019015,-0.005959,-0.007981,-0.035722,-0.059245,-0.054521,-0.049992,0.053263,-0.024856,-0.055649,0.091703,0.042035,-0.059227,-0.110683,-0.027241,0.031609,-0.077142,0.095311,-0.038008,0.011897,-0.088863,-0.082193,-0.079362,0.024958,-0.075894,-0.028003,0.009107,-0.098926,-0.032559,-0.047102,-0.073374,0.033151,0.047902,-0.069808,0.089958,-0.102122,-0.073096,0.014029,0.083199,-0.056443,-0.031529,-0.036614,0.059684,-0.011446,0.006685,0.002845,-0.018514,0.074085,-0.014738,0.098234,-0.042611,0.056023,-0.044014,0.055481,-0.029884,0.016181,0.114951,0.060330,0.042764,0.091185,0.026476,-0.008431,-0.045390,-0.050169,-0.060017,0.028414,0.028506,-0.063548
-0.038543,-0.152751,-0.040764,0.016361,0.074609,0.093835,-0.075150,-0.071232,-0.032624,0.019708,0.052943,0.038723,0.071780,0.012216,-0.003076,0.006306,0.025456,0.019300,-0.108549,0.075629,-0.008835,-0.010129,0.004573,-0.010786,0.032674,-0.083007,0.022345,0.043620,-0.037463,0.089784,-0.030141,-0.043466,-0.048455,-0.005850,-0.019967,0.001991,0.015752,0.098498,0.126489,-0.021768,0.050016,-0.046962,0.000966,0.059472,0.019134,-0.059795,0.106933,-0.011871,0.006242,0.015258,0.002633,-0.016586,-0.102013,0.001489,-0.058103,-0.034613,-0.064947,0.020983,0.027301,0.039436,-0.073881,-0.007116,0.012695,0.043777,-0.055348,0.003215,0.065057,0.004414,0.068769,0.052683,-0.015653,0.046209,-0.083015,-0.055565,-0.048189,0.030409,-0.102297,0.086825,0.033116,0.080684,-0.079699,-0.043043,0.006632,-0.079946,0.094937,0.054024,-0.050198,-0.045982,-0.061241,0.038473,-0.074682,0.028541,0.019359,-0.079472,0.020355,-0.008904,-0.075798,-0.117984,-0.129974,-0.102061,-0.027736,-0.046775,-0.067279,-0.003888,0.093039,0.003676,-0.092979,0.030179,-0.096216,0.001983,-0.080155,0.033915,0.025051,-0.043781,0.083225,0.061410,0.052263,0.054530,0.013344,0.105373,0.127472,0.024564,-0.062455,0.032197,0.013316,0.026296,0.018581,0.067271
-0.005985,-0.104103,-0.029451,0.069257,-0.036834,-0.083593,-0.091847,0.011570,0.051417,0.035539,-0.035282,-0.025991,0.077468,0.030702,0.094034,0.003418,-0.028472,-0.018037,-0.004527,0.078803,0.081215,0.026290,-0.089802,0.057632,0.077711,-0.034187,-0.016690,-0.013511,0.012392,0.018187,0.049143,0.022305,0.032152,-0.046545,-0.074833,0.032131,-0.014472,0.060149,0.073105,-0.006235,-0.042142,0.008069,0.010687,-0.012091,-0.074375,-0.022994,-0.044536,-0.000142,0.093675,0.009566,0.008479,0.084459,-0.009949,-0.017601,-0.037904,0.067040,-0.063932,-0.036112,-0.060107,-0.054753,-0.070771,0.034202,0.056139,-0.035892,0.058434,0.072431,0.077393,0.018495,-0.043398,0.082305,0.002464,-0.020235,-0.133288,-0.002536,-0.069512,-0.016226,-0.050592,-0.057099,0.065540,-0.006273,-0.039570,-0.017863,-0.056620,-0.026182,0.028850,0.042718,0.068678,0.049026,0.029190,-0.022281,-0.128849,-0.033635,0.030022,0.069969,-0.030279,-0.109202,-0.042413,-0.047930,-0.011243,-0.105096,-0.018051,0.003304,-0.030216,-0.052939,0.067275,-0.030051,0.019823,-0.042778,0.087517,0.088783,0.010962,0.058437,0.087303,0.006814,0.058994,0.052902,0.000995,0.101528,0.133229,-0.004928,0.011130,0.018715,0.049319,0.119132,0.092537,0.026476,0.007908,-0.026356
0.030310,0.011095,0.063925,-0.032111,-0.073776,0.036113,-0.099599,-0.065314,0.049517,0.111677,-0.055934,-0.098819,0.028394,0.084058,-0.031994,0.008923,-0.018300,0.023545,0.065503,0.009172,-0.000969,-0.053535,-0.011091,-0.040564,-0.002914,-0.001388,0.059922,-0.061535,0.042133,-0.138799,-0.035996,0.037982,-0.013132,-0.045609,0.026541,-0.029551,0.082053,0.011575,-0.144263,0.056044,0.086264,0.029122,-0.056194,-0.038596,-0.055592,0.073842,-0.045857,0.032882,0.057354,0.079530,0.114709,0.021194,-0.012104,-0.042961,-0.042700,0.028076,-0.105660,0.083000,-0.048889,-0.066251,0.026199,0.005554,-0.072819,0.061756,0.060451,-0.094071,0.040265,-0.025300,0.046820,0.050775,0.000463,-0.072155,-0.050380,-0.070067,0.081662,0.061620,0.115280,0.004252,0.001250,0.077369,0.077617,-0.024349,-0.076397,-0.073960,0.012413,0.069644,-0.070658,-0.010764,0.040157,-0.013609,-0.060223,0.118752,0.045081,-0.039381,0.089814,-0.044794,-0.056656,-0.002663,-0.013715,0.063646,0.024735,-0.021880,-0.049264,0.002923,-0.068358,0.064927,-0.031647,0.038304,0.059972,-0.044083,-0.077769,-0.053649,0.054936,0.052419,0.063983,0.001761,0.005552,-0.016713,0.037926,0.077415,0.086149,-0.056175,-0.067679,-0.037701,0.019783,-0.040681,-0.089293,-0.037164
0.004172,0.035467,0.070776,-0.105097,-0.042407,-0.005066,0.034309,0.022677,0.017735,0.075495,-0.050995,-0.069067,-0.054444,0.009789,-0.072120,0.072042,-0.027006,-0.072106,0.054350,-0.066591,-0.084313,-0.071615,0.055588,-0.091628,-0.012808,-0.048775,0.005300,0.054786,0.034472,-0.041057,0.077864,0.098189,0.041950,-0.089807,-0.088446,0.084272,0.061665,0.038664,0.036580,-0.035668,0.056579,0.045398,0.006760,0.049640,-0.063957,0.066687,0.009952,0.000099,0.042647,-0.101956,0.012697,0.043189,-0.082333,0.078786,-0.019620,0.010878,0.057866,0.020278,0.039353,-0.079944,-0.058029,0.078114,0.023691,-0.045075,-0.029733,0.052818,-0.025772,-0.079192,-0.017909,0.020961,-0.068787,0.036713,-0.027842,-0.050181,-0.012232,0.029986,0.007797,-0.068953,-0.028065,-0.016295,-0.004766,0.042086,-0.056970,-0.021462,-0.060479,0.106711,-0.095374,-0.001863,-0.038003,0.040985,-0.011608,0.058446,0.001570,-0.083426,0.043725,0.046551,-0.109592,-0.078261,-0.030415,0.003641,-0.071204,0.040795,0.012657,-0.018815,-0.017994,0.096064,-0.065500,0.021633,-0.050503,0.026087,0.004111,-0.083362,-0.062231,0.051660,0.015097,0.041491,-0.059665,0.038155,-0.013120,-0.065338,-0.050797,0.084513,0.016029,0.039166,0.003748,0.099344,0.029706,0.073660
-0.095158,-0.018120,-0.016474,0.010815,0.053962,-0.020421,0.089494,0.004016,-0.079015,-0.066697,-0.034337,0.032539,0.077295,0.057405,-0.095992,-0.071271,-0.027537,-0.055328,-0.047991,-0.005882,-0.055606,0.068473,-0.070212,0.023128,-0.043999,0.017871,0.027361,-0.046380,0.031281,-0.095082,0.048904,-0.000017,-0.092206,-0.039963,0.088533,-0.089389,-0.067871,0.021274,-0.002914,-0.042490,-0.077370,0.031347,0.088930,0.019909,0.046647,0.074930,0.075756,0.089349,-0.057824,0.039424,-0.031689,0.016618,0.073671,0.035414,0.024222,0.032442,-0.034917,0.120811,-0.004155,-0.091596,0.048027,-0.059582,0.059067,0.017262,-0.100478,0.007169,0.048080,-0.078221,0.005144,0.112319,-0.019423,-0.038752,0.012540,-0.022110,-0.063669,0.065467,0.050610,0.018231,0.053777,-0.067144,0.054252,0.020205,-0.068908,0.007193,-0.068001,-0.052292,-0.012380,-0.072609,0.019322,-0.062136,0.080012,-0.044166,-0.089440,0.013080,0.115711,0.050735,-0.039132,0.044899,-0.022367,-0.032777,0.015647,-0.009258,-0.094686,-0.040385,0.007454,0.063315,-0.065683,0.052236,-0.058342,-0.115771,-0.023978,0.020431,-0.034739,0.026992,-0.031547,-0.057308,-0.061674,0.045645,-0.092615,-0.066754,-0.042107,-0.024838,-0.058825,-0.043819,0.028128,-0.022536,0.057044,-0.027613
-0.056400,0.018149,-0.068471,-0.061759,-0.032488,-0.029506,-0.086582,0.069610,0.015859,-0.044233,0.026035,-0.042899,-0.007274,0.024792,-0.038103,0.061381,-0.091406,-0.010911,-0.011459,0.050741,0.018568,0.084942,0.009269,-0.054635,-0.033334,0.026211,-0.017120,-0.058528,0.039715,0.005080,-0.052816,0.089988,0.049156,0.012678,0.033696,-0.037570,-0.077338,-0.052174,-0.057114,0.057122,-0.020357,-0.011652,0.122666,-0.030526,0.098709,-0.021158,-0.052378,0.029647,-0.019241,0.043673,0.046155,0.025139,0.071236,-0.028594,-0.042549,0.027003,-0.051519,0.113552,-0.000620,-0.030366,-0.031555,0.018416,-0.083255,-0.002688,0.018567,0.080064,-0.015307,-0.067179,0.010165,-0.069217,-0.094514,-0.004728,-0.044689,-0.041255,0.008634,-0.010140,-0.017762,0.011915,0.066893,-0.061545,0.031832,0.070810,-0.004345,0.015980,-0.065089,0.057110,0.000492,-0.010557,-0.069645,-0.035498,0.069029,0.021163,-0.037798,-0.055465,0.015681,0.089066,-0.022486,-0.025815,0.025615,-0.008623,0.023929,-0.003655,-0.000946,0.037797,-0.081948,0.133391,-0.079462,-0.048636,-0.077673,-0.074568,0.059143,0.057456,-0.046520,-0.016244,-0.084638,0.060613,0.035566,-0.061849,-0.074760,-0.008714,0.015508,-0.019397,0.034208,-0.055041,-0.051118,-0.022165,0.055156,0.034068
0.073487,-0.008124,0.036340,0.028838,0.060629,-0.071501,0.020595,-0.086116,-0.066226,-0.021487,-0.065193,0.069112,0.013811,-0.029259,0.033740,-0.031674,-0.067946,-0.046228,-0.062808,-0.014019,0.046396,0.011140,0.026004,-0.002897,-0.056416,-0.008601,-0.036365,-0.056563,-0.036744,0.035481,-0.072119,-0.042112,0.075202,-0.062080,-0.077070,-0.032527,-0.067122,-0.092295,-0.068400,0.034143,0.003297,0.037351,-0.070346,0.116405,0.031460,0.041689,-0.087051,0.021294,0.008431,0.014835,0.070536,-0.053902,-0.063920,-0.004988,0.022124,-0.021209,0.101091,0.115250,0.064849,0.058133,0.001747,0.049038,-0.034944,-0.096989,-0.000285,-0.054113,0.081916,-0.094804,0.061237,0.053866,0.001475,-0.061744,0.078273,-0.077656,0.017200,0.082956,0.074426,-0.089852,-0.058571,-0.089457,-0.071428,0.104607,-0.053939,-0.071041,0.019191,0.002906,-0.051450,-0.013495,-0.025533,0.024237,0.007288,0.079778,-0.085591,-0.042876,0.115714,-0.009095,0.019114,0.078137,-0.025856,-0.062092,0.090228,0.038263,0.086664,-0.029632,0.076656,0.018904,-0.004812,0.009483,-0.096638,-0.121928,0.040160,0.064568,-0.035292,-0.073647,0.037275,0.040773,-0.095940,0.069260,-0.005551,0.052043,-0.087872,-0.069288,0.055572,-0.054209,0.009330,0.075134,0.054904,-0.059122
0.026004,-0.024137,0.058475,0.060077,-0.104542,0.004097,-0.063758,0.077632,0.029764,-0.018670,0.017408,-0.080966,0.007844,-0.072197,0.058371,-0.093096,-0.036953,-0.070550,0.059589,-0.051131,-0.022784,-0.069826,-0.031015,0.008390,-0.122591,-0.009751,0.019626,-0.050398,0.021233,-0.072593,0.019270,0.050491,-0.073539,0.038783,-0.039023,-0.075869,0.027769,0.063670,-0.005405,0.098545,0.038225,0.034555,0.084156,0.058651,0.053227,0.039388,-0.057026,0.030859,-0.065350,-0.028812,-0.032316,0.084051,0.037995,0.031498,0.047085,-0.056292,-0.049747,0.128415,0.024220,-0.027625,0.037860,-0.020550,-0.107942,-0.069978,-0.068668,0.059050,0.009166,-0.019855,0.067836,-0.006204,0.022542,-0.060863,-0.029594,-0.066134,-0.078583,0.021249,0.026732,0.063743,-0.033211,0.049117,0.082731,0.085010,0.088434,-0.074778,-0.078215,0.119256,-0.074562,0.026802,-0.059473,-0.056346,0.012778,-0.078363,0.017760,0.080777,0.045794,0.002647,-0.009429,0.049151,0.060968,0.036565,0.044221,0.006919,-0.057114,-0.012421,-0.000062,0.064675,-0.055505,0.097879,-0.105645,0.059633,-0.031294,-0.081915,-0.089576,-0.028717,-0.092359,0.034136,-0.085334,0.001857,0.016994,-0.057686,-0.106298,-0.050963,-0.063466,-0.075657,0.024219,0.082636,-0.043017,-0.092815
0.036534,-0.045299,0.068183,-0.050916,-0.027383,0.014856,-0.110386,0.043804,-0.072986,-0.060544,-0.067385,-0.074547,-0.011946,0.001690,0.124608,-0.081227,-0.014968,-0.060047,0.006129,-0.001417,0.022881,-0.037347,-0.004173,-0.013554,-0.121278,0.009618,0.077704,0.030119,0.083052,-0.013669,0.043853,0.007288,0.021861,0.015343,-0.063801,0.043306,0.117750,-0.027349,0.063296,-0.000594,-0.009873,-0.043744,-0.046284,-0.038942,0.024593,-0.089576,0.067403,-0.018532,0.015323,0.036481,0.108727,-0.004175,-0.057004,-0.017966,0.047904,0.049796,0.063850,0.034011,-0.036415,0.007236,0.004116,-0.045202,-0.056461,-0.021050,-0.085046,0.030957,0.023411,-0.026417,0.079858,0.093687,0.038652,-0.108392,0.028157,-0.011704,-0.037691,-0.072635,0.075447,-0.017225,-0.002049,-0.090826,-0.031443,0.053253,0.012715,0.006184,0.022115,0.074190,0.002374,0.042021,0.043937,0.033768,0.043193,0.035921,0.079353,-0.057977,-0.042383,-0.093919,-0.098376,0.016954,0.089151,-0.007483,-0.012483,0.042200,0.000885,-0.007786,-0.082093,0.094262,-0.026000,0.063587,0.003260,-0.086531,-0.035985,0.074983,-0.121468,-0.010836,0.042347,0.024307,-0.016204,0.059982,-0.006289,0.060463,0.048767,0.067345,0.045990,-0.080564,0.081888,-0.003852,-0.042841,0.028126
-0.043558,0.043080,-0.035753,0.072125,0.054925,0.012290,-0.028317,0.003088,0.008962,-0.015093,-0.003496,0.026362,0.018672,0.022842,0.023284,-0.012748,-0.031891,-0.029879,-0.074336,0.035642,0.076573,-0.071324,-0.071954,-0.087642,0.001769,-0.000667,0.011758,-0.085329,0.045790,0.033522,0.042993,-0.099231,0.054465,0.002857,0.077328,-0.004783,-0.077004,-0.064289,-0.016685,-0.059649,-0.059330,-0.048783,0.012264,-0.017860,0.011322,0.009279,-0.085370,-0.013481,-0.099262,0.052720,0.059146,0.062271,0.056727,-0.022423,-0.037887,-0.007642,0.026607,0.018451,-0.061033,0.071652,-0.018843,0.040466,-0.027179,0.035576,-0.056554,-0.059474,-0.089819,-0.038589,0.049679,0.010654,-0.022600,-0.074213,0.041149,-0.023363,0.027809,-0.078171,0.026863,-0.025810,0.046695,-0.078117,0.095652,-0.068665,0.092333,0.050342,0.015973,-0.068496,0.002105,0.057538,0.017015,-0.041305,0.046009,-0.009049,-0.014556,0.034400,0.006472,-0.055357,0.025692,-0.012675,-0.044215,0.058872,-0.001551,0.086508,0.069781,-0.039156,0.071780,0.065449,-0.074721,-0.108013,-0.036970,-0.001630,-0.007067,-0.042010,0.041169,-0.056265,-0.059823,0.052385,0.014331,-0.023202,-0.037100,-0.040102,-0.025609,-0.022033,0.028559,-0.050305,0.022282,-0.042941,0.002987,-0.055665
-0.086959,0.058648,-0.060340,0.071651,0.022352,0.049088,-0.092215,0.087534,-0.058957,0.003921,-0.089740,0.074918,0.016451,-0.085645,0.050038,0.031555,0.011558,-0.025270,0.044448,-0.042959,-0.002001,0.045467,0.049335,-0.005174,-0.062595,0.060699,-0.053366,0.064264,0.065823,0.045177,-0.010747,-0.041882,-0.054984,-0.066267,0.009424,-0.018713,-0.035603,-0.027858,-0.054727,0.086694,0.017029,0.041626,-0.042205,0.076700,-0.064952,-0.026682,-0.064395,-0.007748,-0.030316,-0.077028,0.069823,-0.056067,0.028881,0.045585,-0.068813,0.017279,-0.079191,-0.023271,0.073129,0.059231,0.046648,-0.107674,0.005742,-0.022713,0.052419,0.033711,-0.017344,0.081023,0.059775,0.047595,-0.028397,-0.012421,-0.030063,-0.102278,0.046365,0.009933,-0.055501,-0.042966,-0.019526,-0.042566,0.032716,-0.053181,-0.085762,0.049749,-0.022494,-0.011503,-0.004625,0.001324,-0.075117,0.009760,-0.067502,-0.068648,-0.046796,-0.076960,0.038440,0.055490,-0.102098,0.058419,0.036368,0.041273,-0.033879,-0.010660,-0.096297,0.003562,-0.068744,-0.028499,-0.038128,-0.044266,-0.059685,-0.004836,0.007524,-0.021330,0.025451,-0.068446,-0.066824,0.014519,0.037181,-0.026453,0.038613,0.042864,0.070570,-0.057961,-0.097867,0.116480,0.001443,0.052633,-0.030024,0.028453
0.068586,-0.013383,-0.026414,0.019019,0.018649,-0.046689,0.014833,0.083220,0.042033,0.038267,-0.022816,-0.039903,-0.085237,0.048619,-0.105166,-0.061552,-0.042924,-0.035891,-0.039746,-0.021734,0.082616,0.035933,0.032348,-0.023354,-0.109278,-0.037678,0.055552,-0.001736,-0.015441,0.070932,-0.045355,0.000570,0.071421,0.071934,0.015745,0.060451,0.067477,-0.037597,0.008706,0.062399,0.019604,0.044859,0.076635,0.053194,0.051721,0.019455,-0.001380,0.062486,0.034047,-0.106198,0.066531,-0.039899,-0.016738,-0.012035,0.030449,-0.000465,-0.086288,-0.064447,-0.055800,0.063487,0.124298,-0.041202,-0.055824,0.027750,-0.013615,0.077597,-0.029914,-0.004111,-0.065210,-0.098381,-0.065488,0.036328,-0.106258,-0.079207,-0.066349,0.066770,0.044891,-0.036651,0.018691,-0.089364,-0.009224,-0.044249,-0.071190,0.031868,0.112600,-0.000995,0.027816,0.045044,-0.077395,0.086677,-0.020267,0.001136,0.087708,-0.082773,0.030820,0.012915,-0.065498,0.066734,0.017665,-0.019281,0.000716,0.007938,-0.050597,0.022870,0.055666,-0.044856,-0.021250,-0.063991,0.071827,-0.005017,-0.042199,0.042886,0.014931,0.058165,0.030051,-0.049339,-0.049549,-0.003058,-0.116099,-0.034547,0.058378,0.008398,-0.023735,0.045904,0.049394,-0.101704,0.068548,0.055407
0.105735,0.030740,-0.009102,-0.045231,-0.077373,-0.021581,-0.079010,0.014263,-0.068565,0.025012,-0.036271,-0.070528,-0.083550,-0.081430,0.021739,-0.014445,0.073242,-0.047944,0.005668,-0.073413,-0.063180,-0.047648,0.085039,0.063226,0.003985,0.004558,-0.046314,-0.039423,0.020407,0.018112,0.016381,0.039379,0.083983,-0.071002,-0.019035,-0.014555,0.035445,0.026222,-0.098170,0.036511,-0.103927,-0.001753,-0.022646,0.081005,0.091564,0.067419,-0.048687,0.037808,0.069746,0.070644,0.061393,0.069562,0.037129,-0.006584,-0.038712,-0.027636,0.067249,-0.099865,-0.047247,0.003801,0.061026,0.075588,0.002342,0.073709,-0.025142,-0.052966,-0.068110,0.028402,-0.082791,-0.102128,-0.091491,0.095432,0.066714,0.104580,-0.005805,-0.051947,-0.012968,-0.063516,0.041538,-0.020320,-0.018390,0.061779,0.064786,-0.040616,-0.043161,-0.004178,-0.026706,-0.059246,0.038886,-0.023923,-0.109268,-0.054604,0.008791,-0.039847,0.065249,0.020333,-0.007140,-0.093391,0.039004,-0.042543,0.086781,0.011046,0.004332,-0.004182,-0.086111,-0.024927,0.076508,-0.040680,0.039642,0.042126,0.031666,0.120062,0.131166,-0.017114,0.024099,-0.026518,0.006127,-0.044232,0.012953,0.109413,0.038974,-0.079316,-0.039479,-0.032620,0.060125,-0.021265,0.074961,-0.036887
0.131916,0.040112,0.043804,0.094229,-0.037240,0.064343,-0.067859,-0.034394,-0.014423,0.062254,0.054153,-0.035606,0.089793,0.098608,-0.003363,0.035439,-0.100138,0.073515,0.038878,-0.013536,0.065998,0.040412,0.031137,0.108902,0.010090,0.058773,0.048215,-0.098202,0.004591,0.005068,0.117827,-0.037106,-0.059985,-0.039137,0.104148,0.008863,0.114048,-0.077733,0.090357,0.027394,-0.000377,-0.061135,-0.057506,-0.072326,-0.024083,0.006228,0.043633,0.019124,0.010394,-0.049168,-0.002757,0.040366,-0.016548,0.040044,0.005889,-0.047124,0.119842,0.015521,0.003751,-0.019840,0.048581,-0.019636,-0.102880,0.021100,0.088852,0.024213,-0.064013,-0.013535,0.043503,0.038356,0.107466,-0.015451,-0.043015,0.045022,0.008124,-0.027114,0.112610,0.076305,-0.045466,-0.028759,0.080894,0.000274,0.123208,0.033039,-0.103370,-0.035061,0.015267,0.059309,-0.039200,0.029609,0.008189,0.005061,-0.008507,0.060657,0.020623,0.071173,0.096227,0.076395,0.100710,-0.016029,0.112339,-0.011881,-0.049641,-0.063294,-0.066663,-0.031996,-0.045927,-0.038770,-0.018945,-0.016670,0.044651,0.059999,-0.004963,0.078751,-0.082639,0.102600,-0.004489,-0.061915,0.115447,0.068228,-0.019755,-0.032334,0.020376,-0.036928,0.049413,-0.071788,0.072464,-0.053879
-0.022828,-0.061982,-0.010225,-0.043439,0.030021,-0.029767,-0.031756,0.062365,-0.061872,-0.026304,0.048524,0.033713,0.074028,0.065288,-0.037686,0.043814,-0.050468,-0.010185,-0.008403,0.039728,-0.027498,0.052863,-0.052868,0.126013,0.072099,-0.022734,-0.019694,-0.049062,-0.111867,0.039492,0.058547,0.043506,-0.033890,-0.047843,0.058354,-0.020033,-0.023635,-0.011334,0.007916,0.098929,-0.082056,0.053292,0.052884,0.049612,0.084393,-0.040184,0.037584,-0.027948,0.074141,-0.009017,-0.026506,0.071011,0.006853,0.047374,-0.074304,-0.013558,-0.056968,-0.050072,-0.023990,0.022718,0.102558,-0.095841,0.093340,0.064285,0.042276,0.100753,0.001343,0.002710,-0.018702,0.017385,-0.049291,0.011827,0.039758,0.000403,0.074085,-0.064270,0.033286,0.034552,0.028010,-0.020948,-0.006823,-0.022278,0.069362,0.031906,-0.074153,-0.084718,-0.069242,-0.017967,-0.054686,0.081133,-0.021217,0.059214,0.053048,0.066748,0.010375,0.023966,0.059914,-0.025833,0.076738,0.109303,0.012502,0.021369,0.040200,0.016040,0.089948,-0.022713,0.018165,-0.009579,0.087949,-0.047581,-0.052386,-0.038545,-0.109792,-0.027302,-0.085987,0.094080,0.085516,-0.028039,0.023846,0.055375,-0.025086,0.068734,-0.069804,0.177833,0.021955,0.037068,-0.018323,0.004458
0.076227,0.089014,-0.105319,-0.057472,0.076093,0.054485,-0.025810,-0.064906,0.083870,-0.005013,-0.065181,-0.015003,-0.022915,0.012127,0.009665,0.080124,0.047148,-0.007987,-0.056632,-0.021488,-0.058810,0.041208,-0.002928,0.152190,-0.043308,-0.069441,0.015182,0.033017,0.069842,-0.058153,0.010584,0.022896,-0.083987,-0.000157,0.071336,-0.021327,0.116880,-0.046636,0.076806,0.072522,0.006855,0.044745,-0.081064,-0.106568,0.058868,-0.020484,0.008993,0.101288,-0.044281,0.084572,-0.003035,-0.050983,0.099946,-0.002496,-0.034003,0.034419,0.049607,-0.088119,-0.004975,0.031846,0.035866,0.037974,0.047536,-0.060912,-0.022957,0.006973,-0.066812,-0.015072,0.085580,-0.052483,-0.019763,0.023313,-0.057886,-0.101087,-0.063059,-0.031047,0.104180,-0.011866,0.056174,-0.066260,-0.065378,0.007633,-0.046073,-0.065335,-0.076323,-0.021445,0.005334,0.032523,-0.058974,0.077512,-0.058352,0.063735,-0.022193,-0.046351,-0.064649,-0.115704,0.038769,-0.062288,0.024366,0.005851,-0.032058,0.049458,0.086208,-0.009766,-0.050961,0.054773,-0.023094,-0.041055,0.049110,0.012268,0.019684,-0.039291,0.029502,-0.026499,-0.066702,0.001412,-0.000233,-0.017175,0.091033,0.069945,-0.029533,0.032337,0.090412,-0.046579,0.016071,0.006057,-0.046324,-0.057590
0.041530,-0.079405,0.114707,-0.066135,0.030885,-0.039332,0.016412,0.031527,0.076636,-0.122671,0.055690,0.077530,0.059751,-0.084664,-0.066766,-0.041564,0.055328,-0.000057,-0.003265,0.071979,-0.031747,-0.028256,0.085407,0.063025,0.057793,0.018464,-0.014671,-0.094708,0.073177,0.124906,0.027136,-0.038332,-0.009863,0.042687,-0.016855,-0.010168,-0.047222,0.039415,-0.042690,0.034395,-0.060907,0.063908,0.021020,-0.038969,-0.046764,0.012558,0.053400,-0.038429,-0.083863,0.075634,-0.018580,0.108430,-0.069339,-0.055233,-0.059868,-0.083965,0.054441,0.047736,-0.042722,-0.029723,-0.026617,-0.064875,0.130405,-0.058176,-0.075721,-0.081136,0.057660,0.038958,0.055250,0.038023,-0.024174,-0.000843,-0.021906,0.074544,0.059965,-0.052093,-0.030991,0.010973,0.078276,-0.014183,-0.071050,0.015778,0.021588,0.037184,-0.111246,-0.036003,0.039742,-0.026953,-0.082890,0.050142,0.043492,-0.059162,0.072365,-0.030602,-0.035083,-0.055279,0.038623,-0.009213,-0.017070,-0.134953,-0.030597,0.049031,0.071545,-0.042322,0.016638,0.011247,-0.029468,0.040854,0.004007,-0.016443,-0.076517,-0.007084,0.075442,-0.141459,0.025285,0.090120,0.050470,-0.014604,0.064770,0.004288,0.027160,0.056030,-0.092772,0.018706,0.001035,-0.005477,-0.090807,0.005210
0.011413,-0.075883,0.074792,0.042258,0.074184,0.070206,0.026728,0.020941,0.025801,-0.105155,-0.030314,-0.083492,0.081195,0.043800,-0.015390,-0.097816,0.056079,-0.004503,0.032060,0.080777,-0.069144,0.062649,-0.064233,0.050499,-0.066864,0.021564,-0.012549,0.038561,-0.066704,0.055827,0.003962,-0.066050,0.018222,0.063519,-0.089727,0.018567,-0.059276,0.070820,-0.028022,0.012809,0.016324,0.044601,0.001559,-0.022557,-0.061479,0.063575,0.073017,-0.026290,-0.112270,-0.018243,0.021507,0.086781,0.028329,-0.086742,0.067807,-0.022202,0.089770,0.073356,0.032638,0.060764,-0.060775,0.075121,0.109511,0.091427,-0.048045,0.012517,-0.039902,0.037880,0.030701,0.083801,0.114076,0.048213,-0.031359,-0.082546,0.071864,-0.034310,-0.021427,-0.052434,0.037212,-0.079434,-0.003876,-0.022257,-0.089974,-0.007374,-0.012794,-0.007679,-0.001042,-0.009726,-0.085456,-0.037074,-0.045300,-0.005048,-0.031846,-0.005230,0.117993,-0.053753,-0.048657,-0.033122,-0.087715,-0.029782,-0.086069,0.003871,-0.066682,0.050280,-0.016351,-0.003640,0.060900,-0.049656,0.083092,-0.018581,-0.093206,-0.005538,0.043389,-0.098866,0.132393,0.074377,0.076560,0.096441,-0.022979,0.043723,0.027369,-0.090050,-0.008809,0.057357,-0.082248,-0.053258,-0.012301,-0.094528
-0.051281,0.009643,-0.070398,-0.051238,-0.052536,0.067404,-0.041574,-0.079134,-0.045772,0.025671,0.047025,0.028087,0.097856,-0.033243,-0.027328,0.011689,0.044600,-0.053386,0.109351,0.076840,0.055534,-0.038295,-0.050150,0.089583,0.003340,-0.000240,0.052916,-0.037484,0.046993,-0.034578,0.079185,0.047642,0.007818,-0.079812,-0.064102,0.079483,-0.007421,0.019472,0.055498,0.048489,0.095964,-0.079013,-0.102610,0.062831,-0.019263,0.097861,-0.030459,-0.060255,-0.065487,0.098185,0.089579,-0.015484,0.032894,0.018351,0.017637,0.099634,-0.002038,0.028284,-0.032975,-0.000664,0.074636,-0.080314,-0.108350,-0.057213,-0.018965,0.005298,-0.025576,-0.109488,0.083792,0.059992,-0.048929,0.051054,-0.101757,-0.097578,0.015549,0.014026,0.079540,-0.039537,-0.101851,-0.026176,-0.021831,0.038098,-0.078458,-0.067117,0.064097,0.031066,0.000938,-0.001153,0.061688,-0.121307,-0.082153,0.104679,-0.022656,0.019921,-0.021727,0.015186,0.029247,0.027366,-0.008123,0.021221,0.069738,0.021032,-0.096573,0.011929,-0.038882,-0.009298,-0.071443,-0.061881,0.054444,0.021045,-0.073904,0.013647,0.005154,-0.019534,-0.045523,-0.076596,-0.055546,-0.031191,-0.079869,-0.011355,-0.031513,-0.011890,-0.052708,-0.085227,-0.055655,-0.068112,-0.040598,-0.066450
0.000589,0.062332,-0.027942,-0.005258,0.044546,0.014577,0.014380,-0.017298,0.014870,-0.009304,0.060833,-0.073363,0.039350,0.092660,-0.048585,-0.021727,0.044988,-0.005033,0.095925,-0.019766,0.092352,0.074839,0.015630,-0.075583,-0.006234,0.133764,0.058238,-0.109966,-0.002498,-0.054319,-0.011845,0.051836,0.036868,-0.073734,-0.064032,0.010044,0.052264,0.018658,-0.080951,0.027546,0.063809,-0.013150,-0.064832,0.059994,0.013507,-0.040914,0.026321,0.061068,0.079593,0.018532,0.000351,-0.000272,-0.014504,-0.040826,-0.062629,-0.006239,-0.055237,-0.027093,0.019451,0.039508,-0.125261,-0.017819,-0.127538,-0.059876,-0.079434,0.046639,-0.077941,0.006586,0.082656,-0.041122,0.032375,-0.092200,0.044128,0.063012,-0.027646,0.002342,0.090767,0.098347,0.056072,-0.009534,0.072575,-0.063055,0.059598,0.061103,-0.082014,0.014298,-0.036116,0.092636,-0.095783,-0.058465,-0.018857,0.007936,-0.105957,0.012162,0.039815,-0.086685,-0.009050,0.023232,-0.003679,0.017731,-0.032898,0.021027,-0.059082,-0.031438,0.036515,0.025885,-0.110067,0.100766,0.027474,0.001174,-0.074658,0.010390,0.036537,-0.021922,-0.038493,-0.041971,-0.036101,-0.021446,-0.014441,-0.051160,0.124900,-0.052628,-0.037933,-0.034383,-0.025861,-0.021869,-0.011167,0.024380
