8
256,64,64,64,64,64,64,3
-0.063119,0.048603,0.079893,-0.040049,0.116518,0.089797,0.002907,0.014069,0.042965,-0.034186,-0.054813,-0.040123,-0.045127,0.026879,-0.076093,0.001710,-0.125797,0.051359,0.037705,0.058920,-0.088250,-0.014958,0.031946,-0.082238,-0.048505,0.010299,-0.062053,0.031751,-0.040598,0.057539,0.068005,-0.048156,0.009122,-0.079837,-0.069902,0.070752,0.019954,0.031907,-0.015245,-0.086534,0.008846,-0.038997,-0.059589,-0.007728,0.013718,0.088491,0.028072,0.010243,0.014475,-0.021136,-0.033048,0.019447,-0.003474,0.033581,0.070753,0.038174,0.017770,0.012619,-0.048823,0.108112,0.008531,-0.055406,-0.042910,-0.006998
0.148612,-0.090120,-0.095001,-0.009276,-0.047559,-0.018411,0.004356,-0.131975,0.031455,0.063898,0.078557,0.060103,-0.047624,0.133834,-0.006846,-0.000207,-0.016003,-0.011430,0.014503,0.042994,0.063356,0.033710,0.020579,-0.019471,-0.058938,-0.136066,-0.058543,-0.066206,-0.018109,0.094908,-0.056791,-0.026549,-0.056576,-0.028169,-0.000182,-0.029998,-0.008539,0.043318,-0.091307,-0.079457,-0.087735,-0.014210,-0.015489,-0.035491,-0.105633,0.019660,0.113422,-0.037841,-0.066669,-0.053343,0.003498,0.073161,-0.024883,0.046727,0.008047,-0.006604,0.034260,0.064167,-0.071122,-0.038007,-0.028345,-0.050993,0.140749,-0.025522
0.030030,0.052997,0.033086,0.007293,-0.063619,0.042100,-0.098300,-0.099631,-0.001771,-0.067234,0.005073,0.019063,-0.004191,-0.068653,-0.023175,0.091002,0.094752,-0.047582,0.125775,-0.094431,0.099526,-0.016809,-0.074521,-0.055567,-0.054233,-0.133024,0.051857,0.041615,0.005943,-0.035040,0.034898,-0.078754,0.012261,-0.005838,0.062789,0.031372,0.081546,-0.012626,-0.041575,-0.077975,-0.040823,-0.042347,-0.094383,0.003594,0.057773,-0.063083,-0.020631,-0.023931,-0.015287,0.061494,0.046205,-0.068171,-0.018315,0.199737,0.043080,-0.015884,-0.028710,-0.071102,-0.087581,-0.007876,-0.027514,0.072502,0.016059,-0.009052
0.110051,-0.070675,-0.032793,-0.080097,-0.075642,0.031913,-0.041013,-0.068803,-0.040529,-0.038654,-0.037236,0.116620,-0.060119,-0.025267,-0.029281,-0.053847,0.038514,0.031809,0.085080,0.061579,0.044447,-0.014449,0.027843,-0.025331,-0.056483,-0.013849,0.031175,-0.010478,-0.050173,0.090666,0.022811,-0.004464,0.033485,-0.000254,-0.037620,0.029471,0.016159,0.017549,0.000693,-0.058974,-0.006098,-0.089087,-0.035146,-0.050216,-0.051971,-0.003004,-0.051080,-0.069061,-0.048910,0.000844,0.013271,-0.044903,0.003490,0.146705,0.013449,-0.001350,-0.079826,-0.049160,-0.066827,0.058932,0.053547,-0.036198,-0.025715,0.098812
0.035104,-0.005173,-0.054161,0.075520,0.027532,0.021718,0.042464,-0.089199,-0.069493,0.029212,0.020526,-0.019986,-0.044383,0.020439,-0.009598,-0.023335,-0.027788,-0.030871,0.026386,0.073929,0.002615,0.026138,-0.094376,-0.089012,-0.090659,-0.008949,0.057997,-0.006409,0.014397,-0.032841,-0.088114,-0.014045,-0.021691,0.054592,-0.069685,0.067237,-0.054720,0.101709,0.032489,-0.049238,0.008366,-0.064219,0.035422,-0.036088,-0.070985,-0.034704,-0.013487,-0.012732,-0.104736,-0.075437,-0.009035,0.016188,-0.007962,0.049453,0.080705,0.009594,-0.124373,-0.062848,-0.038301,0.018255,0.003215,-0.076443,-0.052676,0.013870
-0.053127,0.048009,-0.084399,0.035555,0.058305,0.030297,0.021800,-0.099873,-0.005994,-0.039060,0.078352,-0.007396,0.020288,-0.031540,0.024277,-0.074925,-0.071439,0.007404,-0.052273,0.028209,0.075945,0.032153,-0.036261,0.076516,-0.023991,0.035866,-0.110892,0.006710,0.060034,-0.039050,-0.010242,-0.079417,0.078188,0.008443,-0.006615,0.016154,-0.124552,0.102992,0.077427,0.014821,0.093641,0.003114,0.034988,-0.045955,0.034923,-0.068005,-0.009368,-0.015763,0.057154,0.087328,0.080315,-0.095635,-0.049013,0.067526,-0.081248,-0.066508,-0.028608,-0.113184,0.015296,0.149466,0.043492,-0.002937,0.106316,-0.069515
0.017994,-0.026978,0.097008,0.036959,0.085738,-0.022735,-0.020134,0.044844,0.002786,0.030697,-0.025015,0.048165,-0.064387,0.002550,-0.016441,0.051851,0.050899,-0.106165,-0.021686,0.089559,-0.016435,-0.033261,-0.023562,0.069394,0.035080,-0.059735,0.078401,-0.011570,0.053154,0.025094,-0.059477,-0.040694,0.100438,-0.081056,-0.003871,0.076537,-0.069343,-0.041333,-0.062028,0.000841,-0.072460,-0.048178,-0.012999,-0.024794,-0.065504,-0.046035,0.086383,0.055328,-0.067147,-0.084672,-0.015532,0.085492,0.075424,-0.014799,-0.007041,-0.048666,0.037024,-0.048437,-0.055212,-0.008607,0.012024,-0.080545,0.146215,-0.006836
0.034223,-0.023730,-0.082074,-0.024712,-0.029260,0.004488,0.030418,-0.024191,0.060371,-0.000782,-0.069273,-0.047664,-0.076056,0.088695,0.083097,0.015461,0.076359,0.026516,0.019444,-0.018327,0.060553,-0.026059,-0.049800,-0.010192,0.022699,-0.057714,0.012129,0.094835,-0.089879,-0.051575,0.036657,0.026075,0.044944,-0.019090,-0.065107,-0.048302,-0.064223,0.097637,-0.045148,-0.043016,-0.043691,0.074952,0.063754,0.032057,-0.002029,-0.082693,0.011650,0.081984,-0.039764,-0.020180,0.027802,0.024334,-0.095685,0.000664,-0.090090,0.025568,0.023546,0.036958,0.022207,-0.054944,0.027158,-0.022746,0.034185,-0.083136
0.055171,0.066457,-0.017279,0.042026,-0.042026,0.008450,-0.060252,-0.019028,0.062864,-0.012360,-0.049369,-0.040490,-0.061951,0.025617,0.026926,-0.096921,0.032438,0.006152,0.009512,-0.007407,0.021934,-0.123876,-0.125446,0.038971,0.015865,-0.011507,0.138022,0.071329,-0.068225,-0.018872,-0.002148,-0.088069,-0.096626,-0.014069,-0.047345,-0.071321,0.058882,-0.053374,0.004003,0.061712,-0.003029,0.093764,-0.048960,-0.029489,0.075143,-0.050338,0.021090,0.098567,-0.016234,-0.012976,0.046608,0.027756,0.025892,-0.033015,-0.088129,-0.061004,0.050441,-0.008679,0.027407,-0.112312,0.085974,0.053421,-0.044316,0.008358
0.036788,-0.020030,-0.093904,0.002932,-0.032120,-0.025374,-0.057094,0.052418,-0.043036,0.017748,0.056375,0.013215,-0.037555,0.039370,-0.015353,-0.084775,0.047517,-0.038369,-0.075305,0.099598,0.005974,0.006528,-0.098124,0.031496,-0.024330,-0.076846,0.026327,-0.002125,0.013062,0.008062,-0.021542,0.016477,-0.004873,-0.162751,0.079998,-0.040115,-0.124923,0.018191,0.135690,0.019869,0.114934,-0.010659,-0.111893,0.036496,0.025139,-0.004294,-0.081706,-0.044131,-0.091081,-0.109692,-0.032990,0.046738,-0.020188,0.101816,0.036615,0.004537,0.024425,-0.093404,-0.085964,0.009728,-0.054769,-0.026686,0.002822,0.004951
-0.102562,0.044106,-0.055552,0.009990,0.032313,0.010563,0.018524,0.057399,-0.020931,0.068955,0.020401,-0.066191,-0.014185,0.044757,0.123287,0.063022,0.033659,-0.082626,0.036406,0.022274,-0.004902,0.053180,-0.000875,-0.021200,0.121055,0.004464,0.190695,-0.067261,-0.030649,-0.021463,0.012341,0.075360,-0.045464,-0.047684,-0.046282,0.111731,-0.108734,-0.098337,0.046005,0.010802,-0.062571,-0.067750,0.006989,0.030131,-0.059419,0.015762,0.016802,-0.037710,0.031990,0.034032,0.026115,0.063779,-0.006217,0.051814,-0.014910,0.041906,-0.017891,-0.115306,0.068763,-0.006990,0.059056,-0.112732,-0.079973,0.064105
-0.025756,0.067857,0.082409,0.055114,-0.031690,-0.078223,0.007555,0.052106,-0.073585,-0.074921,0.018128,-0.015648,-0.079955,-0.009417,0.121441,0.112827,0.021991,-0.127606,0.107473,0.049004,0.082875,-0.035621,-0.004515,-0.030613,-0.010514,-0.091025,0.068369,0.011522,-0.044786,0.039059,-0.039556,0.029594,-0.035959,-0.108527,0.072986,0.039762,0.005938,0.035849,0.054862,0.020418,0.007351,0.020588,-0.033265,-0.047524,0.110857,0.046102,-0.061704,-0.001746,0.138923,-0.048957,-0.057777,-0.009413,0.021920,0.032728,0.079669,0.109682,0.012611,0.044252,0.050796,0.059535,0.001204,-0.098203,0.052989,0.089845
0.067220,-0.056874,0.067090,0.028594,0.007423,-0.061053,-0.020628,0.013573,0.014853,-0.029564,0.061636,-0.024386,-0.057474,0.030662,0.022409,0.029659,-0.025121,0.037535,0.027277,-0.028333,-0.010978,-0.012092,0.027572,0.070931,-0.034421,-0.064482,0.144830,0.090200,-0.050506,-0.056231,-0.074813,-0.108346,-0.116860,-0.044809,0.063012,-0.053654,-0.015081,-0.042037,-0.003918,0.012136,-0.035140,-0.069400,0.019330,0.056057,0.091118,0.062522,0.055633,-0.045051,0.016628,-0.068691,0.008311,0.047623,-0.073482,-0.020604,-0.002566,0.059396,0.047628,0.035578,0.000081,0.069341,-0.086245,-0.013487,-0.013022,-0.022755
0.013142,-0.002599,0.018072,0.001343,-0.057482,0.025169,0.042075,0.007686,0.002639,0.036731,-0.006160,0.077825,-0.031113,0.033095,0.062915,0.049508,0.034637,-0.030339,0.043666,0.056356,0.009420,0.039376,-0.013282,-0.010121,0.075993,0.037741,0.020125,0.017240,-0.014448,0.049906,-0.016504,0.152953,0.003793,0.038166,0.048843,0.064687,0.000772,0.104068,-0.073191,-0.031942,0.017363,-0.053180,0.015191,0.003279,0.054041,0.101008,0.057269,0.071252,-0.055372,0.019457,0.014279,-0.104530,-0.095697,0.114106,-0.029074,0.080393,0.007565,0.131558,0.010997,0.072797,0.066083,0.075000,-0.076474,0.052552
0.078244,0.025535,-0.033860,0.041622,-0.108070,-0.041194,-0.082278,0.012662,0.053742,-0.016541,-0.070895,0.044397,0.045096,0.048327,0.062126,-0.052300,0.035270,0.029559,0.049505,-0.098163,-0.087755,0.014119,-0.055364,0.038297,-0.006384,-0.012214,0.084236,-0.098152,-0.026199,0.062318,0.005585,-0.091232,0.050238,-0.043209,-0.037124,0.024413,0.027118,-0.034404,-0.117184,-0.040042,-0.021411,-0.085873,-0.069985,-0.028548,-0.014527,-0.029484,-0.067616,-0.008982,0.054118,0.059589,0.066093,-0.017222,-0.061378,0.047969,-0.028463,-0.036112,-0.014125,0.062774,0.031390,-0.091200,0.007877,-0.031351,-0.032939,-0.002093
0.065202,-0.031832,0.100290,-0.056175,0.045742,0.012371,-0.057249,-0.109816,-0.110697,-0.045098,0.049286,0.042154,0.048532,0.029583,-0.085915,0.068216,0.042006,-0.045003,0.021312,-0.061754,-0.093915,0.096640,-0.059862,-0.050085,-0.113679,0.022648,-0.078261,-0.058805,-0.055849,-0.072446,0.078679,-0.022191,-0.034601,-0.020253,-0.061568,0.042675,0.098953,0.069789,0.019482,-0.050145,0.093304,-0.088762,-0.031618,0.010524,-0.039659,0.018970,0.004794,-0.029480,-0.082306,-0.013908,-0.015750,-0.010911,-0.007240,0.051187,0.045787,-0.007437,-0.046131,-0.015595,-0.044319,-0.021136,0.003021,0.085005,-0.109126,0.024286
0.019391,-0.073455,-0.047125,-0.019481,0.060170,0.012864,-0.018099,-0.046704,-0.104831,-0.001958,0.044603,-0.070780,0.029086,0.051198,-0.052562,-0.087219,0.069250,-0.023318,-0.065076,0.091675,-0.036788,0.009437,0.087228,-0.044969,0.063379,-0.001543,-0.108665,-0.071589,0.007100,-0.057846,-0.057570,0.053717,-0.044789,-0.015410,0.087895,0.006144,0.105110,-0.057096,0.017155,0.040664,0.063533,-0.003788,-0.062026,0.030599,0.039102,-0.029029,0.086500,-0.019436,0.064353,0.033995,-0.002264,0.034307,0.005504,0.027420,0.000233,0.015900,-0.108559,-0.068360,0.014924,-0.028299,0.056058,0.090275,-0.050177,-0.090863
0.048877,-0.052287,-0.037783,-0.101139,0.039790,-0.038200,0.076249,-0.054695,0.017737,0.042861,-0.020107,0.085982,0.063341,0.054367,0.002971,0.047876,-0.013298,-0.069515,0.118168,0.019614,0.067715,0.024518,0.082068,0.016372,-0.046313,0.048713,0.122570,-0.073298,-0.026717,0.004596,-0.014251,-0.001582,-0.067064,-0.016629,0.074761,0.056550,0.027766,-0.001320,0.006502,-0.075244,0.040025,0.077128,-0.004563,-0.032375,0.006367,0.046035,0.030381,-0.071587,0.066996,0.005729,-0.051280,-0.058801,-0.028461,-0.079788,-0.008641,0.037922,-0.053375,-0.060407,-0.024016,-0.003878,0.063360,0.068870,-0.024227,-0.045161
0.049100,-0.024852,0.002793,-0.049984,-0.013539,0.023869,-0.020173,0.063820,-0.064152,-0.030119,-0.061389,0.021602,-0.023160,0.086930,-0.031622,-0.100493,0.108909,0.030056,-0.007070,-0.058268,0.033915,-0.042142,0.100971,-0.106184,0.077229,-0.019036,-0.064686,0.064317,-0.044410,-0.046312,0.015433,-0.087052,-0.016079,-0.004862,-0.102377,-0.062022,0.049623,-0.081899,-0.018431,0.010652,0.030360,-0.091184,0.068342,-0.097105,-0.060194,-0.027301,0.095283,-0.086327,-0.062399,0.063508,0.037974,-0.002912,0.041508,-0.003964,0.071557,-0.014831,0.059494,-0.056544,-0.037412,0.074849,0.068740,-0.048549,0.038912,0.068670
0.108738,0.084109,-0.045188,0.057323,-0.005755,-0.088540,-0.069562,0.001229,0.063962,0.005853,-0.011361,0.009179,-0.024668,-0.016412,0.100124,0.106481,-0.082540,0.055753,0.052894,0.046606,0.094131,0.011982,-0.077108,-0.075168,0.048316,-0.113055,0.054729,0.028835,-0.083560,-0.040266,0.003396,-0.002471,-0.053090,0.021806,-0.050031,0.170776,0.044847,0.053653,0.011416,0.025419,-0.041781,-0.087397,-0.002114,-0.006936,0.078711,-0.031428,0.075952,0.096326,-0.016637,-0.012696,0.080488,0.003088,0.008784,0.053288,0.092875,0.056213,-0.073375,0.012023,-0.036651,0.003684,-0.028891,-0.040470,-0.036840,-0.086602
0.075471,-0.015891,-0.117696,-0.007715,-0.103195,-0.054544,0.013453,-0.035829,0.044366,-0.017044,0.010262,-0.016305,0.034662,0.075778,-0.050485,-0.026827,-0.093030,-0.015672,0.011588,0.064186,0.088527,-0.022891,-0.118131,0.028795,0.023438,0.070464,0.038191,0.088565,-0.054281,0.056518,-0.007627,0.036411,-0.090681,-0.058867,0.097269,0.064851,0.088129,0.000785,0.057494,-0.073680,0.010079,-0.021865,-0.032161,0.093660,0.049324,0.000847,-0.015482,-0.080367,-0.069915,0.027013,0.089687,0.038399,-0.095123,0.039601,0.040002,-0.001704,-0.037922,0.073413,-0.031404,0.096599,0.046425,-0.017108,-0.002795,-0.035340
0.037132,0.054442,-0.060784,0.047836,0.003533,-0.012196,-0.080709,-0.045978,0.025328,0.059706,0.015876,0.088652,-0.046100,-0.070291,0.053466,0.036319,-0.068128,-0.031958,-0.006765,0.008753,-0.030319,-0.038657,-0.078422,-0.033164,0.078878,0.013219,-0.047804,0.046413,0.038946,0.027640,-0.002064,0.085145,-0.075057,0.100536,-0.000056,0.069708,-0.002537,0.055242,-0.030810,0.003189,0.074570,-0.025254,0.056494,-0.013048,-0.022600,-0.127626,0.065780,0.091350,-0.106447,-0.001171,-0.020062,-0.011947,0.040104,-0.024829,-0.012407,0.053484,-0.116192,-0.065076,0.018103,0.007194,0.099928,0.070734,0.046904,-0.034589
-0.043496,-0.050812,0.043344,0.093282,0.054170,-0.036222,0.062434,-0.016552,-0.008811,-0.059134,0.066699,-0.015106,-0.014378,-0.008000,-0.031882,-0.054131,0.011084,0.010574,-0.081481,0.026243,0.067862,-0.029440,0.015801,0.115739,0.010633,0.145143,0.054716,-0.048285,-0.015925,-0.044320,-0.019751,-0.041803,-0.062199,0.038991,-0.059815,0.024215,0.046785,-0.043168,-0.000043,-0.007027,-0.049325,0.021383,0.031069,0.068471,-0.018675,0.035267,-0.032082,-0.015098,-0.037548,-0.058967,-0.009475,-0.059114,-0.019594,-0.002866,0.077787,-0.030254,0.002715,-0.058306,0.109691,0.004631,-0.061365,-0.041998,-0.047273,-0.055245
0.062030,0.050557,0.031065,0.007456,0.067804,0.109892,-0.021136,0.106292,0.018401,0.014465,0.074686,-0.036025,-0.092886,-0.028273,-0.049211,0.013043,0.038597,-0.069065,0.054088,-0.004208,-0.016311,0.045012,0.042157,-0.025080,-0.006785,0.057979,-0.045815,0.023944,-0.027690,-0.026081,-0.003805,-0.062640,0.019772,-0.024932,0.093503,-0.096143,-0.014327,0.005068,0.026815,0.035193,-0.027483,-0.021576,-0.058730,0.028399,0.056706,-0.050084,0.039745,0.068277,-0.055651,0.025478,0.076457,-0.108951,0.013778,-0.101609,0.067148,-0.018182,-0.064290,0.051984,0.005345,-0.042237,0.078673,-0.049565,0.085221,0.028288
0.007670,0.001419,0.109243,-0.056048,0.001144,-0.061750,0.106101,0.010042,0.124310,-0.033458,-0.045367,0.001506,0.056698,0.005761,-0.007269,-0.010254,-0.020332,-0.052036,-0.090250,-0.008477,0.037492,-0.004763,0.044154,0.018331,-0.003680,0.026123,0.102649,-0.051336,0.003655,0.053438,-0.005098,-0.029359,0.030252,0.038214,-0.067594,-0.003627,-0.085673,-0.036704,0.025783,-0.110002,0.014734,0.029238,0.006781,-0.030337,-0.015431,-0.070933,0.019302,0.037758,0.044387,-0.000199,-0.004281,0.013326,-0.045900,0.005188,-0.091943,-0.014847,0.101992,0.003610,-0.108558,-0.056687,-0.106594,0.046794,0.087634,0.022529
0.093228,-0.036943,-0.038628,-0.061339,-0.146756,-0.037215,-0.010203,0.050321,-0.000312,-0.046982,0.041990,-0.034049,-0.066749,-0.074135,-0.056002,-0.127812,-0.033877,0.077777,-0.086776,-0.016281,0.017378,0.010899,-0.028174,0.073975,-0.091666,-0.015323,0.032815,-0.077244,-0.083561,0.109439,0.054029,0.012608,-0.045341,-0.021978,-0.098779,0.042502,-0.082830,0.042197,-0.046073,0.018826,-0.060467,-0.003794,-0.023409,0.008714,-0.051346,-0.129528,0.044262,-0.074816,0.026086,-0.083975,0.027797,0.049751,0.039627,0.069744,-0.068653,-0.019333,0.006992,-0.005899,-0.069741,-0.016516,0.064635,-0.004606,0.113389,0.060942
-0.027141,0.078259,-0.054271,0.027545,0.066046,-0.051179,-0.041127,0.022544,-0.017595,0.024881,-0.067526,-0.077310,-0.066338,-0.053207,-0.057513,-0.100656,-0.023754,0.055606,-0.078832,0.083402,-0.024010,0.025917,-0.035091,-0.051238,-0.083754,0.036614,0.036290,-0.031242,-0.106257,-0.039388,0.062385,-0.062189,-0.053244,0.077816,0.015491,-0.144922,0.040503,-0.055929,-0.071076,0.026916,-0.050704,0.060632,-0.025577,0.022236,0.006984,-0.016686,-0.002210,0.024349,0.032524,-0.005389,-0.052942,0.022570,-0.059846,0.056817,-0.046286,-0.000811,0.057873,-0.138042,-0.024529,0.018390,0.079805,-0.073487,0.126429,-0.019075
-0.102672,-0.041331,-0.061428,0.019175,0.047971,-0.065449,0.006421,-0.057466,-0.056010,0.009569,-0.086530,0.007985,-0.018165,-0.053414,0.109900,0.021771,-0.049222,-0.104116,0.111037,0.057941,-0.084748,0.027952,0.049313,0.029894,-0.051807,-0.027572,-0.054820,0.011058,-0.042616,-0.006196,-0.018977,-0.025154,-0.010079,-0.020217,0.072738,-0.013759,0.038455,-0.033465,-0.028634,-0.038565,-0.085384,-0.100144,-0.002526,-0.095120,-0.088247,0.001777,-0.017574,-0.023226,0.153117,-0.029863,0.082581,-0.018572,0.093750,0.008288,-0.037963,-0.039968,0.069620,0.013717,-0.028429,-0.135372,0.016940,0.027811,-0.013080,0.079237
-0.079430,-0.117488,0.140802,-0.026794,-0.041177,0.048992,0.030867,-0.045369,-0.037261,0.142403,0.103596,0.089697,0.052030,-0.014768,-0.044342,0.052144,-0.017703,-0.105756,0.116178,-0.010317,-0.053170,0.104339,-0.074810,0.059353,-0.004862,0.059873,0.040435,-0.023440,0.019336,-0.060155,0.073625,0.017478,0.034857,0.096146,0.041977,-0.077129,0.035314,-0.038422,0.081017,0.002997,-0.000562,-0.091680,0.000621,-0.089550,0.062697,-0.019638,0.012880,-0.018562,-0.051801,0.022711,-0.074435,0.075372,0.052962,0.097231,0.043612,0.011005,-0.049979,0.061324,-0.080474,0.020848,-0.053133,-0.063924,-0.072155,0.041836
0.036827,-0.015696,-0.049790,0.019157,-0.025355,0.054133,-0.053446,-0.071648,-0.113456,-0.026482,0.017080,0.035811,0.021766,-0.054409,-0.037210,0.006192,-0.003090,-0.029255,-0.020286,-0.014323,-0.035956,-0.041599,-0.112522,-0.068492,-0.081510,0.034998,-0.027647,-0.045333,-0.020119,0.002641,-0.028155,0.154990,-0.025807,-0.029339,-0.092783,-0.007159,0.110492,-0.232267,0.021157,-0.021148,-0.020915,0.024459,0.091194,-0.060517,-0.013865,-0.119252,-0.089289,0.018681,-0.001305,-0.045837,-0.073834,-0.012462,0.027589,0.027811,0.041567,0.077800,-0.031257,0.015079,0.089371,-0.000353,0.076349,0.060903,-0.069675,-0.011966
0.066774,0.007266,0.086598,-0.052889,-0.075109,-0.079925,-0.079072,0.074308,0.008848,0.024115,0.054731,0.067275,0.105571,-0.132794,-0.092148,-0.106605,-0.032786,0.097002,-0.012867,0.088433,-0.064915,0.094385,0.084986,-0.041400,0.048690,0.000192,-0.047318,0.002024,-0.007719,-0.135756,-0.040454,-0.021612,0.060018,0.087666,0.016847,-0.072143,0.073778,-0.007983,-0.058969,0.004106,0.014155,-0.043770,-0.140765,-0.058275,-0.005156,0.005657,-0.045082,-0.154387,0.088839,-0.077272,0.048260,-0.037908,-0.064901,0.038567,-0.068045,0.078176,-0.028848,0.003287,0.094656,-0.056067,0.035023,0.076995,-0.097884,0.053984
-0.028655,0.053802,0.075113,-0.033389,0.014880,0.011567,-0.012761,-0.060382,0.050361,0.104609,0.083193,0.066079,0.085295,0.141091,-0.001583,0.100152,0.153546,-0.039687,-0.086779,-0.039274,0.038005,0.010869,0.007283,-0.043156,0.017526,0.078189,0.060379,-0.042807,-0.014879,-0.076743,0.028811,-0.042480,0.068828,-0.029628,-0.019472,-0.014624,0.115425,0.065482,-0.043353,0.038309,0.080408,-0.083727,-0.055711,-0.020421,-0.071963,-0.080413,0.000949,0.006396,-0.045493,-0.084810,-0.073719,0.041417,-0.085991,0.088750,-0.036454,-0.101047,-0.024043,0.024394,-0.032738,-0.143982,-0.052781,0.060890,0.047540,-0.057407
0.085951,-0.092513,0.123506,-0.034011,0.119432,-0.067666,0.038720,-0.031334,0.046680,0.044767,-0.007913,-0.128021,-0.093748,-0.016956,-0.026502,0.037608,-0.084928,0.027111,0.060156,0.123564,-0.085306,-0.012079,-0.041679,0.019530,0.010584,0.023253,-0.039987,-0.012830,-0.070989,-0.111273,0.021948,0.050375,-0.049113,0.005813,-0.056061,0.028757,0.072584,0.044192,-0.044455,-0.058057,0.011248,-0.035091,0.027882,-0.011372,-0.012193,0.093532,0.006239,0.067068,-0.022045,-0.018456,-0.139719,0.008065,-0.070331,0.092499,0.038360,0.066377,0.045633,-0.026439,0.077410,-0.106025,0.010290,-0.075215,-0.086559,0.057900
0.031091,0.013346,-0.079071,-0.119604,0.040498,0.097442,-0.042499,0.003265,-0.031129,0.075775,-0.021639,-0.042752,-0.075773,0.056878,0.001970,0.093602,-0.012531,0.032072,-0.029066,0.046355,-0.013344,-0.050889,0.060127,-0.066373,0.060995,-0.026183,-0.024354,-0.020727,-0.077212,0.011896,0.062319,0.060153,-0.003055,-0.025810,0.062709,-0.021753,0.002198,-0.023346,-0.131101,0.008794,-0.053904,0.028575,-0.036682,0.028126,-0.056357,-0.054335,0.013748,-0.103279,0.012756,-0.066527,-0.007463,-0.055142,0.074268,0.043396,-0.036205,-0.009591,-0.059824,-0.099316,-0.031224,-0.063185,-0.002604,-0.084365,-0.029802,-0.062715
0.026478,-0.048596,0.017575,0.088424,0.023352,0.021077,0.070675,-0.030703,0.012844,0.023725,0.036810,-0.027842,0.008428,-0.019373,0.027916,-0.009333,0.022589,-0.042230,0.003317,-0.085505,0.049274,0.046314,0.048775,-0.013567,0.025002,0.051081,-0.057266,-0.061915,-0.080948,-0.052017,0.009761,-0.074597,0.110010,0.011477,0.049115,0.029937,0.049151,0.018656,0.056881,0.012126,-0.005715,0.052571,0.031817,-0.013996,0.025390,0.051134,-0.071070,-0.039971,0.071257,-0.029314,0.004803,0.018541,-0.040982,0.046945,-0.021724,0.017222,-0.022647,0.081141,0.039644,-0.053337,-0.091867,-0.058703,-0.006798,0.031524
0.035050,0.022342,-0.076147,-0.048579,0.001059,-0.016022,-0.046806,-0.091430,0.078675,-0.018341,0.087565,0.003888,-0.071883,0.017119,-0.056777,0.017593,-0.048056,0.015347,-0.004856,0.021468,-0.046133,-0.064117,0.127520,-0.074634,0.046913,-0.003215,-0.018607,-0.045112,-0.085842,-0.083055,-0.040608,-0.022334,0.057118,0.058616,-0.073819,-0.094938,0.013915,-0.044002,0.000840,-0.065711,0.017210,-0.039052,0.023872,-0.024984,0.062172,-0.026382,0.007542,-0.000535,-0.049100,-0.020641,-0.023171,0.028420,0.004957,0.040909,-0.066283,-0.101544,0.140109,0.059036,0.003606,0.042553,-0.052829,0.007487,0.018515,0.098298
0.009892,-0.004133,-0.036874,0.013697,-0.073759,-0.043687,-0.036163,-0.056102,0.106286,0.056658,-0.022312,-0.007474,-0.008914,-0.007063,-0.022739,0.067780,0.086993,-0.034719,0.087664,-0.025202,0.100681,-0.021645,-0.008104,0.047510,-0.029232,-0.077495,0.031824,0.007235,-0.067762,-0.069376,0.028407,-0.067820,-0.048222,-0.051434,-0.079063,-0.085066,0.053477,0.073526,-0.017384,-0.072337,0.076944,0.065837,-0.058321,0.086214,0.013829,0.010234,-0.060704,0.018933,-0.004428,0.045223,0.008950,0.028805,0.069987,-0.018705,0.020136,0.062310,0.123903,-0.044370,-0.040396,-0.073195,-0.013960,-0.001011,0.017766,0.107463
0.051947,-0.065948,0.015464,-0.028497,0.022323,0.071438,0.039616,-0.005174,0.099013,-0.007028,0.020883,-0.097463,-0.003164,0.031564,-0.022664,0.014778,0.016869,-0.065235,0.026510,-0.010254,0.004934,-0.130433,-0.136108,0.035317,0.044623,-0.019931,-0.019585,0.087407,-0.005116,0.074619,0.058361,0.077122,-0.015559,-0.093502,-0.048445,0.009646,0.028981,-0.055519,-0.034448,0.040726,0.126403,-0.011289,0.043740,0.030208,0.030236,-0.046493,-0.029330,0.021007,-0.021503,-0.039629,0.053114,0.025307,-0.084313,-0.056778,-0.038346,0.061195,-0.036838,-0.003794,0.017367,-0.122786,0.001497,0.074843,0.118217,-0.029626
-0.051288,0.027823,-0.040867,0.043561,-0.059330,0.027978,-0.019543,0.018700,0.088231,-0.073171,-0.046896,-0.073575,-0.063734,-0.020350,-0.082559,0.035420,-0.074010,0.030629,-0.061801,0.077763,0.048727,0.030474,0.026074,0.080512,0.011686,-0.001566,0.007521,0.074030,-0.078940,-0.065637,0.007325,0.019703,-0.077783,-0.010382,-0.014971,-0.055781,0.079399,-0.074463,0.044219,-0.027836,0.023516,-0.031835,-0.031074,0.080621,-0.018540,0.076923,-0.011776,-0.059717,0.031502,0.045719,-0.156735,-0.024129,-0.003358,-0.053059,0.023822,0.039299,0.056661,0.019332,0.070139,0.041748,-0.012717,-0.054235,0.004150,0.019758
0.012647,-0.051176,-0.074032,0.021196,-0.066775,0.005322,-0.029355,0.075789,-0.012802,-0.079880,0.023892,0.046943,-0.024449,0.021546,-0.020825,0.006304,0.012112,-0.039912,0.066676,0.001146,-0.012186,-0.002984,0.032759,-0.096520,0.091506,-0.049228,-0.010179,-0.059047,-0.047118,0.038268,-0.000359,0.041140,-0.055256,-0.052298,0.000816,0.009378,0.031968,-0.037852,0.065902,0.075184,-0.062734,-0.042106,0.035629,-0.067388,0.060946,0.030388,-0.025371,0.027487,-0.012065,-0.013718,-0.052702,-0.027509,-0.041554,-0.132759,0.083489,-0.032147,-0.051422,0.029541,0.048360,-0.069162,-0.058570,-0.039543,0.065302,0.010428
0.077998,-0.022834,-0.022052,-0.017307,-0.024815,-0.047763,-0.010688,-0.035213,-0.028374,0.010556,0.036633,-0.000143,0.039240,0.053867,0.032082,0.089042,0.049383,0.004104,0.078515,-0.063704,0.021827,0.073645,-0.057122,-0.027373,-0.019738,0.072996,0.008612,0.114939,0.003273,0.034927,-0.057564,0.021743,-0.030935,-0.031534,-0.063112,0.056762,0.050790,0.043903,0.006770,-0.070400,0.046995,0.002666,0.059866,0.006439,-0.000331,0.061157,0.026222,0.000523,0.074857,-0.037268,0.039230,0.056066,-0.046379,-0.041593,-0.022453,-0.053126,-0.087975,-0.006807,-0.053347,0.077624,0.052885,0.098938,0.024878,0.035994
-0.012236,-0.075803,-0.012879,-0.014758,0.024007,0.070154,-0.029747,0.066411,-0.062970,-0.045021,0.028758,-0.010778,-0.058475,-0.015925,0.013956,-0.056288,0.032898,0.048269,0.020869,-0.045806,-0.014176,-0.037676,0.057026,-0.112043,0.020597,0.036191,0.090282,-0.002417,-0.088349,0.072899,0.004116,0.003019,0.020578,0.075235,0.075984,-0.016675,0.019106,-0.012303,-0.052164,-0.089115,-0.019378,-0.019713,-0.056049,0.009342,-0.023733,-0.032859,0.073389,-0.002450,0.037439,0.047015,-0.073242,-0.014668,0.067318,0.034258,-0.057804,-0.116767,-0.020872,-0.023879,-0.064583,0.025195,-0.084714,0.031035,0.047812,0.044728
-0.038840,-0.074302,0.072112,-0.063232,-0.054578,-0.025530,0.027953,-0.031264,0.057182,-0.068820,-0.038246,-0.114991,-0.054248,-0.057046,0.040607,-0.020497,-0.046856,-0.008275,0.045507,0.073335,0.108817,0.011741,-0.037288,-0.037402,0.051707,0.096495,0.010945,0.071867,-0.068899,-0.007676,-0.018094,-0.049618,-0.045632,0.084475,-0.044188,0.038218,-0.020516,-0.026683,-0.075706,-0.046818,-0.058846,0.095792,-0.033730,-0.015070,0.015623,-0.066035,0.022431,0.060313,0.012835,-0.036023,-0.029071,-0.033306,-0.030821,-0.113955,0.011250,-0.043714,-0.001859,-0.011199,0.071022,0.065420,0.046519,-0.049865,-0.026578,0.013803
-0.019057,0.076402,-0.033394,-0.021953,0.008655,-0.021273,0.019794,0.043706,0.043178,0.039792,0.010410,-0.063329,0.061816,0.020453,-0.042686,-0.001680,0.006291,0.037099,0.109400,0.069836,-0.086655,0.038171,-0.001559,0.019383,-0.121574,0.055249,-0.098465,0.009917,0.019698,-0.001340,-0.011835,-0.019739,0.019921,-0.040223,0.040350,0.023169,-0.038358,0.008119,-0.053045,-0.025850,-0.017601,-0.059704,0.046439,-0.061021,-0.049729,0.091776,0.057251,0.053186,0.051075,-0.062313,0.012946,-0.002626,-0.053820,0.078012,-0.005250,-0.008276,0.052517,-0.060682,-0.028633,0.059411,-0.059757,-0.086459,-0.061500,0.003219
0.111388,0.078808,0.070537,-0.022424,0.111035,0.041552,-0.016894,-0.088158,-0.005603,-0.108802,0.085835,-0.062677,0.029359,-0.033815,-0.060164,0.060917,0.106671,0.056277,-0.074018,-0.021373,0.021217,0.175042,-0.016753,-0.048061,0.027100,0.033683,0.028230,0.068745,-0.052285,-0.045830,0.075002,0.106925,-0.009217,-0.003217,-0.041361,0.055419,0.001386,0.009998,-0.039740,-0.010062,-0.013868,0.041308,0.075720,-0.079836,0.036031,-0.012550,0.011916,0.011989,0.059952,0.029721,0.018251,0.051109,0.118422,0.058282,-0.039616,0.026257,0.018758,-0.045078,0.038119,0.001241,0.019175,-0.040066,0.062613,0.053357
0.074382,-0.009325,0.090602,0.023200,0.074812,0.026711,-0.103698,0.032175,-0.084078,0.042274,-0.135705,0.025420,-0.076253,0.010197,-0.063517,-0.059094,-0.079215,0.044950,0.008964,0.017840,-0.017011,0.027490,0.045189,0.044080,-0.044084,0.104777,-0.054525,0.030472,-0.005230,0.060595,-0.001319,0.029825,0.043150,0.071119,-0.095793,0.009236,0.099651,-0.012043,-0.066151,0.003896,-0.091524,0.089147,-0.019775,0.000008,-0.065059,0.079483,0.085045,0.056034,0.014961,0.014493,-0.006166,-0.086713,0.102395,0.053856,-0.060245,-0.057171,0.055391,0.060560,0.054087,-0.015871,0.029607,0.005600,0.050945,0.066151
0.074736,-0.072018,0.011011,-0.020936,0.099371,0.017133,-0.073476,0.008657,-0.075133,-0.119535,0.041843,0.004821,0.009118,-0.039702,0.069243,-0.072712,0.078866,-0.112281,-0.063998,0.111236,-0.004903,0.012314,0.094287,0.045176,-0.115121,0.026537,0.015914,0.019139,0.023568,-0.001101,0.115252,-0.004632,0.008970,-0.071776,0.066294,0.083789,-0.037713,-0.070422,0.010749,-0.084694,-0.024460,-0.044939,-0.077860,0.048328,0.046584,-0.069539,-0.011472,-0.038264,-0.042439,-0.113405,-0.112335,0.103499,0.105211,0.022893,0.042683,-0.017239,0.102605,-0.012976,0.054645,0.091494,0.073430,-0.038933,0.048263,0.033769
-0.046178,0.008738,-0.017173,0.114186,0.089760,-0.014284,0.097322,0.014922,0.054245,-0.031654,0.006033,-0.035458,-0.079404,-0.066552,0.108009,0.032856,0.035843,0.022684,-0.040058,-0.013143,0.011531,0.128412,-0.015745,0.004823,-0.034731,-0.030473,0.017297,-0.059450,-0.022753,-0.038556,0.100249,-0.086096,-0.025813,-0.040903,0.061896,-0.004118,0.015550,0.126800,0.015644,-0.087484,-0.076966,-0.082115,0.117923,-0.002880,0.015033,-0.018786,0.017377,-0.034258,-0.064534,-0.095006,-0.042955,-0.053560,0.060859,0.056263,-0.082198,-0.023277,0.020452,0.036298,-0.110445,-0.102473,-0.004107,-0.067153,-0.047419,0.075647
0.096073,-0.021215,0.095653,0.011221,0.060233,0.047130,0.038913,-0.099122,0.019561,0.022291,-0.077722,0.056479,0.003275,0.147450,-0.045167,0.022116,0.036325,-0.004491,-0.051736,0.009737,-0.079539,-0.016601,0.010316,-0.005300,0.056286,0.052751,0.001017,-0.054188,0.064616,-0.005778,-0.014681,-0.014625,0.057150,-0.051520,-0.034234,0.002204,-0.037124,0.110460,-0.114297,0.012756,-0.014337,0.082633,0.012310,0.080258,-0.015174,0.078249,-0.046421,0.073772,0.064935,0.049105,0.015033,0.075525,-0.013324,-0.016032,-0.062690,-0.113402,-0.047482,0.104005,-0.067925,-0.118241,-0.075046,0.013276,-0.083146,-0.074523
0.075672,0.041793,0.037791,0.024606,-0.013103,0.003234,0.025746,0.004397,0.031120,0.119847,-0.020418,0.062117,-0.003610,-0.005411,0.007078,-0.053722,0.075800,-0.001360,-0.085318,-0.051970,-0.072573,-0.101584,0.092488,-0.061083,0.117767,-0.015723,-0.027583,0.080793,0.017966,0.030933,-0.088848,-0.048253,0.041154,-0.048744,0.004506,0.025501,0.017904,-0.037327,-0.004314,-0.028235,0.070235,0.011044,-0.069162,-0.019976,0.058460,0.042303,-0.026597,-0.035217,0.071839,0.070228,-0.026983,0.031579,-0.048670,0.027404,0.033996,0.122897,-0.035953,-0.030884,-0.052218,-0.108476,0.124548,-0.072368,-0.022486,-0.100669
0.022064,-0.102563,0.023356,-0.054601,-0.012275,-0.016258,-0.031929,-0.075189,-0.042305,0.082213,0.058336,-0.056554,0.035523,0.042407,0.064841,-0.020992,-0.027695,-0.086388,-0.003439,0.028160,-0.021734,0.005044,0.066610,-0.106636,-0.010129,0.063752,-0.003779,0.013701,-0.021375,0.081908,-0.033876,0.021779,0.035008,-0.013546,0.006742,0.017885,0.028601,0.041260,0.029071,-0.069182,-0.042116,0.002670,0.047354,0.060971,0.089182,-0.065045,-0.019608,-0.002534,0.024408,0.076331,-0.028807,0.008085,0.066649,-0.016597,-0.116406,0.035363,-0.055263,-0.041266,0.000573,-0.076785,0.036734,0.022843,0.074885,0.010321
-0.073813,-0.049269,-0.006685,0.031229,-0.007730,-0.049973,-0.045632,0.023630,-0.050307,-0.066297,-0.017829,-0.038091,-0.012185,0.085027,0.027355,-0.053851,0.002638,-0.062622,-0.033288,-0.024656,-0.002946,-0.042400,0.052528,-0.013951,0.130331,-0.021963,0.012889,0.059773,-0.043610,-0.024423,0.022373,-0.025830,-0.018666,0.079760,0.046304,0.059739,0.033400,-0.004437,0.004235,-0.073125,0.053818,-0.056276,-0.006672,-0.013082,-0.035274,0.029385,0.019058,-0.037779,0.075393,-0.121423,0.037425,0.043111,-0.065429,0.023656,-0.059819,-0.057534,-0.099096,0.063073,-0.037273,0.010285,0.068777,-0.040612,-0.006061,0.012435
-0.121206,-0.072062,-0.047196,0.050345,0.009418,0.059103,-0.027848,0.013789,-0.043396,0.034419,0.051920,0.079054,0.008898,-0.035628,-0.002965,-0.060465,-0.006006,0.113342,0.033307,-0.069082,-0.006006,-0.094122,-0.019931,0.037794,0.047746,-0.036230,-0.028454,0.059748,-0.102806,-0.047858,0.019528,0.023599,-0.007391,0.046643,-0.071282,0.085309,0.031074,-0.089170,0.046832,-0.085704,0.058124,-0.002789,0.050328,-0.022218,0.048931,0.043184,-0.072632,-0.064930,-0.059624,-0.025408,0.046487,0.038935,-0.074020,-0.065346,0.013446,0.041061,-0.038725,0.023790,0.037385,0.051592,-0.074137,0.036306,0.023371,0.030718
-0.053291,-0.086271,0.072149,0.078045,-0.032776,0.099298,0.021958,-0.073900,0.016551,-0.011005,-0.005196,0.022517,0.006532,0.072607,0.053753,-0.083592,0.040916,0.002480,0.042157,0.045793,-0.076322,-0.092318,-0.046264,0.026290,0.069450,0.068466,-0.093741,0.083062,-0.041180,0.033027,-0.003405,0.008764,0.069904,-0.035939,-0.003720,0.181236,-0.014748,0.015953,0.002166,0.058935,0.120465,0.096773,-0.086049,0.046596,-0.024662,0.027858,0.095211,0.040474,0.106129,-0.000399,-0.023779,0.001501,0.031466,-0.020648,-0.058553,-0.034703,-0.087281,0.015811,-0.050712,0.005918,-0.037373,0.039443,-0.027088,0.016289
0.040915,-0.047622,0.017437,0.030822,-0.002593,-0.058565,-0.025756,-0.098532,-0.050146,-0.017052,0.005455,-0.019336,-0.011787,-0.028804,0.034178,0.004142,0.109027,0.008950,0.109244,-0.045204,0.007369,0.051154,0.056905,-0.043482,-0.038473,-0.014011,-0.041576,0.054230,0.059934,-0.067181,-0.045728,-0.084300,-0.019167,-0.006799,-0.005477,0.109045,0.014115,0.018397,-0.008918,0.049784,0.073152,-0.037184,0.014473,-0.074431,-0.033719,0.028026,0.043888,0.016715,0.060844,-0.007160,0.009087,-0.008616,-0.048504,-0.092561,-0.015222,-0.010341,-0.047316,0.017116,-0.038675,-0.036694,-0.034122,-0.061989,0.020236,0.043787
-0.031167,-0.071856,-0.020657,0.010381,-0.078874,-0.045656,0.016832,-0.060381,-0.016104,0.008465,-0.072916,0.107408,0.038241,0.048788,0.104751,0.107929,0.030443,-0.016649,0.054887,0.020290,0.019965,-0.011482,0.162690,-0.079727,0.032022,0.038890,0.052501,-0.014057,-0.003903,0.051095,-0.042989,0.085487,-0.044283,0.078656,0.015901,0.039012,0.065832,0.035829,0.002949,0.048721,-0.003590,-0.002861,-0.092273,0.007076,0.049537,0.035977,-0.052670,0.093408,-0.044042,-0.049316,-0.023575,-0.018832,0.020258,-0.023304,0.038021,0.052782,0.074021,-0.051348,0.072329,-0.047265,-0.084098,0.024299,0.009674,0.109285
-0.010825,0.048525,0.177607,0.015085,-0.065546,-0.017595,0.030176,0.049367,0.114192,-0.031123,-0.002639,0.023075,0.005081,-0.003061,0.038631,-0.095595,-0.033242,-0.013140,0.094087,-0.078268,-0.063174,0.034649,0.022516,-0.106114,-0.038146,0.020069,0.025014,0.062984,-0.059003,-0.020991,0.007546,0.025723,-0.075437,-0.035615,-0.014057,0.015826,0.023034,-0.074134,-0.061417,-0.015539,0.024759,0.068420,-0.097384,-0.094365,-0.082718,-0.013890,0.021242,-0.041329,0.057939,0.061977,0.032558,-0.035033,-0.069777,-0.058294,-0.063504,-0.004135,0.037921,0.079107,-0.073425,0.130609,-0.002115,0.051820,-0.030440,-0.052719
0.108486,-0.060399,0.098352,-0.059797,0.041729,0.092676,0.009300,0.027326,-0.037003,0.056860,-0.024398,-0.058305,-0.029454,-0.034934,0.033248,-0.048262,-0.088737,-0.053332,-0.055314,-0.070218,-0.054268,-0.002758,0.092119,-0.058592,-0.068251,-0.028430,0.033305,-0.026085,0.039298,-0.088096,0.033610,-0.137984,0.010302,0.001602,0.038872,0.107947,-0.032908,0.063009,0.067807,-0.111946,0.062262,-0.031328,0.013059,-0.126252,0.056606,-0.016742,0.007679,-0.014669,-0.001662,0.085169,-0.033793,0.013097,0.087273,0.015713,-0.077418,0.016093,-0.042414,-0.011552,0.030239,-0.019530,0.046702,-0.022169,0.109684,0.032273
0.014800,0.071086,0.039248,0.031255,0.032890,-0.029218,0.045564,0.042457,-0.014401,-0.006025,0.012499,0.037733,-0.062277,0.008100,0.081064,0.123550,0.035016,-0.032474,-0.012271,0.023916,0.002472,0.006070,0.001419,-0.000061,-0.056063,0.038657,-0.037132,0.050990,0.064579,-0.109561,-0.045337,-0.064978,-0.018922,0.049618,0.042039,0.064726,0.048256,-0.003143,0.007519,-0.057473,-0.021296,0.075398,0.017441,-0.099798,-0.047857,-0.100446,0.046173,-0.091213,0.069570,0.045132,0.069090,-0.021492,-0.043151,-0.105471,0.022654,-0.089375,0.014336,-0.018809,0.001912,0.036295,-0.096886,0.018590,0.082475,-0.018129
0.037206,-0.037567,0.018521,0.009362,0.105745,-0.049600,-0.033829,0.052589,-0.008436,0.020366,-0.097269,0.025020,-0.025593,-0.011187,-0.101622,-0.057102,-0.040085,0.105640,0.102155,-0.025631,-0.066337,-0.091700,-0.076498,0.040084,-0.096249,-0.074029,-0.080324,0.010652,0.084024,0.042213,-0.062795,0.026686,0.039521,0.028955,0.055631,-0.016598,0.120089,0.093890,0.049065,-0.086326,0.070610,0.051991,-0.002830,-0.033916,-0.083794,0.036891,0.043779,0.135443,0.017016,0.045498,0.008218,-0.017852,0.021554,0.013565,0.028681,0.001371,0.034551,-0.033956,-0.032649,-0.061634,-0.063974,-0.090502,-0.095791,-0.040802
0.030789,-0.002606,-0.067579,0.017132,0.008798,0.087288,-0.007199,-0.069843,-0.059744,-0.092888,0.006226,0.068061,-0.022965,0.035036,0.000154,0.057405,-0.026288,-0.006058,0.045663,-0.065930,0.059576,0.027819,0.044469,0.052378,-0.020641,-0.057630,-0.069834,0.055344,-0.058224,-0.123435,0.066534,0.062996,0.017448,-0.042286,0.059080,0.074578,-0.025198,0.007935,0.067683,-0.078741,0.089283,0.002117,-0.096117,-0.100569,-0.079369,-0.015455,0.048863,0.065653,-0.079790,-0.071141,-0.106028,-0.071909,0.019742,0.096325,-0.027779,0.102308,-0.009714,-0.065022,0.040805,-0.114543,0.003333,0.040304,0.014278,0.083042
0.010426,0.063785,0.040897,-0.033847,-0.092696,-0.069013,-0.011992,-0.060367,0.037346,-0.027871,-0.084124,-0.033705,0.008680,0.043505,-0.136753,-0.015212,0.026746,-0.021619,0.038884,-0.052501,-0.016061,-0.024295,-0.057331,-0.002073,-0.052509,-0.006655,0.086408,0.053206,-0.003525,-0.046520,-0.087152,0.007280,0.058921,0.047173,-0.006077,0.015199,0.140019,0.042839,0.047891,0.034256,0.077659,-0.069969,-0.069821,-0.059334,-0.052080,-0.014040,0.046955,0.058046,0.046843,0.005693,0.159807,-0.072484,-0.049164,0.021549,0.096538,-0.079169,0.058059,-0.085166,0.116073,-0.103522,0.029037,0.042504,0.050258,0.064497
0.052028,0.010607,0.048078,-0.116207,-0.045798,-0.068476,0.044292,0.024229,0.039498,-0.051896,-0.083810,-0.017390,0.028693,-0.037101,-0.065629,-0.051103,0.045271,-0.026833,0.024002,0.074372,-0.047498,-0.060621,0.071192,0.004258,-0.095709,-0.032478,-0.045630,0.045352,-0.001278,-0.106736,0.122774,-0.087183,0.055148,0.072911,-0.045135,-0.042069,-0.092515,0.091340,-0.040114,-0.089181,-0.142492,0.080601,0.058886,-0.047000,-0.034208,-0.013999,0.097068,-0.019623,-0.076097,0.056296,0.076507,-0.009497,0.059631,0.035426,-0.045750,-0.019045,-0.032747,0.021027,-0.034869,-0.091811,-0.015002,-0.024713,-0.032956,0.062409
0.114897,0.059524,0.035892,-0.056887,-0.017575,0.021648,0.020843,0.029456,-0.034966,-0.076363,0.048808,-0.114256,0.066535,0.049760,0.059207,0.085016,-0.060408,-0.059433,-0.021116,-0.049714,-0.049242,-0.007503,0.038506,-0.018809,0.011266,-0.054897,0.049996,0.021173,-0.086343,-0.002147,0.046911,-0.073092,-0.015274,-0.084234,-0.060698,0.062665,-0.030070,0.083261,0.018198,-0.037901,-0.071612,-0.018375,0.064396,-0.112952,-0.024173,0.113669,0.114903,-0.032384,-0.054533,-0.013952,0.059424,0.031673,0.042387,-0.015281,-0.010329,-0.061354,-0.015795,-0.003842,-0.083827,-0.045939,-0.053270,0.060273,-0.164339,0.011206
-0.016372,-0.004497,0.008643,-0.075599,-0.134137,-0.065814,-0.007987,-0.012512,0.037627,0.024448,0.032435,0.103029,0.024106,-0.030545,-0.028381,0.019313,0.064293,-0.060836,-0.006007,0.025479,-0.029766,-0.010839,-0.119957,0.056317,0.002205,0.061862,-0.078264,0.091805,0.015547,-0.044586,-0.004880,0.009830,0.069937,0.028737,-0.054109,0.040752,-0.085181,0.016835,-0.035916,0.039443,-0.027752,0.023109,-0.016272,-0.025993,-0.001506,-0.045100,-0.041940,-0.085925,-0.031141,-0.037585,0.000612,0.107136,-0.020431,-0.002556,-0.095873,-0.097699,-0.015652,0.005183,-0.065320,-0.158777,0.067461,-0.053812,-0.017298,-0.108154
-0.076259,-0.066751,0.036775,0.076431,-0.054367,-0.006775,0.074250,0.044458,0.064087,0.050785,-0.008875,0.044607,-0.029131,0.037478,-0.113800,-0.070714,-0.026989,0.013573,-0.017625,-0.050594,-0.056416,-0.049387,-0.070432,0.017666,-0.012204,0.050529,-0.035910,0.063618,0.008459,0.043875,0.016337,0.007026,-0.069793,0.099700,-0.070372,0.076353,-0.076188,-0.027114,-0.013385,-0.036032,0.018240,-0.023838,0.009743,-0.002345,0.037785,-0.017169,0.038681,0.060049,0.027918,0.015040,0.044194,-0.018932,0.046197,-0.064565,-0.051767,0.043850,-0.036891,0.014683,-0.052640,-0.078074,0.063199,-0.000073,-0.018533,-0.071722
-0.032379,-0.080599,0.012946,-0.042650,0.069476,-0.086277,0.027146,0.077703,0.087308,0.017287,0.029820,-0.019075,0.067502,0.016144,-0.036908,0.047340,-0.059798,-0.055536,0.066994,0.065701,0.039724,-0.068918,-0.038560,-0.061762,0.046313,0.000077,0.041304,0.041932,0.065483,0.005091,0.048547,0.026413,-0.040468,-0.086243,0.004499,0.019415,0.009508,-0.077572,-0.041343,0.086428,-0.014309,-0.027157,-0.052818,0.090089,-0.082972,0.035792,-0.055579,0.077334,0.053180,-0.060582,0.059343,0.082340,-0.005499,-0.077670,0.055346,-0.010644,0.053412,0.016889,-0.019937,-0.028999,0.112863,0.033747,0.045395,-0.052787
-0.077380,0.033548,0.043792,0.034355,-0.000492,-0.039858,-0.022167,0.075621,0.029857,-0.005879,0.027852,0.082970,-0.036506,0.053243,-0.083605,-0.082800,0.045417,0.053977,-0.044641,-0.001247,-0.055907,0.021446,-0.047917,0.093120,-0.039268,-0.025572,0.037555,0.086859,0.050527,-0.043545,-0.053613,0.011104,0.036497,0.029692,0.003190,-0.119523,0.053489,-0.037403,0.030965,-0.066374,0.036689,0.002171,0.061149,0.048479,0.016392,-0.061942,-0.046247,-0.052310,-0.015183,0.044293,0.047727,0.016015,0.119582,-0.080531,-0.073116,-0.034459,0.017569,-0.063785,-0.021746,0.012941,0.046660,-0.032646,-0.035569,-0.033918
0.002246,-0.078254,-0.035623,-0.053459,0.020306,0.069418,-0.004242,-0.045860,0.051798,-0.003786,-0.046841,0.019743,0.024050,-0.049370,0.163641,0.074580,-0.022697,0.002263,0.047914,0.036360,0.023398,0.044626,0.024017,0.150294,0.014878,0.050152,0.024083,0.064904,-0.020775,-0.072790,-0.062046,0.009990,0.021368,0.021340,-0.025400,-0.043623,0.067817,-0.054336,-0.080030,0.080422,0.082827,-0.043982,0.049631,-0.013464,-0.030256,0.061909,-0.092033,0.015059,0.017176,-0.001306,0.038437,0.045475,0.035212,-0.050155,-0.018364,0.014021,0.004870,-0.002440,-0.084772,-0.015513,0.072137,0.008947,-0.042837,0.006231
-0.103298,-0.017850,-0.078449,-0.053433,0.091321,0.019002,0.025886,0.081318,0.018140,0.059318,0.071714,-0.093181,-0.006057,0.050536,-0.028039,-0.051438,0.073203,0.090780,-0.047973,-0.028745,-0.101558,0.014281,-0.044895,0.059773,-0.024102,-0.049291,0.005649,-0.049037,-0.001789,-0.054889,-0.044216,0.027157,-0.012073,0.015569,-0.086116,0.082634,-0.143440,-0.051752,-0.051910,-0.119856,0.068312,-0.039726,-0.026091,-0.010120,0.024734,-0.084543,-0.017171,-0.005844,0.036254,-0.039598,0.108669,-0.069750,0.062457,-0.023344,0.002854,-0.000146,0.048068,0.030608,0.032339,-0.034978,0.015667,-0.020963,-0.047923,-0.029122
0.001321,0.090935,-0.075713,0.029687,-0.001454,0.050894,-0.076656,-0.079067,0.047174,0.087752,0.001384,0.001876,-0.008375,0.027250,-0.075481,0.033070,-0.033316,-0.004001,-0.004391,0.069195,0.020410,0.033182,0.051823,-0.010378,0.095505,0.039047,0.023171,0.106356,0.027627,0.051476,0.040970,-0.057376,-0.053457,-0.032403,-0.019743,0.006220,0.024519,-0.010415,-0.061749,-0.002080,0.060804,-0.012105,-0.017416,-0.064333,-0.015376,-0.010983,0.002686,0.022586,-0.007869,0.025413,-0.050168,0.051930,0.066282,-0.074032,-0.092548,-0.021640,-0.056888,0.069183,-0.052386,-0.075996,-0.037915,-0.037346,-0.025419,0.041623
-0.093489,-0.006243,0.009033,0.088951,-0.046855,0.034920,0.003230,-0.048730,0.044887,0.085711,0.079177,-0.053455,-0.066941,-0.027587,0.059499,0.082453,-0.022742,0.022264,0.044465,0.091361,-0.020081,-0.011461,0.033615,-0.004823,0.013347,0.020670,-0.038822,-0.018327,0.039410,-0.012240,-0.057351,-0.070871,0.008509,-0.029921,0.040763,0.041520,0.045244,-0.033359,0.003341,0.046492,-0.080393,-0.007802,0.046917,-0.129871,0.024647,0.012767,-0.009790,0.048379,0.050101,-0.029414,0.063655,-0.008332,-0.059792,-0.090943,-0.103119,-0.079425,0.005398,0.083305,-0.090090,-0.040009,0.001055,0.012553,-0.056400,0.063047
0.020651,-0.012592,0.126563,0.036710,-0.087049,0.005365,0.027181,0.003921,0.004508,-0.072119,0.091336,0.033086,0.020119,-0.025318,0.110632,0.027816,-0.043459,0.107848,0.031948,-0.023176,-0.012570,-0.019189,0.029376,-0.023317,-0.015914,-0.074283,0.003031,-0.022014,-0.003286,0.018601,-0.037520,-0.014095,-0.085162,-0.033007,-0.004777,0.054722,0.047599,-0.027448,-0.084340,0.035272,-0.011390,-0.085377,-0.029191,-0.140969,-0.028513,-0.051065,-0.008669,-0.011343,0.023018,-0.049613,-0.036822,-0.008774,0.002077,-0.009782,0.074873,-0.026363,-0.054398,-0.063417,-0.018548,0.148667,-0.043734,0.051949,-0.009491,0.085300
0.102755,0.028007,0.075022,-0.055052,-0.060590,0.079566,0.020427,0.046423,-0.005932,0.033669,0.085549,-0.033646,-0.047994,0.045024,0.170444,-0.066255,-0.005140,0.096963,-0.067772,-0.093494,0.081058,-0.068099,0.065057,-0.057521,0.028727,0.009215,-0.031790,-0.035513,0.017389,0.045629,-0.043299,-0.054195,-0.058037,0.035923,-0.077116,-0.063164,-0.027177,0.110564,0.038069,-0.098922,0.029883,0.090818,0.022521,-0.035046,-0.047716,0.041222,-0.031340,0.051371,-0.048572,-0.022126,0.002198,0.070449,0.039617,0.033316,0.068777,0.004361,-0.026940,-0.026810,-0.001527,-0.024436,0.011550,0.003450,-0.052152,0.120102
-0.055480,0.071426,-0.000372,-0.037490,-0.039697,0.003831,-0.000520,0.066729,0.041305,0.063327,-0.112698,0.014874,-0.046974,-0.014257,0.034171,0.093370,-0.003146,0.038353,0.019987,0.049169,0.016740,-0.007743,0.043163,-0.014315,0.051393,-0.005624,0.016647,-0.011995,-0.075517,-0.022538,0.063517,0.108404,0.038514,0.010933,-0.081707,-0.108745,-0.106132,0.097680,0.098132,-0.071824,-0.085276,0.086357,0.025312,-0.057230,0.044794,-0.022775,-0.053664,0.034761,0.013314,-0.041575,0.006609,0.003447,0.041650,-0.014465,0.023531,0.079988,0.085145,0.037353,-0.086808,-0.030950,-0.099665,0.018165,0.089666,-0.060819
0.043047,-0.070351,-0.105971,-0.062082,-0.032049,0.024805,-0.018802,0.008082,0.041745,0.022419,-0.018486,0.044595,0.045410,-0.072434,0.011168,0.000043,0.040684,-0.076473,0.063994,-0.036492,-0.005848,-0.120848,-0.032081,-0.077689,0.042351,0.091950,-0.098132,0.029516,0.057620,0.035057,-0.126016,-0.014030,0.061666,-0.084709,-0.022907,-0.038772,0.103456,0.127219,-0.010383,-0.072679,0.080448,0.058593,0.008930,-0.109477,0.039763,0.107516,0.104324,0.043697,-0.003071,0.077006,-0.049818,-0.080626,-0.018122,-0.097687,-0.041488,-0.042978,-0.001104,-0.039562,-0.028061,0.023721,0.034147,0.049567,0.071281,0.001094
0.041779,-0.100885,-0.141535,-0.015028,-0.023156,0.095377,0.003466,0.087600,-0.017363,0.081617,0.103263,0.009031,0.043238,0.071221,0.061216,0.121024,0.089678,0.068921,0.021088,0.047082,-0.019068,-0.021407,-0.002252,-0.091814,0.129744,0.033387,0.037069,0.056833,-0.037137,0.006279,-0.085703,-0.059291,-0.067198,0.063459,-0.054999,0.018129,-0.029665,0.020732,-0.093738,-0.083030,0.004570,0.036355,0.000674,-0.014928,-0.071388,0.136096,0.033431,0.036216,-0.044967,0.071168,-0.062392,0.078394,0.075348,0.016297,-0.012720,0.015866,-0.044928,-0.091316,-0.065440,0.035361,-0.014596,-0.048397,0.032552,-0.122658
0.077489,-0.055528,0.004798,-0.096145,0.031210,0.048841,-0.051501,0.092581,0.068043,-0.077494,0.001728,0.041383,0.070766,0.091653,-0.102342,-0.013088,-0.026849,-0.028219,0.062112,0.010298,-0.018861,-0.003149,0.031952,0.082689,0.000824,0.024736,-0.024550,0.067758,-0.008060,0.082612,-0.130096,0.023296,0.047352,-0.011856,0.004658,-0.041782,-0.047930,0.120339,0.004118,0.037471,0.068896,-0.084887,-0.033209,0.064155,0.003590,-0.037603,0.177475,-0.033186,-0.002590,0.091590,0.013060,0.001885,-0.036346,0.045489,0.037513,0.083467,-0.044963,-0.022035,-0.110000,-0.025445,-0.024854,0.030692,0.043870,-0.116996
0.013612,-0.115699,0.068891,-0.028290,0.103674,-0.106071,0.094154,0.030422,-0.067150,-0.080983,-0.014327,0.002927,-0.020593,0.002978,0.050057,0.051818,-0.029144,-0.052053,-0.037167,-0.058028,0.033913,-0.047927,0.017179,0.075905,0.090085,0.046126,0.016783,0.103923,-0.053645,0.056301,0.068701,0.032790,-0.063701,0.000130,0.029158,0.006815,-0.083682,0.006239,0.068627,-0.049311,-0.092458,-0.058385,0.006667,-0.127269,0.053208,0.020421,-0.088882,-0.044476,-0.114109,-0.075923,0.033895,-0.020797,-0.033198,-0.004121,-0.004695,0.070522,-0.014705,0.021043,-0.117010,-0.047089,0.058709,0.042964,-0.004145,-0.089033
0.078572,0.046442,0.007109,-0.011404,0.014210,-0.031644,-0.021174,-0.012270,-0.015124,0.060690,-0.048338,-0.017204,0.008248,0.051370,0.005385,0.051159,0.007475,-0.085646,-0.060134,-0.009684,-0.001055,-0.071157,0.096574,0.073909,-0.049923,-0.044198,-0.051596,0.062483,-0.088066,-0.009846,0.012895,-0.023853,-0.075325,0.059823,0.028841,-0.036709,0.039477,0.057633,0.003080,0.002885,-0.093949,-0.008495,0.006535,0.058259,-0.050168,0.072046,0.020625,-0.043160,0.018770,-0.074890,-0.044916,0.007795,-0.092789,-0.060367,0.057343,-0.082832,0.039140,0.096568,-0.008567,0.026099,0.027277,0.058275,0.025367,-0.080162
-0.036696,-0.054661,-0.086995,-0.042304,0.009761,0.019322,0.060245,0.062104,-0.090380,-0.005527,-0.056639,0.124239,-0.044465,-0.111081,0.145743,-0.008121,0.066742,-0.019079,0.060716,0.037696,-0.038568,-0.000902,-0.088791,0.013668,0.077165,0.088498,-0.108912,0.003930,-0.002869,0.005499,-0.041604,0.138694,-0.061609,0.002031,0.065715,-0.079612,-0.050721,0.025684,-0.032499,-0.057883,0.034555,0.015854,-0.089711,0.029401,0.093409,0.093257,-0.032897,0.027606,-0.032449,-0.061635,0.121229,-0.077983,0.040706,-0.101511,-0.022389,-0.021068,0.088321,0.131439,-0.034963,-0.101896,0.046352,0.026017,-0.017240,-0.084099
-0.015057,0.072765,0.050981,-0.064775,0.027209,-0.030804,0.031854,0.002013,-0.057454,0.044368,0.023400,0.049762,-0.015868,-0.077606,0.053971,0.002859,0.045739,0.050167,-0.094271,0.091417,0.092392,-0.032496,-0.074988,-0.006084,-0.106046,0.019857,0.054460,-0.123323,0.087974,0.100738,-0.081506,-0.023306,0.000516,0.097472,-0.012145,-0.112568,-0.024003,0.016009,0.098210,0.033086,-0.023999,-0.032299,0.032122,0.062864,-0.045330,-0.006610,-0.059623,-0.046282,-0.043619,-0.051355,0.042524,0.041300,-0.051665,-0.104797,-0.028700,-0.034689,0.019532,0.088315,0.015910,-0.046182,0.039831,-0.055141,0.029423,-0.026894
-0.031007,-0.060859,0.079059,0.062426,0.095054,0.056932,0.024527,0.014457,-0.044646,-0.028785,-0.045042,0.023422,-0.020182,-0.015686,-0.057108,-0.032905,0.043542,-0.074125,-0.084411,0.034620,-0.008517,-0.044859,0.008118,-0.010625,-0.060939,0.023786,-0.038579,0.008705,0.049250,-0.010955,-0.095633,0.075066,0.117497,-0.049763,-0.025767,0.010427,-0.071475,0.082681,0.033019,0.090184,0.014916,-0.040874,-0.016007,0.093623,-0.077200,0.013431,-0.032695,-0.004642,0.112442,0.021806,-0.057868,0.001355,0.005024,-0.073032,0.020030,0.053848,-0.058787,0.086594,-0.049312,-0.107028,0.002036,-0.009463,0.042718,0.109039
-0.051067,-0.010254,0.031921,-0.033251,-0.044038,0.049114,-0.018913,-0.070940,0.002311,-0.029813,-0.033985,-0.025161,-0.038223,0.013950,-0.001027,-0.079428,0.042306,-0.030161,0.051626,-0.064369,-0.044971,-0.078554,-0.156404,0.072757,-0.026413,-0.023098,-0.039200,0.045752,0.078999,-0.036348,0.041392,-0.040069,-0.039268,0.004068,-0.036419,0.045639,-0.019446,-0.073840,0.049867,0.042054,0.030078,0.031693,-0.015195,-0.067900,0.074578,-0.003632,-0.030224,-0.067195,-0.026105,0.029549,0.070171,-0.038391,-0.078336,-0.071392,-0.048178,0.034415,0.021533,0.087278,-0.013738,-0.040698,0.028600,-0.007841,0.029396,0.046034
-0.049022,0.004730,0.093308,-0.018932,0.045702,0.086587,-0.079508,-0.091961,0.037389,0.056664,-0.017169,-0.001736,-0.020448,0.009816,0.084079,-0.074901,0.014282,0.009638,-0.033169,-0.054733,-0.051440,-0.060139,-0.060027,0.021018,-0.061580,-0.055227,0.005974,0.035098,0.051086,0.054777,0.074690,-0.075374,0.043035,-0.098176,-0.087721,0.023454,0.062519,0.043315,0.005385,0.044074,-0.036573,-0.018064,0.002001,0.076883,0.048990,-0.077389,-0.148813,0.030513,-0.000740,0.090743,-0.020363,0.059661,0.041354,-0.143375,-0.096350,-0.015166,0.023602,-0.077220,-0.056357,-0.009435,-0.031448,0.074228,0.092722,-0.040892
-0.008908,-0.017464,-0.036768,0.041760,-0.001142,0.018578,0.003737,-0.071281,0.089799,-0.033420,-0.008133,0.058994,-0.047506,0.019141,0.076038,0.001826,-0.055833,0.006925,0.042993,-0.090047,-0.066132,-0.039636,0.066708,-0.056092,0.023362,0.058241,-0.090754,-0.043819,-0.001158,0.034827,0.045820,0.023915,-0.066397,0.001228,0.039238,-0.062524,-0.030107,0.085126,0.045794,0.034325,0.011300,-0.019521,0.022372,-0.067606,0.082396,0.041519,-0.021391,0.060389,0.027907,-0.028843,0.054874,-0.028928,0.046525,-0.020111,-0.049917,0.095957,-0.051433,0.088734,0.025572,0.000630,-0.043480,0.030730,0.000888,-0.038220
0.060144,0.022718,-0.052985,0.038099,0.031699,0.015688,-0.028156,-0.083746,0.009735,0.046102,0.023112,-0.049804,-0.055845,-0.035447,0.042482,-0.004767,0.068061,-0.058643,0.008319,0.029369,0.091514,0.022882,0.041141,-0.061587,0.066625,-0.103559,-0.066411,0.006284,-0.088432,-0.012321,-0.055695,-0.065304,0.032172,0.084977,-0.004191,-0.014766,0.007561,-0.043599,-0.028203,-0.097602,-0.077353,0.068566,-0.015093,-0.075926,0.031570,-0.032206,-0.040160,-0.025560,0.015799,-0.005610,0.110584,0.013897,-0.064622,-0.035749,-0.088730,-0.039189,-0.069327,0.075188,0.012367,-0.077669,-0.009255,0.027880,-0.031163,0.097686
-0.023574,0.087231,-0.052439,0.015579,-0.101702,-0.066586,-0.072302,-0.060721,-0.030726,-0.094555,-0.017096,-0.081392,-0.012717,-0.112936,-0.091934,-0.056525,0.017378,-0.033711,-0.042697,0.000957,0.056512,0.036883,0.041265,0.003402,-0.014147,-0.003150,-0.076208,-0.007914,-0.066421,-0.058672,0.007164,0.013749,-0.025596,0.039645,-0.063394,-0.053980,0.065340,0.063095,-0.015949,-0.033254,0.019275,0.088000,0.062564,-0.127293,-0.024758,0.065149,-0.032445,-0.159013,-0.042795,-0.064426,0.044211,0.104774,0.027433,0.010540,-0.101516,-0.020472,0.097852,0.054781,0.025942,-0.068114,-0.073017,0.066811,-0.069102,0.010295
-0.099949,-0.008909,-0.094269,-0.012144,0.040381,-0.037747,0.060903,0.081076,0.064941,0.031762,-0.106705,-0.103635,-0.067492,0.017080,0.098051,0.084934,-0.004505,0.002939,0.041484,-0.091674,-0.040846,-0.014387,0.005633,-0.093326,0.096837,-0.064268,0.096078,0.033449,0.050687,0.060459,0.027308,0.065555,0.071279,-0.086230,0.083995,0.011047,-0.011309,0.035335,-0.030974,-0.067095,0.101515,-0.017810,-0.021211,-0.042284,0.085509,0.000275,-0.027743,0.100183,-0.012195,-0.021569,-0.034399,-0.029044,-0.033351,-0.037770,-0.012287,0.056814,-0.004860,-0.039025,0.016490,-0.004186,-0.022227,-0.104692,0.011180,-0.090844
0.055445,0.007812,0.036412,0.015549,-0.006762,0.034198,-0.066109,0.050496,-0.063263,-0.030032,0.002211,-0.009368,0.057721,-0.016951,-0.005213,-0.027104,0.054437,-0.007206,-0.060965,-0.023571,0.054693,-0.007540,-0.005219,-0.041396,0.024097,-0.042140,-0.004747,-0.073483,-0.016207,0.018961,-0.014219,-0.020971,0.029764,-0.045023,-0.040518,-0.022409,0.044339,-0.024820,0.068633,-0.071760,0.064542,0.070811,-0.055189,-0.079337,-0.014192,-0.019556,-0.022317,-0.006420,0.070479,-0.120175,0.005528,0.003367,-0.029929,0.096233,-0.083837,-0.061555,0.033123,0.028925,-0.040510,0.097721,-0.047195,0.020540,0.091846,0.078525
-0.019509,-0.038604,-0.098173,-0.039163,-0.027668,0.005130,0.035309,0.095199,-0.071097,-0.010392,0.031082,0.025313,0.074754,-0.006969,-0.029141,0.031442,-0.065882,0.031126,-0.069424,-0.010016,0.023159,-0.122648,0.024885,-0.010562,0.038533,0.090302,0.055893,-0.078662,0.148050,-0.035136,0.004136,-0.034425,0.041616,0.074468,-0.143787,0.039106,0.011231,-0.016087,0.136643,0.017572,0.071102,-0.000312,0.077871,0.040197,-0.026766,-0.028455,0.012474,0.035799,0.031205,0.022925,-0.090343,-0.042830,0.097594,0.015838,-0.060053,0.043597,0.058917,-0.126655,-0.083914,-0.063568,-0.085967,-0.018107,0.048897,0.031304
-0.047350,0.073936,-0.058772,0.083683,-0.092061,-0.051900,-0.028719,0.009588,0.022891,-0.108675,-0.051507,0.021953,-0.048276,0.122995,0.023252,0.051618,0.060092,-0.065598,0.124130,-0.065187,0.104925,-0.055455,0.014406,-0.033632,0.059124,-0.084448,-0.026247,-0.126827,0.007214,0.094342,-0.093540,0.039095,-0.022471,-0.056604,-0.037277,-0.015869,0.043239,0.043461,0.093765,0.096482,-0.098829,-0.074618,0.067485,0.119092,-0.006688,0.057684,0.050635,0.070026,-0.078110,0.071727,-0.043737,0.084716,0.048340,-0.063087,0.052308,0.086256,-0.069664,0.006517,0.049494,-0.068412,-0.019414,-0.060257,0.053967,0.026190
-0.011126,-0.050396,-0.010621,0.043240,0.072079,-0.017401,0.000980,0.013039,0.035078,-0.034876,-0.017305,-0.061981,0.056699,0.021564,-0.063034,0.039960,-0.071724,0.026267,-0.004217,0.013686,-0.013394,0.051835,-0.012795,-0.037950,0.004344,0.023059,0.018260,0.015816,0.007051,0.024198,-0.095267,0.115687,-0.134139,-0.111116,-0.037686,0.007634,0.089125,0.004448,-0.056499,-0.041223,-0.011808,-0.050216,-0.104455,-0.017360,-0.034493,0.145753,0.016907,-0.107202,-0.035297,-0.057449,0.041601,-0.060843,-0.092906,0.060354,0.037782,0.134824,-0.045388,-0.113471,0.115174,-0.002504,-0.045621,0.048553,-0.018683,-0.007420
0.127414,0.086634,-0.025713,-0.005079,0.013041,0.084133,0.044290,-0.040837,0.060411,-0.156702,0.108235,-0.031033,-0.083486,0.076292,0.038586,0.084320,-0.026478,-0.006363,-0.058374,0.045101,-0.006955,-0.058069,0.090514,-0.009318,0.170230,-0.077007,-0.022005,0.095957,0.036631,0.068795,-0.034687,-0.015829,0.007117,-0.024827,-0.082246,0.000256,-0.088341,0.046652,0.045782,-0.050739,0.049150,-0.015573,-0.145737,-0.067525,0.075791,0.138209,-0.031153,-0.064806,0.001887,0.075383,0.008524,-0.010444,0.021818,0.054159,-0.009813,-0.001433,-0.038522,-0.077203,0.030379,0.036335,-0.011561,-0.073262,-0.013030,-0.069284
0.120643,-0.002009,0.044932,0.050763,0.014537,-0.097602,-0.001620,0.058179,-0.031081,-0.064306,-0.057562,0.070481,0.047953,-0.008635,0.066993,0.075063,0.056729,0.059963,-0.079215,0.044001,0.023452,0.063535,0.055973,0.022024,0.098135,-0.043240,-0.012459,-0.003293,-0.054057,0.103360,-0.040600,-0.175380,0.006519,0.082300,-0.048599,0.017406,0.015558,0.086290,-0.006559,-0.076201,0.103191,-0.009676,-0.000314,0.006204,-0.009210,0.170088,-0.039137,0.008334,-0.023379,-0.008489,0.063730,-0.007674,-0.011969,-0.026451,-0.018346,-0.025470,-0.013595,-0.029500,-0.095875,0.072414,-0.087585,0.024099,0.134362,-0.074610
0.071946,-0.009638,0.054830,0.056830,0.083097,-0.046630,0.049909,0.068424,-0.018992,0.036339,0.158326,0.014217,0.007719,-0.014193,0.059093,0.091123,0.037807,-0.063285,0.009624,-0.085863,-0.018808,0.024245,-0.026746,-0.038629,0.055627,-0.011216,0.054812,-0.056893,-0.033855,-0.019281,0.051876,-0.100537,0.065690,0.138501,0.007538,-0.038925,-0.079430,0.170187,0.025416,0.004525,0.098232,0.008697,-0.052092,0.092034,0.051486,0.138372,0.147633,-0.040310,-0.074452,0.042206,0.056764,-0.004783,0.046128,0.009959,0.054442,-0.086752,-0.072272,0.002215,-0.077939,0.025265,-0.005646,0.054660,0.084260,-0.078049
-0.068794,0.015383,0.012495,0.052314,0.068762,0.087543,0.050801,0.081336,0.004843,0.087902,0.066006,0.064405,0.004399,0.012799,0.108577,-0.006728,-0.019537,-0.000183,0.073187,0.061402,0.008332,-0.126669,-0.065037,0.058749,0.011711,0.093136,-0.014797,-0.055766,0.013074,0.067334,-0.029881,-0.062289,0.079318,0.023184,-0.085962,-0.110809,-0.024207,-0.022303,-0.050463,-0.037995,0.093828,0.017584,-0.003265,0.056144,0.089141,-0.011563,-0.032009,-0.057075,-0.090258,-0.118708,-0.000672,-0.009391,-0.030538,0.019975,-0.008809,0.045117,0.025677,0.082147,0.008203,-0.051823,0.053999,0.019952,0.005793,0.029816
-0.071408,0.109572,-0.014494,0.082142,-0.035938,0.060886,0.011607,-0.030998,-0.009839,-0.002673,0.046103,0.032062,-0.044131,-0.019151,0.018504,-0.063395,0.113977,-0.040501,-0.083346,-0.009454,0.034127,-0.074444,-0.085579,0.097825,0.002656,0.021883,0.086278,-0.048444,0.063199,0.048314,0.034244,-0.002900,0.049470,0.066104,-0.034698,0.057325,0.068894,0.039007,-0.045683,0.089011,-0.009269,-0.103633,0.030116,0.096694,-0.002562,-0.090167,0.003401,-0.039978,-0.065855,-0.060911,0.041759,0.071337,0.030074,-0.119366,-0.088586,-0.029552,0.028737,-0.049462,-0.047835,0.020813,-0.000747,-0.104979,-0.031441,0.018569
0.023396,0.051465,0.037608,-0.027893,-0.038985,-0.006889,0.039119,0.062371,0.058620,-0.075844,0.000784,-0.067069,-0.063276,-0.019630,0.090371,0.113767,-0.063197,0.055594,-0.103485,0.133120,-0.099930,0.042447,-0.091700,0.063628,-0.048204,0.072222,-0.031103,-0.092211,-0.012129,0.110268,0.077857,0.030568,0.038271,0.021711,0.010186,0.013571,0.061249,-0.078659,0.138380,0.049890,0.058651,0.005435,-0.002705,0.074449,-0.107335,-0.010261,-0.027382,-0.088179,-0.020241,0.016192,-0.041482,-0.021795,-0.051486,-0.094095,0.035962,0.024625,-0.047996,-0.002201,0.113304,-0.048165,0.035223,-0.027766,-0.124317,0.016919
-0.001511,0.050913,-0.013728,0.091015,-0.017477,0.101855,-0.098846,0.010298,-0.035739,-0.135378,0.057208,-0.054543,-0.030657,-0.132704,-0.091133,-0.026777,-0.023172,0.012425,-0.025145,-0.047452,-0.099460,-0.034958,-0.071555,-0.060331,0.014505,0.017859,0.077723,0.004391,0.039528,0.007270,0.040998,-0.010017,-0.041735,-0.000395,0.076023,0.012291,-0.034927,-0.039042,0.049595,0.015906,0.026681,0.026461,0.008254,0.124888,0.000898,-0.093539,-0.051903,0.006624,-0.002748,-0.055223,-0.043037,0.082443,-0.081821,0.054140,-0.085387,-0.044120,-0.029326,-0.054952,-0.004025,-0.022735,-0.045806,-0.053013,-0.036481,0.063636
0.064586,0.000122,-0.014900,0.095465,-0.118800,0.064952,0.023110,-0.019889,0.029545,-0.169476,-0.029185,-0.036144,0.071621,-0.003783,0.000231,0.050047,0.020546,0.108980,-0.054893,0.054259,-0.057463,-0.010975,-0.087041,0.013952,-0.054119,-0.085745,-0.002210,0.018713,0.065057,0.059316,-0.010943,-0.013671,0.018054,-0.005559,-0.090736,0.039832,0.052558,-0.062024,-0.090250,-0.054885,-0.023348,0.009596,-0.054496,0.048160,0.060097,-0.057094,0.069337,0.049875,0.063398,0.035342,-0.021683,-0.030081,0.089764,-0.102006,-0.064194,0.092333,0.086679,0.041884,-0.063453,0.084887,0.068222,-0.015917,0.037165,0.023107
0.060737,-0.017855,-0.110704,-0.109987,-0.061046,-0.029624,-0.016461,-0.033124,0.139035,-0.012019,-0.039445,-0.051725,-0.046201,-0.023956,0.036238,0.051714,-0.030475,0.074447,-0.034937,-0.061624,0.045614,0.056552,0.022298,0.015270,-0.021452,-0.071067,0.075333,0.083760,-0.032572,-0.127444,-0.008507,-0.007417,0.087968,-0.065325,-0.052840,-0.059526,0.026603,0.029322,0.060275,0.063540,0.065579,-0.045774,-0.025314,-0.013769,-0.038416,-0.069705,0.044894,0.038775,-0.041038,-0.110524,0.021504,0.028392,0.044084,0.000183,0.137047,0.040271,-0.002942,0.051639,-0.093069,-0.080485,-0.063437,-0.065334,-0.084782,-0.043211
-0.071574,-0.029090,0.012516,0.084922,0.024326,0.091720,-0.067251,-0.045803,-0.042444,-0.102471,-0.025143,0.008281,-0.007288,-0.056285,0.066134,0.064387,0.017034,0.006078,-0.008415,0.061221,0.009053,0.012625,-0.095119,-0.090430,0.060137,0.027992,-0.094277,0.078908,-0.008871,0.028673,0.099473,0.069101,0.041836,0.090733,-0.011189,-0.006991,-0.074217,-0.041350,0.061388,0.053337,-0.022168,0.084372,0.078884,0.047226,0.019286,0.007911,-0.043383,0.022927,-0.020010,-0.005385,-0.089983,0.032453,0.094417,-0.000336,0.008670,0.024261,-0.094321,0.156249,-0.002031,-0.091003,0.060792,0.034511,-0.029013,0.002719
0.035825,0.095740,-0.013956,0.056905,0.033431,0.117340,0.013423,0.052756,0.049075,-0.091163,0.019003,0.013743,-0.036267,-0.037270,-0.016270,0.057374,0.060314,-0.046004,0.048712,0.068790,-0.052408,0.012537,0.011802,-0.093277,0.112381,0.040853,-0.049127,0.028280,-0.000467,-0.021500,-0.090063,-0.012561,0.022700,0.028677,-0.050881,-0.065393,0.052320,-0.003054,-0.001414,-0.018784,-0.028577,-0.015297,-0.048355,0.006632,-0.044147,-0.056440,-0.054279,0.007483,0.034864,0.038136,-0.093076,-0.099924,0.021227,0.036542,-0.042280,-0.038404,-0.052901,0.029286,-0.020786,-0.127227,0.105015,0.020708,-0.005924,0.021610
0.000450,-0.003222,0.036086,-0.019282,0.044934,-0.017058,0.012340,-0.024947,0.002709,0.117170,-0.048979,0.079956,-0.046425,0.067731,-0.037927,-0.037698,-0.054982,-0.149187,-0.030112,0.051614,-0.025963,-0.050853,-0.053501,0.075159,0.148744,0.101727,0.014715,-0.043542,0.016630,0.075464,0.080647,-0.037126,-0.067600,-0.002867,-0.010923,0.054490,0.133730,0.057006,0.051158,-0.042337,0.097588,0.012408,-0.067062,-0.006479,0.006932,0.035623,-0.003341,-0.003477,0.028884,0.039022,-0.117067,-0.028559,-0.012939,-0.059271,-0.051790,-0.009932,0.005185,0.022015,0.029554,0.035905,-0.044160,0.008089,0.030706,-0.077750
0.024334,0.020607,0.023388,0.119973,0.003543,0.001105,-0.012766,-0.000298,0.091214,-0.074502,0.093931,0.054051,-0.007666,-0.008461,-0.068948,0.023627,0.015006,0.024618,-0.065841,0.067901,0.076911,-0.157591,-0.040337,-0.115283,0.043359,0.126666,-0.034855,-0.012385,0.027001,-0.037023,-0.025500,-0.042557,0.023976,-0.009363,0.029871,0.004768,0.085831,-0.044370,0.031169,-0.024784,0.017821,0.041180,0.075470,0.125536,0.000320,0.007769,0.045377,0.007509,0.016339,0.029896,-0.063806,-0.067953,-0.027640,-0.051793,-0.068122,0.098487,0.015832,0.069349,0.118344,0.019070,-0.021769,-0.062967,-0.042053,-0.117681
0.015912,0.007895,-0.024303,-0.062523,0.024797,-0.080953,0.039520,-0.006562,-0.018852,0.037654,-0.076759,0.071817,0.042536,-0.002004,0.031210,-0.050619,0.023820,0.062081,0.025824,0.002370,0.127127,-0.105982,-0.025538,0.070603,-0.010486,0.052715,-0.110881,0.022578,0.005899,-0.014941,-0.068188,0.035510,0.074528,0.090627,-0.072363,0.027598,0.018024,-0.022274,0.017642,-0.076407,-0.002315,0.035989,-0.023333,-0.006279,0.000945,-0.002742,-0.011768,0.076742,0.079757,0.013402,0.000816,0.035249,0.067596,-0.039015,0.079712,0.024977,0.069621,0.047796,-0.049691,0.115514,0.024635,0.080503,-0.032106,-0.051654
0.067592,-0.030012,-0.088009,-0.081290,-0.046689,0.037418,0.025673,-0.030609,0.032463,-0.050444,-0.097854,0.046330,0.081238,0.017607,0.109144,0.013364,0.043666,0.086458,0.017091,-0.015713,0.028475,-0.007449,-0.019009,0.060025,0.073662,-0.000398,0.005182,-0.090184,0.022075,0.055770,-0.157780,0.044440,0.030417,-0.011529,-0.086155,-0.056953,-0.059337,0.118360,-0.058301,0.010780,-0.087563,-0.042597,0.109409,-0.094919,-0.057139,0.048219,-0.015777,-0.082699,0.050649,-0.025992,0.017080,0.016712,-0.045532,-0.035613,0.055148,0.102276,-0.008279,-0.111656,0.118706,-0.041196,-0.037379,0.000199,0.043097,-0.080939
0.025228,0.098249,0.038501,-0.057486,0.106827,0.004966,-0.042526,-0.097479,-0.061486,0.070916,0.007633,0.009656,0.079920,0.074781,-0.028841,0.111348,-0.017668,0.086836,-0.033249,-0.034164,0.036044,0.013573,-0.074545,0.043346,-0.021928,-0.008186,0.035170,-0.034787,-0.036117,-0.041159,0.007605,0.047900,0.058606,-0.015491,-0.087955,-0.010537,0.053301,0.099326,-0.069957,-0.057379,0.034365,-0.039392,-0.146105,-0.065947,-0.038231,0.183098,0.036178,-0.124163,0.052269,0.013395,-0.066073,0.121631,0.027238,0.020081,-0.001483,0.001112,-0.010863,-0.090233,0.096712,0.116110,-0.000418,0.057004,0.006735,0.002617
-0.041055,0.045899,-0.055836,0.024801,0.052393,0.004845,0.039603,-0.088021,0.077862,-0.119880,0.029116,-0.034807,0.000066,0.103605,-0.015940,0.023659,0.149611,0.038798,0.014530,-0.010600,-0.039957,-0.005067,-0.066562,0.041266,0.041712,-0.000784,0.009925,-0.053490,0.005002,-0.053767,0.059513,0.051290,0.046973,0.102380,0.119124,0.029440,-0.031739,0.070173,0.053595,0.123985,0.020391,0.031059,-0.163795,-0.085927,0.047305,0.145376,0.101626,-0.084152,0.021321,-0.039340,0.089403,0.025825,-0.133000,0.011903,0.028717,-0.031017,-0.001691,-0.059068,0.115338,-0.039654,-0.009862,0.045642,0.056744,-0.098896
-0.012013,0.053137,-0.017279,-0.081009,-0.042008,-0.060484,-0.005405,-0.018932,-0.022354,-0.088323,-0.019159,0.002025,0.004477,-0.027985,0.079898,-0.028781,-0.012575,0.082205,0.041105,0.085094,0.029830,0.125559,0.021872,0.022808,0.015386,0.030483,-0.045724,-0.001428,0.009914,-0.053004,0.041212,-0.104329,0.048881,-0.101209,-0.046622,-0.071147,-0.087831,0.046610,-0.050973,0.005947,0.001187,-0.037514,-0.033226,0.045064,0.043299,0.104091,0.006715,-0.045704,0.009109,-0.018463,-0.081118,-0.027990,-0.045591,0.103887,-0.035217,-0.058600,-0.055998,-0.062670,-0.048821,-0.048069,-0.044891,0.011256,-0.026530,0.037024
0.029422,0.026913,0.028980,-0.048596,-0.017432,-0.022888,0.058529,-0.024828,-0.031620,-0.065111,0.126824,-0.006983,-0.079935,0.033796,-0.016652,0.158286,-0.036837,-0.051373,-0.031553,-0.040769,-0.055883,-0.070316,0.005340,-0.010982,0.035371,0.065866,0.002717,-0.075730,-0.061261,-0.014432,-0.044497,0.051906,0.037390,0.005346,-0.019283,0.018338,-0.056763,0.131036,0.023845,0.066662,-0.019348,-0.063349,0.087128,0.086548,-0.042674,0.084705,0.105727,0.084231,-0.003869,0.065651,-0.070629,-0.023780,-0.030458,0.063845,0.063177,0.058127,-0.030754,-0.003139,-0.012465,0.100646,0.026430,-0.002015,0.045227,0.049365
-0.032819,-0.063638,-0.081006,-0.147306,-0.000602,0.076847,-0.105130,0.016233,-0.134212,-0.123029,-0.006984,0.018340,-0.089820,-0.032303,0.000894,-0.101137,-0.047691,0.075910,0.083507,0.029213,-0.090482,0.004357,0.008742,-0.037735,-0.016743,0.022401,0.010131,-0.034737,0.078127,0.077232,0.006630,-0.098051,-0.063043,0.064096,-0.027796,-0.098493,-0.006346,-0.071413,0.071536,-0.048568,-0.074246,0.001985,-0.025488,0.021355,0.037450,-0.079223,-0.015228,0.006547,-0.013001,0.012126,-0.031786,0.016238,-0.057195,-0.035920,0.057553,0.051466,-0.046550,0.025503,-0.114693,-0.052443,-0.044890,-0.058585,-0.010171,0.009769
0.009361,0.008619,-0.032324,-0.063435,-0.036875,0.069170,0.038189,0.078251,-0.012488,-0.034746,0.100120,-0.098081,-0.058343,0.037386,-0.049254,-0.035243,-0.061014,-0.060709,0.052204,-0.018034,0.071838,0.013277,-0.067828,0.023301,0.055291,0.083771,0.026188,-0.079091,-0.050034,-0.104118,0.028941,-0.008379,-0.036689,-0.034918,0.083227,-0.066930,-0.067799,0.012217,0.036465,0.005745,-0.043991,-0.062096,0.014245,0.056046,0.015308,0.005659,-0.028720,0.042315,0.026775,-0.032848,-0.084132,0.084661,0.071730,-0.080065,0.065734,-0.035111,-0.064014,0.052775,-0.087937,-0.095977,0.072117,-0.090284,0.027141,-0.004874
-0.032270,0.051898,0.089147,-0.110721,0.091475,0.003904,-0.018596,-0.053657,-0.031110,0.006148,0.032100,-0.038199,-0.128385,0.127278,-0.030237,-0.029874,0.077440,0.012959,-0.041656,0.001273,0.014613,-0.021031,-0.030831,0.078967,0.031675,-0.000800,-0.017717,-0.054208,0.016047,0.084461,-0.093605,-0.017159,-0.074442,0.098010,0.110426,0.063009,0.006992,0.020242,0.070983,-0.060751,0.038990,0.021480,-0.012661,0.065663,-0.053295,0.001066,-0.041835,-0.065507,0.020085,0.092442,-0.046475,-0.026992,-0.041629,-0.155807,-0.059844,0.039146,-0.025466,0.057358,0.024570,-0.077388,0.041920,-0.113200,-0.068800,-0.092883
-0.032896,-0.022169,0.077046,-0.031190,-0.009628,-0.021210,0.009132,-0.043181,-0.028474,0.049014,0.014336,-0.110427,0.022842,-0.047169,0.085913,-0.065136,-0.030487,0.065664,-0.081055,0.062057,-0.029211,-0.016692,-0.047349,0.093052,-0.085740,-0.043333,-0.019483,0.004688,-0.018238,0.066325,0.037206,0.058019,-0.054848,0.046367,0.028266,0.059601,0.062625,-0.043787,-0.030114,0.021763,-0.007972,-0.058062,0.052946,0.047698,-0.067295,-0.040668,0.057731,0.036681,-0.075117,-0.076939,0.022705,0.053058,0.052003,-0.024560,-0.039882,-0.154938,-0.055603,-0.083709,-0.061809,-0.008830,0.061316,-0.033820,0.049988,0.015087
0.091155,-0.051917,0.035998,-0.146099,-0.033095,-0.055390,-0.046872,-0.050218,-0.083478,-0.014143,-0.054236,0.089600,0.119241,-0.068067,-0.026250,-0.109061,0.029164,0.083357,0.134219,-0.089988,-0.039595,0.007638,0.004530,0.030431,-0.085907,0.009616,0.016739,-0.000501,-0.045759,-0.051644,0.055168,-0.001087,0.116282,0.054518,0.037850,-0.042826,0.138048,0.015795,-0.010723,0.060942,0.023936,0.015641,0.053621,-0.006427,-0.068792,-0.024739,-0.051056,-0.027124,-0.046811,0.028064,-0.051950,0.018736,0.071669,0.019882,0.042104,0.002872,0.090465,0.005097,-0.010404,0.038291,-0.003216,-0.003321,0.027776,0.022361
0.000947,0.069340,-0.047036,-0.103676,-0.046171,-0.020392,0.041813,-0.048455,0.036195,-0.018826,-0.025873,0.046899,0.056170,0.048783,-0.025207,0.031143,-0.013240,-0.035108,0.005887,-0.049650,-0.078321,0.050770,0.069055,0.035686,-0.001350,-0.012264,0.069030,0.038684,-0.079509,-0.087717,-0.011256,-0.031975,0.093700,-0.044798,0.132014,-0.135462,-0.001468,0.075777,0.027287,0.038303,-0.029439,0.039053,-0.050754,0.037455,0.032080,0.086400,0.060541,-0.012427,-0.046009,0.133459,-0.050592,-0.027035,0.071477,0.053953,-0.019765,-0.034508,-0.088584,-0.013894,0.029717,-0.031896,-0.117475,-0.060557,-0.028507,-0.059029
-0.086228,-0.059364,0.064256,-0.067275,0.053296,-0.054821,-0.034095,0.072718,0.088179,0.048775,0.061409,-0.042919,-0.048184,-0.035672,0.073802,0.020269,-0.113331,0.070389,-0.061728,-0.045948,0.025034,-0.081489,-0.135160,-0.026337,-0.031306,0.101992,0.034403,0.098156,-0.013278,0.062669,-0.060590,0.054643,-0.040201,-0.000617,-0.016352,-0.091338,-0.084437,0.073896,-0.041194,-0.036053,0.094015,0.005039,-0.009702,0.052430,0.036347,0.159750,-0.064357,0.030914,0.006203,0.024963,0.011109,-0.039325,-0.057893,-0.011721,-0.039382,0.080527,-0.015220,0.024245,0.072978,-0.046133,-0.000621,0.024511,0.018699,-0.018334
-0.026104,0.015626,0.048851,0.130463,0.148936,-0.042516,0.038222,-0.042704,-0.103397,0.029253,-0.012131,0.006900,0.024023,0.025648,-0.031197,-0.044279,0.031753,-0.001879,-0.043012,-0.028159,0.073680,0.045056,-0.027103,-0.015560,-0.016669,-0.004351,-0.017240,0.061856,-0.048388,0.045784,-0.043113,-0.000125,-0.080663,0.050385,0.005008,-0.030546,0.038040,-0.023341,-0.037091,-0.024960,0.009766,0.025083,-0.006616,0.001318,-0.035751,-0.092597,-0.095573,0.121484,-0.048137,0.059942,-0.008714,-0.082017,-0.072962,0.001990,0.034953,0.115027,-0.007467,-0.089609,0.098288,0.021427,0.040515,-0.002205,-0.072114,0.094682
0.021832,-0.029354,0.015183,0.090684,-0.090713,-0.069234,0.000348,-0.087647,-0.150754,0.089050,0.010295,-0.002075,-0.021628,-0.023974,-0.023535,-0.012503,0.055895,0.013893,0.031960,-0.065761,-0.107356,-0.065539,-0.026057,0.023729,0.130103,0.011937,-0.062209,0.109133,0.024538,-0.013568,-0.030250,0.125338,0.032166,0.038368,0.042864,0.025916,0.097399,0.088159,-0.055823,-0.069410,0.099824,-0.068247,0.008862,0.056461,-0.085546,-0.042394,-0.056807,-0.019714,-0.043465,0.070989,0.043487,0.046535,-0.126522,-0.101386,-0.067075,-0.080569,0.057426,-0.055073,0.028780,0.071302,-0.021557,0.055866,-0.049916,-0.126441
0.019372,0.058756,0.021181,0.083025,-0.030795,-0.036723,0.047634,-0.066384,0.043984,-0.065828,-0.068100,0.028278,-0.074026,0.007489,0.020568,-0.049853,0.018913,-0.007022,-0.009001,-0.066852,0.007506,0.065400,-0.016507,-0.066640,0.044815,-0.034100,0.001201,0.027950,0.109078,0.006410,0.013267,-0.008024,0.005064,-0.059605,-0.018916,-0.018944,-0.027198,0.059451,-0.046415,0.006791,0.039590,-0.001604,0.095827,-0.005820,-0.004080,0.109134,-0.079988,0.019598,0.073942,0.004547,0.016319,-0.062219,-0.064472,-0.011334,0.028639,0.037186,0.070375,-0.012901,-0.009917,-0.035105,-0.047850,-0.083159,0.060351,-0.070080
-0.063031,0.016077,0.013170,0.051700,0.000984,0.058022,0.017369,-0.028623,0.000378,0.080637,-0.119356,-0.097303,-0.037006,0.047543,0.023086,0.058379,0.048153,0.094529,0.016772,-0.043926,-0.038313,-0.043061,-0.089434,0.064017,0.077710,-0.002540,-0.051595,-0.065668,-0.008236,0.068085,-0.012642,-0.035795,0.062536,-0.030490,0.024230,-0.028118,-0.000917,-0.055662,0.077801,-0.083864,-0.005137,0.028234,0.010236,-0.077954,-0.068130,-0.020425,-0.028185,-0.082515,0.036440,-0.020470,0.021184,0.053471,0.059753,0.062263,0.072014,0.096647,0.123284,-0.047477,0.136795,0.081813,-0.044713,0.037181,-0.068757,-0.004437
0.009194,-0.009547,-0.031382,0.006207,0.049841,-0.026859,-0.085888,0.073164,0.014569,-0.039962,-0.107987,-0.014215,-0.073038,-0.015016,-0.004724,0.091514,0.008044,0.088286,-0.031482,0.022697,-0.091490,0.090007,0.031274,0.008174,-0.016868,0.029530,0.017298,-0.005708,0.057070,-0.016319,-0.123810,-0.111261,-0.064641,0.029637,0.014778,-0.023987,-0.008172,0.157364,0.038988,0.058357,-0.102087,-0.086417,-0.051070,-0.053374,-0.073792,0.051678,0.038318,-0.009657,0.054896,-0.003163,0.111912,0.128929,-0.000765,-0.011304,-0.050383,-0.022700,-0.025741,-0.082423,0.068394,0.037687,0.028527,-0.052138,-0.029409,-0.054621
-0.057085,0.038366,0.023651,0.083106,0.109048,0.015424,-0.055758,-0.047769,-0.013947,0.053130,-0.055664,0.024589,0.013490,0.070830,0.038093,0.050875,-0.064564,0.084031,-0.017856,0.007173,-0.049350,-0.021971,-0.035071,-0.076291,0.047451,-0.024588,0.068961,-0.074859,0.009357,-0.045382,0.025444,0.013934,0.050063,-0.054752,-0.007289,-0.107055,0.104756,0.119948,-0.031125,0.017911,-0.085242,0.041443,-0.037384,0.009662,-0.001015,0.163760,-0.025181,-0.125908,0.037533,0.008182,0.001622,0.076762,-0.081234,0.020308,0.031803,-0.062876,-0.058050,0.032563,0.058253,0.032925,-0.092415,-0.049001,-0.004460,0.067072
0.022869,-0.015717,0.030677,-0.091987,0.034173,-0.007929,-0.029908,0.019352,0.051397,-0.014430,0.044035,-0.037626,-0.089652,-0.051937,0.071726,0.035754,0.119681,0.001978,-0.101998,-0.039397,0.048008,0.014890,0.044848,-0.054787,-0.027631,-0.062976,0.032901,-0.030999,-0.014134,-0.075225,-0.055998,-0.024044,0.032369,0.084393,0.029340,-0.021725,-0.051493,-0.056133,-0.048365,0.061673,0.008397,0.011304,-0.087462,0.030682,-0.004256,0.100266,0.026710,-0.110288,0.009162,-0.044145,-0.025556,-0.093726,-0.014979,0.031096,-0.045582,-0.070226,0.006878,0.045711,0.101491,-0.107961,0.046235,0.079095,-0.027003,-0.078272
-0.059563,-0.052283,-0.102081,0.011488,-0.056828,0.030277,-0.000596,0.046929,-0.133633,0.041142,0.066464,0.002710,-0.051635,-0.050239,0.040279,0.018129,0.061579,0.048526,-0.022585,0.049839,0.024648,-0.048074,0.051432,0.052642,-0.037214,-0.053948,-0.032590,-0.040720,0.005052,-0.058573,0.085987,0.089325,-0.068826,-0.007459,-0.019098,0.048231,-0.039729,0.023294,-0.033466,-0.093096,0.084607,0.045406,-0.103011,-0.026744,0.008986,0.088646,0.025516,-0.009682,0.110602,-0.000756,-0.063718,0.029725,0.011479,-0.006287,-0.035047,0.045578,0.068357,0.000380,-0.064602,0.012691,-0.029460,0.102935,0.015337,0.011301
-0.077393,0.008746,-0.028276,-0.018612,-0.037056,0.040814,0.017282,-0.084907,-0.043015,0.035735,0.048011,-0.072657,-0.036679,-0.030743,-0.027359,-0.060237,-0.021088,0.072999,0.028625,0.055024,0.081641,-0.029148,0.026192,-0.049434,-0.034487,0.050075,-0.030133,0.027040,0.040099,0.040792,0.076467,0.050417,-0.062468,-0.052907,0.079183,-0.113352,-0.128739,-0.070274,-0.039479,-0.057273,0.023713,0.060453,0.079867,-0.002341,-0.059252,-0.049956,-0.019867,0.060478,0.045921,-0.105525,0.051413,-0.015095,-0.063149,0.017111,-0.103132,-0.008659,0.118228,-0.028890,-0.017927,-0.009218,-0.007310,0.109866,0.101102,-0.027895
-0.053181,-0.070628,0.028664,-0.022562,-0.021471,-0.005130,-0.004583,0.025991,-0.164070,-0.033888,0.032447,-0.121368,-0.026285,-0.039578,0.038062,-0.054847,0.007716,0.048812,0.006025,-0.032342,-0.001433,0.057305,0.073258,-0.117578,-0.073004,-0.096507,-0.060449,-0.048754,0.142430,-0.059335,-0.005343,-0.079457,-0.040581,0.062909,-0.037925,0.077921,0.055992,0.016059,0.075580,0.000314,-0.020597,-0.056692,-0.100443,-0.066212,0.049861,-0.057435,-0.092158,-0.037860,0.046631,-0.048868,-0.002211,-0.049634,-0.071750,0.039818,0.015183,0.074091,0.022869,-0.031941,-0.022269,-0.013471,0.029906,-0.030072,0.017457,0.038133
-0.043093,-0.020334,-0.024189,-0.029229,0.040796,0.008382,0.031541,0.000371,0.035782,0.033427,0.051174,-0.037434,0.038271,0.068083,-0.088418,-0.072769,0.007099,-0.031666,0.020968,-0.061780,0.018991,0.057210,-0.014450,-0.023213,0.066517,0.012982,-0.049110,0.051949,0.089168,0.019204,-0.029504,-0.068470,0.098490,0.114932,0.087599,0.060506,0.020737,-0.022184,0.005324,-0.083360,-0.098326,-0.054082,0.018357,-0.045898,0.060147,0.110929,0.030085,-0.086755,-0.096674,-0.062139,-0.078848,-0.027533,-0.139246,-0.013343,0.017203,-0.034863,-0.091113,0.082223,0.065366,-0.007913,0.047702,0.026835,-0.037539,0.037629
-0.046724,-0.029761,-0.098426,0.018491,-0.018142,0.094970,-0.048989,-0.068512,-0.020376,0.010528,0.045590,0.079384,0.044637,0.070813,0.017726,0.071197,-0.001247,0.035383,-0.024430,0.014747,0.099089,-0.044425,-0.088847,0.000462,-0.044485,0.104410,-0.103677,0.019217,0.073870,0.047189,0.016968,0.064283,-0.057605,0.009925,0.031259,0.015334,-0.006900,-0.064152,0.051766,0.061522,-0.049329,-0.024398,0.022696,0.045012,-0.104945,-0.015928,0.011319,-0.054793,0.077478,0.032762,0.077186,0.019120,0.010326,-0.084979,0.013516,-0.069047,-0.033409,0.099926,-0.016832,-0.018085,-0.011054,0.023728,-0.061089,-0.058151
0.066698,-0.039894,-0.092898,-0.052558,0.097821,-0.057407,-0.097311,0.044834,0.063225,0.024715,0.041718,0.025769,0.048400,0.055812,-0.048045,0.095246,-0.032403,0.054351,-0.041490,0.025922,0.049618,0.006572,-0.013044,0.055348,-0.024527,-0.065839,-0.042546,0.054643,-0.014618,0.088579,0.046036,0.036295,-0.013029,-0.095469,0.058877,0.035943,-0.040748,-0.054366,0.030250,-0.008575,-0.029630,-0.077930,0.056420,0.011479,-0.017926,0.068258,-0.021437,0.059390,-0.031956,0.123813,0.022090,-0.041707,-0.009553,-0.016263,-0.125834,0.106435,-0.004541,-0.021799,-0.042060,-0.013191,-0.022988,-0.013138,0.039153,-0.058035
-0.026466,0.019538,0.021509,0.042069,0.068167,-0.042340,-0.064404,-0.049118,-0.063341,-0.063512,-0.012517,0.056934,-0.014550,-0.033206,0.017255,0.030080,0.045535,0.048105,-0.010469,-0.022465,-0.033869,0.041574,-0.041594,-0.101026,0.069995,-0.010624,0.043852,0.070400,0.083065,0.059208,0.021905,-0.048456,-0.008355,-0.025552,-0.048281,0.111095,0.029230,-0.000691,0.057483,-0.062305,-0.044204,-0.021577,0.040981,-0.026136,0.024252,-0.081570,-0.061575,-0.001950,0.019559,0.069936,-0.028735,-0.091456,-0.073039,0.043099,-0.145520,0.123736,0.091091,-0.085502,0.081282,0.087364,-0.032476,0.083050,0.054280,-0.061886
-0.015136,-0.003042,-0.078907,-0.006309,-0.071270,-0.095355,0.004719,-0.037205,0.062245,0.055622,-0.004455,0.016325,0.018164,-0.057682,-0.057388,0.004213,-0.076501,0.001906,-0.098706,0.044706,-0.052155,0.129633,0.050388,-0.090915,-0.024423,0.010101,-0.001054,-0.041182,-0.035411,0.072368,0.033751,-0.083333,0.047573,0.041270,-0.039692,0.021023,0.013125,0.084202,0.022501,-0.042204,-0.050699,-0.027234,0.005079,-0.091504,0.040240,-0.043863,0.025248,0.009885,-0.011055,-0.031892,0.104167,0.018235,-0.089954,-0.013268,-0.049199,-0.010141,0.093669,-0.003840,0.032880,0.024868,0.041397,0.027997,0.064254,0.053708
0.026903,0.052552,0.097242,-0.026272,-0.089595,-0.117880,0.059301,0.065791,-0.013779,0.006997,0.009000,0.033231,-0.096032,-0.053113,0.056232,0.014441,-0.109397,-0.019276,-0.009532,0.025382,0.090447,-0.023693,-0.000104,0.014648,0.035717,-0.029847,0.036635,0.092722,-0.038422,-0.040286,-0.091735,0.019500,0.014991,-0.044882,0.025728,-0.125486,0.023248,0.022153,0.098177,0.072370,-0.003597,-0.044347,-0.130675,-0.007033,-0.096642,0.073107,0.083099,-0.102929,-0.052648,-0.074239,-0.039978,0.097511,-0.058883,0.011480,0.028898,0.027369,0.091562,0.048783,-0.064449,0.017840,0.046985,-0.029947,0.151825,-0.007681
0.013232,0.033772,-0.017719,0.094359,0.091304,-0.087541,0.048820,-0.021922,0.030838,-0.012607,0.080274,-0.044162,0.077838,-0.058761,-0.055902,-0.040067,-0.009729,-0.027079,-0.101838,-0.027898,-0.015271,0.057373,0.072563,0.107707,-0.024287,0.049985,0.004926,0.053916,-0.009338,0.049110,0.008562,0.009532,0.022575,-0.004708,-0.078810,-0.039115,-0.083531,0.055904,-0.002851,0.060606,0.013159,-0.006589,-0.022764,-0.013990,-0.069841,-0.114555,-0.075060,-0.003518,-0.046022,-0.084409,-0.014809,-0.062279,-0.026352,0.023604,0.028798,0.017922,-0.015795,0.111631,0.094853,0.078540,-0.066576,0.037348,0.007303,-0.046638
0.070722,0.031450,0.077043,0.163766,0.008308,0.043344,0.054800,-0.028953,-0.038728,-0.027449,-0.131637,-0.015333,0.075673,0.019856,-0.079998,-0.078681,-0.007340,-0.022063,-0.019859,0.021419,0.052621,-0.001043,-0.036714,0.000676,0.097616,0.076939,0.000377,0.058446,-0.045644,-0.076062,0.060146,0.009593,-0.087593,-0.143392,0.050539,-0.120938,0.018276,0.063626,-0.085896,0.026613,-0.017453,-0.046125,-0.014177,-0.070784,-0.128334,-0.018046,0.010623,-0.027689,0.014136,-0.015589,0.007397,0.112669,-0.024170,-0.092856,0.038388,-0.004501,0.067333,-0.003708,-0.043805,0.063097,-0.100503,-0.126503,0.037837,-0.085367
0.048406,0.078800,0.013665,0.040007,-0.029559,0.017592,-0.008373,-0.002718,0.001808,0.008816,0.014827,-0.039845,0.041877,0.008233,0.027004,0.025094,-0.000034,0.065151,-0.083131,0.110357,0.066079,-0.044719,0.035152,0.119566,-0.047306,0.022028,0.004559,-0.046669,0.076284,-0.068509,0.026869,0.034028,-0.024447,-0.022326,0.010112,0.099167,-0.001058,0.074481,0.020879,-0.018308,0.128207,0.042742,0.010404,-0.072217,-0.030756,0.031664,-0.009950,0.043101,-0.033019,-0.035365,0.091127,-0.016732,-0.049999,-0.036972,-0.047299,0.033798,0.070907,-0.008228,0.017573,0.045602,0.051361,-0.084844,0.013935,0.029817
-0.039366,-0.066603,0.004932,0.031623,-0.144839,-0.045058,-0.032629,0.068789,0.064591,-0.097712,0.048477,-0.062601,-0.028946,0.003900,0.044724,0.025392,0.009015,0.071457,-0.074185,0.119294,0.067360,-0.060130,-0.133344,0.004073,0.056611,-0.005254,-0.014725,-0.059307,0.053235,-0.066456,0.110658,-0.079795,-0.042557,0.144695,-0.064566,0.056451,-0.041331,0.002071,0.090996,-0.009708,-0.061394,0.005308,0.074942,0.074485,-0.008617,-0.061764,-0.017381,-0.021481,0.013813,0.090960,0.004763,0.007646,-0.015286,-0.058855,0.076215,-0.029684,-0.001732,-0.011096,0.008244,-0.035805,-0.118806,-0.034422,0.001033,-0.033252
-0.028771,-0.099079,-0.077642,-0.065634,-0.064195,0.017304,0.111677,-0.032006,0.003119,-0.028772,0.052470,0.051106,-0.042342,-0.034345,0.011755,0.084672,0.012760,-0.027767,-0.005374,-0.053189,-0.098731,-0.082818,0.088423,-0.060195,-0.093790,-0.044934,-0.052678,-0.007066,0.024040,0.059134,0.001205,-0.043932,0.068444,-0.096841,-0.066747,-0.045543,0.015141,0.057215,-0.060520,0.040500,-0.014625,0.035756,-0.096414,-0.033508,0.081863,-0.091624,0.034840,0.040917,-0.085867,-0.054127,-0.003625,0.029367,0.051801,-0.034750,0.018873,0.055825,0.030073,0.022876,0.003734,0.014077,-0.019826,-0.033783,0.040635,-0.034182
-0.050253,0.003034,0.030579,0.036755,0.078242,-0.072181,-0.054962,-0.005798,-0.036717,-0.084347,-0.048320,-0.039537,0.089358,-0.032591,-0.047610,0.019859,0.034462,0.028466,-0.002991,-0.057204,-0.052938,0.030486,-0.009347,-0.019490,0.086725,-0.028585,0.095303,-0.065368,0.070204,-0.070979,-0.074032,0.072598,-0.101970,-0.023505,-0.118503,0.058732,-0.030346,0.041899,-0.021531,-0.000906,0.081558,-0.076618,-0.014922,0.012314,-0.009417,0.091123,-0.059543,0.001122,-0.026094,-0.021367,-0.083677,0.061692,-0.027409,0.079083,0.035653,0.008040,-0.069172,0.077386,0.066496,0.008881,-0.034692,0.059230,-0.015586,0.016269
-0.045304,-0.074261,-0.019790,-0.020115,0.144633,-0.036528,0.000467,0.068949,-0.045925,-0.027220,-0.038946,-0.059838,-0.114465,0.029429,0.097650,-0.101736,-0.017943,0.020502,-0.020207,-0.039531,-0.033027,0.096949,0.080465,-0.048727,-0.000272,-0.011511,-0.027690,-0.042324,0.078778,0.011196,-0.001246,0.015482,-0.057340,0.063754,0.077792,0.071260,-0.021356,-0.063910,0.074776,0.078151,0.027931,0.064198,-0.030027,-0.000455,-0.074790,0.132057,0.164495,0.014455,0.038474,-0.082278,0.056767,-0.050494,0.011231,-0.042709,0.059725,-0.085114,-0.083221,0.048447,-0.035367,-0.062748,0.090001,0.030453,-0.005709,-0.003766
-0.085794,-0.084656,-0.048423,-0.103787,0.119282,-0.044466,0.087867,0.051971,-0.137065,0.093401,0.015653,-0.027290,0.008753,0.040100,0.022256,0.068840,-0.042438,0.004742,-0.106264,0.024126,-0.043001,0.102940,0.089864,0.030276,0.012564,-0.008926,0.031945,-0.048592,-0.045865,-0.103371,0.050667,0.109435,-0.056388,0.017150,0.052184,0.107891,0.015712,-0.008456,0.008052,-0.008468,-0.003491,0.046226,0.058145,0.061489,-0.037489,0.121398,0.114486,-0.006731,-0.035633,-0.042410,-0.026762,-0.054380,-0.031170,-0.018556,0.170698,-0.070764,-0.072931,-0.001930,-0.073245,-0.057204,-0.008025,0.075733,0.033470,0.009273
-0.105009,-0.025655,-0.046385,-0.060915,0.023256,0.053008,-0.032589,0.052215,-0.060638,0.138761,0.039196,0.008528,0.053432,-0.008785,0.057646,0.067673,0.094640,0.052190,-0.076690,0.008579,0.076143,-0.000302,0.074621,-0.010237,0.111069,-0.043277,0.035580,0.063143,0.048628,-0.034620,-0.008167,0.010803,-0.006460,-0.047838,0.011878,0.016950,-0.041861,0.051885,0.012823,0.061876,0.111792,0.051421,0.078058,0.004820,-0.102006,-0.024546,0.083615,0.000954,0.086850,-0.042162,0.121570,0.025457,0.001234,-0.029604,0.117209,-0.045524,-0.012528,0.000365,-0.035386,-0.073707,-0.053352,-0.011351,-0.029890,-0.005660
0.068547,0.027860,0.015347,0.020228,-0.062599,0.111748,-0.027747,-0.054353,0.017030,-0.009885,-0.028586,0.078890,-0.025683,0.050665,-0.047674,0.040224,-0.020399,-0.032522,-0.047871,0.044228,0.043575,-0.091411,-0.016003,0.053947,-0.022896,-0.012992,-0.111948,-0.026771,0.126149,0.027382,0.038408,-0.026266,-0.117308,0.047770,0.071266,0.003433,0.018160,-0.014892,0.071450,0.021425,0.054920,-0.029592,-0.019977,0.006542,0.000745,0.057893,-0.029605,-0.093970,-0.022513,-0.075545,0.093523,-0.003813,-0.019300,0.015065,0.090580,-0.066782,0.100231,-0.035316,-0.065163,0.006597,-0.031093,-0.022774,-0.047854,-0.009393
0.083133,-0.047212,0.014102,-0.049203,0.011414,-0.013348,-0.016021,0.039024,-0.050102,-0.082609,0.001894,-0.081776,0.121940,0.041517,0.049281,-0.103878,0.048004,-0.001266,0.040121,-0.036936,-0.050954,-0.040456,-0.011070,-0.007829,0.041648,0.059492,-0.074044,0.045682,0.076883,-0.098285,-0.083762,-0.070644,-0.096191,-0.010371,0.084309,0.088419,0.075231,0.020504,0.090889,0.002029,-0.117623,0.062038,-0.048337,0.105106,0.026833,-0.022130,-0.079615,-0.088383,0.034966,-0.005639,-0.016484,0.031269,0.029343,0.036486,0.009497,0.038052,-0.057041,0.048748,0.019320,-0.113684,-0.078116,0.043940,-0.026130,-0.024206
-0.023008,-0.100913,-0.038822,-0.073942,-0.051080,0.033367,-0.014340,-0.006725,-0.126011,-0.052109,0.018514,-0.055750,0.101326,0.016080,0.048424,0.066562,0.041143,-0.025345,0.024891,-0.017725,-0.023027,-0.030621,0.029371,0.028950,0.052090,-0.031445,0.091060,-0.064513,-0.008273,0.051586,0.022409,0.038611,0.034917,-0.054583,-0.038601,-0.015746,0.030731,0.016006,-0.019156,-0.079244,-0.097824,0.074729,0.012331,-0.071172,-0.051690,-0.068049,-0.064621,-0.061260,-0.011201,-0.020772,-0.039912,0.020355,-0.004998,0.000940,-0.041788,0.057287,0.029540,-0.056740,0.075740,0.011428,-0.032023,0.039058,-0.016477,0.053548
0.034093,-0.035854,-0.129638,-0.016137,0.107625,0.023955,0.006494,-0.041359,0.021492,0.030790,0.036473,0.016618,0.015772,-0.064616,0.076777,-0.054910,0.065238,-0.081143,-0.082511,-0.062057,-0.077268,-0.052215,-0.022325,-0.036707,-0.006678,-0.031706,-0.095804,0.051770,-0.037590,0.100835,0.008458,-0.035170,-0.063444,-0.036995,-0.021572,0.004620,-0.008964,-0.094281,-0.070303,0.076129,0.048859,0.012299,0.031649,-0.003468,0.114303,-0.015512,0.009185,-0.055449,-0.021822,0.061934,0.008447,-0.026957,-0.056546,0.069907,-0.030061,-0.048063,-0.011772,-0.028973,-0.065109,-0.016449,0.062019,0.007785,-0.128202,0.070822
-0.053248,0.009122,-0.009521,-0.048105,-0.004645,-0.003016,0.013660,0.004482,0.030805,0.040643,-0.024177,0.081244,-0.080549,0.068841,-0.013660,0.017097,0.034571,-0.019580,-0.038372,0.022464,-0.092627,-0.060452,0.048003,-0.073724,-0.132545,0.024288,-0.035821,-0.062339,0.066948,0.061786,0.008237,-0.009801,0.031368,-0.039576,-0.043924,0.054574,0.061672,-0.056570,-0.072729,0.077549,-0.014488,-0.006042,-0.038203,0.022215,-0.044922,0.053954,-0.067331,0.038937,0.029118,0.079432,0.048953,-0.058046,0.031617,0.058635,-0.041624,0.087186,0.113293,-0.035436,0.012576,0.005458,0.047781,0.055966,0.008782,-0.096741
0.052315,-0.018434,0.102612,-0.079357,-0.080181,-0.034911,-0.055334,-0.001022,-0.000745,-0.011844,0.092996,0.107892,-0.080977,-0.041835,-0.043963,-0.018885,0.042073,0.057391,-0.025244,0.003504,0.034502,-0.017606,0.028377,0.012150,0.012536,-0.032001,-0.002675,-0.045044,-0.083786,0.028416,0.055107,0.018247,-0.036207,-0.004601,0.030752,0.010401,-0.061069,0.014964,0.055082,-0.070633,0.015463,-0.029959,0.026614,-0.027711,0.022009,-0.000400,0.020754,0.004823,0.024600,0.095196,0.002767,0.021295,-0.051947,0.073868,-0.083333,-0.043700,-0.041434,0.007383,-0.069921,-0.059091,0.031407,-0.038339,0.021751,0.039505
0.012276,-0.009521,0.033208,-0.063469,0.070317,-0.073798,-0.017585,-0.030487,-0.004207,-0.010880,-0.044929,0.058870,-0.011362,-0.068179,-0.074353,0.075586,-0.064015,-0.052094,-0.041420,0.093515,0.052879,-0.089432,0.023153,-0.026187,0.003225,-0.021801,-0.036528,0.055584,0.057798,-0.022821,0.091728,-0.002385,-0.019860,0.023305,-0.008087,0.006469,0.049238,0.080646,0.146600,-0.026582,-0.008675,-0.006230,-0.040630,0.006737,0.059385,-0.067495,-0.084634,-0.003694,-0.004225,-0.046125,-0.041043,-0.101321,-0.040646,0.038085,0.036031,0.049537,-0.046055,-0.107364,-0.058477,0.077423,-0.048015,-0.025620,-0.118693,-0.005697
0.016141,0.005472,0.012580,0.050203,0.000382,-0.052317,-0.092320,0.022571,0.045884,-0.053973,-0.114150,0.006660,-0.039648,0.011041,-0.006881,-0.059178,0.046903,0.021522,0.006887,0.081517,-0.106549,-0.155247,0.040485,0.042029,-0.030988,0.008197,0.040500,0.076828,0.061370,-0.015517,0.078839,0.048521,0.080749,0.082517,0.034773,0.077599,0.074388,0.062497,0.042589,-0.041446,0.027871,-0.015041,-0.017751,0.123542,0.048942,0.113747,-0.012489,0.051252,-0.081619,-0.030713,-0.015162,-0.026543,-0.012156,-0.003591,-0.065500,-0.024996,0.090733,0.037140,0.061055,0.060673,0.053412,0.058019,-0.027340,-0.076562
0.049082,0.015812,-0.022940,0.083900,-0.016436,0.104350,-0.049485,-0.042765,0.103249,-0.059806,-0.038769,-0.076475,-0.042876,0.064533,0.059160,-0.118465,0.061092,0.039435,-0.091355,-0.040492,-0.022728,-0.054837,-0.009474,0.147148,-0.059746,-0.096924,-0.021237,-0.066377,-0.111550,0.030902,0.038854,0.077393,0.016449,0.019549,0.044011,-0.061898,0.057744,0.101663,-0.065674,0.051518,0.055134,0.078357,-0.083710,0.001066,0.072348,-0.106305,-0.032960,0.099331,-0.033691,0.097793,-0.075424,-0.025699,-0.000598,-0.040922,0.030522,-0.072681,0.142786,0.049757,0.073419,0.072630,-0.044264,0.063682,-0.074065,-0.024877
-0.019369,0.066802,-0.013352,0.079604,0.013625,0.045505,0.127610,-0.033477,-0.038333,0.037175,-0.008344,-0.024207,0.066944,-0.013215,0.014306,0.031883,0.001111,-0.001576,0.056299,-0.039499,-0.000761,-0.001707,0.017133,0.026492,0.099805,0.002148,-0.048288,0.028994,0.090122,0.021177,-0.093765,0.079658,0.058051,-0.128526,0.037327,-0.077305,-0.015905,-0.003774,-0.008590,-0.084209,0.050516,0.021506,0.067386,-0.056140,0.053591,0.050386,0.105447,0.061904,-0.010487,0.016542,-0.048848,-0.082977,-0.053724,0.060998,-0.017028,-0.042775,-0.016770,-0.033963,0.004198,0.045226,-0.078414,-0.084599,-0.006289,0.030779
0.026163,-0.032412,-0.074862,-0.004369,0.015180,-0.019258,0.032263,-0.067704,-0.048710,-0.054797,-0.030605,0.004821,-0.036654,0.027910,0.024662,-0.066377,-0.016964,-0.084857,-0.037740,-0.056136,0.075503,0.021447,0.111721,0.032941,-0.020197,0.052512,-0.042794,0.092964,0.056272,0.025523,0.063243,-0.039008,0.003053,-0.053130,0.054678,0.006355,-0.066917,0.005828,0.034565,0.064790,0.071100,0.052702,0.025897,-0.049465,-0.057141,-0.073050,0.053597,0.051717,0.054140,-0.016916,-0.014069,0.150335,0.080458,0.058677,-0.061658,0.072533,0.062408,-0.038173,0.049797,-0.070679,-0.019810,-0.078180,0.051782,-0.060130
0.024309,-0.084905,-0.068237,-0.042493,-0.075770,-0.068574,0.053683,-0.052534,0.000292,-0.084151,0.072055,-0.031677,0.031880,0.077715,0.073306,0.038577,0.002272,-0.004028,-0.038836,-0.098116,0.034520,0.045587,-0.080194,-0.042354,-0.058850,0.033071,0.076639,0.095651,0.010130,-0.031733,-0.019489,-0.066105,0.093681,0.037754,-0.028232,-0.037429,-0.013564,0.043358,-0.019502,-0.043000,0.052195,0.054181,-0.065653,0.024421,-0.000285,0.017806,0.043310,0.013051,0.021103,0.019409,0.020062,0.109872,0.021603,-0.090341,-0.062466,0.054329,0.015613,0.028220,0.079019,0.002672,-0.092311,-0.115605,0.036058,0.003134
-0.087279,-0.086629,-0.037180,-0.006690,-0.107595,0.050896,0.050425,0.032692,-0.148922,0.028323,0.000311,-0.021924,0.014027,-0.064473,0.040272,0.064489,-0.021403,-0.038082,-0.052867,-0.006029,-0.015567,-0.001311,0.044978,0.051882,0.067579,-0.045247,0.067023,0.067011,-0.025036,0.004902,-0.057990,0.092589,0.017879,-0.030832,-0.129736,0.016384,0.009241,-0.022452,-0.046889,-0.006201,0.019590,-0.084177,-0.033429,-0.018340,0.064087,0.025168,-0.065635,-0.133431,-0.043305,0.066620,0.008054,0.075037,0.027468,0.020439,-0.049139,0.083820,0.052244,-0.140748,0.065760,-0.029209,0.030258,-0.026831,0.051694,0.047243
-0.050200,0.034630,0.023760,-0.097171,0.106665,-0.037897,0.080512,-0.019183,-0.033877,0.057354,-0.038408,-0.067337,0.019445,-0.077132,0.009277,-0.027914,0.010766,-0.019607,-0.039271,0.028679,-0.038268,0.037551,0.056150,0.025318,0.041621,-0.070457,0.009899,-0.054627,0.051789,-0.003662,0.028382,0.070487,0.050441,0.059783,0.077594,-0.015838,-0.014265,-0.067080,0.087011,0.059975,0.008076,-0.015286,0.016552,-0.057445,0.007826,-0.080614,-0.004407,-0.042099,-0.002372,0.069781,0.079256,0.005828,-0.019660,-0.053884,0.029461,-0.002946,-0.025755,-0.050134,0.067971,0.042673,0.081262,-0.062908,-0.145119,-0.054099
0.064831,-0.094899,-0.054753,0.005478,-0.064074,-0.006780,0.101508,-0.038517,-0.006441,-0.029130,-0.028095,0.059746,-0.001335,0.037500,-0.033665,-0.059547,0.049024,-0.037969,0.038753,-0.008754,-0.045213,-0.076516,-0.011575,0.030578,0.054901,0.027173,0.012179,-0.053785,-0.012228,-0.041281,-0.108326,-0.066130,-0.094616,0.069130,-0.030162,0.021630,-0.028052,0.035807,-0.001990,0.001903,-0.093166,-0.079055,0.132243,0.024506,0.003381,0.021675,-0.001658,-0.113142,-0.037850,-0.026016,-0.014362,-0.083759,-0.079970,0.078842,0.010274,-0.088262,-0.074896,-0.013519,-0.082869,-0.012787,-0.031451,-0.026792,0.001366,0.030115
-0.052910,-0.077628,0.091009,0.050094,0.038358,-0.020160,0.012181,-0.001827,0.022011,0.020432,-0.068602,-0.102420,0.074053,-0.017257,0.044530,0.000070,-0.100629,-0.109490,-0.060182,-0.062794,-0.030253,-0.009924,0.020479,0.010667,-0.014985,-0.020270,-0.003880,-0.033996,-0.047937,-0.037451,-0.118529,-0.054527,0.029221,-0.050742,-0.065738,-0.033242,0.008075,-0.053066,-0.004745,-0.076631,-0.141555,0.019206,-0.071678,-0.025428,-0.024550,-0.002429,-0.022750,0.047987,0.103722,-0.015030,-0.053161,-0.092430,-0.008728,0.036571,-0.014719,-0.093633,0.036102,-0.002551,-0.073239,0.084094,0.113891,-0.004250,0.097321,-0.077922
0.013596,-0.017122,-0.116779,0.030904,0.008366,0.145628,0.037576,-0.071602,-0.012949,0.076514,0.044084,-0.005250,-0.030701,0.022742,0.031029,-0.031732,-0.046545,-0.063849,-0.043883,0.042958,-0.017813,0.040885,0.031791,0.026611,0.081442,0.035233,-0.016177,0.070127,0.052054,0.056113,0.006939,0.000860,-0.017876,-0.014380,0.011338,0.029950,-0.087621,0.001296,0.091107,-0.019844,0.037880,0.046015,0.073294,0.006647,0.024816,0.059531,-0.023216,-0.038520,-0.001953,-0.022506,0.009949,-0.103375,-0.011322,0.090852,0.068677,-0.036259,0.062921,0.043469,0.015139,0.017081,0.009004,0.038214,-0.065468,-0.008423
0.051465,0.000116,-0.075757,0.048518,0.071416,0.066424,0.058510,-0.011284,-0.002165,-0.042721,-0.038050,-0.031349,-0.075526,-0.064666,-0.085213,0.026010,0.000672,-0.029353,0.007301,0.094988,-0.059229,0.011452,0.078827,-0.008674,0.056245,0.035170,-0.089652,0.007830,0.012811,0.021418,-0.000591,0.019683,0.009509,-0.048401,0.066011,-0.016900,-0.021631,-0.088916,0.093783,0.037789,0.036497,-0.037197,-0.031002,-0.082524,0.001483,-0.028957,-0.047154,-0.015867,-0.004682,0.037613,-0.009267,-0.038046,-0.040827,0.081928,0.017577,-0.013986,-0.075890,0.063281,0.002586,0.000376,-0.073447,0.043075,-0.050946,-0.027632
-0.064315,-0.073099,-0.020677,0.066743,0.064059,-0.010049,-0.023481,-0.075997,0.136462,0.052932,-0.020506,0.001391,-0.097065,-0.045364,-0.053625,-0.025963,0.063332,0.047965,-0.038479,-0.026997,-0.071160,0.027022,0.005188,0.063191,0.021183,0.010346,0.002835,-0.039740,0.041098,0.034045,0.096817,0.009785,0.029640,0.023564,-0.055088,-0.009053,-0.114086,-0.029316,-0.064674,-0.024225,-0.055786,0.062381,-0.051293,-0.003976,0.096887,0.085717,-0.007145,-0.076135,0.030143,-0.081231,-0.074355,0.048010,-0.109675,0.017711,-0.033518,0.004469,0.109627,0.037662,-0.092062,-0.036640,-0.104670,-0.043469,-0.039597,0.063242
0.098503,0.093674,0.031603,0.086543,-0.068968,0.007882,0.017611,-0.091794,-0.038151,-0.096232,-0.087387,0.126511,0.017070,-0.080366,0.024763,-0.001794,-0.062682,-0.058705,-0.012962,-0.039649,0.041310,0.025375,0.046348,0.035175,-0.055036,-0.008366,0.070707,-0.103787,0.002744,0.101599,0.100322,-0.050894,-0.004009,-0.087936,-0.007301,0.029142,-0.026652,-0.046985,0.007522,-0.055780,-0.135001,-0.028810,-0.001202,0.037985,-0.026230,0.009373,-0.024407,-0.009756,0.057906,0.058557,-0.045771,-0.040605,0.058829,0.062845,0.001508,0.022250,-0.012533,-0.088211,-0.008857,-0.011103,0.028891,0.020913,-0.017135,-0.024795
