10
256,64,64,64,64,64,64,64,64,3
-0.025131,0.016227,-0.017790,-0.012073,-0.062927,0.006246,-0.044006,-0.027142,-0.100620,0.041215,0.026898,-0.086420,0.085258,-0.055325,-0.024643,-0.046197,0.034711,-0.022880,0.058134,-0.037282,-0.033054,-0.080976,-0.009311,-0.022769,-0.102588,0.026559,-0.014052,-0.081128,-0.029141,-0.036546,-0.055260,0.011834,0.019638,0.007431,-0.057201,-0.052602,-0.052114,-0.032082,0.031473,0.006008,-0.005536,-0.017336,0.035325,-0.011733,0.040174,-0.063512,-0.010899,-0.042776,-0.015592,0.038363,0.023423,0.031519,0.015245,-0.007529,-0.063973,0.031535,-0.067836,-0.043841,0.115760,0.014330,0.045687,-0.080487,0.008499,0.026509
0.037343,-0.049285,0.015636,-0.063360,0.005904,0.030382,-0.078952,-0.047860,-0.004093,-0.032985,-0.108563,0.100504,0.036868,0.061202,-0.005785,0.097193,-0.034568,0.051344,0.041010,0.011746,0.013845,0.064846,0.011477,-0.000845,-0.004826,0.014637,-0.063192,-0.015332,0.015871,0.063166,-0.057049,-0.075705,0.009129,-0.083725,-0.012968,-0.053929,0.008455,0.054485,-0.001651,0.055688,0.087009,-0.025241,0.054962,0.012979,-0.029244,-0.096976,-0.075325,0.013272,0.060305,0.043613,-0.054377,-0.053710,-0.092422,-0.014996,-0.070007,-0.032697,-0.049993,0.015947,0.032812,0.069385,-0.005729,0.009089,0.103316,0.000786
0.045812,-0.057531,0.003491,0.054848,0.033198,-0.032619,0.001333,-0.019050,-0.049066,0.030454,-0.021211,0.030904,0.043084,-0.009991,-0.060297,0.002884,0.076834,-0.041294,0.019347,0.046192,0.066295,0.103904,0.023043,-0.098113,0.022022,0.088503,0.054083,-0.078674,0.077363,0.128287,0.089431,-0.083327,-0.097622,-0.003083,0.138821,0.037735,0.134265,0.077526,0.017371,-0.049005,-0.042600,0.028149,0.098900,0.033149,-0.035384,0.015493,-0.068325,0.089551,0.065532,-0.021248,0.041735,0.043515,-0.018267,0.058749,0.081450,-0.019006,0.013484,0.142634,0.092366,-0.090608,-0.026762,0.134763,-0.045012,0.042997
0.028366,-0.071071,-0.056968,-0.055273,0.026495,-0.101878,-0.054769,-0.117670,0.068943,0.093295,0.027376,0.009633,-0.015798,-0.088730,-0.018036,-0.047374,0.002994,0.060259,0.075375,-0.011366,0.067593,0.062327,-0.010883,-0.045192,0.076182,-0.075788,-0.062076,0.100990,0.126037,0.028885,-0.086380,-0.026149,-0.001112,-0.092149,0.051182,0.014912,-0.047561,-0.055651,0.067328,0.088052,-0.079513,0.042620,-0.007313,0.050985,0.062049,-0.070694,0.009894,-0.030862,0.083297,0.023176,0.014615,0.016722,0.014911,-0.043354,0.047461,-0.060003,-0.005042,0.018904,-0.038612,-0.053410,-0.007870,0.006569,-0.009900,-0.006003
0.053689,-0.041561,-0.036353,-0.016922,-0.009156,0.144494,0.034082,0.040946,0.019602,-0.003341,0.058622,0.112838,0.036347,-0.077862,-0.045586,0.034505,0.051580,0.029395,-0.030121,-0.043571,0.107358,-0.011550,-0.121842,-0.076106,0.057104,-0.059505,-0.029169,-0.049641,0.039138,-0.059128,-0.086070,0.006642,-0.050803,0.031547,-0.063767,0.005653,0.012519,0.046253,0.091445,0.024860,-0.035954,0.078719,-0.062316,-0.028424,0.022336,0.022100,-0.034844,-0.014739,-0.103274,0.017606,0.004878,0.074587,0.042012,0.067948,-0.023444,0.001632,-0.056322,-0.006063,0.043295,0.044670,-0.018249,-0.093436,-0.057787,0.050550
0.028844,-0.028678,-0.059135,-0.042919,-0.052988,0.017393,-0.073481,0.042809,-0.007645,-0.024913,0.022770,-0.009728,0.009006,-0.038405,0.008516,0.086790,0.003199,-0.046303,0.030231,-0.061100,0.076782,0.069830,-0.025154,0.034154,0.038116,-0.072238,0.080154,-0.075604,-0.002422,-0.091488,-0.039303,0.013979,-0.012522,0.048128,-0.056996,0.044926,-0.052952,-0.028455,-0.036688,0.017811,0.053697,0.084748,-0.024048,0.067117,0.026069,0.094823,-0.004553,-0.064978,0.100942,-0.025858,-0.033670,0.092182,-0.014168,0.139925,0.033520,-0.015726,-0.076113,-0.052523,-0.052328,-0.004505,-0.040841,-0.061453,0.002668,-0.094912
-0.028634,-0.039252,0.008822,-0.010634,0.048697,-0.081721,0.006538,0.043583,-0.034835,-0.000271,0.023580,0.055797,-0.034614,-0.019616,0.064355,-0.020098,-0.001608,-0.063990,-0.101371,0.070047,-0.041885,0.008928,0.032466,-0.059186,-0.011017,-0.030150,-0.026453,-0.022202,0.022970,0.009782,-0.002712,0.078540,0.035953,-0.029782,-0.023907,0.014073,-0.045225,-0.085189,-0.086767,-0.077598,0.040205,-0.070359,-0.001145,-0.038481,-0.053169,-0.023452,-0.003928,0.027431,-0.007978,-0.027796,0.018100,-0.008537,0.014778,0.037026,0.053402,0.038340,0.018753,0.006237,0.041713,-0.053050,-0.045291,-0.039204,-0.041930,-0.054918
0.061747,0.013000,0.047077,-0.056633,0.038848,0.026933,0.044993,0.031367,0.047172,0.010287,0.026406,-0.019633,0.049942,-0.093683,0.019670,-0.096391,-0.053305,-0.036923,0.058949,-0.000895,0.064582,-0.049138,0.052872,-0.020227,0.031324,0.088637,0.042939,-0.027377,-0.045074,0.121516,0.078230,-0.030429,-0.024484,-0.043353,-0.005354,0.130739,0.086300,-0.053203,-0.041834,0.060520,-0.045123,-0.000344,0.027030,-0.046275,-0.079213,0.040616,-0.026787,-0.065139,-0.011509,0.042953,0.018484,-0.062114,0.059086,0.012287,0.063608,-0.079746,-0.048041,-0.127228,-0.072618,-0.061621,0.053991,-0.103968,0.018288,0.110230
0.030057,-0.022862,0.065489,-0.007470,0.025609,-0.112566,0.014677,0.058639,0.067837,-0.076166,0.078699,-0.004993,-0.115072,0.001361,0.013403,-0.033199,0.009619,0.056071,-0.022226,-0.011208,-0.043916,-0.067484,0.057672,0.064757,0.036564,-0.044066,-0.010868,-0.069260,-0.064082,-0.081429,-0.017915,0.066359,-0.025148,0.072122,-0.016350,0.082187,0.053383,0.038100,-0.027921,0.089980,0.018807,-0.072760,0.058090,-0.009296,0.054691,-0.031587,0.016632,-0.013792,-0.053866,-0.085148,0.067450,0.002433,-0.104968,0.011727,-0.118735,0.087497,-0.022382,-0.092640,-0.098794,-0.093354,-0.055940,-0.115414,-0.049880,0.031757
-0.020108,0.013131,-0.063489,-0.081101,-0.014976,0.065079,-0.030405,0.016061,0.057719,0.029247,0.063685,0.047125,-0.086409,-0.028363,0.009676,-0.036942,-0.041323,-0.021185,-0.004432,-0.003411,0.023259,-0.010530,-0.007246,-0.041156,-0.014491,0.009968,0.014418,-0.082448,0.037550,0.005161,0.020484,0.023264,0.080562,-0.091927,0.077346,0.006383,-0.006471,0.060222,0.055993,0.051788,0.114246,0.019747,-0.018620,-0.081505,0.085130,0.019058,-0.031660,-0.039016,0.019640,-0.069179,0.049592,0.012334,0.012829,-0.048307,-0.001155,0.082439,-0.014601,0.043222,0.003249,0.001074,0.016022,-0.071835,-0.049638,0.043068
-0.050430,-0.049821,-0.005136,-0.048010,-0.089574,0.089119,0.007856,0.093033,-0.044280,-0.057432,0.013321,0.065425,0.052437,0.000285,0.047574,-0.009435,-0.031660,-0.046111,0.055970,-0.064962,0.017242,-0.040818,0.080837,-0.066532,-0.056125,0.044382,-0.009531,0.059270,0.047581,0.078960,-0.014416,-0.070432,0.001715,0.043647,0.007118,0.048998,-0.069589,-0.055865,0.044280,-0.002963,0.034028,0.052619,-0.097843,-0.091370,-0.078484,-0.010672,0.038892,0.005998,0.013205,-0.016291,0.022240,-0.028585,0.039563,-0.042173,-0.001582,-0.031913,0.039591,0.050018,0.093582,0.065134,0.042829,0.017827,-0.010698,-0.028539
0.040967,-0.020432,-0.138689,0.096859,-0.038560,0.093499,-0.082785,-0.063400,0.050179,0.022536,0.016242,0.065421,0.070118,-0.008619,-0.020155,0.030745,0.013623,0.096908,0.053343,-0.049292,-0.014397,-0.078037,-0.032511,-0.042053,0.052628,0.116252,-0.015304,0.038407,0.082579,0.090252,0.015552,-0.016155,-0.004719,-0.085411,-0.033046,-0.078035,0.079860,-0.023618,0.077804,0.068354,0.014739,0.073836,-0.012764,0.035078,0.046283,0.041209,-0.012983,-0.040461,0.018908,-0.041591,-0.020764,-0.069627,-0.011302,0.049010,0.014123,-0.093590,0.018615,0.051604,0.062300,-0.001153,0.048385,0.032176,0.032741,-0.019142
-0.019078,0.084633,0.039881,0.032546,-0.007781,0.032837,-0.097235,0.085790,0.046438,0.086357,0.044859,0.062707,-0.071079,0.067893,-0.003377,0.096875,0.107467,-0.063878,0.060479,-0.028530,0.064183,0.105030,-0.044656,-0.040284,-0.127928,0.031074,-0.044425,0.056490,0.022213,0.039533,0.033911,0.081792,-0.070534,0.000382,-0.050925,-0.028551,0.029051,-0.055126,-0.011091,-0.034246,-0.060477,-0.044189,0.033689,-0.000712,0.044235,-0.067168,-0.018822,0.044026,-0.062967,-0.046352,0.079346,-0.081648,-0.022533,-0.041466,0.000699,-0.012300,-0.065055,0.097251,-0.073099,0.022430,-0.066791,0.084026,0.000171,-0.021591
-0.001340,0.081248,0.090389,0.033857,-0.071648,-0.073090,0.022196,0.041065,0.045495,0.027115,0.004278,-0.072960,-0.001974,0.064453,-0.103115,0.032748,-0.043931,-0.089525,0.041540,-0.009141,-0.031812,0.010817,0.056301,0.026015,-0.039253,0.054367,0.072040,-0.070533,-0.034105,-0.023882,-0.027096,0.023249,0.069753,-0.081006,-0.056513,0.077264,-0.008744,0.064155,0.042884,0.008553,-0.045272,-0.038079,0.062835,0.073001,-0.116616,0.087504,-0.071516,-0.076732,0.066116,-0.025368,-0.031013,-0.102182,-0.017009,0.093490,-0.011983,0.076068,0.070968,0.084663,0.041767,0.085415,0.019427,-0.021438,0.000525,0.072143
-0.066816,0.033098,0.063552,0.003921,-0.041522,-0.021666,-0.087057,0.079415,-0.015177,0.010200,-0.049643,0.002300,0.078554,0.107306,0.002608,0.012019,-0.078368,-0.059770,0.013499,0.030833,-0.043119,-0.078384,-0.112448,0.054698,0.034781,0.092398,-0.024227,-0.069767,0.041781,0.020424,0.075434,-0.108585,-0.109886,0.000933,-0.022012,0.087372,0.048574,0.002515,0.033702,-0.021011,-0.019001,0.101282,-0.062713,0.084596,0.030698,0.085899,-0.104591,0.015506,-0.045535,0.006304,-0.038470,-0.096162,-0.019851,-0.026381,-0.023985,-0.054409,0.023527,0.032711,-0.030770,-0.037739,0.029810,0.012036,0.021110,-0.030273
0.024882,0.038706,-0.076943,0.067660,-0.099747,-0.009359,0.094513,0.003128,-0.023272,-0.087815,-0.018672,-0.035903,0.087446,-0.047718,-0.034660,0.064885,0.111766,-0.011956,0.051626,0.029816,0.089350,0.009856,0.034752,-0.056034,0.037579,0.111594,-0.046423,-0.013915,-0.151529,-0.085508,0.061066,0.002366,0.019525,0.024827,-0.061136,0.030325,-0.089548,-0.067679,0.085540,-0.046021,-0.087876,-0.075214,-0.000533,-0.079583,-0.038126,0.054008,-0.079620,-0.032259,-0.059588,-0.023440,0.061529,-0.073252,0.025028,0.019016,-0.000687,-0.004162,-0.022743,-0.044860,0.089559,-0.060216,-0.019929,-0.056855,0.045756,-0.050172
-0.030714,-0.038212,0.043444,0.070046,0.000332,-0.019257,-0.028301,-0.002989,-0.047516,0.073149,-0.044372,-0.021206,-0.008853,-0.107419,0.044006,-0.000950,-0.025382,0.074938,0.080323,-0.073401,-0.026026,-0.071625,-0.022439,0.050851,-0.087025,-0.014020,-0.026114,-0.082912,0.087445,0.124330,0.015322,0.054684,0.000732,-0.028756,-0.031303,-0.050242,-0.030350,0.029143,0.082632,-0.015518,0.036158,-0.092266,0.077433,-0.022943,-0.035996,0.005011,-0.062286,0.026724,-0.031551,0.077492,0.030009,0.012772,0.136878,-0.053753,-0.041645,-0.008902,0.030693,-0.035690,-0.076600,-0.010470,-0.052601,0.055379,-0.008967,-0.042227
-0.000902,0.008732,0.058131,0.042610,0.021948,-0.017413,-0.104556,-0.077494,0.031726,0.007605,0.024073,0.098762,0.020504,0.034923,0.032825,0.057750,-0.015530,-0.010028,-0.024411,0.019834,0.008088,-0.073292,-0.030862,-0.114093,0.006097,0.087329,0.008804,-0.043904,0.010355,0.119010,0.003586,0.057492,0.018177,-0.024370,-0.015446,-0.047343,0.110264,-0.028966,-0.001269,0.043483,-0.070233,-0.031650,0.003802,0.083126,0.071189,0.063730,0.041749,0.014469,-0.017770,0.023036,-0.078162,-0.000730,-0.054933,-0.113539,0.032398,-0.043784,0.088291,0.003429,-0.001370,-0.082718,0.011989,-0.009609,0.031852,0.034473
0.033595,-0.041459,-0.052282,0.034561,0.026124,-0.029324,-0.015482,-0.071326,-0.007299,-0.010071,0.013807,0.005645,0.057413,0.065626,-0.053622,-0.045896,0.003337,-0.045217,0.009537,-0.089060,-0.033853,0.010108,0.010467,0.042400,-0.066396,-0.061686,-0.100375,-0.028272,0.035731,-0.060506,0.005667,-0.000119,-0.044300,-0.011945,-0.039100,-0.053677,-0.045201,0.050699,-0.035033,0.041222,0.086158,0.043430,0.043347,-0.040586,0.087896,-0.006949,-0.063227,0.065667,0.037278,0.041143,0.045754,0.028131,-0.002971,-0.105561,0.001822,0.086077,-0.074338,-0.073994,-0.084582,0.020445,-0.017130,-0.014600,-0.056409,0.079094
-0.007261,-0.007521,0.014499,-0.085176,-0.070663,0.011801,-0.062610,0.096474,0.023052,-0.030480,-0.074189,0.035536,-0.074637,0.057496,0.000388,0.008660,0.045745,-0.018859,-0.043505,0.066043,-0.012227,0.054979,-0.033006,0.044465,-0.047382,0.071473,-0.003621,0.027328,0.080987,0.032892,0.011711,0.022920,-0.042864,0.041802,0.034624,0.045264,-0.022939,0.041590,0.049934,0.004698,-0.001609,-0.007272,0.020331,-0.020389,0.092392,-0.043248,0.075974,0.075115,0.003840,-0.041234,0.059725,0.066729,0.036466,-0.032375,-0.038321,-0.098403,-0.021873,0.039706,0.034049,0.123605,0.092555,-0.041570,-0.055724,0.001437
-0.003040,-0.068999,-0.044243,-0.027864,0.045506,0.083443,0.023477,-0.035770,-0.124084,-0.007088,0.051753,0.059591,-0.017320,0.027198,-0.008796,-0.039298,0.050297,0.034554,0.030844,0.033586,-0.030596,-0.084238,0.016664,-0.006119,-0.039186,0.028594,0.038602,0.055792,-0.046837,0.071269,-0.046174,0.024143,-0.098072,-0.076998,0.064465,0.090121,0.035353,-0.047633,-0.063651,0.081158,-0.049176,0.052826,0.105100,0.013143,-0.028519,0.067563,0.043986,-0.096764,0.066559,-0.040968,0.041543,0.047919,0.000926,0.023601,-0.005167,-0.030988,0.079430,0.090191,0.012785,-0.031085,0.037091,-0.127217,-0.013071,0.057906
0.016278,-0.016673,0.084941,-0.055126,0.059127,0.100802,-0.008849,0.043175,0.015527,-0.026448,0.008549,0.147963,-0.066169,0.047211,0.007212,0.025065,-0.011376,0.026547,-0.009071,0.051785,0.093220,0.090453,-0.054533,0.061489,0.072596,0.005754,0.066931,-0.015537,0.029705,-0.044872,-0.096677,-0.066554,0.045968,0.066961,-0.036760,0.008242,-0.012442,0.016228,-0.061705,-0.050910,0.067301,0.051365,0.023571,-0.084354,0.086998,-0.021046,0.075211,0.008577,0.031418,-0.044705,-0.018014,0.051273,-0.002978,0.008806,0.006874,-0.030626,-0.020969,-0.009466,0.066951,-0.145518,-0.086573,0.012210,0.012747,0.038630
0.027719,0.017369,0.089270,0.007480,0.001619,-0.007510,-0.088631,-0.034687,0.018951,-0.032422,0.023270,0.017932,0.011282,-0.026249,0.065434,-0.042755,0.016329,-0.034473,-0.048821,-0.096133,-0.071644,0.092606,0.005495,-0.028961,0.029637,-0.065051,-0.068908,0.008038,-0.059096,-0.024358,-0.002195,0.092914,0.059678,-0.049185,-0.009656,-0.034079,-0.074435,0.024597,0.019374,-0.023796,-0.026123,-0.075822,-0.049144,0.046756,-0.025106,-0.047286,-0.021374,-0.076587,-0.027927,0.066671,-0.075810,-0.014590,0.044005,-0.032428,0.032401,-0.043573,0.041484,0.019709,-0.105326,0.031660,-0.040046,-0.012849,0.053305,-0.040403
0.037753,-0.006136,0.020303,-0.071009,-0.007263,-0.025404,-0.009594,0.019911,-0.058084,0.057801,-0.110745,0.008510,-0.039909,0.038110,0.030815,-0.044402,-0.028576,0.046482,0.075059,0.016215,0.028634,0.069864,0.074854,0.077609,-0.013420,-0.017758,0.007079,-0.116001,0.005424,-0.062681,-0.030598,0.013473,0.015050,-0.084172,-0.046428,0.046885,-0.041477,-0.091338,-0.035557,0.044232,-0.100495,0.024076,-0.047865,0.001432,-0.009971,-0.016165,0.017487,-0.054893,0.073282,0.048059,-0.016187,-0.044627,-0.079643,-0.037227,0.006630,0.043318,-0.036138,-0.020118,0.073517,0.036274,-0.068079,-0.061630,-0.031402,-0.078364
-0.043290,0.045229,0.028383,0.048201,0.094175,-0.128459,-0.040792,0.055869,0.073138,0.054036,0.005350,-0.052934,-0.016440,-0.057654,-0.028634,-0.022696,0.022015,-0.089001,-0.046388,-0.048226,-0.002144,0.062054,0.099656,0.018198,-0.055774,0.007323,0.013183,0.049780,-0.084739,0.004321,-0.048601,-0.055670,0.066784,0.078637,-0.120157,0.001819,-0.049802,-0.033856,-0.023410,-0.008659,0.008362,-0.040051,-0.020565,0.013908,0.029209,-0.023196,-0.024205,0.059683,-0.083324,-0.056313,0.043331,-0.019130,0.030793,0.049923,-0.004212,-0.003147,-0.006692,-0.061483,-0.023744,0.026089,0.047444,0.053574,-0.024996,0.049634
0.061349,-0.068334,-0.015228,0.008027,0.031966,0.014125,0.044892,-0.100312,-0.097802,-0.004255,-0.013719,0.086505,0.064076,-0.002828,0.045015,0.002209,-0.039313,-0.003197,-0.130628,-0.043750,-0.027804,-0.021368,0.040557,-0.050211,0.043435,-0.058479,0.086037,0.047460,-0.007494,0.075788,0.044317,-0.076768,-0.108286,-0.044294,0.037628,0.012299,-0.055742,0.022819,0.030888,-0.029966,0.051617,0.006032,-0.047580,0.046801,0.016150,-0.077059,-0.008225,-0.014938,-0.010517,-0.010748,-0.000115,0.105148,-0.041536,-0.037802,-0.068356,0.036202,-0.046624,0.047424,-0.023939,-0.003693,0.083271,-0.016017,-0.038246,0.107338
0.037963,-0.017321,-0.041096,-0.030626,-0.022739,-0.013604,-0.129441,0.066118,0.069197,-0.057455,0.011594,-0.056455,-0.018039,-0.057808,0.042431,0.019129,-0.100076,-0.048576,-0.000775,0.013655,-0.019664,-0.127390,-0.058344,-0.057059,0.018982,-0.057542,-0.039459,0.039032,0.048092,0.029980,0.028241,-0.070427,-0.033355,-0.020032,0.021723,-0.061949,0.016888,0.057544,0.035106,0.009199,-0.053572,-0.007786,0.044035,0.003427,-0.014104,0.033358,-0.021542,0.030340,0.019302,0.059360,-0.032458,0.011815,-0.048560,-0.039277,0.000304,0.004915,-0.099323,0.022142,-0.095668,0.060263,0.050959,-0.069931,-0.082543,-0.116678
-0.058802,0.046663,-0.003525,-0.036068,-0.004689,-0.033630,-0.010045,-0.003898,0.019562,0.000476,-0.020709,0.035229,-0.023355,0.048165,0.032769,0.059313,0.072584,0.043109,-0.083203,-0.051486,-0.033937,0.021324,0.064449,-0.018973,0.026213,0.018964,-0.031468,-0.001587,0.070393,-0.022361,0.040570,-0.033879,-0.070189,-0.064770,0.003093,0.000976,-0.036890,-0.055752,-0.067414,0.057608,0.078088,-0.078646,0.013651,0.073246,0.032688,-0.034937,0.039125,0.018694,0.086964,-0.010215,0.057938,0.027051,0.000266,-0.010628,0.060959,0.043144,0.016252,-0.116886,-0.080841,0.016604,0.064662,0.104377,0.021487,-0.064778
0.041157,0.046886,0.108876,0.000871,0.017409,0.100205,-0.075267,-0.036173,0.051957,0.120303,-0.003953,0.090387,-0.034077,-0.097110,-0.030999,-0.015681,-0.047363,-0.052064,-0.023914,-0.075351,0.040958,-0.013150,0.039346,0.011622,-0.025296,-0.027616,-0.064078,-0.019804,-0.030123,-0.010360,0.047042,-0.017619,0.065505,-0.039405,0.011411,-0.060109,-0.009267,0.064489,-0.018655,-0.027034,0.021852,0.018352,0.064067,0.028091,0.016678,0.014706,0.065040,0.064477,0.016422,0.010335,-0.081152,-0.062350,-0.011323,0.068898,0.028522,-0.069670,0.026196,-0.027493,0.075111,-0.075191,0.028228,-0.018473,0.026289,-0.031463
-0.014386,0.005924,-0.022463,0.047727,-0.069071,-0.035292,0.049455,0.008124,0.011204,0.067060,-0.081267,0.080069,-0.082684,0.006790,0.039505,-0.012512,-0.081213,0.106924,-0.001213,0.026470,0.035560,-0.018480,0.014848,-0.041256,0.031157,-0.007895,0.018127,-0.013643,0.082359,0.005200,-0.034197,-0.002678,-0.024593,0.023103,-0.092857,-0.034539,-0.004125,0.099027,-0.062791,-0.036565,0.006359,-0.006925,-0.044476,0.057489,-0.018890,-0.047573,-0.050972,0.024641,-0.126445,0.052217,-0.028593,0.037859,0.055920,-0.012232,-0.007753,-0.023850,0.055009,-0.010457,-0.094598,-0.054947,-0.057074,0.028498,0.059967,-0.026027
-0.076423,0.076063,-0.112295,-0.027548,0.041772,0.047202,0.121655,0.016242,-0.044703,-0.124651,-0.074186,-0.058750,-0.014888,0.090456,-0.038140,0.010181,-0.075569,-0.055277,-0.034683,-0.023072,-0.076888,-0.058493,0.069567,-0.062927,-0.002570,-0.023167,0.072018,-0.067131,0.032638,0.033772,0.003031,-0.076469,0.022187,-0.073203,0.042950,-0.028004,0.029094,0.013018,-0.045837,-0.074293,0.013811,0.039952,-0.012436,-0.021525,0.043839,-0.025296,-0.014842,-0.058957,-0.080863,-0.040560,0.001986,-0.031292,-0.047554,0.048100,-0.015846,0.030853,0.000755,0.070159,-0.082149,0.016932,-0.038011,0.051877,0.049454,0.105173
0.014233,-0.006360,-0.065296,0.069686,-0.142050,-0.034551,0.042197,0.145895,-0.008755,0.030628,-0.035923,-0.029115,0.052275,0.071086,-0.039066,0.088939,0.035480,0.019380,-0.031863,0.044344,-0.044550,0.025744,0.025868,0.070556,0.025743,0.029949,0.009436,0.056590,-0.080749,0.058536,0.093229,0.047822,-0.026548,-0.083411,-0.014864,-0.018232,-0.024072,0.038737,-0.043494,-0.082926,0.029657,-0.039063,-0.064564,0.040719,-0.070824,0.019748,0.016507,0.034937,-0.040535,0.112626,-0.044600,0.020697,-0.014164,0.078112,0.018201,-0.058622,0.014894,0.029279,0.066835,0.014744,0.036194,0.037916,0.006773,-0.011153
-0.032923,0.059340,-0.059482,0.041010,0.111355,-0.030591,0.020345,0.022008,-0.149277,0.024761,-0.006771,-0.026229,-0.068773,-0.088909,0.020911,-0.023192,-0.069410,-0.078895,0.058426,0.041904,0.052020,-0.068154,0.020855,-0.022892,-0.061709,0.004033,-0.026676,-0.069832,-0.074718,0.091672,-0.027205,0.065819,0.028404,0.044392,-0.013883,-0.041264,0.012587,0.073497,-0.085470,0.039567,-0.141845,-0.000083,0.089999,-0.060938,0.003127,0.064493,0.031978,0.048066,0.034846,0.005049,-0.044041,0.028671,0.097328,-0.101989,-0.076181,-0.040785,0.020440,-0.072577,0.024192,0.071655,0.050214,0.077332,0.080035,-0.044801
-0.054985,-0.058256,0.018955,0.126653,0.064389,0.043427,0.059169,-0.064621,-0.111792,-0.012581,-0.060600,-0.050220,-0.049889,0.050316,-0.058028,-0.094577,-0.033108,-0.021084,-0.027813,-0.009528,0.004073,-0.005578,0.019765,-0.062867,0.017844,0.076695,-0.006078,-0.002847,-0.031584,-0.076022,0.019416,-0.097822,-0.013970,-0.005819,-0.065656,-0.036487,-0.048559,0.071464,-0.042741,0.041070,-0.094897,-0.005717,0.055659,0.031957,-0.014897,-0.031366,0.043884,0.086870,0.004769,-0.010282,-0.052525,-0.045102,-0.070731,0.008702,-0.049518,0.052750,0.037980,0.060347,0.058082,-0.032860,0.015963,0.011634,0.002545,0.064055
-0.013208,-0.019230,-0.034028,0.068682,0.075911,0.022793,-0.063562,-0.002747,0.072028,-0.050004,0.064724,-0.022188,-0.016476,-0.014590,-0.033257,0.022217,0.023603,-0.025407,-0.068800,0.045045,0.000323,-0.037655,-0.001714,0.067850,0.050030,-0.100020,-0.040169,-0.017766,-0.028362,-0.020506,-0.075056,-0.076099,0.007752,-0.008472,-0.087446,0.027937,0.060331,0.011132,0.030027,0.063381,0.061141,-0.030930,-0.040256,0.016558,0.033759,0.014709,0.032901,-0.008751,-0.035655,0.131890,-0.069879,0.028733,-0.062177,0.009239,0.020440,-0.051624,0.022437,-0.001331,-0.017487,-0.018265,0.024462,0.072547,-0.036567,0.016106
-0.006561,0.003406,0.075041,-0.064446,0.068749,0.008543,-0.041675,0.000122,-0.130018,-0.010490,-0.062209,0.036289,-0.063748,-0.019797,0.012239,-0.084816,0.042962,-0.012019,0.045993,-0.068984,-0.052087,-0.007335,-0.082746,0.011040,0.029440,0.007418,-0.092876,-0.006956,0.087643,0.069381,0.012032,-0.081592,-0.008302,0.052414,-0.014089,-0.031833,-0.008907,0.034418,0.025713,0.007110,0.046291,0.033053,0.029800,-0.120692,-0.074494,0.058987,-0.020605,0.084448,-0.059429,0.014838,-0.045691,0.044995,0.106358,-0.023644,0.078078,-0.003682,-0.130317,-0.021869,-0.041055,0.073730,-0.025089,0.100239,-0.104685,0.019453
-0.020228,-0.008109,0.031155,-0.037864,0.072628,-0.093944,0.064177,0.051833,-0.065195,0.022437,-0.031479,0.002555,-0.054030,-0.018476,-0.007300,-0.051384,-0.049732,-0.018037,-0.044905,0.045692,-0.076500,-0.043237,0.049433,-0.029113,-0.018724,-0.046343,-0.112797,0.051831,-0.034396,-0.022669,0.024955,0.109606,0.018999,-0.051725,-0.003993,0.050955,0.013074,0.062009,-0.013749,0.051453,-0.108348,-0.037125,0.108300,-0.047649,-0.074687,0.030912,0.063285,-0.054223,0.006132,-0.028795,-0.048161,0.014456,-0.039211,-0.020945,0.077670,-0.011536,-0.010347,-0.099532,-0.044637,0.075492,-0.061495,0.035751,0.007005,-0.001139
0.012369,0.099793,0.051495,0.054125,0.041867,-0.045957,-0.050357,-0.045559,0.060076,-0.004229,0.071184,-0.021655,0.028703,-0.041044,-0.047984,-0.068981,-0.023242,-0.062171,0.008944,-0.075523,0.001040,-0.007699,0.046672,-0.017786,-0.009064,-0.081075,0.048810,0.018605,0.084888,0.023510,0.036448,0.006206,0.040306,-0.045096,-0.002953,0.008795,0.002444,0.006196,-0.020431,-0.036439,0.049858,0.063795,0.005496,-0.030601,-0.085744,0.046445,0.000191,-0.076643,-0.057612,0.012364,-0.058033,0.044329,-0.011607,0.030189,0.108324,-0.013386,0.064822,0.024592,0.047772,-0.008715,0.018269,0.017231,-0.002644,-0.049635
-0.006114,-0.001317,0.029808,-0.018811,-0.022870,-0.113014,0.025111,0.081375,-0.005665,-0.054753,0.019941,0.004637,0.035998,0.028704,-0.088961,-0.008231,0.034349,-0.012208,0.033445,0.017738,-0.021372,0.021795,0.091641,-0.007655,0.081021,0.033031,-0.023455,-0.048838,-0.054464,-0.013276,-0.004031,-0.081674,-0.009731,-0.086989,-0.001456,0.079194,-0.090196,-0.060107,0.006324,0.007521,-0.008508,0.045892,-0.010204,-0.047672,0.006394,0.060716,-0.007199,0.052230,-0.041348,-0.021258,-0.009924,0.060482,-0.008718,-0.022073,-0.026060,0.019121,-0.012017,-0.023597,0.052427,0.005306,0.022861,0.003571,0.094616,-0.080114
-0.015155,-0.064627,0.031614,-0.013077,-0.045564,0.090390,0.092259,0.008788,0.006677,0.047624,0.081355,-0.018543,-0.049038,-0.075695,-0.053665,-0.124139,-0.025110,0.017540,0.099884,0.037664,-0.089391,-0.093219,-0.012895,-0.003850,0.027933,0.076660,-0.048379,-0.043489,-0.016775,0.111908,0.017313,-0.016225,-0.033155,-0.022240,0.051441,0.004881,-0.077131,0.057257,-0.107391,0.050407,0.035809,0.078631,-0.004562,-0.028090,-0.077830,0.040281,-0.091179,-0.018204,-0.071295,-0.065807,0.056208,-0.034232,-0.015908,-0.039793,0.034604,-0.040743,-0.020965,0.054438,0.005349,-0.048809,0.085918,-0.032583,0.062191,-0.005602
0.024266,0.012088,-0.026736,0.023628,-0.011434,-0.058676,-0.045260,0.004656,0.072527,0.037442,0.061975,0.061719,0.005910,-0.074412,-0.010665,0.038435,-0.101432,-0.050150,-0.079708,-0.021674,0.075035,0.060852,-0.021162,-0.013397,0.085779,-0.036274,0.052937,-0.076740,0.042412,-0.014130,-0.052290,0.002044,0.102693,0.033853,-0.029864,-0.006556,0.008740,0.005007,-0.081089,0.028792,0.019361,-0.028744,0.000851,-0.014330,-0.059488,0.007082,0.099092,-0.070369,0.010010,-0.028455,-0.056334,0.049680,-0.063239,-0.054504,0.017552,-0.012018,0.091443,-0.021504,0.005624,0.049199,0.030569,-0.008163,-0.056652,-0.009778
-0.023319,-0.024262,-0.020356,0.066684,-0.019505,-0.073283,-0.002188,-0.000790,0.016726,-0.016425,0.065146,-0.002255,-0.005170,0.061544,-0.011174,0.039449,0.109544,0.004612,0.014280,-0.078647,0.072245,-0.074901,0.013649,0.000244,-0.000449,-0.052927,-0.066370,-0.067185,0.041750,-0.016900,-0.073592,0.073103,0.057179,0.003904,0.076284,-0.012613,-0.010345,0.005373,0.058441,0.034616,0.056877,0.042520,0.125827,-0.085287,0.025419,-0.024329,0.102088,0.031460,-0.056647,0.053942,0.044051,0.077329,-0.019676,-0.048076,-0.047077,-0.021734,0.084869,0.002794,0.043102,0.066680,0.028152,-0.036696,-0.005211,-0.012932
0.067691,-0.068784,0.040542,-0.011451,0.089880,0.005804,-0.084297,0.046692,0.044586,-0.128596,0.051472,-0.008537,0.035849,-0.020805,0.008194,-0.012161,-0.029063,0.002141,-0.049808,-0.025056,0.030369,-0.041131,-0.050486,0.011877,0.042307,0.034847,0.045935,0.004753,0.042418,0.062680,0.008969,0.061199,-0.005761,0.019809,-0.046757,-0.022077,-0.091121,-0.014620,0.045779,-0.023192,-0.033297,0.019135,0.011970,0.041954,-0.041416,0.035877,0.027455,0.067482,-0.016321,0.001894,-0.033658,-0.018377,0.055526,-0.058469,0.050760,0.065285,-0.134097,0.009103,-0.075595,-0.079914,-0.044218,-0.012603,0.040824,-0.020953
0.006676,-0.080797,-0.003142,-0.000645,-0.040179,0.076671,0.034107,0.032232,-0.001121,-0.008919,-0.000963,0.074159,-0.024430,-0.029583,0.075715,0.054829,-0.019241,-0.059061,0.001530,-0.027559,-0.004316,0.009537,-0.026539,-0.018403,-0.025884,0.015173,-0.018575,0.042313,0.021047,0.043950,-0.049358,0.034143,-0.060206,0.004171,0.052514,0.063641,-0.079729,0.021707,-0.037425,-0.083203,-0.064999,0.006447,-0.080773,-0.025562,0.081500,0.070513,-0.025851,0.028968,-0.073503,0.057663,-0.076922,0.010763,0.015392,-0.049570,-0.021713,-0.085670,0.032344,0.003746,0.079518,0.013589,-0.004233,0.002794,0.024884,0.040768
0.041880,0.026390,0.101077,0.053292,0.087769,0.000515,0.012275,-0.068975,0.102801,0.006629,0.092966,0.033196,0.029985,-0.010238,-0.061070,0.025118,-0.034849,-0.019444,-0.033984,-0.101477,0.050923,-0.002655,-0.021641,0.016044,0.036833,-0.056138,-0.022180,0.073747,-0.061330,-0.042304,0.079439,-0.052468,0.083802,0.023184,0.001668,0.012910,0.043797,-0.062466,-0.016008,-0.026794,0.012452,0.071873,-0.064416,-0.016639,-0.023465,-0.031508,-0.023406,0.075287,0.024011,-0.032145,0.093723,-0.038357,0.082242,-0.050804,-0.087953,-0.026542,-0.055104,-0.021315,0.002667,0.026978,0.053376,-0.014264,0.047182,-0.057906
0.041176,0.055323,0.053384,0.013131,0.037665,0.028678,-0.031458,-0.021044,0.063965,-0.068924,-0.025790,-0.077482,0.034281,0.075416,-0.044297,-0.033982,-0.078493,-0.024728,-0.057820,-0.077604,-0.005486,-0.057324,-0.009605,0.014938,-0.010317,0.090004,-0.013892,0.042349,-0.036499,-0.081185,-0.084353,-0.022725,0.049741,-0.049305,-0.106010,-0.020722,-0.074662,-0.074389,0.041586,0.000002,-0.003334,-0.041585,-0.029585,-0.009526,-0.035215,0.016047,-0.003306,0.027128,0.010992,0.041528,0.031136,0.069016,-0.045597,0.003711,0.101908,-0.104974,-0.032758,-0.006281,-0.031254,-0.030827,0.060511,0.063955,0.056410,-0.040327
-0.092831,0.081976,0.016416,-0.056485,-0.052912,-0.055872,-0.031071,0.117143,0.062353,-0.043186,0.054723,0.081098,-0.061890,0.086249,-0.031770,0.052130,0.046222,-0.042464,-0.022046,-0.071794,0.001412,-0.069399,0.054130,0.023786,-0.073344,0.054377,-0.001996,-0.078242,0.008511,-0.007409,-0.012451,0.033891,-0.006077,-0.067804,-0.035257,-0.009136,-0.039685,0.002192,-0.077285,0.107493,-0.025522,0.028415,0.069602,0.033733,0.069029,0.006444,-0.038034,0.021110,0.011703,0.076083,0.014649,0.074137,-0.082642,0.081632,0.028508,-0.019192,-0.028073,-0.090088,-0.076940,-0.152447,-0.004361,0.080480,0.034302,-0.011586
0.096527,-0.034479,0.076301,-0.039419,0.048864,0.047398,-0.027408,0.045634,0.017115,-0.073486,0.073031,0.003873,-0.020425,0.013710,-0.063972,-0.066345,-0.023908,-0.012715,-0.098395,-0.028518,0.042384,0.061355,0.037738,-0.080768,0.054425,0.056877,-0.011222,-0.058716,-0.030430,-0.098324,0.034467,-0.047282,0.017799,0.029290,0.040682,-0.054282,0.009339,0.027095,-0.055785,-0.025240,0.092092,-0.025603,0.082499,0.034548,0.086323,-0.022327,0.024965,-0.045743,0.016317,0.051876,-0.020858,-0.042887,-0.077702,0.046786,0.021040,-0.027673,0.048409,-0.011140,0.004124,-0.015379,-0.006618,-0.059977,-0.013859,-0.058772
0.074215,0.076221,-0.022717,-0.007144,0.055617,-0.032088,0.078910,0.010989,0.007540,0.023562,-0.048474,0.037578,0.029793,0.053388,0.107080,-0.023505,-0.048380,-0.086695,0.020827,-0.021194,0.094224,0.082120,-0.035156,-0.047009,0.016291,0.044683,-0.064057,-0.038928,0.069809,0.011365,0.046124,0.027796,-0.002596,0.010602,-0.047716,-0.045688,0.097150,0.110992,0.070960,0.058126,-0.002795,-0.079677,0.027200,0.012730,0.026508,-0.036695,0.085023,0.090507,0.084137,-0.023173,-0.053066,0.031889,0.015285,0.014515,-0.079461,-0.122851,0.014695,-0.034248,-0.065504,-0.016801,0.052394,0.040708,-0.017588,-0.004596
0.056165,-0.077710,0.073540,-0.012558,-0.087088,0.001607,-0.063701,0.005433,0.042300,0.043922,-0.013591,-0.078391,-0.009997,-0.082014,0.091999,-0.033238,0.035002,-0.108673,0.078541,-0.051450,0.042022,0.145348,-0.030035,-0.050659,-0.010979,-0.009279,0.041511,-0.057449,-0.096529,0.041378,0.044736,-0.022485,-0.073093,-0.079368,0.058888,-0.021403,0.009548,0.066268,0.079879,-0.020968,0.025068,-0.068018,-0.008799,-0.069873,-0.031375,-0.032592,-0.024315,0.071543,-0.041005,-0.053610,-0.069374,-0.075007,0.066469,-0.110448,-0.036254,-0.015813,-0.019282,0.019185,-0.013137,0.067531,-0.086811,0.102548,-0.001434,-0.043510
0.030689,-0.094428,0.003151,0.008337,-0.058141,-0.003017,0.039654,0.068059,0.096189,0.072230,-0.018772,0.027448,-0.045679,0.051141,0.023639,-0.005642,0.064195,0.064790,0.034685,0.080175,-0.073910,0.147624,-0.012248,0.011242,-0.104712,0.033632,-0.080234,-0.034287,-0.043081,0.003139,-0.027572,0.002217,0.054436,0.056031,-0.056449,0.096786,-0.098935,0.072218,0.010360,0.052148,0.107818,0.003994,-0.052196,0.081588,-0.046125,0.010156,0.018032,-0.071259,-0.034077,0.037026,-0.106522,-0.015184,0.037026,-0.057849,-0.037518,0.059203,0.084183,0.041024,-0.005089,0.006080,0.011675,0.036255,-0.042389,-0.062215
0.027342,-0.016868,-0.031984,0.049736,-0.028674,0.047715,0.012598,-0.085118,-0.074580,-0.065644,-0.000676,0.010394,0.000188,-0.049148,0.006311,0.044761,0.081611,0.027108,-0.031870,0.046911,0.085043,-0.032791,-0.024417,0.067748,-0.031347,0.088559,-0.135246,-0.086607,0.013712,-0.048770,-0.050764,-0.058347,0.027965,-0.009039,-0.053679,0.055614,-0.096891,0.000624,-0.100864,-0.022592,0.048071,0.079286,0.011121,-0.059869,-0.050427,-0.054294,0.112339,-0.066073,-0.079570,-0.027708,0.072795,0.057512,-0.013799,0.018305,-0.045505,0.040398,0.005610,0.028834,-0.037565,-0.029946,-0.058412,-0.021786,-0.029017,0.115297
0.042091,0.078781,0.048217,-0.127230,-0.045312,0.027272,-0.037559,-0.002785,0.037894,0.007665,0.048802,-0.041467,0.006875,-0.019941,0.001375,-0.013886,0.079988,-0.042414,0.021188,-0.066095,0.053774,-0.011492,0.044669,0.031994,0.031634,-0.064194,0.020553,0.005735,-0.047894,0.023711,0.034553,-0.066646,-0.087540,-0.022059,-0.021116,0.005988,-0.000921,0.001355,-0.049850,0.063421,0.020059,0.013888,-0.012771,-0.048568,0.054885,0.010117,0.054225,0.056821,-0.003536,0.036649,0.033353,-0.081135,0.030047,0.049720,-0.009210,0.111726,0.025166,-0.025311,-0.011790,-0.076224,0.080394,0.014613,-0.059889,0.008128
0.024763,-0.014343,0.041903,0.048179,-0.079470,-0.020669,0.059819,-0.017623,-0.013833,-0.046982,-0.056183,-0.036950,-0.033904,0.025948,0.098279,0.007395,-0.038942,0.048891,-0.030253,-0.063107,0.069015,0.134706,-0.129322,0.014006,0.033654,0.059996,0.001477,-0.020735,-0.000110,0.023134,0.014690,-0.000723,-0.007414,-0.025495,-0.021406,-0.033865,-0.048379,-0.040265,-0.099148,0.037412,-0.017732,-0.046104,0.072090,0.046600,0.080059,0.054701,0.011309,-0.023092,0.036267,0.035103,-0.064447,-0.076650,-0.041037,-0.033483,0.093572,-0.025304,0.053583,0.021672,-0.074385,0.034790,-0.015870,-0.009693,-0.055249,0.094576
-0.021834,0.010450,-0.010455,0.007163,-0.043446,-0.038428,-0.132283,0.000197,-0.040023,0.036408,0.006176,-0.005044,-0.001188,-0.045339,-0.002457,0.028867,0.083581,0.082321,0.038424,-0.039179,-0.029427,-0.087043,0.018573,-0.041348,-0.043866,0.075703,-0.014778,0.046087,0.004424,0.088162,-0.005761,-0.020522,0.118044,-0.084885,-0.081732,0.045392,-0.065128,-0.044389,-0.026058,0.031307,-0.007985,0.035066,-0.001218,0.063123,0.004139,0.007934,0.080294,-0.049243,0.085055,-0.013208,-0.041856,-0.063920,-0.086878,-0.027620,-0.040134,-0.048574,-0.009033,-0.110010,0.038193,0.044104,0.075058,0.000088,-0.033385,-0.036778
0.098615,0.000910,-0.034833,0.118328,0.063503,0.114383,-0.075883,0.052940,-0.020646,-0.025519,0.063005,0.119985,-0.028047,0.026339,-0.001887,0.023783,-0.083356,0.062633,0.013342,0.009957,0.050874,0.074477,-0.039391,-0.062290,-0.014421,-0.020942,-0.107371,0.081469,-0.068942,0.041656,-0.018425,0.019183,0.028358,0.084843,0.035881,-0.057331,0.045808,-0.039794,-0.078015,0.022645,-0.009757,-0.036404,0.007387,-0.049541,-0.031552,0.074875,0.010589,0.030965,-0.053479,-0.061510,-0.097777,-0.097344,-0.107348,0.049583,0.025847,-0.019406,-0.030106,-0.007889,-0.011483,-0.056967,-0.018120,0.059866,0.063684,-0.031693
0.042173,-0.019512,-0.025992,0.038953,0.087137,0.010778,-0.004486,-0.035075,0.039825,-0.089366,-0.069658,-0.069730,0.021545,0.092674,0.030474,0.033868,-0.096680,0.046090,0.062276,-0.002186,0.088292,-0.101342,-0.015934,-0.013933,0.078217,0.038336,0.001256,0.038892,0.028591,0.043909,-0.019506,-0.040046,-0.019603,0.051635,0.111506,-0.047494,-0.014404,0.046977,0.012745,-0.029618,-0.008486,0.153294,-0.000476,0.008182,0.072672,0.132635,-0.080202,-0.084977,0.048785,0.087271,-0.031651,-0.105381,0.025554,-0.056096,0.109206,0.051886,0.050708,-0.067304,-0.082212,0.039420,0.045832,-0.067809,0.076534,-0.053081
-0.085345,0.026920,-0.096428,0.044114,0.078224,0.014270,0.070292,0.076931,0.019291,-0.076037,0.032429,0.049377,-0.003156,-0.072871,0.024001,0.031305,0.023627,-0.037532,-0.019900,0.027815,0.092095,-0.003209,-0.096790,-0.067005,-0.071517,-0.058592,0.025854,0.043892,0.057852,0.073917,0.022421,-0.109012,0.049641,-0.076771,0.023555,0.007645,0.046548,0.043429,-0.041855,0.090624,-0.128844,-0.045951,0.012876,-0.010280,-0.034564,0.049098,-0.034934,-0.127244,0.030892,-0.035447,0.027224,-0.083294,-0.127399,0.057233,0.131001,-0.044612,0.013669,-0.066535,-0.093510,-0.028129,0.041788,0.023745,-0.023169,0.017017
0.043983,0.010187,-0.159876,0.091391,0.027958,-0.001197,0.002750,0.091035,-0.016945,-0.090622,-0.047482,0.057525,-0.003898,-0.021964,0.054098,-0.031005,-0.052488,0.021176,0.019564,-0.001988,0.056736,-0.005842,-0.050115,0.094092,0.030772,0.079830,-0.081808,-0.006605,0.096836,0.016487,0.048083,0.031446,-0.053488,-0.088628,-0.006565,-0.076188,-0.021647,-0.026473,0.052965,0.013222,-0.046180,-0.060553,0.048413,0.053586,0.027134,0.056246,-0.010520,0.050224,-0.052065,0.036021,-0.060932,-0.067731,-0.092090,-0.070218,-0.026494,-0.014443,0.018849,-0.098603,-0.038243,-0.032292,0.032149,-0.020650,-0.000115,0.045740
-0.034734,0.034608,0.009746,0.035363,-0.031224,0.035428,0.065387,0.037324,-0.058703,0.008624,-0.026024,-0.051615,-0.017698,0.011025,-0.007313,0.083493,-0.013966,0.038959,-0.032919,0.006075,0.124084,0.026172,0.010039,0.094666,-0.040877,-0.000480,0.041413,-0.048443,0.017343,0.019335,-0.065070,-0.024969,0.005328,-0.068702,-0.071248,0.110118,0.071810,0.062449,-0.021670,0.024451,-0.001954,0.089289,0.002106,-0.054684,-0.016461,0.037395,-0.033893,0.052668,-0.016029,-0.067318,-0.037958,-0.035899,0.007273,-0.044351,0.006852,-0.044440,-0.039803,0.045343,-0.020027,-0.133199,0.046469,0.015074,0.074216,-0.068096
0.013271,-0.021588,-0.065179,0.039275,0.014013,0.102072,-0.010732,-0.007510,-0.005426,0.052176,-0.067928,-0.094767,0.021773,-0.013511,0.077152,-0.133701,0.039178,-0.044171,0.037301,-0.068900,0.055163,0.092914,-0.045114,0.020645,0.056394,0.052619,0.048389,-0.035784,-0.058443,0.016247,0.098464,-0.059693,0.046092,-0.018349,0.022747,0.020441,-0.013735,-0.061907,0.035852,-0.068190,-0.013740,0.096120,-0.028625,0.027129,-0.040042,0.065467,0.047379,0.051087,-0.092146,-0.126141,-0.074260,0.017779,0.033925,-0.014401,0.029306,-0.039005,-0.053353,-0.003397,-0.000571,-0.027954,0.061766,-0.007304,0.064332,0.025363
-0.112950,-0.018338,-0.075137,-0.024470,0.025908,-0.100631,-0.006202,0.042215,-0.040459,0.007677,-0.038680,-0.017817,0.025230,0.015806,-0.017777,0.040554,-0.059392,0.000505,-0.059574,-0.021543,0.074567,0.019785,0.091081,0.048442,0.003565,-0.020073,-0.014682,-0.083184,-0.018135,-0.050009,0.105826,-0.010578,-0.003852,-0.050140,0.016153,0.012568,-0.010390,-0.113582,0.025300,-0.057841,0.037559,-0.044926,0.070123,-0.078586,-0.000566,-0.078333,0.014472,-0.073400,0.020370,0.055682,-0.010332,-0.066711,0.008156,-0.035927,0.115622,0.011503,0.045309,-0.056255,0.024560,-0.102338,0.065439,0.015030,0.048186,-0.018393
-0.105333,-0.009512,0.058955,-0.020659,-0.034612,0.008791,0.035812,-0.018946,0.062441,-0.024623,-0.074847,-0.069283,0.052550,0.030147,-0.096620,0.090407,0.025557,0.042341,-0.126232,-0.020034,0.063034,0.044674,-0.006732,0.004279,0.004741,-0.027121,0.078624,-0.077074,0.076303,-0.022360,0.004171,0.042403,0.003658,-0.063857,-0.030007,-0.048323,0.020422,-0.099740,-0.047160,0.112420,0.022887,-0.054504,0.083398,0.003988,0.085395,-0.046472,-0.045814,0.008306,0.036495,0.027313,0.060368,0.000718,-0.079321,0.045309,-0.016898,0.045885,0.080878,-0.055943,0.002078,-0.098913,0.078409,0.132697,0.085096,-0.031020
0.000074,0.097040,-0.015163,0.015037,0.044365,0.059921,-0.006666,0.061910,-0.111262,0.024284,0.068880,0.079771,-0.023750,-0.008311,0.026846,-0.005200,0.088815,-0.042981,-0.002254,0.105264,0.004433,-0.067572,0.030406,-0.067809,-0.037177,-0.034879,0.127529,-0.054676,-0.066930,-0.083366,0.018944,-0.054471,-0.024005,-0.022731,0.078224,-0.052764,-0.025442,-0.039143,0.011546,-0.022333,0.000680,-0.086443,-0.049171,0.028531,0.055955,0.105886,-0.040804,0.044631,-0.062365,0.017143,0.031700,-0.000806,-0.069544,-0.065223,0.113672,0.061427,0.038440,0.044815,0.131446,-0.090554,-0.103268,0.060506,0.198915,0.030149
0.022985,0.061822,0.052103,-0.050312,0.077889,0.012159,-0.047245,0.053893,-0.096385,0.037480,0.043921,-0.086225,-0.051416,0.091166,0.058254,-0.039336,-0.011307,-0.036543,0.109670,-0.006800,0.000142,0.084031,-0.053981,0.038018,0.026300,-0.180081,-0.009993,0.018696,-0.036587,-0.127514,-0.000133,-0.010391,0.044216,0.062732,-0.006030,0.004566,-0.079470,0.100242,-0.031938,0.017155,0.005468,-0.059652,0.007244,-0.091446,0.019637,-0.004619,0.052152,-0.052011,0.049487,-0.030232,0.098821,-0.041626,-0.050329,-0.073154,-0.078714,0.019674,-0.031130,-0.032563,-0.034981,0.019134,0.020006,0.008045,-0.013965,-0.032456
-0.059205,0.073173,0.071895,-0.008599,0.010938,-0.041778,0.084417,-0.058148,0.007593,0.030590,-0.022267,-0.043893,-0.073979,0.059744,0.007418,0.059103,-0.051164,-0.069243,-0.009997,-0.001652,-0.017424,0.028868,-0.008679,0.033554,0.085982,-0.061326,0.033729,-0.015906,0.012406,-0.024369,0.032361,0.077605,0.029406,-0.026701,-0.020342,-0.045212,0.002940,-0.022069,0.006828,-0.081766,-0.069524,0.023551,-0.070332,-0.036630,0.048493,0.054377,0.011719,-0.091983,-0.059392,-0.012820,0.056272,0.045966,0.011787,0.032598,0.009426,0.012757,-0.033547,-0.024752,0.014128,0.089023,0.053840,0.079712,0.109721,0.032856
-0.021607,-0.031008,-0.027192,0.061839,0.055626,-0.057924,0.030299,0.057729,-0.037437,-0.075321,0.042311,0.068233,-0.088144,0.080144,0.004937,-0.072281,-0.074690,-0.004228,-0.018887,-0.096439,-0.043129,0.041252,-0.011987,-0.007995,0.024341,-0.039422,0.010066,0.015624,0.032084,-0.075860,-0.025883,-0.024612,-0.002389,0.029191,-0.099694,0.002747,0.022133,0.080818,-0.039455,0.037903,-0.087485,-0.033991,-0.097384,-0.112878,-0.062169,-0.000053,0.049767,-0.002096,-0.044950,-0.017113,-0.007873,0.014904,-0.040519,-0.009179,-0.040088,0.052809,-0.005112,0.073265,0.042469,0.039880,0.011905,0.007417,0.035061,-0.026080
-0.092945,0.018537,0.009302,-0.020298,0.023599,0.016013,-0.082629,0.089715,0.008190,-0.020222,-0.148460,0.050232,-0.046153,-0.034948,0.039234,-0.072018,-0.055334,-0.073768,0.067214,-0.049769,0.014052,0.129194,-0.087555,-0.004012,0.057861,0.068315,-0.018644,0.054735,0.006446,-0.034478,-0.015441,0.101428,-0.142951,0.009601,-0.106452,0.058200,0.006132,-0.053531,-0.006495,-0.023786,0.052844,-0.011814,0.067768,-0.088078,-0.080545,0.015408,0.089934,-0.054199,0.045730,-0.009164,-0.016502,0.035447,-0.029292,-0.005885,0.008960,-0.098291,-0.052870,-0.008778,0.103398,0.024058,0.047477,0.027793,-0.022904,0.081802
-0.021447,0.083680,0.083949,0.025746,-0.089026,-0.042042,0.075763,-0.064497,0.001939,0.044273,-0.047836,0.038673,-0.004545,0.019353,0.006146,-0.088028,-0.014936,-0.089483,0.056654,0.026942,0.029932,0.052153,0.029882,0.125581,-0.039230,0.069917,0.058441,0.090573,-0.052640,0.051330,0.093345,0.117940,-0.042239,-0.017335,0.031050,0.044109,-0.004647,-0.009068,0.016125,-0.005993,-0.073628,0.101728,0.028035,0.039451,0.026737,0.056737,0.079942,-0.045008,0.001101,-0.047846,0.051768,0.013326,-0.050146,-0.027132,-0.006646,-0.033915,0.077008,-0.061202,0.024857,0.086841,0.067013,-0.072346,-0.056984,0.021988
0.042845,-0.028502,0.103695,-0.066646,0.056080,0.008787,0.009977,0.063103,0.065315,-0.033750,-0.005509,-0.033553,-0.076297,0.084330,0.041489,0.094934,-0.038472,-0.042918,0.001481,0.026601,0.032952,0.092983,-0.030102,0.045500,0.077052,0.016469,-0.064208,0.019997,-0.069310,-0.077288,0.155878,0.056424,0.024692,0.080309,-0.107732,-0.031354,0.029632,-0.003480,-0.020768,-0.019553,-0.027976,-0.007420,0.053906,-0.034904,-0.002566,-0.024483,0.082725,0.083120,-0.036098,-0.114610,0.011930,0.057161,-0.027124,0.048994,-0.028662,-0.081737,-0.044278,-0.072456,0.048125,0.011186,0.049480,0.077355,-0.063638,0.049918
0.095334,-0.042784,0.028331,0.030307,0.057969,0.013174,0.047311,0.028147,-0.109294,-0.037908,-0.010897,0.010181,-0.039700,-0.090316,0.003963,-0.067178,-0.049200,0.097212,0.130129,0.047435,0.009788,-0.010617,-0.159781,0.092823,0.057640,-0.116772,-0.007043,0.075125,0.038584,-0.069207,-0.036151,0.072546,0.043519,0.067364,-0.015056,-0.040743,0.024935,-0.005464,0.018547,0.058500,0.056480,0.009606,-0.035934,-0.115474,-0.046808,0.004998,0.077493,-0.035902,0.079134,0.033945,-0.072753,0.010972,-0.085684,-0.055124,-0.009778,0.081763,0.064681,0.008347,-0.001211,-0.100259,0.027623,0.030809,0.004531,-0.151313
-0.013921,-0.013086,-0.066811,0.117822,0.031982,0.014148,0.002025,0.010144,-0.030390,-0.038218,0.057162,0.049388,0.014327,-0.053773,-0.019267,-0.013140,0.024586,-0.013850,-0.106615,0.070434,0.000906,0.017564,0.047526,-0.029001,0.023271,0.011931,0.010513,-0.075976,-0.060761,-0.066782,-0.060727,0.000320,0.029969,-0.028858,0.001295,-0.047168,-0.070504,-0.015961,-0.016601,0.050297,0.046603,-0.065767,0.041982,-0.072142,0.007567,-0.036897,0.052807,0.011682,-0.032507,0.119062,-0.012625,-0.049937,0.017425,-0.037107,0.059961,0.016262,-0.045218,-0.080536,-0.066762,-0.002826,-0.040934,0.008499,-0.015251,0.116858
0.112949,-0.060319,0.072267,-0.063838,0.045996,-0.053355,-0.086490,0.060533,0.050603,0.020881,-0.017368,0.029963,0.048023,0.049152,-0.037448,-0.088196,-0.012710,-0.044960,0.066183,0.076884,-0.010406,-0.043800,-0.078256,0.015277,0.010237,-0.053622,0.038200,0.027193,-0.039729,0.060798,0.044809,0.060216,-0.026321,-0.022040,-0.081114,0.014853,0.009943,-0.066352,-0.090527,-0.077487,-0.095984,0.040587,0.017866,-0.127355,-0.026493,-0.038467,-0.101875,0.084648,-0.043432,0.005842,0.052026,0.004259,0.052596,-0.083912,0.015916,-0.002473,-0.061860,-0.099038,-0.007358,0.000165,0.058516,-0.039281,0.019204,-0.050562
-0.035832,0.041115,0.033194,-0.000178,0.062905,0.079910,0.068565,0.089834,0.074279,-0.073071,0.011909,-0.092344,-0.056504,-0.038633,0.003174,0.035196,0.059921,0.080801,-0.017458,-0.003528,0.035375,0.015146,0.003167,0.004400,0.007493,-0.047280,-0.082295,-0.070622,0.040437,0.110953,0.000411,-0.033989,-0.051383,-0.050614,0.036028,-0.049103,-0.063203,-0.034244,-0.074119,-0.004697,0.028669,-0.077120,0.111318,0.058440,-0.082076,0.036233,-0.153435,0.034247,0.030827,0.013585,-0.026976,-0.004006,-0.031543,0.084153,0.062203,0.047001,-0.061342,-0.012920,0.026552,-0.055012,0.043414,-0.007461,-0.036533,0.097218
-0.101089,-0.026671,-0.070922,0.022338,0.074489,0.025131,-0.036025,0.055289,-0.024533,0.051924,0.063773,-0.053785,0.072737,-0.111621,-0.063673,-0.043354,0.077842,0.009552,0.018118,0.076250,-0.036634,-0.037678,-0.044702,0.033099,-0.055966,-0.011483,0.108420,-0.070565,0.046250,0.004341,-0.090366,-0.024294,0.042304,-0.067673,0.050894,0.044899,-0.047710,-0.084089,-0.055079,-0.054129,-0.048829,0.101338,0.056549,-0.020476,0.045264,0.075858,0.046764,0.023785,-0.028926,0.053246,-0.030011,0.058093,-0.007601,-0.061625,0.025994,0.008052,-0.001950,-0.019603,-0.063469,-0.120029,-0.082376,-0.064654,0.052619,0.027651
-0.013954,0.015964,0.058017,-0.051338,0.069979,-0.105445,0.019782,0.054427,0.001180,0.087822,-0.003408,0.025733,0.074406,-0.023542,0.035733,-0.067567,0.040578,0.061972,0.111806,-0.001908,-0.058507,-0.033291,-0.018772,0.052646,0.023947,0.011022,-0.046433,-0.089716,-0.004249,-0.012145,0.080090,0.051504,0.035488,0.021811,-0.013826,0.002196,0.034563,-0.022439,-0.106908,0.018784,-0.003060,-0.027170,-0.034413,-0.065799,0.069977,0.043332,-0.038735,-0.053474,0.047576,-0.140142,-0.005499,0.081815,0.057247,-0.049722,0.013733,-0.010163,0.009843,0.024153,0.047203,-0.004742,0.030151,0.013332,0.122142,-0.080639
0.008953,-0.054937,0.009848,0.001444,0.057404,0.048556,0.056013,-0.081518,-0.061005,0.035530,-0.003387,-0.036860,0.047636,-0.027215,-0.039935,0.059435,0.059538,0.043873,0.063320,-0.039181,0.082008,0.045663,0.096545,-0.079303,0.023659,0.003483,-0.122205,-0.015622,0.058797,-0.021228,0.071608,-0.068482,0.052782,-0.023338,-0.105406,-0.013512,-0.008322,0.004130,-0.019279,-0.027034,0.051286,0.029273,0.001895,0.002998,-0.047726,-0.011846,0.065385,0.038584,-0.032079,-0.238711,-0.048818,-0.081798,-0.047012,-0.092720,0.001214,-0.070647,0.037721,0.046844,-0.006433,0.010524,-0.047811,-0.063390,0.098189,0.009293
0.068072,0.032679,0.013108,-0.001272,-0.034565,0.051601,-0.050013,0.048401,-0.001403,-0.009925,0.020271,0.065919,0.075141,-0.004602,-0.003469,0.018632,-0.012797,0.031343,0.052512,-0.063305,0.095726,-0.024679,0.005965,-0.001056,0.015187,0.042211,0.006193,0.033531,0.083352,-0.037711,0.017436,0.049034,-0.024429,-0.019133,-0.082027,0.029608,-0.017724,-0.046041,0.038276,-0.020108,0.052006,0.087550,0.123440,0.027989,-0.043357,-0.013842,0.077394,-0.113066,-0.006775,-0.179388,-0.086316,0.042248,0.064823,-0.049397,-0.021038,0.017948,0.050167,0.061818,0.016483,-0.040156,0.043558,-0.062878,0.127255,0.043079
0.006235,-0.011330,-0.014470,0.047956,0.061490,-0.055857,-0.069790,0.017980,-0.018913,0.020284,-0.056759,0.036927,0.055498,0.042182,-0.069784,0.021511,-0.090051,0.036011,0.013809,-0.059055,0.054710,-0.020582,0.043278,0.077295,0.015502,0.061138,0.021477,-0.048301,-0.042086,0.023270,0.163407,-0.055588,0.069411,-0.014694,-0.075221,-0.000348,0.049937,0.008270,0.055790,0.084405,0.010230,0.114693,-0.013338,0.001676,0.077178,0.020639,-0.115484,0.077044,-0.010094,0.031809,0.079639,0.039356,0.028379,-0.016083,-0.050911,-0.059158,-0.099591,-0.058836,-0.065939,-0.068573,0.008569,-0.053751,0.088768,0.006588
-0.012281,0.011652,-0.067141,-0.037918,0.042552,-0.104217,0.052277,0.077390,-0.061854,0.126784,0.059577,-0.014245,0.010271,0.058619,0.060494,-0.009542,0.022900,0.071498,0.001075,-0.053497,0.039932,0.018529,-0.049649,0.000860,-0.100242,0.002655,0.018644,-0.024991,0.066188,-0.113097,-0.080651,-0.038763,0.011846,-0.021410,0.007733,0.008625,0.046701,-0.027402,-0.062904,0.072885,-0.049129,-0.100094,0.049661,0.123369,-0.077188,0.068272,-0.028620,0.060312,0.030789,0.063548,0.063165,-0.080286,-0.009516,0.095237,0.006753,0.054711,-0.031476,-0.091480,0.084329,-0.129623,0.016875,0.088332,0.027596,-0.012992
-0.111992,0.068847,0.083248,0.065729,-0.065031,0.121133,0.085343,0.022632,0.003204,0.044364,-0.010621,0.040796,-0.049424,0.053632,0.046600,-0.012719,-0.047168,-0.037377,-0.005132,0.040055,0.026033,0.069053,-0.052612,0.108135,0.051522,-0.137227,0.101030,0.068341,-0.032479,-0.072863,-0.050223,0.001785,-0.094325,0.047035,-0.039976,-0.060423,0.037567,-0.012192,0.046381,0.012784,-0.052897,-0.079173,0.031510,0.035031,0.064221,-0.048483,0.055885,-0.032431,0.063014,-0.086336,-0.066772,-0.030356,-0.041606,0.016710,-0.045023,0.032261,0.095393,-0.132287,-0.060942,-0.058599,-0.046299,-0.001611,0.040509,0.038990
-0.095737,0.000787,0.053737,-0.010939,0.037456,-0.026482,0.030929,0.026678,0.028891,-0.016886,0.033988,-0.015445,0.051330,-0.092684,0.094092,-0.024335,0.040220,-0.011189,0.068943,0.079035,-0.056910,-0.114121,0.006991,0.013281,0.018847,0.026140,0.015181,-0.035624,0.089484,-0.074336,0.073935,0.052572,-0.075352,-0.075428,0.055815,0.000001,0.056934,0.028668,-0.057602,0.032370,-0.041506,0.023102,0.016343,0.052973,0.004394,-0.130489,0.063660,0.071721,0.070842,0.030861,0.038911,-0.017308,-0.046120,-0.076559,0.027767,-0.010714,-0.090625,-0.103693,0.048513,-0.023287,-0.056217,-0.060278,-0.078597,0.030403
0.052119,-0.020076,0.024539,0.055427,0.107994,-0.016615,0.038336,-0.092097,0.043301,-0.066168,0.050195,-0.104472,-0.060877,-0.022629,-0.021730,-0.072154,-0.014406,0.035011,-0.048464,0.060764,-0.081960,-0.070090,-0.057647,-0.089153,-0.044022,-0.067562,0.020912,-0.048111,-0.039034,-0.011588,0.068075,-0.052666,-0.079741,0.036554,-0.119821,-0.044275,0.059735,0.056397,-0.068048,0.043218,-0.103346,-0.126591,-0.105371,0.008154,0.005045,-0.034222,0.013208,0.048972,-0.085017,-0.089899,0.007719,-0.055031,0.015038,0.046665,-0.027944,-0.035192,0.098626,-0.002520,0.126536,0.002256,0.054538,-0.051313,0.058890,-0.007565
0.042840,0.056874,-0.001231,-0.054411,0.093134,-0.085216,-0.074744,0.000194,-0.119364,-0.035801,0.062248,-0.059564,-0.021216,-0.018914,0.057561,-0.008084,-0.067552,0.065527,0.030111,-0.006155,0.027772,-0.069626,-0.073516,0.068843,0.091723,-0.003728,0.037442,0.006389,-0.066315,-0.105040,0.034157,-0.097647,0.016029,-0.034273,-0.116638,0.050858,-0.008644,0.002773,0.002141,0.047648,0.061442,0.078520,-0.052524,-0.060913,-0.070671,-0.065024,-0.084957,-0.082290,0.019367,0.052898,0.054915,-0.052256,0.047382,0.043716,-0.080342,0.040246,0.024728,-0.066598,-0.107939,0.006901,0.005163,0.068720,-0.062560,-0.042292
-0.061608,-0.011442,0.072482,-0.067480,-0.012546,0.022561,-0.067099,-0.115819,-0.041148,-0.042982,-0.041221,-0.075731,0.058621,0.010115,0.066820,-0.069806,-0.051987,-0.013464,-0.067987,-0.018511,-0.027426,-0.024106,0.059605,0.081934,0.055811,-0.072479,-0.033341,-0.064988,0.095519,0.054785,0.006398,-0.094443,-0.069783,-0.057272,-0.049970,-0.024639,0.033819,0.042709,-0.064417,0.036104,0.105334,0.041021,-0.053935,-0.007232,-0.040883,-0.022850,0.099509,0.009929,0.122270,0.066817,0.060789,0.071829,-0.065853,0.086912,0.074320,0.053387,-0.042013,0.004267,0.020588,-0.010151,-0.086196,-0.051287,-0.135363,-0.051153
-0.046994,-0.016798,-0.040957,-0.131244,-0.035608,0.002863,-0.003928,-0.054910,-0.033006,0.021047,-0.000316,-0.067285,-0.053048,0.075694,-0.006732,0.104965,0.022509,0.080066,0.017501,0.081867,0.072344,-0.036344,-0.016210,0.101915,0.045977,0.035865,0.045048,0.014753,0.057805,-0.115367,0.002023,-0.004249,-0.034018,0.045836,0.005128,-0.099429,-0.096465,0.088578,-0.053227,0.014326,0.088384,0.000317,0.062703,0.051142,0.127372,-0.040297,0.056350,0.028579,-0.061351,0.066955,0.009840,0.092367,-0.056578,0.028218,0.033829,0.022571,0.078605,-0.040722,0.101804,0.050760,-0.009609,-0.015553,-0.028932,0.001320
-0.049922,0.057012,-0.029678,-0.001021,0.079864,0.010061,0.101528,-0.097629,-0.063888,0.055201,-0.005409,-0.098542,-0.089073,-0.000942,0.047514,-0.021422,-0.029932,-0.083364,0.054022,-0.021859,0.064279,-0.011453,0.019949,-0.024641,-0.074140,0.015682,-0.045876,-0.071809,-0.003594,-0.038609,-0.002385,0.025955,0.074287,-0.060343,-0.048564,0.026134,0.115068,-0.014880,-0.079617,-0.107711,-0.078233,0.004494,-0.017841,-0.046682,-0.046883,0.096403,-0.033902,-0.091051,-0.037857,0.026390,-0.016104,0.114182,0.093477,0.025320,0.007632,0.023269,-0.017771,-0.110097,0.025917,-0.019572,0.071858,0.111148,0.003918,0.031147
-0.008882,-0.041503,-0.027212,-0.096216,-0.017435,-0.047044,-0.043810,-0.017214,-0.112991,-0.027175,-0.048587,-0.046131,-0.008746,-0.039794,-0.060417,-0.012995,-0.093095,0.058043,-0.055316,-0.081601,0.044572,0.089334,-0.004402,-0.130587,0.024591,0.014278,-0.036050,0.058647,-0.005230,-0.046724,0.058376,-0.015664,-0.091331,-0.079432,0.014252,0.038147,0.001881,0.047454,-0.060491,-0.005181,-0.053602,-0.100165,0.035779,0.012078,-0.036321,-0.033355,0.100443,-0.045868,-0.000694,0.042215,-0.018115,0.061725,-0.062088,0.013872,0.054748,0.081240,-0.024308,-0.049912,0.066160,0.036664,0.004400,0.063014,-0.009832,-0.016320
0.135285,-0.033081,0.063236,-0.075890,-0.117333,-0.133981,0.086843,-0.043014,-0.049398,0.045824,0.036283,-0.018137,0.043481,0.074122,0.027640,-0.009844,0.031603,0.076340,0.007038,0.108762,0.032033,-0.091279,0.071506,0.037725,0.010761,0.086904,-0.058598,0.000658,0.029272,0.081481,0.099073,-0.117466,-0.098194,0.018187,-0.065837,-0.056567,0.036294,-0.044459,-0.000092,0.005455,-0.013244,0.073683,0.017380,0.110096,-0.045559,-0.044476,0.001041,-0.062754,0.004994,0.029518,-0.071052,0.001378,0.045399,-0.089575,0.054766,-0.035290,0.017940,-0.057168,0.032277,0.030929,-0.061776,0.038579,0.008171,0.004367
0.011608,0.082314,0.041994,-0.096997,-0.020784,-0.067578,0.077706,-0.021222,0.028731,0.052776,-0.002158,0.005016,0.032803,-0.064479,0.060217,0.118571,0.103708,-0.062284,0.077942,0.063807,-0.051528,0.087687,-0.017286,-0.101964,-0.027868,-0.053011,-0.065046,-0.014204,-0.031435,0.128509,0.042789,0.006134,0.037529,-0.014067,0.014527,-0.042717,0.024315,-0.006173,0.037718,-0.067874,0.061228,0.016827,0.100072,-0.016343,-0.005615,0.071613,-0.101781,-0.042473,0.076240,0.035325,-0.053667,0.004604,0.021593,-0.009405,-0.068036,-0.045339,-0.022084,-0.002835,-0.038798,0.026792,-0.029658,-0.000025,0.032854,-0.058516
0.025811,0.098713,0.048106,-0.063544,0.000777,0.056958,0.056548,-0.003210,0.036314,0.022474,-0.085064,-0.082829,0.036746,-0.131949,-0.011656,-0.030475,-0.030672,0.046782,-0.024374,0.049978,-0.018917,-0.039662,0.049051,0.025268,0.048007,-0.001635,-0.071072,-0.019379,0.102476,0.015510,0.003636,0.037024,-0.073403,-0.008271,0.057706,0.050088,0.063758,-0.012496,0.043509,0.090702,-0.071328,-0.047380,0.052626,-0.010138,-0.080841,0.009851,0.070428,-0.036891,-0.080185,-0.010320,-0.056747,-0.009658,-0.016428,-0.057873,0.063238,0.008830,-0.030075,-0.058679,-0.058462,-0.043485,-0.045473,-0.013107,0.100500,-0.014759
-0.017850,0.037166,0.018260,-0.032337,-0.041170,-0.044378,-0.065500,0.005912,-0.051187,-0.042259,0.021700,0.006303,-0.002938,-0.021919,0.050080,0.005790,0.124436,0.017309,0.067180,-0.026754,0.085119,-0.032336,0.007315,-0.007183,-0.016426,-0.055256,0.054921,0.010660,0.017458,0.011372,0.053767,-0.018316,0.008562,0.068579,0.028926,0.113640,0.120599,-0.001335,-0.105392,-0.002280,0.026379,0.030179,0.010547,-0.142624,-0.020081,0.062306,0.045679,-0.008626,0.022970,-0.073359,0.063936,0.034222,0.047147,-0.071096,-0.040801,-0.039021,0.020497,0.046087,-0.034228,0.002113,0.028295,0.079730,0.072224,-0.014188
0.060660,-0.096031,-0.080718,0.023004,-0.032538,0.060294,0.089015,-0.024404,0.006504,-0.044038,-0.013421,0.063943,-0.040722,0.018103,0.011200,0.073595,0.091393,0.041596,0.017991,0.030685,0.010718,-0.024644,0.046799,-0.099300,0.002990,-0.028077,-0.066725,-0.003432,0.025927,0.081168,0.010671,-0.025724,-0.010548,-0.076586,-0.073675,-0.005785,0.029109,-0.090572,0.001190,0.020421,0.003365,0.075808,0.094178,0.015593,-0.031313,0.027572,-0.021087,-0.013707,-0.019057,-0.223881,-0.039148,-0.067288,0.010283,0.022693,-0.009832,-0.136517,-0.052563,0.034214,0.085859,0.047490,0.040639,0.017216,0.140476,0.012639
0.102943,-0.059633,0.043326,-0.011794,-0.061607,0.078648,-0.036705,-0.026911,-0.009536,0.024110,0.008259,-0.006077,0.041046,0.092107,0.014626,0.006972,-0.055925,0.017508,0.032169,0.025300,-0.056729,0.083763,-0.000616,0.005528,0.015514,-0.051731,-0.083201,-0.071481,-0.052628,-0.025441,0.081636,0.080335,-0.058430,0.070372,-0.054941,-0.048429,0.033266,-0.021729,-0.074502,-0.066914,0.039360,-0.050779,0.038438,0.048628,-0.054242,0.034442,-0.085213,-0.018314,0.104362,-0.019817,-0.051309,0.036566,-0.066051,-0.011957,-0.028515,-0.055971,0.004972,0.031981,0.017000,0.097966,-0.010973,-0.043660,0.123732,0.037319
-0.127987,0.025879,-0.048079,0.021380,0.015803,-0.122859,-0.034383,-0.109946,-0.019928,0.001894,0.023263,0.028381,-0.050214,0.109250,0.070985,0.062309,0.043248,-0.051650,0.001709,-0.085931,0.080507,0.107381,-0.067708,0.029979,-0.085647,-0.000254,-0.035529,0.002020,0.006999,-0.025300,-0.073603,0.004642,-0.015095,-0.042686,-0.033899,-0.064126,-0.040572,0.020605,-0.033632,0.028241,-0.076079,-0.064705,-0.059905,0.025689,-0.012195,-0.066339,0.005960,0.092596,0.023998,0.016446,-0.073860,0.084524,0.089566,-0.025211,-0.022388,-0.024941,-0.059073,0.045704,0.053911,-0.017853,0.030434,-0.050006,0.135638,0.047671
-0.028396,-0.037481,-0.013768,0.075450,0.072505,-0.010671,-0.016869,0.005453,0.061763,0.069632,-0.048590,-0.043771,0.065571,-0.020768,-0.068250,-0.074344,0.060570,-0.093578,-0.080848,0.023802,0.095530,0.029533,0.019687,-0.041872,-0.110691,-0.079958,-0.054327,0.063741,-0.007728,-0.031340,0.096507,0.039005,0.057347,-0.075815,-0.016701,-0.047176,0.032498,0.045902,-0.048478,0.001687,-0.002575,0.016099,0.058849,0.019280,-0.051784,-0.021441,-0.024700,0.085374,0.037251,0.026794,-0.015385,-0.086088,-0.037353,-0.066229,-0.036164,-0.016979,-0.014249,0.015541,-0.001896,0.138255,-0.019820,-0.057739,0.131076,-0.000804
-0.119836,-0.050788,0.060463,0.084759,0.058190,0.019126,0.058725,-0.006634,-0.100191,-0.027249,0.010401,-0.092304,0.000106,-0.094004,-0.058788,-0.013468,0.021707,-0.034668,-0.025808,0.025254,0.016785,-0.031234,-0.098113,0.112575,0.128244,-0.072155,0.052869,-0.020860,-0.033443,-0.029601,-0.077723,0.000217,-0.011347,0.056657,-0.041863,0.016796,-0.045941,0.069719,0.027342,0.006794,0.146890,-0.051994,0.068336,0.007379,-0.053889,-0.054066,-0.088044,-0.063883,-0.045325,-0.040760,0.040783,-0.090947,0.081187,0.065375,0.060566,0.124303,-0.068845,0.072305,-0.054770,-0.010964,-0.088159,-0.052749,-0.045139,0.060191
0.014676,0.009921,0.076399,-0.054968,-0.021264,-0.031924,0.083185,-0.041150,-0.107503,0.087764,0.148240,-0.067874,0.001796,-0.012853,0.057293,-0.037502,0.006579,-0.026145,-0.074910,-0.041892,-0.070880,-0.054921,0.034443,0.016910,0.142622,-0.050415,0.178990,-0.060937,0.054509,-0.009683,0.006671,-0.027165,-0.069665,-0.007066,-0.020324,0.079128,0.020280,-0.055215,-0.087345,0.061385,0.073390,0.043743,-0.080741,0.008769,0.052737,-0.031295,0.005876,-0.061740,0.006365,0.054821,-0.056963,0.044069,0.068814,-0.046356,-0.056175,0.123287,-0.040516,0.000177,-0.069172,-0.027527,-0.115545,-0.130863,0.062452,-0.016482
0.033791,-0.030464,-0.030558,-0.056157,-0.043091,-0.020854,-0.045438,-0.097995,0.019574,-0.013130,0.019105,-0.100626,-0.051951,-0.044812,0.023360,-0.048257,-0.054926,0.006301,0.046041,0.097222,-0.004151,-0.063144,0.027061,-0.055569,0.098036,0.086613,0.022050,0.001149,-0.040400,-0.110218,-0.054515,-0.087056,0.016970,0.018882,-0.054812,-0.039211,-0.033114,-0.004249,-0.062875,0.041411,-0.056820,-0.008762,-0.128281,0.056300,-0.054015,-0.034096,0.021609,-0.078783,0.040866,0.013330,-0.075264,0.022857,0.061750,0.049538,-0.141347,0.025588,0.090248,0.020349,0.031025,-0.030929,-0.043802,-0.016433,-0.011044,-0.056842
0.047375,0.003195,0.013648,0.043356,-0.050238,0.041722,-0.009128,-0.109946,0.088233,-0.026308,0.100544,0.026044,-0.016118,0.035353,0.028494,0.106287,-0.030948,-0.050906,-0.030994,0.083778,-0.074455,0.005192,-0.081702,-0.049953,0.086557,0.021154,0.008386,0.061936,-0.020996,-0.058554,-0.023689,-0.038792,-0.098260,-0.077682,0.023111,-0.047571,-0.125716,-0.012208,-0.080755,0.061082,0.086732,0.007450,-0.021645,0.037209,-0.035810,-0.019056,0.094337,-0.043542,0.045295,0.026810,0.002004,-0.098313,-0.065754,-0.016290,-0.034384,0.078985,-0.035355,0.014974,-0.022232,0.017638,-0.002125,-0.051640,-0.039399,-0.090856
-0.072308,-0.020299,-0.076139,-0.095861,0.033226,-0.095424,0.057966,-0.046359,0.033227,0.013520,0.061111,0.033084,0.014427,-0.081637,-0.036330,-0.042001,0.057720,0.010732,0.032982,-0.072959,-0.007854,0.064158,0.026674,0.052401,0.073212,0.007465,0.098000,0.059114,0.014193,0.045608,0.028916,0.068218,-0.089334,-0.047465,-0.059070,-0.038226,0.032268,-0.106920,0.042320,0.106539,0.067696,-0.007234,0.008694,-0.027415,0.042827,-0.039109,0.003075,0.007869,-0.093122,-0.016926,0.012620,-0.009227,-0.086347,0.051562,-0.055819,0.111479,-0.102859,0.121326,0.009250,0.071833,0.046511,0.007078,-0.021161,-0.047047
0.055585,0.069620,0.073183,0.025260,-0.077755,-0.007051,0.008081,0.005383,0.030866,-0.043863,0.013014,0.021060,0.087483,0.038209,-0.023793,-0.047257,-0.056605,0.128014,0.037937,-0.016022,0.016795,0.074766,-0.044937,0.078848,0.042662,-0.014691,0.048067,0.052703,0.013716,-0.011877,-0.065939,0.089159,0.029484,0.035542,0.000001,0.053329,-0.098633,-0.107495,-0.031632,0.076086,0.006178,0.004426,-0.033717,-0.000576,-0.035174,0.043396,0.030497,-0.032235,0.040706,-0.018719,0.056861,0.029624,-0.019091,-0.050936,-0.029467,-0.040360,-0.047230,0.051963,0.063485,-0.069140,-0.040873,-0.084056,0.036433,0.083529
0.005901,-0.035933,0.018510,0.066957,-0.028570,0.064532,0.071532,-0.082664,-0.119815,-0.003111,0.026366,-0.008278,-0.027509,0.027500,0.096333,-0.072278,0.005184,0.071933,0.023898,0.018873,0.077884,-0.014620,0.000260,0.031860,-0.052761,0.065151,-0.079394,0.049252,0.042806,-0.027251,0.032261,0.054926,-0.083469,-0.073462,0.067912,-0.016320,-0.036998,0.005315,0.043733,-0.065349,-0.077729,-0.051737,0.043906,0.099845,0.062572,0.039694,-0.090031,-0.066900,-0.000031,0.027851,0.062642,0.034651,0.041551,0.061942,0.028034,0.088384,-0.035291,-0.086855,-0.020959,0.019111,0.004212,-0.006964,-0.034922,-0.001716
-0.063742,-0.091903,0.081493,-0.020186,0.038525,0.060982,0.041559,-0.021179,-0.027320,0.037709,-0.018595,0.077039,0.030492,0.018743,0.162961,-0.049622,-0.048135,0.079790,0.004428,0.037382,-0.005139,0.056115,0.056823,0.052073,-0.085912,-0.007341,-0.035149,0.009282,0.001738,-0.047566,0.013246,-0.067118,0.018945,0.050681,-0.008100,-0.033330,-0.009815,-0.074124,-0.062823,-0.014563,-0.115313,0.058294,-0.036479,0.011104,-0.045979,-0.040625,0.043874,0.043021,-0.048197,-0.017370,-0.005566,0.025530,-0.003591,-0.052426,0.015627,-0.066742,0.082235,-0.094870,0.027730,0.102805,0.005675,-0.010673,-0.041076,-0.006841
-0.024798,-0.015662,0.070871,0.039389,0.006552,0.058176,0.011718,0.076148,0.057955,0.050967,-0.027772,-0.077915,-0.064573,-0.082688,0.140810,0.047411,-0.029793,-0.016650,-0.036218,-0.068271,0.059143,-0.047481,0.111500,-0.035703,-0.100515,-0.051155,-0.053684,0.044320,-0.015911,0.000985,-0.000581,0.051905,-0.027120,0.039218,0.026119,0.060523,0.028707,0.036086,0.000695,-0.107452,0.037222,0.100399,-0.099065,-0.079933,-0.101008,-0.084986,0.046121,0.061852,-0.006304,0.005035,0.059762,-0.022571,-0.010719,0.015116,0.006808,-0.039841,0.100569,0.061368,0.005202,0.003925,0.006236,0.002312,0.007151,0.035825
-0.025088,0.055064,0.052582,0.067637,0.039439,-0.009374,-0.053200,0.061736,-0.092939,0.040310,0.074414,-0.006437,0.005271,-0.042370,-0.034589,-0.071230,-0.002648,-0.077609,-0.023718,-0.095501,0.006451,-0.076872,0.071744,0.005970,0.102381,-0.112375,-0.042458,-0.010026,-0.017924,-0.029033,-0.022276,0.089799,-0.018208,-0.050895,0.046914,-0.024672,0.039112,-0.073644,0.044054,0.018928,0.049408,0.003147,-0.007945,-0.022920,0.056468,-0.040602,-0.015838,0.003672,-0.049454,-0.052145,0.030943,-0.046520,-0.057415,-0.066818,0.018496,-0.029594,-0.025541,0.091696,-0.068479,0.065151,-0.044213,-0.045351,0.047864,-0.054543
-0.093380,0.017468,0.041521,0.045271,0.052740,0.021913,0.046256,0.055424,0.043090,0.050884,-0.029022,0.014537,-0.040589,-0.066798,0.013866,0.026895,-0.013475,-0.072715,0.081754,0.031407,-0.030381,0.004713,0.048909,-0.012191,-0.090606,-0.000017,-0.052908,-0.005868,0.038458,-0.009291,0.006152,0.035865,0.058437,0.042757,-0.008108,0.090980,-0.070195,-0.068899,-0.016701,-0.047349,-0.061426,-0.046530,0.069075,0.013190,-0.100887,0.031526,-0.076022,0.009083,-0.021083,-0.125284,-0.001554,0.044644,0.021224,-0.066578,-0.035731,-0.024666,-0.017806,-0.050417,-0.001595,-0.047590,0.056948,-0.033983,-0.021893,0.094943
-0.048318,-0.101348,0.021488,0.028442,-0.030361,-0.022143,0.094670,-0.055346,0.008824,-0.005873,0.042464,0.063542,-0.052202,-0.004770,-0.002692,0.074270,0.055544,0.026859,0.032180,0.002402,-0.075099,0.054519,0.010611,0.008437,-0.083299,-0.055082,0.067663,-0.040915,0.086944,0.056875,0.003000,-0.014532,0.050073,0.072285,-0.079465,-0.016158,-0.063670,0.035144,-0.015605,0.054361,-0.001684,-0.107500,0.087072,0.071103,-0.076207,0.126109,-0.056413,-0.064852,0.063825,-0.114337,0.028574,-0.078596,0.039418,-0.012344,0.076282,-0.036611,0.063566,0.013651,0.030808,0.093256,-0.000739,-0.023648,-0.094274,-0.055114
-0.052432,-0.082415,-0.068412,-0.008054,0.033796,0.126309,0.034208,-0.015924,0.049133,0.009369,-0.080579,-0.058031,0.025277,-0.059286,-0.026639,0.053015,-0.088587,0.037492,0.020052,0.038588,-0.072267,0.004913,0.062793,0.067483,-0.025623,-0.034081,0.000617,0.016511,0.067797,0.059430,0.032036,-0.004219,0.039497,0.081989,-0.041888,0.016296,0.029803,0.007642,0.080186,0.047178,-0.001622,-0.071991,0.073196,-0.015412,-0.017823,0.101935,0.055737,0.035918,-0.037740,-0.099325,0.013475,0.018897,-0.098373,0.008605,0.039440,-0.012487,0.033308,-0.035997,-0.005960,0.070756,-0.052460,0.035274,-0.045083,0.034092
0.097862,0.001968,0.056944,-0.005449,-0.122274,0.006623,-0.038375,-0.048662,-0.053564,0.016304,0.071203,0.117190,-0.093354,0.070731,0.057108,0.096465,-0.018901,-0.034163,0.036186,-0.028617,0.036385,0.025883,-0.007185,0.050419,0.087588,-0.060755,0.020487,-0.077316,-0.076301,-0.030642,0.067819,0.082489,0.026649,-0.029278,-0.002719,0.006500,0.039593,0.028575,-0.000992,-0.063567,0.005872,-0.072916,-0.094558,0.038738,-0.072160,0.024957,0.026752,-0.015013,0.117125,-0.136243,-0.059716,-0.004880,-0.022882,-0.058475,0.020435,0.001500,-0.058965,-0.089549,0.046869,0.118615,-0.058570,0.036362,-0.014925,0.114212
-0.074852,-0.098628,-0.041334,0.055757,0.061586,0.109599,-0.089122,-0.107722,-0.051022,-0.103436,0.012730,0.014945,0.071111,-0.052742,0.055976,0.041935,-0.015517,-0.060685,0.051044,-0.100434,0.006242,-0.030339,0.080924,0.090751,0.006001,-0.021803,-0.029564,0.075128,-0.047384,-0.003561,-0.039604,-0.043443,-0.011935,-0.016060,-0.042954,-0.087611,-0.054255,-0.018180,-0.048624,0.050523,0.058881,0.038741,0.076016,-0.075597,-0.064065,0.041840,0.086306,-0.019093,-0.005108,-0.010404,0.013690,-0.088393,0.079536,-0.043435,0.016391,-0.033269,0.014263,0.055742,-0.051593,-0.042962,-0.024875,-0.114107,-0.010060,0.042644
0.055364,-0.061066,-0.145632,0.138725,0.008179,0.024606,0.011585,-0.074096,0.122848,-0.001855,0.027400,-0.065764,-0.060078,-0.034936,0.006340,0.065079,0.083459,-0.096941,0.037148,0.058588,0.016844,0.066320,-0.017650,-0.016509,0.032856,-0.005898,-0.006385,-0.074469,0.027276,-0.041815,0.029729,-0.087987,0.051080,-0.093171,-0.074663,0.062695,-0.062696,0.001543,0.058815,-0.059996,0.108643,-0.064590,0.058141,0.028805,-0.017864,0.062839,-0.004445,-0.016636,0.066291,0.004647,-0.063343,-0.057040,-0.015089,-0.057927,0.069383,0.083468,0.077084,0.065789,0.071597,0.046836,-0.053801,0.031349,0.034810,0.017878
0.062561,-0.042484,-0.080412,-0.058612,-0.074779,0.032270,-0.041000,0.015747,-0.118446,-0.055843,0.059649,0.014338,-0.112873,0.012555,0.127105,0.070755,-0.029562,0.038238,-0.089299,0.005188,-0.012661,-0.038550,0.011298,0.041679,0.003087,-0.048098,0.059927,0.072510,-0.043104,-0.024578,-0.070181,-0.085346,-0.041768,0.008435,-0.100061,0.011974,0.020502,-0.039375,0.033765,-0.033476,0.036819,-0.028744,-0.092628,0.012660,-0.013049,-0.033913,-0.056320,0.022900,-0.031400,-0.071758,-0.034728,-0.072518,0.038779,0.029367,-0.121413,-0.001588,-0.051195,-0.073719,0.039874,0.012610,-0.006173,0.030200,0.046269,-0.069247
0.049972,0.082790,0.089258,-0.018480,-0.082837,0.023040,0.043565,-0.096934,-0.013323,-0.067989,0.033417,-0.000391,-0.114613,0.028174,0.045197,-0.051303,-0.018994,0.015308,0.042935,-0.075309,-0.071170,0.013326,0.049531,0.087945,-0.029290,-0.101000,0.054095,0.073827,-0.039744,-0.059735,0.128015,0.019617,-0.104476,0.030562,0.027800,-0.043931,-0.029247,-0.002593,-0.084241,-0.043876,-0.010243,-0.012170,-0.065443,0.025496,-0.026730,-0.032190,0.127183,0.024831,-0.020834,0.013611,0.025737,0.004690,0.035113,0.004789,0.030051,0.006986,0.029638,0.137205,-0.085097,0.098839,-0.074519,-0.129661,0.066640,-0.073063
0.144051,-0.021968,0.052232,0.002018,0.031360,0.035971,-0.002151,-0.075093,-0.036349,-0.017672,-0.025993,-0.066648,-0.078334,-0.044353,0.028453,-0.038518,0.027832,0.063511,0.053399,-0.031290,-0.036038,-0.066798,0.024633,-0.025875,0.047213,0.003472,-0.008020,0.025003,0.017885,-0.041980,0.079243,0.046600,-0.114639,-0.017617,0.062044,0.125917,-0.057663,0.005111,-0.024799,-0.017621,-0.018927,-0.047569,-0.037799,-0.032941,0.058312,0.026944,-0.009831,-0.041970,0.044867,-0.021914,0.022961,-0.105570,-0.058936,-0.045394,-0.030788,-0.032511,-0.013749,-0.005298,0.076240,-0.022005,-0.051464,0.008306,0.027340,-0.068598
0.004200,0.023058,-0.004550,0.042003,-0.006014,0.067790,0.059436,0.035096,0.036016,-0.048062,0.072713,-0.121160,0.030009,-0.033065,0.074829,-0.032340,0.013219,-0.081818,-0.067215,-0.009827,0.080076,-0.053447,-0.008164,-0.080812,-0.040507,0.082444,0.062198,0.035460,-0.062587,-0.077548,0.001134,0.036094,0.024313,-0.038120,-0.045101,0.086225,-0.104555,-0.066039,-0.023267,0.002686,-0.094549,-0.034778,-0.025663,-0.093793,0.023001,0.028326,0.099543,-0.138699,-0.072359,0.057466,0.053420,0.037638,-0.014080,0.083279,-0.050246,-0.036194,0.100205,-0.014228,-0.058553,-0.026459,-0.004853,-0.072664,-0.027693,-0.036843
0.019942,-0.074531,0.002709,0.011287,-0.045284,0.002506,-0.051328,0.066127,0.090711,-0.008221,0.046078,0.065021,-0.051667,-0.085699,-0.042520,-0.149251,-0.035272,-0.041596,-0.062964,0.006755,-0.010937,-0.059169,-0.006629,0.062758,0.013137,-0.028042,0.065414,-0.057389,-0.064586,0.056678,-0.049850,0.038563,0.047148,0.003992,-0.066163,0.057645,-0.064828,-0.018814,-0.053430,0.045639,0.029376,-0.049156,0.008501,0.056547,-0.055578,-0.074907,-0.075997,-0.003974,-0.041689,-0.046229,-0.080188,0.007662,-0.015129,-0.034372,0.089527,0.101254,0.046605,0.029559,-0.015727,-0.099949,-0.002966,-0.005098,0.003278,-0.025215
-0.027352,-0.103221,0.032254,-0.026925,0.046170,-0.068425,-0.050986,-0.012760,-0.039250,0.064345,-0.013644,0.038783,0.051142,-0.018446,0.074061,-0.015274,0.070945,-0.036428,-0.003311,-0.056115,0.017586,0.015087,-0.008215,-0.061975,-0.080460,0.015773,-0.072304,0.062401,-0.042259,0.094704,0.061775,-0.071099,-0.045856,-0.008508,-0.016737,0.076436,0.046749,-0.007203,-0.051949,-0.055713,-0.093985,0.053156,-0.139791,-0.072498,-0.020307,-0.080123,0.004206,-0.048578,-0.028947,-0.054053,0.009101,-0.019370,-0.011764,0.020954,-0.006348,0.035787,-0.117742,0.069275,0.087547,-0.057213,0.039583,-0.033970,-0.056912,0.002478
-0.022573,0.025136,0.038349,-0.065871,-0.073398,0.011116,0.070179,0.031626,-0.056045,0.053788,-0.037347,0.031974,0.037083,0.064571,-0.024419,0.073129,0.032745,-0.011140,-0.017455,-0.056247,-0.043610,0.020103,-0.147465,-0.016705,-0.001261,0.069512,-0.076147,-0.074284,-0.036054,0.045644,-0.062219,0.037362,-0.046347,-0.071511,0.070757,-0.027361,0.045997,0.075018,-0.005578,-0.058615,0.003872,0.058066,-0.018612,-0.010091,0.026578,-0.018539,0.023479,0.048239,0.092014,0.019438,-0.074295,-0.034116,0.066316,-0.061919,0.049612,-0.140647,0.027852,0.037280,-0.039520,0.084428,0.004857,0.078666,-0.044044,0.026406
-0.095591,0.056241,-0.014645,0.081664,-0.000598,0.030292,-0.053686,0.077665,-0.001700,-0.009303,-0.055762,-0.048880,0.037786,0.051664,0.029363,0.057495,-0.080184,-0.000549,-0.058199,-0.099312,-0.008130,0.036718,-0.070007,-0.026868,-0.002545,0.023687,-0.070329,-0.029711,-0.019980,-0.088136,-0.036832,-0.018202,0.099814,-0.019761,-0.028944,-0.029545,-0.026540,-0.005205,-0.029791,-0.086292,0.002555,0.130654,-0.002082,0.051130,-0.032670,0.018112,0.047000,0.054586,-0.030481,-0.007757,-0.072841,0.051466,-0.019679,-0.045901,-0.119345,0.020553,-0.017805,-0.044998,-0.096296,0.016847,-0.028858,-0.022023,-0.133077,0.009773
0.068909,-0.006097,-0.099005,-0.052245,-0.032664,0.074374,-0.055763,-0.023867,-0.076869,0.056370,-0.003717,0.116933,-0.030017,-0.070128,0.107244,-0.085260,-0.056051,0.060258,0.083259,-0.013846,-0.001933,0.124758,-0.065768,0.000829,-0.055091,0.075851,-0.091771,-0.043697,-0.115422,-0.074500,0.054413,0.095815,0.111453,0.053876,0.064558,0.088426,-0.052716,0.063571,-0.107574,0.042541,0.081439,0.130215,0.008128,0.082462,-0.008507,-0.013108,-0.056918,0.018490,-0.022569,-0.113046,-0.041743,0.054593,-0.065844,0.001338,-0.090732,-0.037906,0.028694,-0.057746,0.029344,-0.025198,0.043837,-0.072828,0.005320,-0.025368
-0.067620,-0.039964,0.033596,0.029362,-0.051218,-0.011545,0.023812,0.144124,-0.056139,0.056865,-0.055738,0.126506,-0.103069,0.038954,-0.020291,-0.061616,0.074519,0.058314,-0.073492,-0.059854,0.040991,-0.028106,0.036144,0.000672,0.031871,-0.030427,0.055494,-0.033490,0.043550,-0.009916,-0.036033,-0.064765,0.066282,-0.052671,0.004394,-0.037868,0.062031,0.078148,0.048379,-0.082312,0.049600,0.065451,-0.038067,0.008246,-0.003085,-0.012725,0.014404,-0.032751,-0.021672,-0.001434,-0.040050,-0.006523,-0.035616,0.105606,-0.058328,-0.074766,0.013950,-0.054757,-0.140456,0.067528,-0.071571,-0.078890,0.103669,0.027079
-0.044214,0.001571,0.052580,0.075706,0.047835,0.101969,-0.057322,-0.020991,-0.072221,-0.061812,0.038159,-0.020572,0.079084,0.019479,-0.082538,-0.002032,0.063161,-0.002643,0.031022,-0.020780,0.044764,0.002923,-0.045258,0.077060,-0.079663,0.079469,0.051809,-0.034807,0.103043,0.056838,-0.062267,-0.050413,-0.029143,-0.088987,-0.049713,-0.081751,0.063288,-0.029435,-0.023038,-0.022625,-0.073654,0.067615,0.080395,-0.057428,0.006231,-0.005653,0.019053,-0.062531,0.040515,-0.052893,0.039548,-0.017370,0.028632,-0.048879,-0.107937,0.066711,-0.093507,-0.019244,-0.051679,0.134831,-0.024563,-0.044428,-0.113677,-0.024749
-0.038991,-0.086056,-0.142539,0.054129,-0.004649,0.027174,0.000510,-0.034519,-0.015147,-0.076955,-0.010937,0.022921,-0.024532,-0.088839,-0.064854,0.164103,-0.052046,0.045150,0.001208,0.041107,-0.040170,-0.078593,-0.009528,-0.014480,-0.009294,-0.011483,-0.054422,0.000819,0.061168,-0.028380,-0.018953,-0.047769,0.025883,0.013627,-0.052814,0.031073,0.008765,-0.003985,-0.067445,0.009144,-0.018702,0.025971,0.059758,0.044314,0.073493,-0.001545,-0.022138,-0.080611,0.018670,-0.141655,0.048442,0.051681,0.002524,0.003103,-0.025342,-0.018802,0.004934,-0.063479,0.079635,-0.039380,0.032582,-0.004710,-0.058609,0.095112
-0.125101,0.006778,-0.077395,-0.083943,0.061083,0.049286,0.060582,-0.017566,0.037384,0.040428,0.083253,-0.015070,-0.023527,-0.061365,-0.000730,0.101360,0.015817,-0.061178,0.047537,-0.043734,-0.004453,-0.008205,0.032758,-0.073398,0.054712,0.028100,-0.032534,-0.040709,-0.075026,0.051653,-0.072424,-0.055925,0.043305,-0.009998,-0.037065,-0.048884,-0.029148,0.077293,-0.003227,-0.000502,0.046157,-0.098037,0.072685,-0.094346,0.019860,0.060994,0.060646,-0.020294,-0.074113,-0.155679,0.008337,0.057124,0.056885,-0.096242,0.065684,-0.012364,0.073502,-0.064896,0.027912,0.105619,0.163833,0.087339,-0.021117,-0.101789
0.075895,-0.056548,-0.028166,0.001570,-0.069661,0.066558,0.089047,-0.126091,-0.041704,0.038369,-0.000560,0.104293,-0.003073,0.132067,0.072111,-0.014137,-0.021413,0.000295,0.011520,-0.098102,0.029505,-0.047729,0.110730,0.056132,-0.066448,0.019999,0.056521,-0.035357,0.010156,0.062680,0.036589,0.013480,-0.002922,0.065301,0.069254,-0.013763,-0.001981,0.031166,0.001270,0.032602,-0.039184,-0.059723,0.027952,0.016699,-0.015707,-0.008250,0.089904,0.022710,0.021269,-0.062831,0.029267,-0.106010,-0.036121,-0.013464,0.032073,-0.009451,-0.064524,-0.081275,-0.015045,0.186918,0.004476,0.013488,-0.054807,0.035606
-0.072681,-0.097120,0.046361,-0.086830,0.035140,-0.050586,0.095782,0.073674,-0.037326,0.026028,-0.002226,0.068372,-0.016072,0.034581,-0.049319,0.020242,0.024870,-0.046686,0.079751,-0.068064,-0.028157,-0.068333,0.037592,-0.074505,0.044268,-0.055299,-0.104610,-0.026341,0.031670,-0.019184,-0.045485,0.072851,0.026428,-0.041854,0.109595,-0.029570,-0.111102,0.046536,-0.015137,0.077337,0.031194,0.044694,0.088889,-0.060819,-0.030829,-0.013322,0.020378,-0.081966,0.055626,-0.023093,-0.057203,-0.069071,0.087078,0.057498,-0.023250,0.034437,-0.072350,-0.032856,0.007366,0.024259,0.019204,-0.006112,0.034106,0.052432
0.048837,0.096808,-0.014163,-0.017914,0.032640,-0.056419,-0.022851,0.050076,0.052717,-0.092248,0.033018,0.000545,-0.014284,0.013320,-0.006800,-0.051821,-0.033896,-0.003687,0.049817,-0.003096,-0.023283,0.024135,-0.063602,0.064056,-0.023715,-0.126058,0.032823,-0.046143,0.053614,0.084660,0.022966,-0.011819,0.094762,-0.058454,0.021633,0.026072,-0.058397,0.000395,-0.025972,-0.169753,0.065551,0.081664,0.088986,0.015770,-0.082806,-0.084090,-0.019613,0.025829,0.064618,-0.034526,-0.074583,-0.014246,-0.076468,-0.095106,-0.117043,0.066494,-0.020048,-0.037974,-0.035293,0.181696,0.061374,-0.075723,-0.027652,0.134718
-0.042508,0.052948,-0.004238,0.019110,0.019113,0.043683,0.062370,-0.047678,0.030447,0.025774,0.049182,0.091925,0.081258,0.043640,0.015004,0.002229,0.097007,-0.038960,0.066034,-0.074239,-0.007633,0.037851,-0.031109,0.054322,-0.048698,-0.076507,-0.017804,0.068101,0.021594,0.100663,0.063675,0.072687,0.054185,-0.079849,0.015557,-0.038893,-0.019130,0.003524,0.014632,-0.090749,-0.138550,-0.097884,-0.023882,0.000664,0.085040,0.012825,-0.051872,0.007757,-0.078105,-0.077234,0.040405,0.033052,-0.062180,-0.009597,0.057044,-0.020624,0.040417,-0.007113,0.036269,-0.079100,-0.049053,0.023464,-0.113499,0.075095
0.083464,0.008779,-0.047946,0.018224,-0.122886,0.005391,-0.051397,-0.111355,-0.104586,0.085150,0.037746,-0.061048,-0.033908,-0.044221,0.116088,-0.007353,-0.023873,0.013386,-0.019940,0.011404,0.074649,0.009477,0.017524,0.043753,-0.023383,0.036940,0.036764,0.002270,0.025917,0.055954,0.009791,-0.044449,-0.011059,-0.069575,0.060280,0.003233,0.010442,-0.059809,0.028723,0.028921,0.040729,-0.002405,0.026104,0.050242,-0.082019,0.020421,0.004355,-0.006252,-0.043293,0.030731,-0.088612,-0.077918,0.045440,0.050041,0.092499,0.064803,0.002260,0.036875,0.010317,-0.073632,0.042690,-0.112176,-0.021578,-0.046140
-0.070982,-0.043617,0.082464,-0.087581,-0.054932,-0.087482,0.094299,0.048317,-0.069242,0.008168,-0.059009,-0.090700,0.107108,-0.047557,0.059343,-0.098284,0.033889,0.061439,-0.003936,-0.051293,0.048737,-0.064406,0.043872,-0.052788,0.070307,0.060951,-0.045863,0.048778,-0.080875,-0.008876,0.109075,-0.033806,0.019601,-0.016108,-0.040843,-0.062885,0.007031,-0.017606,-0.102329,-0.050508,0.046070,0.021374,-0.123220,-0.036541,0.108335,-0.089104,-0.032042,0.045866,0.053724,-0.023049,0.069557,-0.031686,0.038014,0.072026,0.051212,0.059226,0.125773,-0.025841,-0.074060,0.021102,0.027688,0.083164,0.047370,-0.068913
0.002808,0.071871,0.033188,-0.063161,-0.060469,0.000331,0.021636,-0.083023,-0.046410,0.030224,-0.045506,-0.060840,0.140997,-0.037798,0.028579,0.047649,0.014475,0.035139,-0.005691,-0.010461,0.063040,0.068425,0.068968,0.016055,0.045820,-0.063502,0.031001,-0.005195,-0.093618,0.034969,0.043362,-0.000313,-0.051258,-0.052677,0.029218,0.018605,0.014096,-0.032073,0.030817,0.066631,0.018503,-0.127621,-0.122055,-0.044867,-0.008817,0.032629,0.007144,-0.071411,-0.023286,-0.025226,0.012506,-0.012133,-0.016810,-0.002235,-0.006624,-0.012216,0.028752,-0.012813,-0.016916,-0.055221,-0.042676,-0.039588,0.136371,0.022452
0.077744,0.090036,-0.013323,-0.096670,-0.022873,0.067510,0.020707,0.016514,0.116356,-0.022157,0.007930,0.039724,-0.035570,0.042741,-0.085198,-0.041946,-0.064724,-0.094692,0.017499,0.038446,0.038788,0.000170,0.044328,0.057051,-0.096378,0.015643,-0.026882,0.013517,-0.048746,0.000764,0.053351,0.064760,0.020513,0.022540,-0.069261,-0.069363,-0.019439,-0.011572,-0.017527,0.014106,-0.062583,-0.077020,0.016041,0.039801,0.083774,-0.057856,0.067805,-0.034929,-0.016474,0.016145,0.036736,0.025176,-0.018528,0.048638,0.003969,0.033403,-0.103905,0.051910,-0.049615,-0.049008,0.066317,0.043088,-0.033584,0.001867
0.010747,0.004058,0.087833,-0.007841,-0.064333,-0.078586,-0.005122,-0.036283,0.068925,-0.074611,0.002031,0.061029,-0.032997,-0.093018,0.058383,-0.029309,0.087258,-0.049316,-0.000670,-0.064437,0.103582,-0.007860,0.021086,-0.023787,-0.092048,-0.068250,-0.035635,0.086529,0.070909,0.073861,0.036693,-0.062488,-0.091550,-0.011447,-0.069705,-0.030752,0.036201,-0.002316,-0.051662,-0.051141,-0.038468,0.055659,0.050333,-0.005883,-0.017421,-0.054099,0.024856,-0.026702,-0.000835,-0.092405,-0.017048,-0.008080,-0.003558,-0.054215,-0.045914,0.106777,-0.112363,0.079840,0.091017,0.032305,0.063162,-0.037203,-0.054806,0.095020
0.053975,-0.086145,-0.033961,-0.002850,0.042684,0.008520,0.036684,-0.052380,-0.032502,0.007494,0.016287,0.018117,-0.072907,-0.069827,0.035851,-0.045899,-0.026800,-0.055432,-0.086003,-0.056605,-0.009501,0.089581,-0.105938,0.055007,0.073863,0.068260,-0.044705,0.055230,-0.061041,0.018444,0.001422,-0.076120,0.080506,0.013665,0.032689,-0.027358,-0.153609,0.042717,0.023841,0.038136,0.058617,0.021540,0.034388,0.024974,0.021497,0.038317,0.010637,-0.020307,0.111425,0.042858,0.021943,-0.001260,0.018939,0.085248,-0.102089,-0.005756,-0.019430,-0.014417,-0.026427,-0.043615,-0.043362,0.003625,-0.077599,-0.040316
-0.184423,0.053650,-0.021926,-0.074439,0.028172,-0.021650,0.042336,-0.044316,-0.054366,0.031100,0.086439,0.110170,-0.040965,-0.045759,0.038486,0.002402,-0.064088,-0.053494,-0.081910,0.066807,0.009301,-0.042424,0.039469,0.029456,0.027976,0.028736,0.003338,-0.060627,-0.096091,0.035814,-0.094485,-0.024685,0.072860,0.046113,-0.033996,-0.056566,-0.031900,0.034386,0.019476,-0.026889,0.025753,0.071358,-0.003211,0.013233,-0.111340,0.025245,0.055578,-0.001296,0.006028,0.160340,-0.035867,0.033746,0.046399,0.123314,-0.103302,-0.022151,0.046137,0.033306,-0.008256,-0.052980,-0.102800,-0.005839,-0.129830,0.054515
-0.013049,0.044425,-0.046032,0.006058,-0.005584,0.008764,-0.085133,0.134293,-0.042510,0.016449,0.012746,0.097903,-0.081821,0.085423,0.025987,0.047083,0.029986,0.066287,-0.034135,0.015125,-0.000417,-0.053808,-0.093512,-0.029042,-0.024667,0.095461,-0.078474,-0.006547,-0.029833,-0.001664,-0.032208,-0.016713,0.060372,-0.004916,-0.018968,0.042279,-0.056211,0.027103,0.028663,-0.091713,-0.023650,0.091188,0.019459,-0.030301,0.079108,0.030667,0.003979,0.018893,0.025457,-0.037801,-0.050766,0.009379,-0.092403,-0.028807,0.018550,0.021410,0.022054,-0.001157,0.027734,-0.105914,-0.088195,-0.100335,-0.027434,-0.033421
0.038858,-0.104896,-0.026586,-0.117574,-0.020116,-0.055926,-0.070984,0.005628,-0.052401,-0.057844,-0.025612,0.005950,-0.073317,0.008823,0.086037,-0.100797,-0.004764,-0.067119,-0.067755,0.047465,0.055679,-0.066814,-0.105568,-0.017482,-0.037302,0.119336,0.052011,0.024914,0.093695,0.018793,-0.038801,-0.006779,0.013261,-0.008383,-0.025328,-0.062842,0.015480,0.008587,0.002593,0.030086,0.013778,0.045090,0.029864,0.080410,-0.082211,0.041356,0.054581,-0.050805,0.061155,0.017812,0.042400,0.053587,0.019693,0.050349,-0.137885,-0.034017,0.073264,0.065391,-0.023201,0.045976,0.005837,0.029061,-0.023974,0.022403
-0.129158,-0.002900,0.046694,-0.019609,-0.040252,0.038777,-0.018061,0.074378,-0.048816,-0.019718,-0.021155,-0.039145,-0.086264,0.079715,-0.013941,0.066826,-0.004577,-0.045771,-0.033454,-0.002681,-0.059614,0.021834,-0.034388,0.121965,-0.025311,-0.085535,0.062677,0.055603,0.059014,0.122216,-0.012237,0.037576,0.044954,-0.033727,-0.045562,-0.071691,0.004812,-0.074228,-0.108490,0.028911,0.038864,0.047775,0.015544,-0.015982,0.033397,-0.062467,-0.056068,-0.071308,-0.042319,0.031987,0.008736,0.053900,-0.004537,-0.117622,-0.057760,0.023221,-0.054355,0.007067,0.006902,0.039225,0.001660,0.064681,0.004577,-0.028268
-0.084773,-0.028321,-0.112020,-0.152758,-0.089611,-0.087504,0.078363,0.028538,0.077037,0.029672,0.028702,-0.018378,-0.052032,-0.082446,0.060313,0.018270,0.072445,-0.034402,0.015392,-0.042323,-0.013008,0.034352,0.096521,-0.020508,0.012415,-0.047913,-0.036263,0.040972,-0.079456,0.116306,0.006492,0.025040,0.051739,0.047888,-0.029910,0.076240,0.051635,0.020010,-0.031121,0.040175,0.025815,-0.076760,0.003037,0.000490,-0.019200,-0.058338,-0.018851,-0.036644,0.044442,-0.111177,0.016066,0.014180,0.014107,-0.002513,-0.063565,0.056670,0.094294,-0.005148,0.059160,-0.146308,-0.063497,-0.091515,-0.015493,0.088313
-0.011938,0.025547,0.040646,0.041268,-0.099943,-0.000168,0.068055,0.060401,0.012864,-0.054250,-0.015143,0.051411,0.051842,0.002584,0.014715,0.069236,-0.084328,0.085875,-0.019260,0.063845,-0.057582,-0.054026,0.034831,-0.038324,0.059775,-0.042467,0.042286,0.044938,0.027790,-0.023456,-0.040898,0.034462,0.072261,-0.060478,-0.007366,0.046860,-0.046032,-0.009700,-0.014891,0.027354,0.079256,-0.017391,0.010601,0.027053,-0.078324,0.070562,0.018970,-0.020163,0.052849,0.003852,-0.046510,-0.048753,-0.081604,0.037647,0.017206,-0.019941,-0.039911,0.015674,-0.055416,0.078349,0.074667,0.018097,0.078023,0.010569
0.082621,0.007788,0.016148,-0.002799,0.067555,-0.003832,0.058254,-0.060165,0.075286,0.104871,0.109289,0.055873,0.008352,0.077921,-0.020829,-0.035344,0.029767,-0.001396,0.041897,0.050192,-0.067437,-0.026789,-0.039310,-0.010165,-0.035699,0.021021,0.063384,0.024484,-0.074401,-0.105261,-0.065091,-0.072947,0.019501,0.054085,-0.035989,-0.005900,0.031476,-0.035877,-0.054919,0.044486,0.063152,0.019575,0.007909,-0.001637,0.039726,0.070544,0.079523,-0.001969,0.012291,0.116120,-0.053559,-0.024042,-0.045083,0.007269,0.035138,0.004259,-0.094230,0.026542,-0.071929,0.037353,-0.001613,-0.012464,0.081106,-0.051434
-0.014882,-0.006582,-0.025393,-0.032748,-0.064883,-0.026934,0.066136,0.075897,0.050851,0.024012,0.051887,0.004499,0.006530,-0.062244,0.063601,-0.014883,0.078729,-0.065263,0.056643,0.092864,0.014970,0.043557,0.016437,-0.011105,-0.063498,0.040270,-0.027546,-0.052714,-0.094787,0.003953,-0.006281,-0.016964,-0.001213,-0.077637,0.087386,-0.046479,-0.076024,0.064655,-0.055361,-0.035975,-0.021338,-0.010227,0.013932,0.024935,-0.100227,0.056221,0.004737,0.088429,0.147808,-0.000364,0.078197,-0.006687,0.037416,0.025988,-0.144381,0.010210,-0.032249,-0.012607,0.040769,0.151484,0.015907,-0.097005,-0.095522,-0.012078
0.036809,-0.075822,-0.073690,0.055771,0.045940,0.045268,0.035357,0.067576,-0.039979,-0.094666,-0.007677,0.000858,-0.088352,-0.001386,0.044943,0.040246,0.069629,-0.052699,-0.037078,-0.037232,-0.040460,-0.056850,0.108554,-0.024943,0.025043,0.050500,-0.051293,0.002039,0.032365,0.017900,0.049460,-0.063099,0.019419,0.067505,0.026971,0.003980,0.067632,-0.051860,0.030530,-0.127251,0.063372,0.018655,0.011660,-0.015514,-0.027244,-0.041043,0.019120,-0.031828,0.087160,-0.001228,-0.005554,0.127682,-0.118766,-0.027437,-0.023409,0.048199,-0.104153,-0.053219,-0.108745,0.184576,-0.075416,-0.007220,-0.159155,0.121023
-0.016412,0.104598,-0.124161,-0.027428,0.113211,0.053011,0.027260,0.071455,-0.005722,-0.023933,-0.068041,-0.096739,-0.009196,-0.027016,-0.015422,-0.001968,-0.038615,0.087670,0.062618,-0.030107,-0.016429,-0.091748,0.014968,0.014301,0.087436,-0.056895,-0.046912,0.058879,-0.018528,-0.042449,0.052792,-0.046646,-0.074772,0.021560,0.014131,-0.073661,0.018604,0.075726,0.023106,-0.105689,-0.068480,0.088670,0.021411,-0.107768,-0.050428,-0.085392,0.007084,-0.048334,0.057666,0.020308,-0.004279,-0.041566,-0.047752,-0.023860,-0.060727,-0.054368,-0.013619,0.038827,-0.065980,0.060489,-0.096096,-0.026187,-0.010114,0.018706
-0.133917,0.002396,-0.016375,0.060870,-0.002790,0.000704,-0.044052,0.091880,-0.021128,0.045181,0.074888,-0.128744,0.045507,-0.028595,0.009825,0.049045,0.042018,0.103617,0.046651,-0.026980,-0.049610,-0.037790,-0.064662,0.061953,0.136144,0.033020,0.003047,-0.077926,0.067448,0.038774,-0.055466,-0.061183,-0.105452,0.045968,0.076533,0.052430,0.054351,-0.082620,0.027347,0.022424,0.083520,0.071828,-0.006366,-0.039237,-0.067471,-0.006674,-0.054720,-0.103051,-0.118351,0.040035,-0.063269,-0.040893,-0.020725,-0.010078,-0.002364,-0.100998,-0.005389,-0.028546,-0.066884,0.011174,-0.035175,-0.011950,0.098966,0.003690
-0.039850,0.066911,-0.084849,0.002097,-0.085822,0.029274,-0.076482,0.038239,0.087207,0.137350,0.008970,-0.114455,0.012202,-0.064210,-0.018151,0.008075,-0.069532,-0.041598,-0.019000,-0.060156,0.073405,-0.023795,-0.032719,0.003519,-0.094570,-0.011526,-0.040034,-0.033320,0.066282,-0.048528,0.096869,-0.042105,-0.088905,-0.039231,0.006742,-0.074892,0.065950,-0.009904,0.059701,0.007565,-0.054318,-0.046196,-0.027414,-0.012571,-0.002245,0.002659,-0.090917,0.053671,0.098040,-0.031373,0.060079,-0.030846,-0.023160,-0.038940,-0.033043,-0.032061,-0.034710,0.055113,-0.010509,-0.023856,0.049572,0.025513,-0.039171,0.016715
0.023111,-0.057725,0.000798,-0.016673,-0.028697,0.002986,-0.029581,-0.114459,0.152665,-0.045957,0.163915,-0.057765,0.000829,0.055033,-0.059852,-0.053500,0.000957,-0.117383,0.043534,0.007337,-0.068693,-0.114636,-0.023959,-0.022080,-0.025303,0.068830,0.069285,-0.084798,0.097762,0.024401,0.050173,0.056772,-0.036585,0.019822,-0.078608,-0.098363,0.014316,0.027348,-0.056170,-0.013476,0.099062,-0.123543,0.062184,-0.006906,0.049375,0.046915,0.113149,0.002913,0.081706,0.084149,-0.051109,-0.080153,0.026171,-0.042782,-0.012119,-0.008039,0.029522,0.091470,-0.001782,0.010295,0.008679,-0.021390,-0.083610,-0.006935
0.042596,0.043860,-0.011162,-0.059268,-0.075149,-0.025683,-0.053741,0.162599,0.045884,-0.087048,-0.090804,0.058871,-0.105961,-0.044684,-0.102314,-0.051524,-0.071835,-0.014567,-0.073677,0.087472,0.039538,0.060511,-0.013484,-0.039605,-0.029837,0.033004,-0.029836,-0.038237,0.029811,0.049730,0.090698,0.028325,0.056751,-0.021869,0.043803,-0.097124,-0.098187,-0.023772,-0.087195,-0.027980,0.038031,-0.008752,0.030808,-0.056253,0.056390,0.082146,-0.081041,0.092521,-0.049493,0.014892,0.071746,0.069132,-0.046132,-0.039928,-0.044271,0.108658,0.026927,-0.042966,-0.041696,-0.042209,-0.025954,0.019842,-0.085230,0.010647
0.048748,-0.066649,0.088227,0.100172,0.067440,0.004336,-0.006018,0.019294,0.072606,-0.038501,0.019153,0.028087,-0.027144,-0.090854,-0.041394,-0.096064,0.062768,-0.055769,-0.068139,-0.072589,-0.014885,-0.030064,-0.057497,-0.001194,0.019314,-0.010696,0.020537,-0.039137,-0.033601,-0.059521,0.009175,-0.044791,-0.031857,0.070640,-0.031985,-0.054289,0.056805,-0.059792,0.008528,-0.010407,0.012828,-0.015922,0.049919,0.041302,0.009121,-0.043020,-0.041433,-0.078281,-0.012360,-0.052208,-0.050729,-0.007155,-0.037604,0.005207,-0.118221,0.021306,0.039758,0.005806,0.051744,-0.005704,-0.073977,0.106656,-0.047074,0.035558
0.077589,0.006182,0.073795,0.055321,-0.086638,-0.042845,-0.103425,-0.032291,-0.008291,0.070566,-0.049096,-0.073017,0.018508,0.030485,-0.025780,-0.085553,-0.091248,-0.010574,0.094701,0.020463,0.058571,0.126401,-0.100291,0.082945,0.080140,0.064946,-0.078926,-0.094672,-0.001487,0.055183,0.017875,-0.013084,0.100796,-0.055734,-0.068623,0.068216,-0.004404,-0.026351,-0.010895,-0.008765,-0.070496,0.054324,0.027726,0.093195,-0.004003,0.025869,-0.041930,0.010548,0.121202,-0.051934,-0.019022,0.000688,-0.057984,0.022570,-0.014042,-0.063731,-0.003074,-0.017944,-0.066518,-0.026535,-0.036816,-0.034762,-0.027347,0.014113
0.081934,0.038507,0.008187,-0.010427,-0.072509,-0.012099,-0.072137,-0.030693,0.036904,0.091197,-0.084191,-0.069710,0.008089,-0.078362,0.056798,0.021870,-0.041565,-0.033262,-0.046658,-0.005699,-0.098987,0.007750,0.004816,0.046008,0.079303,0.022722,0.100093,-0.041286,-0.002424,-0.000049,-0.022788,-0.045699,0.009531,0.042617,-0.016570,-0.027319,0.097591,0.038400,-0.062385,0.003810,0.018071,-0.009306,-0.029183,0.011654,-0.010320,0.084182,0.153353,0.060192,-0.041092,-0.033243,0.000162,-0.039121,0.043149,-0.062625,0.101835,0.005051,0.033193,0.011107,0.052092,0.019081,-0.017729,-0.032516,-0.075770,0.091704
0.015868,-0.061354,-0.043370,0.077724,-0.008729,-0.083556,-0.022571,0.094398,-0.027135,-0.085357,0.028974,-0.096312,0.047523,-0.047199,0.050762,0.041291,0.029072,-0.113081,0.041474,-0.037481,-0.015036,-0.013090,0.123960,-0.073139,0.138081,0.089780,-0.009880,0.041122,0.013023,0.023140,-0.022076,0.050775,0.021987,0.046895,-0.001404,0.001106,0.003745,0.053788,0.005009,-0.106453,-0.004604,-0.016062,-0.018643,0.062659,0.039199,-0.015334,0.023278,-0.008760,-0.084665,-0.011300,0.040298,-0.010218,-0.003814,0.010222,0.037808,-0.030724,-0.002883,0.053366,0.060162,0.077285,-0.162802,-0.036633,-0.024860,-0.166084
0.052789,-0.076243,-0.033228,0.022767,0.066566,0.002906,0.074429,0.048930,0.008530,0.008379,0.024557,-0.055646,-0.021778,-0.037104,0.110826,0.020879,0.026122,0.040160,-0.026420,0.031749,0.004432,-0.071799,0.058160,-0.068450,0.000272,0.036470,-0.035779,-0.098166,0.006809,0.017566,-0.081019,0.059297,0.030185,-0.009628,0.002040,0.077401,0.010202,-0.056650,0.020977,0.039927,0.003135,0.038580,-0.057496,-0.077793,-0.068793,0.147399,-0.079613,0.003126,0.128470,0.001902,-0.090732,-0.004584,0.025185,0.009709,0.050413,0.022776,0.067126,0.090388,-0.045821,-0.015153,-0.045250,-0.063525,0.109759,-0.118083
-0.026326,0.021198,0.029548,0.029124,0.077446,-0.010361,-0.003748,-0.124365,-0.003149,-0.062586,0.037246,0.034410,-0.026161,-0.012338,0.104026,-0.056425,0.085889,0.067544,0.039443,-0.022678,0.027071,0.011425,0.032574,0.023374,-0.053157,-0.039907,0.056540,-0.017411,-0.055188,0.102186,-0.022849,0.027043,-0.053094,0.023707,-0.059707,-0.002152,0.019813,0.027148,0.057550,-0.046447,0.016488,0.029772,-0.057190,0.135982,-0.071677,-0.103398,0.026917,-0.085369,0.074603,0.025286,-0.035032,0.061315,0.101944,0.001297,-0.010229,-0.047055,-0.026950,-0.022122,0.017974,0.029607,0.122158,0.011263,0.065966,-0.094060
-0.102827,0.121041,0.041375,0.028139,-0.010741,0.029060,0.020731,0.098635,0.031403,-0.050513,0.001086,-0.033565,-0.052537,0.057501,-0.005699,-0.008265,-0.079522,0.079337,-0.009304,0.062362,0.035240,-0.007319,0.000611,0.019703,0.061993,0.082789,-0.012696,-0.005376,-0.074929,-0.038069,0.049244,-0.010794,0.071454,0.021916,-0.105204,0.017269,-0.014348,-0.023301,-0.013699,0.058066,0.122341,-0.052736,-0.071080,-0.042727,0.044659,0.071170,0.032047,0.064135,0.046444,-0.149179,0.054488,0.033022,0.005543,-0.089155,-0.037219,-0.054876,0.027706,0.054187,0.094626,-0.031222,0.092046,0.036395,0.052436,0.012772
-0.007219,0.101385,-0.044696,0.036743,-0.051193,0.068042,0.033133,-0.022878,0.033387,0.074346,0.012580,0.046456,0.030550,-0.028610,0.010242,-0.003848,0.006869,-0.005478,-0.008567,0.052384,0.000109,0.008202,-0.003099,0.010110,-0.101352,0.069442,0.062055,0.034341,0.011272,0.112932,-0.042790,0.057216,0.012884,0.027480,-0.011175,-0.084360,-0.029420,-0.070140,-0.060709,-0.091785,0.088330,0.062261,-0.097920,0.002237,0.025652,0.006564,-0.133235,-0.089977,-0.027811,-0.052183,0.063991,0.010155,0.041004,0.005964,-0.034112,-0.097059,-0.003548,0.116495,0.067017,-0.027570,0.051923,-0.027436,-0.093502,-0.039971
-0.054941,0.051024,-0.026224,0.002207,0.041534,0.013090,0.058404,-0.043489,0.001699,0.073971,-0.039139,-0.102806,-0.103043,-0.028303,-0.079278,-0.011823,0.058591,0.070694,0.060558,-0.012924,0.045665,0.081839,-0.056746,-0.001002,0.013328,-0.015346,-0.010607,-0.037642,0.030170,0.013392,0.058900,-0.001003,-0.035133,-0.073771,-0.103811,-0.065931,0.054134,0.048553,0.044616,0.060886,-0.060448,0.099759,0.026395,0.011318,-0.069649,-0.049956,-0.125353,0.033316,0.181506,0.089764,-0.064506,0.012284,0.018532,0.010333,0.105355,0.056328,-0.085178,-0.031627,-0.095181,0.046354,0.008213,0.027954,-0.014433,0.000238
-0.072490,-0.018704,-0.015190,0.018143,-0.022351,-0.032168,0.016630,0.006430,0.004316,0.008927,0.019526,0.055935,0.002933,-0.039476,-0.031983,0.064348,0.002639,0.012648,-0.075514,-0.044364,-0.017138,-0.023509,0.064549,-0.043137,0.026715,-0.049262,0.058435,0.060485,0.071545,-0.063042,-0.083989,0.057633,0.040963,-0.089466,0.049090,0.053418,-0.027796,-0.006467,-0.006168,0.074053,-0.051449,0.043481,-0.018742,0.091549,-0.065649,0.033266,-0.007128,0.004532,-0.080513,0.034789,0.036314,-0.011395,-0.035046,0.044950,0.017834,0.001572,-0.000871,0.011346,-0.110618,0.009750,0.088588,-0.044468,-0.007412,-0.018002
-0.054030,0.034192,0.027641,0.080951,0.118426,-0.135179,0.014374,0.030679,0.040998,-0.003116,-0.055041,-0.045496,-0.011070,-0.019619,0.038180,0.080946,0.063030,-0.055324,0.055381,0.083926,-0.023071,-0.011831,-0.093293,0.031364,-0.102127,-0.046523,-0.062871,0.036368,0.047102,-0.100634,-0.110603,-0.095266,0.022698,0.063717,0.080106,0.010588,0.114208,-0.000779,0.012820,-0.027434,-0.041079,0.026115,0.017945,-0.105609,-0.036318,0.007192,-0.003119,0.104179,-0.035168,-0.040771,0.082691,0.050963,-0.113030,-0.043475,0.006407,-0.022752,-0.103795,0.003904,0.083521,0.031789,-0.043565,-0.025341,0.013359,0.079398
-0.035084,0.061135,-0.084591,-0.052303,-0.020189,0.047749,0.066948,0.080154,0.028034,-0.005555,0.086754,0.087589,0.062388,0.007647,0.046464,0.027746,-0.056487,0.087139,-0.055365,-0.041329,0.029704,0.020357,0.033502,0.091453,-0.103515,-0.055752,0.032217,-0.032446,-0.003452,0.034509,-0.078793,0.079703,-0.032229,-0.010206,0.120764,0.032249,-0.037141,0.062033,-0.014209,-0.024337,-0.048800,-0.026492,0.044056,-0.000961,0.076578,-0.018934,0.002237,-0.091250,-0.084432,0.064675,-0.020681,-0.089642,-0.017244,0.020876,-0.092257,0.045922,-0.125425,0.013957,-0.055611,0.029897,-0.069797,0.016738,0.097324,-0.020582
0.024079,-0.013808,-0.116927,-0.078890,-0.050151,-0.002092,0.102946,-0.028958,0.041466,0.064047,0.040237,0.098767,-0.077459,0.071111,0.031413,-0.003705,0.023698,-0.025869,0.014941,-0.080976,0.018700,-0.007345,0.061898,0.068618,-0.068794,0.034947,-0.003631,-0.022294,-0.040589,0.002028,-0.059063,-0.007769,-0.012161,-0.035249,0.028491,0.074703,0.047311,-0.015752,0.001631,0.021296,-0.085814,0.058729,0.006619,-0.044826,0.006348,0.006588,-0.033234,-0.094053,0.075805,-0.035820,-0.059590,0.082811,0.066196,0.048195,0.010277,0.018016,0.031543,-0.021909,-0.086774,-0.086214,-0.008829,-0.000369,-0.019655,-0.113581
0.086076,0.120883,0.098967,0.025666,-0.015025,-0.073179,0.005785,0.009295,-0.085127,0.056091,0.100410,-0.005877,-0.048242,-0.025446,0.017884,-0.059930,-0.027677,0.043799,-0.084587,0.034837,-0.009644,-0.120214,0.008011,-0.044151,-0.019821,-0.111566,0.037715,0.042326,-0.043036,-0.003819,0.008463,-0.011971,0.030368,0.078551,-0.048587,0.017038,0.028147,0.052398,-0.083971,0.020380,-0.008025,0.012693,-0.099812,0.066858,0.084268,0.065923,-0.041101,-0.032977,0.017977,0.017066,-0.051988,-0.026947,-0.009766,0.062191,-0.007881,0.055431,0.063152,0.052260,0.016386,0.011370,0.057671,0.046416,0.036726,-0.064502
-0.010232,0.099606,0.016668,-0.044744,0.020788,0.016015,-0.059747,-0.125542,0.072328,0.034774,-0.072198,0.053204,-0.117992,-0.021828,0.047348,0.009381,0.052997,0.066651,0.080433,-0.110987,-0.009282,-0.027249,0.073430,0.013423,-0.031797,-0.013809,-0.012301,-0.056712,-0.038790,0.012061,-0.006848,-0.076926,-0.060022,-0.026889,-0.028115,0.051484,0.004568,-0.049401,-0.067266,0.091319,-0.003896,-0.111367,-0.021759,0.046531,0.024291,-0.091817,-0.026811,-0.084481,-0.039098,0.025315,-0.016116,-0.022573,-0.099158,-0.088014,0.046172,0.000301,0.008075,0.016304,-0.031899,-0.046422,-0.018325,-0.023521,-0.037052,0.030036
