16
256,32,32,32,32,32,32,32,32,32,32,32,32,32,32,3
-0.020305,0.042325,-0.103704,-0.014917,0.086608,0.010370,-0.066750,0.005451,-0.036914,0.033845,0.162478,-0.014276,-0.115514,0.136342,0.005927,-0.049393,0.010396,-0.007164,-0.017290,0.039138,-0.024766,0.087822,-0.027264,-0.071857,0.051792,-0.021444,-0.067830,-0.097557,-0.084099,-0.010803,0.014478,0.026032
0.103381,0.059464,0.016885,0.100014,-0.076764,-0.032386,0.060536,-0.004365,0.029536,0.009198,-0.029071,-0.037512,0.130534,0.040436,0.068841,-0.007891,-0.065912,-0.104400,-0.058089,0.015155,-0.060974,0.002259,-0.136125,-0.021907,0.046061,0.004437,-0.034591,0.083298,-0.065445,0.181817,-0.049360,-0.068889
0.153557,-0.098215,0.076634,0.015770,0.035507,0.021754,-0.137725,-0.167856,0.052282,-0.042721,0.044725,0.039745,-0.009855,0.010661,0.079638,0.034339,0.062294,0.037419,-0.059013,0.056853,-0.063706,-0.087714,-0.022103,0.095931,0.065454,0.080830,0.025611,0.131445,-0.045570,0.006423,-0.046194,0.004823
0.090888,-0.182951,0.228719,0.108118,-0.043965,0.030234,-0.045830,0.050347,0.043722,-0.060368,-0.043150,-0.022326,0.021447,-0.011061,-0.176524,0.010789,0.108783,0.039001,-0.133334,0.017680,-0.017419,-0.044605,-0.091291,0.026161,0.062953,0.091740,-0.117494,-0.059709,0.063062,-0.018894,-0.027371,0.009675
0.040789,-0.021910,0.052739,0.081161,0.135754,0.086112,0.014753,-0.021776,-0.014774,0.044513,0.021256,-0.097319,-0.020030,-0.017175,-0.033863,0.088767,-0.108179,0.056272,0.151906,0.089351,0.007908,0.076542,0.018037,-0.143744,0.044279,0.020833,0.011307,-0.056439,0.116169,-0.079518,-0.124520,0.057951
0.082853,-0.006846,-0.011099,-0.117054,0.027932,-0.041136,0.125553,0.011552,-0.009012,-0.070671,-0.006826,0.032444,-0.025810,-0.013494,0.025083,0.010383,0.026549,0.121006,0.115836,0.026626,-0.029411,0.105937,-0.046353,-0.105643,-0.013918,-0.062629,0.133868,-0.021158,-0.007446,0.033669,0.025449,-0.035294
-0.100743,0.057232,-0.060594,-0.012037,-0.052520,0.030781,0.065569,0.040684,0.046626,-0.121389,-0.117372,-0.103347,-0.070613,0.130978,0.100276,-0.040562,0.085168,0.053852,0.097311,-0.077560,-0.024040,0.040110,-0.053708,0.085179,-0.010100,0.141522,0.097119,-0.089754,0.010630,-0.032486,0.082268,-0.084897
-0.090669,0.032756,-0.018885,-0.028721,-0.087888,0.078402,-0.060963,0.067979,0.094139,-0.016433,-0.084461,0.013102,0.070747,-0.000368,-0.049792,-0.127216,0.136586,-0.118845,0.167664,-0.008066,0.027802,-0.004810,0.047608,0.001303,0.037384,-0.102594,0.150173,0.019531,0.052157,-0.089247,0.004443,-0.050230
-0.028305,0.002301,0.034563,-0.035417,-0.004995,-0.051266,0.048541,-0.014604,0.023053,-0.119562,-0.107347,0.165684,-0.081827,0.029852,0.157997,0.047543,-0.037262,0.053092,0.075426,0.116219,0.041510,-0.178758,0.115673,-0.011133,-0.043633,-0.021267,0.113115,-0.111816,-0.065283,-0.166332,0.004619,-0.051097
-0.077827,-0.041075,-0.076174,0.012767,-0.057383,-0.008711,-0.015581,0.042029,0.033656,-0.006347,-0.151839,0.026998,-0.057267,-0.002781,-0.037788,0.061414,-0.043032,-0.026899,0.001248,0.138665,0.026405,-0.048207,-0.065114,-0.051057,-0.109572,0.030232,0.108177,-0.086421,-0.090691,0.045429,-0.100174,0.137583
-0.098876,-0.057586,-0.033884,0.024039,0.082068,0.182064,0.025930,-0.055095,0.017195,0.017438,0.115127,-0.010180,-0.035744,-0.114846,0.062149,0.031821,0.114808,-0.009270,-0.058907,0.096339,-0.003563,0.023719,0.063035,0.070033,-0.012347,-0.077621,0.056876,0.086660,-0.059436,0.140788,0.005194,0.095969
0.129477,-0.091035,0.054747,0.134212,0.050400,0.004850,-0.067848,0.048816,0.099020,0.076228,0.056319,-0.015064,0.000687,-0.010477,-0.085091,0.092825,0.011140,-0.046228,-0.072869,0.051725,-0.012268,-0.111685,0.219264,0.046357,-0.111785,-0.036565,-0.090478,0.142389,0.075222,0.098150,-0.087263,0.126029
0.012987,0.060435,0.001136,0.155006,0.094710,0.081358,0.041353,-0.115328,0.105662,-0.068962,-0.032208,0.117454,-0.072779,0.115896,0.052952,0.032964,0.072587,-0.002423,-0.034839,-0.076069,0.059429,0.126447,-0.018980,-0.077640,0.023401,-0.002009,0.020876,-0.063887,0.061323,0.147005,-0.023981,0.150701
-0.034825,0.197607,0.043537,0.031696,0.171429,-0.059336,0.066200,-0.065966,-0.024161,0.065802,-0.008661,-0.008506,0.055896,-0.041353,0.135188,-0.003922,0.079089,-0.039844,0.045285,0.075637,-0.066643,0.038002,0.006727,0.086740,0.123209,-0.038086,-0.156459,0.125241,-0.120896,-0.054036,0.064686,0.016575
0.018181,-0.055855,0.158007,-0.035251,-0.041437,-0.103987,-0.126791,0.001991,-0.044808,-0.063892,-0.048031,0.049341,-0.098037,0.069433,0.048073,-0.063678,0.159558,-0.134179,0.136856,-0.103764,0.078718,-0.124639,0.033737,-0.054913,0.118717,-0.094913,0.063789,0.060021,-0.040873,-0.056327,-0.095287,0.010659
0.024701,0.028077,0.102479,-0.212628,0.048144,-0.052484,-0.079831,-0.061214,-0.010929,0.028971,0.016789,0.079538,-0.145081,-0.013792,-0.030097,-0.063151,0.051213,-0.005010,0.062753,0.040299,0.061328,0.100783,-0.079000,-0.136238,0.033407,-0.049408,-0.068000,0.035264,0.042316,0.011044,0.135310,0.052221
-0.008934,-0.049326,-0.079139,0.038340,-0.143726,-0.032693,0.078167,0.156178,-0.105295,-0.025550,0.088432,-0.045220,0.028020,0.041343,-0.029799,-0.023875,0.004273,0.003821,-0.094253,-0.085551,-0.060850,0.023685,0.012416,0.052222,-0.051492,0.122093,-0.039241,-0.041493,0.051471,0.022878,0.186230,0.013414
0.001642,0.040902,0.066247,-0.015730,-0.025796,0.149065,-0.011161,-0.030151,-0.035440,-0.061790,0.046387,0.010971,-0.051964,0.028605,0.058506,-0.035048,0.030570,-0.135516,-0.024702,0.067916,0.000206,0.125992,-0.058897,-0.014859,-0.029864,0.038871,0.131619,0.084602,0.068576,0.133081,-0.006358,-0.060641
-0.051974,0.015700,-0.018354,-0.019539,0.002215,0.035800,0.062660,-0.117615,-0.033378,-0.055226,0.175002,-0.039423,-0.104445,-0.016690,0.017248,-0.097481,0.011931,-0.025776,-0.036069,0.074058,-0.091266,-0.006448,-0.036320,0.007544,-0.041229,-0.090400,0.047978,0.098856,0.163218,0.005691,0.021766,0.071718
0.103711,0.010856,0.070653,-0.108865,0.176394,0.071792,0.056622,-0.087310,0.047742,-0.059657,0.028193,0.086987,0.052547,-0.056275,-0.048844,-0.007092,-0.035263,0.119952,-0.141394,0.054611,-0.040742,-0.054753,-0.006221,-0.059838,0.112655,0.009709,-0.107215,-0.097592,0.077506,-0.025552,-0.034891,0.071690
-0.088108,0.092991,0.144246,0.040351,-0.042822,-0.063771,0.055028,0.073383,0.022022,-0.049752,0.012596,-0.042191,0.094518,0.071898,0.048522,0.049357,0.121990,0.088476,-0.067234,-0.028840,-0.053283,-0.010847,-0.163116,-0.063810,0.077592,0.060583,-0.021040,0.033368,-0.240481,-0.077506,-0.016832,-0.066491
0.172739,0.049344,0.124334,-0.097608,0.057949,0.030324,0.008955,-0.128969,0.025667,-0.046493,-0.064212,0.019332,0.024706,0.094787,0.033879,-0.003125,0.012809,0.028059,0.033411,0.012738,-0.029532,-0.051387,-0.099770,0.003493,-0.068037,-0.127312,0.083643,-0.015345,-0.079948,0.000030,-0.084879,-0.058831
0.067776,0.050954,0.011552,-0.004682,-0.027910,-0.084072,0.047822,-0.063014,-0.032333,-0.057067,-0.069708,-0.066168,0.005260,-0.036091,0.032463,0.061361,-0.050565,0.068096,0.096097,0.093673,0.002281,0.019936,-0.117919,0.029929,-0.025555,-0.115417,0.016377,-0.088240,0.074920,0.092880,0.002588,-0.078005
0.032066,0.119560,0.012160,0.005328,0.070321,0.039489,-0.006047,-0.022043,0.094279,-0.071828,-0.082435,-0.014517,0.055483,-0.039282,-0.043281,0.128776,0.054037,-0.016134,-0.034381,-0.036494,-0.048533,-0.090925,-0.000847,-0.073615,-0.059912,0.048627,-0.017892,-0.016331,0.067235,0.066258,0.049205,-0.041176
-0.076313,-0.109448,0.104960,0.038069,-0.152486,-0.032271,-0.196547,-0.059177,0.062766,-0.077219,-0.018300,0.109123,0.062177,0.141804,0.091392,-0.059694,-0.025045,-0.146795,0.112225,-0.012708,0.071206,-0.049866,-0.018554,-0.013303,-0.011764,0.064054,0.046291,0.074503,0.034598,-0.142228,-0.000972,-0.048953
-0.085554,0.042604,-0.012476,-0.034767,-0.107233,-0.040800,-0.047138,0.021011,0.040191,-0.035139,0.041235,-0.090183,0.017082,0.000730,0.026737,-0.051514,0.029513,0.000211,-0.000871,-0.111083,-0.081136,-0.113613,0.063939,0.023417,-0.016018,0.078536,-0.095314,-0.117001,-0.052100,-0.115972,-0.030914,0.083112
-0.053467,0.066391,-0.162976,-0.056237,-0.096760,0.005116,0.045600,-0.056684,-0.033743,-0.007487,-0.005005,-0.054060,-0.027098,0.137150,-0.104142,0.001909,-0.022808,0.081164,0.042441,0.032808,-0.091096,-0.039756,0.043738,-0.052677,0.051843,0.083113,0.013396,-0.103654,0.201330,0.103039,-0.001849,0.069054
-0.025792,0.115803,-0.031270,-0.016406,0.144274,0.090025,-0.080628,0.058543,-0.056042,-0.028381,0.055833,0.100049,0.044544,0.112812,-0.019929,-0.058918,0.018102,-0.030174,0.120379,0.020610,-0.045377,0.018603,0.003342,-0.062114,-0.096100,0.011443,0.165181,0.006488,-0.045411,0.051847,-0.023579,-0.019957
-0.066113,-0.017561,0.037410,-0.051831,-0.043988,-0.015136,-0.026107,0.105329,0.041480,-0.034622,0.020602,-0.028502,0.077679,0.110416,0.017887,-0.120559,0.088150,-0.054866,0.128053,0.006493,-0.041818,-0.002418,-0.032047,-0.102459,0.021915,-0.123755,-0.068018,0.216395,0.035097,0.043366,0.112854,0.014748
0.083868,-0.043162,-0.070593,0.010418,-0.174156,-0.010295,0.044989,0.025977,-0.005762,0.081577,-0.013638,-0.016701,-0.045441,0.030283,-0.120773,0.021398,-0.090666,-0.013542,0.020963,0.053645,-0.040934,-0.152208,-0.119034,0.064048,-0.054271,-0.062398,-0.058094,-0.020777,0.034713,0.040803,0.044036,-0.058877
0.054902,-0.036019,-0.034454,-0.042541,0.010522,-0.009733,0.082134,-0.096171,-0.008664,-0.036299,0.007424,-0.104209,-0.060909,0.026448,-0.112196,0.016422,0.052645,-0.065435,0.079690,0.061356,-0.062790,0.002050,0.028362,-0.064872,-0.030241,0.153854,-0.045319,-0.147561,-0.126402,0.017117,-0.092176,0.085874
-0.115299,0.042467,0.109904,0.001251,-0.002048,-0.045499,-0.057770,-0.075611,0.046893,0.067582,-0.015437,-0.064069,-0.134705,-0.016857,-0.036651,-0.049669,0.063703,0.150624,-0.009255,0.089749,-0.032026,0.054466,0.097997,-0.074083,0.010171,-0.084515,0.054099,-0.107331,-0.041399,0.013365,0.201413,0.066322
-0.078887,0.061133,-0.018251,0.124888,-0.007386,0.028163,0.031014,0.042669,-0.059542,-0.144497,0.060373,-0.024645,0.083133,-0.012210,-0.006639,-0.109627,-0.070860,0.003469,-0.192928,-0.006648,-0.000849,0.094851,0.050445,-0.018754,-0.104298,0.084984,-0.080883,0.010003,0.012441,0.102780,0.010195,-0.068775
-0.098453,-0.053679,0.114913,0.131170,0.000803,-0.032662,-0.022993,-0.076378,-0.062644,-0.062103,0.041258,0.114128,-0.035891,0.029120,0.113315,0.007630,0.017315,0.016019,-0.020826,-0.076213,0.056700,-0.036107,-0.052403,-0.119854,-0.023308,0.031638,0.037152,-0.179742,0.095029,-0.013934,0.009501,0.075077
-0.045375,0.115411,-0.138936,-0.091536,-0.038016,0.075100,0.062778,-0.019569,-0.158855,-0.064565,-0.051565,0.106305,-0.003785,-0.053184,-0.015919,-0.031100,-0.061361,0.045507,0.045288,-0.121151,-0.053229,-0.201506,-0.149939,0.019689,-0.007410,0.150568,-0.004950,0.017113,0.033239,-0.056892,0.026630,0.032967
0.004349,0.069436,0.074708,0.004329,-0.032943,0.010181,0.021846,0.234229,-0.143584,-0.049202,0.082625,-0.066202,-0.033477,0.006248,-0.160834,-0.106337,-0.064397,-0.025378,0.035997,0.099063,-0.013132,0.006806,-0.007425,-0.100033,0.056860,0.160162,-0.050175,-0.021883,-0.053751,-0.123662,0.076407,0.011303
-0.023803,-0.008133,0.030328,-0.003718,0.042318,0.065496,-0.036500,0.019261,-0.088852,-0.034366,0.164275,-0.003089,0.036174,-0.065375,0.032367,0.019128,-0.063356,0.080978,0.097267,-0.055695,0.051928,-0.131757,0.005567,-0.013034,-0.070357,0.062001,0.004963,-0.057800,-0.118168,-0.048091,0.006510,-0.011789
0.003410,-0.007763,-0.098991,-0.112698,-0.048245,0.121203,-0.053596,-0.120654,0.158070,-0.069181,-0.049125,-0.049527,0.045187,-0.035630,0.099876,0.048619,-0.038479,-0.024560,0.158411,-0.034222,0.053969,0.063490,0.129780,0.072413,0.002747,-0.007617,0.006611,0.038102,-0.020750,0.048637,-0.010819,-0.024204
0.094896,-0.035160,0.064525,-0.044526,0.009363,0.021034,0.050544,-0.043504,-0.048075,-0.062750,-0.082036,-0.044365,-0.025627,0.093534,0.172770,0.026651,0.023394,0.050160,0.024978,0.201353,-0.094862,0.051201,-0.037458,-0.202157,-0.009496,-0.175395,0.037963,-0.074255,-0.044866,0.014726,0.027810,0.083522
-0.043388,-0.087379,-0.127696,0.056732,-0.033576,0.056158,-0.015353,0.018288,-0.007874,0.095143,0.028614,0.073878,0.117033,0.059330,0.015211,0.187613,0.060539,0.021389,0.049957,-0.033070,0.065393,-0.011667,0.029967,0.099547,-0.097248,-0.094644,0.003750,0.030889,0.026875,0.005491,-0.093289,-0.013453
-0.028890,0.033393,0.003265,-0.050600,-0.067847,-0.041929,-0.005518,-0.098124,0.029617,0.150349,-0.043072,-0.057086,0.009359,0.040078,0.146601,0.100936,0.086343,0.000919,0.076678,-0.131624,0.008875,-0.053852,0.001236,-0.006628,0.031614,0.017781,-0.013446,0.043613,-0.072309,-0.094656,-0.029772,-0.038211
0.067031,-0.104421,-0.128826,0.002590,0.067954,0.024205,-0.066053,-0.132822,0.099014,-0.034373,0.041732,0.060637,0.021794,-0.008296,0.149964,-0.098118,-0.033874,0.005920,-0.090936,0.058062,-0.019660,-0.071424,0.013390,0.097758,-0.007604,-0.052402,0.050926,0.081991,-0.031309,0.068994,-0.006997,0.010218
-0.105026,-0.013404,-0.011232,-0.124050,-0.105579,-0.037024,-0.036124,0.093187,-0.093581,-0.056778,0.015961,0.025012,-0.054166,0.020035,0.092225,0.015453,-0.026105,-0.019746,-0.021773,0.088063,0.096045,-0.064288,0.033788,-0.015620,0.080883,0.019000,0.087162,-0.026238,0.209343,0.002206,-0.114359,-0.090421
0.008542,-0.022423,-0.161114,-0.019244,0.022269,-0.055160,0.013631,-0.063299,-0.075261,0.069460,0.043868,0.007615,-0.138145,0.012157,-0.035016,-0.067671,0.029075,-0.067614,-0.039669,-0.046378,-0.027842,-0.055657,-0.004083,0.034332,-0.053362,-0.035196,0.039031,-0.044219,-0.012596,0.078373,0.105752,-0.128957
-0.106109,-0.026621,-0.023211,-0.050559,0.093034,-0.121431,-0.013840,-0.078966,0.167854,-0.057640,-0.066671,0.022396,0.033469,0.053079,0.086880,-0.153547,-0.068238,0.066761,-0.001396,-0.004442,0.058371,-0.006324,0.071338,0.175242,0.044971,-0.133330,-0.052232,0.055286,-0.070602,-0.059209,0.006528,0.029052
0.054139,0.006476,-0.055525,-0.035633,0.024222,-0.029855,-0.025936,-0.058642,0.078641,0.108506,-0.120709,0.025448,-0.096587,0.093532,0.113891,-0.007593,0.072623,0.029777,-0.110267,-0.080713,-0.017217,0.052623,-0.065987,0.048392,-0.023818,-0.144190,0.143868,-0.029207,-0.001955,-0.106127,-0.065276,-0.148219
0.074570,-0.148165,-0.007621,0.047052,-0.122456,-0.185611,-0.062785,-0.061869,0.049243,0.009651,0.000050,0.067864,-0.064605,-0.001121,0.065181,-0.147840,0.084897,0.088120,0.062552,-0.010619,-0.015581,-0.032402,-0.018034,-0.052189,-0.005143,-0.049338,-0.007353,0.039646,0.192431,0.207356,0.119349,0.058889
-0.052410,0.008202,-0.017053,0.016583,0.098424,-0.017514,0.018607,-0.025890,0.035821,-0.035787,-0.039022,-0.000559,-0.079685,0.019444,0.088130,-0.028768,-0.038653,0.090790,-0.014354,0.061872,-0.096700,0.051000,0.038704,-0.055509,0.024047,-0.091489,-0.023158,0.084397,-0.033121,0.014388,0.016642,0.065409
-0.033927,-0.025888,0.017207,-0.185632,-0.030086,0.027688,-0.080103,0.075432,-0.101538,-0.041373,-0.065924,-0.017955,0.098695,0.067317,0.042764,-0.040673,0.064429,0.024130,0.081736,-0.062167,-0.000763,0.073440,0.089357,0.030985,-0.018611,0.008554,-0.106133,-0.120652,-0.003825,0.019259,0.101466,-0.052338
0.066906,-0.002484,-0.007357,-0.002963,-0.034141,0.011608,-0.036981,0.085500,-0.127739,-0.021325,-0.027176,-0.047857,0.019226,-0.119107,0.056770,0.010835,-0.068434,0.131573,-0.028607,0.040653,0.050920,0.021056,-0.013039,0.156783,-0.074084,0.021274,-0.114153,-0.058857,0.052152,0.063477,0.006686,0.118299
-0.047151,0.128765,-0.029089,-0.002297,0.195369,0.098744,-0.090601,0.028928,-0.057910,0.005030,-0.041161,0.021241,0.015169,0.017542,0.091715,-0.108296,0.019567,-0.063719,0.136628,0.035109,0.039718,-0.074167,0.032721,0.010971,-0.030717,0.049953,0.014879,-0.006916,-0.084447,-0.026494,0.005624,-0.013230
0.057951,-0.046004,0.064724,-0.010001,-0.025788,0.105233,0.130679,-0.013900,-0.017568,0.057284,0.030738,-0.044651,-0.013894,0.018146,-0.014439,0.115022,0.117798,-0.023699,-0.026560,0.087399,-0.108878,0.110371,-0.016538,-0.125384,0.028512,-0.156723,-0.007616,-0.056722,0.081030,0.029828,-0.006320,0.035998
-0.138646,-0.079003,0.114462,-0.076563,0.175585,0.091644,0.095562,0.011942,-0.020544,0.106326,0.033115,0.062191,-0.029918,-0.188377,0.048984,0.124860,0.062746,0.052149,-0.009602,-0.009983,-0.085780,-0.069267,-0.062552,0.069188,-0.102519,-0.021380,-0.034829,-0.135324,0.051979,-0.136308,-0.109632,0.030332
-0.027043,-0.072953,0.027825,-0.056569,0.134906,-0.038304,0.047349,-0.124916,-0.082562,0.016122,-0.040814,-0.024772,0.009809,-0.102442,0.036431,0.078143,0.147714,-0.016182,-0.011370,-0.012128,-0.020627,-0.037801,0.028788,0.058048,0.000883,0.003070,-0.150375,-0.078584,-0.047430,0.044313,0.020338,-0.070831
0.031617,-0.019834,0.084939,-0.020677,0.079517,0.009993,-0.074992,-0.060436,-0.130512,0.044766,-0.112477,0.048775,-0.005199,0.034537,0.025774,-0.056087,-0.096422,0.097772,0.087415,0.126186,-0.045981,-0.171252,-0.016735,-0.017956,0.033861,-0.036201,0.006996,0.007147,0.073201,-0.014835,-0.013762,0.028685
-0.094202,0.063150,-0.000523,0.013963,0.044925,-0.054818,-0.021415,-0.004584,-0.142233,-0.119631,0.037121,-0.066924,-0.077644,-0.076629,-0.025043,0.024830,0.002822,0.014710,-0.010965,0.003208,0.097216,0.016653,0.010056,-0.000897,0.009560,-0.092988,-0.014688,0.046045,0.006732,0.131791,-0.015258,-0.018345
-0.082845,0.017323,-0.015125,-0.083800,-0.045307,0.079456,-0.023913,-0.111965,-0.098212,0.063221,0.041774,0.064412,-0.063456,0.038813,0.033352,-0.013735,-0.035985,-0.055695,0.152238,-0.010098,0.080093,0.072004,-0.005376,-0.023293,-0.010464,-0.062039,-0.045639,-0.061752,0.028910,-0.003734,0.027523,0.099537
0.002360,-0.027726,-0.181175,0.021182,-0.009013,-0.041144,-0.065535,0.104844,-0.110508,0.061828,0.077176,0.005877,-0.031017,0.040917,-0.086078,0.056029,-0.018006,-0.015481,-0.096938,0.016262,0.052032,0.109292,0.007775,-0.062317,-0.053709,0.008798,0.151772,0.015198,0.036225,-0.038485,0.023335,0.076940
-0.059224,-0.001051,-0.078327,-0.082369,0.049684,-0.018595,-0.143029,0.118925,-0.090280,0.070873,0.113517,-0.030845,-0.126882,0.025763,-0.043255,-0.028462,0.032703,-0.020667,-0.060957,-0.067507,0.039821,0.035188,-0.021779,-0.027469,-0.027665,-0.110594,0.047930,-0.166550,-0.056725,-0.061706,0.108929,-0.006863
0.104945,0.043424,0.124483,-0.072573,0.025011,-0.033676,-0.084720,-0.067134,0.010616,-0.084269,-0.149301,0.158257,0.039962,-0.008774,0.008175,-0.260278,0.078957,-0.041092,-0.102242,-0.027640,-0.034051,0.113787,-0.080307,-0.072542,-0.090606,0.037597,-0.044066,0.000730,-0.049252,-0.029416,0.071394,-0.129942
0.028033,-0.155938,0.038084,-0.094001,-0.058396,-0.027397,-0.150805,-0.026779,-0.045536,-0.052706,-0.067983,-0.003299,0.058707,-0.098846,-0.068522,-0.074116,-0.056868,-0.005765,-0.055866,0.031707,0.070727,0.029854,-0.092107,0.012025,0.050050,-0.115347,-0.028606,0.002123,-0.047721,-0.027676,0.008075,0.075587
0.008735,0.008139,0.009193,0.012389,0.045072,-0.017236,-0.110587,-0.037511,-0.022576,-0.045434,-0.013867,-0.077623,0.038922,-0.030297,-0.094948,0.033640,0.114691,-0.124719,-0.006152,0.009933,-0.003972,0.129454,0.099722,-0.017010,-0.027100,0.010297,0.046765,0.042037,-0.039514,-0.187463,-0.057462,-0.059248
-0.033824,-0.025185,-0.083199,-0.000627,-0.097214,0.052366,-0.176256,0.049073,0.020497,0.080167,-0.037627,0.132643,-0.101540,0.021310,0.035662,0.063262,-0.026649,0.024726,-0.143217,-0.040322,-0.004438,0.368991,-0.028189,0.091379,0.033484,0.039803,-0.062065,-0.041408,0.104809,0.080878,0.153057,0.056220
-0.118950,-0.055361,-0.105334,0.030977,0.086545,-0.078017,-0.014733,0.037622,0.069906,0.030105,0.092680,-0.036361,-0.148967,-0.074691,0.099421,-0.018670,-0.024804,-0.060671,0.001051,-0.144649,0.066841,0.311280,0.047712,0.091635,0.051397,0.033644,-0.030641,0.147889,0.002849,0.086003,0.125686,-0.099368
-0.080347,-0.004031,0.111494,0.018477,0.115663,-0.119136,-0.074223,0.029568,-0.044330,0.035456,0.001798,0.043305,-0.074490,-0.062741,-0.045220,0.028412,0.001154,-0.019787,0.105988,-0.007022,0.053251,-0.031685,0.066063,-0.061835,-0.036919,0.009834,-0.087047,-0.027244,-0.059339,-0.032137,0.000045,0.032614
-0.115161,-0.046561,0.079337,0.045080,-0.131304,0.093545,0.041056,-0.002349,0.085103,-0.049438,-0.130534,0.018634,0.053200,0.110484,-0.070314,-0.086714,-0.109292,0.012464,-0.074969,-0.069060,-0.062649,-0.097539,0.091928,0.054740,-0.031003,-0.003433,-0.007159,0.025709,-0.189722,-0.029969,-0.029973,-0.004891
-0.073414,0.047350,0.015843,-0.057356,-0.024634,-0.126204,0.031472,-0.074641,-0.009175,0.046503,-0.043013,0.062022,-0.051752,0.045930,-0.124930,-0.035016,0.073029,-0.000222,-0.107607,-0.108852,-0.105115,-0.112747,-0.044557,-0.014645,0.017617,-0.027594,-0.056010,0.060373,0.063743,0.053827,0.109944,0.081777
-0.033857,0.128856,-0.079429,-0.014859,0.072358,-0.066332,0.099053,-0.050676,0.104431,-0.123011,0.065935,0.150359,-0.080366,0.040737,-0.012688,-0.051869,0.014870,-0.067993,-0.103226,-0.086683,0.030761,-0.082803,0.014282,-0.144547,-0.060147,0.004777,-0.020573,0.005037,0.093920,-0.127675,0.045904,-0.112975
-0.191189,-0.010303,0.000254,-0.043672,0.024631,0.007575,0.103664,0.044102,-0.105070,-0.140759,-0.048570,0.061376,0.017142,-0.119696,0.052358,-0.110589,0.128212,-0.076874,-0.069878,-0.029100,0.045899,-0.104896,0.067701,-0.041690,0.092372,-0.046710,-0.070145,-0.014209,0.028288,-0.045005,-0.038315,-0.069938
-0.065015,0.005051,0.059964,0.001199,0.083221,0.105050,-0.080446,-0.023264,0.024910,0.027895,-0.005458,0.116857,-0.117260,-0.033487,0.008574,0.049629,-0.143911,0.071724,-0.148628,0.052249,-0.060159,-0.054332,0.144791,0.052866,-0.050926,-0.036910,-0.124892,0.027530,-0.061902,-0.095536,-0.039121,-0.067475
0.047527,-0.002430,0.093017,-0.022267,0.103058,0.027624,-0.086479,0.109981,-0.112571,0.072129,0.007453,-0.032268,0.057996,0.105751,0.094552,-0.061984,-0.016678,-0.077211,-0.039548,0.014806,-0.090694,-0.054423,-0.099748,0.121086,-0.104126,-0.064563,-0.031839,0.009382,0.018180,-0.010030,0.007666,-0.000652
0.044204,0.082819,-0.014710,0.007274,0.028039,-0.124807,-0.038056,-0.107130,-0.031966,0.128605,-0.105264,-0.015884,0.056548,-0.012049,-0.146836,-0.094157,-0.013173,0.034369,0.009007,-0.049059,-0.015166,-0.136638,0.049865,-0.059931,0.025715,0.000411,0.058471,-0.096192,-0.014074,-0.002365,-0.005178,0.045840
0.100187,0.069651,-0.070515,0.000163,-0.067051,-0.084135,0.139806,-0.139323,-0.051959,-0.023874,0.060005,0.022631,0.046084,0.001007,-0.032123,-0.098412,0.089035,0.006453,0.042279,0.101374,-0.018106,-0.061489,-0.049392,0.033206,-0.031808,0.018496,0.018104,-0.017118,-0.089957,0.025833,-0.115982,0.040113
0.074574,0.061395,-0.054159,-0.073688,0.002578,0.092529,-0.127120,-0.006430,0.046759,0.089041,-0.009441,-0.075818,0.080574,0.065482,-0.079799,-0.024932,0.045457,-0.100412,0.022027,0.019781,0.036688,0.115487,0.042601,0.095765,0.007885,-0.005328,0.130896,-0.077333,0.045516,0.086406,-0.029292,0.040138
-0.022419,0.021861,-0.120361,-0.001850,0.011548,0.037259,-0.042263,0.019619,-0.058495,0.151563,0.053666,-0.057232,-0.043196,-0.084085,-0.090919,-0.089924,0.003824,-0.048918,0.177947,-0.028928,-0.086584,0.063110,0.003746,0.022271,0.042132,0.021859,0.131144,-0.084585,-0.247479,-0.031183,-0.034384,-0.004939
0.028238,-0.013543,-0.097925,-0.065628,-0.151982,-0.027595,0.046781,0.005267,0.071223,-0.015907,0.002028,0.046504,0.051794,-0.029547,0.046173,-0.011138,-0.073153,-0.006235,0.017205,-0.155133,0.021733,0.253816,-0.055931,-0.019694,-0.102322,0.012225,0.042972,-0.029859,0.055486,-0.112980,0.040545,0.056734
0.092381,-0.028627,0.006060,-0.026115,0.029347,0.051732,-0.080745,-0.133098,-0.069952,-0.107396,0.078303,-0.081106,0.057271,-0.022758,0.052539,-0.019346,-0.034518,0.084486,-0.070408,-0.040435,0.075089,0.154364,-0.066857,-0.035519,0.112358,-0.084252,0.063270,0.013050,0.056773,-0.146661,0.093822,0.061109
-0.031621,-0.023259,0.055512,0.144947,0.066202,0.045724,-0.035814,-0.005137,0.004782,-0.091871,-0.062967,0.088895,0.142426,-0.041319,0.008369,0.011061,-0.057924,0.047694,0.006692,0.122770,0.020197,0.234890,0.084242,0.023767,0.003360,0.001231,0.002819,0.069825,0.003620,0.004331,-0.027616,-0.016588
0.089742,0.069647,-0.049668,0.117499,-0.093670,0.082338,-0.022073,0.183878,0.004173,-0.047757,-0.062512,-0.081416,0.094440,0.046626,0.109804,-0.017503,0.040026,0.026665,-0.067443,-0.063809,-0.024729,0.218783,0.002757,-0.098792,0.036706,-0.057369,0.015788,0.003905,-0.029773,-0.006026,-0.026128,-0.118657
0.100979,-0.047942,-0.122792,-0.060740,0.067631,-0.006887,-0.181358,0.022995,-0.013857,-0.014986,0.034449,0.057813,-0.110441,-0.071924,0.017450,-0.115820,0.114118,-0.040317,-0.035604,-0.053415,0.035541,0.227122,-0.037138,0.046325,0.069933,-0.053923,-0.000583,-0.107814,-0.057444,0.152457,-0.011973,0.037483
-0.016009,-0.126042,-0.095600,0.003539,-0.091775,-0.050428,0.015999,0.084684,-0.071195,-0.030958,-0.062416,0.062761,0.077348,-0.023408,0.007132,0.041670,0.069260,0.037591,0.136616,0.074447,-0.071498,0.107164,-0.031152,-0.080236,0.055789,-0.132913,-0.125965,0.022123,-0.074372,-0.094630,-0.087367,-0.133104
0.059924,0.046053,0.027706,-0.022496,0.086902,-0.094250,-0.096210,-0.015192,-0.015373,0.069559,0.113041,0.016472,-0.076097,-0.049423,-0.064846,0.035007,0.098919,0.033876,0.048389,0.123325,-0.044336,-0.032339,0.129426,-0.029850,-0.069039,-0.096008,0.006571,-0.158084,0.035138,-0.152549,0.049250,-0.068417
0.018297,-0.085878,0.010863,0.013725,-0.063544,-0.131867,-0.042025,-0.023624,0.048706,-0.087722,-0.059097,0.007988,0.018027,-0.077517,0.010532,-0.189115,-0.035515,0.054062,0.017706,0.035777,0.048164,0.065661,0.070086,0.033088,0.075133,0.014613,0.005371,-0.020670,0.095059,-0.097160,-0.047914,-0.066257
0.037705,-0.005678,-0.010579,0.001409,0.099739,0.035305,-0.121839,0.060693,-0.010548,0.060390,-0.005969,0.016044,-0.003085,0.020986,-0.050491,-0.070545,0.083750,0.021671,-0.083001,-0.041160,-0.126730,-0.136198,-0.033448,0.039606,-0.097973,-0.033219,-0.126665,-0.014285,-0.002740,-0.109861,0.098021,-0.105265
0.066646,0.041264,0.021673,0.006953,-0.012059,-0.031344,0.034030,0.016316,-0.227467,-0.055059,0.019607,0.073072,-0.124518,-0.020772,0.034681,-0.089191,0.084588,0.004282,0.068007,0.079356,-0.092670,-0.243174,0.092735,-0.001160,-0.075318,-0.074634,-0.019635,-0.173076,-0.127300,-0.068770,-0.119391,-0.147117
0.030426,-0.008010,0.038081,-0.092415,0.059221,-0.148191,-0.024523,0.064340,0.096522,-0.039621,0.020362,0.026968,0.099606,-0.066272,0.008848,0.106499,-0.008356,0.063720,-0.149356,0.038012,-0.029400,0.069098,-0.094569,-0.081634,0.001032,-0.058330,-0.191485,0.010440,0.028245,-0.097076,0.009725,0.057633
0.062327,0.128350,-0.057285,0.042078,-0.041567,0.097322,-0.103923,-0.070855,-0.083110,0.003394,0.066248,0.072516,0.008156,-0.068305,-0.049413,0.018928,0.114580,-0.029287,-0.069269,-0.016662,0.040669,-0.023151,-0.011771,-0.003299,-0.072357,0.123643,-0.052235,0.045504,0.050274,0.018632,0.015063,0.004802
0.018616,0.032461,-0.038466,0.015422,0.079653,0.003648,0.046405,-0.093298,-0.104220,-0.090426,-0.037168,0.101523,-0.041956,-0.058222,0.018793,-0.136983,-0.001811,0.008224,-0.130024,0.035981,-0.032972,0.019033,0.052788,-0.041300,-0.074437,-0.043958,-0.039937,0.013864,0.033977,0.067545,-0.009503,0.013265
0.041545,0.087669,-0.059089,0.044703,0.040160,-0.026903,0.078938,0.046840,-0.018511,-0.050354,0.091321,-0.170700,0.023031,-0.086205,-0.045571,0.020576,-0.059212,0.011775,0.074618,-0.045091,-0.040211,-0.020281,0.087854,-0.019132,0.012272,-0.078792,-0.057034,-0.093181,-0.012856,0.165845,-0.008657,0.040944
0.025400,0.085220,-0.029191,-0.012081,-0.003445,0.031354,0.029537,-0.095777,-0.052921,0.014632,-0.052801,-0.073892,0.041460,0.014381,-0.010581,0.131803,-0.140712,0.155225,-0.013333,-0.000143,-0.028537,0.107173,0.034953,-0.073695,0.054744,-0.076155,0.045317,-0.123403,0.061243,0.022350,0.024040,-0.012821
0.090393,0.043044,-0.006322,0.134334,-0.078550,-0.012339,-0.015883,0.148249,0.056703,0.058005,-0.065759,0.058673,-0.090364,-0.027227,-0.060796,-0.028995,-0.007119,-0.072907,-0.025160,0.012059,0.056288,0.042321,-0.058537,0.027563,-0.072081,-0.142634,0.100078,0.036408,-0.063489,-0.072203,0.057506,-0.040149
-0.040402,-0.016202,0.039153,-0.005965,-0.006183,0.055559,0.040070,0.125412,0.011886,-0.028351,0.057425,0.015154,0.027705,-0.033642,0.011313,0.084849,0.011340,-0.006395,-0.098624,-0.089307,-0.043509,0.247053,-0.046170,-0.034325,-0.071976,-0.121010,0.040285,0.098853,-0.071514,-0.164402,0.118576,0.100923
0.068907,-0.074180,-0.025852,0.028827,0.077543,0.075275,0.052105,-0.071890,-0.045880,-0.175930,-0.055800,-0.153638,-0.081951,0.099338,-0.069622,-0.096658,-0.007870,0.065651,0.050528,-0.020524,0.055402,0.251427,0.017060,0.082216,-0.026123,-0.085657,0.001926,0.089254,-0.160287,-0.071179,0.029070,0.088780
0.046035,0.031155,-0.031479,0.134675,-0.007667,0.015201,0.009575,0.008911,0.096829,-0.067812,-0.030829,0.008311,0.031473,0.103985,-0.124449,0.008835,0.025353,0.041518,-0.054903,0.006036,0.049105,0.175321,0.073010,-0.005213,-0.001864,-0.090662,0.003059,0.042727,-0.111484,0.031142,-0.003004,0.103439
0.042622,0.052401,0.007438,0.086891,0.091843,0.061871,0.002048,0.060963,0.047357,-0.057653,-0.044376,0.087067,-0.030501,0.060380,-0.090418,0.015494,-0.012954,-0.030873,-0.019372,-0.035041,-0.039630,0.116625,0.007945,0.038384,0.000926,0.041192,0.116340,0.008174,-0.103657,-0.036585,-0.019188,0.063671
-0.064147,0.011732,-0.196559,0.066253,0.015536,0.217723,-0.021062,0.041598,-0.088939,0.000828,-0.125567,-0.041904,0.113390,0.061911,0.016402,-0.006170,-0.098669,0.099220,-0.158623,-0.144464,-0.006392,0.305068,-0.066241,0.058167,0.011046,0.167069,-0.012869,0.087696,0.007045,0.079577,-0.001360,-0.024726
-0.021979,0.047848,-0.014201,-0.083782,0.026760,-0.039450,0.056216,0.126557,0.054414,0.072908,-0.142667,-0.024161,0.089184,0.029953,0.010766,0.061747,0.031003,0.076466,0.137725,0.011901,-0.003432,0.036277,-0.054596,-0.125951,0.077626,-0.050726,-0.023202,-0.035147,0.111154,-0.109941,0.003617,-0.000677
-0.111014,0.144382,0.004436,-0.038283,0.086885,-0.158350,-0.071505,0.043149,-0.083981,0.024451,0.169006,0.000505,0.126111,0.076386,-0.152418,-0.055840,0.055137,0.000476,0.004498,0.035074,-0.138708,0.003375,-0.032782,0.115067,-0.123562,-0.031121,-0.100008,-0.049486,0.002597,-0.055084,0.060856,-0.060007
-0.165094,0.084337,0.077873,0.041754,-0.034904,-0.227767,-0.018398,0.052087,0.107063,0.061027,0.057588,-0.079061,0.077710,-0.066454,-0.032052,0.112059,0.074686,0.079416,-0.011962,0.043938,0.018267,-0.138284,0.027012,0.043475,-0.003704,-0.091963,-0.093900,0.037495,-0.063059,0.040833,-0.113263,-0.002150
0.018743,-0.121420,-0.014401,-0.030226,0.035442,-0.119395,0.028312,0.118350,-0.039625,-0.130559,-0.069066,-0.063333,0.058824,-0.053581,-0.025298,-0.043189,-0.027322,-0.033162,0.041800,0.025432,-0.042527,-0.113465,0.083224,0.029535,0.044847,-0.111313,0.061638,-0.155415,0.024044,-0.098540,0.117498,-0.100313
0.079317,-0.044516,0.033584,-0.012628,-0.025392,-0.093485,-0.013032,-0.199575,0.005433,0.116245,-0.001981,0.053873,-0.106480,-0.129987,-0.025286,-0.103911,0.053459,-0.001695,0.039059,0.104375,-0.118254,-0.268108,0.082969,0.085418,0.090169,-0.038805,0.144972,-0.110289,0.061378,0.018774,0.036954,-0.011063
0.009256,-0.027643,0.008852,-0.115454,-0.021928,-0.092415,-0.071527,-0.075167,0.021161,0.020254,0.048820,0.001314,-0.013693,-0.146963,0.125849,-0.084670,0.007127,0.167146,-0.081844,0.024255,-0.075084,0.065745,-0.046300,-0.022558,0.060071,-0.073498,0.041316,0.050014,0.003285,-0.065084,-0.011720,-0.012505
-0.107396,0.110083,0.014596,0.085267,-0.032405,0.123156,0.001035,0.098051,-0.027055,0.115702,0.026435,0.012058,0.041091,-0.097206,0.004526,0.136047,-0.066407,0.050615,-0.181072,-0.097733,0.002198,0.015345,0.064951,-0.036728,-0.052753,0.080489,-0.103378,-0.032143,0.030291,-0.100965,-0.096349,-0.128586
-0.102110,-0.085940,0.151554,-0.022440,0.020727,-0.023856,0.167279,0.079639,-0.128849,-0.068109,-0.095197,-0.042402,0.079110,0.121288,0.043458,0.075722,0.033780,0.013882,0.006364,-0.005450,-0.045192,-0.029832,-0.087155,-0.017017,-0.033895,-0.009339,-0.002803,0.068853,0.014302,0.004542,-0.036960,-0.033429
-0.075707,0.055599,0.097763,-0.021936,0.087612,0.154103,-0.095935,-0.184672,-0.026404,-0.051699,0.003247,-0.139394,0.023511,-0.092472,0.118938,0.038981,-0.046312,-0.042025,0.029044,0.051624,-0.101039,-0.004629,0.029898,0.072015,-0.036216,-0.086469,0.107126,-0.076742,0.020977,0.018349,-0.146595,0.102268
0.028494,-0.030831,0.024464,0.067593,0.114750,0.075531,0.048463,0.060740,0.017657,-0.031851,-0.006582,0.092347,0.024538,-0.038834,-0.031162,-0.069665,-0.009058,0.011482,0.105774,0.094867,-0.022608,-0.022341,-0.060289,0.096178,-0.028512,0.006472,-0.054018,-0.195728,0.051552,0.039686,-0.171929,0.039533
-0.031087,-0.010471,-0.117286,-0.006503,-0.175122,0.021235,0.036797,-0.006332,0.074514,-0.024955,0.032579,0.024955,0.008131,0.003556,0.078247,0.074617,-0.065203,0.051347,-0.048260,-0.025973,0.000334,-0.033460,-0.024930,0.069612,-0.111457,0.186734,-0.109107,0.033240,0.057159,-0.059978,0.068703,0.032734
0.079305,-0.044066,-0.007001,-0.057825,-0.061565,0.083607,0.142624,0.065148,0.007993,-0.152475,-0.046871,-0.040887,-0.024134,0.026787,0.069132,0.071356,0.015343,-0.065262,0.046343,-0.036745,-0.088741,0.237427,0.148587,0.111211,0.027916,0.075916,-0.022150,0.068603,-0.139467,-0.077314,-0.090457,-0.072744
0.019681,-0.097598,-0.011449,0.068151,0.100015,0.044182,0.053473,-0.071529,0.021755,-0.223820,-0.145107,0.040527,0.023933,0.052385,-0.054129,-0.044147,-0.044163,0.029713,-0.044054,-0.016810,0.110115,0.201628,0.045000,0.061417,-0.113347,-0.019109,-0.036932,-0.059859,-0.117232,-0.032156,0.020916,-0.020943
-0.011864,0.007502,0.024578,0.094605,0.020729,0.073739,-0.011906,-0.099384,-0.126274,-0.202884,0.046212,0.026691,0.077533,0.113514,-0.061393,-0.057041,0.095522,0.091994,0.027923,-0.004522,0.015192,0.062152,0.114836,-0.090003,0.063780,0.120960,0.052118,0.024725,-0.062618,0.013597,0.067026,0.037147
0.005173,0.057162,0.054719,-0.131799,-0.005258,0.050435,0.105970,-0.057656,0.057923,-0.060024,-0.098020,-0.036647,-0.095548,0.037882,0.032676,0.095535,-0.108397,0.017158,0.057931,-0.018510,-0.076820,0.130469,-0.003886,-0.086123,-0.022140,-0.029465,0.019441,0.090298,-0.045197,0.136405,0.000546,0.043351
-0.008127,0.058732,-0.079560,-0.011506,0.049711,-0.044645,0.198753,-0.017512,0.071300,0.066999,-0.007551,-0.133493,0.020412,-0.038017,0.145529,0.110839,-0.001021,0.130517,-0.086076,0.055143,-0.065291,0.210464,-0.092229,0.036161,0.106394,0.024584,-0.028427,0.059597,-0.048423,0.011108,0.051615,0.007098
0.098561,-0.015326,-0.138501,-0.052467,-0.210870,-0.090077,0.026028,-0.107377,-0.071497,0.010355,-0.028468,-0.042528,-0.051958,0.051040,0.149913,0.115656,-0.012342,0.054228,-0.060031,-0.117545,0.017607,0.000121,-0.050158,-0.026488,-0.141862,0.064605,0.104409,-0.055495,0.028014,-0.111570,0.085743,0.001551
0.056135,0.009277,-0.106730,-0.026126,-0.117520,-0.216195,-0.052150,-0.064581,-0.031226,0.140136,0.008666,-0.110723,-0.034052,-0.050362,-0.137948,0.066203,0.005043,0.127656,0.011334,-0.041626,-0.012076,-0.074141,-0.039678,0.132741,-0.085320,-0.001543,-0.026816,-0.003947,0.025065,0.025614,-0.003545,-0.007389
0.011103,-0.065797,0.068448,0.028469,-0.007495,-0.251813,0.110196,0.095097,-0.098055,-0.080970,0.132378,-0.135575,0.000821,-0.096866,0.029514,-0.007692,0.092974,0.074633,0.018184,-0.042650,0.001725,0.124015,0.032434,-0.006727,-0.079546,-0.029363,-0.025701,0.202059,-0.009045,-0.068203,0.035677,-0.093818
0.030307,0.090336,-0.018461,-0.087977,-0.025704,-0.128511,0.034665,0.010136,0.065645,-0.120148,-0.026381,0.050007,-0.066110,-0.093193,-0.080750,-0.038123,0.086691,-0.062056,-0.063314,-0.007126,-0.121977,0.000765,0.029705,-0.016721,-0.031837,0.047948,-0.053594,-0.034963,0.143497,-0.041751,0.019392,-0.070682
0.008006,0.015496,-0.030359,-0.046799,-0.084884,-0.023553,-0.011740,-0.038513,0.157011,-0.038101,-0.098052,-0.024206,0.027622,0.126000,-0.064779,-0.077167,0.038854,-0.074257,0.166726,-0.000745,-0.049056,-0.133411,-0.066391,0.048290,0.003037,0.150010,0.095877,0.086653,0.105912,-0.003834,-0.031710,-0.006677
0.016828,-0.013180,0.006290,0.032977,-0.058954,-0.010641,-0.110907,-0.002208,-0.027915,-0.046094,-0.040876,0.114651,-0.011892,0.026793,0.046670,0.014572,0.042339,-0.019669,0.008002,-0.096546,0.110946,-0.036382,-0.039210,-0.099477,0.082201,-0.157827,-0.130698,-0.009980,-0.050826,-0.005254,0.079980,0.122881
0.005076,-0.037776,0.061718,0.105259,0.019266,0.011715,-0.000149,0.051008,0.069988,-0.062729,0.122582,0.086136,0.093375,-0.095338,0.008430,-0.002161,-0.063156,0.093437,0.023992,-0.064772,0.082111,-0.152870,0.089529,-0.062393,0.017606,0.037309,-0.095438,-0.052214,0.066778,-0.144139,-0.040242,-0.080624
0.008789,-0.086752,0.093622,0.179269,0.149635,0.153627,-0.056714,-0.163394,-0.071883,0.062057,-0.041781,-0.128487,0.079794,0.123589,0.008399,0.041303,-0.023731,0.005365,-0.031712,0.072414,-0.083467,-0.118418,-0.250955,0.000428,0.121914,0.010413,-0.004092,-0.092275,-0.121748,0.036680,0.040356,0.045175
0.071369,-0.017444,0.076101,-0.035957,0.048032,0.171331,-0.014905,-0.203731,0.021370,0.047696,-0.058082,-0.068925,0.115156,-0.089075,-0.036663,0.087725,-0.080686,-0.061343,-0.039058,0.027554,-0.091592,-0.033523,-0.104028,0.229279,0.103691,0.017610,-0.197045,-0.028816,-0.125075,-0.030966,-0.010536,-0.147793
-0.039581,-0.054352,0.056610,0.056800,-0.005062,0.093938,-0.115267,-0.059683,-0.081887,0.020033,-0.031654,0.000352,-0.061419,-0.026442,0.004480,0.077113,0.045055,-0.020200,-0.007718,0.042034,-0.088464,-0.089126,0.025253,-0.060043,0.047061,-0.153887,-0.019462,-0.075421,0.090006,-0.089782,-0.004072,-0.075372
-0.039188,0.140613,-0.011216,0.049347,-0.109931,0.021245,-0.001028,0.111283,-0.190436,-0.101154,0.003030,-0.018697,0.067368,0.083137,-0.039868,0.018629,-0.011590,0.028217,-0.073457,-0.118145,0.011657,-0.020994,-0.047647,0.035958,-0.035098,0.027275,0.140246,-0.018210,-0.155787,-0.097255,0.066778,0.030372
0.003238,-0.004793,0.018501,-0.033479,0.052228,0.168115,0.088657,-0.067987,0.051132,-0.129695,-0.010913,-0.056859,-0.050559,0.166676,-0.007857,0.065610,-0.019538,0.030696,-0.004797,-0.048456,0.037907,0.060934,0.059185,0.029565,-0.056873,0.012632,0.041672,0.003954,-0.155182,-0.115395,-0.080345,0.004890
0.048762,-0.078759,0.078100,0.089380,0.028506,0.099122,0.173098,-0.078889,0.057818,-0.118332,0.076395,-0.023588,-0.050479,0.022331,0.045783,0.027771,-0.089729,-0.025897,0.016794,0.036476,0.032648,0.150085,0.043877,0.086749,-0.093275,0.053909,0.118648,-0.033659,0.058209,-0.073485,-0.128712,-0.008124
-0.004872,0.007026,-0.123268,0.139293,0.079415,0.199895,0.168174,0.049146,-0.068947,-0.072303,0.023455,0.062374,-0.030940,0.007924,-0.080527,-0.079596,-0.022720,0.048077,0.031018,0.059521,-0.004541,-0.000688,0.127452,0.032096,0.072773,-0.063117,0.064953,0.010596,-0.060231,0.039199,-0.017986,0.002863
-0.034754,-0.061838,0.020396,0.111333,-0.043325,0.044671,0.021159,0.002783,0.030890,-0.011180,-0.050220,-0.043538,-0.044127,-0.067739,-0.087587,0.003412,-0.076858,-0.005276,-0.097777,0.077205,0.123942,0.045160,-0.072559,0.043812,-0.044091,0.091642,0.041953,-0.008804,0.000899,0.044464,-0.001124,-0.028432
-0.029200,-0.072777,-0.129750,-0.112148,-0.054002,0.011628,0.093924,0.102704,-0.118034,0.035091,0.022011,0.002909,0.060416,0.046909,-0.075431,0.022166,-0.163106,-0.015039,-0.062123,-0.043768,0.045388,-0.046044,0.046164,0.031109,-0.038859,-0.062189,0.037544,-0.086813,0.155117,0.058491,0.005044,0.018950
-0.060437,-0.048797,-0.026679,0.018550,-0.128310,-0.099982,0.088555,0.048227,0.099898,0.016354,0.027507,-0.053547,-0.116593,0.049354,-0.108957,0.031606,0.035640,-0.028358,0.025438,-0.177333,0.042826,0.029832,-0.000001,-0.073934,-0.079236,-0.090456,-0.022364,0.043597,0.018137,-0.061564,0.122726,-0.053523
-0.009225,0.034022,0.104389,0.019410,0.064397,-0.030005,0.097899,-0.038955,-0.119791,0.041605,0.115429,0.074092,0.020896,0.011855,-0.084934,-0.033031,-0.000318,-0.000449,-0.104459,-0.093647,0.067940,0.022304,-0.004168,0.078383,-0.069883,0.009033,0.001046,-0.011101,-0.116465,-0.078135,-0.035642,0.013562
-0.024899,0.006351,0.085455,0.052091,-0.020354,-0.075913,-0.162804,0.018448,-0.098846,-0.059202,0.111324,-0.006849,0.048253,-0.035629,-0.042636,0.025120,-0.057429,-0.005412,-0.032797,0.024910,-0.008106,-0.179746,0.010008,0.128397,0.026480,0.006206,0.014761,-0.008046,0.142542,-0.001158,-0.129512,-0.020755
-0.152282,-0.101599,0.008054,0.021523,0.027350,-0.120873,-0.064562,-0.002207,-0.122932,0.046469,-0.053797,0.054041,0.059429,-0.066492,0.054264,0.019470,0.031383,0.064504,0.019378,0.076782,-0.038445,0.068143,0.014963,-0.093437,0.178888,0.041992,0.018516,-0.057770,0.024962,-0.101318,-0.083231,-0.002958
-0.024127,0.014647,-0.068625,0.030032,-0.085104,0.047179,-0.023899,-0.000528,0.052912,0.087692,-0.156246,0.051262,-0.008157,0.067336,0.048716,-0.069114,0.076978,-0.125421,0.053432,-0.044994,-0.003993,-0.072475,-0.024645,-0.035102,0.055735,-0.057619,0.046478,0.160765,0.034351,0.030096,-0.161404,-0.035182
0.096995,-0.144712,0.037078,0.019254,0.067154,0.064643,-0.021224,-0.030450,-0.126907,0.117561,0.040366,-0.132630,-0.036128,0.040498,0.018954,-0.012809,0.061040,-0.038141,-0.063868,-0.033958,-0.006513,-0.050859,-0.058106,-0.033756,-0.005988,-0.057122,0.150658,-0.143573,-0.043718,-0.124845,0.094130,-0.052695
0.037045,-0.055876,-0.096969,-0.108324,0.016086,0.048633,0.171340,0.054812,-0.017689,-0.065256,0.087697,0.060880,0.058060,-0.131228,-0.079129,0.027263,0.055603,0.055050,0.100393,0.026433,-0.095343,-0.072731,-0.017156,-0.003261,0.021408,0.119444,0.164471,-0.134353,0.052217,-0.086427,0.034504,-0.003794
0.039969,-0.110642,0.029965,0.011973,0.074790,0.023732,0.022518,-0.015772,0.001502,-0.017715,-0.039553,-0.084318,0.071424,-0.031073,-0.035113,-0.142667,-0.017904,0.045605,0.002546,0.100394,-0.074414,-0.212953,0.081810,-0.022966,0.128908,-0.014835,-0.065612,0.098181,0.035059,-0.023560,-0.037697,-0.074611
0.204744,0.030778,-0.137351,0.011680,0.159958,-0.056549,0.019597,-0.164138,-0.033895,0.030917,0.045576,0.050039,-0.122221,0.068791,0.070233,-0.105990,-0.107687,-0.020817,-0.055118,-0.044981,0.028208,-0.112542,-0.058729,0.000886,0.046208,-0.021682,-0.098539,-0.129811,-0.043692,-0.019704,0.074141,0.023319
0.032065,0.056526,-0.007817,0.100581,-0.091001,0.003259,-0.110333,-0.023239,0.066916,0.026640,0.007078,-0.069531,0.046104,-0.140679,0.033835,-0.129802,0.043547,-0.037895,0.050762,-0.019912,0.089440,0.074253,0.064487,0.026238,-0.048827,-0.022001,0.006817,-0.153215,0.096545,-0.024410,0.006966,-0.134950
0.117362,0.150758,-0.087386,0.003508,-0.109809,0.053799,0.014300,-0.029666,0.097067,-0.105214,0.042098,0.010606,-0.046459,-0.005077,0.008774,0.136513,-0.156095,0.026086,0.051014,0.058802,-0.054992,-0.047452,0.011989,-0.066138,-0.171485,0.043590,0.061529,0.036304,-0.017292,0.079295,-0.060888,0.065745
0.021209,0.002872,0.007709,0.071558,-0.042532,0.022027,0.044047,0.009318,0.049586,-0.059418,-0.012617,0.049075,-0.002991,0.062637,-0.017070,0.053356,0.035449,0.088457,0.046510,-0.016803,-0.106595,-0.132122,-0.089575,0.042935,-0.092129,0.088346,0.116605,0.031754,-0.119987,0.057575,0.012920,-0.013884
0.078392,0.018111,0.071801,0.126535,0.058384,0.038940,-0.023674,0.000621,0.018987,-0.074011,-0.034053,-0.043269,0.088097,0.006761,0.022280,-0.032843,-0.108706,0.032142,-0.032382,-0.032279,-0.012255,0.024506,0.138719,0.077878,0.057007,-0.023698,0.074383,0.012889,-0.047765,0.072471,0.009473,0.049225
-0.100034,-0.093773,0.019163,0.080901,0.035958,-0.071556,0.020597,-0.027428,-0.004123,-0.113520,-0.088450,0.034459,0.087390,-0.025521,-0.040959,-0.072006,-0.165003,0.103389,-0.156520,-0.055808,0.138928,0.000573,0.004304,-0.025603,0.083958,-0.019197,-0.076867,0.155385,0.023384,0.117222,0.029888,-0.082550
-0.018700,0.013222,0.096485,0.006608,-0.071987,0.019854,0.095242,-0.045306,0.079407,-0.018779,-0.059305,-0.010877,0.012116,0.000601,0.029291,0.047895,0.052505,0.159418,-0.085507,0.025678,-0.089653,-0.094858,-0.028572,0.078630,-0.006150,0.010316,-0.007176,-0.015916,-0.028816,-0.046831,-0.009321,-0.023352
-0.093875,-0.069271,-0.127028,-0.132603,-0.157456,0.078256,0.182673,0.055574,0.001504,0.006428,0.023821,-0.165375,-0.060992,-0.056933,0.066605,0.119331,0.107793,0.168253,0.054587,-0.158125,-0.094414,-0.220872,-0.006777,0.004345,-0.096090,0.034195,-0.057592,0.038926,0.032736,-0.069748,0.089905,-0.065797
-0.014277,0.025026,-0.023198,-0.050271,-0.235795,-0.028929,-0.094994,-0.120890,0.020407,-0.022306,-0.069356,0.003836,0.020667,-0.073579,-0.018013,0.045334,-0.059801,0.090449,-0.035951,0.066942,-0.040548,-0.024280,0.047832,0.033408,-0.212173,0.004064,0.021633,0.039277,-0.083574,0.071954,0.136487,-0.001854
0.003891,-0.093347,0.052891,0.021901,0.017353,-0.106372,-0.137864,0.026954,-0.064748,-0.019659,-0.044639,-0.039772,0.052240,0.033347,-0.058126,-0.034962,-0.074777,-0.004027,-0.087589,-0.012046,0.020338,-0.046171,0.048059,0.011322,-0.104707,-0.043228,0.119052,-0.024801,-0.127843,0.073098,0.059669,-0.042459
0.083527,0.071692,-0.112365,0.012712,-0.070665,-0.169147,0.098090,0.104288,-0.153209,-0.081493,0.107563,-0.016688,0.081214,-0.065251,-0.109149,0.044114,-0.021326,-0.015247,-0.131683,0.027669,-0.021632,-0.058499,0.004232,0.044245,0.103247,0.001217,0.015858,0.039817,-0.033005,0.048504,0.068298,0.059172
0.068058,0.029372,-0.037148,-0.114439,0.016421,-0.167836,-0.002643,-0.044388,-0.143373,0.049290,-0.021527,0.053938,-0.112128,-0.089679,-0.037902,-0.035722,0.055695,-0.007829,-0.010956,-0.040771,0.034398,0.020254,0.081727,-0.012102,0.093646,0.095846,-0.109559,-0.067243,-0.021193,-0.032456,0.092301,-0.066233
-0.014563,0.061595,-0.075859,0.054724,0.023300,0.050469,0.023983,0.014033,0.027504,-0.058364,-0.043628,0.066724,-0.091688,0.082420,-0.134796,0.137288,0.045563,0.059971,0.060612,0.084094,0.003950,-0.133915,-0.050894,0.084547,-0.069901,0.009276,0.057563,0.070641,0.017310,0.111239,0.050179,-0.079400
-0.082237,-0.059989,-0.062762,-0.057942,-0.046439,0.112991,-0.052242,-0.096624,0.000311,0.136629,0.078543,-0.010886,0.042166,-0.093645,-0.037010,-0.023447,0.027186,0.037977,0.139258,0.062242,0.016498,-0.180404,-0.063043,0.002623,0.052863,-0.054616,0.034584,0.016874,0.032546,0.028086,-0.034062,-0.080927
-0.028806,-0.080941,0.024548,0.067063,-0.022895,0.095842,-0.057849,-0.104297,-0.118584,-0.099159,-0.070478,0.084317,0.067470,0.038135,-0.041715,0.048414,-0.091245,-0.024250,-0.000832,0.087579,0.028641,-0.103441,0.056547,-0.016628,-0.022710,0.085203,-0.012136,0.030583,-0.159409,0.052120,0.033963,-0.115541
-0.021636,0.078262,0.033300,-0.094836,0.173528,-0.145637,0.022904,-0.030432,0.038776,-0.050675,-0.099619,-0.134617,0.076862,0.010658,-0.059205,-0.059760,0.021226,-0.062325,0.090969,-0.029885,0.026610,0.004277,-0.082172,-0.030715,0.017212,0.143743,0.004649,0.023160,-0.060747,-0.099790,0.048919,0.078503
-0.016392,-0.009135,0.033759,-0.105338,-0.054311,-0.118373,0.035881,-0.195109,0.121661,0.020483,-0.101229,-0.058817,-0.007863,0.090579,0.036937,-0.157020,-0.001522,0.008259,0.034792,-0.036778,0.092551,-0.046175,-0.119369,-0.034648,-0.023994,-0.109705,0.051199,-0.115542,0.087358,-0.024866,-0.012263,-0.008138
-0.003072,-0.118829,-0.013208,0.105067,-0.001608,0.093608,0.071312,0.045667,-0.006025,-0.005068,0.136577,0.003827,0.152619,-0.080845,0.033777,0.005476,-0.040709,-0.090858,0.037032,-0.029861,0.000271,0.045667,-0.014876,-0.004415,-0.048155,-0.134535,0.148472,0.085587,0.172741,-0.001363,0.030198,0.012628
-0.164568,-0.040026,-0.131980,-0.032513,-0.026852,0.012334,-0.019814,0.007571,0.082386,-0.007537,0.038787,0.043605,-0.029011,0.011563,0.089860,-0.107789,-0.017845,-0.057788,-0.071617,-0.102760,-0.077714,0.137986,0.025012,-0.047868,-0.059922,-0.156079,-0.041597,0.005157,0.069258,0.008575,-0.104137,-0.097355
0.041282,0.052688,0.018030,0.068352,-0.033963,-0.015754,-0.084675,0.085253,0.026321,0.077786,-0.112054,0.027966,-0.035194,0.077236,0.105662,-0.048136,0.107979,0.049922,0.019676,-0.020516,-0.059221,-0.034877,-0.027379,0.100036,0.084990,-0.008791,0.063703,0.120197,-0.008047,-0.072663,-0.048228,-0.006113
0.172574,0.000614,0.011769,-0.064985,0.114427,-0.116705,0.026701,0.017700,-0.056466,-0.063526,-0.073844,-0.067076,0.196128,0.112093,0.105179,0.047242,-0.040087,0.129487,-0.046489,0.055401,0.077592,-0.131414,-0.072661,0.028829,0.024774,0.275855,0.034703,-0.025897,0.061867,-0.014269,-0.024590,-0.011674
-0.002763,0.034626,-0.018573,-0.019336,-0.099519,-0.010636,0.085186,0.096890,0.005017,-0.076258,-0.032721,-0.044026,0.057792,-0.008374,0.011844,0.024865,-0.023203,-0.076501,-0.126831,0.025589,0.031746,-0.007538,0.018705,0.065255,-0.052994,0.033745,-0.127299,-0.054981,-0.044441,0.158378,0.090223,-0.028096
-0.054758,-0.022414,0.005352,0.025602,-0.013237,0.080978,0.071512,0.183764,0.100946,0.024363,0.057156,0.020555,0.073489,0.058445,-0.059794,-0.051227,-0.074708,-0.001295,-0.031617,0.056610,0.061022,-0.058109,-0.062872,0.023887,0.072313,0.035053,0.080447,-0.065531,-0.098537,0.014992,0.079822,0.083733
0.005050,-0.028435,-0.009634,-0.183575,-0.024123,0.080556,-0.051835,0.083155,-0.105365,0.005839,0.088641,0.114287,-0.155489,-0.030059,-0.032369,-0.058579,0.037916,-0.050442,0.074393,-0.010466,-0.041901,-0.041522,0.011326,-0.118452,-0.054953,0.014057,-0.040707,-0.011970,-0.141728,-0.003479,-0.086006,0.079381
-0.076826,-0.191583,0.047439,0.038848,0.009176,-0.042933,-0.036565,-0.042263,0.108165,0.055925,-0.027880,0.094246,0.041092,-0.026030,-0.026758,-0.050390,0.102091,-0.076403,0.071718,0.046398,-0.054900,0.082563,-0.116893,0.064237,-0.075686,0.047265,0.001299,0.133355,0.040965,0.006597,0.078522,-0.038844
-0.094858,-0.077426,-0.018124,-0.048329,-0.046618,0.075751,0.044651,0.061629,0.012775,-0.029783,0.036237,-0.006653,0.184851,0.061860,-0.003555,0.030251,-0.000074,-0.117018,-0.034252,-0.049489,-0.051705,-0.116438,-0.043670,0.046748,0.033488,0.036262,0.122090,-0.029962,-0.097907,0.184244,0.009600,-0.025988
-0.009569,0.001916,-0.098672,-0.068294,-0.094810,-0.097898,-0.059328,0.049873,-0.032768,-0.071484,-0.043245,-0.060240,0.115184,0.087972,-0.144705,-0.013288,-0.052523,0.071398,0.051268,-0.044162,-0.020857,0.118918,-0.034626,0.138542,0.036665,0.000732,-0.011639,-0.109770,-0.023960,0.140165,0.062472,0.090234
-0.008923,-0.039828,-0.017575,-0.002380,0.017812,-0.039838,-0.069985,0.063706,-0.051639,0.022271,0.043006,-0.010812,-0.066139,-0.074009,0.029630,-0.045749,-0.097765,0.052868,0.041037,-0.027854,-0.064066,0.014622,0.103620,0.070060,0.003091,-0.016810,0.039846,-0.061991,0.015803,0.096536,-0.018541,-0.019003
0.014050,0.026044,0.023199,0.008832,-0.153834,-0.069684,0.191577,0.068793,-0.003741,0.036958,-0.019248,-0.003175,-0.080705,0.126164,-0.066993,-0.099033,-0.020356,-0.097179,-0.033932,0.092134,-0.038991,0.076570,-0.026515,0.184944,-0.006767,-0.063743,0.029175,-0.057356,0.079485,0.029125,-0.077737,-0.041488
-0.008935,-0.097099,0.038158,0.016820,0.004332,-0.038536,-0.112171,0.070974,-0.024238,0.074702,0.022791,0.097995,-0.009317,0.020631,0.088845,0.005720,0.048881,-0.035319,-0.051466,0.073109,0.074389,-0.090943,-0.063655,-0.135025,-0.004266,-0.051032,-0.024113,0.041950,-0.041081,0.010618,0.094648,-0.076217
-0.012179,-0.142447,0.059690,-0.054770,0.003390,-0.028494,-0.005667,-0.119056,0.019128,0.011468,-0.078931,0.007430,-0.074226,-0.098905,0.013245,0.060568,0.071173,0.063105,-0.025319,0.010338,-0.071927,-0.005246,-0.049242,0.060217,0.098312,-0.036987,-0.020625,-0.028743,-0.021237,-0.057271,-0.112930,-0.052868
0.002195,0.052004,-0.035015,-0.047973,-0.001188,0.108474,-0.038593,-0.041822,0.032392,0.040217,-0.061336,-0.048789,0.076505,-0.051063,-0.135109,0.081569,0.024483,0.021405,0.005862,0.178226,0.025230,-0.162630,0.054498,0.018310,0.014439,-0.017947,0.051062,0.074550,0.156392,-0.011664,-0.146443,0.020326
-0.037990,-0.022670,0.056219,0.013441,-0.032075,-0.193488,-0.014456,-0.005234,0.032162,-0.059995,-0.078186,0.023455,-0.087125,-0.089823,0.025848,0.101222,-0.025630,-0.029732,0.033197,0.012012,0.085498,-0.113317,0.034528,-0.185565,0.057866,-0.023972,0.003983,0.035494,0.020083,-0.020660,0.039276,0.135996
0.021427,-0.030675,-0.048491,0.180333,0.098222,-0.004170,0.022519,-0.088576,0.124228,0.047204,0.081388,-0.102246,0.071207,0.093709,0.077374,-0.046655,-0.012213,-0.011627,-0.032321,-0.072339,-0.123311,-0.067915,-0.081657,-0.008073,-0.037502,0.037620,-0.093396,-0.040763,0.105460,-0.107753,0.141393,0.007063
-0.104759,0.052869,-0.072221,0.146212,0.160040,-0.128740,-0.105019,-0.034606,-0.045806,0.108708,-0.018558,0.004652,0.046343,-0.017166,0.077219,0.055216,0.019395,-0.078763,-0.235515,-0.101406,-0.165081,0.079881,0.126872,-0.065798,0.083863,-0.025751,-0.114104,0.022418,-0.046045,-0.088718,-0.060051,-0.009749
-0.047876,-0.023514,0.029081,-0.173991,-0.019966,0.051638,-0.111321,-0.052385,-0.034859,0.051196,-0.024568,0.062481,-0.118610,-0.030355,0.077425,-0.003919,0.005543,0.128802,-0.160829,-0.074844,-0.052589,-0.063352,-0.006037,0.171429,0.050376,0.053705,-0.070049,0.006816,0.000389,-0.043421,-0.125369,-0.094977
-0.055889,0.134447,0.021916,-0.081689,-0.074786,0.027894,-0.043863,-0.085123,-0.091211,-0.072328,-0.087286,0.079221,0.181013,0.105263,0.062904,0.021743,-0.022200,0.063995,0.032514,-0.038968,-0.053276,-0.099354,0.062464,-0.003545,-0.186836,0.019870,0.061588,0.112209,-0.097578,0.068942,-0.128629,0.027115
0.028642,0.005350,-0.117376,-0.030847,0.009204,0.007046,0.077891,-0.055355,0.021496,0.009353,0.002598,0.065135,-0.050229,0.036100,-0.110673,0.074353,0.036828,-0.075900,0.061970,-0.059919,-0.090851,-0.002289,0.004793,-0.068417,-0.010394,-0.093110,-0.012320,-0.119884,-0.136699,0.010820,-0.141721,0.004313
0.044559,-0.004850,-0.079142,0.133241,-0.022224,-0.120542,-0.092859,-0.049335,0.051585,0.031691,0.168850,0.105382,-0.100801,0.030109,-0.054149,0.131402,-0.073992,0.141246,0.051648,0.052703,-0.045484,0.088010,-0.108009,-0.011644,0.029317,0.052736,0.029028,-0.024557,0.047885,0.153501,0.005525,-0.007123
0.010353,0.041202,-0.081775,0.004714,-0.113635,-0.005923,-0.057461,-0.081103,-0.075708,0.019990,0.171157,0.017723,-0.198703,-0.045600,-0.018888,-0.013771,-0.001025,-0.004084,0.098440,-0.056806,-0.061624,-0.133419,-0.043560,0.161685,-0.024167,-0.070403,-0.021625,-0.072499,-0.061816,0.067818,0.117669,-0.072044
-0.029185,-0.083513,-0.066540,-0.116164,-0.061912,-0.123449,-0.034818,-0.065920,0.098361,0.042766,-0.108122,0.155805,0.025472,0.046969,-0.057697,-0.133288,0.071324,-0.167178,0.003994,0.078778,-0.041692,0.065838,0.051833,0.090995,0.073961,0.035090,-0.079267,-0.064896,-0.060155,-0.057597,0.077495,-0.011964
-0.045446,0.034222,-0.063364,0.001362,0.052257,0.072598,0.093448,-0.077495,0.049053,0.082844,-0.039731,0.136709,-0.025682,-0.034881,0.079884,-0.100408,0.099470,-0.050143,-0.021825,-0.114623,-0.090897,-0.012620,0.030833,-0.038593,-0.095273,-0.020339,-0.072009,0.032633,0.087893,-0.006828,0.030318,-0.007719
0.060326,-0.035364,-0.042139,-0.020291,-0.120440,-0.002406,-0.049870,0.026529,-0.049487,-0.024828,0.053979,-0.077890,-0.042099,-0.102658,-0.110803,-0.019684,-0.055919,0.071231,0.007822,-0.088139,0.069423,0.082986,-0.068891,0.163814,-0.051703,-0.061125,0.008557,-0.073670,0.022602,-0.099157,0.000167,0.029230
0.005431,-0.068136,-0.007294,-0.106567,0.063522,-0.006096,-0.131976,0.080468,-0.001099,-0.018299,0.112182,-0.020056,0.071541,-0.018315,-0.113551,0.058389,-0.082919,0.012953,-0.028734,-0.107561,-0.058963,0.085024,0.062001,0.043986,0.102362,-0.093621,0.208923,0.070309,-0.103737,0.033947,-0.005612,-0.039173
-0.079653,-0.056927,0.078559,0.027918,-0.012257,0.071632,-0.077082,0.103237,-0.060697,0.072908,-0.040630,-0.102173,0.050142,0.013550,0.101339,-0.010981,-0.000442,0.031448,0.068473,-0.067656,-0.073171,0.109561,0.000621,0.124963,0.033501,0.037622,0.011338,0.074571,-0.040576,0.015779,0.057375,-0.106178
0.017368,0.035014,-0.012113,-0.011473,0.029307,0.129439,-0.136871,-0.000356,0.016537,-0.020741,0.138525,0.145925,-0.012032,0.011297,0.191366,0.101814,0.064641,-0.161707,-0.023233,0.044475,-0.072064,-0.037822,0.011052,-0.071935,-0.001127,0.022183,-0.037662,0.024107,-0.258921,0.020322,-0.073109,-0.093135
-0.109243,-0.116534,0.102398,-0.020706,-0.130005,-0.005959,0.017138,-0.014182,-0.016776,-0.001413,-0.061092,0.155422,0.042191,-0.006459,0.079178,0.105826,0.035504,0.030528,-0.061860,0.003982,-0.082950,-0.107272,-0.028234,0.050454,0.073270,0.126653,-0.076527,-0.001779,-0.098687,-0.065111,-0.046978,0.045444
-0.060134,-0.000313,-0.009028,-0.075881,0.103079,0.042153,0.063706,-0.060890,-0.022942,0.003021,-0.021465,-0.103111,-0.023516,-0.017521,0.080752,0.110559,0.030218,-0.087819,-0.017147,0.110576,0.098556,-0.054135,-0.132475,-0.016058,0.115881,0.083814,-0.010944,-0.096805,-0.042500,0.103534,-0.058503,-0.095639
0.049047,-0.000261,0.038055,0.036260,-0.072797,-0.080006,0.039425,0.020557,0.059153,-0.003420,-0.022743,-0.090726,-0.008119,0.037645,-0.031275,-0.074575,0.026886,0.082794,0.092728,0.027014,0.102755,0.044993,0.020349,-0.010972,0.110997,0.115962,0.105540,0.038162,0.082478,0.071613,0.004199,0.038907
-0.057007,0.051498,-0.083130,-0.078032,0.012401,-0.008818,-0.066567,0.113177,0.034246,-0.125700,-0.082712,-0.028365,0.110213,0.069760,0.033483,0.093158,0.033523,-0.061008,-0.048424,-0.047915,-0.055965,-0.112587,-0.008097,-0.026078,-0.133447,-0.032825,-0.061158,0.052720,-0.046440,-0.005770,0.098745,-0.040237
-0.083993,0.003012,-0.001377,-0.011941,0.017473,-0.102363,-0.029579,0.075874,-0.079757,0.047010,-0.003156,-0.022015,-0.030671,-0.096902,0.165201,-0.019501,-0.079608,-0.132517,-0.079983,0.006366,0.006821,-0.041830,0.097398,0.011950,0.003530,0.071315,-0.076656,-0.093852,-0.011209,-0.073378,0.006976,-0.096440
-0.007984,-0.073556,0.050734,0.102718,0.038877,-0.092137,-0.047024,0.005031,0.146459,-0.003602,-0.085328,0.018332,-0.022615,-0.135665,0.092308,-0.081422,0.026457,0.129046,-0.068794,-0.013409,0.056816,0.003713,-0.044999,0.056086,-0.022962,0.124575,0.054155,-0.102134,0.150097,-0.034709,-0.046648,-0.034273
0.039901,0.066385,0.064798,-0.103092,-0.083397,-0.026967,-0.068220,0.025006,0.095125,0.105664,-0.107559,0.020472,0.112984,0.018966,0.030002,-0.103569,0.075658,0.128998,0.096985,-0.029237,0.118891,-0.183538,0.023612,-0.075683,-0.106969,-0.108131,0.052886,-0.104143,-0.113248,0.104026,-0.133530,0.018736
0.085830,0.116140,-0.092232,-0.160695,-0.114116,-0.070771,0.042377,0.171024,0.044494,0.064093,0.056967,0.009773,0.028444,-0.002034,-0.064413,-0.092731,-0.096354,-0.155200,-0.028429,-0.055785,-0.002542,-0.035818,0.004215,0.060432,0.048689,-0.216862,0.048581,-0.048239,-0.082914,-0.049121,-0.145542,-0.035817
-0.043138,-0.113751,0.040112,-0.020202,-0.021352,-0.043742,-0.085752,0.079140,-0.001247,0.084040,0.143227,-0.022426,-0.114547,0.084000,0.023906,-0.058832,0.000343,-0.124540,0.031532,-0.080664,-0.024093,0.185289,0.078697,0.022239,0.079653,0.025195,-0.043529,0.025278,0.086863,-0.061957,-0.032006,-0.086979
0.035558,0.017625,0.009369,-0.084528,-0.031594,-0.033068,-0.034132,-0.033373,-0.051731,0.101498,0.046933,0.034721,-0.179215,-0.076488,-0.086621,0.001168,-0.037201,0.111558,0.132169,0.053982,0.070057,-0.055561,0.040365,0.064475,0.029922,0.058370,-0.069307,0.007261,0.024093,0.096699,0.080690,0.036944
0.051687,-0.032728,-0.092347,-0.070157,-0.034393,0.009497,-0.059602,-0.106520,0.078751,0.026173,-0.066480,0.036525,-0.001305,0.024299,-0.084539,-0.017652,0.043387,-0.034198,0.014095,-0.029256,-0.096282,-0.100845,-0.019145,0.032343,0.048574,0.035758,-0.061457,-0.172942,-0.045989,0.005705,0.030223,0.093480
0.022744,0.000480,-0.119960,0.045296,-0.108038,0.142188,0.009044,-0.029034,-0.105378,-0.106726,-0.013723,0.040382,0.159090,-0.006760,-0.015428,-0.042148,-0.007999,0.073376,0.030258,-0.003269,-0.033851,0.027429,-0.060765,-0.007955,0.021145,0.017018,-0.069934,-0.156095,0.170941,-0.106174,-0.072392,0.063116
-0.036734,0.016335,-0.084032,-0.005400,0.099485,-0.036632,0.052350,0.037738,-0.035780,0.021243,-0.054191,-0.052001,-0.089153,-0.084729,-0.026208,0.062130,0.004161,0.066632,-0.115612,-0.127012,-0.076402,-0.048198,-0.027055,-0.030366,-0.057633,-0.147103,-0.065871,0.068211,0.081610,-0.129775,0.029620,-0.070094
0.072198,-0.013120,0.041719,-0.018073,0.086655,0.051782,0.089548,0.049900,-0.014139,-0.013273,0.138367,-0.055094,-0.016281,-0.001418,-0.040772,-0.100615,-0.101853,-0.028688,0.098363,-0.048324,0.104347,-0.142259,0.085118,-0.032453,0.024396,0.011969,-0.041739,-0.028547,0.154710,0.090995,-0.003800,-0.032542
-0.027615,-0.062492,0.005326,0.016457,0.102707,0.115972,0.041776,0.031032,0.079334,-0.111694,-0.040436,-0.025582,-0.078577,0.009061,0.037071,0.005964,0.072350,-0.013702,0.043390,0.038996,0.057686,0.035954,-0.024818,-0.035524,0.106915,-0.006182,0.032356,-0.049737,-0.003412,0.010744,-0.006171,-0.019757
-0.118229,-0.054166,-0.026429,0.084861,-0.015754,0.063237,-0.083477,-0.098549,-0.018415,0.045797,-0.029647,-0.005914,-0.050888,-0.060964,0.023128,0.095361,0.070126,-0.027038,-0.065530,0.032753,0.097528,-0.051958,-0.002876,-0.116156,0.041435,-0.086048,0.131282,0.092350,-0.238166,-0.012404,0.150986,0.034296
-0.195364,-0.024700,-0.027363,0.011891,0.031864,0.135701,0.017113,0.018735,-0.034396,0.095584,0.092267,-0.042397,0.004245,0.052417,-0.058145,-0.006954,-0.088044,-0.007664,0.058781,0.054375,-0.014642,-0.021219,0.015816,0.095007,-0.029681,0.104433,-0.019272,0.075666,0.042064,0.017973,0.153505,-0.059842
0.063365,-0.083528,-0.007415,-0.088887,0.080800,-0.045093,0.051610,-0.036028,-0.033474,0.056643,-0.027688,0.172216,-0.006358,-0.051273,0.075325,0.097646,-0.059500,0.014523,-0.038733,0.037040,0.059105,0.142250,-0.085644,0.001338,-0.120669,0.146326,0.006722,-0.003735,-0.011512,0.074336,-0.092277,-0.041970
-0.120176,-0.015654,0.108690,-0.004064,-0.069383,-0.153002,0.030480,0.026467,-0.122888,-0.025692,-0.099396,0.135218,-0.001484,-0.045718,0.111635,-0.009532,-0.044891,-0.113839,-0.078144,0.045359,-0.019098,-0.062597,0.102301,0.007348,-0.023748,0.024910,0.067742,-0.153913,-0.138858,0.064180,-0.013924,0.031671
-0.209749,0.084140,0.009563,-0.093511,-0.257986,0.066374,-0.139763,-0.028530,-0.028197,-0.030449,-0.011958,0.152332,-0.067593,-0.047407,-0.164882,0.055117,-0.066854,-0.099806,-0.066436,0.026664,-0.046427,-0.013749,0.007890,-0.053481,0.027406,0.052368,0.011143,-0.098581,0.008934,-0.024856,-0.030684,0.025116
-0.250906,0.046852,-0.053367,-0.063080,-0.102045,-0.144925,-0.026608,-0.142103,-0.013972,-0.053392,0.125797,0.134616,-0.035215,0.101485,-0.149645,-0.026220,-0.073392,-0.020049,-0.083860,0.073818,0.025128,0.014921,0.049758,0.105930,-0.012915,-0.084901,0.170081,0.102181,0.057222,-0.129373,0.045923,0.052939
-0.001562,-0.098987,-0.154944,-0.018986,0.042813,-0.033713,-0.083661,-0.140118,-0.079334,0.008570,-0.074708,-0.006658,-0.060831,0.047335,0.090443,-0.014594,-0.008299,0.017599,0.019048,-0.177716,-0.023091,0.023731,0.194051,-0.037237,-0.014989,0.016531,-0.029350,0.114965,-0.040918,0.045492,0.019957,0.074669
-0.032154,0.022992,0.056060,-0.046393,-0.008723,-0.032082,-0.073513,0.191902,-0.052809,0.069237,-0.013681,-0.125909,-0.062211,-0.012223,0.170918,0.101502,-0.036928,-0.087549,-0.077037,-0.065805,-0.015453,0.041060,0.067434,-0.015382,-0.003548,0.001277,-0.070812,0.109130,-0.066993,0.061587,-0.020288,-0.087282
-0.093976,0.043885,0.015901,0.069115,0.076996,0.020379,0.016395,-0.046533,-0.125090,-0.075121,0.072283,0.086453,-0.075066,0.076623,0.015842,0.000466,0.090573,-0.004027,-0.031315,-0.016902,0.005821,0.041377,0.000329,0.020657,0.037050,0.038553,-0.057740,0.066301,-0.065675,0.170727,0.103057,-0.075200
0.140795,-0.077282,0.045482,0.070576,0.034012,0.083607,0.036734,-0.051257,-0.140659,-0.056745,-0.117583,0.074180,-0.161228,-0.091433,0.028441,0.036084,-0.002976,-0.055262,-0.147611,0.016495,-0.054608,0.158843,-0.069113,0.003232,-0.042850,0.024986,-0.054013,-0.051413,0.063049,0.014037,-0.037738,0.069588
-0.107406,0.062771,-0.012072,-0.074994,0.122223,0.045357,-0.105258,0.072183,-0.038811,-0.023433,-0.035386,0.034604,-0.226177,-0.091214,0.045447,-0.122487,0.007010,-0.085237,0.090628,-0.013734,0.025519,0.093011,0.087074,0.055831,-0.034843,0.156109,-0.189137,-0.007723,0.048777,-0.019319,0.104786,0.063248
0.017733,0.088200,-0.079735,-0.067966,-0.204635,0.100594,-0.001669,0.030279,0.129650,0.012197,-0.031813,-0.023441,0.144210,0.027790,-0.052715,-0.183849,0.096906,0.033124,0.046740,-0.034352,0.067258,-0.133102,-0.084064,0.013184,0.047872,-0.045506,0.046192,-0.182096,0.014218,0.037844,-0.037775,0.085953
-0.118518,-0.043857,-0.163293,0.054916,0.069263,-0.106598,0.066668,0.113345,0.041840,0.064273,-0.112999,-0.069971,-0.062280,0.017738,-0.115512,-0.002278,-0.019965,0.056035,0.092383,-0.005889,-0.032010,-0.019295,0.050630,-0.059195,0.040519,0.083937,0.002299,0.000327,0.049120,0.101701,-0.037607,-0.092007
-0.050910,-0.036663,0.022328,-0.069135,0.056090,-0.131981,0.203219,0.127767,0.051446,0.092555,-0.039118,0.137586,-0.018874,-0.010535,0.076440,-0.107834,0.020034,0.012382,-0.058317,0.025617,-0.090936,0.021757,0.056975,-0.041210,0.004815,0.016905,0.002176,0.045908,0.035296,0.047164,0.144681,-0.112618
-0.007856,0.062798,0.121308,0.023566,-0.059480,-0.014362,0.065499,0.093178,0.095655,-0.059082,-0.099961,0.056709,-0.016052,0.115658,-0.072167,0.028960,-0.146712,-0.059865,0.042996,-0.008902,0.013647,-0.013204,0.018757,0.003929,0.085349,0.144636,0.027015,-0.127450,0.002441,0.059799,-0.029520,0.023885
0.107881,-0.038517,0.037281,-0.130066,0.043470,-0.042828,-0.047862,-0.053833,0.032359,0.054963,0.072054,-0.007806,0.051288,0.072839,-0.141492,0.003112,-0.162621,-0.033488,-0.007964,0.085028,0.024545,-0.066799,0.015091,-0.040132,-0.035277,-0.035527,-0.018750,-0.002895,0.194834,-0.160022,0.013364,-0.105659
0.059630,-0.050424,-0.077081,0.060133,0.042177,-0.058142,-0.235129,0.069468,0.114275,-0.038167,0.005149,0.073164,0.015646,-0.109778,-0.034994,0.099014,0.048227,-0.069507,0.042950,0.102552,0.015099,-0.031956,0.097943,-0.072113,0.013800,-0.052565,0.151538,0.031120,-0.088377,0.032369,0.035934,-0.062106
-0.009868,-0.018290,0.037107,0.100759,-0.094564,-0.093217,-0.071237,0.158942,0.027802,-0.032385,-0.037335,0.137315,0.012441,0.036796,-0.057735,-0.009176,-0.137277,0.006254,0.043120,0.056637,-0.108503,-0.072496,0.040758,-0.018773,0.046943,0.153043,0.013375,-0.046518,-0.045150,-0.012279,0.018634,0.018668
0.026301,-0.070334,0.057240,-0.078173,-0.070239,-0.013629,0.007648,-0.098841,0.045361,0.126777,-0.108472,0.076981,0.030044,0.043161,-0.111212,-0.037110,-0.162237,0.074499,-0.056051,0.042680,-0.004023,0.178680,-0.049331,0.070782,-0.030123,0.179822,-0.048008,0.101034,-0.175591,0.029573,-0.037566,-0.047482
-0.106997,0.021445,0.035515,-0.047320,-0.021941,-0.062497,0.106417,0.038652,0.086293,-0.004127,-0.069280,0.104345,0.231523,-0.066799,-0.048008,0.099359,-0.123427,0.099595,-0.126740,0.163776,0.034378,-0.099233,-0.126734,-0.099376,0.024362,0.161622,0.028741,-0.021066,-0.142251,-0.101215,0.040607,0.020279
-0.083304,-0.035624,-0.096296,-0.041286,-0.058706,-0.041276,0.108536,0.033129,-0.036737,0.009806,0.053695,0.031361,0.069131,-0.126480,-0.051501,0.085655,-0.015190,-0.003100,0.119319,-0.010831,-0.114968,-0.058048,-0.015444,-0.077267,-0.036226,0.048113,0.017739,0.047955,0.043215,-0.126629,0.133940,0.082260
-0.177172,0.174925,0.027762,-0.050572,0.126381,0.116126,-0.002680,-0.164740,-0.007231,0.057491,-0.124749,0.002825,-0.109499,0.094191,-0.214733,-0.073677,0.090559,0.088961,0.017952,-0.125355,-0.060154,-0.150378,-0.032076,0.098067,0.041212,0.017654,0.068486,0.076390,-0.059706,-0.045901,-0.009299,-0.008837
0.051961,0.033055,-0.027932,0.058506,-0.011298,0.029406,0.070713,0.053177,-0.059432,-0.007079,0.051337,-0.142829,-0.161204,0.051181,0.010156,0.007330,-0.064431,-0.070838,-0.036818,-0.083794,0.030743,0.031792,0.021574,0.073058,0.039487,-0.234432,0.054180,0.139139,0.005123,0.097255,-0.094596,0.061440
0.053351,-0.037566,-0.157000,-0.056798,0.045688,0.091163,0.035537,0.071078,-0.036835,-0.004300,0.038615,-0.167727,-0.119047,-0.037549,0.104622,-0.019908,0.024355,-0.145701,0.050091,-0.170852,0.094510,0.010389,0.127718,0.046354,0.007717,0.092243,0.018736,0.064826,0.050411,-0.011531,-0.020076,-0.055796
0.050932,0.008697,0.039270,0.135861,0.151019,0.067019,-0.095119,-0.072663,-0.050325,0.027481,0.131014,-0.091631,-0.106179,-0.074219,0.036775,0.120186,-0.028886,-0.110719,-0.044425,-0.041673,0.001899,-0.001464,0.102119,0.112923,-0.042652,0.000740,-0.002161,-0.123836,-0.010080,-0.086226,0.224794,-0.084100
0.136114,0.046376,0.012193,-0.001807,0.069698,-0.050692,0.062938,0.136822,-0.093435,0.044079,0.018487,-0.106281,-0.002532,-0.143682,-0.109725,-0.005652,-0.062893,0.049107,-0.042015,0.086727,0.029548,-0.196583,0.023124,-0.102188,-0.047497,-0.187393,0.063076,0.025256,-0.019672,0.106772,0.076423,0.069566
0.017740,0.048321,-0.082695,-0.082275,0.148002,-0.083528,0.097896,0.105348,-0.076972,-0.039016,-0.101732,-0.177097,-0.096139,-0.087673,0.102802,0.125394,0.025758,-0.091623,-0.013356,-0.137012,0.066378,0.121409,-0.004682,0.089919,0.017157,0.030652,-0.050505,0.051049,0.080589,0.008684,-0.003439,-0.003493
0.037091,0.158454,-0.065631,-0.056283,0.129708,0.103788,0.002831,0.019018,-0.039362,-0.078450,-0.025052,-0.142740,0.063012,0.070233,-0.108704,-0.089962,-0.134776,0.062705,0.057985,0.091050,-0.028765,-0.161021,0.069914,-0.008674,0.052177,-0.011173,-0.009346,-0.049586,0.077339,0.057047,-0.022491,0.045997
0.093367,0.049152,-0.192215,0.109084,0.058154,-0.046721,0.113223,0.039378,0.039210,0.077206,0.117506,-0.159642,0.097532,-0.012733,-0.144585,-0.063193,-0.055078,0.067746,-0.069092,0.006511,-0.054259,0.003365,-0.025381,0.015419,-0.041674,-0.000298,-0.008249,0.139181,0.113593,0.031654,-0.008678,0.045389
0.056351,-0.041991,-0.022589,0.101908,0.042664,-0.150733,-0.005015,0.050528,0.022749,-0.001898,-0.004017,-0.098863,-0.013624,-0.086441,-0.026670,-0.027891,-0.012910,-0.013329,-0.113944,-0.087681,0.057535,0.001011,-0.079249,-0.065928,-0.180110,0.097138,0.184661,0.148958,-0.025584,-0.080136,0.081803,0.074626
0.060715,0.015408,0.162615,-0.088211,-0.039290,-0.085428,-0.007519,-0.048914,-0.029482,-0.034074,-0.112483,-0.083292,-0.096729,0.022723,-0.047594,-0.009097,-0.108378,-0.009105,0.030327,-0.055560,0.034687,0.013131,-0.045929,-0.007872,-0.041422,-0.026296,0.037407,-0.142111,-0.029024,-0.036885,-0.000318,-0.055483
0.138198,-0.090339,-0.073883,-0.053316,-0.054068,-0.131886,0.040361,0.000537,-0.099825,-0.021775,-0.085025,-0.003447,-0.002974,-0.074584,-0.007230,0.064458,0.113085,-0.001551,0.077715,-0.010226,-0.086033,-0.094412,-0.089754,0.073938,-0.127667,0.032860,-0.098841,-0.146430,0.154545,-0.068250,0.062572,0.048657
0.055629,0.010055,-0.104038,-0.073439,-0.059403,0.041254,-0.050609,0.053688,-0.104658,-0.011582,-0.161206,0.102291,0.046410,-0.068069,-0.014040,0.009732,0.090178,-0.030064,-0.015110,-0.092316,-0.083487,-0.116944,-0.092215,-0.069834,-0.116773,-0.027595,0.107950,0.073322,-0.137761,0.046197,0.087939,-0.055456
0.074424,0.054669,0.023766,0.059568,0.094718,-0.104724,-0.051122,0.188223,-0.015802,-0.046469,-0.063269,0.031560,-0.041824,0.007324,0.175086,-0.032136,0.059964,-0.130005,-0.008328,0.039958,0.018562,-0.047882,-0.071506,0.096698,0.128588,0.022123,0.089012,-0.100040,-0.043791,0.012678,-0.005353,-0.088414
0.025988,0.044591,0.008315,-0.075676,0.026262,0.113492,0.093311,-0.055997,0.004387,0.052970,0.095141,-0.081433,-0.014255,-0.083986,-0.024455,0.155494,-0.018268,-0.087213,0.149813,0.004503,0.029697,-0.054484,-0.139446,0.065859,-0.024203,0.011091,-0.075490,0.129911,-0.050657,0.064298,-0.006374,0.015091
0.155407,-0.038457,0.023663,0.006131,0.023319,-0.030629,-0.034881,-0.008875,0.058381,0.126902,0.095705,0.113949,0.095975,-0.089648,-0.001517,0.125996,0.007493,-0.051479,-0.009121,0.163601,0.086751,0.018320,-0.109162,-0.166974,0.099501,0.182285,0.128487,-0.035745,-0.169967,-0.064855,0.020738,-0.146046
0.011676,0.005908,-0.002096,0.055196,0.027766,-0.009142,-0.104117,0.020521,0.045208,0.050247,0.061838,-0.161957,-0.252092,-0.127853,-0.052825,-0.076808,-0.073575,-0.095312,0.019380,-0.090424,-0.027251,0.072358,-0.109341,-0.112026,0.052438,0.064486,0.067576,-0.018847,0.118577,-0.004174,0.095783,-0.057155
-0.107986,-0.032296,0.184821,0.068712,-0.041791,-0.022656,0.037697,-0.171318,0.124910,-0.038532,0.061962,0.073043,-0.080999,0.124423,-0.061702,0.038144,-0.131617,0.091685,0.011261,0.011623,0.004743,-0.053787,-0.015101,0.214001,-0.039692,-0.007818,-0.046399,-0.003407,0.102342,0.037956,0.102287,-0.066002
-0.001751,-0.067419,-0.021295,0.141857,-0.045664,-0.068506,0.001655,0.006577,0.030180,0.038005,0.126147,0.052538,0.050584,0.009996,0.067581,-0.019889,-0.039912,0.004668,0.044339,-0.161028,0.075186,0.131086,-0.018475,0.077054,-0.053265,0.025309,-0.056800,-0.034841,0.066078,0.126640,-0.071418,0.002389
0.078629,-0.143500,-0.146160,0.117368,-0.075604,-0.069572,0.110715,0.051744,0.048331,0.020572,0.044190,-0.004024,0.061860,-0.022302,-0.003304,0.065755,-0.089815,-0.043138,-0.080622,-0.106124,0.130539,-0.091150,-0.061946,-0.005840,-0.095683,0.018023,-0.117181,0.053460,0.038222,0.072531,-0.096773,0.040330
-0.090738,-0.160589,0.004058,0.060203,0.008850,0.112489,-0.089193,0.045052,0.012607,-0.021817,-0.060145,0.008157,-0.038758,0.058208,0.065426,-0.019582,-0.094999,-0.036013,0.053023,0.021345,0.028124,0.051805,-0.059706,-0.037292,-0.009522,0.136001,-0.064193,-0.213436,0.087532,0.055284,0.056255,-0.028742
0.050242,0.056583,0.227740,0.016324,0.195758,0.000349,0.068845,-0.099673,-0.008245,0.102052,0.035283,-0.077665,0.028378,-0.126383,0.220283,0.015636,0.014472,-0.063243,0.042665,-0.032369,0.044477,-0.028000,0.068924,-0.003485,-0.092273,-0.018285,-0.173036,-0.060185,-0.001563,0.010987,-0.267038,0.028083
-0.047704,0.150110,0.153724,-0.110497,0.089426,-0.035695,0.040828,-0.002297,0.136202,-0.008677,-0.117954,-0.089666,-0.039246,-0.027194,0.013259,-0.087433,-0.045160,-0.095471,0.166077,0.248962,-0.038399,-0.041697,0.014363,-0.018500,0.045735,0.131047,-0.036511,-0.077591,0.109813,-0.122121,-0.003001,0.027342
0.116155,0.044595,0.055342,-0.077105,0.044628,0.092400,0.011522,-0.193527,0.076900,-0.156986,-0.065416,-0.044566,-0.002092,0.064318,-0.084932,-0.058944,0.033537,0.014194,0.138387,-0.024972,-0.081733,-0.105693,-0.050042,0.089085,0.022474,0.126621,-0.176261,-0.098742,-0.052009,-0.098841,-0.054141,-0.068211
0.045515,0.037935,-0.045047,-0.053446,0.055280,0.161348,-0.101724,-0.031070,0.123574,-0.030105,0.087059,0.000910,-0.012833,0.049482,0.058872,-0.025166,0.000584,-0.018537,0.059958,0.092501,-0.048084,-0.024862,-0.067220,-0.069636,0.054016,0.174981,0.042171,-0.139109,0.036424,0.036985,-0.183680,-0.000434
0.055650,-0.015519,0.076311,0.070277,0.086498,0.055852,-0.112093,0.019503,0.090925,0.030519,0.096645,-0.037269,0.006661,-0.120171,-0.068002,-0.004735,0.090610,-0.031196,0.045830,0.030732,-0.059234,-0.069620,-0.018300,-0.004125,0.027626,0.097275,0.075955,0.014489,0.054098,-0.094756,-0.112701,-0.037521
0.159634,0.039218,-0.058821,-0.084272,0.051265,0.066327,0.009344,0.022934,0.004652,0.021236,0.123110,0.099210,-0.053768,-0.002906,0.115140,-0.005368,-0.025484,-0.026275,-0.018563,0.055923,0.065659,-0.018389,-0.173145,0.101200,-0.063018,0.045884,0.052774,0.188964,-0.002635,-0.165222,-0.101095,-0.016909
0.175507,-0.052777,-0.018294,0.020279,0.108972,0.014030,-0.093293,0.053946,0.045329,-0.031614,0.060565,0.134890,0.172320,-0.101095,0.242377,0.052975,-0.079346,-0.053047,-0.005333,-0.013618,-0.016191,0.198117,-0.231599,-0.045810,-0.045391,0.034283,-0.044213,0.263001,0.100881,-0.155092,-0.127499,-0.065089
0.022219,0.069670,0.031120,0.021909,0.003992,-0.045526,-0.034707,0.140140,0.096412,-0.128436,0.038289,0.070345,0.096988,-0.124301,-0.052810,0.114592,0.036380,-0.098423,-0.026900,-0.044751,-0.063356,-0.020510,-0.102541,-0.055489,0.017519,0.051058,-0.035082,0.066502,0.035459,-0.010116,-0.143901,-0.072798
0.124463,-0.032815,-0.166185,0.062036,0.078079,0.028892,-0.006041,0.096425,0.088792,0.040456,0.074229,-0.023174,0.021064,-0.150575,-0.113231,0.056300,-0.032878,0.012650,-0.178372,0.093638,-0.084818,0.041922,-0.133950,-0.037125,0.021324,0.217724,-0.175680,-0.016882,-0.040699,0.018789,-0.134459,0.022337
-0.005379,-0.054958,-0.012687,0.060017,0.023473,-0.067683,0.018641,-0.011893,-0.003764,0.019480,0.232339,-0.024774,0.142018,-0.236504,-0.055381,-0.025964,-0.044648,0.012005,-0.037160,-0.045122,-0.055240,0.042712,-0.073220,-0.143913,0.055750,-0.254656,-0.113338,-0.151627,-0.081046,0.038603,-0.047912,-0.061977
-0.070980,-0.070493,0.025074,-0.020867,-0.000654,-0.069935,0.057900,-0.071373,0.034210,0.098723,0.166279,0.148036,0.119573,-0.182719,-0.171163,-0.123021,-0.085730,-0.044610,0.057819,0.161765,-0.071428,0.083031,-0.019504,-0.170586,-0.037200,-0.203321,0.098185,-0.025058,-0.066542,-0.040612,-0.109488,-0.112373
-0.019590,0.024146,-0.074090,0.118932,0.070865,-0.007805,-0.121920,0.008967,-0.010240,0.015044,0.038274,-0.138646,-0.292969,-0.139922,0.156633,0.156320,-0.199386,-0.198246,0.077053,0.017134,-0.069025,-0.012776,-0.178510,-0.253109,0.002505,0.004801,-0.202933,-0.103848,0.119133,0.019505,-0.062155,-0.065787
-0.119723,0.033794,-0.048363,0.181798,0.175278,-0.058328,-0.026212,-0.117579,0.124085,0.139361,-0.122431,-0.047235,-0.092295,0.050602,0.188507,0.043712,-0.101337,-0.084524,0.049171,-0.036840,0.007380,0.173392,-0.119356,-0.038263,0.071203,0.022341,-0.045102,-0.035878,-0.047045,-0.025796,0.017739,0.036173
-0.103807,-0.129408,-0.003608,0.074964,-0.072062,-0.097682,-0.047405,-0.019726,0.007536,0.019889,0.170099,0.120608,-0.184467,-0.125420,-0.051459,0.099772,-0.023360,0.034238,0.033959,-0.043691,-0.084641,0.201490,-0.048905,0.020694,-0.044792,0.019254,0.002282,0.158893,0.038052,-0.121953,-0.083111,0.027492
0.019020,0.029402,-0.121142,-0.155349,-0.208114,0.006595,-0.156246,0.126646,-0.060264,0.040260,-0.086845,0.076390,0.130877,-0.004662,0.062364,0.016531,0.137210,0.000741,0.075786,-0.192085,-0.063816,-0.047852,-0.131434,0.065265,-0.093858,0.124029,-0.039701,0.105365,0.096785,0.014137,-0.080366,-0.087033
-0.054881,0.145002,-0.091920,-0.108860,0.004002,-0.035282,0.072245,0.126506,-0.029870,-0.030333,-0.043118,-0.084645,0.096749,-0.078783,-0.039836,-0.040974,0.069557,-0.185025,0.128781,0.042567,-0.034826,-0.156523,-0.021164,0.113351,0.041375,0.047391,-0.008272,0.097783,0.099770,-0.073758,0.083957,-0.014784
0.140958,0.032468,0.058255,-0.059152,0.068391,-0.055154,-0.015326,0.017952,-0.102710,-0.024310,0.145200,-0.049079,0.007876,-0.138831,-0.041868,-0.027109,0.007457,-0.019959,-0.089002,0.050537,0.065913,0.119293,0.075865,-0.032934,-0.094199,0.039229,-0.127637,0.037603,0.117663,0.039688,-0.073072,-0.019155
0.060339,0.032977,0.017975,-0.060989,-0.118502,-0.115799,0.033329,0.016116,0.039732,-0.063279,-0.016876,-0.023437,-0.066568,-0.034061,-0.171174,-0.040055,0.212822,0.056221,0.272347,0.135059,-0.049263,-0.229874,-0.177818,-0.043264,-0.062755,0.020261,-0.136625,-0.014416,-0.085310,-0.054138,0.062514,-0.037653
-0.159722,0.102311,-0.247496,-0.191541,0.039586,-0.238227,0.068637,-0.289394,0.032700,-0.382248,0.175950,-0.093092,0.028719,-0.229885,-0.212464,-0.025316,-0.014678,-0.060268,-0.113034,-0.005821,0.110339,-0.177538,0.151238,-0.137110,0.005231,-0.076393,-0.047403,0.116697,0.205595,-0.118777,-0.304398,-0.192693
0.094063,-0.287499,-0.184381,-0.121943,-0.097914,0.244002,0.220964,0.150881,-0.290594,-0.007260,-0.187252,0.153697,-0.033218,-0.103892,0.330732,-0.264224,0.110356,-0.159204,0.130200,0.152357,-0.015354,-0.105844,0.238019,0.339916,0.106965,0.028519,-0.015595,0.007355,0.066447,0.112345,0.085097,-0.004477
0.155324,0.226176,0.243563,0.225206,0.171121,0.086382,0.138739,0.250187,-0.393967,0.213465,-0.117931,0.180851,-0.170999,-0.101395,0.196458,-0.174274,0.027379,-0.084769,0.165991,0.214513,0.265519,-0.010094,0.096165,0.107141,0.077694,-0.126685,-0.213861,-0.109685,0.189260,0.031131,0.094858,0.149122
0.134457,0.110839,0.089916,-0.037488,-0.070021,-0.147221,-0.201630,0.162515,-0.253533,-0.010098,-0.161684,-0.038043,0.066894,0.186629,-0.029391,-0.148117,-0.075870,-0.117024,0.182959,-0.204405,-0.018341,0.111935,0.118127,0.172502,0.228989,0.031244,0.206923,-0.043286,-0.137708,0.000559,0.173555,0.402314
-0.215896,-0.237645,-0.207248,-0.220092,0.251949,0.007749,0.163307,0.006315,0.241199,0.191374,-0.105393,0.022924,0.195168,0.136967,0.204425,0.323064,0.117707,0.215406,-0.187293,-0.152105,-0.144031,0.090574,-0.039536,0.193969,-0.145945,0.102876,-0.075334,0.017556,-0.026040,-0.092561,-0.059060,-0.028123
0.096540,0.161746,0.283163,-0.117476,-0.284777,0.185060,-0.254942,0.117469,-0.064625,-0.190059,-0.182226,-0.374103,-0.035311,0.111277,-0.219142,-0.195139,-0.183076,-0.060381,0.270605,0.137161,0.240700,-0.013814,-0.080558,-0.238880,-0.092038,0.191541,0.057794,0.225656,-0.183754,-0.240498,-0.265997,0.072097
0.304318,-0.157672,-0.130327,0.207753,0.219135,-0.054310,0.005374,-0.225894,-0.088454,0.079981,-0.072654,-0.360531,0.197340,-0.089892,-0.002097,-0.177422,0.018401,-0.113273,0.178416,-0.019697,0.227375,-0.072149,-0.074943,-0.258607,-0.177837,0.351930,0.097644,0.081019,-0.238053,0.233439,-0.260605,0.108982
-0.067131,-0.045755,0.091841,0.188246,-0.073934,-0.100208,-0.229112,0.056762,-0.310634,-0.153827,0.093112,0.235480,-0.086690,-0.231512,0.185802,-0.113265,-0.310859,-0.048946,0.144379,0.093580,0.140596,-0.289706,0.153891,0.124892,-0.192960,-0.174841,0.209034,-0.248421,0.000559,-0.217590,-0.248880,0.130413
-0.174708,0.261171,0.091596,0.000750,-0.198520,0.031731,-0.269447,-0.207946,0.218055,-0.002858,0.337208,-0.024353,-0.061012,0.051251,0.145534,0.140859,-0.218761,0.057842,0.071188,0.162403,0.350131,-0.026893,-0.053798,0.055679,-0.229927,-0.031378,-0.240528,0.235699,0.077253,-0.188168,-0.172958,0.030008
-0.181895,0.089730,-0.132430,-0.151518,-0.193082,-0.032685,0.002364,-0.199518,0.307974,0.013246,0.047715,0.033503,-0.247697,0.035874,0.069196,-0.024570,-0.285007,-0.226848,0.067020,0.002046,0.052657,0.140696,0.446929,0.133172,-0.091054,-0.252678,-0.055573,0.247380,-0.210464,0.125739,0.110964,-0.123150
-0.044291,0.233698,-0.045422,0.128718,0.025518,0.132542,0.026146,-0.129646,-0.277017,-0.151573,0.168709,-0.020083,0.120579,-0.106281,0.271938,-0.158870,-0.075704,0.137034,-0.098666,0.227519,0.200144,-0.113941,0.203001,-0.136077,0.007121,-0.153183,-0.263673,-0.002876,0.186671,0.075973,0.178249,-0.201749
0.045608,-0.257841,0.093455,0.114185,0.199228,-0.046525,-0.052750,-0.291433,-0.184680,0.080934,0.058261,-0.128991,0.261931,-0.040986,0.000847,-0.192067,-0.018036,0.074704,-0.137937,0.111402,-0.070490,0.179291,0.130665,0.047605,-0.222661,0.214213,-0.217880,0.119610,-0.039642,0.156066,0.300382,-0.322363
0.239272,0.130232,0.132375,0.193652,0.160131,0.145106,0.239899,-0.162577,-0.041455,0.023191,0.085840,-0.019043,0.148916,-0.352172,0.035270,0.085022,0.278328,-0.070996,0.007840,-0.166712,0.048534,0.017329,0.058929,0.099017,-0.046389,-0.001648,-0.055582,0.136881,0.009075,-0.152213,-0.240094,-0.162601
0.237306,0.273385,-0.093934,0.103109,-0.014559,-0.169227,0.246806,-0.281139,0.085867,-0.024061,-0.138586,0.003748,0.027128,0.180127,-0.112394,-0.025046,-0.161321,0.213212,0.174995,0.293249,-0.148490,-0.218673,0.062064,-0.022832,0.200911,-0.222588,-0.027703,0.064033,-0.111093,-0.052342,0.098406,-0.240683
0.036613,-0.157064,0.364560,-0.387636,-0.110281,0.192001,-0.163971,0.129965,-0.123702,-0.085599,-0.345413,0.266896,-0.163135,-0.257000,0.074943,0.077030,0.204120,-0.155055,-0.026198,0.312910,-0.161066,-0.252372,-0.047031,-0.132841,-0.297556,0.218517,0.078687,0.004208,-0.081559,-0.022325,0.068984,0.261704
-0.133350,0.032682,-0.356138,0.121725,0.080146,-0.195604,-0.122366,0.191792,0.049174,-0.051685,0.175532,0.049083,-0.012017,-0.037168,-0.336179,-0.130637,-0.054318,0.094539,-0.155374,0.159717,0.078005,0.151597,0.309635,0.280315,0.319016,0.069938,-0.028264,-0.125808,0.085840,-0.148650,-0.062165,-0.116679
0.047820,-0.076106,-0.240500,-0.135170,-0.068679,-0.094259,-0.118974,0.083476,0.189292,-0.238939,0.046315,-0.096570,0.106734,0.100803,0.130451,0.132781,0.006554,-0.028669,0.238240,-0.150655,-0.076744,0.053183,0.202454,-0.054619,-0.286868,-0.093573,-0.055813,0.314638,-0.009642,0.009889,-0.082363,-0.191920
0.191409,-0.039919,-0.078576,-0.051581,0.176806,0.065866,-0.159531,-0.005758,0.124404,0.215087,-0.182487,-0.223654,0.066823,-0.068517,-0.167310,0.114644,0.162376,0.239124,0.153974,0.057251,-0.011476,0.290922,0.221489,-0.101442,-0.131381,0.025796,-0.093372,-0.054241,-0.149039,0.066965,0.279426,-0.433785
-0.170910,-0.171955,-0.016505,-0.265275,0.218919,0.149507,0.164714,-0.004099,-0.109392,-0.230443,0.150549,0.279206,-0.085586,-0.183985,0.127114,-0.310028,-0.025811,-0.001862,0.297482,-0.083402,-0.075385,0.240816,0.037912,-0.018182,-0.148318,-0.031351,-0.068075,-0.022589,-0.250064,-0.152695,-0.053246,-0.214936
0.104948,0.149087,0.033511,0.071663,-0.019024,-0.266924,-0.296541,0.172511,-0.155371,0.143111,0.114402,0.196081,-0.211970,-0.015158,0.206257,-0.071058,-0.355942,0.060742,0.071914,0.076128,-0.034483,0.056158,-0.301887,0.003945,0.157398,0.096236,-0.248045,0.215865,0.142528,-0.136363,-0.169315,-0.338041
-0.054733,-0.081590,0.028301,0.073812,-0.077365,0.055233,0.092853,-0.042703,-0.024205,-0.121594,-0.144018,-0.053468,0.233068,0.126981,0.225022,0.257418,-0.153354,0.227389,0.083623,0.081349,-0.111605,0.009870,-0.133851,0.162406,-0.187367,-0.020994,0.159639,0.516016,0.096897,0.166376,-0.197540,0.196413
-0.134614,0.182574,0.027446,0.057073,-0.089632,-0.174130,-0.171674,0.099116,0.204023,-0.009789,-0.031925,-0.025580,0.191946,-0.088593,-0.067658,-0.145919,0.274844,0.262762,0.061008,-0.116562,-0.034324,0.155545,-0.280502,0.096874,0.033315,0.017357,-0.106285,0.094101,0.100002,0.163778,-0.063495,0.249705
0.030751,0.056287,0.065749,0.152318,-0.085626,0.255271,0.035908,-0.243385,-0.186236,0.222446,-0.025394,-0.226688,0.026486,0.247388,-0.126043,-0.096883,0.167472,0.294608,0.011219,-0.160550,0.272385,-0.097342,0.068277,-0.290634,-0.124465,-0.036344,0.187624,0.400174,0.280511,0.094472,0.268562,-0.167982
0.316182,0.126275,-0.241359,-0.157346,0.041511,0.055813,-0.000731,0.076001,0.163034,-0.430451,0.049245,0.342626,0.113149,0.301480,-0.404468,0.043842,0.201496,-0.049442,0.061733,0.046312,0.248280,-0.018683,0.213475,-0.185331,0.039604,0.171095,-0.208611,-0.095822,-0.048066,-0.231345,-0.327560,-0.176849
0.124628,-0.136645,0.275765,-0.118217,0.086015,-0.044600,0.096632,-0.189765,-0.103520,-0.040447,-0.235813,-0.260190,-0.054163,-0.154065,0.114726,-0.192471,0.205663,0.168866,0.196423,0.161402,0.305041,0.004319,0.321011,0.059797,-0.092773,-0.221206,-0.118651,0.196683,-0.157261,-0.118671,-0.178574,0.236853
-0.011993,0.244764,-0.304299,-0.238738,-0.196796,0.128789,-0.147506,0.072501,0.380193,-0.004753,0.123199,-0.338165,0.010880,0.133905,-0.180274,0.017662,-0.014685,0.229002,-0.298489,-0.287310,0.050261,-0.285082,0.081247,0.308717,-0.195009,0.272587,0.032059,0.028242,-0.148271,0.273989,-0.250422,0.027627
-0.020750,-0.146662,0.013234,0.208347,0.080005,0.058976,0.076964,0.216048,-0.374501,0.039910,0.297929,0.147090,-0.296066,-0.198367,-0.276171,-0.172429,-0.210712,-0.219701,-0.163940,0.135333,-0.025449,0.139388,0.087789,-0.121611,0.048952,-0.089591,-0.011749,0.250030,-0.236152,0.177953,-0.008668,0.252460
0.004909,0.313801,0.060488,-0.097481,0.188556,0.071190,-0.083616,0.053848,0.144560,0.001232,-0.022839,-0.004075,0.072610,-0.078293,0.176562,0.084682,0.322282,-0.233327,0.145935,0.223223,0.305886,-0.074119,-0.219099,0.316983,0.067172,0.218215,0.076266,0.246409,-0.194180,-0.193112,0.026625,0.289003
-0.357547,-0.187346,-0.019512,0.156210,0.022591,0.153973,-0.053000,-0.152909,-0.151391,0.115024,-0.120116,0.071069,-0.169559,0.105163,-0.043316,0.139824,-0.297036,-0.157941,0.084223,0.213954,-0.164761,0.101288,0.061429,0.096049,-0.186467,-0.108947,0.065719,-0.012604,0.074833,-0.201314,-0.027853,0.093393
0.079465,0.043411,0.068897,-0.216013,-0.016686,0.261422,0.043719,0.080684,0.169077,0.122915,-0.006514,-0.140289,-0.174886,0.172190,0.277256,-0.006497,-0.479820,0.023789,0.160020,0.118802,-0.196585,-0.100763,0.077803,-0.141096,0.101668,-0.203374,0.055321,-0.043507,-0.050374,0.174719,0.190395,0.122886
0.099347,-0.009170,-0.194282,-0.159734,-0.061112,0.111146,0.181927,-0.273329,-0.186079,-0.011964,-0.052579,0.043928,0.019199,-0.135970,-0.144435,-0.054544,0.033473,0.155484,0.266119,0.171141,-0.203556,-0.012008,0.302088,0.013965,-0.091127,-0.111473,-0.144222,0.085933,0.040989,-0.171139,-0.038511,-0.172385
0.150469,0.063821,0.058271,-0.179791,-0.182375,0.074535,-0.050479,-0.150268,-0.322517,0.099073,0.203221,-0.183719,0.245787,-0.169141,0.205112,0.022494,-0.196851,0.338282,-0.100828,-0.144732,0.056574,-0.241833,-0.299314,0.109879,0.162698,-0.056087,0.014352,0.211034,-0.019724,-0.213551,0.059023,-0.183106
0.158235,-0.116873,-0.336231,0.176084,0.100846,-0.049753,-0.280656,0.180452,-0.241894,0.189641,-0.171149,-0.355068,-0.267371,-0.001887,0.032663,-0.127281,-0.104397,0.045629,0.002982,0.196018,0.132096,0.013410,-0.072007,-0.059934,0.176460,-0.021500,0.232938,-0.213076,0.229492,0.074348,-0.156532,0.091679
-0.204689,-0.087438,-0.112630,0.339272,-0.229548,-0.189143,0.146714,-0.144383,0.088331,-0.307878,-0.169217,-0.071341,-0.045013,0.101230,0.162200,-0.061785,-0.161185,-0.077861,-0.040177,0.242409,0.091101,-0.012065,-0.009254,-0.138793,0.113981,-0.031328,-0.081403,-0.126738,-0.224114,-0.049898,-0.150287,-0.211638
-0.172487,-0.060945,0.338652,-0.147342,-0.272961,0.264268,0.002607,-0.115276,0.211020,0.015142,0.246343,-0.105797,-0.112198,-0.025066,0.233978,-0.015187,0.098796,-0.115374,-0.018965,-0.274412,0.241628,-0.237094,-0.054428,0.007554,-0.042088,0.150346,-0.203994,0.021912,0.017008,-0.211452,0.088750,0.100820
0.150052,0.161283,0.297046,0.246763,-0.005487,-0.047281,-0.067137,-0.255163,-0.147624,-0.199007,0.029571,-0.155432,0.139600,-0.078083,0.329796,-0.104380,0.158060,0.018182,0.041587,0.203607,-0.016961,0.252131,-0.069451,0.240592,0.184408,0.058662,-0.008496,-0.129385,0.119196,-0.224212,0.231066,0.051246
0.144415,0.135908,0.053186,-0.241403,-0.054353,0.083402,0.070893,-0.102840,0.251999,-0.182221,0.112175,0.141820,0.000486,0.038991,-0.375785,0.186225,0.172376,0.116230,0.016711,-0.112537,0.120226,0.196505,-0.083622,0.000698,-0.050282,0.299059,0.152479,0.150547,-0.312865,0.079913,-0.025660,0.160913
0.082063,0.156660,-0.215914,0.266594,0.059578,0.130613,-0.087073,0.048661,0.333020,0.129278,-0.060116,0.028474,-0.100601,-0.049984,-0.195686,-0.161165,-0.156794,0.106097,0.151120,0.189735,0.013416,0.330614,-0.070675,-0.000273,0.178178,-0.261648,-0.005240,0.085876,0.187850,0.159435,0.052005,-0.034474
0.222819,0.121643,-0.060613,-0.034724,0.104539,-0.046628,-0.140597,0.268479,-0.115240,-0.034882,-0.051303,0.035633,0.165491,0.164359,0.047628,-0.214626,-0.063600,-0.069420,0.268889,0.109058,-0.058324,-0.032665,-0.054930,-0.167508,0.018372,0.284436,0.229638,-0.095504,0.220106,0.071227,0.133937,0.071349
0.014730,-0.119014,-0.193199,-0.069032,0.219228,0.026051,-0.224556,0.249807,0.106561,0.039903,0.020796,0.272764,-0.125775,-0.195124,0.149405,0.081083,0.077666,0.186998,0.004183,-0.158610,-0.204435,0.094705,-0.135245,0.089824,0.043852,0.000562,0.231447,-0.066286,0.195891,0.199895,-0.232485,0.026419
0.202247,-0.040951,0.262862,0.106285,0.156338,0.283691,0.060896,-0.056623,0.038015,-0.265715,-0.176692,0.058544,-0.019100,-0.396232,-0.030601,-0.432123,0.133495,0.147963,-0.270351,0.137029,0.006683,-0.193050,0.017506,-0.325005,0.068544,0.114359,0.039801,-0.150763,-0.083663,-0.034666,0.263603,-0.122595
-0.259931,0.131950,0.230619,0.134538,0.193369,0.113606,-0.042409,-0.157794,0.028330,0.012136,0.239848,0.218305,-0.027949,-0.186022,0.272288,-0.126808,0.202103,-0.235856,-0.114054,-0.140551,-0.026941,0.199270,-0.057930,0.162818,0.032846,0.305577,-0.053316,0.000372,0.215846,-0.156861,0.125049,0.219673
-0.259150,0.042441,0.017258,0.299435,-0.069225,-0.281139,-0.097291,0.215356,0.202947,-0.163532,0.169563,-0.080663,-0.124648,0.091867,0.090291,-0.291843,0.166715,-0.275229,-0.094795,-0.262241,0.156978,-0.001744,-0.197803,-0.241985,-0.073128,-0.066702,0.129729,-0.048267,0.126393,0.061844,-0.045391,0.182047
-0.050487,-0.036019,0.200221,0.131539,-0.074307,0.367098,0.136051,-0.195784,-0.225169,-0.003568,-0.004061,-0.085271,-0.257193,-0.247634,-0.057108,-0.145439,-0.133749,0.106922,0.052714,-0.114192,-0.131352,0.044515,-0.154880,0.325778,0.067092,0.431640,-0.078004,0.051830,0.105783,0.171187,-0.040416,-0.253284
0.127305,-0.048024,0.116017,-0.204467,-0.178992,-0.048528,-0.252944,-0.111396,0.109895,0.098466,0.104383,0.181479,0.267707,0.159586,-0.090422,0.202991,-0.015743,-0.128863,0.331795,0.094545,0.121047,-0.212671,0.074316,0.194251,-0.147822,-0.298855,-0.074117,0.091205,0.020909,0.112605,0.126826,0.059004
-0.306991,0.187278,0.110201,-0.046004,0.256011,0.298787,0.161972,0.065744,0.096407,-0.099315,0.036952,-0.050505,-0.098211,-0.033727,0.110722,0.072584,-0.228202,0.016507,-0.091345,0.163893,0.047371,-0.176661,0.009968,0.129291,-0.174326,0.203605,0.039537,0.145730,-0.016835,-0.061706,-0.098791,0.052294
-0.252553,-0.252395,0.356447,-0.183474,-0.182426,0.219380,0.244441,0.209155,0.274848,-0.048914,-0.186865,-0.139470,-0.138233,0.034972,0.139011,-0.279498,0.276572,-0.058691,0.158927,0.022514,0.093215,-0.084584,-0.095206,-0.103905,-0.201737,0.226989,-0.085867,0.124931,-0.065802,0.229653,-0.121263,-0.027694
0.216701,-0.098355,0.009411,-0.269342,0.203382,-0.161009,0.036405,0.263600,0.064448,0.256730,-0.191551,0.059464,0.033294,0.228272,0.026635,-0.009762,-0.106767,-0.005300,-0.209490,0.049630,0.200741,-0.100963,-0.090035,-0.248232,-0.124958,0.041082,0.188707,0.034066,-0.079144,-0.149660,-0.184941,-0.054760
-0.004686,0.070570,-0.233267,0.036664,0.150446,-0.071080,-0.242984,-0.023608,-0.282560,0.010950,-0.191917,-0.015917,0.004950,0.090326,-0.201865,0.006053,-0.110810,-0.303811,0.064208,-0.140081,0.147114,0.075832,-0.083201,0.304223,-0.103971,-0.505812,0.078663,0.139401,-0.019584,0.046651,-0.016569,0.064453
-0.135666,0.199237,-0.295665,-0.351164,-0.224894,-0.093183,-0.118409,-0.161740,0.133223,0.125811,0.103655,-0.256900,0.078497,0.234479,0.206926,-0.268760,-0.066902,-0.146416,-0.082838,0.167447,0.205150,-0.034368,0.111186,-0.117678,0.138068,-0.171320,-0.056188,-0.282631,0.078396,0.126554,0.079025,-0.217366
0.101392,0.195049,-0.119606,0.232096,-0.191952,0.264699,0.202330,0.135766,0.065836,0.156318,0.210872,-0.088759,0.205462,-0.065407,-0.042809,-0.382456,0.322031,0.109282,0.197271,0.284028,-0.012654,0.004464,-0.051862,-0.338365,0.132780,-0.023471,-0.202216,0.026376,0.217511,0.088476,0.139792,0.029756
0.130028,0.249618,-0.030201,0.307098,0.204728,-0.044304,0.237632,-0.075523,-0.107580,0.099260,0.115547,0.194424,-0.033597,0.117204,0.184683,0.058770,-0.038504,0.255433,-0.014802,0.159193,-0.108153,0.193091,0.168941,-0.031324,0.008955,0.229476,-0.260649,-0.068248,0.211460,0.178130,0.214778,0.023134
0.246838,-0.081370,-0.100751,0.165604,0.088717,-0.209332,0.167363,0.113396,0.293321,-0.030290,0.049638,-0.096966,-0.056179,0.095581,0.338149,0.278444,-0.023204,-0.103839,0.096499,0.272319,0.124036,-0.125789,-0.101327,0.120611,0.116380,-0.139186,-0.184087,-0.087877,-0.210806,-0.095225,0.165829,-0.169272
-0.100608,-0.128808,0.096435,-0.254324,0.000055,0.073303,0.171259,-0.253417,-0.284226,-0.002422,0.140478,0.047463,-0.139115,-0.122245,-0.068790,0.250337,-0.046478,-0.261998,0.116152,-0.162572,-0.006567,-0.165675,-0.209935,-0.237041,-0.003703,-0.110613,0.023399,0.067471,-0.013425,-0.115233,0.255399,0.190856
0.241310,0.197165,0.400796,-0.148820,-0.042368,0.138756,0.128533,0.076372,0.087543,-0.116036,-0.158011,0.224811,-0.047914,-0.202043,0.257267,0.201509,0.032634,0.066736,-0.151537,-0.037075,0.222441,-0.032681,-0.058029,-0.197880,-0.060074,0.395552,-0.269199,0.210688,-0.022753,-0.202829,0.139009,-0.151204
0.069041,0.071154,0.053806,-0.127270,0.117061,0.280057,0.125319,-0.144441,-0.225495,0.140772,-0.203477,0.034367,-0.096398,0.243928,-0.225155,0.243406,-0.015690,0.195332,-0.246811,-0.155198,-0.219178,0.042926,-0.061472,0.113839,-0.025714,-0.001489,0.121541,0.245533,-0.001092,0.084041,-0.204577,-0.131998
-0.023389,0.092120,-0.117615,-0.205841,0.079895,-0.262077,-0.108190,0.148950,0.185306,-0.023532,-0.118816,-0.173275,-0.100525,0.172929,-0.262750,0.126925,0.001025,-0.180842,0.253298,0.113387,0.138852,-0.103304,0.041814,-0.136770,0.108720,-0.087486,-0.168039,-0.174297,-0.237285,-0.024779,-0.041664,-0.004625
-0.349399,0.194778,0.132835,0.165596,0.194517,0.207252,-0.235132,0.051686,-0.144209,0.086108,0.277339,0.100455,0.055880,0.144322,-0.055658,0.341738,-0.256613,-0.177629,0.105200,0.205046,-0.026976,-0.099435,-0.235110,-0.016936,0.012428,-0.166662,-0.018691,0.224548,-0.062416,0.220278,-0.227005,0.022061
0.100660,0.192088,-0.148796,0.031237,0.134550,0.042224,-0.111229,-0.241201,-0.125618,-0.152935,0.055190,0.108537,-0.182665,0.218095,0.084077,-0.098403,-0.107160,-0.031769,-0.238927,0.204707,0.088851,-0.193197,-0.121224,-0.023927,-0.113389,0.145864,-0.151368,0.197677,0.101553,0.010958,-0.047022,-0.046360
-0.004450,0.133636,0.269027,-0.136669,-0.147968,-0.229595,-0.117250,0.030263,0.109230,0.197371,-0.207030,0.025752,0.201061,0.202621,0.292066,0.431203,-0.199081,0.214654,0.268994,0.231786,0.197778,-0.264423,-0.094190,-0.033189,0.133830,0.030096,-0.283855,0.075717,-0.349563,0.029765,-0.217258,-0.089336
-0.284711,-0.259398,-0.186650,-0.152031,-0.127506,-0.019553,0.034899,0.135978,-0.231845,0.085201,-0.107860,0.200564,0.023151,-0.127934,0.134944,0.138775,0.204701,0.187794,0.095548,0.183082,0.263824,0.234677,-0.205188,0.205871,-0.056383,-0.176128,0.039437,0.015457,0.085540,0.087782,0.122704,0.087397
0.047783,-0.070592,0.234257,0.089005,0.195370,0.107941,0.079853,0.211958,-0.095943,0.218151,0.127982,0.348337,0.206943,0.064942,0.146999,0.204835,0.023941,-0.047685,0.046264,-0.109059,-0.074077,0.261630,-0.090027,0.113356,0.182544,0.230926,-0.155403,0.072436,-0.005540,-0.117507,-0.141598,-0.188283
-0.176637,-0.135413,0.298452,-0.274926,0.199026,0.133873,0.277925,-0.116839,-0.066415,0.089430,-0.077008,-0.085102,-0.034322,-0.255280,-0.107805,0.157507,-0.034522,0.196839,-0.077038,0.101617,0.080083,0.194726,-0.017525,0.044015,0.120530,0.238843,-0.191636,-0.255512,0.186914,-0.066142,-0.253826,-0.177271
0.147238,-0.140500,-0.267719,0.050029,0.154651,-0.276948,0.112433,-0.249238,0.088035,-0.111587,-0.056275,0.018698,-0.138886,-0.096398,-0.287646,0.220920,-0.129592,0.015501,-0.110579,0.185693,-0.304642,0.045867,-0.054417,0.436419,-0.160253,-0.139609,0.132750,-0.022853,0.125159,0.442503,-0.152674,0.031761
-0.261583,-0.020125,-0.289245,0.128252,-0.099561,0.226873,0.051557,-0.125847,-0.253787,-0.248146,-0.037330,-0.169683,0.111306,0.094215,0.091337,0.105742,-0.067179,0.199011,0.003468,-0.019469,0.075858,0.298287,-0.111680,-0.134821,0.034936,-0.141116,-0.007197,-0.040497,-0.184292,0.036265,0.274341,-0.159382
-0.211389,-0.190692,0.275751,0.038565,0.223858,0.108061,0.151307,0.263442,0.132543,-0.247919,-0.216460,-0.065503,0.160671,0.159304,-0.253479,-0.202202,0.214021,0.140837,-0.004730,-0.011479,0.040936,0.243377,0.029474,-0.169900,0.320010,0.151031,0.044734,-0.178028,-0.079259,-0.128993,-0.021254,-0.064306
0.089244,-0.064480,0.333412,0.047512,-0.254338,0.187917,0.079359,0.167962,0.247640,0.136107,-0.128283,0.116015,-0.044953,-0.188798,0.119841,-0.178548,0.050281,-0.227246,0.145650,-0.037775,-0.253875,-0.211769,-0.007462,-0.136454,-0.162540,0.225529,-0.256513,0.091303,0.018070,0.075093,-0.286682,0.164664
0.271225,-0.195495,0.009861,-0.244332,0.282906,0.249974,0.168145,-0.120953,0.118745,-0.176383,-0.022973,-0.343477,-0.256482,-0.314058,-0.090385,-0.159323,-0.023662,-0.282802,-0.049853,0.039448,-0.131885,-0.234668,0.081005,0.113115,-0.288134,0.157146,-0.166892,0.066623,0.030570,-0.116334,-0.061669,-0.077893
0.028493,0.306327,-0.014736,-0.114575,0.168039,-0.153737,0.211823,0.078455,-0.118023,0.019640,0.061039,0.137152,0.112509,0.387014,0.223424,-0.227382,-0.270331,0.069897,0.193947,-0.073308,0.094342,-0.111576,0.153374,0.106840,-0.051338,-0.217926,-0.041613,0.040175,-0.096557,0.168086,-0.147644,0.134305
0.091682,0.022233,0.492804,0.146438,0.171829,0.217911,0.015222,-0.006472,-0.036995,0.343021,-0.193195,0.279952,0.116306,-0.182561,0.200677,0.142334,0.068362,0.072716,-0.106010,-0.079550,0.277455,-0.247773,-0.170025,-0.192976,-0.039396,-0.133166,0.128174,0.001348,-0.231209,0.074784,-0.066423,0.180077
-0.100109,-0.158840,0.169927,-0.138816,-0.231862,0.273742,0.148047,-0.016500,0.202061,0.110765,-0.085508,0.065405,0.175900,-0.145541,0.065773,-0.087284,0.262376,0.204785,0.098588,0.175054,0.189188,0.060312,0.239421,-0.191225,-0.228792,0.162880,0.038281,-0.157914,0.035102,0.128731,-0.281896,0.283935
-0.191036,0.097014,-0.181887,-0.199593,0.065757,0.137133,-0.039465,-0.132390,-0.032132,0.192682,-0.146459,-0.280165,-0.198338,0.092762,-0.043037,-0.158773,0.033513,-0.210127,0.211832,0.073556,0.186612,0.330824,0.142168,0.271587,0.150165,-0.046990,-0.239022,-0.083622,-0.173363,-0.213336,-0.054858,-0.164914
