12
256,16,16,16,16,16,16,16,16,16,16,3
-3.995502,-1.915622,-4.274200,3.889541,-4.206320,4.001636,4.440123,4.253999,1.237855,-3.797296,-2.055758,4.496186,3.959246,-0.063251,1.696531,4.168330
-4.229446,-3.904690,-3.926486,1.597991,-4.846179,1.913078,4.599181,4.283625,-3.722167,-3.569861,-3.663036,4.695632,1.808291,-0.014011,5.000000,3.831843
-1.597648,-3.211407,0.495769,0.695297,-5.000000,-0.386453,4.714381,4.268585,-4.997230,2.192595,-4.836507,4.796399,-2.866671,0.116129,5.000000,3.638132
-2.475012,-4.999345,0.178983,-3.744293,-4.999691,-4.384898,4.801025,4.212734,-4.994097,-0.897308,-4.893512,4.838439,-5.000000,-0.004133,5.000000,2.086823
-0.666280,0.369633,-0.022173,-3.747589,-3.070518,-5.000000,4.139746,3.381708,-1.578730,-0.719302,2.880576,4.695550,-4.778314,-0.033555,4.999001,1.162322
2.548269,1.586310,1.259554,-5.000000,0.174641,-5.000000,-1.221505,-1.159332,-0.459371,1.668519,1.731306,-0.934026,-5.000000,0.015253,4.999517,-2.540572
4.682854,3.296761,1.592922,-5.000000,1.886984,-5.000000,-3.777675,-4.149182,1.930156,3.091314,2.587116,-3.748347,-5.000000,0.003994,4.999288,-4.834373
5.000000,5.000000,2.666298,-5.000000,5.000000,-5.000000,-5.000000,-5.000000,4.999725,5.000000,4.967502,-5.000000,-5.000000,-0.016688,0.552191,-5.000000
5.000000,5.000000,3.465775,-5.000000,5.000000,-5.000000,-5.000000,-5.000000,5.000000,5.000000,5.000000,-5.000000,-5.000000,0.075977,-0.494183,-5.000000
5.000000,5.000000,3.277439,-4.999898,5.000000,-5.000000,-4.446237,-5.000000,3.771982,5.000000,4.864285,-4.004099,-5.000000,-0.031195,4.998150,-5.000000
5.000000,5.000000,2.424358,0.774099,2.833277,-2.864242,4.998253,4.974699,-2.494305,4.978236,2.699531,4.999782,0.033701,-0.018412,4.996388,2.993557
2.029200,-1.777626,0.655405,4.836144,-0.808741,4.816911,4.999407,4.997164,-4.995908,1.783338,-1.335828,4.999649,4.855896,0.037330,5.000000,4.996273
-2.835882,-4.996909,-4.999922,4.983514,-4.993144,4.854706,4.995493,4.994533,-4.996945,-2.519541,-3.640606,4.995977,4.986897,0.054124,5.000000,4.993929
-4.833542,-4.996595,-4.977846,4.970278,-4.996293,4.491588,4.894274,4.894872,-4.064686,-4.997069,-4.132392,4.904210,4.975056,-0.087692,4.993313,4.841990
-1.057071,-2.418520,1.926688,-3.159070,-0.970522,0.621807,4.046898,3.593423,4.535759,-0.328666,0.022911,4.207467,-4.203104,-0.026077,4.576607,3.364129
-4.995962,-3.638840,0.897250,-2.044318,-4.558817,-1.823793,3.746271,3.128097,4.793144,1.223074,-2.613824,4.088815,-2.660480,-0.057446,1.802969,2.353611
-3.154933,-0.880115,-2.975604,4.708820,-3.027619,4.961509,4.999895,4.999360,-4.998905,-2.462939,-4.999260,4.999862,4.808060,-0.049601,4.998721,4.998425
-4.503684,-2.607081,-3.051400,4.384448,-4.249306,4.525024,4.997630,4.995576,-3.963428,-2.780789,-4.535567,4.998826,4.520077,-0.028607,4.998140,4.983533
-4.699662,-3.637892,-2.761956,4.820835,-5.000000,4.801458,4.995134,4.740884,-4.950003,-0.746561,-3.499040,4.996229,4.862722,-0.054796,4.993010,4.675018
-3.341495,-4.994410,-1.664096,4.990121,-4.999453,4.983471,4.998321,4.995912,-4.314620,-0.195641,0.319560,4.998656,4.990054,-0.073555,4.991605,4.994568
-1.095164,-3.849832,-1.914873,5.000000,-1.665688,4.996061,4.965624,4.819973,-0.166678,0.433752,3.847820,4.997221,5.000000,-0.005614,2.647800,4.918772
1.357753,0.004165,0.045906,4.999596,1.245435,4.788199,4.514485,4.511753,3.626680,0.804597,4.257661,4.553551,4.997814,0.005576,3.139578,4.516463
4.026489,1.664743,1.334643,4.679607,3.015704,3.297625,4.174044,4.093456,4.999246,2.171820,3.577414,4.225380,4.502558,-0.043928,4.874807,3.915704
4.999072,2.906832,-0.990959,3.108177,4.994183,1.971073,-1.052676,-2.216168,4.999707,0.375818,5.000000,-1.231387,3.072764,-0.072774,-2.188959,0.194778
5.000000,4.842529,1.092113,1.999073,4.997636,1.190970,-3.271961,-4.898138,4.999329,3.171285,5.000000,-3.408848,2.171083,0.046757,-1.685679,-2.689806
5.000000,5.000000,4.583102,-4.999593,4.999225,-5.000000,-4.999619,-4.999697,4.999171,4.999217,4.731026,-4.764602,-4.644476,0.029771,1.784470,-4.999828
5.000000,4.999897,4.193351,-1.720535,4.498053,-3.966435,4.997827,4.980898,-0.797983,4.998998,4.127684,4.999007,-1.019659,0.002402,4.998217,2.804093
4.817241,2.932584,3.245939,4.993276,3.343011,4.994249,4.999498,4.997183,-4.993887,4.999814,2.981230,4.999710,4.993026,-0.028662,4.998375,4.996880
-2.280627,-4.342870,-4.998574,4.996195,-3.204591,4.995273,4.998629,4.997772,-4.998423,-2.584725,-3.711953,4.999014,4.996512,-0.063265,4.995332,4.997173
-1.739344,-4.961357,-4.962895,4.985278,-0.099568,4.356012,4.891950,4.850703,-4.554032,-3.208939,-4.249909,4.915242,4.989370,0.125722,4.995454,4.795685
1.548508,1.944313,0.976724,-4.999488,2.943338,-4.999183,1.973873,2.173883,3.994370,0.258427,0.891689,0.681235,-4.999511,-0.009121,4.291651,0.742865
-3.857316,-3.564481,1.503585,-2.100579,-4.039022,-2.305132,1.188092,0.309712,4.958310,0.773713,1.564614,1.792860,-2.848128,0.041047,1.282817,-0.013026
-2.964768,-2.277269,-2.857006,4.915406,-2.964973,4.997026,4.999894,4.999260,-4.999063,-3.733220,-4.999681,5.000000,4.937788,-0.064746,5.000000,4.998983
-3.277974,-2.454326,-2.733156,5.000000,-0.671327,5.000000,4.998548,4.998126,-1.919783,-3.988466,-3.338621,4.998580,5.000000,-0.072535,2.266606,4.998559
3.362549,4.997626,1.975027,5.000000,4.292160,5.000000,5.000000,5.000000,-0.071106,3.875026,5.000000,5.000000,5.000000,0.037166,-0.079271,5.000000
4.124810,4.998949,2.425506,5.000000,3.639468,4.190183,4.999944,4.999634,-1.030641,4.571316,5.000000,5.000000,5.000000,-0.045785,-0.192271,5.000000
4.219200,4.606961,1.551847,5.000000,4.329392,5.000000,4.997735,4.997469,-0.122897,3.473101,5.000000,4.997891,5.000000,-0.043860,-2.256204,4.998110
4.888427,4.765652,2.488131,5.000000,4.952512,5.000000,5.000000,5.000000,0.279914,3.620114,4.349300,5.000000,5.000000,-0.076338,-2.079465,5.000000
4.995870,4.852241,4.884204,4.997993,4.992796,4.395300,3.982761,4.921817,-0.210040,4.994142,4.189306,4.044332,4.869320,-0.025916,-0.072966,4.757210
1.413428,0.076500,-2.329008,4.998374,2.187750,4.997455,3.513071,4.418511,4.998124,-0.926204,4.999683,3.441334,4.998462,0.049357,-2.398310,4.669293
0.600732,-0.046008,-3.252041,4.999023,3.958694,4.645822,-0.478015,-0.126612,4.999889,-0.788870,5.000000,-0.641894,4.999096,0.067344,-5.000000,0.635222
5.000000,5.000000,4.932612,-4.952523,4.998343,-4.994466,-4.998795,-4.998187,4.999561,4.999870,4.643411,-4.999081,-4.987714,0.008461,-3.054608,-4.997013
4.999459,5.000000,2.713759,-3.807338,5.000000,-4.357651,1.932307,2.128516,5.000000,4.871180,4.477243,2.308408,-3.512464,0.018259,-0.020294,-0.165846
-2.294588,-1.784587,-3.977744,4.996502,-0.040676,4.997550,4.998179,4.996388,-3.965901,-3.464712,0.283885,4.998413,4.996616,0.001244,2.674722,4.996648
-4.865900,-4.003986,-4.422586,4.996221,-4.996212,4.994759,4.996779,4.995906,-4.522028,-4.750260,-4.177698,4.997192,4.996365,-0.032918,2.601008,4.995487
-3.384630,-4.442844,-4.393150,4.877338,0.872575,3.467727,3.841472,3.888563,0.463979,-4.204622,-3.746126,3.935335,4.860817,0.095823,4.124804,3.759627
3.746859,4.880126,3.045653,-4.998999,4.992062,-4.999083,-4.999839,-4.999769,5.000000,3.299611,3.330695,-4.999903,-4.999264,-0.100867,3.441606,-4.999663
-2.709395,-2.639097,2.510820,-2.472393,-4.231108,-3.087957,0.471267,-0.468491,4.956517,0.692628,2.727793,1.073503,-3.226661,0.037060,1.301982,-0.830936
-4.269519,-4.128325,-3.934722,4.996704,-2.483933,4.997616,4.998529,4.997923,2.993361,-4.746434,-5.000000,4.998650,4.996749,-0.021720,3.583596,4.997700
-0.269232,0.622814,-3.753536,5.000000,2.844978,5.000000,4.999786,4.999550,3.416021,-0.770594,2.724292,4.999810,5.000000,0.027707,0.960895,4.999536
2.913575,4.997834,-0.269079,5.000000,4.509106,-0.689548,4.999899,4.999777,4.407321,2.403580,4.942833,4.999966,4.376780,-0.008965,0.063156,4.999851
4.928089,5.000000,2.301047,0.114930,4.945869,-2.768981,-3.790401,-2.447295,4.689286,4.995365,5.000000,-3.525236,-0.486511,-0.180400,-0.990328,-3.466170
2.976562,3.045519,-0.299725,1.098807,4.830450,-1.981307,-0.617089,2.295240,4.374465,1.813222,4.426956,-1.202985,0.356090,-0.017872,-2.379613,1.429083
5.000000,4.433170,1.455493,0.047100,5.000000,-2.029358,-2.654056,1.241612,4.998161,3.700728,3.710907,-3.871608,-0.925253,-0.106965,-4.998053,1.072838
4.999539,4.998172,2.606113,2.714836,5.000000,1.949653,0.766569,2.093996,4.998371,4.987270,3.895446,-0.568841,3.914962,-0.088779,-3.131788,2.376859
1.970483,1.927921,-4.402034,4.998817,3.186106,4.997694,2.107719,3.439081,4.999708,0.489884,4.537415,1.800898,4.999095,-0.148558,-4.102770,3.826404
2.919075,3.315709,-2.176316,4.999412,4.999031,3.462668,-3.161925,-1.419988,5.000000,2.313309,4.921655,-3.640027,4.999434,-0.120874,-4.994852,0.103641
4.983518,4.826653,2.946443,-4.946302,4.992792,-4.977328,-5.000000,-4.997225,5.000000,4.995416,4.398690,-5.000000,-4.967762,-0.011667,-5.000000,-4.995399
3.634057,1.246146,-0.867234,-3.868232,4.918799,-3.679449,-2.998471,-1.572153,5.000000,0.092472,3.692413,-3.620002,-4.389376,0.016139,-4.726464,-2.184041
-4.993532,-4.982322,-4.999036,4.998401,-4.993073,4.998423,4.997666,4.996959,1.425701,-4.987283,-4.864782,4.997675,4.998298,-0.010804,-0.207045,4.997427
-4.847208,-4.961443,-4.998939,4.996281,-4.993283,4.994455,4.986221,4.995004,-1.158284,-4.912718,-4.091453,4.951448,4.996719,-0.033741,0.073741,4.994928
-4.669650,-4.813388,-4.896661,4.844641,-4.425094,3.342573,3.655349,3.766952,4.998705,-4.860769,-3.767721,3.677537,4.805093,0.028575,3.207981,3.587609
0.213971,2.926678,2.849125,-3.505637,-0.228330,-3.940273,-4.999689,-3.470639,4.999997,2.658800,1.325511,-4.999820,-4.340524,-0.169087,3.272890,-3.534185
-5.000000,-3.935382,-0.899263,4.997045,-4.480831,5.000000,2.717473,1.388425,4.883932,-2.523830,0.992291,2.640156,4.994758,-0.015331,-0.279503,2.878282
-4.227286,-3.724912,-4.332025,4.999384,0.954555,4.998987,4.273939,4.131673,4.998862,-4.997752,-2.526049,4.273995,4.999054,-0.033115,-0.751677,4.737327
-1.187577,0.204535,-4.194510,5.000000,3.558632,5.000000,4.999565,4.998878,4.920007,-0.515778,0.903861,4.974137,5.000000,-0.075253,-3.778859,4.999172
2.837673,4.974745,1.381622,5.000000,4.287543,5.000000,3.792240,3.795680,4.290487,3.578345,5.000000,4.040732,5.000000,-0.023378,-3.479398,4.345513
4.293870,4.999545,4.788358,1.384806,4.450172,-2.449709,-4.782318,-4.694787,5.000000,4.822438,5.000000,-4.822861,0.460680,-0.034953,-4.999962,-4.525733
1.339906,2.026884,2.375637,0.193571,3.005738,-3.360887,-4.959496,-4.808778,4.999567,2.541119,4.601678,-4.986481,-0.763375,0.013155,-4.999843,-4.669551
0.613573,0.913393,-0.164612,0.828509,2.898523,0.568417,-4.997899,-4.451432,4.999796,0.372979,4.191945,-5.000000,0.586635,-0.093854,-5.000000,-2.819649
2.368074,1.515450,-2.116978,4.998479,2.062162,4.398713,3.460779,4.152912,3.623841,0.289914,4.172385,2.308482,4.931943,-0.118077,-0.116212,4.191026
1.524164,0.743350,-3.465236,4.997671,3.813808,4.996968,3.263590,4.240916,4.998921,-1.163782,4.930746,3.062331,4.997904,-0.108083,-2.603563,4.659983
2.881655,3.017477,0.676340,2.252003,4.985341,-0.716590,-4.298925,-2.091373,5.000000,2.891467,5.000000,-4.569559,-0.025695,-0.037259,-1.187880,-2.231675
4.971154,4.844444,3.460134,-4.152249,4.950019,-4.988908,-5.000000,-5.000000,5.000000,4.002139,5.000000,-5.000000,-3.188294,-0.090288,-5.000000,-5.000000
-2.238464,-2.288352,-0.972315,5.000000,-0.772050,4.997240,4.994074,4.778875,5.000000,-4.010473,4.720928,4.954056,3.282784,-0.053856,-1.594521,4.992756
-4.998505,-4.992112,-4.998857,4.999818,-4.996366,4.999792,4.998766,4.997783,-1.875763,-4.998355,-4.497803,4.998818,4.999709,-0.050223,0.397553,4.998612
-4.921394,-4.983347,-4.998727,4.996580,-4.993103,4.995795,4.997843,4.997763,-4.504854,-4.994710,-4.766873,4.998051,4.997130,0.059366,0.704060,4.997347
-4.840098,-4.890232,-4.953356,4.995151,-4.829453,4.340921,4.230865,4.469400,0.225545,-4.973308,-4.464555,4.177222,4.995688,-0.113558,3.056815,4.391568
-3.936666,-3.597437,-1.548471,4.987493,-3.738733,4.175654,3.191285,3.052520,4.998668,-0.983273,-4.997840,2.835369,4.803720,-0.104134,-0.612017,3.531307
-5.000000,-4.913364,-4.053137,5.000000,-4.440231,5.000000,4.471662,4.269592,4.781961,-4.933892,-0.060875,4.451519,5.000000,-0.069202,-3.035941,4.731601
-0.890002,-1.454307,-4.508002,5.000000,4.992595,4.999648,2.799750,3.254948,5.000000,-2.206743,2.346165,2.429507,5.000000,-0.011229,-3.147509,4.008835
0.478034,1.451645,-3.230406,4.999750,4.906572,4.998794,4.824159,4.997204,4.502260,-0.357427,2.555254,4.802768,4.999393,-0.046708,-4.156124,4.997502
1.442481,4.303220,2.720036,5.000000,3.435064,5.000000,4.998990,4.999085,0.196090,1.871065,4.599680,4.999028,5.000000,-0.097311,-2.428920,4.999384
2.777734,4.053670,1.878477,1.570253,3.546794,-2.174683,-4.512438,-4.046962,4.830713,2.712029,4.991946,-4.618884,0.761640,-0.046857,-5.000000,-3.780786
0.021056,3.069944,1.573927,0.670559,3.201041,-3.991895,-5.000000,-4.941939,5.000000,1.091437,4.998907,-5.000000,0.930105,-0.072021,-5.000000,-4.835147
1.865861,4.180001,4.043256,3.285535,2.461627,0.941988,-4.133531,-2.715501,4.115035,2.252151,3.926232,-4.838411,5.000000,0.016031,-5.000000,-1.390522
0.644127,2.225216,-0.153344,4.995037,-1.177797,4.993047,4.867957,4.997219,1.710541,-0.403556,1.694405,4.730457,4.995905,-0.114711,0.686504,4.996395
-3.852089,-1.732423,-3.232443,4.999349,-2.601398,4.998012,4.180825,4.997767,3.415847,-3.493223,2.773158,3.870386,4.999608,0.023811,-2.569070,4.997837
0.214823,2.124994,3.856496,-0.104177,1.848856,-3.583083,-0.596467,1.990331,3.681816,2.847575,3.299558,-1.192778,-1.015505,-0.042116,-0.660727,1.791805
2.926770,2.691123,3.710092,-2.891655,2.508174,-4.249761,-4.279601,-3.737824,4.986099,1.457345,4.472745,-3.993029,-3.422356,-0.003518,1.710452,-4.614792
-1.184664,-0.048541,-0.125376,4.985745,-0.201265,4.994680,4.999133,4.998292,-3.968428,-3.778558,2.258575,4.999211,2.039534,-0.049639,4.360591,4.997962
-5.000000,-4.995736,-4.994903,5.000000,-4.999576,5.000000,4.999588,4.999168,-4.996851,-4.996340,-4.998635,4.999603,5.000000,-0.125438,3.585205,4.999503
-4.998365,-4.999429,-4.997964,4.998238,-4.998567,4.996187,4.998844,4.998326,-4.997403,-4.999178,-4.997423,4.999131,4.998406,-0.016305,2.975607,4.997840
-5.000000,-5.000000,-4.997341,4.998248,-5.000000,4.994174,4.995186,4.997331,-4.834811,-5.000000,-4.994506,4.995134,4.998389,-0.012854,4.727646,4.996920
-4.702483,-4.792913,-1.929985,4.982636,-4.484573,4.981870,4.988957,4.989313,2.835179,-1.052153,-4.996565,4.989570,4.982520,-0.105021,4.234000,4.987116
-4.999708,-4.991527,-4.378858,5.000000,-4.778348,5.000000,4.999433,4.999509,4.600940,-4.996748,-1.695037,4.999232,5.000000,-0.025364,1.066122,5.000000
-1.542488,-1.876819,-3.784899,5.000000,-0.368373,5.000000,4.996966,4.873224,-1.230311,-2.630176,-3.132246,4.997178,5.000000,-0.124526,-0.183988,4.996749
-0.896260,-0.017650,-1.373105,4.998520,-0.220643,4.997261,4.995014,4.994221,-3.644999,-0.060201,-3.371716,4.995273,4.998295,-0.020796,-0.644363,4.994803
-1.490438,0.436394,-2.775014,5.000000,-1.525676,5.000000,4.623044,4.998476,0.436972,-1.990772,2.844582,4.904202,5.000000,-0.131617,-1.454932,4.998972
3.842933,4.881804,0.496387,5.000000,3.785503,5.000000,-0.420773,-0.491874,4.999906,2.710304,5.000000,-0.049482,5.000000,0.068870,-5.000000,0.992297
3.746500,4.641680,-0.912009,5.000000,4.876651,2.655553,-5.000000,-4.999312,4.998894,2.685502,5.000000,-5.000000,5.000000,0.040965,-5.000000,-4.895324
4.577907,4.283099,2.700461,5.000000,3.445761,4.999953,4.031229,4.591828,3.923147,4.191546,5.000000,3.958442,5.000000,-0.055672,0.306987,4.997817
4.252291,4.036980,2.486265,5.000000,3.135956,4.999549,4.997943,4.999326,3.290633,2.915562,5.000000,4.936175,5.000000,-0.056646,-1.576372,4.999523
-1.702159,-1.715974,-3.764790,5.000000,-0.321042,4.998387,1.511553,3.382097,3.838998,-0.866607,-1.732926,1.207299,2.766177,0.007231,-5.000000,3.597350
-2.174421,-2.366728,-4.296591,0.371891,0.556495,0.519615,-2.038095,-0.738515,4.999617,-0.989079,-0.399533,-3.094126,-1.333625,0.005233,-3.894674,-0.580804
0.915017,0.391985,0.248434,-1.962887,2.446591,-1.529736,-4.574649,-3.619615,5.000000,-0.570810,5.000000,-5.000000,-2.724901,0.083040,-3.147379,-3.129090
-2.509853,-2.855050,-4.998881,4.987045,-0.326123,4.996187,4.997160,4.996560,4.518525,-4.987223,4.310223,4.996944,4.985101,-0.072316,1.212434,4.996961
-4.999738,-4.998499,-4.998840,5.000000,-4.998361,5.000000,5.000000,4.999621,-3.344273,-4.998488,-1.412925,5.000000,5.000000,0.009701,2.618843,4.999924
-4.996028,-4.998760,-4.999371,4.998265,-4.997559,4.996427,4.998957,4.998141,-4.449740,-4.998087,-2.471298,4.999293,4.998333,0.057486,1.355036,4.997722
-5.000000,-5.000000,-5.000000,4.999028,-5.000000,4.997570,4.998007,4.998165,-2.952674,-4.999712,-3.003360,4.997804,4.999157,0.042790,3.200653,4.997957
-4.763361,-4.992515,-4.671124,3.372216,-4.824142,4.237732,4.998610,4.998885,-3.712739,-3.198335,-4.996984,4.998472,-1.063569,0.045670,4.991146,4.999173
-3.331890,-4.373755,-1.984265,5.000000,-4.078853,4.923089,5.000000,5.000000,-1.326787,-3.085616,-4.318728,5.000000,4.242792,-0.065313,1.861519,5.000000
-2.524441,-0.932140,1.556370,4.989397,-3.501719,4.994851,4.997992,4.993978,-2.959660,-0.923890,-4.667117,4.998971,4.990632,-0.031324,2.878657,4.993017
3.820673,2.597593,2.251323,4.997385,1.093095,4.995946,4.993994,4.993270,-1.208288,2.474703,-4.935394,4.994295,4.997370,-0.010079,0.308999,4.993579
-2.651285,-3.227566,-3.934057,5.000000,-1.852194,5.000000,1.305294,2.275472,4.993593,-3.909544,-2.363513,0.938867,5.000000,-0.047738,-3.775529,3.149144
0.496876,1.800886,-1.531466,5.000000,2.884798,5.000000,-1.257027,-0.232838,4.999972,-0.803277,4.928190,-2.014140,5.000000,0.022526,-5.000000,1.045197
2.246729,3.257019,2.795003,4.999482,2.601653,3.440536,-0.467417,-0.552405,4.780772,4.204562,5.000000,-1.016158,4.999539,-0.057232,-4.999318,2.230944
2.246978,2.589775,4.062416,4.994818,0.725118,4.316478,4.145108,4.759825,4.183479,2.897655,1.738134,3.566928,4.993635,0.022183,2.610976,4.640508
3.922782,3.485702,4.531023,4.999247,2.672504,4.996854,4.409411,4.991092,-1.142752,2.731428,-2.786106,4.148447,4.999195,-0.055530,-3.625166,4.992582
3.207373,2.574482,3.091594,4.999668,4.108758,4.369016,2.309519,4.028595,0.574253,2.265951,-4.387895,1.977646,4.753688,0.007343,-5.000000,4.247704
-0.145386,-3.496440,-0.453361,0.005267,-0.590740,-3.496384,1.301992,2.303333,0.924826,0.972305,-4.581942,1.011484,-1.165485,-0.040268,-1.774736,2.359777
0.490731,-2.718770,-0.987800,-4.971404,0.956099,-1.319547,-5.000000,-5.000000,4.999660,-0.090042,5.000000,-5.000000,-4.990421,-0.076632,-5.000000,-4.217752
-2.787763,-4.721322,-4.190760,2.853319,-1.910780,3.792463,4.129139,4.261300,3.759849,-4.641299,2.795281,3.761428,1.810310,-0.112442,4.286919,4.396010
-4.905804,-4.985886,-5.000000,4.982323,-4.997549,4.992607,4.999043,4.996013,-4.993637,-4.986603,-4.998552,4.999391,4.983340,0.022623,4.280463,4.995721
-4.939723,-4.993995,-4.999088,4.996912,-4.996253,4.995919,4.999600,4.998834,-4.995382,-4.997206,-4.398843,4.999860,4.997182,-0.036533,2.524032,4.998169
-4.883382,-4.992475,-4.999689,4.996496,-4.999132,4.994971,4.997097,4.996958,-4.985998,-4.993919,-3.947603,4.997390,4.996526,-0.053856,3.296801,4.996335
-0.725151,-3.430742,4.009736,0.276642,-3.989631,-1.360768,4.999921,4.999173,-3.044698,3.919332,-4.998623,5.000000,-0.342004,0.081326,4.219506,4.997739
2.075406,-1.638994,4.995842,1.259873,-1.840565,-2.073616,5.000000,5.000000,-0.248218,3.520997,-4.965692,5.000000,0.324833,0.031560,1.520606,5.000000
-0.344548,0.241251,4.687538,2.833431,-4.000714,3.925309,4.993269,4.904759,-2.328444,2.067495,-4.947161,4.996381,-0.563995,-0.099691,5.000000,4.732909
-2.964448,-2.595548,1.698670,4.809043,-4.491822,4.827157,4.996246,4.995548,-0.124977,-1.215433,-4.975053,4.996514,3.777869,-0.040650,2.248464,4.992653
-3.416747,-4.993098,-1.990714,5.000000,-4.969793,4.997535,4.996721,4.996114,-1.920913,-1.631263,-4.996954,4.996861,5.000000,-0.044488,-1.403451,4.996113
2.993178,2.655598,2.524114,0.801957,3.597681,-3.185174,-3.583060,-2.773723,4.971303,2.475651,2.958308,-3.683308,-0.350258,-0.062003,-0.769480,-2.788978
2.948397,3.385432,2.557275,-2.527858,3.003239,-5.000000,-5.000000,-5.000000,4.999602,3.044586,4.625015,-4.999561,-3.419527,-0.029773,0.301009,-5.000000
4.159015,4.405771,3.552250,-1.129085,3.757920,-5.000000,-4.852810,-3.944906,4.999588,2.956889,2.928816,-4.379101,-1.825561,-0.021278,1.660973,-5.000000
4.204369,0.186557,4.555932,4.528750,2.625353,-0.092745,4.995627,4.994119,-1.685483,3.296554,-4.876581,4.995896,3.723689,-0.055992,-0.949185,4.993376
2.264313,-1.750413,3.659418,4.996132,-0.130020,-1.670598,4.998283,4.997431,-1.878862,2.077750,-4.999666,4.998524,4.579248,0.050542,-1.331358,4.996892
-0.100639,-3.529064,1.450101,1.952647,-0.605132,-3.601270,4.997739,4.996585,-1.583903,-0.466244,-4.716174,4.998235,0.663870,0.001031,0.741923,4.995948
2.156989,0.297311,1.394008,-2.997915,1.079579,-5.000000,4.997589,4.991980,-0.785373,-0.013038,2.123077,4.998062,-3.894825,-0.001459,4.796350,4.963702
-2.024775,-4.039856,0.785844,-4.101135,-3.738512,4.313845,4.999141,4.995621,-4.121374,-0.084637,-4.999631,4.999757,-4.488724,-0.130386,4.999700,4.964206
-2.712587,-4.989744,-3.436483,4.871521,-3.046074,4.977086,4.999955,4.997560,-4.827236,-1.181539,-4.999509,4.999997,2.764235,0.055668,4.999835,4.995930
-0.647346,-4.510443,-4.972307,4.995450,-1.160398,4.995427,4.999781,4.998949,-4.997618,-2.364497,-3.868046,5.000000,4.996049,0.022809,4.017318,4.998178
-3.765444,-4.557962,-2.914594,4.882022,-2.969119,4.895372,4.998704,4.998171,-4.984887,-0.558079,-4.516551,4.999190,4.921145,0.022945,4.096683,4.997274
-1.575806,-0.193887,3.240665,0.720713,-4.642941,-1.407604,5.000000,4.999940,-1.009633,0.350549,-5.000000,5.000000,-0.026002,-0.065527,4.317315,4.996852
1.769951,1.286867,4.996970,1.750566,-2.090978,-2.289609,5.000000,5.000000,1.666170,1.541254,-4.727989,5.000000,0.694512,0.015196,1.273028,5.000000
4.297551,4.503151,3.182966,4.597884,4.553534,3.006124,5.000000,4.998009,-3.776538,2.839788,4.510903,5.000000,4.686368,-0.119240,4.998755,4.996956
0.202225,3.044780,0.682224,4.999807,-2.097732,4.999417,5.000000,5.000000,-3.569125,-0.691139,2.527779,5.000000,4.999678,-0.005484,2.701904,5.000000
-1.984666,1.070596,-0.939692,5.000000,-4.014088,5.000000,5.000000,5.000000,-2.643520,-2.696068,4.301694,5.000000,5.000000,0.073608,-0.532230,5.000000
1.625901,2.783511,-0.593240,5.000000,1.353408,4.999252,4.998667,4.997592,-0.425259,1.991075,4.481714,4.998938,5.000000,-0.118978,-0.468937,4.997980
4.568967,4.994237,1.926869,3.628546,4.183545,-2.234756,4.997870,4.078495,-2.229250,4.974815,3.257152,4.998255,3.776269,-0.003335,2.917949,1.795740
5.000000,5.000000,2.509299,4.431026,4.792154,0.732692,4.998223,4.996986,-2.572855,5.000000,2.565136,4.998601,4.725569,-0.061974,4.085587,4.802648
0.639825,-0.348151,0.147918,4.998498,1.160537,4.997766,4.998493,4.997557,-2.556677,0.791630,2.411112,4.998781,4.998316,-0.060288,3.803183,4.997640
2.744001,1.438868,-1.406297,4.997248,1.359217,4.996433,4.999005,4.998388,-1.844353,1.206316,2.270486,4.999137,4.997032,-0.029782,2.731398,4.997875
2.904619,2.653624,-0.545799,4.997912,1.099791,3.979395,4.998861,4.997820,1.719257,0.856776,3.739470,4.999102,4.997674,-0.082591,1.486545,4.997344
2.329853,2.856736,-0.715117,5.000000,1.677102,4.997955,-0.759315,-1.336518,4.943800,-0.750366,5.000000,-0.473692,5.000000,0.000253,-4.072306,-0.438315
3.823745,4.232918,-1.318268,4.993133,3.089024,4.994249,4.997166,4.995778,0.917795,-0.707077,1.698515,4.997588,4.993243,-0.139909,4.997292,4.995306
-4.992720,-4.995496,-4.996221,4.996025,-3.914230,4.995463,4.997641,4.996788,-1.612885,-4.992287,1.706395,4.997945,4.995955,-0.038039,4.875505,4.996432
-2.933848,-2.986868,-4.969680,4.997109,-1.756238,4.996214,4.998670,4.998177,-4.985145,-4.791523,-0.168201,4.999031,4.997622,-0.005540,2.916588,4.997672
-4.876316,-2.889359,-4.817077,4.996693,-2.405809,4.996049,4.998459,4.998473,-4.994555,-1.845126,2.274714,4.998698,4.997119,0.111494,4.644166,4.997924
-1.033498,1.074747,0.558575,2.287067,-1.593217,-0.591741,5.000000,5.000000,2.158876,-0.898779,4.277562,5.000000,2.403657,0.025860,4.038535,5.000000
2.667168,2.544964,1.071798,5.000000,3.647682,-0.966592,3.374583,0.760338,4.721559,-1.388653,4.793337,4.841918,5.000000,0.099705,-2.854546,-1.108508
3.735705,5.000000,4.395023,4.963248,2.932044,2.925552,5.000000,4.999902,-2.573715,4.671280,4.999999,5.000000,4.980872,0.054631,4.306820,4.999762
0.586683,2.957590,2.385763,5.000000,-2.230565,5.000000,5.000000,5.000000,-2.550092,0.904376,4.888092,5.000000,5.000000,-0.032407,0.123266,5.000000
-1.674710,2.338649,1.421417,5.000000,-4.194367,5.000000,5.000000,5.000000,-2.049741,-0.073078,2.633963,5.000000,5.000000,-0.074047,-2.841298,5.000000
1.872303,4.588180,4.816886,5.000000,-1.432519,5.000000,5.000000,5.000000,1.321279,3.881339,1.648169,4.999993,5.000000,-0.063915,-1.386096,5.000000
4.458037,5.000000,5.000000,5.000000,3.909965,5.000000,4.999618,4.999689,2.480589,4.998302,1.488871,4.999686,5.000000,0.027910,4.095443,4.999886
4.793483,5.000000,5.000000,4.997008,4.958672,4.998731,3.790634,3.792482,3.015359,4.999856,4.371570,3.545460,4.997993,-0.005862,0.008000,4.479384
3.139432,2.381428,2.550403,5.000000,4.048536,5.000000,3.851055,4.304490,3.822406,1.316420,3.089732,3.444513,5.000000,-0.051676,0.359510,4.998954
1.505981,-2.561382,0.641364,4.998167,2.552565,4.996307,4.995803,4.995693,4.135207,-1.894371,4.509465,4.995779,4.998077,-0.075895,0.473668,4.995517
2.596846,0.787642,0.341643,4.999780,2.062110,4.435633,3.052234,2.155462,4.335795,-0.668012,5.000000,2.147685,4.999483,-0.072931,-4.736796,4.700626
-2.332721,-1.036910,-1.916296,4.165045,-2.344598,2.942908,-2.379593,-2.522096,3.733833,-4.519987,5.000000,-4.300511,4.241411,0.059319,-4.577372,2.700207
-1.858793,-3.929645,-3.069077,2.949136,-1.850344,2.918075,1.037855,1.507477,2.934667,-2.416816,4.356747,-1.368479,3.079525,-0.062750,-3.590934,2.930543
-3.453224,-4.725452,-3.738501,4.985564,-3.443847,4.990330,4.992080,4.993238,4.421667,-3.635593,1.743750,4.851449,4.986988,-0.030035,2.763356,4.991951
-2.622435,-3.126210,-1.379451,5.000000,-2.430828,3.650791,4.997021,4.997484,-4.576647,-0.919009,-1.813345,4.997042,4.690286,-0.065937,1.079296,4.998230
-3.545729,-2.661462,-2.317861,4.999287,-2.771758,2.716830,4.995819,4.995976,-4.990862,1.392668,-0.395466,4.995908,4.758543,0.036161,4.500218,4.996024
1.214353,3.464445,2.527259,-1.269940,-0.282433,-3.830318,3.666844,2.686962,0.544158,1.756098,1.876932,4.043711,-2.382283,0.027731,2.777078,0.924021
3.600102,3.198638,1.308283,4.858814,4.615528,-0.660033,-0.779438,-4.581345,4.817812,0.301989,4.999581,2.227210,4.358693,-0.015669,-2.173521,-4.273219
0.811944,2.555213,3.343090,4.928830,-0.172441,3.572823,5.000000,5.000000,-3.704507,3.669517,1.993497,5.000000,4.966299,0.054253,4.170137,5.000000
-0.521877,1.570006,3.016742,5.000000,-2.448576,5.000000,5.000000,5.000000,-2.567679,1.134850,0.031525,5.000000,5.000000,-0.036338,-0.952273,5.000000
-1.170059,1.805744,3.431908,5.000000,-3.962087,5.000000,5.000000,5.000000,-2.707667,0.878397,-1.671442,5.000000,5.000000,0.016357,-1.516417,5.000000
-0.915296,-0.292618,1.975666,5.000000,-4.999240,5.000000,5.000000,5.000000,-1.390514,1.986304,-4.108061,5.000000,5.000000,-0.014232,-0.590141,5.000000
-0.853857,-0.880013,3.687341,4.991191,-3.040649,4.998264,4.999790,5.000000,4.026610,2.360569,-4.999316,4.793921,4.992639,0.001579,2.937607,5.000000
1.488743,-0.050876,0.842928,4.100981,1.651487,4.114404,2.703213,3.492792,4.581418,1.325953,-3.011380,1.163262,3.913051,0.009729,1.160600,3.897952
1.736344,-0.551917,0.639132,4.398683,1.708615,4.568836,3.320946,4.186781,4.715109,1.163217,-4.050473,2.831579,3.904748,-0.045855,1.673167,4.400647
0.949631,-4.252127,-3.062351,4.023070,0.573666,3.959380,4.969444,4.943229,4.726134,-1.777196,3.136175,4.974894,3.984781,0.032232,3.964288,4.858124
1.162570,-0.187100,-0.494642,3.417193,-0.126368,0.276141,0.344322,1.169292,4.626410,-1.558627,4.999318,0.008299,3.255670,-0.058884,-0.419640,2.404083
0.191620,0.105140,1.655002,-0.441601,-1.789759,1.039250,-4.836963,-3.903976,4.319285,0.834917,4.999370,-4.999468,-0.934120,-0.011906,-3.852851,-2.436780
1.017922,-1.018838,-2.059699,0.768393,-1.008769,1.404132,0.462448,0.648025,3.793969,-1.802741,-2.381552,-1.273719,-0.517957,-0.113328,-0.770729,0.992846
2.142233,-0.518782,1.553692,2.293090,0.114430,3.581902,2.649273,3.438519,4.449369,2.867590,-4.997645,2.195872,-1.083459,-0.032889,2.992379,3.559018
-1.049088,-2.890658,-0.156114,4.101721,-0.210932,2.464234,4.088627,4.995984,-3.809959,2.430894,-4.998102,3.830432,2.395721,-0.140684,-0.104243,4.996015
-2.550386,-4.062549,-3.079882,1.473914,-1.996374,1.441324,3.993423,4.996107,-3.759428,-0.946047,-4.997392,3.765069,-2.801702,-0.068395,4.617850,4.737984
-0.603343,-0.057142,2.660391,-4.998545,-0.259618,-4.760129,-3.894602,-2.801210,4.738342,1.560428,3.792354,-4.469585,-4.998577,0.002743,3.982973,-2.961850
4.249632,3.043943,2.326045,-0.476745,4.981673,-2.782093,-0.299748,-2.661551,1.346673,0.872824,4.989108,1.558347,-1.385716,-0.060496,0.306929,-4.743638
-1.220019,0.421952,0.171795,4.724482,-1.949319,0.931619,5.000000,5.000000,-4.214529,0.686292,-0.736700,5.000000,2.416309,0.000907,4.999851,4.998804
-2.296733,0.270014,0.285343,5.000000,-4.999692,5.000000,5.000000,5.000000,-3.515593,-1.384981,-3.158619,5.000000,5.000000,0.020956,2.296927,5.000000
3.679882,4.553752,4.422635,5.000000,-0.045328,4.999930,5.000000,5.000000,-1.846438,2.690982,-3.492912,5.000000,5.000000,-0.055666,2.674377,5.000000
2.618690,3.482027,2.256494,2.981868,-0.842687,3.827879,4.054797,4.946146,2.129711,1.823192,-4.999279,2.045959,2.592140,-0.027776,1.034396,4.873841
1.655591,1.992046,3.153190,-1.914244,-2.058068,3.425768,4.501688,4.999427,-4.954701,3.478476,-4.999359,2.813847,-3.324712,0.033469,4.796091,4.984166
3.898221,4.990739,4.082848,-0.589380,1.739874,4.791913,2.970662,4.695541,-0.047675,4.973284,-4.998674,1.409796,-1.992981,0.005376,4.302483,4.995488
3.728296,2.831382,3.007565,-0.200103,1.703771,3.898871,2.437087,3.698805,1.307614,4.560232,-3.920659,1.215622,-2.539984,0.037594,4.887806,4.348952
-4.249737,-4.998871,-4.400966,3.843324,-3.772268,3.364714,4.626274,4.535670,0.475915,-4.398536,0.823833,4.631233,3.733931,0.072810,4.990216,4.306409
-4.042528,-4.999121,-4.770059,3.856189,-1.276494,2.918712,2.427890,1.088313,-0.748096,-4.998801,4.683663,2.281923,3.682494,0.027071,2.496219,2.504458
1.435118,2.520428,1.515088,4.820663,0.202509,4.339074,-0.333920,-0.265481,-1.130471,1.698847,4.354393,-0.768859,4.655933,0.013735,-0.578390,0.905266
-0.647625,0.555110,-1.643516,4.987161,-1.561437,4.992768,4.995785,4.990370,-5.000000,-2.009605,-4.968043,4.996088,4.676891,-0.038276,4.993858,4.990361
-0.557060,0.841610,-3.162634,4.998585,-1.835288,4.999025,4.995065,4.993947,-3.940053,-0.779780,-4.999138,4.994513,3.202799,-0.167787,2.805814,4.995808
-4.812535,-1.535282,-3.116337,4.999635,-2.692771,5.000000,5.000000,5.000000,0.020792,-0.270150,-5.000000,5.000000,4.999863,-0.130249,-0.809656,5.000000
-3.783049,-0.829735,-1.642987,4.993200,-1.369120,4.456488,2.661347,3.666355,1.695575,1.191923,-4.999604,2.341696,2.991935,0.077707,1.591673,3.730129
-0.826856,1.215010,2.827763,-4.997245,-1.215631,-2.035471,-2.280655,-1.318515,4.924751,1.292913,-1.608594,-2.990651,-4.997600,0.072609,1.060791,-1.171251
1.681788,2.280038,2.663270,-2.153156,1.822850,-3.980361,-1.238673,-1.252097,4.984337,0.174271,4.894870,-2.137641,-3.036646,0.052867,0.642123,-1.914404
-4.162210,-2.193614,-3.234200,4.877884,-3.757717,4.142471,5.000000,5.000000,-4.113693,-3.383567,0.433039,5.000000,4.896238,0.059938,4.944729,5.000000
-0.077453,4.359229,2.329060,5.000000,-1.959372,5.000000,5.000000,5.000000,-4.395305,-0.463194,-1.519973,5.000000,5.000000,0.071464,3.028200,5.000000
2.935580,4.995892,2.836580,5.000000,0.752187,4.999712,4.999609,4.999740,1.573841,0.463761,-4.013704,4.197511,5.000000,0.043900,-0.738088,4.999721
4.798345,4.999486,2.284663,2.519418,2.662828,3.543220,3.914386,4.431966,0.254400,2.715494,-4.999553,1.887587,2.721847,-0.002585,1.836135,4.644720
2.196750,3.387356,2.717409,-2.548807,0.512847,3.517088,4.647814,5.000000,-4.999768,3.160505,-4.999799,3.574956,-3.417811,0.077223,4.936239,5.000000
4.957707,4.988041,4.996273,-1.628735,4.222162,3.204032,2.159084,3.665047,2.155255,4.921437,-3.033761,0.894823,-2.544521,0.036877,4.713930,4.232390
3.183146,4.600817,3.459319,-1.855933,3.010807,1.511697,1.854020,3.321250,3.961953,4.382887,-0.398507,1.034000,-3.540339,-0.011037,4.985383,3.522513
-3.511859,-4.999613,-4.999217,2.842447,-1.275931,2.784888,4.672589,4.160441,2.067818,-4.999999,4.999115,4.734388,2.822018,0.014283,4.999070,4.268079
0.025909,-1.486200,-2.576156,1.852071,1.740145,-5.000000,-3.295426,-4.283924,1.823602,-4.305953,4.999605,-2.725071,2.614543,-0.030866,3.173752,-4.640380
4.155647,4.345455,3.459111,-2.906706,4.402380,-4.995751,-4.929221,-5.000000,1.059292,2.864227,4.999556,-4.747001,-3.759525,0.015467,4.284365,-5.000000
3.285018,3.166494,-2.244181,2.666999,5.000000,1.927155,3.670026,3.023222,-4.274501,0.700640,-1.829590,3.927946,1.067609,0.121565,4.245052,2.806535
-1.885106,-0.756540,-4.181342,5.000000,-0.189065,4.908411,4.999954,4.999105,2.951599,-1.256013,-4.787047,4.999881,1.926131,-0.027928,2.679726,4.999758
-4.239074,-3.786628,-4.698578,4.999829,-3.355295,5.000000,5.000000,5.000000,4.169473,-2.677448,-5.000000,5.000000,5.000000,0.047415,-0.668205,5.000000
-2.097879,-0.926268,-2.357508,4.647933,-0.139759,4.223645,1.636855,2.609597,3.447051,-0.199168,-4.999602,1.297536,3.056166,-0.035317,2.013274,2.768023
2.365455,3.146235,3.861321,-4.999410,2.392960,-3.006183,-3.808156,-2.893522,5.000000,2.317087,-2.807338,-4.506859,-4.999452,0.009612,0.043959,-2.789221
1.113699,2.481123,3.058035,-2.058297,1.731536,-4.000004,-4.808546,-3.412781,4.997440,0.550829,4.977792,-4.999756,-2.950119,0.009808,-0.308784,-4.154243
-2.879086,-3.475676,-1.549852,5.000000,-1.880193,3.256776,5.000000,5.000000,-1.725877,-1.871712,4.093735,5.000000,5.000000,-0.014357,3.975383,4.781715
-1.468308,-0.156526,1.541568,5.000000,-3.020386,5.000000,5.000000,5.000000,-4.997885,-0.153664,-3.208858,5.000000,5.000000,0.029818,4.994148,5.000000
4.570224,4.996669,4.994605,3.702956,4.325032,4.993029,3.675175,3.849327,-2.501208,4.949897,-4.514762,2.645307,3.226036,-0.050535,4.998603,4.991947
4.996604,4.998905,4.998079,1.003728,4.998952,2.558840,0.235831,1.251099,1.554876,4.997955,-5.000000,-1.508335,1.286316,-0.024358,0.093192,3.249564
2.398782,2.486368,3.055720,1.155702,1.203875,2.846469,4.915393,5.000000,-1.094490,3.219079,-4.999795,3.131797,1.689782,0.079485,4.996608,5.000000
0.850375,1.972660,0.358561,2.096869,0.642196,3.042694,2.989463,4.727100,2.176392,0.922545,-2.795090,1.014273,2.301200,-0.003294,-1.550062,4.999825
-1.018225,-0.579886,-2.222987,1.143566,-0.107333,2.212039,1.938646,3.535421,2.509315,-2.014360,-1.374358,0.345065,1.443893,0.019333,-0.040629,4.731102
3.835050,-1.259566,0.265452,-1.406333,4.289539,0.090649,-3.536628,-3.044644,0.850939,-0.920163,3.164767,-3.756840,-1.018014,0.107920,4.083035,-1.499911
3.284516,-0.455419,-0.673025,-2.275868,3.435397,-4.173972,-5.000000,-5.000000,1.992098,-0.937630,4.410514,-5.000000,-1.930228,0.081205,3.185248,-5.000000
2.988573,0.848428,0.277586,-2.909048,4.686892,-1.355492,-5.000000,-5.000000,1.679632,-0.178808,2.939664,-5.000000,-1.924850,0.003483,-0.136593,-4.710307
3.524803,0.991868,-2.518074,2.139579,4.995479,2.391459,-0.420811,0.412675,1.670662,-1.382345,0.971684,-1.334387,2.137460,-0.005193,0.182310,1.074188
-2.059339,-3.252695,-4.998498,4.936406,-0.963680,4.991427,4.996222,4.995540,2.531967,-2.993441,-3.163696,4.996398,4.974276,-0.035110,4.998530,4.994821
-4.957388,-4.903167,-5.000000,4.969233,-4.995753,4.999874,5.000000,5.000000,-4.998802,-4.014551,-4.997099,5.000000,4.997190,-0.034692,4.999956,5.000000
-4.094763,-4.354044,-4.579210,3.385440,-4.188350,3.997211,4.996162,4.996570,-1.138819,-3.195174,-4.983679,4.996280,2.660342,-0.003667,4.997682,4.996100
2.670559,-0.730222,1.984913,-4.997744,4.236969,-4.068101,-4.906527,-4.550833,5.000000,0.026474,1.670209,-5.000000,-4.997885,-0.145877,1.533390,-4.209705
2.235134,1.276854,2.043117,-2.031301,5.000000,-4.229991,-4.999703,-4.999764,5.000000,0.268557,4.995081,-4.999791,-2.911537,0.066281,0.399773,-4.999395
-0.462586,-3.149044,0.589953,4.995250,-0.703540,0.884251,2.322079,0.498103,1.756628,0.712391,5.000000,3.287080,4.996148,0.052834,0.696132,-0.133819
0.553995,0.612304,1.380820,1.541334,-0.357683,-1.641964,1.781160,-0.061675,-2.338615,2.183918,2.162734,2.408381,2.773640,0.109543,2.279900,-0.533046
3.125062,4.993520,4.120544,-0.180286,1.693604,0.952682,0.360772,0.152045,-4.997169,4.950868,-3.976051,-0.048450,1.310309,0.005319,2.302467,0.479757
4.914500,4.998235,4.895046,0.684316,3.216119,4.460419,0.413809,0.504154,-4.846350,4.997165,-5.000000,-0.740515,2.431025,0.039922,1.927129,1.576668
4.810948,4.999858,4.995359,2.189570,2.041067,3.670911,0.893560,1.586870,-5.000000,4.998266,-5.000000,-1.006782,2.309329,0.062244,1.423552,3.777017
4.999767,5.000000,4.999331,1.226354,2.700537,2.942809,-1.344675,-0.387396,-3.507337,4.999326,-4.999730,-3.693292,1.396242,-0.076216,-0.993031,3.023279
2.897710,1.247268,3.809796,-0.116373,-1.676041,1.939898,-1.765869,-0.904356,-1.804804,2.938626,-4.999724,-4.453344,0.203044,0.095727,0.052792,4.375211
5.000000,1.601351,3.154718,-4.081586,4.637161,-1.235192,-5.000000,-4.356584,-1.020388,3.130423,-4.998568,-5.000000,-3.607250,0.064317,3.055627,-1.302465
5.000000,0.616230,1.616913,-4.999567,5.000000,-3.399331,-5.000000,-5.000000,-0.345327,1.439675,-4.996123,-5.000000,-4.999380,0.002781,3.319991,-5.000000
0.688811,-2.569103,-1.152923,-4.998630,0.788537,-2.658806,-5.000000,-5.000000,-0.687994,-1.514954,-4.993246,-5.000000,-4.998416,-0.066960,1.691739,-3.373671
-1.392626,-2.798067,-2.799004,-3.317449,-3.036912,-0.330886,-3.860332,-1.842333,-0.990327,-1.355844,-4.992596,-5.000000,-2.969978,-0.114632,0.909942,3.260814
-1.403125,-1.993945,-1.574081,1.359024,-3.014787,3.053911,4.667548,4.989914,-3.561819,-0.031180,-4.992944,4.461564,1.561896,-0.116882,4.800818,4.974166
-2.876308,-2.230521,-1.675157,3.975533,-4.757411,4.997470,4.995751,4.996630,-4.991576,-1.048454,-4.994215,4.995709,2.056178,-0.176354,4.990432,4.996494
-4.394361,-3.134212,-2.619894,4.599590,-4.855055,4.997644,4.996360,4.996888,-4.991032,-2.580058,-4.995859,4.996504,0.594170,-0.084658,4.988812,4.996793
-1.350326,-0.587380,1.154550,-2.198613,0.277145,-3.482672,2.470137,2.301766,-3.673929,-1.461338,-4.232174,2.806317,-3.301378,-0.017179,4.994128,0.241603
-1.932290,2.238459,-0.109798,1.796689,1.937226,-1.439429,-3.605699,-4.281887,0.324758,-1.121910,4.857034,-3.249174,0.631822,0.047420,1.425658,-3.894733
-5.000000,-5.000000,0.202294,-2.401143,0.371126,-5.000000,1.979352,5.000000,-1.768338,-0.314021,5.000000,-0.090108,4.891631,-5.000000,5.000000,1.627152
-4.669040,-5.000000,0.005351,-0.197471,0.170858,-5.000000,1.534159,4.864359,-0.818962,-0.272259,5.000000,1.699943,2.243943,-5.000000,5.000000,1.271563
-4.999484,-4.266703,-0.037761,-0.406326,-0.277356,-4.950759,0.019705,4.999616,-2.678074,-0.143979,4.999514,-0.659723,2.204855,-3.885907,4.999322,1.173761
4.931302,4.919575,-0.134255,4.105587,-0.064660,4.300980,4.998143,-1.931993,2.815555,-0.021926,-4.222941,4.962036,4.966908,4.958206,1.904065,3.736903
-4.962644,-5.000000,-0.012165,2.136085,-0.298832,-5.000000,1.849035,1.346097,-3.675203,0.005657,4.989298,-0.943259,3.799981,-5.000000,5.000000,1.096471
4.244683,3.464311,-0.175665,0.889022,0.052349,4.088079,1.826824,-2.762218,4.894487,-0.303951,0.888634,0.341053,1.522407,3.024176,-1.776359,-1.168627
1.931505,4.173984,-0.109229,0.497344,-0.064272,4.642320,-3.298283,1.849735,4.634961,0.268059,1.880602,-2.437547,-2.999222,3.958489,-0.476888,-3.532448
1.469947,4.457622,-0.078210,-0.811795,-0.324578,4.716696,-4.416123,1.416843,4.589959,-0.084432,0.745182,-3.738925,-4.182278,4.118835,-0.302232,-4.772875
4.677296,-4.998648,-0.063903,4.999342,-0.194159,-4.999342,4.999430,-4.998508,-2.254246,-0.293631,-2.672136,3.822523,1.092633,-4.999251,4.998079,0.971801
-4.997779,-4.999632,0.013747,-3.732469,0.039292,-5.000000,2.069888,4.999142,-0.512378,-0.209332,4.996607,1.659759,3.416347,-4.999761,4.997644,1.197503
4.111514,-4.516471,-0.222574,4.765594,-0.178695,-3.779538,2.553333,-3.034375,-2.158956,-0.306719,-1.964123,3.948210,0.916758,-4.076287,4.406150,1.165766
2.220043,3.879328,-0.340888,0.527974,0.126759,4.315199,-2.262490,2.645863,4.683829,-0.174471,1.816298,-2.081384,-2.368667,3.664972,-0.515746,-2.902825
4.600537,4.982574,-0.252831,3.191973,0.061687,4.997011,4.955162,-1.137719,3.251841,-0.264414,-4.259984,4.968588,4.962693,4.979790,2.601990,4.159417
0.324135,-0.196162,-0.080585,-0.067878,-0.073671,0.001389,-0.356228,-0.153408,-0.034891,0.285529,-0.220879,-0.325420,0.171263,-0.055034,0.244056,0.523545
-3.913199,4.480847,-0.251182,-4.759611,-0.150457,4.684528,-4.778293,4.750471,4.714811,-0.070812,4.525714,-4.700896,-4.772011,4.302644,-0.313284,-4.966682
1.978986,4.371420,0.162824,-0.147800,-0.218389,4.716690,-3.919138,0.771381,4.683538,0.035628,0.876596,-3.118763,-3.661313,4.158776,-0.523701,-4.070743
-0.138279,-0.345456,-2.021632,0.849143,-0.938004,0.785809,0.056424,1.296166,0.756316,0.352169,0.324300,0.269978,1.104931,0.426873,0.285992,-0.285326
0.544001,-0.337338,0.140330,1.051924,0.080177,-1.053641,-0.143467,-0.896095,1.172004,1.077285,0.281219,-0.966894,-0.446891,-0.419669,-0.358177,-0.224638
0.065897,-0.148984,0.117582,-0.271106,-0.132659,0.229530,0.067722,0.316258,-0.323337,0.164951,-0.152299,0.018069,-0.217000,-0.245764,0.090604,0.338617
0.057727,-0.156813,-1.196312,0.151481,-0.497114,0.200130,-0.334325,0.810665,-0.145615,-0.278839,0.251359,0.761284,1.107597,0.473333,-0.070082,0.237984
0.065695,0.306338,-0.244128,-0.101857,0.030129,-0.057090,-0.010587,-0.355060,-0.024843,0.355692,-0.320650,0.103618,-0.022193,0.304345,0.056715,-0.149977
0.110840,0.252145,-0.147069,0.489383,-0.067861,-0.712682,-0.194891,-0.615295,0.456526,0.275911,0.284693,-0.473640,-0.158311,-0.144633,0.079676,-0.009298
-0.086545,-0.043123,0.512837,0.095358,-0.421565,0.594486,-0.322486,0.873049,-0.784757,-0.343392,-0.135543,0.229519,0.910940,0.009549,-0.270487,-0.121770
0.915802,-0.253072,2.244012,-0.065158,1.017641,-0.087072,0.154531,-0.716245,0.899305,0.927204,0.377349,-0.360453,-1.329022,-0.190968,-0.193294,-0.088738
0.010929,-0.242451,0.638499,0.529125,-0.986289,-1.095886,-0.144825,-0.634345,0.119117,0.307386,-0.171832,-0.512434,0.272122,-0.099131,-0.582440,-0.155710
0.226847,-0.180009,0.239758,-0.095847,-0.296022,0.182255,-0.280550,0.254823,-0.070001,-0.313336,0.066766,-0.131507,-0.045733,-0.113990,0.269896,-0.073333
-0.340386,0.035500,3.559003,-1.633472,0.577557,-0.618736,-0.345103,-0.938749,-1.632731,-0.052955,-0.302373,-0.673703,-0.777828,-0.033899,0.141547,0.137879
0.423921,-0.229931,-0.692102,0.010281,0.342296,1.028088,0.308400,1.420680,-0.238698,0.731690,-0.241869,0.076185,1.291902,0.594741,-0.319061,-0.230712
-0.135492,0.172578,1.205556,-0.508564,0.232144,0.908606,-0.339748,0.812294,0.107098,0.222395,-0.342752,0.275436,0.051413,-0.573515,0.015343,-0.084514
0.612792,0.026268,-0.175430,1.130230,-0.477890,-1.926416,0.011463,-1.847187,0.801972,2.161578,-0.225886,-0.843630,-0.757672,-0.325038,-0.422319,-0.352321
-1.178734,0.048265,1.446590,-1.634867,0.483484,0.355184,-0.265251,0.713135,-1.828348,-1.361301,0.093483,-0.067144,0.310840,0.507119,0.182140,-0.350614
0.210112,-0.252757,0.105415,0.452864,0.942502,0.956457,0.101657,1.151208,-0.258040,-0.207854,-0.067988,-0.180936,0.288964,0.047477,0.031024,0.114300
-0.195999,0.363645,0.225237,0.131681,-0.431403,-0.245603,0.098213,0.484613,0.321278,-0.660523,-0.001482,-0.344849,-0.214848,0.488340,0.219653,-0.174866
-0.064228,0.099394,0.283419,0.305347,0.120966,-0.029627,-0.185595,-0.058125,-0.168281,0.277667,-0.016687,-0.142451,0.227941,-0.103768,0.165850,0.216004
-0.018350,0.542191,-0.233440,-0.203254,0.454346,-0.337745,0.408574,0.174319,-0.939900,0.007777,-0.738110,-0.368917,0.249372,-1.182798,-0.199167,-0.250756
-0.344139,-0.193858,-0.248532,0.155075,-0.613149,-0.118744,-0.185167,-0.290126,0.406236,0.004482,-0.684082,-0.611427,-0.409135,0.527714,0.486956,-0.170671
0.246225,0.750065,0.574093,0.063461,0.491737,0.106429,-0.158596,-0.136775,0.791036,0.195791,-0.616288,0.172870,0.195067,-0.050705,0.359560,0.082719
-0.101844,0.601437,0.372217,0.578948,0.264717,-0.100657,0.128101,-0.261176,0.134304,0.063497,0.627366,0.415018,0.590874,0.201228,0.089909,0.244093
0.171311,0.356476,0.290057,-0.224153,0.256763,0.278315,0.305204,0.056497,-0.038829,-0.214679,0.221336,-0.293801,0.242970,-0.090622,-0.160174,-0.234525
-0.328009,-0.012989,0.333591,0.564798,0.212485,0.138049,-0.039917,0.143010,-0.047954,0.027634,0.809766,0.347339,0.348266,0.142440,-0.309163,-0.232534
-0.170523,0.149784,0.415075,-0.194091,-0.135416,-0.309156,0.164669,-0.551430,0.391311,-0.486231,-0.601664,-0.589240,-0.284837,0.331891,0.690677,-0.141118
0.270547,0.115415,0.481208,-0.622901,-0.450557,0.190911,-0.066390,0.232288,0.037950,-0.864412,-0.741961,-1.157101,-0.611634,0.311609,0.573701,-0.047515
-0.322086,0.191917,-0.253887,-0.033830,-0.182366,0.142199,-0.097590,0.132407,0.290788,0.018862,0.289155,0.086497,-0.321275,-0.025501,0.514759,-0.083437
0.283995,-0.270563,-0.433834,0.452113,-0.035913,-0.227002,0.332727,-0.247083,-0.290769,0.144921,0.348388,0.209718,0.595781,-0.240618,0.039984,0.255109
-0.063706,-0.302241,0.494747,-0.156153,-0.137339,-0.347750,-0.609637,0.029484,-0.222087,-0.114310,0.816762,0.066417,0.324040,0.550645,-0.064933,0.273835
-0.082847,0.070531,-0.478675,-0.080009,-0.097196,-0.027383,-0.279162,0.522648,-0.498531,0.312396,0.112473,-0.024891,0.110354,0.421423,-0.297186,-0.117535
0.006567,-0.296003,-0.273628,0.084962,0.515230,-0.349276,0.061486,-0.249456,0.225450,0.354083,0.006286,0.118090,-0.085837,0.235351,0.088747,0.466367
0.328289,0.106797,0.223744,-0.159607,0.157074,-0.225668,0.111773,-0.304608,0.077011,-0.079468,-0.097476,0.235404,-0.131020,-0.143195,0.024702,-0.321448
0.081026,-0.101064,-0.004501,0.001654,0.240954,-0.098193,0.370482,0.286464,0.031794,-0.134075,0.211056,-0.179743,0.034028,0.050674,0.050821,-0.030380
0.159089,-0.218227,0.004126,-0.249278,0.389721,-0.616835,-0.016690,0.335097,0.170515,-0.413386,0.180117,-0.679566,-0.524952,-0.002777,0.115053,0.212919
0.224546,0.195468,0.055640,-0.304368,0.261284,-0.156338,0.687617,0.012887,0.059280,-0.607887,-0.015510,-0.811182,-0.622357,-0.417070,0.072658,-0.319382
0.581267,0.352595,-0.292776,0.048548,0.087262,-0.042206,-0.266889,-0.141535,0.532761,0.476337,0.185269,0.416610,0.209106,0.027966,0.117695,-0.193558
0.020578,-0.201137,-0.051264,-0.159539,-0.363949,0.238918,-0.107908,0.090476,0.044931,0.010106,0.452707,0.537909,0.126287,0.388387,0.234841,-0.148583
0.165406,0.041355,-0.041107,-0.094497,-0.064934,0.143189,0.152951,0.190068,0.054469,0.287382,0.308051,-0.048422,-0.080730,-0.257220,-0.127227,-0.295541
-0.166744,-0.396852,-0.268692,-0.335174,0.088590,0.099169,0.448213,0.130802,0.039719,0.211008,-0.053780,-0.332309,-0.004626,-0.004445,0.259338,-0.169375
0.554731,0.057368,0.198346,-0.235391,-0.109530,0.272667,-0.039334,0.062232,0.411295,0.022213,0.064230,-0.006488,0.145443,-0.184656,0.311943,-0.206015
0.284917,-0.310040,-0.079389,-0.316477,0.403703,-0.396633,-0.112015,0.023956,-0.852251,-0.306286,0.234923,0.034319,0.097832,0.344503,0.576269,-0.162688
-0.214889,-0.157578,-0.332951,0.343074,-0.041390,0.432138,-0.043802,-0.164754,0.077379,0.141996,0.497738,0.514353,0.041290,0.026960,0.441223,-0.339962
0.065406,0.472611,-0.230914,0.252492,0.203341,0.696830,0.364072,-0.245037,0.217990,0.581657,0.159903,0.328973,0.119924,-0.070669,-0.503753,0.193887
-0.187364,-0.088799,0.220775,0.142388,-0.091859,0.717404,-0.322732,0.254181,-0.192030,0.154687,0.092393,0.527515,0.140582,0.341996,0.318041,-0.188033
0.177107,-0.286742,-0.091811,0.099451,-0.186448,0.130522,0.159997,-0.094122,0.229755,0.641172,0.355519,0.166813,0.416223,0.037968,0.251872,-0.151984
-0.047485,0.726065,0.017889,-0.081227,0.276507,-0.116645,-0.347848,-0.550672,-0.024373,0.238908,0.062456,-0.360933,0.221511,0.023235,-0.021152,0.063510
-0.401155,0.275403,0.049689,-0.059042,0.227833,-0.429445,0.166908,-0.519792,-0.028143,-0.328617,-0.434256,-0.608557,-0.356532,-0.005358,-0.103640,-0.170220
0.013152,0.247705,0.193131,0.256077,-0.312094,0.055592,0.081124,-0.259049,0.247225,0.236932,0.134992,0.330476,0.337829,-0.198434,-0.004514,-0.290520
0.384152,-0.397837,-0.131732,-0.311937,0.019687,0.100285,0.308253,-0.322950,-0.118422,-0.372968,0.239769,-0.464062,-0.306956,0.112954,0.219619,-0.138045
-0.265958,-0.037807,0.014018,0.157951,-0.001061,0.271606,0.339440,-0.641424,-0.309991,0.246768,0.269796,-0.344013,-0.212165,0.049404,-0.137801,0.303789
0.189106,-0.181239,0.060986,-0.107492,-0.117272,-0.252540,-0.055478,0.195124,0.057532,0.284734,-0.289116,0.296445,0.337520,0.110417,0.307218,0.038445
-0.274172,0.314218,0.128285,-0.214914,-0.066111,0.381371,-0.288262,-0.279402,0.338765,-0.154837,-0.297357,0.456753,0.315174,0.276481,0.146681,-0.007768
0.220288,-0.232582,-0.394127,-0.322870,-0.157043,-0.284256,0.399734,0.342056,-0.353041,-0.216057,-0.257108,-0.313428,0.343962,-0.320267,0.032143,-0.138191
0.327761,-0.378959,-0.319204,-0.231925,-0.249785,0.332464,0.091149,-0.378421,0.030319,-0.205588,0.296842,0.596849,0.028380,-0.280178,0.681662,-0.069203
0.572761,-0.194766,0.029563,-0.462028,-0.361268,-0.192329,-0.419151,0.251094,0.214029,-0.251197,-0.170939,-0.070993,0.093919,0.030417,-0.363110,-0.044855
0.235224,0.025448,0.210301,0.105481,0.360508,-0.054621,-0.498159,-0.363575,0.327232,0.242627,-0.123725,0.140809,-0.486750,-0.144525,-0.126831,0.206165
0.053243,-0.191708,-0.038167,0.081401,0.201584,-0.271096,-0.244259,-0.582048,-0.353552,-0.148236,-0.124106,-0.143906,0.530655,0.053445,0.219156,-0.331397
0.117292,-0.137822,0.123904,0.149150,-0.225883,0.306514,0.031852,-0.419769,-0.157320,0.314059,0.016955,0.225504,-0.043903,0.309026,0.627109,-0.253965
0.560890,0.434939,0.075190,0.345733,-0.146381,0.028088,-0.034664,0.234980,-0.313948,-0.181565,0.208044,0.337768,-0.328867,-0.337694,0.051928,-0.139194
-0.325258,0.252129,0.153126,0.597681,0.320075,0.410154,-0.330228,0.256678,0.213288,-0.204833,-0.145827,0.794676,0.062410,0.074248,0.516450,0.144188
-0.167499,0.149898,-0.024974,0.313169,-0.209972,0.206103,-0.060324,-0.040375,-0.171121,0.004696,0.249873,0.646486,-0.060179,-0.099741,0.112668,-0.221742
0.178108,0.367060,-0.059846,0.179406,0.407152,0.235699,0.081918,0.341924,-0.312012,0.319960,-0.238790,0.454337,0.143118,-0.103174,-0.146088,0.380446
0.233715,0.329208,0.352268,0.381129,0.342151,-0.366085,0.274039,0.458372,0.193674,-0.292335,-0.429107,-0.212883,-0.243075,-0.143945,0.308768,0.035087
-0.337967,0.188035,0.137402,-0.255004,-0.056607,-0.042665,-0.018758,-0.258832,0.117660,-0.265632,-0.339550,0.233366,-0.091054,-0.213261,0.042488,0.334566
0.534974,-0.064706,-0.325198,0.043614,-0.000501,-0.024084,-0.244465,0.007727,0.358207,-0.155157,0.237725,0.222820,-0.502019,-0.437378,-0.031625,0.088010
-0.043158,-0.003901,-0.040366,0.387295,0.286279,-0.110334,0.350509,0.003175,0.120534,-0.082956,0.406409,0.504121,0.259787,-0.134576,0.413245,-0.270872
0.181044,0.236515,-0.135630,0.343668,-0.270497,-0.124531,0.072390,0.065700,-0.083837,-0.321404,0.186562,0.247810,0.133759,0.206416,0.188564,-0.043822
0.479171,-0.183342,0.221389,0.234146,0.383737,0.414955,0.424631,0.009460,-0.116120,-0.083233,0.211627,0.149564,0.465896,-0.278808,0.291246,-0.084897
-0.219408,-0.098222,-0.288259,-0.166307,0.400272,-0.352841,0.359691,-0.092702,0.166865,0.130749,-0.045351,0.216587,-0.410441,-0.253265,-0.063236,0.258358
-0.025882,0.309568,0.112338,-0.329508,-0.136965,-0.201942,0.378826,-0.246181,0.151529,0.297827,-0.132178,-0.219913,0.588906,-0.049671,-0.085062,-0.079562
-0.173901,-0.057239,-0.533742,0.067369,-0.380900,0.304042,-0.252406,0.103054,-0.552305,0.408921,0.023302,0.037689,-0.263866,0.289632,0.034999,0.400439
-0.324120,0.020015,0.014502,-0.485203,0.461091,-0.541217,0.296266,-0.228180,0.127759,0.016708,0.095639,0.588228,-0.464147,-0.190165,-0.322881,0.074967
0.191665,-0.022840,0.089696,-0.141103,-0.111836,0.180105,-0.061964,-0.292803,0.322466,-0.012628,-0.351122,-0.232293,0.049764,0.198552,0.229912,0.117569
0.263922,0.012014,0.204523,-0.298616,0.024345,0.121349,0.350906,-0.230505,0.313921,-0.192603,-0.271777,0.322589,0.201994,-0.046716,-0.255037,-0.412237
-0.090834,0.302143,0.264789,-0.087570,-0.122779,-0.042691,-0.146135,-0.066538,-0.272190,-0.023440,-0.029316,0.191305,-0.179446,0.270218,-0.262231,0.025973
-0.023077,-0.181646,0.631752,0.418222,-0.115274,-0.003994,0.526477,-0.047849,0.257671,0.172323,-0.209336,-0.206865,0.780097,0.092777,0.320876,0.303483
0.152023,-0.105939,0.381912,-0.261134,0.220297,-0.237341,-0.335193,0.020829,0.073897,0.391644,-0.024455,0.464460,0.004013,-0.337681,-0.191091,-0.450370
-0.053419,-0.075436,0.071610,-0.082387,-0.323518,0.266611,-0.234781,-0.022481,-0.063217,0.294169,-0.309135,-0.136187,-0.008832,-0.149390,0.004207,0.184021
-0.183296,-0.011839,0.224457,-0.357946,-0.462227,0.461061,-0.031409,-0.309295,-0.022541,0.415497,-0.187596,-0.303058,0.292989,-0.019159,-0.435566,0.122030
0.213665,0.090998,-0.314410,0.169624,-0.212357,-0.006911,-0.006959,0.329330,-0.198047,-0.270166,0.292290,0.245398,-0.060022,0.449687,-0.096390,-0.086492
0.024870,-0.219970,-0.021644,0.423669,-0.313417,-0.107095,0.135908,-0.262080,-0.043425,0.409795,0.460848,-0.097770,-0.258835,-0.239996,0.146572,-0.102418
0.189713,0.160011,0.038051,0.250729,-0.329758,0.183445,-0.313249,-0.243364,-0.269138,0.126566,-0.002379,0.218770,0.175585,0.026983,0.115292,0.158641
-0.272585,0.062343,-0.199586,-0.103265,0.413189,0.631974,0.186279,0.142818,0.305358,-0.008097,0.088944,-0.166971,0.275446,0.212574,0.021315,0.297680
0.063398,-0.316208,0.382647,0.142491,-0.356549,0.443882,-0.015609,0.184062,-0.090762,-0.104271,-0.026381,-0.101504,-0.210856,0.198222,0.382006,-0.182996
-0.084939,0.186410,0.070925,-0.133646,0.357624,-0.187547,-0.349726,0.112720,-0.161535,0.579907,-0.011398,0.135077,-0.249322,-0.041992,0.250247,0.390649
-0.265802,-0.164069,-0.233184,0.507043,0.007703,0.092151,0.144552,0.024219,-0.209822,-0.164404,0.319578,0.309348,-0.227170,-0.032283,-0.344857,-0.151803
0.042235,-0.305961,0.371580,-0.194661,0.355993,0.516734,-0.206224,0.141463,0.400140,0.160429,0.201627,0.036625,-0.137753,-0.283716,0.259798,0.476932
-0.325211,0.179830,0.033657,-0.090471,-0.110214,0.063655,-0.003133,-0.002110,0.024137,-0.224828,-0.344183,0.112736,-0.326391,-0.055286,0.150150,0.056317
-0.093840,-0.127801,0.201594,-0.125890,-0.150345,0.197633,0.127848,0.223935,-0.031040,0.152930,0.000672,-0.213523,-0.168782,0.117702,0.343412,-0.303185
0.228834,-0.029158,-0.443432,0.041799,-0.089965,-0.149239,0.099641,-0.044053,-0.056412,-0.157096,0.386997,-0.236562,0.061181,0.406245,-0.139773,0.335324
-0.293462,0.255679,0.279304,0.049719,0.237339,-0.269367,0.001236,0.228610,0.135273,0.137989,-0.121499,-0.053567,-0.085725,-0.086653,0.014337,-0.096116
0.050708,0.373545,0.508409,0.384595,0.329470,-0.556499,0.280619,-0.285850,-0.205809,0.041442,-0.307961,-0.532707,-0.095177,-0.284667,0.295481,0.316651
-0.244728,-0.185428,-0.268692,-0.123701,0.334166,0.653409,-0.157748,0.558555,0.515585,-0.075467,-0.320583,0.213428,-0.122036,-0.237718,-0.171933,0.140287
0.096653,0.331081,-0.162348,-0.197826,-0.031890,0.391216,0.309451,0.372281,-0.097991,0.268778,-0.087816,0.162338,0.241791,-0.242326,0.401432,0.104775
0.209761,-0.056274,0.091556,-0.339011,0.223644,0.532583,0.269445,-0.130879,-0.228157,-0.038815,-0.298912,-0.212906,0.064197,-0.250605,0.492187,0.412772
-0.036701,-0.328405,-0.347256,0.394197,0.520746,-0.072151,-0.279986,-0.200774,0.169693,0.286611,0.036974,0.081175,0.048577,-0.144938,0.048619,0.163997
-0.203899,-0.282801,0.127570,-0.109237,-0.024377,-0.281552,-0.105873,0.083555,0.336427,-0.096488,-0.258026,0.030636,0.275162,0.309039,0.008432,-0.250959
0.118376,-0.268836,-0.012832,-0.074271,-0.442838,0.227347,-0.237191,-0.130410,-0.108656,-0.087034,0.224854,0.177240,0.247372,-0.191601,0.128308,0.370711
-0.160661,-0.435921,0.425149,0.301490,0.074821,-0.553098,0.243419,-0.151366,0.215569,-0.184078,0.077178,-0.017260,-0.332623,-0.182055,-0.184637,0.219167
0.073125,0.057975,-0.377146,-0.252430,0.500296,0.250224,0.475489,-0.199603,0.135417,-0.112012,-0.289532,0.032699,0.074527,0.584665,-0.043486,-0.212603
0.062622,0.117918,0.101321,-0.050113,-0.280080,0.649231,-0.208385,0.306316,0.215225,-0.101642,0.065777,-0.263082,-0.188211,-0.208209,-0.328941,-0.236393
-0.122703,0.220776,-0.299162,-0.277871,-0.346986,0.909456,-0.060058,-0.072809,0.108708,0.240045,-0.498156,-0.320129,-0.120476,-0.138283,-0.072217,-0.051157
-0.117401,-0.265412,-0.328590,-0.123240,-0.133450,-0.076362,0.048287,0.173734,-0.169321,0.156286,0.421398,0.014112,0.099743,0.245910,-0.282599,0.121072
-0.345191,-0.226977,-0.011345,0.262757,0.022647,0.492886,-0.033872,-0.262847,-0.298953,-0.329695,-0.130091,-0.006630,-0.101030,-0.078042,-0.204568,0.023337
0.097695,0.041426,-0.235705,-0.332952,0.133533,-0.090184,-0.312658,0.080326,-0.355084,0.156412,-0.431946,0.280446,0.153147,0.079434,0.245296,-0.254379
-0.151434,-0.442701,0.299058,-0.294564,0.216598,-0.036387,-0.155153,-0.151124,0.189058,0.061171,0.241908,-0.321185,-0.257642,0.370494,0.198954,0.080357
-0.047671,-0.042554,0.067024,0.169052,0.034849,-0.285776,0.343734,-0.219680,0.045670,-0.097666,-0.293053,0.423603,-0.267704,-0.245421,0.038931,0.036111
0.072857,-0.238208,0.195899,-0.201014,0.117465,0.378001,-0.373703,-0.342403,0.190190,-0.248340,0.031047,0.066026,0.056201,-0.249658,0.100230,-0.189113
0.246289,-0.018198,0.327668,-0.185743,0.089754,0.052171,-0.043366,0.087791,-0.223351,0.187804,-0.106365,0.092898,0.048271,0.240221,-0.128272,-0.161151
0.240784,0.052543,-0.142374,-0.285730,-0.350487,0.311295,0.254125,-0.036858,0.278200,0.220646,0.334349,0.295120,0.136545,-0.324965,-0.078009,-0.128747
-0.273388,-0.681284,0.023750,-0.069491,-0.161889,0.262163,-0.213661,-0.296622,0.172569,-0.361748,0.581567,-0.273495,-0.101267,0.077391,-0.129449,0.490059
-0.368370,-0.307568,0.183639,-0.049698,-0.403489,0.674204,0.200666,-0.000719,0.165117,-0.021129,0.105972,0.212592,-0.254493,0.014962,-0.138331,0.380945
0.209469,0.148130,-0.347964,0.358887,-0.308190,-0.191919,0.239945,-0.280049,0.093953,0.101698,0.140926,0.225166,0.346929,-0.197965,-0.170974,-0.252054
-0.015590,-0.161026,-0.257369,-0.584845,-0.338965,0.170118,0.470998,-0.179542,-0.331134,0.230479,-0.249447,0.002827,-0.012387,-0.379560,0.552365,0.269885
-0.121399,0.068766,0.164356,0.425350,-0.266027,-0.150953,0.085128,0.236179,-0.279585,-0.138680,-0.183359,0.077624,-0.020612,0.529960,0.057972,0.119858
-0.200631,0.349123,-0.094378,-0.177770,0.314293,0.326737,0.072391,-0.300851,-0.288528,0.055865,-0.115767,-0.320508,0.149382,-0.271994,-0.081540,0.167159
0.114171,-0.378954,0.332343,0.145840,-0.149562,-0.095427,-0.198990,-0.277634,-0.087694,0.008047,0.348550,-0.466793,0.098975,0.450634,-0.109627,0.167593
0.285705,0.694754,0.147384,0.523992,-0.323786,-0.197521,0.121578,-0.249287,-0.300336,-0.016512,0.460579,0.486750,0.022815,-0.066942,0.312946,-0.140980
-0.222224,-0.178917,0.441651,0.181792,-0.046816,-0.319369,0.072256,0.290864,-0.302838,-0.294042,-0.100158,-0.066332,0.310787,0.347643,-0.244371,-0.193471
-0.205933,0.173962,0.000893,0.133026,-0.343314,-0.080602,0.146582,0.312468,-0.035439,-0.234775,-0.348798,0.338386,-0.285744,0.242980,-0.007958,-0.301794
-0.219026,0.094842,0.146506,0.109817,0.276455,-0.269967,0.398095,0.065032,-0.159877,-0.339076,-0.092302,0.265957,-0.441090,0.197178,-0.131773,0.185104
0.342037,-0.325600,0.174329,-0.310334,0.072226,-0.203312,-0.330083,-0.257828,-0.164398,0.336102,-0.285877,0.209777,0.198532,-0.243592,-0.153834,-0.268192
0.247414,-0.153625,-0.203925,-0.378722,0.608068,0.094643,-0.309977,0.119708,0.247097,-0.094253,-0.352354,0.256119,-0.044393,0.352293,-0.397866,-0.208520
0.163314,0.041216,0.242012,0.334776,0.240671,0.142298,0.113225,0.056557,0.274714,-0.287352,0.015442,-0.060992,-0.272875,0.306995,-0.251074,-0.043748
-0.298538,0.117439,0.246249,-0.088343,0.049966,0.086554,0.205082,0.338250,-0.336258,0.133743,-0.109367,0.134650,0.255034,-0.329629,-0.220261,-0.046040
-0.353186,-0.472042,-0.121098,0.098500,0.027723,-0.323226,0.262959,0.290867,-0.023261,0.047615,0.204382,0.052194,0.406592,0.321982,0.070756,-0.081461
-0.120606,-0.272970,-0.047798,0.326938,-0.336921,0.027373,-0.274936,-0.022053,0.325766,0.133877,0.027335,0.305320,-0.115161,0.297978,0.098304,-0.216642
0.031110,-0.040043,-0.277155,0.122853,0.344617,0.009515,0.134591,0.347815,0.161503,-0.335966,-0.426000,0.047459,0.175009,-0.012911,-0.429171,-0.198041
0.306546,0.254060,0.117197
0.239667,-0.395070,0.572064
-0.271852,0.391452,-0.296531
0.367238,-0.513134,-0.546136
0.267382,0.229301,0.535954
0.245526,-0.113771,-0.133162
-0.530541,-0.180879,-0.100961
-0.444529,-0.046710,0.260504
0.355249,-0.193364,0.075460
0.144291,0.162475,-0.138102
0.379052,0.336052,0.528958
-0.513001,-0.386199,-0.305079
0.437382,-0.310813,-0.090588
-0.003200,0.456595,-0.691847
-0.702164,0.124805,0.535435
0.109153,0.165573,0.159553
