10
256,32,32,32,32,32,32,32,32,3
0.114507,-0.110344,-0.109306,-0.037676,-0.017433,0.056699,-0.052320,-0.050851,0.017424,0.074734,-0.024519,0.021605,-0.014831,-0.110058,0.081429,-0.084327,0.085206,0.110305,-0.072082,-0.090502,-0.094837,0.137047,0.050066,-0.028613,0.068744,-0.055497,-0.051794,-0.022925,0.041349,-0.015984,-0.046080,0.066718
-0.006305,0.025323,0.033805,0.009472,0.122643,0.018616,-0.121260,-0.054089,-0.078918,-0.068628,-0.003428,-0.032699,-0.065109,-0.117112,0.085566,-0.047196,-0.013058,0.037591,0.014936,-0.070763,0.153384,0.125334,0.049219,-0.018412,-0.041387,0.024638,-0.022284,-0.055724,-0.027036,-0.046351,-0.037512,0.039142
0.041969,0.040622,0.001136,-0.077239,-0.039520,0.061010,0.162167,-0.206702,0.011810,-0.028392,0.064873,-0.003789,0.025433,-0.054544,-0.017115,-0.034380,0.046033,-0.171131,-0.072995,-0.053509,0.054047,0.043103,0.061372,0.123015,0.056624,-0.024925,0.001169,0.101717,0.025896,-0.119385,0.077046,-0.082750
0.020765,0.156912,-0.060697,-0.074132,0.065683,0.020456,-0.002639,0.043557,0.079388,0.012327,-0.008149,0.025309,0.030489,0.097584,-0.087488,0.016564,0.095861,-0.082472,-0.024118,-0.036353,0.007542,-0.117871,0.019673,-0.119846,-0.012655,-0.147894,-0.029178,-0.054449,-0.051909,-0.021020,-0.021172,-0.019921
-0.165289,0.063074,-0.022723,0.048845,0.095166,0.034642,0.088143,0.027513,0.000532,-0.018567,-0.100213,-0.003875,0.109465,0.040121,0.083653,-0.016864,-0.002802,0.066094,-0.153205,0.003356,0.028715,0.030457,-0.030171,0.008401,0.025759,-0.022005,-0.032900,-0.022649,0.027038,0.065664,0.004005,-0.059520
-0.096436,0.000086,0.020991,-0.031220,0.030209,-0.029557,0.021604,0.049397,0.074270,-0.003619,-0.085326,-0.011906,0.131122,-0.129142,0.020608,0.026857,-0.092721,-0.039647,0.071543,0.029118,-0.070105,0.070400,-0.030127,0.021671,-0.045954,0.057896,-0.057068,-0.004090,0.048000,0.113241,-0.018543,0.071907
0.072736,0.010013,0.113189,0.040369,-0.080204,-0.027936,-0.032668,-0.041834,-0.041551,0.074088,-0.024377,0.040337,0.000751,-0.070700,-0.037926,0.042792,0.008027,-0.133458,0.011898,-0.110500,-0.020455,-0.095398,-0.086575,0.037970,-0.008491,-0.108470,0.086112,0.007788,0.053303,-0.014104,-0.066498,-0.021600
-0.079215,-0.047376,0.052836,-0.007845,0.025851,-0.034048,-0.069852,0.006214,-0.016238,0.042965,0.010183,0.015925,-0.083518,-0.035025,-0.007751,-0.097575,0.008882,0.015393,-0.022492,-0.109315,0.004873,-0.074623,0.115835,0.017677,-0.026279,0.003973,-0.082846,0.052059,0.046505,0.014749,-0.167459,0.054076
-0.089016,0.017611,0.129218,-0.031823,-0.036679,-0.103641,-0.011103,-0.011767,-0.098112,0.058689,0.140228,-0.065829,0.111861,-0.035996,-0.008029,0.048491,0.030942,-0.049620,-0.024168,-0.083812,0.029578,0.013777,0.057722,0.090369,-0.049325,-0.010135,-0.116967,0.145880,0.115479,0.004839,-0.085849,0.013875
-0.035044,0.038670,-0.016078,-0.035843,0.033608,0.027942,-0.012910,0.022373,0.034349,0.000402,-0.029123,0.009881,0.031832,0.042525,-0.052379,0.059135,0.071854,0.020475,-0.000780,-0.087475,0.051589,0.014620,-0.054366,0.025830,-0.029509,-0.024064,-0.016200,-0.046636,0.045128,-0.082701,-0.078088,-0.119323
0.078088,0.064878,-0.002723,-0.064812,0.030730,-0.156093,0.208362,-0.094759,-0.021850,-0.004938,0.013251,0.055933,0.102366,0.101315,-0.007285,0.018525,-0.022962,0.052568,-0.096200,-0.072281,-0.121545,-0.045457,0.003273,0.037348,0.073175,-0.020513,0.069981,0.065322,-0.025308,-0.035599,0.062486,-0.055110
-0.010871,0.096681,-0.019548,-0.043398,-0.026873,-0.117000,0.110089,-0.059837,-0.009765,-0.039941,-0.072826,0.077818,0.183426,0.067104,0.105167,-0.045370,0.018654,0.018110,0.061187,-0.095421,0.039111,-0.072935,-0.006797,-0.132968,0.029235,0.009476,0.013942,0.043850,-0.016806,-0.022128,0.180535,0.057474
-0.032974,0.039227,0.003414,0.064226,-0.054364,0.076750,-0.049084,0.031825,0.023011,0.080954,0.042773,0.053768,0.104625,-0.012583,-0.043378,-0.034827,-0.082325,-0.062209,0.044349,-0.039544,0.017725,-0.042139,-0.038112,0.004075,0.114127,0.136336,0.024162,-0.004799,-0.114453,0.145274,-0.012674,0.091613
0.049761,0.154488,-0.110610,0.115839,0.161762,0.087857,0.073125,0.074424,0.047058,0.058907,0.018962,-0.056194,0.021624,0.074789,0.040777,0.131052,0.089766,0.034423,-0.028108,0.023536,-0.163549,0.089535,-0.078802,0.083651,-0.021675,0.023508,-0.073378,0.058959,0.155834,0.074917,-0.046275,0.016562
0.106664,0.010554,0.027646,0.064724,-0.094273,-0.042363,-0.023003,-0.239033,-0.086958,0.106727,0.051454,0.030804,-0.012863,0.098824,-0.057546,-0.077550,-0.026405,0.038461,0.026631,-0.065333,-0.005927,0.134573,0.008741,0.045084,0.002184,0.071337,-0.040835,-0.058035,-0.060368,-0.047148,0.013680,-0.010653
0.078435,-0.121906,-0.015139,-0.018529,-0.061104,0.068599,0.024468,0.017383,-0.025549,-0.193018,-0.018342,0.000757,-0.153747,-0.085986,0.015664,-0.033980,0.014184,0.031232,0.108330,-0.081553,-0.019407,0.018518,-0.038803,-0.058433,-0.065636,0.011217,0.046927,0.060976,0.049260,0.019192,0.049935,0.110120
0.139720,-0.119525,0.095511,0.051411,0.130346,-0.025421,-0.009633,-0.014475,-0.105816,-0.029713,-0.048810,0.026314,-0.070707,-0.104842,-0.046058,-0.068741,0.145643,0.011329,-0.045065,-0.044038,0.080990,0.104678,0.071778,-0.078628,0.030025,-0.051984,0.050101,0.037908,0.044398,-0.019283,-0.101807,-0.062268
0.069705,-0.141391,-0.021057,0.047720,-0.020625,-0.021229,-0.099149,0.025209,-0.027932,-0.003838,0.045060,0.041275,-0.034943,-0.020352,-0.052209,-0.022824,0.097313,0.040396,-0.007679,-0.040298,0.144089,0.006291,-0.066956,-0.003355,0.034420,0.046551,-0.002105,-0.008496,-0.033473,-0.010932,0.011490,0.031674
-0.002380,0.010301,0.061567,-0.057162,-0.078301,0.110872,0.025246,0.041520,0.071005,0.054607,-0.041269,-0.066522,-0.026555,0.018726,0.062762,-0.023714,-0.025772,-0.042571,-0.044786,0.128181,0.118945,-0.100907,0.038171,-0.014620,-0.013741,-0.046650,0.087300,-0.020234,0.079060,-0.006810,-0.116703,0.061870
0.027450,0.054099,-0.082542,0.035187,-0.030698,-0.006073,0.027171,0.010904,0.085246,-0.051159,0.094559,-0.103227,0.066669,0.065678,-0.032919,-0.017719,-0.047243,0.060985,0.000280,0.076930,-0.053408,-0.066496,0.083529,-0.057423,0.029811,-0.085052,-0.048573,0.006112,0.101610,-0.013655,-0.037561,0.040565
-0.061573,0.077702,-0.032886,0.086242,-0.069429,0.016810,-0.027474,0.079625,0.089482,0.014979,0.023525,0.035190,-0.020225,-0.000170,0.074758,0.013000,0.104668,-0.036017,-0.078392,-0.046719,-0.036649,0.063852,0.014957,-0.010985,-0.005090,0.001829,-0.077979,0.035970,0.005238,0.023278,-0.094901,0.039177
-0.025720,-0.081753,0.013323,0.065794,-0.014983,0.023073,0.044893,-0.105104,-0.098069,0.009049,-0.011854,-0.006929,-0.049262,-0.014733,-0.000408,-0.016124,0.045825,-0.037138,0.043172,0.107171,0.053398,0.111514,-0.028488,-0.020000,-0.017218,-0.090479,0.067117,0.008434,0.042048,0.021420,-0.029614,-0.034514
0.017921,-0.049882,0.005958,0.016438,-0.064120,0.025462,-0.013553,-0.061835,0.010052,-0.001078,0.009847,0.127887,-0.111501,-0.024286,-0.062994,-0.040081,0.114136,0.003687,-0.011624,-0.015905,0.061977,-0.057773,-0.005787,-0.008647,0.040783,0.101058,-0.040155,0.006229,0.017404,-0.074478,0.016677,-0.054696
-0.093944,0.003525,-0.061141,0.014392,0.068030,0.006109,0.065341,0.040773,-0.003111,-0.025784,-0.076209,-0.041928,0.055249,0.048521,0.071773,-0.001783,-0.042849,-0.025503,0.035693,-0.068458,-0.002877,0.039657,0.011809,0.055319,0.048658,-0.031860,-0.018917,-0.057474,0.007675,-0.022731,0.074891,-0.019584
-0.011371,-0.020754,0.051892,-0.029094,0.057300,0.032734,-0.033884,-0.138516,-0.038143,0.052150,0.014674,-0.018816,0.077042,-0.058567,0.042238,0.125732,-0.046707,-0.033822,-0.008259,-0.034404,-0.073554,-0.047201,0.001117,0.037127,-0.117586,0.118506,-0.009537,0.061551,0.103542,0.000992,0.028748,0.002881
0.067372,0.047127,0.046442,-0.089183,0.030379,0.003338,0.045131,0.003827,0.106625,-0.038521,-0.082272,-0.138143,-0.033972,-0.003055,0.016892,0.015559,-0.039745,-0.035653,0.027820,0.077812,0.076717,-0.023395,-0.055131,0.009136,0.026168,-0.045167,-0.077479,-0.002201,-0.081939,0.001486,-0.033996,0.048412
-0.030195,0.099920,0.083979,-0.139305,0.003665,-0.033436,-0.064338,0.016669,-0.083407,-0.131958,0.029327,0.026549,0.068345,0.102962,-0.068102,-0.029288,-0.084777,0.026049,-0.130583,0.011950,0.084546,-0.040094,0.007305,-0.031427,-0.008902,0.017239,-0.001509,-0.032915,-0.009040,-0.031953,-0.127630,-0.035117
-0.069891,-0.085424,-0.014480,0.019105,-0.121021,0.150029,-0.032932,0.027692,-0.031164,0.056866,-0.067428,-0.028225,0.052960,-0.045252,0.040462,0.067124,0.049958,0.019018,0.044553,0.025686,0.009119,-0.024869,-0.101492,0.073867,-0.016988,0.009928,-0.078412,-0.080234,-0.161210,0.111051,0.072908,-0.013219
-0.081313,-0.086872,-0.094503,0.164830,0.019333,0.017155,-0.017198,0.097416,-0.009393,-0.041944,0.000463,-0.075382,0.088811,0.026161,-0.004119,-0.030416,0.032421,-0.086226,-0.030237,0.013670,0.093637,0.054496,0.016053,-0.056267,0.036233,0.083138,0.056152,0.081091,0.053009,0.015019,-0.010300,0.055602
0.105564,-0.060099,-0.014610,0.014184,-0.022833,-0.003031,-0.102533,-0.090509,0.093710,-0.003776,-0.048624,-0.019873,0.085737,-0.019138,-0.003951,0.051806,0.028343,0.126403,0.029690,0.022275,-0.077678,-0.048403,0.053366,0.055499,-0.103392,0.041390,0.013880,-0.075448,-0.009705,0.003368,-0.002911,-0.133848
-0.044106,0.028684,-0.138427,0.001334,-0.064101,-0.120008,0.122728,0.051802,0.129915,-0.070838,-0.020220,-0.067352,-0.094541,0.109210,0.025191,-0.017722,-0.062756,0.018353,0.023201,-0.040920,0.087996,-0.015930,-0.006847,0.019382,0.061907,0.100527,0.069669,-0.086301,0.013792,-0.043754,-0.015843,0.063768
-0.081737,0.028058,-0.051542,-0.113538,-0.066734,0.103023,0.010040,-0.071913,-0.057785,-0.100155,0.021770,0.026265,-0.155961,0.090583,0.022731,-0.129755,-0.141155,0.010637,0.017296,-0.032023,-0.006583,-0.039304,-0.145067,0.167561,0.033847,-0.003335,0.044226,0.112061,0.012464,-0.070503,0.022612,-0.021257
-0.018981,0.107463,-0.054119,0.035935,0.096947,-0.003520,-0.079132,0.023559,-0.059091,-0.052142,-0.076205,0.016696,0.029975,-0.010705,-0.011175,0.033620,-0.084826,-0.015953,0.077806,-0.077029,0.072710,0.022765,0.033529,-0.027421,-0.014787,0.021221,-0.016781,-0.039953,-0.043318,0.031735,-0.079551,0.059566
0.010535,0.006342,0.052100,-0.045797,-0.099954,-0.073528,-0.023765,0.044528,-0.023487,0.049323,-0.023149,0.014024,-0.041988,0.016409,-0.020201,-0.090884,-0.017926,-0.015659,0.042303,0.070865,0.087202,0.020763,0.057634,-0.104077,-0.024401,0.008713,0.047239,0.051829,-0.018028,0.040092,-0.000512,-0.013096
-0.007324,0.066455,0.044621,0.027752,0.078290,0.041463,-0.002688,0.042192,0.072204,-0.071934,0.055629,0.019638,-0.117351,-0.014018,0.002022,-0.048423,-0.109634,0.088220,0.127412,-0.056834,0.050108,0.069185,0.063471,-0.042139,-0.079871,0.003161,-0.094759,0.051295,0.038570,-0.015291,0.005288,0.045656
-0.104551,-0.041056,0.049343,-0.014109,-0.030428,0.041197,-0.016096,0.042872,0.058665,-0.014775,0.061009,0.033689,-0.099750,0.004795,-0.035485,-0.081235,-0.041806,-0.034383,0.004017,0.058887,-0.062049,-0.010351,0.099492,-0.059872,-0.033883,-0.001184,-0.085652,0.003962,0.001028,-0.033212,0.017497,-0.034395
-0.101172,0.022924,0.104067,0.048425,0.023344,0.121484,0.027511,-0.026203,0.067186,-0.031696,-0.125755,0.022730,-0.052451,-0.070135,-0.007369,-0.045182,-0.023648,-0.004116,-0.140204,-0.081581,0.052906,-0.002888,0.040098,-0.006181,-0.009998,0.004088,0.026320,-0.005200,0.039607,-0.126830,-0.061058,-0.001667
0.041638,-0.038249,-0.053366,-0.032240,-0.006032,0.058137,0.019729,0.009676,-0.018586,0.029748,-0.001712,-0.039117,0.080469,0.088995,-0.001510,-0.002459,-0.003127,0.008281,-0.042468,-0.018974,-0.000942,-0.013387,0.017189,-0.051386,0.020773,-0.041915,0.012503,0.010987,0.031650,-0.033202,0.067764,0.014199
-0.024704,0.002201,0.051719,0.017783,0.007731,0.041361,0.033837,0.087973,0.034951,0.009198,-0.043919,0.025685,0.044592,0.010337,-0.012123,0.033909,0.034116,-0.075724,-0.033087,0.068377,0.046627,-0.076584,-0.037960,0.055526,0.016741,-0.079928,-0.028447,-0.017834,0.057632,0.005185,-0.060813,-0.000242
0.033987,0.042607,-0.003933,0.055446,0.085301,-0.090984,-0.111937,0.014955,-0.055366,0.108209,0.097540,-0.063519,0.070680,0.064415,0.002990,0.072446,0.035432,-0.011039,-0.044815,0.011934,0.071339,-0.033545,-0.012386,-0.045622,-0.006874,0.075836,0.060071,0.033605,0.045463,0.054415,0.017219,-0.138153
-0.037741,0.070687,0.077588,0.040722,-0.039757,0.081392,0.011582,-0.072103,0.039152,0.058674,0.041587,-0.052308,-0.018878,-0.043389,-0.087873,-0.013208,-0.001287,-0.032585,-0.045769,-0.100215,-0.054639,0.089802,0.077867,0.026572,-0.029986,-0.069097,-0.064387,0.014224,0.022274,-0.070595,0.022431,0.032227
0.037982,0.001269,-0.039288,0.063628,-0.062608,-0.070579,0.114317,0.022533,0.051031,-0.100506,-0.031756,0.054996,0.055902,0.007907,-0.066935,-0.032210,0.103716,-0.104628,0.077796,0.052553,-0.036667,-0.068665,-0.030157,0.081313,-0.024111,0.023804,-0.031862,0.034815,0.046627,-0.035845,0.017037,0.006672
0.023191,-0.029883,-0.048181,-0.069598,-0.005825,0.019115,-0.026318,0.191314,0.095644,-0.019417,0.103403,0.054478,0.062064,0.079486,-0.140081,-0.004199,-0.029260,0.001041,-0.066198,-0.024252,0.037533,-0.001272,-0.051489,-0.057281,-0.035085,-0.026952,-0.097161,0.016967,0.060205,0.011829,-0.061106,0.125137
0.000057,-0.062850,-0.092485,0.026667,0.018991,-0.076035,0.065270,-0.057354,-0.038233,-0.046381,-0.042646,0.030322,-0.077301,-0.009991,-0.035524,-0.018980,-0.060633,0.081672,0.024008,-0.093613,-0.016349,0.054450,-0.098667,0.052522,0.009269,0.013074,-0.007036,-0.050373,-0.027139,0.038561,-0.001546,0.047767
0.083534,0.011174,-0.007752,-0.032192,0.028907,-0.043475,-0.162669,0.104922,-0.002435,-0.059450,-0.024928,-0.029409,-0.060233,0.123612,0.022376,-0.109233,0.085854,-0.024756,-0.049550,0.049606,-0.015153,0.086203,0.031349,0.125345,0.019698,0.004536,-0.002300,0.034133,0.003577,0.000552,0.019101,-0.049390
-0.010572,0.045672,0.064333,-0.112570,-0.007831,-0.030509,-0.166990,-0.043297,-0.094598,0.130378,-0.042025,-0.053762,-0.003250,0.095730,-0.031078,0.028359,0.059960,-0.014214,-0.007901,0.057172,-0.014945,-0.006213,-0.067777,-0.014925,-0.140531,-0.075464,-0.018898,0.004228,-0.018763,-0.012461,0.036707,0.009217
-0.107262,-0.171435,0.020123,-0.166092,-0.002697,0.002089,-0.022713,-0.017948,-0.075659,-0.099361,-0.076070,-0.021490,-0.021124,-0.064500,-0.128583,-0.056161,0.018043,0.069930,0.022465,0.092199,0.025513,0.003475,-0.027290,0.102147,0.021656,0.102356,-0.079312,0.079751,0.076662,0.061875,0.028827,0.052506
-0.006565,-0.008826,-0.038785,0.019039,-0.121255,0.004968,0.047989,-0.004007,-0.082134,0.032285,-0.062373,-0.103890,-0.028618,-0.113464,0.006619,-0.064439,0.097925,0.059109,-0.064415,0.012660,0.054641,-0.034995,-0.029965,-0.084089,-0.038087,0.078327,0.020954,0.057240,0.043060,-0.056269,0.114743,0.058060
0.062890,-0.039784,0.006770,-0.038439,-0.064818,0.013147,0.070870,-0.067581,-0.065780,0.001310,0.055887,0.085750,-0.093422,0.044398,-0.106731,0.126975,0.108623,-0.001405,-0.002288,0.113156,0.040403,-0.081852,0.051297,0.104396,-0.108410,0.018586,0.072423,-0.013398,0.132357,0.001152,-0.074016,0.043783
0.100279,0.018740,0.010758,-0.032929,0.001010,-0.045642,-0.044815,0.082152,0.012420,-0.014896,0.013728,0.012061,0.052309,-0.025734,0.041360,-0.076431,0.015979,0.128708,-0.035231,-0.018069,-0.065646,0.000983,-0.054079,-0.023274,0.023536,0.073014,0.020492,0.102673,-0.068670,-0.109703,0.028086,0.056239
-0.053123,-0.038441,0.072543,0.123057,-0.127476,-0.048507,0.029948,0.058949,0.069114,0.099221,0.092203,0.024953,0.030167,-0.025009,0.019621,0.037443,-0.139895,-0.089680,-0.041355,0.003093,0.036768,-0.029777,0.055773,-0.006940,-0.059237,0.028520,0.082250,0.010744,-0.007504,-0.126039,0.186398,-0.122144
-0.013957,0.036911,-0.044518,-0.001815,-0.004967,0.022285,-0.037560,0.039112,0.042929,-0.029349,0.073475,0.044224,-0.036199,0.055328,-0.091933,0.029855,-0.034315,-0.062398,0.023768,-0.046603,-0.108434,-0.068348,-0.007497,-0.016030,0.031750,-0.016393,0.017491,-0.067218,0.051147,0.060797,-0.086908,-0.024849
-0.010985,-0.049112,0.084192,0.064289,-0.012874,0.081619,0.075267,0.076979,0.017092,0.014069,0.092710,-0.062241,0.054163,0.012796,-0.052061,0.003274,-0.011408,-0.120331,-0.037272,0.005542,0.011707,-0.088108,0.002554,0.017006,0.029028,0.007411,0.043384,-0.000893,0.049140,-0.028892,0.026173,-0.012191
-0.005012,-0.032467,-0.118505,0.075258,0.030457,0.075525,0.056010,-0.086964,0.095515,0.059546,-0.015146,-0.043129,-0.104004,0.088470,0.069030,0.015852,0.050675,0.044760,-0.013067,0.035919,-0.016880,0.051326,-0.035627,0.042861,-0.009155,0.007941,-0.004765,-0.003742,0.091967,-0.093780,0.033219,-0.012681
-0.069907,-0.068868,0.050715,-0.105933,0.049134,0.086831,0.018206,-0.044116,0.009624,0.026524,0.030629,-0.046034,-0.051004,0.103893,0.048112,0.041611,-0.031570,-0.027970,-0.028200,0.027175,0.059654,-0.018062,0.060551,-0.004887,-0.004247,0.103955,-0.078499,0.006507,0.076097,0.022501,0.000290,0.031342
-0.009132,0.024154,0.074277,0.048118,-0.001536,0.019312,0.021670,0.040926,-0.020685,-0.034690,-0.041052,0.059757,-0.094124,0.009113,-0.029699,-0.106267,-0.035003,0.025100,0.142957,0.042231,0.025539,-0.058691,-0.011625,-0.062218,0.020583,0.002354,0.011905,-0.051548,0.005657,-0.033080,0.034775,0.069994
-0.046173,-0.027799,0.041621,0.029137,0.097775,0.037699,0.006138,0.025124,-0.048298,0.069304,-0.072089,0.057832,0.000691,0.015913,-0.047419,0.036961,-0.005553,0.008034,0.064933,-0.033077,0.149976,0.107279,-0.023684,0.014009,0.021914,0.035238,0.025989,-0.031783,0.037620,-0.098573,-0.151938,-0.013082
-0.062507,0.025346,0.122731,0.007359,-0.024821,-0.024112,-0.037183,0.035415,0.110090,0.014005,-0.100572,0.123025,-0.050692,-0.032919,-0.002076,-0.076318,-0.044403,-0.120224,0.091289,0.044959,0.028381,-0.051348,-0.125310,0.008804,0.015116,-0.043920,0.036945,-0.031919,0.078355,0.083297,-0.001566,0.017396
-0.000111,0.010075,-0.089539,-0.027920,-0.069512,0.055396,0.015642,-0.076654,-0.058069,0.028573,0.116547,-0.075049,-0.064336,0.064705,0.014154,-0.047301,-0.000384,-0.042509,0.032293,-0.017972,-0.010755,-0.028391,-0.139355,0.008130,0.026841,-0.003106,0.024213,0.048789,0.014579,0.028805,-0.041244,0.067226
0.024276,-0.108040,0.057809,0.051379,-0.099448,-0.006467,0.023469,-0.080450,-0.039771,-0.053337,0.052589,-0.083923,-0.008525,-0.053739,0.002308,0.010298,0.080205,-0.058067,0.042663,0.023151,-0.038738,0.024610,0.011015,0.002485,0.015701,-0.076538,0.045066,0.002508,-0.012795,0.092104,0.112070,-0.004951
-0.085444,0.000981,0.036922,0.006205,-0.093014,-0.041885,-0.034847,-0.050303,-0.042454,0.049712,-0.084513,0.029214,-0.029641,-0.034806,0.040931,0.008094,0.035083,-0.092013,0.008221,-0.034378,0.000536,-0.006985,0.041951,-0.021169,0.092804,-0.058606,-0.066865,0.028857,0.046574,-0.064341,0.078862,-0.044533
-0.021226,0.013878,0.060083,-0.041856,-0.080656,-0.125787,-0.059179,-0.118694,-0.144287,-0.021035,0.064143,0.011806,-0.035002,-0.056282,0.022618,0.163012,0.056027,-0.089841,-0.103684,-0.068110,0.069016,-0.068822,-0.096578,0.055168,0.006095,0.006611,-0.019401,-0.068958,-0.081344,-0.099601,-0.036222,0.007673
0.136017,-0.012328,0.069757,-0.026464,-0.018599,0.125789,0.021439,0.035122,-0.013168,0.053377,-0.032546,-0.004451,-0.069270,-0.163593,-0.037911,0.000821,0.013084,0.036051,-0.036266,-0.039836,-0.024563,0.061089,-0.078780,0.039973,0.106469,0.083204,-0.005407,-0.078274,0.026304,0.075011,0.129659,-0.010285
0.053269,-0.011878,-0.022853,0.057227,-0.004534,0.176665,0.062973,-0.011834,-0.016889,-0.039099,-0.026939,-0.019893,-0.060790,0.023002,-0.018176,0.110338,-0.024707,0.007961,-0.035596,0.059868,-0.090085,0.047345,-0.041898,-0.014083,-0.056151,-0.024430,0.016206,-0.095585,-0.058777,0.050883,0.237011,0.028971
0.052197,-0.016431,-0.004018,-0.031643,0.011619,0.024913,-0.085163,0.101952,-0.135722,0.051676,-0.045713,0.022644,-0.047647,-0.013895,0.029761,-0.065428,0.008536,0.014885,-0.058496,-0.050421,-0.053829,0.022748,-0.007444,0.048085,-0.004907,-0.092344,-0.084354,-0.109574,0.010371,-0.008449,0.010040,0.073994
-0.138730,-0.035696,0.072043,0.041012,0.081432,-0.043967,-0.019080,0.081244,-0.053893,0.118070,-0.035949,0.003886,-0.065576,0.083155,-0.035842,0.066934,-0.090196,0.038237,-0.067045,-0.039985,-0.048559,0.058947,0.021051,0.042613,-0.096309,-0.093009,-0.146741,-0.068587,-0.062444,0.071301,0.024261,0.008735
0.065425,-0.092525,0.015196,0.006861,0.117956,0.027607,-0.160623,-0.008223,-0.027890,-0.020864,0.067365,0.066482,-0.046647,-0.003277,0.037029,-0.012847,0.029680,0.074965,-0.109616,0.066412,-0.083271,0.013382,0.030479,0.061198,0.168927,0.028505,-0.087266,-0.001045,0.027704,-0.036955,0.004916,0.079201
-0.011792,-0.066755,0.016943,0.079513,-0.007258,-0.075575,-0.033978,0.065032,0.100661,0.115293,0.106477,-0.057521,-0.040186,0.019498,-0.002456,0.056007,-0.026266,0.003114,0.051109,0.027911,0.052201,0.049790,0.020683,0.029922,-0.007647,0.047460,0.010822,-0.066422,0.038249,-0.032602,-0.119622,0.031371
-0.223029,0.092204,0.001951,-0.118171,-0.028376,-0.020013,-0.006904,0.018587,-0.020447,0.020721,0.045834,0.047620,-0.002408,0.017564,0.024364,0.076325,-0.037448,-0.059108,-0.075392,0.057382,0.086569,0.063421,0.046892,0.128174,0.054551,-0.046810,-0.015372,0.027453,0.024966,-0.030946,-0.051286,-0.029836
-0.029386,0.020257,0.034931,0.036724,-0.048425,-0.100252,-0.052269,0.113620,-0.060249,0.116251,0.012368,0.056822,-0.129315,-0.006916,-0.049429,-0.047347,0.032225,0.046462,0.046591,-0.145437,-0.076814,-0.006012,-0.055944,0.009754,0.000244,0.005624,-0.018598,0.029224,0.017157,0.015405,0.062216,0.078719
0.005077,0.035388,0.030644,-0.013825,-0.072072,0.113621,-0.058270,-0.014285,-0.010956,0.074797,0.049113,-0.135908,-0.096449,0.082136,-0.125563,-0.009134,-0.032375,0.012789,-0.054311,-0.052888,0.053393,-0.094321,0.043488,-0.099849,-0.032033,-0.036630,-0.069521,-0.035582,0.029205,-0.011233,0.087287,-0.021741
0.042777,0.102266,-0.013216,0.004008,-0.010512,0.077528,0.049106,-0.066897,-0.133525,-0.015049,-0.001287,0.008837,-0.056383,-0.077687,0.001750,0.116716,0.046231,0.080796,-0.067580,0.018661,-0.094669,0.007838,0.000290,0.054028,0.097717,0.017699,0.029724,-0.011611,0.037210,-0.117122,-0.057828,0.003395
-0.062670,-0.050784,-0.020369,-0.044038,-0.013948,0.010683,0.000999,0.083966,0.088715,-0.095706,0.058700,-0.022394,-0.082003,-0.105432,0.032369,0.113006,0.069954,0.026740,0.079732,0.051154,0.013261,-0.025436,-0.064422,-0.013890,-0.015265,0.071228,0.030653,0.015377,0.010603,-0.025491,-0.095604,0.059672
-0.053621,0.032606,0.028490,-0.106275,0.001376,0.018795,0.059941,-0.044585,0.014174,-0.041197,-0.078820,0.028954,0.079720,0.023973,-0.104340,-0.093898,-0.040376,-0.000124,-0.061081,-0.011150,0.038897,-0.031943,0.008357,-0.062555,-0.121526,0.070481,0.069138,0.106908,-0.032708,-0.027231,-0.033746,0.048443
-0.016338,-0.045359,0.054061,0.028549,-0.109345,0.007445,-0.071764,0.132959,0.027934,-0.072142,-0.062913,0.048613,0.097967,-0.031847,0.022324,0.033401,-0.062630,-0.001608,0.016873,0.023810,0.185926,-0.081552,-0.002958,0.008425,0.004660,-0.142994,0.105303,-0.042065,0.036916,0.042431,-0.036009,-0.097483
-0.108210,-0.049802,-0.119045,-0.023736,0.055642,0.027871,0.092008,0.021918,0.030668,0.014209,0.010652,0.007564,0.029725,-0.056776,0.072035,-0.017447,0.122910,-0.102265,-0.006238,0.044112,0.052334,0.062061,0.031553,0.004769,-0.002947,-0.195979,0.125781,0.016565,-0.024081,-0.049355,0.062241,0.114323
-0.019640,0.049276,0.124857,-0.112695,-0.038750,0.010210,-0.009763,-0.145468,-0.045143,0.104312,0.021861,0.028855,-0.011485,-0.008583,0.057101,-0.101726,0.016835,-0.154670,-0.110764,0.008178,0.031211,0.039356,0.013056,-0.103888,-0.104797,-0.063662,0.051671,0.027706,0.024761,-0.038239,0.071696,-0.055469
-0.047817,0.016131,-0.026611,0.086866,0.033126,0.041218,-0.060341,-0.088973,0.106155,-0.044604,0.055896,-0.144633,-0.058737,0.012040,-0.043786,-0.065144,0.109433,0.004015,-0.113172,0.030492,-0.060982,-0.070109,-0.000990,0.027841,0.026308,-0.013583,0.074563,0.056005,-0.064478,0.018655,0.093663,0.115992
-0.142964,-0.049255,0.063978,-0.043647,-0.100823,-0.101232,0.031372,0.047074,0.082894,-0.036961,-0.013334,0.082834,-0.086235,0.013424,-0.060681,-0.079602,-0.026869,-0.025177,-0.004477,0.026544,0.066600,-0.098376,-0.027252,-0.119628,-0.113473,-0.014098,0.055825,0.046196,-0.039688,0.004501,-0.014997,0.128891
0.047312,-0.031707,-0.123715,0.041983,-0.010752,-0.038577,-0.026011,-0.015676,0.045379,-0.051773,-0.006549,-0.030180,-0.110094,0.069181,0.038587,-0.057859,0.020187,-0.017366,-0.044274,-0.042989,-0.093558,-0.000309,-0.089521,0.013216,0.055708,-0.001043,0.119053,0.021686,-0.118270,-0.052922,-0.009033,0.046879
0.046720,-0.149876,-0.074180,-0.079902,0.011717,-0.005482,-0.068980,-0.056482,-0.086776,0.246243,-0.007926,0.116378,-0.021027,0.027057,-0.067825,-0.012313,0.113141,-0.039941,-0.066196,-0.086488,-0.000383,0.091296,-0.014006,-0.061549,-0.059965,-0.021861,-0.031758,0.097658,-0.039147,-0.083027,0.026674,0.004406
0.015610,0.007448,0.075511,-0.007063,0.030305,0.003253,0.085156,-0.060079,-0.005697,0.006493,0.050766,0.106760,-0.003085,-0.084068,0.027091,0.038599,0.007761,0.015234,0.041012,-0.001802,0.038964,0.016445,-0.086554,0.129682,-0.003865,0.121052,0.070830,-0.052529,0.044381,0.042647,-0.029505,-0.071468
0.070072,-0.005992,0.039786,0.032071,0.035865,-0.026399,0.090043,-0.142383,-0.034740,0.008217,0.036391,-0.040729,-0.044642,0.097258,-0.031198,0.012723,0.017828,-0.044054,0.006844,-0.025086,-0.088794,-0.102083,0.002790,-0.022590,0.052541,-0.028160,-0.033730,-0.011655,0.082530,0.007410,0.056614,-0.105988
-0.083004,-0.067562,0.012937,-0.050544,-0.020759,0.018575,0.026038,0.091531,0.146953,0.096258,0.001430,-0.037271,-0.065510,-0.031707,-0.042372,0.043128,-0.059205,0.087363,-0.060616,-0.043398,-0.052277,0.028925,0.071751,0.094882,0.004991,0.039864,-0.090530,-0.121282,0.040852,-0.073936,-0.033906,0.078461
-0.023683,0.039419,0.105389,-0.018060,-0.018487,0.044061,-0.013534,-0.065613,0.029578,0.037367,0.025404,0.021875,-0.007092,-0.089246,0.105232,0.067139,-0.121606,0.076844,-0.076282,0.027199,-0.086978,-0.115165,-0.050727,0.063864,-0.004119,0.070869,-0.122324,0.053909,0.102405,-0.057407,-0.010352,0.111374
-0.007044,-0.038571,-0.038031,-0.090385,0.027248,-0.007233,-0.001635,0.043461,0.007258,0.070207,0.077565,-0.046052,-0.029474,0.007624,-0.032382,-0.016109,-0.024416,-0.031135,-0.070059,-0.068451,-0.055024,0.025891,0.023395,0.043551,0.089925,-0.090789,0.018739,-0.002535,0.001884,0.095790,0.051000,-0.069720
-0.040746,-0.067482,0.015336,0.030822,-0.028565,-0.020320,0.018151,-0.017764,0.010260,-0.021410,-0.062310,-0.079029,-0.075253,-0.004207,0.038143,-0.085803,0.038945,0.062462,-0.105968,0.050491,0.093552,0.018115,0.004952,0.022593,-0.062628,-0.038258,0.034932,-0.003272,-0.035166,-0.009160,-0.013544,-0.003538
0.054557,-0.048920,0.003346,-0.033063,0.047557,-0.085110,0.013509,0.095408,-0.009097,-0.043794,0.027302,0.013579,0.035385,0.023796,-0.018414,0.022000,-0.098226,0.070039,-0.009075,-0.045296,0.126523,0.109848,-0.122528,0.064049,0.050705,-0.018193,-0.000149,0.028217,0.040363,-0.048879,-0.019078,0.103881
-0.030932,-0.062218,-0.041429,0.009926,0.023575,0.070768,-0.013318,-0.068273,0.032069,-0.066523,-0.002753,0.063948,0.029865,0.045530,0.052210,-0.035059,-0.173633,0.026785,0.040080,0.142635,0.092693,-0.146918,0.079466,0.041218,0.019183,-0.024311,0.090625,-0.000480,0.002846,-0.100982,0.024664,0.080146
-0.131989,-0.023783,0.010084,0.038580,0.018272,0.021024,-0.040485,-0.039698,0.031672,-0.011506,-0.068583,0.081142,-0.001522,0.131904,-0.008265,-0.009656,-0.017452,0.007630,0.022399,-0.114597,-0.008178,-0.135394,-0.001430,0.033813,-0.040454,-0.032947,0.023475,-0.033793,-0.036592,-0.115577,-0.020910,-0.066827
-0.043319,-0.074105,0.162980,0.015111,0.019393,0.024039,0.000674,-0.078787,-0.045934,0.023495,-0.041268,-0.050849,0.078680,-0.020539,0.027597,-0.041880,-0.055783,-0.000121,-0.051559,0.102855,0.042533,-0.061504,0.028830,-0.047514,0.026082,0.013568,0.015513,0.006704,0.056737,0.054023,0.026360,0.072745
-0.015884,0.001062,-0.074012,0.023749,0.075377,0.028006,-0.063923,0.094998,-0.040526,-0.027642,-0.037506,-0.134285,-0.000148,-0.086710,-0.025369,-0.039415,0.087433,-0.140026,0.027611,0.085438,0.020198,0.008484,-0.169118,0.079292,0.004239,-0.075976,0.093306,0.055137,-0.058488,0.052881,-0.041250,-0.012406
0.050683,0.027581,-0.070397,0.037640,0.027760,-0.208302,0.110345,0.002306,-0.024445,-0.092680,0.055149,-0.033755,-0.046753,0.066219,0.144272,0.021015,0.019843,-0.142962,-0.060366,-0.011473,-0.001919,-0.087726,-0.011100,-0.109250,-0.049178,0.037600,0.054122,-0.001390,-0.077370,-0.036942,0.030001,-0.074294
0.031416,0.063359,-0.029828,0.133958,0.171848,-0.050107,0.173145,0.000867,-0.053215,0.027901,0.052855,-0.028800,-0.063611,-0.060802,0.085436,-0.007544,0.048388,-0.013925,-0.044297,-0.012881,-0.033701,0.065711,-0.021238,-0.109239,-0.006028,-0.090189,0.073936,0.039877,-0.027511,-0.022155,-0.044140,0.068085
-0.111427,-0.018618,0.028986,0.022544,-0.025244,0.080561,-0.100177,0.005984,0.026472,-0.039816,0.035008,-0.020055,0.098096,-0.048630,0.046622,0.006335,-0.005428,-0.135998,0.068191,0.032166,0.030996,-0.052613,0.041565,0.054782,-0.064100,-0.029544,0.081689,-0.007613,-0.007310,0.078926,-0.005271,0.004906
-0.030956,0.028965,-0.099503,0.244714,0.085052,-0.097970,0.050475,0.139966,-0.011014,-0.001072,-0.067067,0.070610,0.025966,0.025001,-0.039992,-0.100270,0.039125,-0.067778,0.074775,-0.054178,0.011346,-0.084143,-0.004573,-0.066104,0.093387,0.099637,0.112095,0.002283,-0.165556,0.017826,-0.096266,0.132023
-0.002558,-0.106015,-0.003169,-0.033115,0.002146,-0.041622,0.097078,0.087501,0.033544,-0.009293,-0.036604,0.063486,0.037710,-0.072754,-0.069914,-0.034263,0.012758,0.010763,-0.033842,0.052864,0.022389,-0.087650,-0.004956,0.038688,0.004845,0.042948,-0.039314,-0.013459,0.006496,0.021886,-0.008603,0.005813
0.032287,-0.100994,0.023320,0.085106,0.011986,0.038175,0.051624,-0.009724,0.058647,0.091209,-0.108704,-0.051114,-0.056792,0.067152,-0.079192,0.027463,0.066357,0.029680,0.020076,-0.045202,-0.178810,0.052766,0.066847,-0.075132,0.073797,-0.069648,0.007792,0.042279,0.037202,-0.059482,-0.072935,0.013289
0.039614,-0.054587,0.002638,-0.122027,-0.007344,0.015294,-0.129138,0.065160,-0.095481,0.059576,0.007948,0.044823,0.010613,-0.063783,-0.038433,-0.050272,-0.085880,0.018858,-0.022690,-0.120992,-0.076341,-0.065313,0.056098,0.043080,0.043064,0.037103,-0.014217,-0.061478,-0.053266,-0.000756,0.045791,0.017601
-0.031060,-0.093271,0.136522,-0.044403,-0.087705,-0.093378,0.137463,-0.064059,-0.031200,-0.009136,0.081481,0.020188,0.012368,0.023211,-0.004777,0.069252,-0.107709,0.024960,0.065204,0.018057,-0.096782,0.023454,-0.049457,0.029780,-0.002687,-0.098607,0.125362,-0.028885,-0.076269,-0.033986,0.042704,0.044527
0.021291,0.044135,-0.062851,-0.066410,-0.006300,0.027185,0.030365,-0.020836,0.000386,-0.042495,0.010061,-0.037004,0.012399,-0.037025,0.009494,0.038121,-0.050943,-0.012931,-0.020012,-0.094287,0.044450,-0.059939,-0.039363,0.054778,0.013318,-0.030402,-0.111196,0.058927,-0.001252,0.039117,-0.086603,0.071237
0.055356,0.028000,-0.124959,0.070754,-0.025913,-0.018088,0.100518,0.044907,0.044003,0.033629,0.021592,-0.037139,0.063133,0.015247,-0.069998,-0.054312,0.068789,0.071885,-0.087983,-0.051353,-0.022342,-0.087401,0.046593,-0.002909,0.164563,0.077469,-0.056980,-0.035992,0.082108,0.083349,0.027704,-0.062507
0.096974,-0.102027,0.021414,0.069225,-0.016825,0.081974,-0.104886,-0.026738,-0.042235,0.062226,-0.048471,0.026829,-0.036493,0.087969,-0.137192,-0.086393,0.103461,0.012090,-0.048674,0.073450,0.045117,0.145618,0.008402,-0.036911,0.012536,0.024589,0.025334,-0.036857,0.043934,-0.062519,-0.102821,0.002248
-0.057413,-0.006298,-0.031089,-0.034226,-0.002600,-0.022827,-0.136421,0.018775,-0.055284,0.033427,-0.092760,-0.071313,-0.047563,-0.015392,0.002154,0.076930,0.003132,-0.041828,-0.000606,0.065674,0.017849,-0.047067,0.024675,-0.038085,-0.001518,-0.000355,-0.037477,0.035405,0.011880,-0.062088,0.014079,0.057877
0.011763,0.021266,0.047932,0.043652,-0.032770,-0.090691,-0.132712,0.000703,-0.050467,0.094778,0.023843,0.017464,0.014934,0.092842,-0.008990,0.037462,-0.004753,0.052508,-0.012869,-0.130692,-0.022437,0.040708,0.074341,-0.016495,-0.096626,-0.007691,0.071549,0.021100,0.092183,-0.073957,-0.031905,0.053572
-0.010849,0.019811,0.027058,-0.043139,0.059575,0.004456,0.059984,0.035013,0.104361,-0.017975,0.001676,0.019978,0.084199,0.034595,0.099946,0.076149,-0.045018,0.140078,0.036375,0.147459,-0.048472,-0.028647,0.054321,-0.042689,-0.054412,-0.014347,0.067873,-0.011097,0.005410,-0.041448,-0.120428,0.031186
0.119017,0.046737,-0.054498,-0.003485,0.012569,0.072216,-0.002283,0.096936,0.044406,0.097630,-0.031323,0.077751,0.013805,-0.053383,-0.041164,-0.116662,-0.012245,-0.060413,-0.055743,-0.045828,-0.038811,0.026693,0.024229,0.008565,-0.069518,-0.061400,-0.028247,0.027039,0.047458,0.049956,-0.119598,-0.070443
0.100064,0.044733,0.052131,-0.112074,0.035616,-0.085505,-0.000534,-0.042348,-0.043132,-0.031794,-0.160702,0.043045,-0.022901,0.073931,0.053469,-0.033270,0.027082,-0.164506,-0.062843,-0.109597,0.083070,0.076962,0.084322,-0.098075,-0.034011,-0.098934,-0.004376,0.072148,-0.000784,-0.033901,0.040284,-0.065100
-0.045894,0.022967,0.011703,-0.033902,0.053742,-0.098335,0.187723,-0.026110,0.006178,0.051559,0.004610,0.070763,-0.015278,0.150083,0.032658,0.075299,0.077786,0.001266,-0.078596,0.095335,0.088301,-0.098730,-0.117864,-0.046331,-0.002843,-0.059165,0.031336,-0.050945,-0.044044,0.020619,0.042179,-0.053913
0.054394,0.029089,-0.048756,0.034262,0.198141,-0.008456,0.015720,-0.014139,0.091667,0.141131,-0.030484,0.022708,-0.031142,0.061009,0.072253,0.008323,-0.055501,0.026326,-0.016749,-0.035225,-0.004696,-0.055555,0.053226,0.011616,0.142635,0.017330,0.038249,0.104078,0.023691,-0.088506,0.058423,0.047135
0.091585,0.060100,0.006236,-0.053100,0.171000,-0.115547,-0.021949,-0.054559,-0.042480,-0.047237,-0.009308,0.045150,-0.081910,0.059643,0.011616,-0.031676,0.029771,-0.007119,0.034479,0.133512,0.105560,-0.080844,-0.080100,0.028261,-0.057246,0.062930,0.144490,-0.122238,-0.068941,-0.006181,0.004579,-0.049035
0.058969,0.027504,-0.074557,0.013528,0.152749,0.005925,0.059797,0.014582,0.016433,-0.002435,-0.061261,-0.050631,0.100507,0.088785,-0.055458,-0.092778,-0.046909,-0.054462,0.067027,0.055854,0.081223,-0.119652,0.048367,0.038748,0.034390,-0.034294,0.042234,0.010626,0.052900,0.105107,-0.029445,0.073062
0.179517,-0.091147,-0.119081,-0.095924,-0.097031,0.015192,0.063286,-0.097701,-0.016317,0.010923,0.124901,0.016810,-0.006478,-0.233410,0.096973,-0.057575,-0.028364,-0.055085,-0.128309,0.012759,-0.004024,0.119838,0.067450,-0.062792,0.084397,-0.061778,0.026448,0.080917,0.046161,-0.028663,-0.031757,-0.023848
-0.016071,0.031233,-0.017298,0.031672,-0.042517,-0.000905,0.106184,0.017282,-0.073856,0.048245,-0.142050,0.111608,0.079560,-0.057085,-0.029480,0.021247,0.003367,-0.016259,-0.044758,0.089750,-0.073600,0.036047,-0.096657,-0.050308,-0.083876,0.066693,-0.062213,0.016688,-0.122503,0.093193,-0.003874,-0.120500
0.087238,0.089405,0.076324,-0.029834,-0.044857,-0.003276,0.089310,0.016749,-0.011881,0.012544,0.004340,0.031236,-0.017751,0.033104,-0.092721,0.002023,-0.121501,0.056163,-0.007085,0.069434,-0.047182,-0.065716,-0.001469,-0.050074,0.012656,0.049039,0.106151,0.013402,-0.074588,0.033918,0.064643,-0.065615
0.064852,0.011282,0.022773,-0.024729,0.058971,-0.064359,-0.032645,-0.055539,-0.189978,0.081627,0.036114,-0.102681,0.079206,-0.020897,0.057948,0.174118,-0.049029,0.044078,-0.069957,-0.061361,-0.056949,-0.053391,-0.092685,0.070646,0.138388,-0.057627,-0.045374,0.084484,0.072088,0.027604,0.008235,-0.043906
-0.020116,-0.132657,0.068608,0.108211,-0.193154,0.022244,-0.044062,-0.020472,-0.009459,-0.065683,0.019401,-0.038446,0.132355,-0.076495,0.116066,0.049522,-0.040015,-0.037316,-0.039260,0.023723,-0.008088,0.116748,0.148304,-0.024342,-0.114544,-0.013871,-0.153716,-0.036405,-0.086312,0.046529,-0.055150,0.007084
-0.013463,-0.044682,0.008982,-0.063520,0.111857,-0.004522,0.068107,-0.050235,0.120507,-0.099368,0.073771,-0.002620,0.052339,-0.014130,-0.050827,-0.071501,-0.055759,0.004249,0.030543,0.062181,0.030633,-0.017363,0.049128,0.030906,-0.021876,0.023026,0.116506,-0.009159,0.045658,0.030112,0.007753,-0.027397
0.051772,0.019663,0.035166,-0.009735,0.038419,-0.006845,0.028543,0.030991,-0.001207,-0.005093,-0.038511,0.039212,-0.015865,0.038455,0.001988,0.074349,0.040612,0.031786,-0.026932,-0.004262,-0.143749,-0.047477,-0.073863,-0.143258,0.036178,0.031900,-0.015782,0.016640,0.027565,-0.051388,-0.004414,0.064936
-0.071936,-0.080785,-0.045927,-0.047720,-0.017484,0.011083,0.039055,-0.055203,0.131867,0.007656,0.034528,-0.002899,-0.086139,0.054657,-0.024269,0.062932,-0.066372,0.053128,0.098851,-0.075705,-0.068649,-0.012384,0.033060,0.038880,-0.052659,0.011744,-0.056206,0.013893,0.038576,-0.063167,0.094139,-0.004987
0.023248,-0.043616,-0.003197,0.060382,-0.034810,0.100587,-0.068470,-0.123580,0.048448,0.041447,-0.069134,0.015922,-0.036586,0.039722,0.068926,0.166132,0.082692,-0.042176,-0.083367,-0.003395,-0.056736,-0.114970,0.068071,-0.054541,0.118717,-0.026077,0.032340,0.097941,0.098988,-0.022910,-0.110061,-0.047017
0.004431,-0.058870,-0.011375,-0.046773,-0.071331,0.022755,-0.072401,0.011720,0.048611,0.016988,-0.058607,-0.044698,0.033313,0.095730,0.136606,0.068905,-0.012646,-0.003614,0.028053,-0.102425,-0.044948,0.004751,-0.014252,-0.001740,0.087308,-0.132371,0.041092,-0.088007,0.102361,-0.095189,-0.149563,0.037100
-0.008618,0.176553,-0.013444,-0.078401,0.048359,-0.028708,0.010779,-0.015236,0.028253,0.075888,-0.019728,0.027407,-0.079217,0.047464,-0.077025,-0.110905,0.028779,-0.000116,0.046523,-0.022064,-0.060002,0.066084,0.078354,0.004140,0.030090,0.114636,-0.077262,-0.011692,0.035003,0.055283,-0.034676,0.008068
0.007443,0.020395,0.034191,-0.071758,0.178917,-0.067564,-0.132776,0.038187,0.078856,-0.021525,0.080264,0.023381,-0.064197,-0.035734,0.030685,-0.169381,0.018818,-0.129744,-0.033160,0.123604,0.001982,-0.016447,-0.005707,-0.064453,-0.075969,0.083115,-0.044656,0.063062,-0.022710,-0.043111,-0.056543,0.059882
0.040164,-0.018994,0.045957,0.015612,0.006772,-0.053525,0.119871,0.004040,-0.070337,-0.107145,0.036118,-0.007503,-0.162246,0.037946,0.058016,-0.154766,0.166567,0.013898,-0.120829,-0.015614,0.031957,0.069765,0.017329,-0.060343,0.041453,-0.002349,0.144735,-0.040847,0.003413,0.075908,-0.039207,0.009899
0.008432,0.078425,0.037662,-0.002849,0.094436,0.022916,0.092374,-0.035842,0.028671,-0.031566,0.011164,-0.073136,-0.069615,0.035810,-0.028966,-0.020955,-0.031131,0.014075,0.130601,-0.044634,-0.058013,0.104281,-0.085111,-0.088213,0.131945,0.035507,-0.024833,0.066107,-0.084023,0.020569,-0.059979,0.037766
0.003001,-0.005452,-0.040758,0.006722,0.126436,0.022704,-0.061459,0.034198,-0.009839,-0.023403,-0.053952,0.062648,0.010965,-0.035666,-0.029139,-0.134881,0.107082,0.027380,-0.048966,0.094630,-0.005118,0.043213,0.036121,-0.050054,-0.060775,-0.100800,0.148924,-0.004583,-0.094324,-0.029608,0.007357,-0.048935
-0.007553,0.123082,-0.038332,-0.002247,-0.022357,0.043160,0.009133,0.031946,-0.026774,0.015193,0.069360,-0.014918,0.079802,-0.009694,0.031518,0.112667,-0.031835,0.067618,-0.021501,-0.137888,-0.014623,0.028643,-0.002720,-0.029216,0.030668,-0.002850,-0.116963,0.023345,0.052657,-0.027619,-0.131105,0.003753
0.026998,-0.037898,-0.035051,-0.029213,0.052467,-0.037869,0.034505,-0.156187,0.048942,-0.005616,-0.009099,-0.005326,0.071323,0.001495,0.037975,-0.000903,0.007521,0.014218,0.018184,-0.049824,-0.019170,-0.091195,0.047831,-0.073056,-0.069615,0.043460,0.037415,0.045414,-0.040011,-0.141518,-0.012056,-0.034019
-0.008405,-0.026329,0.008092,0.036997,-0.022619,0.029603,-0.035214,0.069676,-0.016034,0.057661,-0.069613,-0.077839,-0.026907,0.050886,0.073184,-0.034951,-0.051158,-0.013697,0.042899,-0.069589,0.155722,-0.000749,0.032723,0.002737,0.068834,-0.041042,0.051359,-0.011980,-0.074738,0.032485,-0.139066,0.030014
0.045725,-0.088698,0.075912,0.018044,-0.083838,0.016927,-0.190468,0.058784,-0.074721,-0.009272,-0.013586,-0.038789,-0.034652,-0.041013,0.058629,-0.012866,-0.180649,0.083281,-0.026980,0.084653,-0.004824,-0.079329,-0.074924,0.011416,0.075939,0.078840,0.017755,-0.014955,-0.063593,0.063818,-0.005778,0.159249
-0.067760,0.087364,0.035859,0.061879,0.087971,0.045091,-0.049624,-0.037781,-0.080515,-0.016616,-0.128471,-0.084742,-0.082481,-0.009739,-0.050740,-0.161839,0.089659,-0.073072,-0.060198,0.015098,-0.100332,-0.048755,-0.095066,0.009868,0.069782,0.042045,0.034370,-0.038705,0.050761,-0.069904,0.016113,-0.082619
-0.135917,0.152497,-0.003570,-0.035036,0.026188,0.079655,-0.071984,0.003108,0.087776,-0.035834,0.078890,0.050720,0.079888,0.004520,0.056939,-0.018182,-0.036683,-0.073835,0.127762,-0.052569,-0.000690,0.011664,-0.037440,0.059162,0.089764,-0.006835,-0.038776,-0.092002,-0.016127,-0.010170,0.001254,0.114820
0.022206,-0.073967,-0.054022,-0.034191,-0.003211,-0.064487,0.028083,0.049967,-0.049069,-0.008940,0.020893,-0.101934,0.074039,-0.014236,0.094651,-0.062842,-0.072436,-0.083937,0.032254,0.031785,-0.010456,0.036310,-0.001579,-0.020253,-0.068135,0.049411,-0.012999,0.022246,-0.075015,-0.120672,0.024558,0.065515
0.035448,-0.001699,-0.081107,-0.091498,0.044085,-0.017145,0.022812,-0.007269,0.101371,-0.017595,-0.007655,0.035576,-0.045483,-0.028007,0.014535,0.113146,0.002495,0.017451,-0.118267,0.027416,-0.005036,-0.035457,0.066534,0.072361,0.181837,-0.152988,-0.055878,-0.037714,0.026022,0.127031,-0.096907,-0.110433
0.018470,-0.091485,-0.051957,0.009214,-0.047589,-0.008516,0.041136,0.007499,0.061317,-0.085689,-0.063729,0.063157,0.082785,0.018474,-0.010007,0.075439,0.044351,-0.000080,-0.041146,-0.025975,0.090938,-0.032183,0.128566,0.056214,-0.017630,-0.108935,-0.027879,-0.029508,0.087606,-0.009744,-0.065144,-0.069261
-0.044495,0.064635,0.050040,-0.064316,-0.027599,-0.033403,0.043348,0.030220,0.093316,-0.032420,-0.081170,-0.022022,0.042991,-0.074673,-0.035529,0.059906,-0.005504,-0.109582,0.057594,0.130225,-0.025405,-0.006053,-0.117903,-0.042687,-0.042140,-0.021415,0.014043,0.081464,0.085431,-0.038715,0.021307,-0.116509
0.019923,-0.016951,-0.021749,0.040278,-0.021087,-0.067053,0.098482,0.046908,-0.060936,0.026576,-0.000140,-0.138333,0.039683,-0.023153,0.032878,0.136055,0.026108,0.005237,0.095066,-0.018035,-0.034139,-0.071352,0.062318,-0.009676,-0.014187,-0.062284,0.002383,-0.010026,0.076481,-0.076411,-0.043967,0.051494
0.030355,-0.045348,-0.038179,-0.035767,-0.023020,0.048280,-0.090780,0.095051,0.109444,-0.111794,0.013055,0.067712,0.090759,0.024128,-0.006983,-0.082404,0.058850,0.052178,-0.042481,-0.020526,-0.098936,0.086849,0.126801,-0.083105,0.013121,0.141966,-0.019423,-0.059540,0.047095,0.077462,0.065830,0.092136
-0.019961,0.081151,0.024036,-0.179863,-0.026460,-0.081202,-0.000719,-0.019618,-0.018874,0.043756,-0.017979,-0.050199,-0.033160,0.012534,0.003592,0.033927,-0.053547,-0.073286,-0.064168,0.017814,-0.032505,0.073725,0.031338,-0.030672,-0.050749,0.056507,-0.063472,0.032178,0.037931,0.048479,0.008547,0.021672
0.092340,0.029474,0.005853,0.047430,-0.058916,-0.085603,0.041504,-0.039466,0.056101,0.070115,-0.082128,0.053983,0.027789,0.113210,-0.047978,-0.022509,0.076964,0.001571,0.022420,-0.115807,-0.144457,0.063513,-0.055228,0.055174,-0.046320,0.043707,0.003518,-0.018640,0.015875,0.042955,0.075554,-0.060027
0.015841,-0.101395,-0.036325,0.015775,-0.027893,0.074490,0.170782,0.019417,0.004804,0.052394,0.039460,0.083199,0.030138,0.143757,-0.125300,0.045067,0.006711,0.051487,0.125931,-0.071089,0.059340,0.173647,-0.023397,-0.069978,0.072978,0.031041,0.056414,0.090901,-0.023523,0.001363,-0.052489,0.021519
0.003930,0.025919,-0.052475,-0.076016,0.040370,-0.022199,0.038210,0.106693,0.072343,-0.096989,0.078450,-0.008571,-0.003426,0.016960,-0.100261,0.086095,-0.019978,0.032670,0.089753,-0.049178,0.109617,-0.031969,0.040198,-0.070956,0.034352,-0.021667,-0.093662,0.056519,-0.020478,0.036369,-0.023028,-0.008390
0.065571,0.008712,0.019407,-0.047350,0.155608,-0.021170,0.018209,-0.022632,-0.019476,0.084007,-0.007372,-0.083238,0.051629,0.058316,-0.124911,-0.032721,-0.056152,-0.076518,-0.036395,0.022337,0.045349,-0.114411,-0.001626,0.113299,0.002800,0.029193,-0.028885,0.055297,0.057226,-0.035283,-0.154766,0.008026
0.044274,0.023144,-0.086129,0.059389,0.118719,-0.033001,-0.115449,-0.044274,0.010281,-0.038979,0.045349,-0.054767,-0.068142,-0.075938,0.077658,0.077640,-0.010563,0.048624,-0.007427,-0.031190,-0.068139,-0.025447,-0.000160,-0.043084,-0.001842,-0.001199,0.052776,0.018523,0.028420,-0.026527,-0.001585,-0.068474
0.046539,-0.164400,0.034585,-0.065088,-0.011147,-0.053930,0.089547,-0.010205,0.061460,-0.050858,-0.050863,-0.133120,-0.002065,0.014515,0.072752,-0.014241,-0.041419,0.007564,-0.030521,0.003281,-0.059117,-0.010715,-0.079280,-0.125838,0.041136,0.035790,0.058564,0.128640,0.038867,0.043651,0.063661,-0.010514
-0.044058,0.038031,0.035675,-0.025463,0.057435,0.025507,-0.025818,0.038544,-0.061375,0.037058,-0.017271,-0.063410,-0.115002,-0.116514,0.021740,-0.013852,0.030018,0.044673,0.014964,-0.090687,-0.016537,-0.001164,0.014759,-0.074394,-0.078951,-0.050585,-0.006786,0.048526,-0.128263,0.029758,-0.004929,-0.043063
0.028707,0.049251,0.105457,0.125042,-0.080402,-0.009541,0.025050,-0.096088,-0.107531,0.105328,0.064585,0.018911,-0.012332,0.010532,-0.007011,-0.055343,0.005945,-0.049532,0.025660,-0.032861,0.062551,0.086579,-0.040773,0.075379,0.069382,0.001735,-0.062636,0.038715,0.032120,0.060409,0.015960,-0.004971
-0.007027,0.016825,0.062827,0.012322,0.017336,-0.001143,-0.137642,0.050354,-0.053047,-0.021415,-0.027780,-0.086074,0.051716,-0.090603,0.057683,-0.087042,-0.134505,-0.027920,0.084762,0.096915,0.027926,0.000362,-0.033828,0.015488,-0.016502,-0.013105,-0.140887,0.065602,0.017276,0.093726,-0.018857,-0.038542
0.060080,0.132453,-0.020761,-0.000850,-0.113919,0.004722,0.011472,0.060393,-0.007093,-0.050753,0.013590,-0.093699,-0.096359,0.032878,-0.020007,-0.017345,0.070302,-0.002162,0.025244,-0.006915,-0.000197,0.055077,0.040627,0.066624,0.057734,0.016570,-0.037801,0.041196,-0.040751,-0.044675,0.005039,-0.107543
-0.089438,-0.014068,-0.017222,-0.012565,0.000779,0.072517,0.021104,-0.122097,0.051551,0.054994,-0.051888,0.110505,-0.013988,0.031964,0.003670,0.055769,0.026028,0.113935,-0.088072,0.007014,0.019897,0.027717,-0.022241,-0.007652,0.090896,-0.008651,0.080646,-0.072210,-0.038494,0.043565,-0.136012,-0.032852
-0.036826,-0.111051,-0.113729,-0.027856,-0.020650,-0.039760,-0.090553,0.058086,0.089919,-0.044346,-0.019879,0.074242,0.093835,0.082097,0.038332,0.017450,0.050767,-0.031179,-0.016534,0.122985,-0.202580,-0.029419,0.089084,0.031565,-0.012272,-0.022391,-0.062954,-0.012035,0.027155,-0.076875,0.044937,0.116081
0.099658,0.040928,0.012727,0.010816,-0.059438,0.053713,0.097720,0.059947,0.094407,-0.065702,-0.074265,0.007371,-0.078639,0.043675,0.015001,0.013650,-0.018060,-0.030646,-0.060593,0.012489,-0.061940,0.016254,-0.060154,-0.061023,-0.092183,0.009137,0.049437,0.071736,0.137953,-0.035850,-0.042665,0.098823
-0.039400,0.032832,-0.062202,0.066491,-0.172781,0.087621,0.000933,-0.033573,-0.076199,0.003433,0.020897,-0.011259,0.035386,-0.009048,-0.018026,-0.011474,0.011042,-0.009172,0.076490,-0.082841,0.091234,-0.059024,-0.049975,-0.134235,0.021145,-0.032640,0.140591,0.096344,0.001838,-0.000986,0.024462,-0.021759
0.019631,-0.036866,-0.065896,0.013595,0.022472,0.034991,-0.042795,-0.021542,-0.098255,0.024111,0.073495,0.031028,0.092629,0.074594,-0.032159,-0.044376,0.062767,-0.039925,-0.022871,-0.043238,0.038482,-0.059521,0.091164,0.101106,0.028336,0.039251,0.081539,-0.070262,0.040641,-0.080302,-0.014927,-0.036100
0.033584,0.007706,0.084148,0.026776,0.015860,-0.001473,-0.039794,0.046576,-0.034047,-0.016453,0.137278,0.061190,-0.045227,-0.056180,0.068693,0.110427,-0.062727,-0.009784,-0.046158,0.055605,-0.016340,-0.037718,0.003144,-0.018792,0.013845,0.127309,-0.022470,0.077657,0.110199,0.064427,0.060863,0.071572
-0.074609,-0.013841,-0.023733,-0.056400,0.001862,-0.132363,0.051022,-0.070732,0.009297,-0.060570,-0.015240,0.079337,-0.028793,-0.018276,0.007240,0.060406,-0.049235,0.043700,0.053037,-0.022665,-0.059603,0.094849,0.034947,-0.026093,0.045204,0.055071,-0.027837,0.106316,-0.046594,0.065913,-0.034376,-0.065429
0.002916,-0.059118,0.057637,-0.046055,-0.015713,-0.071912,-0.051911,-0.003941,0.081908,-0.039822,-0.023821,0.057373,-0.008935,0.002571,0.029233,0.068607,0.023351,-0.091187,-0.005988,0.130391,-0.039294,0.017131,-0.003726,0.028640,-0.053054,0.069336,-0.094622,-0.009321,0.008019,0.045941,-0.123946,0.020942
-0.070750,-0.106588,-0.085659,-0.053682,-0.043832,0.002965,-0.017263,0.080511,-0.139209,-0.100367,0.000564,0.085195,0.088835,-0.003631,0.018258,-0.012823,0.018201,-0.066026,0.029062,0.009901,-0.127752,0.009742,0.015400,-0.009858,0.011625,-0.061109,-0.042140,-0.037404,-0.044088,0.000408,0.026308,0.070755
-0.114540,0.014915,-0.021454,-0.128329,0.017310,0.030027,-0.152003,-0.008061,0.066286,0.018178,0.039945,0.074520,0.061547,-0.048442,-0.049844,-0.065154,-0.020640,-0.062544,0.049221,-0.000310,0.049765,-0.024380,-0.056528,0.109898,-0.119102,-0.089987,-0.007483,0.062400,-0.159471,-0.050292,-0.010253,0.033075
0.076145,0.058003,0.028819,-0.037584,-0.007262,-0.004579,0.118479,-0.023969,-0.095913,0.019626,-0.031408,-0.057149,0.002438,0.130550,0.123120,-0.014649,0.083225,-0.010046,0.055866,-0.018611,0.000967,0.007313,-0.044996,-0.024053,0.011690,-0.008114,0.043456,-0.000520,0.004191,0.088981,0.049890,-0.035942
0.001325,-0.084437,0.029333,0.074129,-0.023367,0.004814,-0.114747,-0.074959,0.039127,-0.011552,-0.015030,-0.076851,0.046599,-0.054761,0.079611,0.052521,-0.117427,-0.162668,-0.011937,0.030383,-0.086744,0.040230,-0.067449,0.044347,-0.000841,0.064711,-0.089668,0.026214,0.004347,0.064440,-0.027760,-0.103356
0.048089,-0.072951,0.008874,0.037621,-0.007105,-0.049457,-0.016520,0.073838,-0.123514,-0.012465,-0.072276,0.131617,-0.063029,-0.023796,0.088032,0.064951,-0.015235,-0.011023,-0.048697,-0.019431,-0.016959,-0.024820,0.031427,0.031492,-0.008967,-0.082221,-0.003523,0.115379,-0.063335,0.024730,-0.024654,0.014063
-0.021225,0.074076,0.000783,-0.066774,0.023328,-0.024032,-0.183381,0.016495,-0.041466,-0.048888,-0.064344,0.135028,-0.004573,-0.000566,0.010092,0.046249,-0.046601,0.076932,0.051197,-0.015800,-0.069582,-0.014288,-0.030484,0.148302,-0.018174,-0.001668,-0.066425,-0.029923,-0.090839,-0.029749,0.119016,-0.002901
-0.095070,-0.052380,-0.082221,0.048795,0.009161,-0.008825,0.080525,-0.039958,-0.049417,-0.050724,-0.098173,-0.058470,0.169263,-0.061685,0.066796,-0.057740,-0.055038,-0.078608,0.020922,0.077251,0.016786,-0.174599,0.106941,-0.108932,0.078357,0.003257,-0.020496,0.006911,-0.123847,0.060170,-0.008175,-0.067222
0.010867,-0.036888,0.065327,-0.031062,-0.017003,-0.045574,-0.032221,-0.063050,-0.093957,0.036059,0.087455,-0.040124,0.012913,-0.079432,-0.012736,-0.065402,-0.082595,0.079995,0.041468,-0.081600,-0.005021,-0.012766,0.022044,0.019302,0.040826,-0.031468,-0.048323,0.004010,-0.062406,-0.022736,0.037714,-0.074727
0.089952,0.054838,-0.089371,-0.027578,0.100515,0.056824,-0.076536,-0.009747,0.015926,0.029661,0.001760,0.038996,-0.066849,0.094761,-0.145487,-0.082241,-0.021476,-0.070666,0.065101,0.028977,0.027149,-0.009251,0.022724,-0.080728,0.022000,0.125523,-0.027763,-0.061741,-0.009869,-0.030324,-0.014915,0.104764
-0.046974,0.000303,0.089346,0.085705,-0.043230,-0.064290,0.035872,0.023036,0.068648,0.009135,-0.062050,0.084972,-0.037594,0.059011,-0.055019,-0.081962,-0.001521,0.122708,-0.050728,0.076813,0.020807,0.042052,0.023816,-0.019886,0.039915,0.111660,-0.015762,-0.020511,0.027899,-0.151212,0.063837,0.027309
0.090748,0.034431,-0.025138,-0.062008,0.035828,0.000841,-0.031281,0.006444,0.008746,0.095669,-0.024249,-0.037651,0.012771,-0.078313,-0.017628,0.048502,0.062287,-0.006383,0.024873,-0.026702,-0.012214,-0.062935,-0.043882,0.075693,-0.048719,0.055574,-0.079407,-0.022579,0.062478,-0.044364,0.070881,0.089511
-0.038738,-0.010524,-0.093840,0.051824,-0.172364,0.037496,-0.074436,-0.023162,-0.040944,-0.085957,0.075122,0.001372,0.000417,0.025866,-0.023978,0.057313,-0.036424,-0.074622,-0.044921,-0.019412,-0.032530,0.023663,0.034438,0.057914,0.027270,-0.152406,0.063818,-0.035240,0.140858,0.155792,-0.068527,-0.040086
0.108204,0.047317,0.042165,0.077815,0.000077,0.044916,-0.035748,0.047480,-0.086705,-0.014994,-0.089368,-0.003886,-0.015263,-0.051399,-0.043489,0.041174,-0.026761,-0.101968,-0.028114,0.063735,-0.026851,-0.037490,-0.059133,-0.025057,-0.031725,-0.033896,0.021293,0.027202,0.051409,0.054357,-0.040825,-0.035167
0.074997,0.021320,0.209150,0.047502,-0.034100,-0.080699,0.060575,0.008657,0.021287,0.005687,0.077924,0.071061,0.147208,0.027124,0.054556,0.077943,-0.051527,0.035985,-0.098785,0.045354,0.025619,-0.034324,0.058750,-0.038237,-0.020718,0.134768,-0.061606,0.038451,0.084871,-0.047018,0.098293,0.074281
0.059940,0.032452,-0.072358,-0.190728,-0.016726,-0.025128,-0.031943,0.122675,0.014452,0.046720,0.037274,0.023582,0.046945,0.103953,-0.043464,-0.017418,0.052880,0.108881,0.005532,0.062612,0.060483,0.090729,0.012718,-0.065836,0.075728,0.027755,0.040139,-0.127515,0.051058,0.044048,0.038380,-0.101304
-0.035201,-0.090706,-0.085595,-0.050641,-0.026133,0.017248,0.006456,0.040110,-0.113955,0.017741,-0.016404,-0.080419,-0.065372,-0.009186,-0.057030,-0.040556,0.034598,0.010011,0.039730,-0.092985,0.071741,-0.042127,0.045194,0.062261,0.038562,-0.005390,0.002870,0.020704,0.059087,0.013925,-0.117303,0.078575
-0.018027,0.074754,-0.017707,0.030961,0.002572,-0.025511,0.079468,0.025541,-0.057882,-0.043404,0.008556,-0.093897,0.010558,-0.155227,-0.094908,-0.054160,0.084315,-0.001615,-0.058315,-0.034785,-0.033364,0.053375,0.036451,0.080824,-0.100622,0.018280,-0.107510,0.082316,-0.123479,-0.028123,-0.141711,0.004366
0.046268,-0.048400,-0.044658,-0.131702,0.030308,-0.064470,-0.043793,-0.067626,0.090334,0.148129,-0.158770,-0.023158,0.031174,0.081787,0.037864,-0.040001,-0.034334,0.089124,-0.179336,0.045915,-0.028750,0.008623,0.024268,0.004381,0.038569,0.010440,0.003887,0.072304,0.109747,-0.119680,0.011221,-0.086239
0.168544,-0.098351,-0.068819,-0.114624,-0.025855,-0.030737,0.040800,-0.004304,-0.124550,0.064080,-0.084929,-0.090913,-0.024309,-0.005017,-0.020416,0.064919,0.004630,0.023133,-0.032642,-0.043625,0.021745,-0.052791,0.043034,0.031689,-0.011603,-0.040625,-0.101698,-0.027189,-0.137485,0.156301,-0.011671,-0.093226
0.001384,0.007310,0.010017,-0.020515,0.025470,-0.066893,-0.060829,-0.009957,-0.052032,0.003262,-0.031881,0.086796,-0.022995,0.021560,-0.011344,0.082337,-0.005549,-0.003154,0.106602,0.052983,-0.014175,-0.009075,-0.046331,0.094821,0.053259,-0.078630,0.005668,0.057451,-0.021409,0.022092,-0.110131,-0.053506
-0.015124,-0.035614,0.000044,0.012267,-0.043241,-0.008129,0.065821,0.054738,0.046595,-0.042182,0.015642,0.007342,0.021705,-0.089212,-0.039896,0.084609,0.083569,-0.074325,0.035613,-0.004206,-0.049286,0.073542,-0.075532,0.005307,0.007270,-0.034427,-0.005816,0.063689,-0.021214,-0.015345,-0.063012,-0.065795
-0.038160,0.022796,-0.029608,-0.013034,-0.058587,-0.078427,-0.055437,-0.013594,-0.034591,-0.095705,0.025366,-0.016456,-0.042206,-0.035184,0.052534,-0.052800,0.105937,-0.017895,0.106932,-0.001107,-0.030352,0.065046,0.025777,-0.002849,0.013005,-0.133174,-0.061402,-0.013403,0.021091,0.036782,0.054634,-0.035687
-0.010449,-0.021761,-0.012637,0.001613,-0.042746,0.009940,0.103752,-0.071073,0.000952,0.029644,-0.131403,0.010185,0.107129,0.075074,0.018418,-0.016705,0.028258,-0.013283,0.068796,-0.026868,0.186202,-0.055233,-0.016312,-0.038269,-0.023879,0.023393,0.001106,-0.028512,-0.054073,0.138951,-0.012683,0.021385
-0.078342,0.122835,0.025585,0.079410,0.033962,0.023626,0.082106,0.047532,-0.028016,0.059471,-0.057818,0.028891,0.038348,-0.036642,-0.005519,-0.038101,-0.047432,-0.087464,-0.086917,-0.057953,0.001059,-0.009975,-0.046204,0.054933,-0.034462,-0.078883,-0.079351,-0.032954,0.002435,0.009181,0.024124,0.012952
0.001737,0.030998,0.021321,-0.026217,0.042053,0.066420,-0.012699,-0.037790,0.150913,0.032121,0.041763,0.047612,0.003049,0.125479,-0.075382,-0.073146,0.011382,-0.064219,0.008249,-0.059863,0.004648,0.105128,0.015367,0.040546,0.015245,-0.014725,-0.119918,0.023533,0.026958,-0.144657,-0.102596,-0.122495
-0.109962,0.030424,0.045735,0.072897,-0.039904,0.020384,-0.119808,-0.086267,0.021565,0.066940,-0.008094,0.014254,-0.006412,0.001154,-0.170505,0.019158,-0.063424,0.048340,-0.009126,-0.066434,0.008857,-0.003768,0.009482,0.072413,-0.011158,-0.025115,-0.064766,-0.057033,-0.017132,0.024357,-0.017815,-0.019412
0.112816,-0.072680,0.092675,-0.083376,-0.029566,-0.118596,0.067577,-0.061340,-0.002484,-0.078557,-0.054306,-0.042311,0.005812,-0.035655,0.007507,-0.055968,0.052708,0.091832,-0.000875,-0.067195,-0.003659,-0.056846,-0.000768,0.049182,-0.049820,-0.018656,0.063078,-0.015559,-0.050100,0.031243,-0.044003,-0.006869
0.063246,0.021436,-0.007335,0.001916,-0.098763,-0.055825,-0.021646,0.134697,0.009561,0.090802,0.028631,0.093281,0.033939,0.052399,-0.043489,-0.005872,0.003454,-0.040990,0.067423,-0.024195,0.036505,0.003931,0.063352,-0.130309,-0.051306,-0.015315,-0.032931,0.062098,-0.012432,0.006171,0.109770,0.027422
0.028880,0.126684,-0.029538,0.100156,-0.014603,0.081518,-0.116721,-0.028935,0.035053,-0.024628,0.059621,0.021338,0.020313,-0.015973,-0.096716,0.037009,-0.093880,-0.020337,-0.018348,0.088345,-0.028558,-0.046107,-0.007386,-0.061276,0.016683,-0.106788,-0.114832,0.064897,0.190420,-0.044187,0.010857,0.090286
0.034597,-0.041746,-0.018375,-0.068647,-0.048844,-0.101057,0.044856,-0.058619,-0.079570,0.031367,0.102172,-0.101326,0.050476,-0.008287,-0.032308,0.017052,-0.001860,0.059249,-0.142073,0.037947,-0.086738,0.012810,0.000770,-0.058140,0.081297,0.080652,0.008103,0.001452,-0.004354,0.054391,-0.050728,0.024930
-0.023203,-0.025960,0.069563,-0.058582,0.037451,-0.044812,-0.002687,-0.128368,-0.000672,-0.016768,-0.042820,-0.108638,-0.090306,0.094111,-0.017590,0.068637,0.050217,0.078466,0.156691,0.071708,-0.050271,0.023801,0.110377,-0.109874,0.050497,0.136176,-0.075762,0.013957,0.135687,-0.075892,-0.038317,-0.078561
-0.011219,0.077630,0.059043,-0.037086,0.100900,0.091152,0.054938,0.034113,-0.026156,0.014315,0.094754,-0.009351,-0.042768,-0.068443,0.030925,-0.095408,-0.048660,0.049048,0.054782,0.030616,-0.098769,-0.018214,0.090797,0.070628,0.029170,0.081081,0.017600,-0.115680,-0.076998,0.049468,-0.047319,-0.055625
0.006337,0.114069,-0.109519,0.075845,-0.011004,0.107481,-0.057012,0.063357,-0.046719,0.069618,0.034326,-0.006408,-0.075779,-0.074393,0.114054,-0.067253,-0.036569,0.067946,-0.091824,-0.040715,0.057667,-0.024548,-0.060549,-0.071316,-0.026906,-0.014534,0.088961,-0.022683,-0.046213,0.011105,-0.024026,-0.003093
0.056197,0.029838,0.124610,-0.105589,0.021987,0.102981,0.040836,0.002521,-0.013994,0.009923,-0.035599,0.018742,0.146137,0.039325,0.021858,-0.090935,-0.044784,0.193209,0.013886,0.064734,0.013369,-0.015122,0.003801,0.065222,-0.042960,-0.044215,-0.195817,0.223326,-0.011273,-0.015902,0.045692,-0.096290
-0.063304,0.039568,-0.085256,0.047552,-0.021352,0.024287,-0.123024,0.013394,-0.037832,-0.051439,-0.070271,-0.067041,0.024604,0.040412,0.021551,-0.020089,-0.041753,0.033400,0.034717,0.064219,0.061288,-0.006228,0.074794,-0.060617,0.113573,-0.065782,-0.072811,-0.031430,-0.099481,-0.022673,-0.017565,-0.116145
-0.042092,-0.113718,0.082362,0.030207,0.076711,-0.112318,0.048486,0.040746,-0.108759,0.083388,-0.014280,-0.054972,-0.016843,-0.028845,0.100626,0.057628,-0.153787,0.023837,0.092286,-0.044556,-0.108968,0.005666,0.019645,0.009472,-0.061363,0.035376,0.072189,0.078212,-0.170989,-0.071742,-0.063790,-0.015689
0.013475,0.039458,-0.088305,0.035645,0.006244,-0.141726,0.069810,-0.003303,0.039016,0.094004,-0.089461,0.101115,0.041001,0.155510,0.141174,-0.015769,-0.130500,0.042263,0.005778,0.046736,-0.009878,0.005634,-0.047153,-0.048047,-0.104729,-0.002504,0.042335,-0.017482,0.060572,0.093594,0.097681,0.011273
-0.014760,-0.090894,0.047368,0.026083,-0.119851,-0.034247,-0.029873,0.077000,-0.066384,0.014512,0.091639,-0.004668,0.002812,0.100922,0.067496,0.019114,0.001891,0.000690,-0.016361,-0.122719,-0.002368,-0.025331,-0.016867,-0.013017,0.081939,-0.053297,-0.008416,-0.017389,-0.025029,-0.027686,0.045369,-0.014358
-0.043000,-0.018651,-0.024249,0.119664,-0.034767,-0.136059,0.036383,-0.057134,0.099544,-0.074729,0.081750,-0.012123,0.069724,-0.019476,0.061819,-0.029825,0.011140,0.094164,0.073449,0.026095,0.008323,-0.054115,-0.014993,0.019183,-0.004833,0.025137,-0.017052,0.004497,-0.039651,-0.036102,0.036490,0.004104
0.020845,0.114261,-0.097219,0.003030,-0.116225,0.089583,0.002239,0.002081,-0.092289,0.092864,0.051002,-0.078823,-0.107733,-0.088005,0.042782,0.027919,0.016062,-0.080726,0.086784,-0.050687,-0.019092,0.001531,0.101433,0.074468,-0.055545,-0.111876,0.008223,0.061436,0.027938,0.029741,0.017171,-0.020471
0.009436,0.180990,0.039826,-0.147873,0.012717,0.059320,0.021221,0.120693,0.040679,0.013424,-0.059890,0.028195,0.109265,-0.010803,-0.080616,0.036225,-0.012240,-0.008655,0.067177,0.044885,0.018985,-0.065822,-0.015722,-0.056313,0.061979,-0.066785,0.059452,-0.034791,-0.038723,-0.028979,0.054253,-0.012071
0.050875,-0.078810,-0.003968,-0.011145,-0.029862,-0.007162,0.084451,-0.027817,-0.017082,-0.007836,0.004522,-0.081698,0.028434,0.019049,-0.107879,0.102046,0.006850,-0.031356,-0.034131,0.060216,0.026208,-0.076916,0.087052,0.021653,-0.049618,-0.010299,-0.070297,-0.021014,0.073887,0.032364,-0.075392,0.059180
-0.038768,-0.049699,-0.027071,0.108255,-0.069661,-0.064179,-0.069615,-0.065720,-0.014614,0.053205,-0.014705,0.041899,-0.035055,-0.001820,-0.020801,-0.088484,0.016451,-0.043473,0.058225,-0.074113,-0.012751,0.093814,0.060771,0.086074,-0.111559,-0.128992,-0.039084,0.015547,0.151804,0.060638,0.041272,-0.007204
0.032122,-0.033217,-0.002899,-0.046005,-0.067651,-0.049281,-0.021808,-0.088769,0.004345,-0.042881,0.171812,0.047978,0.103339,-0.026236,-0.057436,-0.029313,0.089082,-0.006165,-0.100478,-0.114529,0.083745,-0.107084,0.005914,-0.004749,0.027515,-0.018923,-0.013289,-0.051209,-0.012335,-0.013186,-0.018325,-0.011665
0.133501,-0.021138,0.147540,-0.075337,0.087919,-0.054859,-0.007300,0.080992,-0.049579,0.014425,0.037767,-0.097167,0.007724,-0.023322,-0.044712,-0.054867,0.119352,-0.043486,-0.040287,-0.028626,0.026007,-0.017152,0.109927,-0.019528,0.020341,0.046729,-0.000595,-0.080884,0.099970,0.009032,0.013548,0.123310
0.008370,0.073112,-0.143299,0.061877,0.038290,-0.065334,0.049070,-0.080458,0.034990,-0.007740,-0.005487,-0.077942,0.001335,0.021839,0.003644,0.016342,0.003443,0.019373,-0.020602,-0.072351,0.112077,-0.040826,-0.050854,-0.016138,0.075193,0.165825,-0.049551,-0.006612,0.094836,-0.049866,-0.034658,-0.057786
-0.000564,0.102932,0.066577,0.142351,-0.132113,-0.000907,-0.088236,-0.083179,0.050536,0.146894,-0.096274,-0.105216,0.016172,0.070830,-0.054165,-0.012667,-0.090654,0.074211,-0.007594,-0.089993,-0.123020,0.023716,0.013883,0.122539,-0.027980,0.068188,-0.081598,0.116616,0.041688,-0.015256,0.043174,0.027132
-0.004470,-0.016657,-0.069832,0.079669,0.026980,0.070241,0.004711,0.000124,-0.014315,0.089518,-0.069076,0.056012,0.014244,0.010090,0.069335,0.041908,-0.013052,-0.100677,-0.014197,-0.044796,-0.121789,0.080381,-0.058229,0.045423,0.074213,0.035626,0.008500,0.120407,0.128626,0.041467,0.120555,-0.039813
0.004716,0.073562,0.009117,0.052617,-0.019271,0.039181,-0.016585,-0.069243,-0.054808,-0.072329,0.005815,-0.058085,-0.116089,0.018734,0.021151,0.064706,-0.063767,-0.071411,-0.006916,-0.088768,-0.009237,0.027388,-0.042438,0.013176,-0.112720,-0.055168,0.009335,0.126591,0.025982,-0.116310,-0.048684,0.154541
-0.085730,-0.025285,-0.010815,0.021917,-0.013055,-0.086944,0.076924,-0.136171,-0.015039,0.033644,-0.082355,0.020323,0.031797,-0.019829,-0.021644,-0.069827,0.024482,0.080451,0.004505,0.016615,-0.033941,0.018823,-0.105385,0.036768,0.004194,-0.059555,0.031962,0.103956,0.148736,-0.089125,-0.056838,0.062394
-0.069797,0.016787,-0.010515,-0.056257,0.130393,-0.071875,-0.095893,-0.036708,0.020302,-0.005180,-0.038274,-0.009954,-0.022959,0.044654,0.076469,-0.064711,0.086628,0.017554,0.031490,0.014503,-0.022491,0.002640,0.087377,-0.059397,0.004332,-0.096692,-0.081333,-0.134789,-0.044618,-0.014222,-0.007350,-0.096456
0.076303,0.086115,-0.077574,0.040583,-0.033902,-0.050414,-0.112849,0.038248,-0.029356,-0.038146,-0.102763,-0.050773,-0.031676,-0.090243,0.050447,0.170710,-0.056586,0.087853,-0.015150,0.064850,-0.063751,0.107508,0.005273,0.001938,-0.060270,0.048559,0.039011,-0.017574,-0.008993,-0.087646,-0.070075,-0.003127
-0.018376,0.057154,0.035474,-0.012032,-0.042584,-0.022926,-0.048704,0.029309,-0.081429,0.035559,0.042984,-0.059465,0.044444,0.059740,0.055206,0.076730,0.044147,-0.025045,0.013042,0.066038,-0.017875,0.156291,-0.049869,0.048309,-0.068530,0.029250,0.053217,0.061319,-0.032105,-0.127710,-0.041102,0.020851
-0.003730,0.073090,-0.107975,0.058141,-0.063702,-0.071334,-0.030204,0.013406,-0.095824,0.030111,-0.093812,0.118709,-0.006189,0.025656,-0.126855,0.119569,-0.019570,-0.044383,0.107507,0.005845,-0.126307,-0.053149,0.038301,-0.020560,-0.026773,-0.000645,-0.001717,-0.034969,-0.025774,-0.036967,0.059671,-0.099004
-0.063772,0.027383,-0.024741,-0.008189,-0.068196,-0.051252,-0.134029,0.070267,-0.042033,-0.041532,-0.045126,-0.029354,0.057462,0.043277,-0.131796,0.064682,0.010926,-0.067565,-0.025281,0.042355,-0.086753,-0.052260,-0.086704,-0.013737,0.060745,0.028815,0.014474,-0.052151,-0.000920,-0.099865,0.024917,-0.048731
-0.011702,0.065642,-0.012409,0.079533,-0.005835,-0.015524,-0.109726,0.085032,0.004750,0.013985,0.019834,-0.031774,0.129734,-0.034654,-0.009761,0.008941,-0.000882,0.010465,0.015790,-0.091486,-0.089438,0.033797,-0.015700,0.034000,0.015858,-0.010460,-0.076632,-0.004191,-0.077935,0.051707,0.041153,0.021287
0.008111,-0.039035,-0.045701,-0.019402,0.076330,0.017278,0.054586,0.045930,-0.032247,0.009917,-0.035274,-0.023937,-0.059941,-0.026110,-0.030194,0.004410,-0.053431,-0.031081,-0.052761,0.081328,0.031130,-0.017934,0.106863,-0.066141,-0.048343,0.029896,-0.038989,0.004065,0.022936,-0.036952,0.053138,0.012531
-0.116279,-0.002350,0.002476,-0.075569,-0.036358,-0.116033,0.011747,-0.082811,-0.011770,0.083134,0.022098,0.008584,0.013584,0.041756,-0.013353,-0.092918,0.042581,0.002743,-0.123206,-0.027556,0.005224,-0.001230,0.122155,0.019543,-0.154771,-0.008677,-0.011795,0.062671,-0.000332,0.198459,-0.027654,0.044337
0.028137,0.044787,0.144989,0.021831,0.078895,0.016915,0.046616,-0.071491,-0.078925,-0.015796,-0.169273,0.005873,0.091695,0.003597,0.009500,-0.058774,0.042453,0.043660,0.011391,-0.014845,0.014153,-0.009354,0.045934,0.098791,-0.079084,0.015397,-0.067595,0.075572,0.132728,-0.044608,0.033314,-0.043127
0.054106,0.061445,-0.031549,-0.020250,-0.047250,0.046539,-0.007018,-0.051583,0.002874,0.095033,0.047055,-0.055527,0.098309,-0.084586,0.061695,0.126497,0.068575,-0.059520,-0.021711,-0.043837,0.041730,0.084180,-0.000324,-0.009449,0.000077,-0.060723,-0.007796,-0.057125,0.024615,0.012049,-0.021411,0.034036
-0.074564,-0.046829,0.151029,-0.054929,-0.084668,-0.029176,0.015940,0.040174,0.064674,0.042359,0.053140,-0.102465,0.032723,-0.074407,0.013066,0.031728,0.078299,-0.015948,0.103495,-0.005641,-0.050388,-0.070927,0.041193,-0.000302,0.039500,-0.056540,-0.008990,0.129163,0.023508,0.031842,-0.000078,0.032872
-0.049679,0.005040,0.039955,0.044180,0.042507,-0.102605,-0.045348,0.044614,-0.058356,0.119650,0.065036,0.072059,0.013251,0.031832,-0.036023,0.010258,-0.026626,0.119252,0.030220,-0.054092,-0.090504,0.057369,-0.121759,-0.030846,-0.106787,-0.058912,-0.028681,-0.005261,-0.002605,0.013757,0.010865,0.045332
0.018550,0.061381,-0.044465,0.022730,-0.014796,-0.118728,0.067623,-0.004152,0.032947,-0.119188,0.008819,-0.031113,0.018132,-0.036899,-0.094504,0.048116,-0.028394,-0.072117,0.077249,0.050738,0.042167,-0.027343,-0.094206,-0.033668,-0.093164,-0.026195,-0.017875,0.072940,0.016536,-0.065508,0.096107,-0.022446
0.064757,0.072343,-0.132500,-0.016206,0.005459,0.009351,0.050591,0.029383,-0.001313,-0.017457,0.013020,-0.056090,0.040439,-0.177855,0.006740,0.039028,0.002161,0.069225,-0.034486,0.036404,0.094634,-0.000265,-0.029142,0.170744,-0.054506,0.035788,0.101418,0.022498,0.050951,0.113850,-0.048196,-0.094493
-0.017368,-0.015127,-0.129010,-0.092827,-0.003511,-0.095551,-0.118328,0.150939,-0.029201,0.079432,-0.076415,-0.024214,0.130298,-0.068914,-0.158367,0.048307,0.042942,0.043211,0.042832,-0.021497,-0.034735,-0.003552,-0.052759,-0.043313,-0.051105,-0.011090,-0.130456,0.007607,-0.058762,-0.047832,0.065987,-0.153081
0.158472,0.065160,-0.120963,-0.006678,0.032205,-0.189123,0.080658,-0.074217,0.186401,0.076034,0.034082,-0.007098,0.093233,-0.088441,-0.148308,-0.082564,-0.041964,-0.108181,0.017389,0.006920,-0.099095,0.054768,0.126151,0.074150,0.004823,-0.089430,0.043220,0.008362,0.120830,0.158235,-0.025146,0.126458
-0.050318,-0.049411,0.077740,-0.136108,0.053522,-0.000315,0.064745,0.092618,-0.071097,-0.019110,-0.064983,0.002369,-0.010364,0.023589,0.008920,0.035361,0.043547,-0.084898,0.073916,-0.053251,-0.038124,-0.064031,-0.131999,-0.057162,0.080614,-0.159564,0.040708,0.079250,-0.082216,-0.061770,0.001453,0.062478
0.056274,-0.127879,-0.132449,-0.086053,0.071984,-0.009209,0.113307,0.048699,0.021608,-0.032542,-0.053654,-0.080736,-0.038369,0.050689,-0.062393,0.035976,-0.037519,0.068920,0.035330,-0.073425,-0.025327,0.028024,-0.095095,0.022565,0.113068,-0.063607,0.000751,0.046080,-0.087896,0.094424,0.110686,0.092378
-0.018403,0.129817,-0.051220,-0.048951,-0.052346,0.054804,0.088879,-0.076219,-0.012133,-0.097976,0.034855,0.075147,0.095326,-0.058931,-0.022904,-0.045202,0.017620,0.026870,-0.025921,0.056442,-0.074049,-0.062427,-0.122530,-0.076810,-0.006572,-0.006415,0.009750,-0.049132,-0.028697,0.011388,0.000076,0.055625
-0.038631,0.102876,-0.025345,0.012587,-0.095961,-0.047115,0.091086,0.056627,-0.017040,-0.040141,0.017051,-0.026210,-0.030630,-0.093980,-0.025130,0.080351,0.013887,0.059668,0.009234,-0.026870,-0.023050,-0.091471,-0.087402,-0.060895,-0.147803,0.015507,-0.064527,-0.019857,-0.072417,0.019654,-0.078469,-0.071967
-0.111788,0.055879,-0.040356,-0.054177,-0.111783,-0.095314,0.084300,-0.019692,0.034407,0.027218,0.042402,0.080409,0.023120,-0.049687,0.003360,0.021905,0.001265,-0.079134,0.024488,-0.042088,-0.010769,-0.017420,-0.012097,0.106996,-0.072942,-0.089602,-0.067659,0.111665,0.004149,-0.056193,-0.074745,0.010852
-0.017241,-0.069986,-0.021971,-0.077443,-0.025388,-0.124023,0.035222,-0.055357,-0.005379,0.002864,-0.071658,-0.001530,-0.032397,-0.065056,0.009106,0.028925,0.071929,-0.024630,-0.025559,-0.028655,0.045279,0.063707,0.053513,-0.094706,0.019711,-0.021547,0.003763,-0.046162,-0.027237,0.019790,0.069323,-0.023705
-0.042947,0.004489,-0.094374,-0.021903,-0.015647,-0.140332,-0.013604,-0.103558,0.096674,0.094947,0.017438,0.091402,0.036299,0.048186,0.054703,-0.018840,-0.009380,0.025723,0.172064,0.056610,-0.088767,0.004910,-0.055783,0.025790,-0.094210,0.052831,0.052050,0.016178,-0.003567,-0.053532,0.022160,0.049538
0.096700,0.056299,-0.006182,-0.012942,0.053802,-0.081604,-0.058853,0.027451,0.083653,-0.022625,0.075056,-0.064708,0.070618,-0.030918,-0.067545,-0.121240,-0.041528,-0.091605,0.088558,-0.034969,-0.037765,0.013342,-0.004058,-0.016877,-0.070754,-0.069968,0.055559,-0.007783,0.065873,0.111436,0.009506,-0.133410
0.021502,0.053120,-0.045391,-0.072130,-0.065218,-0.011343,0.004162,0.061280,0.075807,0.051161,-0.061962,0.005625,0.009910,-0.191174,-0.033690,-0.014745,0.229750,-0.056621,-0.138126,-0.016883,-0.079351,0.018022,0.042690,0.158074,-0.097991,-0.058402,-0.050267,-0.047338,-0.112222,0.071822,-0.066352,0.054880
0.028102,-0.019286,-0.144468,0.031866,-0.108741,-0.100071,0.173906,0.019255,-0.030095,-0.105490,0.040040,0.054737,-0.066842,-0.107571,0.046474,0.014438,-0.018939,-0.000584,-0.063723,-0.078609,-0.129333,0.011647,-0.148317,0.122414,-0.183286,0.026456,0.032989,-0.061812,-0.013435,0.053675,-0.013273,-0.000088
-0.038308,-0.020136,0.013702,0.047861,0.045166,0.006789,0.067528,0.087388,0.062379,-0.065443,-0.136565,-0.095382,-0.070889,-0.064092,-0.046768,0.078976,-0.007744,0.118030,-0.060584,-0.088847,0.006550,-0.097501,0.010274,0.059635,0.028266,0.103552,0.011599,0.001286,0.001534,0.041403,-0.058965,-0.068959
-0.200515,0.018444,0.068095,0.005788,0.038599,-0.022181,-0.050079,0.066367,-0.000863,0.097033,0.029205,0.014735,0.026035,-0.077913,-0.014556,-0.064133,0.081406,-0.017016,-0.032064,-0.028613,0.096049,0.005083,-0.020548,-0.061716,-0.022956,0.041700,-0.010944,-0.065171,-0.009713,0.101476,-0.027970,0.163224
0.001288,-0.095910,0.047668,-0.059088,0.017884,-0.028313,0.052300,0.031807,-0.060844,-0.123473,-0.072915,-0.033612,-0.015737,-0.035380,-0.011911,-0.048002,0.029118,-0.041590,0.051360,-0.042449,-0.064623,-0.045933,0.046325,-0.015504,-0.026053,0.020472,-0.011133,0.016223,-0.076734,0.041641,0.044572,-0.065747
0.051334,-0.030478,0.085070,0.064690,-0.053887,0.099295,-0.038889,0.028899,-0.004265,-0.032332,-0.076041,0.055482,0.030892,0.035645,-0.067303,-0.048285,-0.012766,0.112795,-0.020471,-0.093937,0.141456,0.075486,0.071580,-0.063073,0.011431,0.036206,0.071834,-0.079186,0.039570,-0.067212,-0.087763,0.057173
0.084442,-0.020752,-0.109736,0.026438,0.039169,0.012794,-0.048988,-0.105298,-0.064444,0.011354,-0.019205,0.028443,0.016777,0.053829,-0.090827,-0.092264,-0.002207,0.020761,0.041623,0.012558,-0.035688,-0.041446,0.010970,-0.100208,0.030062,-0.063193,0.047854,-0.020264,0.109058,0.056253,-0.077160,-0.050484
-0.021165,0.074122,0.043930,0.007081,-0.073447,0.000498,-0.100299,0.068696,-0.028874,-0.008057,0.000968,-0.040817,0.182212,-0.095758,0.004894,-0.092931,0.171133,-0.031814,0.064051,-0.080367,0.047778,-0.026356,0.003655,-0.012246,0.038411,0.025652,-0.048490,-0.132743,0.070754,-0.067102,-0.101423,-0.076191
-0.023896,-0.003036,0.055753,-0.089298,-0.028942,0.088850,0.063580,-0.015051,0.014108,-0.183919,-0.038384,-0.056481,0.057860,0.107017,-0.020956,0.075108,-0.126395,-0.032563,-0.020931,-0.058986,-0.130925,-0.120821,0.052591,0.020098,-0.021972,-0.091424,-0.174148,-0.115886,-0.006309,-0.011313,-0.106601,0.012787
-0.063602,-0.043500,0.043729,-0.039175,-0.118319,-0.029355,-0.025597,-0.080216,-0.043410,-0.166002,0.005486,0.030419,0.042447,-0.068376,0.027039,-0.046402,0.115776,-0.039100,-0.033713,0.036884,-0.070445,0.075104,0.176506,-0.079678,-0.105499,-0.005658,-0.144093,-0.026196,-0.065317,-0.021895,-0.041744,-0.007686
-0.050490,-0.084518,0.104063,-0.084516,-0.059070,0.098110,-0.049535,-0.028686,0.031877,-0.048139,0.083265,-0.127148,0.021667,-0.076848,-0.083644,-0.038251,0.050757,0.035229,-0.048998,-0.019323,0.023221,0.068419,0.053079,-0.035838,-0.007456,-0.029237,0.017808,-0.089503,-0.036075,0.025652,-0.016044,-0.061738
-0.011640,-0.085969,0.021276,0.104862,0.027298,0.079816,-0.028463,0.098863,-0.008335,0.064256,0.113418,0.034987,-0.000454,-0.165283,-0.072114,-0.015677,0.033260,-0.067268,-0.018355,0.018731,0.107777,0.020095,0.105770,-0.100034,0.002897,-0.015463,-0.000982,-0.049948,-0.113286,0.042431,0.004638,0.103936
0.100101,0.112499,0.053812,0.044119,-0.011600,-0.099473,-0.039752,0.174141,-0.079174,0.040676,0.139333,0.040784,-0.016160,-0.054670,-0.142899,-0.047491,0.091158,0.015981,0.016382,0.109369,-0.007163,0.093020,0.017346,-0.036455,0.001921,-0.061018,0.084676,-0.109710,0.055192,0.120214,0.109200,0.033027
0.057903,0.000679,0.045908,0.068578,0.025718,0.009989,-0.024944,0.078941,0.074433,0.016986,0.041806,0.041757,0.028573,-0.066114,-0.089975,0.009224,0.099247,0.020477,-0.066718,-0.034647,0.022883,0.036056,-0.006432,0.083506,0.025440,-0.020694,0.045871,-0.136467,-0.002522,-0.048573,-0.074050,-0.086200
0.170599,-0.024013,-0.018047,0.071255,0.113832,0.029956,0.013107,0.049858,-0.012086,-0.129006,0.000945,-0.090075,-0.102964,-0.044894,-0.007154,-0.025784,0.032968,0.034834,0.064396,0.095395,-0.097739,-0.021247,0.002050,0.046538,-0.148495,0.059797,-0.001174,-0.090489,-0.051356,-0.003889,-0.011011,-0.006925
0.056521,0.002433,-0.002415,-0.028670,0.033065,0.142733,-0.106013,0.013466,-0.100191,0.057921,-0.075946,-0.089221,0.096646,-0.016245,-0.019879,0.043449,-0.024915,0.018898,0.010805,-0.025880,-0.011426,0.034308,-0.008744,0.068317,-0.130706,0.194285,0.007969,-0.154012,-0.025087,-0.064995,0.035609,-0.067168
-0.054744,-0.044236,0.041622,-0.008557,-0.157768,0.118868,-0.142635,0.011736,0.038127,-0.041329,0.022245,-0.070769,0.107267,-0.088781,-0.089196,-0.003560,0.155434,0.109979,-0.031183,0.033059,-0.055203,-0.016967,-0.047694,0.054377,-0.110148,-0.010142,0.052327,-0.094206,-0.087147,0.038586,-0.021763,0.038441
-0.172133,0.073999,-0.102464,0.023905,-0.136075,0.052796,-0.014784,-0.169462,-0.000314,-0.071493,0.031012,-0.048152,-0.011083,-0.063560,0.042042,0.022948,-0.097247,0.097436,0.005362,-0.020803,-0.025035,-0.102865,-0.096061,-0.147965,-0.115326,-0.033898,0.047297,-0.210896,0.109648,0.015453,-0.004566,0.116292
0.115028,0.001329,0.022574,0.073625,0.000084,0.026574,-0.148137,-0.122968,0.041294,-0.029795,0.018959,-0.046820,0.090239,-0.140309,0.044929,-0.087617,0.085513,-0.082276,-0.115547,-0.011101,-0.083260,0.058574,-0.088395,-0.020613,0.051923,0.044124,0.165587,-0.155803,-0.060362,-0.054392,0.138582,0.122729
-0.014951,0.049765,-0.051517,-0.018264,0.070744,0.089046,-0.101493,0.088200,-0.061495,0.152810,0.037993,0.000583,0.018012,0.097167,0.015882,0.006264,-0.077711,-0.006670,-0.046154,-0.008752,-0.012559,-0.003336,-0.132299,-0.018447,0.094192,-0.049345,0.101712,-0.029229,-0.129949,0.046389,0.005586,0.058856
-0.028580,-0.067216,-0.045478,0.022676,-0.005500,-0.037754,-0.044498,-0.053272,-0.112116,0.145487,0.044207,0.048316,-0.041925,-0.110756,0.121271,-0.007341,-0.028435,-0.101250,0.088666,0.014684,-0.066347,-0.029062,0.083158,-0.071754,0.077315,0.000179,-0.030478,-0.135387,-0.032344,0.038539,0.032793,-0.063033
-0.055804,0.080230,-0.062971,-0.100936,-0.045189,0.159171,-0.022788,0.067185,0.068332,0.017225,0.039296,-0.076024,-0.045726,0.055706,-0.014105,0.003856,0.018124,0.057710,0.047310,-0.103528,-0.003137,0.063504,0.020096,-0.104322,-0.040837,-0.018070,-0.051782,-0.154955,-0.020300,-0.029436,0.057188,0.074858
0.001692,-0.013330,0.095879,-0.056762,-0.065637,0.000278,-0.011859,0.015830,0.011085,0.030010,0.027817,0.010874,-0.099744,-0.046719,0.015454,-0.068215,-0.038304,0.047073,-0.025405,-0.016360,-0.023911,-0.047814,0.082485,-0.038476,0.000003,-0.071300,0.062055,-0.002210,-0.116634,0.081616,0.020208,0.025650
0.004524,-0.114895,-0.077668,-0.091927,0.098405,0.059323,0.072271,0.051325,-0.157195,-0.020715,-0.000358,0.002747,-0.004208,0.009199,0.028808,-0.151335,0.000436,0.111068,0.080097,0.051647,-0.012435,-0.054015,0.035979,0.124149,-0.008814,0.021200,-0.098998,0.079273,-0.005054,0.132268,-0.133489,-0.091152
0.028673,0.067727,0.137532,0.111462,-0.120564,-0.025786,0.126170,0.039088,-0.040680,0.179672,-0.127930,0.111036,0.225459,-0.033458,-0.088145,-0.009784,0.045687,-0.135215,-0.146333,-0.429133,0.251410,0.025458,-0.045664,0.093272,0.030271,0.198515,0.067533,0.228606,0.133358,0.112635,0.104648,0.037267
-0.152217,-0.005533,-0.169843,0.070039,0.052003,0.411615,-0.235851,0.037015,0.079007,0.100494,-0.159966,0.171911,0.249979,-0.133687,0.288535,0.075235,0.083974,-0.055928,0.125311,0.140513,0.173271,-0.151313,0.004005,-0.085773,-0.197379,0.229466,-0.323244,-0.128281,0.137680,0.095028,0.056350,0.045975
-0.095871,0.177835,-0.104153,-0.134800,-0.099242,0.087360,-0.251716,-0.229958,-0.212553,-0.221818,0.087794,0.096502,-0.055253,0.074100,0.076517,-0.022659,0.261484,-0.171672,0.246184,0.310348,-0.062038,0.041319,-0.179795,0.069383,-0.180230,-0.046783,0.052013,0.342181,-0.192482,-0.203885,0.150743,-0.064317
0.117101,-0.177434,-0.050961,-0.337262,-0.050622,0.108856,-0.093832,0.237935,0.115805,0.218923,0.179309,-0.062546,-0.065185,-0.221877,0.241664,0.114264,-0.228184,0.045718,-0.100969,0.142922,0.141194,0.137943,0.208895,-0.110588,0.148534,-0.038378,-0.165913,0.188258,0.108246,0.121097,-0.067797,-0.073207
0.272713,-0.107559,-0.015391,-0.228029,-0.225121,0.277549,0.053615,0.201318,0.142068,-0.093737,-0.040554,-0.164937,-0.100416,0.102461,0.192126,-0.098803,0.037474,-0.230323,0.170359,-0.120327,0.110318,0.218789,0.069841,-0.100114,-0.104358,0.078669,-0.275503,0.282955,-0.011737,-0.045022,0.017003,-0.050052
0.116021,0.297551,0.046968,0.370237,-0.025195,-0.004478,0.198192,-0.241937,0.204256,0.186000,0.059482,-0.245882,0.245358,-0.199873,-0.086865,-0.087745,-0.146446,-0.064727,0.174175,0.168604,-0.225804,-0.009082,-0.210196,0.057793,-0.167456,-0.103566,0.065098,0.260273,-0.073183,0.091168,-0.208430,0.058501
0.035472,0.191572,-0.103528,-0.093644,-0.150060,-0.179882,-0.101284,0.246683,-0.193290,0.109478,0.315257,0.200424,0.222889,0.101470,-0.070591,-0.245086,0.102873,-0.213862,0.239578,0.417177,0.031094,0.184058,-0.043629,0.193131,-0.208797,0.254845,0.011865,0.220666,0.178900,0.054692,-0.093943,0.000082
-0.109983,0.033054,0.157493,0.010200,0.180172,-0.163326,-0.000009,0.079037,-0.121593,-0.032849,0.180668,-0.362547,0.112778,0.230096,-0.126856,0.156834,-0.300731,0.253874,0.031176,0.184169,0.131926,-0.120166,-0.170800,0.239114,-0.248945,0.277628,0.270030,0.211011,-0.040529,-0.207699,-0.007065,0.050998
0.146626,-0.224085,-0.223729,0.067544,-0.101973,0.072585,-0.014371,-0.111285,0.208715,-0.174743,0.002268,0.065601,-0.160166,-0.042400,-0.151682,-0.135238,-0.017236,0.258986,0.174942,-0.328007,-0.234048,0.189045,-0.336341,-0.168822,0.051307,0.220518,-0.222907,0.218939,-0.155519,-0.048319,0.059709,0.196816
0.081568,0.014456,0.048173,0.310216,-0.232197,-0.555137,-0.363086,0.248596,-0.246624,-0.042820,0.042841,0.006159,0.403596,-0.191165,-0.006515,-0.197765,-0.184174,-0.143955,-0.028777,-0.143189,-0.070035,-0.058458,-0.147164,0.114242,-0.135965,-0.057846,0.011959,-0.116306,0.097228,0.121773,-0.148625,-0.185718
0.283966,0.261788,-0.119488,-0.149424,0.029200,-0.020507,-0.234415,-0.321928,-0.169255,0.050770,0.071937,-0.216145,0.186234,0.312857,-0.155293,0.243320,-0.167777,0.156425,-0.194900,-0.146910,-0.205231,0.047660,-0.299956,-0.028069,0.094188,0.253485,0.057400,0.036834,-0.087675,-0.317452,0.115542,-0.144275
0.176343,-0.057119,-0.123171,0.006947,0.060613,-0.060903,0.117857,0.144977,-0.229688,-0.196169,0.257508,0.219222,0.302669,-0.136062,0.125979,-0.270342,0.148201,0.164606,-0.087566,-0.247253,-0.248134,-0.156696,0.036390,0.186090,-0.229460,-0.200198,-0.103326,-0.166108,-0.141967,-0.230399,-0.047224,-0.158719
-0.068808,0.105127,0.134834,0.147843,-0.229296,-0.101406,0.012531,-0.298788,0.020925,0.037208,-0.092962,0.046763,0.158536,0.156454,-0.012615,0.011653,0.023363,0.140922,0.178087,0.084753,0.144705,-0.153565,0.135525,0.252503,0.000639,-0.004457,-0.002987,-0.017615,0.381615,0.022516,0.165959,-0.230910
0.036886,0.106420,-0.122892,0.054751,-0.247108,0.201570,0.030393,0.132877,-0.074813,-0.038843,0.216834,-0.206892,-0.199910,-0.085805,0.133862,0.291953,-0.249819,0.035111,-0.002065,0.302856,0.092083,-0.288839,0.282001,-0.065316,0.132732,0.268626,-0.258904,0.146977,0.054572,0.254885,0.213493,-0.199445
0.090090,-0.128373,0.000387,0.135262,0.189872,-0.023692,-0.179883,-0.271527,0.188672,-0.359911,-0.133651,-0.051312,0.008714,-0.040075,-0.279490,0.001674,-0.004538,0.154434,-0.045449,-0.138907,0.179131,-0.037867,-0.000779,0.101347,-0.118105,0.153485,-0.068381,0.274324,0.075480,-0.172050,0.289045,-0.164334
-0.107664,-0.000203,0.177064,-0.238796,0.048222,0.088444,0.059400,-0.029786,0.214672,0.301151,0.250620,-0.027794,-0.188488,0.108963,0.248303,0.093129,-0.027508,-0.074247,-0.200889,-0.054552,0.027877,0.102016,-0.232312,0.177384,-0.064842,0.046568,0.080270,0.286835,0.078241,-0.031348,-0.211190,-0.222320
-0.150092,0.168934,-0.071880,0.190705,0.119364,0.324842,-0.220483,-0.100343,0.223971,0.131734,0.228505,-0.261684,0.014246,0.264004,0.216058,-0.183789,0.353733,-0.197947,-0.036788,0.031144,0.187657,0.058672,-0.067643,-0.156544,-0.197041,-0.296068,-0.176542,0.238317,0.056315,-0.188317,0.061432,0.048495
-0.216509,0.151953,-0.020182,0.182842,-0.122263,0.106576,0.020793,-0.167892,-0.056100,-0.146496,-0.023587,-0.251625,0.318608,-0.088093,-0.332445,0.199125,0.001272,0.128735,-0.017102,-0.210844,-0.050803,0.121381,-0.055093,0.069927,0.117468,-0.045219,-0.123180,-0.029892,0.093981,-0.134912,-0.195826,0.168485
0.009597,0.157323,-0.041854,0.360758,-0.208579,0.237942,-0.197414,-0.075963,0.177438,-0.130596,-0.006177,0.045559,0.170257,0.180375,-0.019083,-0.144378,-0.021223,0.133819,-0.094924,0.209089,0.046306,0.174284,-0.173388,-0.106923,0.048478,-0.023412,0.106404,0.001869,0.135895,0.044398,0.284287,-0.146154
-0.123007,0.019428,-0.209569,-0.273038,-0.228952,-0.220664,0.121862,0.284450,0.054619,0.025447,0.198154,-0.145681,-0.098556,-0.272680,0.010430,0.053237,0.209919,0.176213,0.140697,0.133806,0.096752,0.198043,0.201115,-0.136394,-0.141027,-0.125160,-0.150156,0.142079,0.234241,-0.090283,-0.233693,-0.182915
0.005367,-0.164204,0.010824,0.203961,-0.127834,0.075833,0.069762,0.278751,0.101562,-0.228478,-0.219819,0.267968,-0.134937,0.058321,0.100587,-0.195046,0.033172,-0.216223,-0.014882,-0.224646,0.240809,-0.128986,-0.075455,-0.224810,0.009229,-0.000642,0.242029,-0.053409,0.128178,-0.317298,0.175843,-0.061490
-0.205150,-0.246078,-0.245798,-0.135267,-0.137996,0.183919,-0.115985,0.251020,0.085181,0.063119,0.148964,0.166791,-0.279065,-0.267063,0.301023,-0.000294,-0.104948,-0.127673,0.115004,-0.083901,0.006954,0.177820,-0.136507,0.245658,-0.036953,-0.220757,0.008482,-0.010116,-0.256558,-0.157913,0.054905,-0.101185
-0.134068,0.196048,0.101424,-0.024991,-0.111399,0.100874,-0.206026,0.265471,-0.033783,0.073876,0.057162,-0.236099,-0.243293,0.079353,0.203063,0.002607,0.164719,-0.000180,0.055879,-0.091950,-0.068684,0.126411,-0.101257,0.251297,0.219409,0.057612,-0.160075,0.292897,0.254042,-0.041873,-0.122292,0.241134
-0.063293,0.206004,-0.208445,0.127524,0.211450,0.035480,0.213264,-0.158525,-0.066611,-0.078325,0.114016,-0.125384,-0.193572,0.115540,0.211821,0.180300,-0.270788,-0.068142,-0.062919,0.101054,-0.174029,-0.031516,0.039207,0.080968,-0.123446,0.133846,0.213675,0.279611,-0.238905,0.191441,0.234821,0.211673
0.319980,0.292116,0.014063,0.159475,-0.088426,-0.166045,-0.160530,0.089457,0.231303,-0.363728,0.344758,0.394120,0.011655,0.121187,0.225813,0.075059,-0.070687,-0.142946,-0.010978,-0.097706,0.018756,0.244799,0.236406,0.211141,0.039784,-0.038603,0.132932,-0.270162,-0.111351,0.053405,0.237262,-0.081384
0.062098,0.075960,-0.016101,0.311240,0.093524,0.025954,0.043183,-0.052180,0.036062,-0.051331,-0.041690,-0.137095,-0.040622,0.034632,-0.212067,0.000786,0.164186,0.092154,-0.008495,-0.143670,0.061849,-0.001085,-0.203867,-0.184811,0.188215,0.171715,-0.165049,-0.062788,-0.019146,-0.341415,0.155810,-0.158106
-0.105694,-0.171777,-0.121498,-0.360996,0.178293,-0.028227,0.085052,0.185903,-0.161528,0.087080,0.038560,-0.036813,0.105119,0.168001,0.119123,0.044159,-0.006838,-0.019430,0.180785,-0.287834,0.132390,-0.199158,-0.082858,0.005893,-0.236166,0.037426,0.277493,0.242871,-0.156313,0.152017,0.145438,0.109575
-0.288328,0.384023,0.154712,0.257502,0.073451,0.085059,0.092179,0.130665,-0.150804,-0.184150,0.009241,-0.359175,-0.319816,-0.166671,0.141716,-0.076527,-0.014947,0.069071,0.141940,-0.186048,0.177960,0.281605,0.112767,0.236056,0.015708,0.060205,0.046269,0.199666,-0.129489,-0.080012,-0.011119,0.065996
-0.106318,-0.065027,0.099305,-0.065964,-0.164405,-0.125305,0.201524,-0.047656,0.042228,0.070717,-0.043246,0.336958,0.151383,-0.256512,-0.116751,-0.197709,0.206501,-0.219081,0.066966,0.152438,-0.123887,-0.245203,0.014643,0.095204,0.099835,-0.388013,-0.158316,-0.282219,-0.034927,0.140064,0.152906,0.145597
0.189684,0.036637,0.142369,-0.197057,0.002868,0.159600,-0.086385,0.339436,-0.132333,0.226552,0.031463,0.196201,-0.291207,-0.132037,0.174076,0.249607,-0.072825,-0.155312,0.121632,-0.002793,-0.077440,-0.173881,0.119721,-0.175227,-0.121129,0.204259,-0.113238,0.140541,0.029529,-0.258640,-0.088572,-0.056694
0.095987,-0.207062,0.107126,-0.315603,0.205127,0.030393,-0.192485,0.012556,0.228062,0.343181,0.299975,-0.167298,0.020922,0.033137,0.474075,0.246129,0.043766,0.053462,-0.020528,-0.179054,0.120920,-0.271170,-0.155946,0.262043,0.220430,-0.021300,-0.023276,0.117266,-0.093325,0.330958,0.218940,-0.201822
-0.090609,0.140616,-0.107538,0.015977,0.113123,-0.001639,-0.246523,0.095011,-0.213372,0.359099,0.027634,0.275393,-0.047809,0.267301,0.148732,0.008917,-0.169402,-0.198818,0.001440,0.196057,-0.105689,0.048230,0.095334,0.052877,-0.198450,-0.100383,0.140251,0.026760,-0.149592,0.026447,0.128409,-0.175268
-0.181422,0.186409,-0.128255,0.187676,-0.101296,-0.013868,-0.031826,-0.011186,-0.072753,-0.202736,-0.077500,0.223805,0.168894,-0.177522,-0.042744,0.206662,-0.102365,0.202730,0.145740,0.021213,0.026284,0.023407,-0.019165,0.053369,0.141267,-0.256127,-0.195522,0.167821,0.049339,0.168149,-0.236816,0.136576
0.056509,-0.097359,-0.052722,0.165550,0.112507,0.254636,-0.066647,-0.205692,-0.314514,0.267917,-0.205059,0.215541,0.115210,-0.002507,0.148772,-0.262178,-0.017677,0.060072,-0.006852,0.423119,-0.237285,0.289565,0.127225,0.222881,0.114990,0.130693,0.015509,0.037659,-0.073222,0.125240,-0.200907,0.276024
0.193148,0.080453,0.061897,0.122070,0.048211,-0.054449,0.149828,0.093767,0.157667,0.162989,0.041189,0.084898,-0.080300,-0.131910,0.126451,0.130483,0.132542,-0.196915,0.090414,0.137868,0.249294,-0.173876,-0.013049,0.132060,0.221556,-0.260072,-0.132171,-0.115115,0.013085,-0.000920,-0.106888,0.002942
-0.226286,-0.161068,-0.079538,0.309916,-0.066007,0.423106,-0.052249,-0.108126,0.145049,0.274325,0.337275,-0.097376,-0.238453,0.109957,0.239653,0.238452,0.164285,0.092267,0.058593,0.188112,0.162551,-0.147372,0.011539,0.230407,-0.232340,0.279293,-0.229830,0.104929,-0.135577,-0.041317,-0.162508,-0.186310
0.004164,-0.090986,0.211317,0.173260,-0.167658,-0.109862,-0.119860,0.218611,-0.146679,-0.167995,-0.170887,-0.101003,0.223639,-0.241900,-0.145109,0.163813,0.041890,0.160272,0.081178,-0.081985,0.245409,-0.162858,-0.159915,-0.242607,-0.149813,-0.168393,0.187557,-0.077303,0.033936,-0.189531,0.067225,-0.203162
-0.076827,0.055173,0.231844,0.075708,0.248972,-0.125427,0.005291,-0.236035,-0.054168,0.250978,-0.059528,0.002467,0.045601,0.069165,-0.145595,-0.111826,0.094835,0.187859,0.095343,0.024280,-0.258513,0.333587,0.098475,-0.118324,-0.356441,0.135433,0.011719,0.147943,0.036686,-0.338216,0.124217,-0.301268
0.145686,0.141726,-0.006895,0.209654,0.250375,-0.008426,0.187154,-0.030633,0.164359,-0.071238,0.195828,0.063364,0.217529,-0.244820,0.212058,-0.002185,0.213137,0.039716,-0.301318,0.296844,0.040804,0.187828,-0.263813,0.202605,-0.206823,0.040432,-0.032434,0.231910,0.114369,-0.143335,0.217145,-0.038987
-0.256275,0.006042,-0.042100,-0.474117,0.150134,-0.413059,-0.038823,-0.046009,-0.089821,-0.052544,-0.134107,-0.081343,-0.144905,-0.231663,0.169348,-0.356779,0.104404,0.382636,0.312732,-0.121638,0.136248,-0.150110,0.274246,0.085005,0.095558,0.057561,0.162265,-0.113841,0.120356,0.086553,-0.235801,0.111071
-0.116693,-0.105632,0.090949,0.270017,-0.013249,-0.232128,0.052066,0.191191,-0.039144,0.157020,-0.128023,0.061277,0.166213,-0.172484,0.092009,0.033906,-0.169784,0.046154,0.153253,0.149549,0.043239,0.163039,0.115531,-0.122033,-0.149083,0.061306,0.082996,0.169602,-0.078546,0.072584,-0.000481,0.028786
0.191517,-0.171097,0.082266,-0.141971,-0.079339,-0.254997,-0.155050,-0.056809,0.349181,-0.022539,-0.225135,0.177017,0.094015,0.180866,-0.125495,0.141429,-0.041474,-0.081218,0.139047,-0.261149,0.254095,-0.092050,-0.124693,-0.385375,0.222291,0.200654,0.215290,-0.192857,0.094966,0.011631,0.103688,0.064876
0.037221,-0.085694,0.211327,0.115615,0.065948,-0.215906,-0.096860,-0.026640,0.113865,0.031655,-0.092414,-0.101703,-0.025946,0.121162,-0.113637,0.129718,0.219375,0.128529,0.142819,0.205244,-0.219040,-0.107354,0.300130,0.137747,0.424934,0.158265,-0.248556,0.036094,-0.045246,0.242559,-0.188815,0.207267
-0.196320,-0.219777,0.295528,-0.000357,-0.077304,-0.273415,-0.153010,0.232680,0.289978,-0.110472,-0.078143,-0.150802,-0.354008,0.058028,0.154905,0.254580,-0.111147,0.134738,0.086225,-0.207885,0.209497,-0.044352,-0.220418,0.031332,-0.266275,-0.103928,-0.123050,0.016545,0.212179,-0.078123,-0.076066,-0.369059
-0.040817,-0.209434,0.079086,0.318121,-0.124612,0.338448,0.077735,0.343034,-0.003994,-0.236173,-0.089300,0.056921,0.095192,-0.249491,0.025793,0.316324,0.043361,0.373751,-0.017487,-0.007554,0.052731,-0.070987,-0.161930,0.208797,0.163206,-0.011214,-0.156265,-0.026168,0.220853,0.190046,0.071424,-0.108314
0.064667,-0.112088,-0.346876,0.231681,-0.253818,0.172236,0.184326,-0.075335,0.158818,-0.205752,0.159754,-0.011522,-0.237271,-0.144629,-0.044884,0.166233,-0.150713,0.042293,-0.026779,0.238591,-0.237142,-0.039230,-0.091405,0.087889,-0.251831,-0.041628,-0.173962,0.171752,-0.194817,0.179916,-0.176131,0.145183
-0.293357,-0.142033,0.185505,-0.337877,0.292419,-0.219295,-0.006515,-0.000150,0.012397,0.073688,-0.235647,0.048449,0.148727,0.036873,-0.072686,0.062486,-0.089392,0.196590,0.121778,-0.117328,-0.174382,0.311429,0.303789,-0.208492,0.031682,0.319725,-0.197778,0.026235,0.174820,-0.138179,-0.093747,0.203618
0.022650,0.235486,0.223212,0.039560,0.020894,-0.059572,-0.120211,-0.257434,0.207017,0.065444,0.057357,0.043120,-0.210816,-0.244400,-0.048250,-0.172233,0.154188,0.268704,0.002723,0.243472,0.148672,0.000320,-0.102753,-0.105785,-0.143351,-0.002789,0.150988,0.273506,0.126163,-0.180287,0.099290,-0.138932
-0.205946,0.040554,-0.008638,-0.000830,-0.311863,0.265025,0.066287,0.197093,-0.160030,-0.158876,-0.021170,0.005225,-0.058598,0.151039,0.016937,0.195101,0.086683,-0.161055,0.218306,0.007370,-0.093829,-0.187768,0.156178,0.071907,0.034984,-0.056949,0.015938,-0.182369,0.114456,-0.018082,-0.092473,0.171575
0.160471,-0.234211,-0.050285,0.172695,0.259138,0.228428,0.107028,-0.056741,-0.116166,-0.219985,0.199046,-0.039889,0.179438,-0.005348,-0.065444,0.064372,0.010941,-0.160366,-0.204351,0.164746,-0.083598,0.194254,-0.093068,0.158852,-0.071896,0.221834,0.190340,-0.172885,-0.146436,-0.167781,0.209303,-0.247860
-0.130828,-0.097388,0.134657,-0.077340,-0.138782,-0.010318,0.110350,-0.141502,0.079281,0.043276,0.205363,0.085126,0.217506,-0.140102,-0.234350,0.029320,-0.003785,-0.028068,-0.056999,0.189008,-0.129862,0.257585,0.032511,0.070367,0.152296,-0.018332,0.136273,-0.221881,0.059568,0.128125,-0.210827,0.199709
-0.240906,-0.246346,-0.281406,-0.185432,-0.005273,0.159878,0.105423,-0.170141,-0.159358,0.017542,0.272087,-0.186536,0.206837,-0.180949,0.030301,-0.087714,0.047394,-0.207463,-0.213622,0.291028,0.177718,-0.069263,-0.045521,0.075415,0.365409,-0.397307,0.153374,0.077461,0.145700,0.308294,-0.041807,0.269455
0.185668,-0.017225,-0.171690,0.009643,-0.154897,0.011171,0.171053,-0.058540,0.008923,0.162501,0.018850,-0.039456,0.121807,-0.126094,0.051064,-0.127585,-0.041920,0.099365,0.231813,-0.122635,-0.168012,-0.067339,-0.168083,-0.202874,-0.158902,0.280808,0.094373,-0.198685,0.188754,-0.223899,0.202433,0.093946
0.038028,-0.238899,-0.059617,0.056479,0.221008,-0.168435,-0.169828,-0.037895,0.209846,-0.028174,0.137104,0.071298,0.249619,-0.067221,-0.236808,-0.072495,0.224717,0.195196,0.177399,-0.214571,-0.152531,0.077187,-0.088398,-0.169328,0.264195,-0.301486,0.038785,0.103351,-0.174537,0.043895,0.015193,0.162117
0.000471,0.177415,-0.148689,-0.026195,-0.269653,0.059113,0.197937,0.208586,-0.185633,-0.025079,0.075871,-0.238017,0.273196,0.121809,0.017494,0.245505,0.143435,-0.127759,-0.214403,0.335997,-0.176684,-0.090566,-0.042900,-0.170133,0.077094,0.122827,0.119802,0.006271,-0.033007,0.020823,-0.127072,0.299548
-0.184538,0.095290,-0.115877,-0.173806,-0.073944,-0.190777,-0.170302,-0.010359,0.138251,0.184027,0.122868,0.176079,0.045723,-0.099877,0.111049,-0.150188,-0.028624,0.248160,-0.067387,0.208105,-0.092791,0.088040,0.202085,0.012227,0.126689,0.042425,-0.148260,-0.231617,0.187049,0.034237,-0.255903,0.242524
-0.173993,-0.063728,-0.224000,-0.017646,0.031531,-0.149326,0.222626,-0.052666,-0.241977,0.074205,-0.201368,0.042804,0.216815,0.163178,0.223523,-0.006820,0.110842,-0.198734,-0.157408,0.239517,0.119606,0.229795,0.055111,-0.078233,-0.033155,0.161500,-0.054235,-0.117096,-0.120264,-0.043349,-0.146259,-0.058874
0.134656,-0.094848,0.308252,-0.059478,0.023136,0.102414,0.132589,0.054822,0.079675,0.272498,-0.162099,0.040699,0.088704,-0.200430,0.219071,-0.021493,-0.162308,-0.144784,-0.015058,-0.282826,-0.206661,0.354006,-0.077702,-0.005016,0.055479,0.235072,0.174365,-0.205619,-0.155493,-0.292621,-0.022030,0.161830
-0.066693,-0.077468,-0.171936,0.230489,-0.189195,0.345636,0.019978,0.060644,0.202772,0.065842,0.264674,0.010513,0.103004,0.170266,0.215163,-0.203880,0.208686,-0.140455,-0.266360,-0.220525,-0.082996,-0.082411,0.032451,0.233421,-0.302151,0.007685,-0.217583,-0.164376,0.006660,0.032615,-0.180959,0.111783
0.182559,-0.054537,0.095097,-0.127949,-0.092508,-0.208332,0.110833,-0.395452,0.144041,0.212945,0.008451,0.229866,-0.053491,0.029521,0.017118,-0.063714,0.159817,0.160858,0.047148,0.423486,-0.257667,0.394038,0.266796,-0.238641,-0.034453,0.282199,-0.074391,0.191889,0.085513,-0.014533,0.082228,0.000926
0.188620,-0.011470,0.006635,-0.070993,0.086282,-0.165106,-0.097458,0.169145,0.210829,0.234979,-0.195254,-0.095980,0.021676,0.097033,0.087960,-0.126769,-0.098029,-0.261554,-0.165829,-0.010685,-0.325066,-0.226224,0.000341,0.086065,-0.270250,0.284412,-0.096287,0.012751,0.011225,-0.260622,-0.226397,-0.103799
0.011431,0.017188,0.067796,-0.264931,0.081792,-0.361924,0.083055,-0.029535,0.185727,0.052565,0.112175,-0.134968,0.187136,-0.073885,0.066698,-0.144687,-0.041432,0.124309,0.073094,-0.046926,0.218087,-0.229226,0.131182,0.182471,0.043260,-0.267759,-0.021523,0.116099,-0.225747,0.070546,-0.153274,0.185770
-0.234622,0.163899,0.261287,0.145704,0.171703,0.148765,-0.179395,0.117449,0.115005,0.204521,-0.097781,-0.052300,-0.182293,0.209661,-0.091432,0.013835,0.108839,-0.167354,0.261332,-0.004288,-0.106442,0.222571,-0.095639,0.022248,0.156492,0.104085,-0.087111,-0.122479,-0.111826,0.075560,0.158759,-0.099548
-0.064239,0.133858,-0.205290,-0.139673,-0.024431,0.070421,-0.233577,0.259818,-0.210030,-0.068199,-0.110442,-0.025778,-0.179392,0.069948,0.257268,0.147888,0.133528,0.201102,-0.205681,-0.134846,0.134053,0.071600,0.032415,0.278232,-0.200721,0.234649,0.157271,0.022296,-0.014609,0.087728,0.186571,0.124547
-0.042690,0.205435,-0.213570,0.174945,-0.142055,-0.214394,0.158415,-0.077579,-0.081613,-0.237170,0.075895,-0.006574,0.073502,0.075210,-0.161882,-0.072767,0.040870,-0.044934,-0.080332,-0.092774,0.223937,0.220360,-0.248821,-0.154835,0.202148,0.162221,0.118390,-0.047641,-0.004173,0.026539,-0.107721,0.192644
0.014270,-0.060591,0.139789,0.112866,-0.012579,0.046813,-0.214707,0.166058,0.056944,0.137353,-0.088628,-0.116295,-0.036961,0.036925,0.046038,-0.247211,-0.237900,0.216804,-0.088561,0.237114,0.187865,-0.087469,-0.161106,0.143066,-0.176360,0.207532,-0.148588,0.072646,0.004472,0.000257,0.036326,-0.230643
0.204493,-0.021574,0.130199,-0.073652,0.299632,0.203145,-0.146400,0.042234,0.217063,-0.012221,0.242059,-0.229625,-0.167651,-0.037262,-0.128388,-0.214185,-0.101417,-0.022855,-0.181274,-0.282019,0.096193,-0.122917,-0.273283,0.268325,-0.144133,-0.137012,-0.003438,0.090825,0.138811,-0.119392,0.122173,0.029115
-0.029172,0.042498,0.227519,-0.069333,-0.267020,-0.176848,0.212792,0.215994,0.020407,0.181539,0.353349,0.226644,-0.154421,-0.235924,0.305494,0.012214,-0.083138,0.362638,0.153196,-0.097245,-0.151072,0.166931,0.197009,-0.054632,-0.419158,-0.041438,-0.198505,0.202980,-0.121266,0.196382,-0.100130,0.213947
-0.089792,-0.053310,-0.122960,0.056844,-0.006618,-0.122569,0.029415,-0.188032,0.354543,-0.003961,0.271315,-0.236031,0.038425,0.119052,0.175846,0.181410,0.058623,0.044982,-0.259121,0.190122,-0.100738,0.240777,-0.149953,0.037389,-0.099148,-0.096331,-0.201000,0.201412,-0.212330,-0.000562,0.100522,-0.042484
0.167247,-0.177736,0.260958,-0.113910,-0.376338,0.069086,-0.054491,-0.161077,-0.429004,-0.045730,-0.008069,0.269893,-0.231714,0.243735,0.240347,0.156406,-0.003539,0.305342,0.142932,0.271717,0.091132,0.197389,-0.239209,-0.223257,-0.224475,-0.140498,0.250400,-0.063319,0.028550,0.278317,0.116414,0.043014
0.133751,0.050284,0.128134,0.243400,-0.194820,-0.158226,-0.173322,-0.121293,-0.055235,-0.015357,0.212441,0.015916,-0.025552,0.029500,-0.131118,0.203850,-0.119894,0.181990,0.114318,0.223186,0.086248,0.161987,-0.236574,0.151495,-0.247066,0.249478,-0.220327,0.112465,0.097914,0.094792,-0.151998,-0.000054
-0.148433,0.101282,0.014938,-0.032665,-0.012593,0.031548,0.085735,0.128692,-0.325438,-0.008062,-0.189552,0.174603,-0.130136,-0.060791,-0.238245,-0.044757,-0.180966,-0.239978,-0.118240,0.391243,-0.239584,-0.034726,0.091658,-0.227432,-0.060412,0.155187,0.130926,-0.180590,-0.127069,-0.237448,-0.074884,-0.076278
