8
256,16,16,16,16,16,16,3
0.105992,-0.197160,0.071656,-0.054376,0.076652,-0.032977,-0.069144,0.015281,-0.044105,0.067977,0.044901,0.120084,-0.169114,0.040306,-0.097359,-0.031914
-0.036177,-0.127575,-0.036987,-0.039593,-0.193061,0.159510,-0.041851,0.078467,-0.115057,-0.023354,-0.052637,-0.011471,0.057229,0.104296,0.059715,0.138437
0.018587,0.058863,-0.251525,-0.064662,0.223631,-0.039132,0.120960,0.030866,0.129432,0.129922,0.128545,0.030949,0.124184,0.147495,-0.140977,-0.102301
-0.097664,-0.140221,-0.123765,-0.062125,0.045477,0.001893,-0.048656,0.166395,0.032359,0.043909,0.057033,-0.073657,0.044527,-0.078541,-0.105995,-0.069808
-0.111585,-0.063135,0.032894,0.009068,-0.059570,-0.090184,0.071996,0.007151,-0.008129,-0.047140,0.041029,0.016973,0.063349,-0.020281,-0.161018,0.025809
0.157208,-0.145129,0.174189,0.057597,-0.151093,-0.129825,0.042647,-0.154268,-0.018091,0.066245,-0.060394,-0.150865,-0.287550,-0.049910,0.206045,0.245909
-0.111131,0.117462,0.080234,-0.064102,0.058134,0.115177,-0.067404,-0.006466,0.046897,-0.123700,-0.081978,-0.028030,0.202034,-0.098889,0.017030,-0.202086
-0.037080,0.058519,-0.120670,-0.040891,-0.020666,-0.062796,-0.034274,-0.050024,0.044727,0.056675,0.003100,-0.012662,-0.084103,0.134638,0.186027,0.133374
0.045587,0.191832,-0.023455,-0.042665,0.020937,0.162971,-0.241848,-0.069100,-0.000455,0.079202,0.058688,-0.206801,-0.085075,-0.109350,0.059299,0.113116
-0.088188,-0.235900,0.207222,0.078484,0.028067,0.073512,-0.031159,0.039507,0.062796,-0.000098,-0.007056,-0.048350,-0.011913,0.048959,-0.095524,-0.201172
0.020864,0.110113,-0.137960,0.074371,0.054710,0.099368,-0.036401,0.087350,0.104072,-0.001105,0.016843,0.200667,0.038968,0.213133,-0.093687,-0.173615
-0.020648,0.000117,-0.111295,-0.033298,0.062336,0.114369,0.045106,0.096021,0.018183,0.067985,-0.103280,0.050724,0.077054,-0.206388,0.059898,-0.010002
-0.000788,0.087021,0.134701,-0.079603,0.119056,-0.044022,-0.133010,0.120489,-0.080696,0.018375,0.035340,0.059793,0.053389,0.063250,0.006330,0.033327
0.181311,-0.002299,-0.109855,0.127538,-0.116762,0.088784,0.278588,0.021045,0.141962,-0.119480,-0.000605,0.025572,0.148774,0.034604,-0.170409,0.009242
0.044322,0.153352,0.070106,-0.025648,0.018669,-0.006985,-0.100737,-0.072800,-0.197004,-0.003061,-0.125860,0.072167,-0.071955,0.012038,-0.011524,-0.062465
0.057307,-0.139929,-0.136364,-0.075995,-0.067898,-0.073494,0.273116,-0.103835,-0.040346,-0.164311,0.026599,-0.004828,-0.012352,-0.100334,0.086582,0.081818
0.166361,0.050617,-0.150761,-0.048168,0.298216,0.012107,0.023176,0.207959,-0.069638,-0.031806,-0.034589,-0.086769,0.095473,-0.023102,-0.044357,0.048977
-0.063449,-0.082051,-0.044637,-0.077023,-0.006720,-0.055992,0.079569,-0.044825,0.122998,0.043337,-0.009810,0.021062,0.092600,0.077482,0.048457,0.148365
-0.034613,-0.112204,0.089227,-0.048924,0.014815,0.010219,0.001257,-0.067499,-0.013554,0.118463,0.044447,-0.215970,0.034938,-0.101646,0.028855,-0.005356
0.064978,0.115176,0.102593,0.004147,0.042441,-0.013464,-0.000785,0.068329,0.064952,-0.111662,-0.069511,0.046126,-0.055108,-0.064490,-0.058518,0.086494
0.037422,0.019318,0.024354,-0.107543,0.031966,-0.076356,0.030687,0.069697,-0.008979,0.010683,-0.084990,-0.110841,0.143639,0.045373,0.055691,0.074734
0.085072,0.030611,-0.035785,-0.021144,-0.048377,0.123024,0.029767,-0.129454,0.002093,-0.099843,-0.076904,-0.006114,0.067478,-0.037577,0.004699,0.021520
0.130450,0.217805,-0.206991,-0.036434,0.059269,-0.009105,-0.019959,-0.019514,-0.066984,-0.068575,-0.061803,0.097721,-0.027273,0.144346,-0.046457,-0.162496
0.063279,-0.052356,0.051861,0.092579,0.056638,0.078773,-0.040368,-0.128726,-0.091064,0.109263,0.026349,-0.050467,0.052636,-0.152700,-0.149880,-0.068923
-0.065163,0.083441,0.119594,0.081342,0.106763,0.026075,0.057843,0.068516,0.018429,-0.028786,-0.075039,0.004187,-0.260910,0.042172,0.078339,-0.025169
0.007355,-0.186506,-0.138398,0.022678,-0.027005,-0.005245,-0.026221,0.150630,-0.025095,0.029488,0.037870,0.093071,0.021835,0.192854,-0.219968,0.009684
-0.109364,-0.079499,-0.064953,0.071153,-0.173564,0.046140,-0.108159,0.063776,-0.079191,-0.000940,-0.088150,-0.068928,0.092601,-0.076931,0.080639,0.027004
-0.208533,-0.001213,0.013626,-0.054750,-0.156403,-0.044320,0.108901,-0.210344,0.083155,-0.024131,-0.026828,0.053145,0.009058,0.068495,0.030929,-0.019191
0.184248,-0.006023,-0.169829,0.081202,-0.214903,0.046822,0.104641,0.088445,0.069671,-0.057347,-0.065756,0.170856,0.078346,-0.104569,0.000920,0.329503
-0.082633,-0.094284,0.035413,0.119317,-0.032341,0.216511,-0.061933,-0.052068,-0.212175,-0.005131,-0.084397,-0.065683,0.042306,-0.129609,0.041304,0.097442
-0.388902,-0.115689,0.103333,0.103042,0.003896,-0.130106,-0.163627,-0.013830,-0.019338,0.019289,-0.080480,-0.033575,0.121379,-0.186777,0.005449,-0.185477
-0.249034,0.108966,0.275822,0.067265,-0.077692,-0.126863,-0.336584,0.035114,0.283620,-0.055935,0.057673,-0.005295,-0.095532,0.027931,0.000623,0.114354
0.031305,-0.259427,-0.049209,-0.023559,-0.093685,0.117598,0.051093,0.034865,0.056448,-0.002930,0.079024,-0.094958,0.216482,0.045351,-0.053387,0.023682
-0.173177,0.052483,0.060790,0.029775,0.073018,0.034655,-0.074543,-0.037340,-0.111390,0.006432,-0.037311,0.203902,-0.192067,0.058944,0.053895,-0.025307
-0.063855,-0.065836,-0.000987,-0.021689,-0.002323,-0.077171,0.090765,0.075799,0.035755,0.013527,0.068826,0.013006,-0.045702,0.033493,-0.076166,0.128719
0.034743,-0.039102,-0.066551,-0.000145,0.080565,-0.019121,-0.040851,-0.041289,-0.078667,0.175528,0.073909,-0.162493,-0.032548,0.019154,-0.039006,0.088959
-0.136077,-0.197655,0.051204,-0.001483,0.075787,-0.105395,-0.008595,0.102724,0.175781,0.021258,-0.029295,0.128514,-0.077682,0.076123,-0.083314,0.105080
0.148501,0.189015,-0.055908,0.000748,0.022910,0.065864,0.156949,-0.028882,-0.041061,0.035322,0.066405,-0.130764,0.036048,-0.096663,-0.066299,-0.032387
-0.019706,0.101586,-0.036925,-0.024202,-0.042012,0.000703,-0.018665,-0.166932,0.066338,-0.063560,0.086239,0.086177,-0.030234,-0.108363,0.010135,0.072996
0.080282,-0.062180,0.102983,0.054655,-0.118738,0.028514,-0.061401,-0.003066,-0.057605,-0.088059,0.060030,0.000996,0.027009,-0.035791,0.108318,-0.056730
0.001264,0.112905,-0.108861,0.026911,0.115787,-0.018935,0.051256,0.105141,0.136867,-0.046681,-0.019206,-0.046330,0.213316,0.108785,-0.056176,-0.075481
0.127123,0.028484,-0.079835,0.014591,0.027193,0.139370,0.157336,-0.010417,0.023483,-0.079710,-0.027974,0.041490,-0.061876,0.005236,-0.118429,0.015961
-0.122389,-0.041567,0.016295,0.067225,-0.089730,0.068808,-0.169805,-0.234157,0.024347,0.106997,0.071109,-0.042946,-0.097068,-0.053960,0.242088,0.038857
0.045705,0.052339,-0.022467,0.029387,0.054065,0.112530,-0.159277,-0.077514,-0.058066,-0.023778,0.001128,0.348723,0.102526,0.192616,-0.101915,-0.138867
-0.180772,-0.046117,0.020008,-0.029569,-0.113298,0.007061,0.134999,-0.011149,0.198147,0.031254,-0.085126,0.197778,0.052410,-0.006136,-0.167066,0.127849
-0.000884,-0.051150,0.064240,-0.021369,-0.122280,0.014081,-0.065761,-0.232581,-0.115248,0.131672,-0.037312,-0.145287,0.002121,0.063873,0.016791,-0.119885
0.001921,-0.071508,0.015392,0.085687,-0.128719,0.220444,0.277109,0.110450,-0.011327,-0.154246,0.029935,-0.037646,0.008752,0.046523,0.017057,0.268309
0.110914,0.050910,0.184273,-0.100732,-0.009367,-0.012887,0.223407,-0.052878,-0.102575,0.044294,-0.012903,-0.092605,0.165092,-0.061110,-0.128960,0.008077
0.037815,-0.016579,0.017045,-0.066284,0.055305,-0.161913,0.009531,0.023309,0.180509,0.001965,-0.079293,-0.202854,-0.044973,-0.158216,-0.031640,-0.008673
0.048367,-0.025646,-0.095740,-0.047584,-0.018078,0.021079,-0.117536,0.119447,0.000386,-0.029084,0.005831,0.072968,0.094334,-0.023786,-0.113338,-0.084905
0.074336,0.008825,0.074177,-0.005921,0.054743,0.215542,0.016488,0.030177,-0.102592,-0.064761,0.072540,0.054221,-0.118394,-0.000135,-0.080205,-0.074550
0.085444,0.044862,-0.028643,-0.113854,-0.004976,0.010669,-0.031447,-0.113128,-0.030335,-0.083458,-0.037033,0.082672,0.041762,-0.079279,-0.108282,0.124721
-0.011496,0.265518,0.099442,0.008558,-0.001382,-0.015588,0.044964,-0.044520,-0.064684,-0.016893,-0.060419,-0.196014,-0.137270,-0.066044,0.158177,-0.204286
0.082760,-0.123225,-0.052786,-0.093548,0.109725,-0.066511,-0.005668,0.023041,0.195172,0.000328,0.098611,0.057894,-0.133480,0.047623,0.010439,-0.037558
0.022914,0.161737,-0.008492,-0.091266,-0.011949,-0.008775,-0.068342,-0.068133,-0.068632,-0.049774,-0.051446,0.078836,0.074324,-0.077350,-0.047847,0.148511
-0.077042,0.006282,-0.063118,0.055895,-0.015773,-0.067846,0.049300,0.001007,0.136722,0.096654,-0.087406,-0.101991,-0.079453,-0.028229,0.185327,-0.062151
0.079112,0.026727,-0.114203,-0.075062,-0.072927,0.204119,-0.020554,-0.070961,0.001541,-0.101712,-0.087231,0.047591,-0.173456,0.054573,-0.051285,0.038682
-0.282348,-0.015326,-0.082023,-0.027481,-0.030773,-0.020409,0.028455,0.048598,0.012392,0.065406,0.025884,0.122547,-0.028449,0.004512,0.262839,-0.012899
0.103414,0.053212,-0.010139,-0.044298,-0.035471,0.047102,-0.047002,-0.160006,-0.062871,0.033420,0.011643,-0.115307,-0.282288,-0.118590,0.084887,0.208559
-0.176260,-0.132084,0.098000,-0.118272,-0.000568,-0.008386,0.016127,0.058831,0.002808,0.104122,-0.000203,0.069423,0.040325,-0.166673,0.082185,-0.033706
0.110830,-0.129240,0.149860,-0.010089,-0.047269,-0.008110,0.061129,0.002494,-0.067684,0.027343,0.000094,-0.134094,0.106501,-0.020173,0.053153,0.017065
-0.118870,-0.055016,0.052793,-0.026530,-0.041459,-0.267674,-0.091275,0.022431,0.012216,-0.060085,-0.065258,-0.068319,-0.031128,0.004558,-0.041516,-0.132731
-0.146016,0.046918,-0.102884,-0.003167,0.039005,0.033941,0.030222,-0.083833,0.015488,0.034997,0.027145,0.228923,0.119894,-0.188545,0.084001,0.163584
-0.013389,0.130179,-0.048180,0.063846,0.042439,-0.107789,0.303258,-0.120598,0.061916,-0.043129,-0.021090,0.011867,0.104926,0.033722,0.295319,0.228004
0.077821,0.275338,-0.084958,-0.061410,-0.036205,-0.034651,0.172183,-0.124959,-0.058817,0.036773,-0.015436,0.034176,-0.300240,-0.180272,0.113929,-0.093504
0.028343,-0.069894,-0.048077,0.063915,-0.133897,-0.045690,-0.076682,0.122862,0.034641,-0.155351,-0.069234,0.030599,-0.110308,0.026070,0.037139,0.048453
0.135360,0.194611,-0.178768,0.019420,0.022769,-0.060557,0.013370,-0.027527,0.091873,0.085956,0.067059,0.152911,0.023532,-0.166523,-0.126983,-0.050535
-0.073339,0.065505,0.106549,0.036759,0.109584,0.001590,0.120468,0.015621,-0.031337,0.049301,-0.026162,0.058886,-0.129787,0.070591,-0.065458,0.014884
0.134800,-0.058010,-0.070449,0.060653,0.164290,0.054381,-0.051328,0.073108,-0.034671,0.094707,0.027476,0.031629,0.055932,0.129728,-0.024467,0.024802
-0.119368,0.049203,0.015571,-0.018798,-0.181772,0.000092,0.111148,-0.201435,0.069759,0.052970,0.015222,-0.055939,-0.138865,-0.355132,0.036826,0.105739
0.063719,0.083776,0.030095,0.004026,-0.049405,0.069967,-0.059097,-0.129125,0.077035,-0.080415,0.057198,0.033847,-0.048630,-0.023800,0.042710,-0.222286
0.034024,0.112991,-0.227759,0.040601,0.015905,-0.014184,-0.035390,-0.007982,0.033433,0.012625,-0.020928,0.093314,-0.081567,-0.020554,-0.142114,0.141502
0.018051,-0.118629,0.011264,0.052898,0.014375,-0.060723,-0.188842,0.073190,-0.037132,0.042733,0.004362,-0.122298,0.094575,-0.044080,-0.071484,-0.112568
-0.052583,-0.093682,0.251598,-0.080158,0.127639,-0.014135,-0.204003,-0.071703,0.079283,0.118447,0.098095,-0.036816,-0.013419,-0.129931,0.087967,0.042898
-0.034901,-0.137234,0.055522,0.000967,0.090064,-0.052919,0.090263,0.131275,-0.016188,-0.055657,0.088607,-0.052274,-0.033161,0.226571,-0.026856,0.135613
0.092681,0.113446,0.101567,0.026299,-0.020283,-0.074340,0.086731,-0.030715,0.125318,-0.080837,-0.008970,-0.046745,-0.105321,0.116993,-0.019389,-0.091274
0.022030,0.022225,-0.085758,-0.053010,-0.053909,-0.111420,-0.023456,0.119065,-0.140143,-0.016642,-0.009512,-0.064295,0.067707,-0.007929,0.120882,-0.343909
-0.043123,0.114271,0.084665,-0.031323,0.144200,0.186521,0.076477,0.038845,0.074659,0.010917,0.001034,0.000110,0.080181,0.006481,0.333613,-0.267164
0.026738,0.064968,-0.019209,-0.061638,0.016432,-0.118061,0.007116,-0.259395,-0.046404,-0.052338,-0.091318,0.014028,0.061827,-0.085530,0.026540,0.112373
0.163837,-0.011193,0.134681,-0.104466,0.064864,0.142131,0.111602,0.163601,-0.044455,-0.033989,-0.019367,-0.012409,-0.144104,-0.044845,0.133200,0.072843
-0.000115,0.154309,0.242808,-0.011043,-0.013987,-0.246566,-0.060519,0.088182,-0.071454,-0.190984,-0.065921,0.041837,0.098315,0.083446,0.034826,-0.073652
-0.048119,0.157332,0.048642,-0.038665,-0.052537,0.042081,0.001156,0.049479,0.003315,0.029265,0.008138,0.041068,-0.096138,-0.013765,-0.068571,0.009582
-0.002449,0.000453,-0.071300,-0.018312,0.008646,-0.133300,0.052904,-0.062542,0.217148,-0.024057,-0.039053,-0.027216,-0.004758,0.088019,0.069155,0.007466
-0.078308,-0.140976,-0.022360,-0.062520,-0.017704,0.029089,-0.138850,0.062405,-0.046891,0.070322,-0.045370,-0.002194,-0.159420,0.088214,-0.063225,0.148572
0.013341,0.128395,0.003176,-0.075606,0.048306,-0.111248,0.015554,-0.016279,0.013280,0.050557,-0.011893,0.119370,-0.174414,-0.114502,-0.080684,-0.028344
0.064140,0.163166,-0.149712,0.011661,0.208179,-0.006898,-0.041505,-0.265657,-0.058779,0.084316,-0.056602,0.051118,0.015127,0.045750,0.067094,0.054484
-0.016936,-0.079681,-0.033496,-0.052558,0.026002,-0.049722,-0.114960,0.150230,0.036924,-0.038263,-0.016841,0.000966,-0.062832,0.138710,0.021244,-0.036438
-0.005051,0.040641,0.173647,0.041430,0.093508,0.050157,0.017899,0.022583,-0.087403,-0.055235,-0.006075,-0.040477,-0.046115,-0.057546,0.042654,-0.028486
-0.006646,-0.000415,0.076261,-0.024014,0.134232,-0.003132,0.061639,0.076052,0.060227,0.091882,0.006258,-0.022281,-0.197413,-0.037276,0.014510,0.047421
-0.045494,0.106934,-0.073149,0.041362,-0.165400,-0.029630,-0.095375,0.016991,0.121495,-0.077625,0.036049,-0.117069,-0.111025,-0.052019,0.173426,-0.033280
-0.015242,-0.050825,0.141565,-0.039843,-0.004030,-0.005737,-0.003826,0.035398,-0.014213,-0.017419,-0.112406,-0.073915,-0.097802,0.055360,0.012703,-0.083488
0.142315,0.125398,-0.148411,-0.033402,0.061691,-0.065466,0.072249,0.165754,-0.069302,-0.006903,0.059091,-0.004595,-0.040178,-0.085323,0.136404,0.112998
0.052904,-0.003553,0.200036,-0.097630,0.155378,0.020822,-0.096047,-0.085778,-0.142757,0.012235,0.058645,0.121516,0.090336,-0.002944,-0.057532,-0.261590
0.099471,0.023065,-0.030935,-0.032125,0.005457,-0.036942,0.052876,0.068164,0.144919,0.036304,-0.093576,0.036900,-0.021463,-0.022976,0.051296,-0.199805
0.053405,-0.096350,0.066541,-0.053929,0.124180,0.084232,-0.239631,-0.021974,-0.143573,0.090910,-0.125298,-0.036938,-0.163484,0.091873,0.045089,-0.149761
0.082922,-0.006926,-0.172370,-0.050827,0.023887,0.074387,-0.031134,0.020333,0.025546,-0.146544,0.052753,0.097128,0.114303,-0.061329,0.399283,-0.090768
-0.061650,0.137875,0.105506,0.075064,0.233074,-0.112130,0.040569,-0.032596,-0.081489,0.197107,-0.004451,0.067721,0.073618,0.347675,-0.015264,0.266875
0.117734,0.078717,-0.087264,0.050089,0.017092,-0.161012,0.197932,-0.062010,0.062724,0.105226,0.031225,0.048890,-0.048754,0.042145,-0.179508,0.255759
-0.009483,0.077600,-0.031113,0.001603,0.042965,0.065573,-0.064628,0.069783,-0.077950,0.010164,0.038287,0.070691,-0.085261,0.117394,-0.165934,-0.219245
0.079890,0.058003,-0.133909,0.032094,-0.176445,0.033505,-0.050016,-0.048182,0.090780,-0.151455,-0.017443,-0.179742,0.059483,0.070913,0.070135,-0.142844
-0.175481,-0.040511,-0.044208,-0.036435,0.103915,-0.030924,-0.028615,-0.057531,0.157362,0.209771,0.078837,0.075892,0.031304,-0.128214,-0.097799,0.044417
-0.068682,-0.069971,0.204629,-0.046087,-0.115056,-0.157961,0.176405,0.037405,0.113176,-0.024642,-0.019506,-0.181775,0.097537,-0.024441,-0.032914,0.118152
-0.049112,0.195126,0.009189,0.026968,-0.057556,-0.012549,0.052144,-0.109740,-0.022977,0.060787,-0.056265,0.118718,0.035023,-0.199157,0.098608,-0.096213
0.038020,-0.064061,-0.058113,-0.009370,-0.041101,-0.010960,-0.055763,0.047061,0.016226,-0.113299,0.022750,0.064322,-0.090943,0.099164,-0.054645,-0.051776
0.151224,0.133685,-0.096944,-0.081973,0.129914,0.039799,-0.053591,-0.055412,0.018854,0.033024,-0.073367,-0.150244,-0.121464,0.102750,0.166842,-0.066112
0.163438,-0.017618,-0.010098,0.017003,0.033565,-0.002355,-0.177169,-0.013413,-0.069794,-0.057640,0.014135,-0.082274,-0.022619,-0.028759,-0.096626,-0.070936
0.135374,0.082237,-0.067106,-0.051771,0.162810,-0.043113,0.064949,0.029208,0.016207,0.041944,-0.090396,-0.052875,0.006202,-0.170052,-0.028281,0.054339
0.009515,0.032381,0.037784,0.031818,-0.004640,0.025935,-0.014914,-0.088918,0.071993,-0.034907,0.039883,-0.037958,0.017447,0.050229,0.023498,-0.178670
0.093364,0.047523,-0.087604,-0.019089,0.116642,-0.040594,-0.072640,0.023695,0.026794,-0.015668,-0.103697,0.062170,-0.003817,0.096304,0.150703,-0.281492
-0.032077,0.032682,0.107952,-0.073799,0.185553,-0.150450,-0.219571,0.272930,0.129887,0.020454,-0.100158,-0.013160,-0.048935,0.161354,0.021352,-0.219518
0.032844,-0.100916,0.062981,-0.058923,-0.060796,0.008738,0.107592,0.089094,0.022344,-0.055420,0.057168,0.025086,-0.088699,0.003585,0.165353,-0.137988
0.148869,-0.207949,-0.255074,-0.088384,0.119629,0.206950,-0.186420,-0.020537,-0.176484,0.024180,0.009674,0.034216,0.120962,0.161305,0.095155,-0.010782
-0.140823,-0.116554,0.117739,0.042015,-0.121722,-0.002774,-0.092349,0.078066,-0.051761,-0.003846,-0.068928,-0.002047,-0.195578,0.119004,-0.023633,-0.298778
0.005561,0.118367,-0.183996,-0.066338,-0.047348,0.008378,0.013969,-0.253816,0.007802,-0.116293,-0.019220,-0.088097,0.184442,-0.121789,0.124638,-0.000860
-0.072664,0.007964,-0.007616,-0.065141,0.002353,-0.050704,-0.015720,-0.118650,0.105998,0.003246,-0.021887,0.163198,0.021193,0.048212,-0.012055,0.004492
0.068652,0.187645,-0.150965,0.015443,-0.076671,0.034825,0.040188,-0.092725,-0.005282,-0.013594,0.050069,-0.028041,-0.033813,-0.009628,0.017212,0.125910
-0.063211,-0.104489,-0.050670,0.044463,-0.024822,0.072991,0.191819,-0.083885,0.079249,0.224384,-0.057626,-0.007983,0.091539,-0.235151,-0.070256,0.020928
0.076920,-0.000001,-0.088422,-0.041893,0.146672,-0.073033,-0.115881,0.046912,-0.028536,-0.029770,-0.032906,-0.002383,0.026003,0.043833,-0.182462,0.009861
0.125360,-0.138721,-0.062069,-0.063052,-0.088878,-0.057123,-0.019864,-0.214968,0.152052,0.014063,0.059672,-0.015303,0.091287,-0.201617,-0.040096,-0.098735
0.046817,-0.000205,0.018321,-0.041978,0.037325,0.110394,-0.162148,0.016534,-0.081980,-0.001607,-0.079007,-0.065663,-0.214219,0.094997,0.000091,-0.106224
0.181145,0.011533,0.101189,0.007626,0.063175,0.076416,-0.100192,0.155069,-0.108389,-0.154521,-0.028464,-0.005237,0.113232,0.123653,0.026113,0.075068
-0.061640,-0.067206,0.129349,0.113495,-0.009160,0.037836,-0.067956,-0.004692,-0.017207,-0.111317,-0.030837,-0.116033,-0.229190,-0.103269,0.019885,-0.051909
-0.133389,0.103463,0.020839,0.094381,-0.088371,0.018220,0.144227,0.063146,0.110614,0.081835,0.065885,0.090303,0.083393,-0.081909,0.008077,-0.243160
0.157308,-0.216953,0.085435,-0.015173,0.066991,0.019238,-0.034268,0.244456,-0.177041,-0.060017,-0.071807,0.062340,0.031105,0.088979,-0.197640,-0.249600
0.076412,0.064602,-0.058054,-0.062637,0.115531,-0.057753,0.101202,0.022954,0.096912,-0.021585,-0.012735,0.046675,-0.118331,0.133712,-0.082533,-0.086759
0.213866,0.251102,-0.185272,-0.086585,0.056078,-0.059647,0.043434,0.107608,0.016625,0.005194,0.041879,0.045777,0.016335,-0.036911,0.098816,-0.121073
-0.031107,-0.058258,0.092503,0.035892,-0.004856,0.059266,-0.226369,0.154271,-0.013893,0.085937,0.014194,0.117767,-0.036985,0.040346,-0.082211,-0.009939
0.038290,-0.003568,0.025432,-0.069130,0.026740,-0.065636,-0.101838,0.228088,-0.014023,-0.074474,-0.111746,0.022588,-0.098732,0.082401,-0.132085,-0.081788
-0.113817,0.117290,-0.043554,-0.089041,0.158413,-0.171936,-0.176629,0.132487,-0.009980,-0.097413,0.008466,0.040294,0.152569,0.114216,-0.015769,0.068023
0.191045,0.011588,0.084893,-0.047513,-0.059488,0.036613,0.014610,0.159601,0.139834,-0.111118,-0.017220,-0.067332,-0.149914,-0.020990,-0.090874,0.045128
-0.126922,0.055130,0.029893,-0.064279,-0.149517,-0.102712,0.042815,-0.031833,-0.107691,0.022042,0.053070,-0.064096,0.002757,-0.106987,0.232543,0.068166
-0.024642,0.063826,-0.197532,0.073214,-0.136833,-0.198934,-0.045731,-0.245951,0.056711,0.052936,0.028189,-0.027355,0.065727,0.083860,0.144819,0.003607
0.046400,0.247334,0.149764,-0.056096,0.184692,-0.034498,0.161859,0.071863,-0.004823,-0.144997,-0.036396,-0.038092,0.187010,-0.048173,-0.134977,-0.032978
-0.041876,-0.073600,0.041950,0.067802,0.065112,0.059053,-0.123181,-0.030695,0.090980,-0.052409,0.045553,0.000104,-0.171531,-0.035510,-0.008018,0.012763
-0.022898,-0.083449,0.025122,-0.082327,-0.106437,-0.160652,0.067805,0.024243,0.086746,0.201400,-0.013288,0.203965,-0.061807,-0.017031,-0.122563,0.040813
0.074838,-0.211885,0.100658,0.069340,0.030606,-0.054386,-0.000212,0.103509,0.037598,0.017244,-0.072894,-0.172980,0.159359,0.056750,-0.270260,0.097809
-0.003087,-0.036767,-0.081131,0.004127,0.057335,-0.057024,-0.067923,-0.046558,0.045466,-0.171250,0.020041,-0.018814,-0.348634,-0.017608,-0.143793,-0.114707
-0.072722,0.093586,0.031973,-0.021235,0.070650,-0.116745,-0.138342,-0.156731,0.113768,0.248712,0.045921,-0.032731,0.067601,-0.155836,0.045062,0.079704
-0.162885,-0.103644,0.065053,0.024180,0.159967,0.133091,-0.100297,-0.125154,-0.014178,-0.008209,0.039621,0.028606,0.220386,-0.069000,-0.018862,-0.177413
-0.192136,0.065222,0.162689,0.032354,-0.197262,-0.026264,0.034495,0.202109,-0.143219,0.002734,0.040210,-0.003881,0.042895,0.031245,0.045138,-0.013968
0.168294,-0.016450,-0.120602,0.006383,0.026853,0.004409,-0.097313,-0.098765,0.259194,0.082334,-0.084240,-0.050894,-0.012387,0.066714,-0.011351,0.103081
0.177712,-0.125435,0.033360,-0.013021,0.027619,-0.009583,0.150330,0.097061,-0.092134,-0.075394,-0.043388,-0.088719,-0.115225,0.057629,0.099773,0.071476
0.171927,0.057455,-0.186177,0.037254,-0.038570,-0.055208,0.035767,0.129453,0.055865,-0.025439,-0.043102,-0.060615,0.102668,0.021072,-0.179642,-0.092915
0.029339,0.038511,-0.258390,-0.006432,-0.078619,0.027866,-0.195378,0.287413,0.190603,0.057792,-0.084675,0.075768,-0.156778,-0.072396,-0.362975,-0.213693
0.013123,0.073754,0.032573,-0.027353,0.128071,-0.001038,-0.150700,0.269669,-0.082483,-0.034309,-0.113121,0.013386,-0.064487,0.091807,0.038842,-0.226088
0.167229,-0.044125,0.004968,-0.004150,0.076191,0.079824,-0.027180,-0.090958,0.005369,0.049345,-0.098078,0.022413,-0.120443,-0.131032,-0.085432,-0.108304
0.018159,-0.071032,0.128618,0.055673,-0.082614,-0.027860,0.000072,0.048372,-0.088150,-0.087905,-0.052127,-0.022392,0.097792,-0.163920,-0.112633,0.056650
-0.079465,-0.116247,-0.122835,-0.016810,-0.180653,0.104518,0.046946,0.004682,0.174514,-0.039745,-0.005439,0.136161,-0.101316,0.135384,-0.082848,0.031934
-0.091343,0.100720,-0.017295,0.098046,0.045478,0.093441,-0.022088,-0.099097,-0.081329,-0.081576,0.049954,-0.045306,0.048281,-0.097183,0.010248,0.000486
-0.001799,0.139541,-0.294934,0.085394,-0.003068,0.081282,0.112449,0.122945,0.097889,0.026706,0.015675,0.113815,-0.064364,0.029276,0.017361,-0.043225
0.039309,-0.209291,0.055807,0.035514,0.130457,-0.273075,0.043644,0.060546,0.065992,0.247554,0.060188,-0.209067,0.059312,0.026592,-0.153728,0.051555
-0.021149,0.026707,0.192980,0.036672,-0.032269,0.097246,-0.055030,-0.093996,-0.053210,-0.017731,0.057666,0.025478,-0.070166,-0.082153,0.079343,-0.135862
0.109576,-0.120079,-0.137926,-0.030998,-0.163738,-0.058301,-0.028568,-0.103280,0.196725,0.127386,0.007383,-0.034410,-0.049569,-0.153148,-0.039616,0.078318
-0.013484,-0.123901,0.118203,-0.059149,-0.042294,0.115461,-0.095883,0.041895,0.024487,-0.169199,-0.066067,-0.160171,0.043783,0.123422,0.119067,0.020527
0.120840,0.216256,-0.016211,0.048359,0.017268,-0.031883,0.081498,0.026505,-0.092586,-0.115408,0.006454,0.039103,0.133066,0.016258,-0.076636,0.253009
-0.188925,0.022639,0.102081,-0.068148,-0.084064,-0.050936,0.091917,-0.125140,0.066164,0.010925,0.053480,0.026656,-0.002858,-0.092302,0.164567,-0.078567
0.118354,0.090330,0.022922,0.067040,0.049234,-0.018858,0.009993,0.045026,0.061527,-0.094535,0.018610,-0.050262,0.159434,-0.091384,-0.166040,-0.420793
-0.068316,-0.336882,-0.051185,-0.045432,0.074512,0.131423,-0.082824,0.208702,-0.132479,0.108441,0.016166,-0.131974,-0.039414,0.175901,-0.090918,0.334885
0.140750,0.072278,-0.014519,-0.043711,-0.063305,0.105788,-0.064003,0.133638,0.138387,0.008185,0.031589,-0.112924,0.013038,0.037108,0.012157,-0.143287
-0.196798,-0.085275,0.185148,-0.043578,-0.070570,-0.101546,-0.236542,0.150504,-0.098676,-0.008992,-0.084095,0.058727,-0.120021,0.125148,0.009943,-0.045399
0.021080,0.182527,-0.082099,0.029726,-0.019243,0.176224,0.022545,0.002719,-0.006524,-0.042459,-0.001741,0.062039,-0.112257,-0.017772,0.052915,0.185314
0.116151,-0.292209,-0.016754,0.014223,-0.079897,-0.009099,-0.185841,0.091320,-0.050597,-0.067950,0.007026,-0.102405,0.094180,0.049938,-0.106707,0.105224
-0.104472,-0.166955,0.045773,-0.048808,-0.188104,-0.025084,0.047023,0.172514,0.216153,-0.070116,-0.014255,-0.042118,-0.066105,0.205635,-0.033217,-0.048996
-0.103255,0.018043,0.062189,-0.023332,-0.147331,0.009777,-0.057765,-0.000472,-0.104326,0.060375,0.020459,0.136196,0.124108,-0.149023,-0.089598,0.229504
0.129789,0.036422,-0.085292,-0.008079,-0.045512,0.099233,0.010082,-0.178153,-0.033334,-0.014211,0.052300,0.029445,-0.026619,-0.168628,0.080968,0.023638
-0.193401,0.094947,0.018129,0.135284,0.028692,0.009388,0.032209,0.228446,-0.176714,0.061164,-0.050341,0.124744,-0.045132,0.243798,0.046441,-0.125261
-0.016948,-0.051307,-0.007105,0.017179,0.255427,-0.029674,-0.048732,0.011451,0.202800,-0.112685,-0.019444,-0.096522,-0.028845,-0.006341,-0.071126,-0.113655
0.017724,-0.107154,0.019726,0.065515,-0.058903,0.025114,0.021927,0.090385,-0.121281,-0.070724,-0.069220,-0.111983,-0.000022,0.199688,0.026118,0.058464
-0.074541,0.000676,0.140843,-0.066125,-0.036917,0.002506,-0.101421,-0.086343,0.053711,0.033789,0.017177,0.082762,0.068189,-0.236011,-0.063122,-0.012965
-0.021171,-0.000470,-0.006329,0.077283,0.150453,-0.108382,-0.095277,-0.152118,-0.022772,0.164770,0.038574,-0.074066,0.000005,0.004637,0.049283,-0.066140
-0.011185,0.131338,-0.110642,-0.064645,0.017450,-0.040207,0.181167,-0.027824,0.048888,-0.018362,-0.018451,-0.045940,0.079699,0.118076,0.103455,0.051394
-0.093853,-0.052910,0.099399,-0.025474,-0.017971,-0.105477,0.260554,0.032845,0.233152,0.027043,-0.093610,-0.067647,0.043885,-0.155562,0.032877,-0.062041
0.030971,0.055098,0.021411,0.126035,0.092268,0.039286,-0.031299,0.117955,-0.277613,-0.079023,-0.083804,0.178422,0.141577,0.007433,-0.232456,-0.069138
0.048152,0.000813,-0.008087,-0.054067,-0.048109,-0.062122,0.069722,-0.011643,0.074000,-0.145310,0.019414,-0.208381,-0.073956,0.025995,0.014678,0.122734
0.041163,0.039370,-0.085709,0.058891,-0.227520,-0.005929,-0.004384,-0.158551,0.123655,0.142804,0.053748,-0.041881,0.067929,-0.130793,0.166163,0.195129
-0.155586,-0.172640,0.120278,0.057470,-0.097460,0.231478,-0.054374,0.119969,0.028025,-0.080066,-0.105451,0.039538,-0.054398,0.022245,0.042631,0.122612
0.109966,0.051198,-0.155469,0.009113,0.007604,0.017690,0.038829,0.107729,-0.082340,0.035120,0.016572,0.068030,0.007385,0.129634,-0.156472,-0.085554
-0.008201,-0.036361,0.026356,-0.069754,-0.163042,-0.128033,0.007201,0.062475,-0.020908,-0.066666,-0.072281,0.063565,-0.081536,0.000164,0.000993,-0.017164
-0.062139,-0.073290,0.086859,0.020360,-0.084345,0.230249,0.031203,-0.012376,-0.026863,-0.161844,0.046966,-0.110824,0.047098,0.020619,-0.028663,-0.019046
0.039797,0.016165,0.045288,-0.055933,-0.083845,-0.146236,0.143540,-0.006818,-0.056865,0.123760,-0.012024,0.079970,0.071273,-0.128177,0.015709,0.107310
0.015278,0.090442,-0.161372,0.036837,0.074054,0.112344,0.019035,-0.025818,0.097242,-0.143457,-0.025514,-0.006633,0.310738,0.083200,-0.056807,-0.049863
-0.114836,-0.135219,0.327279,-0.081576,0.076953,0.116410,0.135190,-0.004484,-0.030271,0.021152,-0.079306,0.061874,-0.010184,-0.049648,-0.037576,-0.099270
-0.056801,0.204994,-0.148795,-0.028900,-0.097714,0.049503,-0.050785,-0.070997,0.017021,0.033973,-0.026884,0.057724,-0.070479,-0.018521,-0.062587,-0.108908
-0.004515,0.070573,-0.140531,-0.007696,0.102213,-0.083234,0.005765,-0.054496,-0.134637,0.080525,-0.033737,0.108008,-0.090330,-0.082640,0.044686,-0.009439
-0.023504,-0.213026,-0.028087,-0.010684,-0.069740,0.072311,0.048828,-0.010845,0.070797,-0.036763,-0.119648,-0.089325,0.114129,0.146135,-0.020791,0.004390
0.237811,0.030071,-0.083779,-0.047480,-0.075112,-0.039774,-0.003117,-0.040728,-0.003923,-0.036911,-0.080774,-0.124186,-0.107166,-0.105242,0.071120,0.092165
-0.300798,-0.069436,0.157755,0.051354,0.221815,-0.015671,-0.110143,-0.046615,0.095207,0.000820,0.034837,0.066689,0.119274,-0.028008,0.088169,-0.013798
-0.007519,0.200776,-0.134816,-0.059223,0.061724,-0.129158,0.043561,0.101859,0.026171,-0.080008,0.009563,-0.149091,0.059298,0.124353,0.098216,-0.175149
0.124997,-0.000913,-0.313055,0.046070,-0.084590,0.173187,-0.025676,-0.185372,0.173306,0.070209,-0.027212,0.004351,-0.176441,-0.178798,-0.219005,-0.006235
-0.118036,0.032913,0.096982,0.000296,0.036386,0.051431,0.107949,0.199388,-0.102167,0.191059,-0.031542,-0.155880,0.092145,0.040887,0.181074,0.136882
-0.065599,-0.009070,-0.057420,-0.009063,-0.046669,-0.024358,-0.063253,0.158280,-0.176555,-0.063368,0.007368,0.007642,-0.276414,0.036612,0.121436,-0.075302
0.032625,-0.023689,0.123457,0.046719,-0.147555,0.228163,-0.007091,0.056227,0.181743,-0.006636,-0.093220,0.038748,0.065205,-0.100797,-0.210508,0.026560
0.019566,-0.187729,0.041366,0.003142,0.162314,0.189448,-0.018198,0.024923,-0.079521,-0.197190,0.017150,0.291347,-0.053306,-0.062512,-0.143849,-0.013587
0.025692,0.058644,0.030504,-0.012427,0.014436,-0.002691,0.034362,0.065403,0.070146,-0.086694,0.022938,0.023442,-0.134900,0.168947,-0.075016,-0.062342
0.056247,-0.086881,0.018444,-0.042052,-0.031508,-0.025918,0.089161,-0.138775,0.105820,-0.237528,0.040885,0.005451,-0.026709,-0.048035,-0.030368,-0.033278
0.035032,-0.018529,-0.031173,-0.083928,0.068585,0.094209,0.028803,-0.082665,-0.051951,0.067186,-0.067316,-0.035872,0.074154,0.087914,-0.142648,0.068798
-0.058594,0.041833,-0.131378,-0.041970,0.063489,-0.048014,0.035698,-0.056288,-0.045170,0.105163,0.022776,-0.074773,0.030324,0.011896,0.139892,-0.083451
-0.030390,0.053670,0.213849,0.005646,0.160126,-0.033185,-0.154226,0.138028,0.146851,-0.015247,-0.056417,0.042787,-0.090493,0.040062,0.139177,-0.008996
0.157386,0.082067,-0.032915,0.011364,0.007803,0.026335,0.023127,0.148177,-0.091480,-0.116135,-0.018214,-0.073435,-0.038668,-0.128701,0.066761,0.122697
0.052224,-0.087670,-0.013663,0.092992,-0.088313,0.136817,0.026196,-0.062052,0.027021,0.143580,-0.043911,-0.071197,0.160856,0.027799,-0.085077,-0.117424
-0.171027,-0.031060,-0.008901,0.001513,-0.033194,0.010428,0.205600,-0.018414,-0.004047,0.024581,-0.105551,0.120928,0.023223,-0.071639,0.023830,0.106348
-0.083231,-0.141723,0.086412,0.024376,-0.156434,-0.068798,-0.133726,0.071098,-0.126963,0.140190,-0.001252,-0.188895,-0.016593,0.160125,-0.026627,0.037889
0.017545,-0.073532,-0.013955,-0.071049,-0.265516,-0.057060,-0.131583,0.005400,0.001547,0.044189,0.039638,0.128435,-0.051253,0.079528,-0.018808,-0.031068
-0.080854,0.065011,-0.105322,-0.071929,0.014118,-0.054603,0.063179,0.020103,-0.046176,-0.190615,-0.074471,-0.098668,0.138614,-0.019599,0.023887,-0.146765
0.046506,0.046877,0.152439,-0.066453,0.155263,-0.104361,-0.005084,0.077263,-0.010325,-0.248360,-0.093356,0.131769,-0.053495,-0.152308,0.063182,0.293723
0.074315,0.168229,-0.013266,0.041504,-0.082895,0.084707,-0.030507,-0.071119,0.135837,-0.352202,-0.019691,0.038615,0.050284,0.077289,-0.125531,-0.022324
0.125191,0.020215,0.081853,0.012703,-0.076104,-0.139795,0.105880,-0.224178,0.151831,-0.117475,-0.007280,0.136069,-0.072011,-0.090872,-0.129063,-0.271648
-0.080901,0.190818,0.012436,-0.073203,0.247198,-0.025412,-0.158619,-0.060652,0.119046,-0.359873,-0.078676,-0.021320,0.149930,-0.150049,0.095766,0.052123
-0.207098,-0.103349,0.153881,-0.040875,-0.285816,0.073860,-0.234101,0.100112,-0.043459,-0.146838,0.055435,-0.006688,-0.212073,-0.118276,0.035796,0.172454
-0.083600,-0.038705,-0.179514,0.023324,0.072190,-0.184863,0.052713,-0.000785,0.203091,-0.000633,-0.074153,-0.159929,-0.016051,0.031569,-0.182324,0.055744
-0.059733,0.071397,0.011267,0.045203,0.101663,-0.183767,-0.088050,0.131789,-0.024136,0.019171,0.036308,-0.072561,0.059538,-0.094911,0.037649,0.163065
-0.038985,-0.089066,0.063748,-0.019066,-0.149648,-0.003942,-0.022943,0.130378,0.012449,-0.041310,-0.004956,-0.043216,-0.168264,0.120535,0.097509,0.134816
-0.094527,-0.061975,0.161654,-0.047397,-0.096957,0.008591,-0.111745,0.037931,-0.155694,0.026156,0.041286,0.138261,0.014431,-0.043131,-0.167434,0.053415
-0.050827,-0.073163,-0.207370,-0.089703,-0.056208,0.089604,-0.045209,-0.006355,-0.138094,0.076502,0.033421,-0.098266,0.011014,0.120595,-0.094559,-0.127032
-0.146975,0.054999,0.164196,-0.019905,0.147865,-0.164431,-0.075250,-0.084936,-0.029361,0.169050,-0.090581,0.067385,0.180011,0.150115,-0.035374,-0.055928
-0.160288,-0.124891,-0.026541,-0.014213,-0.167815,-0.123071,0.005998,0.124015,0.122980,0.002922,0.015219,-0.160773,-0.013933,0.067542,0.174821,-0.157588
0.087456,-0.058624,-0.059310,0.047835,-0.038056,0.142133,0.057823,-0.057892,0.066998,0.054478,0.007579,-0.099991,0.069034,-0.078336,-0.061952,-0.180314
0.002965,-0.048298,-0.029104,-0.078188,0.020254,-0.043327,0.082672,0.045389,0.120079,0.032142,-0.011439,-0.032102,0.127064,-0.161171,0.111108,-0.074988
-0.004246,-0.032429,0.020052,-0.058263,-0.189053,0.127729,0.047026,-0.057728,0.253088,0.042756,0.045918,-0.188437,-0.082140,0.043135,-0.082618,0.057926
0.027104,0.037548,0.056162,0.044156,0.145734,0.013870,0.104761,-0.094815,0.017468,-0.130544,-0.005331,-0.126229,-0.056523,-0.059592,-0.120244,-0.024994
-0.172368,-0.023520,0.146546,-0.090088,-0.095754,0.115595,0.078760,0.078867,0.123941,-0.085149,0.010723,-0.141978,0.124677,0.070231,0.024060,-0.162707
-0.058831,0.050179,-0.127425,-0.036641,0.125610,-0.163952,-0.115864,0.139476,0.004056,0.055962,0.044396,-0.053467,0.034263,-0.022180,0.271613,0.106143
-0.128537,0.064667,0.061460,-0.017067,0.059002,0.146158,0.066656,0.137742,-0.098630,-0.037442,0.046112,0.040424,-0.011010,0.147045,-0.076251,0.266238
-0.143935,0.041421,-0.012617,-0.135746,0.184782,-0.111269,0.058191,-0.079101,0.274604,-0.049092,0.030040,-0.007726,0.055823,-0.050338,0.223802,0.133625
0.021571,-0.090057,-0.177776,0.041134,-0.089293,0.133391,-0.056839,0.070680,0.160225,0.015820,-0.000627,-0.071601,0.001548,0.043527,-0.073775,-0.116855
0.046894,0.020030,0.058007,0.021134,-0.196416,-0.202682,0.077974,0.203995,0.042773,0.081856,0.057423,-0.020987,-0.077444,0.002428,0.064351,0.103951
0.025780,-0.099758,0.056035,0.005139,0.100008,0.043175,0.104170,-0.157720,-0.063020,-0.040588,0.052754,0.125843,0.082018,0.065983,0.054485,0.134102
-0.106773,-0.024627,0.011653,0.092541,0.046685,-0.116867,-0.047359,-0.107602,0.047647,-0.126178,-0.021704,-0.036373,0.124439,0.043023,-0.190695,-0.155583
0.086136,0.034646,0.032581,0.036510,-0.057132,-0.087757,0.091061,0.067262,0.172839,-0.110452,0.005749,0.112113,-0.137373,-0.160211,-0.134361,-0.147726
0.020646,-0.054464,-0.140331,0.013176,-0.068978,-0.094472,0.075533,-0.109851,0.114411,-0.000540,0.062663,0.051230,0.155595,0.000339,0.066581,0.267485
0.066226,-0.060986,0.071257,-0.053277,-0.028055,0.152604,0.100757,-0.145748,-0.172881,-0.187077,-0.021366,0.025398,0.073453,-0.023819,-0.067964,0.195550
-0.099967,-0.144410,0.079974,0.015296,0.127206,0.020640,-0.019921,0.030906,-0.027623,-0.028882,-0.085558,0.013902,0.072967,0.070241,-0.109824,-0.071154
-0.026224,0.113268,0.016331,0.033881,0.058428,-0.036110,-0.119595,0.055727,-0.108389,0.243932,0.020802,0.023396,0.059752,0.013713,0.026948,-0.110906
-0.133557,-0.083988,0.272346,0.043855,0.013655,0.015361,0.013833,-0.074058,-0.120211,-0.094711,0.003390,0.051595,-0.001563,-0.135474,-0.009274,-0.251644
0.043029,0.177505,-0.224675,0.035506,-0.052118,0.027598,0.046998,0.044168,-0.033349,0.035314,0.039788,-0.047564,-0.132336,0.022213,0.087025,0.141332
0.114373,-0.032634,0.057182,-0.030273,-0.067185,0.072807,-0.160630,-0.083190,-0.083788,0.133465,0.031379,0.166739,0.023793,-0.017019,0.036455,0.218605
-0.132977,-0.131115,0.229714,0.045563,-0.067794,0.058284,-0.165544,-0.117727,-0.044687,0.049247,-0.035281,0.147830,-0.147412,0.068065,0.056147,0.099617
0.205125,-0.082522,0.026142,-0.012762,-0.007385,-0.118011,-0.048492,0.065992,-0.077642,-0.051245,0.004356,0.042769,0.038902,-0.045304,-0.175660,0.145693
-0.038672,0.074052,-0.111015,0.048653,0.272531,-0.107046,-0.121247,-0.160934,-0.104712,0.086193,0.041292,-0.076508,0.084808,0.012207,0.100984,0.034177
-0.309997,0.080795,-0.071883,0.061870,-0.092394,-0.013418,-0.120059,-0.017925,-0.320542,0.227629,0.069027,0.169705,-0.169372,0.121617,0.116553,-0.022054
0.166688,-0.211488,-0.126534,0.063471,0.025695,0.039555,-0.127334,-0.154807,0.113895,0.293097,0.056520,-0.070689,-0.106978,0.021762,-0.245023,-0.385046
-0.046991,-0.090082,0.000730,-0.081741,0.196961,0.202222,0.038893,-0.143105,-0.174984,0.154982,0.066969,0.038397,0.088891,-0.087279,0.124712,-0.202748
-0.028581,0.246850,-0.091233,-0.013128,-0.008574,0.085423,-0.064730,0.094869,-0.122033,0.334360,-0.034660,-0.107426,-0.164876,-0.090823,0.048830,-0.073112
0.183680,0.037231,-0.018823,-0.070292,0.146139,0.091785,0.026522,-0.132476,-0.110917,0.156806,-0.029964,-0.131017,-0.081230,-0.123014,0.088691,-0.186271
0.010770,-0.121897,-0.029254,0.031913,-0.087781,0.029728,0.052128,0.102211,-0.068106,0.091245,0.073166,-0.213577,0.140374,0.094627,0.206126,-0.031774
-0.108856,-0.031242,-0.043794,-0.041848,-0.031177,-0.007494,0.018387,0.076647,-0.227100,0.014501,-0.036329,-0.019638,0.047192,0.079846,-0.107701,0.199631
0.240711,-0.190697,-0.016661,-0.035951,-0.094217,-0.000663,0.168601,0.055665,-0.194752,-0.023244,-0.035939,0.071181,-0.015099,-0.117117,-0.169009,-0.022916
0.115138,-0.005894,0.162538,-0.073208,-0.133663,0.078892,0.053427,-0.085537,-0.184703,0.076377,0.013329,-0.168163,-0.042824,-0.118785,-0.035890,0.149654
0.056961,0.002339,-0.054748,0.010318,0.162113,0.230677,0.054669,0.052571,-0.280598,0.176987,0.001357,-0.013297,0.087919,-0.057445,0.069409,0.109617
-0.201698,0.239673,-0.006484,-0.015898,0.197051,-0.235388,-0.131569,-0.427943,-0.413500,-0.043997,-0.015068,0.160869,-0.153685,0.218571,0.097353,-0.118377
-0.215972,0.027501,0.088075,0.024444,0.350299,-0.182439,-0.054499,-0.001066,-0.163855,-0.079488,0.050212,-0.063740,0.308199,-0.081083,0.283286,0.105293
-0.042094,0.137068,0.118037,0.012097,-0.091741,0.027295,0.051861,0.152832,-0.096228,0.139815,-0.034183,0.111887,-0.258254,0.079257,0.058534,-0.195097
0.151653,0.301039,-0.205325,-0.018325,0.006488,-0.051438,0.080940,-0.010708,-0.279937,-0.042241,0.075648,-0.118507,0.167279,0.139468,-0.045521,0.023901
-0.054300,-0.046055,-0.014452,0.038663,-0.068064,0.042632,0.105299,-0.164897,-0.017698,0.008830,-0.036566,-0.082712,0.146168,-0.095107,-0.091322,0.055944
0.053840,0.164341,0.008958,-0.035691,-0.083891,-0.077521,0.053390,-0.167089,-0.107884,-0.005041,0.060422,0.176984,0.113702,-0.128086,-0.034532,0.073055
0.106333,0.117423,0.215457,-0.014068,-0.164271,0.003398,-0.011303,0.100364,0.036946,-0.039255,-0.082516,-0.063479,0.032639,-0.188557,-0.113998,0.037872
0.291968,0.524552,0.362956,0.094120,0.093454,0.337763,-0.164801,-0.136536,-0.065149,-0.154350,-0.132238,-0.213193,0.049929,0.066395,0.613313,0.191677
-0.075184,-0.176133,-0.132012,-0.091396,0.165772,0.248443,0.316194,-0.420046,-0.536143,-0.252430,0.063767,0.036554,-0.078430,-0.293351,-0.337235,-0.316391
0.199897,-0.285452,0.238213,0.254195,-0.171286,0.218611,-0.327196,-0.175340,0.069684,-0.531024,-0.299872,0.008853,-0.138403,-0.144618,-0.124025,-0.389355
-0.302511,0.299948,0.040926,0.131657,-0.171935,-0.423112,-0.248546,-0.257739,-0.363871,-0.103885,-0.069318,0.348150,0.191270,-0.117635,-0.296529,-0.087834
-0.120397,-0.103901,0.109424,-0.034877,-0.429270,-0.075598,0.404302,-0.084230,0.419692,-0.346181,-0.255284,0.102877,-0.450965,-0.499765,0.407675,-0.293604
0.266749,0.135090,-0.462456,-0.494919,-0.399172,0.274681,-0.019749,-0.040953,0.210192,0.406583,-0.217449,0.402724,-0.261702,-0.132249,0.034336,0.320390
0.269440,-0.253541,0.687090,-0.093802,-0.131730,-0.219631,-0.341585,0.162669,0.231417,-0.020754,-0.124668,0.373326,-0.268742,-0.053656,0.039806,0.305597
0.253311,-0.369428,0.025534,-0.603506,0.008339,0.297022,0.477740,0.218689,-0.048888,-0.055547,0.011386,-0.477826,-0.342496,-0.148473,0.199414,0.097559
0.824146,0.014773,0.127822,-0.349219,0.423478,0.484076,-0.072450,0.170175,-0.319122,0.186642,-0.269959,-0.044882,0.150017,0.141450,-0.476056,0.107151
0.527296,-0.484216,-0.525659,-0.034570,-0.288889,0.198946,-0.264247,-0.192394,0.007905,0.476519,0.074734,0.088448,0.205236,0.182155,-0.075833,0.328979
-0.114382,-0.253261,0.104445,-0.080795,0.042377,0.335465,-0.379551,-0.087513,0.158728,-0.021293,0.149314,0.193898,0.111278,0.242538,0.114961,-0.083258
0.086392,0.226000,0.437140,0.342983,-0.221318,0.329234,0.249505,0.333732,0.208087,-0.299966,0.150584,-0.394248,-0.066377,-0.381896,0.323267,0.419738
0.043015,-0.273969,-0.145516,0.169685,0.092176,0.375663,0.370761,0.059986,0.395762,-0.038177,-0.240358,-0.245356,0.562460,0.387898,-0.032036,0.532596
0.049186,-0.266266,0.313862,0.149750,0.087215,0.322587,-0.489327,-0.175693,-0.677681,0.155180,-0.089649,0.320241,-0.087242,-0.217885,-0.166059,0.396415
0.063078,0.040684,0.420051,0.463121,-0.245884,0.184572,0.218962,0.724657,0.048679,-0.067963,-0.316792,0.443967,0.047347,0.266837,-0.059738,0.395786
0.075131,-0.441169,-1.290246,-0.212078,-0.276395,-0.009799,-0.023618,-0.161751,0.341134,0.015420,-0.302918,0.101511,0.079470,0.326921,-0.231946,-0.514236
-0.006587,0.381575,-0.343065,-0.798203,0.106067,0.328335,-0.399462,-0.042163,0.312880,0.117735,0.214684,0.527704,0.575638,0.188820,-0.201930,0.247634
-0.152764,0.025896,-0.047605,0.024603,-0.264454,0.377293,0.146943,-0.270490,0.243869,0.276218,0.315828,-0.097026,0.461970,0.051184,-0.401438,-0.046713
0.007939,-0.025307,-0.073617,0.369882,-0.312390,0.430933,-0.782749,-0.477506,0.149928,0.614679,-0.402064,-0.189255,-0.498291,-0.216188,-0.668912,-0.138499
-0.363255,0.455581,0.302683,-0.048358,-0.346756,0.116171,-0.487951,-0.016709,-0.143560,0.242920,0.236923,-0.209726,-0.121508,0.187923,-0.641207,-0.305426
0.025969,-0.238195,0.231578,0.106932,0.020262,-0.368319,-0.224020,-0.235438,-0.065892,0.206898,0.321216,-0.108324,-0.437124,-0.036652,-0.075316,0.244116
0.244002,-0.404793,-0.104485,-0.394949,-0.329645,-0.048331,0.315787,0.490889,-0.175838,0.139148,-0.278417,0.296797,0.727675,-0.301266,0.462333,-0.437304
0.151903,0.250368,0.284841,0.409889,0.133563,-0.000177,0.123748,-0.000785,-0.189668,0.558067,0.320063,-0.127630,-0.090064,-0.337092,0.301275,0.522914
0.263480,0.014387,0.066932,0.267023,-0.076690,-0.121081,-0.034104,-0.192328,-0.522529,-0.040594,-0.037374,-0.365034,0.142586,0.138637,0.403201,0.509810
-0.025903,-0.292792,0.485795,0.039833,-0.049703,0.415237,-0.182733,-0.078109,-0.091427,0.105434,-0.006652,-0.057169,0.390415,-0.124016,0.563673,0.744925
0.264837,0.331614,0.369160,0.109960,0.081978,-0.249098,-0.347062,-0.205512,-0.225389,-0.451281,-0.213782,-0.154194,-0.078442,0.000913,-0.117664,0.149525
-0.070746,-0.238684,-0.326755,0.250200,-0.075451,0.149563,-0.059223,0.161776,-0.156592,0.298538,0.068823,0.345032,-0.021539,0.255422,-0.181062,0.224101
0.532824,0.162267,0.479788,0.004476,-0.124295,0.229459,0.158213,-0.225438,0.305564,-0.231508,-0.300157,-0.170571,0.064490,0.017821,-0.041093,-0.514769
0.286646,0.271721,-0.159695,0.168554,-0.346829,0.532922,0.121177,0.303384,0.271276,-0.310275,0.129953,-0.311729,-0.080911,-0.334011,0.299707,0.274098
0.216379,-0.186499,0.347983,0.520109,0.044102,0.160118,0.387516,0.303641,-0.249057,-0.055343,0.063069,-0.184723,-0.414997,0.263366,0.083420,0.038440
-0.062236,-0.464439,-0.421761,0.233327,-0.080973,0.053600,0.194172,-0.135122,-0.233710,0.112923,0.125744,0.118614,-0.190837,0.090775,0.220578,0.337578
-0.115767,-0.578823,-0.184768,0.180948,0.084278,0.497996,0.261619,-0.184539,0.357307,0.601852,0.314023,0.250184,-0.273243,-0.087094,0.043099,0.350483
-0.000136,-0.385999,0.239520,-0.209922,0.428319,0.194181,0.368302,-0.079639,0.085732,0.112794,0.028815,-0.143850,0.174095,0.289319,0.108735,-0.161944
0.257676,-0.036457,0.046236,-0.049697,0.397267,0.488497,-0.158706,-0.131491,0.118247,0.068817,0.515319,0.177118,-0.133620,-0.096802,-0.402297,-0.303156
0.481682,0.001082,0.246334,0.376750,-0.143775,-0.528536,-0.105669,0.298563,-0.228482,-0.230884,-0.248698,-0.245318,0.194386,-0.374888,0.252785,0.133097
0.017315,0.380131,0.094072,-0.385904,-0.618320,0.000878,-0.360348,-0.325986,-0.233624,0.462817,-0.285800,-0.215156,0.647541,-0.348115,-0.346169,0.128969
-0.150271,0.267795,-0.256420,-0.302283,0.319570,-0.073147,-0.159840,0.351979,-0.154995,-0.297812,0.320736,0.109814,-0.340234,0.323849,0.178621,0.210153
-0.196462,0.175762,-0.176258,0.407486,-0.115744,0.446603,-0.011890,0.589803,0.034211,0.425890,-0.364949,0.385632,0.286342,0.342205,-0.192730,0.042559
-0.008696,-0.273350,0.185557,0.222084,-0.101931,-0.123508,-0.039166,-0.494661,0.335729,-0.363692,-0.346469,-0.003253,0.623935,-0.445187,-0.007170,-0.098203
-0.204116,0.055706,0.264929,0.278425,0.282130,-0.049363,0.229668,0.046661,-0.197959,-0.311017,-0.392548,-0.251657,0.064718,-0.193035,0.329972,0.065871
0.103040,-0.504268,-0.275908,0.173006,-0.263682,0.197584,-0.434802,-0.279581,0.258303,-0.447879,0.299224,0.090163,0.091190,-0.158409,-0.353762,0.142652
0.057081,0.234932,-0.032438,-0.143911,0.090218,0.045291,0.260482,0.557626,0.053923,0.627148,0.659625,0.030427,0.109064,0.255228,0.101826,0.302642
-0.157066,0.346524,0.061023,-0.167020,0.274749,-0.062220,0.299770,0.362821,-0.297885,0.401623,-0.336631,0.041859,-0.278078,0.162933,0.271056,0.098351
-0.101412,-0.314991,0.303207,-0.032079,0.190553,-0.176046,-0.125352,-0.141696,0.069223,-0.247298,0.261787,0.296751,-0.519496,0.194771,0.064198,0.036282
-0.195533,0.271615,0.542054,0.497222,0.302898,0.501999,0.242854,-0.072543,-0.182312,-0.104486,0.186695,0.231958,-0.717580,0.512946,0.247551,0.154696
0.087994,0.171702,-0.098621,-0.270376,0.197192,-0.340088,-0.014839,-0.059284,0.257764,0.300836,0.090560,0.118921,0.085733,-0.206748,-0.308444,0.019915
0.337491,0.203263,0.429503,0.497309,0.266129,-0.158027,0.490450,-0.277702,-0.206873,0.367786,-0.333973,0.141884,0.252345,-0.154216,0.425028,-0.122629
0.067332,0.499947,-0.296988,0.562574,-0.150719,-0.267296,0.394558,0.049248,-0.266559,0.515812,-0.403452,-0.103639,-0.102972,-0.243861,0.382912,-0.046354
0.214718,0.328617,-0.320400,-0.350544,0.091730,0.188122,-0.082157,0.186829,0.208678,0.398473,-0.221377,-0.308596,0.102926,0.040926,0.067185,0.381929
0.048858,0.167284,0.271228,-0.223595,0.124775,0.105493,-0.444928,-0.390694,0.033990,0.433552,-0.225747,0.615877,0.341583,-0.208370,-0.004077,-0.047183
0.391560,-0.152119,-0.314031,-0.082741,0.526643,-0.243238,0.278430,0.176924,0.315040,0.340407,-0.186852,-0.199250,0.045134,0.091838,0.054935,0.408127
-0.035545,0.175107,0.053851,-0.048056,0.560816,-0.319983,-0.348016,0.420773,-0.490974,0.392818,0.003196,-0.151799,0.013505,-0.267435,-0.011603,0.337895
0.282075,0.241687,-0.341866,0.204389,0.382488,0.101870,-0.287504,0.612555,0.353879,0.247448,0.409221,0.007149,0.177246,-0.261932,-0.153986,0.018167
-0.281215,-0.269173,-0.096482,-0.178896,-0.327786,0.083106,-0.127104,0.602639,0.452094,0.319357,0.150011,0.470521,-0.494366,0.051861,-0.082368,-0.291718
0.413928,-0.373785,-0.006626,0.332185,0.413458,-0.274693,-0.266512,0.212333,0.067151,0.242339,0.257145,0.271957,0.212024,0.402444,-0.348631,0.276304
-0.278469,-0.264369,-0.277819,-0.287747,0.080790,-0.026279,0.306949,0.026849,-0.322460,-0.015852,0.551041,0.863589,-0.266463,-0.295195,-0.114404,-0.129164
-0.140574,0.118535,-0.100945,-0.238528,0.239878,0.183068,-0.002828,-0.168785,0.168563,-0.351027,-0.083317,-0.000875,0.297810,0.164805,0.297230,-0.169496
0.265323,-0.330149,-0.194870,0.090456,-0.182449,0.090670,0.245455,-0.171801,-0.138271,0.204926,0.621965,0.669488,0.428275,0.541317,0.099042,0.002602
0.124629,0.213513,0.141109,-0.021199,-0.313324,0.190205,-0.126993,0.217747,0.711089,-0.470243,0.290496,-0.268520,-0.021893,-0.385196,0.111666,-0.303754
0.010245,-0.211860,-0.117501,0.101903,-0.272995,-0.246836,0.245904,0.356085,-0.396412,-0.009349,0.389650,-0.135837,-0.207864,0.080104,-0.349116,-0.312029
0.407613,0.141327,-0.288753,-0.211750,0.128782,-0.208511,0.268406,-0.661208,0.441018,-0.544019,-0.424855,-0.451018,-0.099561,0.590793,-0.056773,0.170883
-0.060193,-0.033512,0.244216,-0.234949,0.204075,-0.013986,-0.070454,0.599115,0.043696,-0.187048,0.493109,0.509336,-0.403722,-0.328031,-0.012213,0.376114
0.181034,-0.018043,0.033431,-0.301042,0.269721,-0.232889,-0.114400,0.141183,-0.035206,0.129888,-0.266346,0.129287,0.108722,0.279374,-0.260627,0.445760
-0.216123,0.024749,-0.190234,0.270735,-0.027839,-0.123582,-0.271445,-0.265934,0.230235,-0.169173,0.024482,0.188721,-0.106998,-0.008958,-0.273714,0.346769
-0.320531,0.517425,-0.110838,-0.231119,-0.034752,0.263756,0.239682,-0.145407,0.343405,-0.190051,-0.008878,-0.209441,-0.152259,0.071232,-0.079560,0.329292
0.162636,0.048059,0.100115,-0.014254,0.165646,-0.261988,-0.304760,-0.043563,-0.275010,-0.222935,0.036514,0.014155,-0.193715,-0.251395,-0.240062,0.035221
0.254653,-0.163758,-0.225357,-0.319016,0.288370,0.125563,0.322299,-0.263822,0.214106,0.015018,-0.024448,-0.070523,-0.174565,-0.132665,-0.195588,0.092131
-0.115316,-0.048367,0.018125,0.050222,-0.213975,0.140035,0.299758,0.230111,0.309967,0.347860,0.315831,-0.057523,-0.196682,0.206682,0.175224,-0.086200
-0.106359,0.234749,0.010425,-0.432195,0.040671,-0.011670,0.388535,0.127925,0.699185,-0.252384,0.286684,0.239151,0.359545,0.170376,-0.085840,-0.171136
0.173729,0.179380,-0.239941,0.017027,0.003634,-0.152490,0.272207,-0.008973,0.130216,0.038998,-0.236658,-0.292858,0.281974,0.079862,-0.058715,0.277583
0.071044,0.289340,-0.031352,0.375074,-0.247300,-0.318077,0.009662,0.150304,0.025648,0.427504,0.039837,-0.263410,-0.329602,-0.327258,-0.059383,-0.121619
0.474606,0.136876,0.093950,0.576622,0.241539,0.045781,-0.542837,0.157946,0.192201,0.104609,-0.535766,-0.129631,0.820780,-0.147388,-0.235855,0.155226
0.461266,-0.287255,0.014607,0.442043,-0.648487,-0.344020,0.466441,-0.127786,-0.089663,0.283074,-0.204758,-0.176188,-0.092050,-0.385872,-0.290949,-0.307283
-0.483186,-0.149961,-0.075247,0.262096,0.409643,-0.345876,0.339483,-0.310922,0.095797,-0.003649,0.217907,0.367522,0.436054,0.448274,-0.266417,-0.008759
0.629758,-0.600771,-0.242200,0.472645,0.147432,0.482277,-0.086911,-0.347108,-0.462137,0.353957,0.370855,0.233589,0.187777,0.231961,0.207576,-0.352029
0.364650,-0.643149,0.019612,-0.033168,0.494790,0.338855,0.295349,0.113302,-1.002498,0.361292,0.886017,0.316754,-0.108177,-0.041347,-0.311260,-0.061283
-0.003577,-0.052889,0.076296,0.463911,-0.220215,-0.079938,-0.017672,-0.225459,0.200088,0.587432,-0.227832,-0.381129,0.286536,-0.070081,-0.249405,-0.036319
-0.103763,0.485365,0.205763,-0.324898,-0.484477,0.197112,0.041064,0.242046,-0.073244,0.290859,-0.392496,-0.249500,-0.392431,-0.126165,0.125388,-0.224397
0.221335,-0.237749,-0.111411,-0.209740,-0.339955,-0.197128,0.210067,0.102755,-0.203784,0.219365,-0.179199,-0.258379,-0.245156,-0.020019,0.044210,-0.025998
-0.155182,0.193229,-0.187930,-0.120232,0.287628,0.122875,0.013994,-0.264754,0.631502,-0.504887,0.136184,0.077722,-0.049906,0.338994,-0.129991,-0.280193
0.679355,-0.590323,0.044820
0.958464,-0.270340,0.270797
-0.024619,-0.090957,-0.318855
0.812560,-0.213554,-0.512815
-0.738250,0.098437,-0.632610
-0.083999,-0.756687,-0.053929
0.064900,0.455223,0.694713
-0.222453,-0.159686,-0.234004
0.443815,1.334187,0.128162
0.851658,-0.153888,0.114485
-0.877659,-0.524200,0.558244
-0.671674,0.276988,-0.143187
0.313598,0.601838,-0.829858
-0.280940,0.470215,-0.182663
-0.127623,-0.141102,0.161967
-0.000510,-0.071950,-0.131031
