8
256,128,64,32,16,8,4,3
0.044526,0.050570,-0.012750,-0.045478,0.014517,0.033720,0.011623,-0.029666,0.081338,0.056352,0.031790,-0.106698,0.028395,-0.076427,-0.081472,0.042988,-0.034665,-0.005205,0.064741,-0.037707,0.073169,-0.027874,0.016133,-0.004209,-0.000575,-0.059744,-0.018756,-0.027265,-0.017270,-0.052054,-0.041007,0.032322,0.086331,0.029183,0.006662,0.070905,0.080566,0.092882,0.012808,0.077439,-0.004722,-0.014623,-0.064546,0.065629,-0.088336,-0.082899,-0.051267,-0.059933,-0.003430,-0.096144,0.032426,0.025068,0.049747,0.087578,0.057458,0.012877,-0.052148,-0.047868,0.001072,-0.007959,0.063084,-0.006187,-0.008626,0.059052,0.006933,-0.025814,-0.034416,-0.074737,-0.045565,0.024385,0.014063,0.031139,0.046784,0.020515,-0.031589,0.067305,0.076500,0.047519,0.058722,-0.058217,0.087822,0.023560,-0.018311,-0.001999,0.031335,-0.032360,0.013362,-0.011675,0.075528,-0.093316,-0.023598,-0.003299,0.057461,0.020224,-0.043246,-0.089919,-0.036740,0.058806,0.036545,-0.041800,0.077433,0.026803,-0.037795,0.093406,-0.075671,-0.040885,0.045773,-0.004303,-0.028316,0.020679,0.074470,-0.104500,0.011623,0.064677,-0.017266,0.053412,-0.034542,-0.062790,0.078613,0.028138,-0.029214,0.108664,0.066957,0.003019,-0.002034,-0.043030,-0.002790,-0.059405
0.057854,0.001587,0.075936,-0.028212,0.052526,0.082916,-0.012870,0.048519,-0.026039,-0.087946,-0.079292,-0.041897,0.097438,0.051190,0.037810,0.050086,0.044098,0.006421,-0.038453,0.031641,0.021313,0.042205,-0.034595,0.006147,0.066505,-0.025914,-0.056128,-0.084599,-0.003916,0.071413,-0.119503,-0.000072,-0.015847,-0.062075,-0.124489,-0.061426,0.037399,0.044525,0.049887,-0.046380,0.115650,0.043070,-0.064611,-0.074867,-0.037866,-0.105954,0.000633,0.021065,-0.059146,-0.067263,-0.005518,-0.094910,0.070380,0.106814,-0.012937,-0.102850,0.061435,0.039733,-0.088701,0.084243,-0.046473,0.058601,0.112456,-0.024838,0.040661,-0.008557,-0.003741,0.073411,0.068295,0.087976,0.020663,-0.078697,0.013460,0.107242,0.035195,-0.005405,-0.013961,0.092677,0.009284,-0.015218,-0.091954,-0.121668,0.063874,-0.056123,-0.066573,-0.060206,0.040056,-0.066650,-0.087163,-0.001915,-0.007912,0.057170,-0.001943,-0.056217,-0.098165,0.018138,0.023306,0.042344,0.030929,0.038787,0.026233,-0.045956,0.040800,0.083795,-0.019553,-0.058420,-0.034314,0.033460,0.055302,-0.046799,0.073175,-0.040610,0.003822,0.040706,-0.039278,0.046950,0.001024,0.049294,0.083931,-0.024317,-0.040935,-0.009327,-0.003278,0.017005,0.031233,-0.016124,-0.060118,-0.084550
0.060261,-0.115496,-0.033537,-0.032011,0.015002,0.020875,-0.035031,-0.053580,0.037676,-0.029173,0.033843,0.050936,-0.039371,-0.023929,-0.041543,-0.013238,-0.048245,0.032599,-0.026375,-0.009814,0.040173,0.020519,0.008963,-0.075680,-0.037445,-0.020086,0.083494,-0.031008,-0.014163,-0.017441,0.032387,-0.031531,0.081074,-0.027255,0.058417,0.039344,-0.080493,-0.040507,0.010029,0.052570,0.002210,0.046253,-0.019137,-0.045883,0.064292,-0.012410,0.017280,-0.094032,0.087620,0.023195,-0.086390,-0.004295,0.120641,0.033720,-0.073061,0.000242,-0.050027,0.081353,0.042176,0.036374,0.071881,0.056736,-0.037923,-0.060161,0.074379,0.049042,0.061007,0.068229,-0.032119,-0.037361,0.039712,0.057676,-0.039449,-0.000226,0.041247,0.023671,-0.036302,0.059473,-0.002057,0.020942,0.059342,-0.094249,0.058890,0.021076,-0.053661,0.029841,0.003062,-0.061631,-0.014627,-0.013328,0.034041,0.001163,0.044317,0.041160,0.026541,-0.100650,0.026416,0.017035,-0.023370,-0.029357,-0.041653,0.034136,0.052146,0.033607,-0.059708,-0.015488,0.045178,0.044758,0.003523,-0.021740,-0.054487,-0.025391,-0.051556,0.057520,-0.029682,0.046034,0.061883,-0.009264,-0.019182,0.059405,0.036004,0.047100,0.069422,0.065659,0.025635,0.019962,-0.094728,0.028924
0.015355,-0.008528,0.027421,0.007762,-0.047540,0.073575,0.017083,0.007616,0.019275,-0.052354,0.010754,0.109563,-0.048043,-0.013549,-0.065301,-0.033512,0.017271,-0.017682,0.053133,-0.002778,-0.010235,-0.079304,0.065014,0.065154,0.031707,0.013639,-0.008713,-0.046462,-0.002761,0.084953,-0.052590,-0.016255,-0.004356,-0.061603,-0.079568,-0.071043,-0.057670,0.096772,-0.018207,0.043864,-0.011629,0.030399,-0.061049,-0.002640,0.032822,-0.002915,0.037049,0.046025,0.059022,-0.092622,0.070122,-0.041280,0.071101,0.028233,0.031252,-0.041566,-0.049635,0.078429,-0.028416,0.029464,0.030133,0.019663,-0.004151,-0.069137,0.075153,0.031787,0.101200,-0.041335,0.008834,-0.043772,0.047067,0.108852,0.019965,-0.050430,-0.059488,-0.032953,-0.048573,-0.013083,-0.016899,-0.049723,0.032007,0.067570,-0.024585,-0.058823,0.014383,-0.038992,-0.032537,-0.065090,-0.068930,0.011120,0.049967,0.010123,-0.089189,-0.068743,0.090565,-0.003263,-0.040049,0.095564,-0.077128,-0.019525,-0.021101,0.030880,0.027705,-0.036685,-0.034744,-0.092549,0.046744,-0.059700,-0.050538,0.044445,-0.041458,-0.002175,-0.090992,0.018985,0.041011,0.047991,-0.027260,0.028694,0.071214,-0.033610,-0.077250,-0.001106,0.051713,0.002301,0.026267,0.040991,0.061759,0.004866
0.009723,0.011517,0.018223,-0.047252,0.031372,-0.089773,-0.068909,0.064070,-0.078900,-0.053779,-0.062005,-0.007711,0.000511,0.006808,0.065479,0.012681,0.071647,0.036778,-0.074219,0.033381,0.033324,0.029981,-0.062626,0.088970,-0.055872,0.021951,0.068218,0.019897,-0.019489,0.078990,0.120243,0.007094,0.090268,-0.061816,-0.048324,-0.054392,-0.091776,-0.021473,0.004047,-0.078197,-0.043858,-0.030168,0.017974,0.005651,-0.045082,-0.074505,0.069784,-0.005189,0.020784,-0.021934,-0.012039,0.041218,0.014636,-0.001664,-0.048530,-0.029983,-0.034711,-0.074395,0.038143,-0.044304,-0.022023,-0.037767,0.073660,0.059461,0.059762,-0.059532,0.001649,0.089825,-0.050721,-0.032278,0.022689,0.039489,0.052506,-0.012909,-0.040878,-0.028344,0.061693,-0.021021,0.041165,-0.002409,-0.045218,0.050424,-0.018050,-0.068692,-0.017564,-0.039112,-0.064615,-0.039822,0.001008,0.000476,0.030688,0.029158,0.001637,0.020210,0.049448,0.058013,-0.070428,0.091081,-0.052813,0.022868,-0.039205,-0.119116,-0.004665,-0.050242,0.039623,-0.011895,-0.017454,0.017651,0.033625,0.105635,0.034098,-0.024238,0.023632,-0.032332,-0.029368,-0.064606,0.039358,-0.048818,-0.029302,0.076261,-0.063849,0.052105,0.034500,0.013641,-0.032179,0.055684,-0.054615,-0.090318
0.054995,-0.047890,-0.058356,0.026924,-0.050052,-0.068634,0.059664,0.043394,-0.083276,-0.084492,-0.045715,0.014212,-0.010126,0.084341,0.044100,0.041791,0.025124,-0.007780,0.048642,-0.085534,-0.087257,-0.018943,0.024151,-0.073511,0.098456,0.043127,-0.079807,-0.039494,-0.101022,-0.023286,0.002894,-0.033282,-0.029855,-0.007948,0.028396,-0.011368,-0.028034,-0.004357,-0.034098,0.053738,0.059208,-0.046640,-0.025485,-0.059786,-0.035833,0.071289,0.013801,-0.020247,0.069419,-0.067957,0.073928,0.046786,0.006916,0.072371,-0.029118,-0.039416,0.029553,-0.092467,0.030135,0.003023,-0.045982,-0.033601,0.030671,0.021762,0.053169,0.003688,-0.072774,0.010547,0.069622,0.090142,-0.105518,0.003012,-0.000906,0.074187,-0.020759,0.049084,-0.063748,-0.109197,-0.067800,0.012233,0.053624,-0.024239,0.001340,0.071073,-0.013651,0.003374,-0.073459,0.045982,-0.028397,0.114763,0.044298,-0.023506,0.001215,0.000999,0.065671,0.076624,-0.059338,-0.068658,0.114403,-0.035898,0.108271,-0.019157,-0.059295,0.055453,-0.026816,0.012263,0.022796,0.007746,0.001210,0.079336,0.078957,-0.050676,-0.100437,-0.012451,0.047611,0.012634,-0.034310,0.003565,-0.076342,-0.045069,0.074299,0.081007,0.056060,0.005323,0.085965,-0.015457,0.094696,-0.006215
-0.066175,0.041982,0.019446,-0.069106,-0.048815,-0.010140,0.057727,-0.010941,0.051392,-0.067568,-0.063665,0.047062,0.049532,0.058003,0.073340,0.008235,-0.072593,0.000828,-0.079376,0.057895,-0.021072,0.095298,-0.014850,0.017386,0.030888,0.054558,0.014154,-0.024857,0.027063,-0.103405,0.011076,-0.035344,-0.016493,0.005437,-0.067994,0.045767,-0.003721,0.050107,-0.044833,-0.005950,-0.101898,-0.078019,0.044977,0.110726,-0.002214,0.008821,-0.012913,-0.079535,-0.013271,0.014521,0.098871,-0.014382,-0.050215,0.065471,-0.018104,0.060046,0.087299,-0.011642,0.008192,-0.058111,-0.063668,-0.037719,0.026794,0.106150,-0.005776,-0.009779,-0.034972,0.015706,0.005112,-0.004691,0.049584,0.065351,0.123678,0.092038,-0.071790,-0.032907,-0.039371,0.019316,-0.025891,0.085568,-0.004630,0.007510,-0.006481,-0.049340,0.031714,-0.001640,-0.052624,-0.056617,0.067711,0.044068,-0.034652,0.052836,0.053231,0.057496,-0.049085,-0.031108,0.028185,0.029143,-0.020567,-0.023736,0.019685,0.015726,-0.033363,0.058130,0.059592,-0.072923,0.026866,0.062363,-0.067254,0.015169,-0.042493,-0.009119,0.053596,-0.008890,0.029669,-0.062596,0.083834,-0.013209,-0.049201,-0.024754,0.006600,0.036485,0.092666,0.039025,0.002450,0.077417,0.006950,0.062231
0.003388,0.077199,0.062099,-0.010478,0.016719,0.028718,0.048097,0.068933,-0.002637,-0.102383,0.051404,0.006886,-0.010263,0.011115,-0.020379,-0.074222,-0.011562,-0.094162,0.062420,0.001844,0.018294,0.019563,-0.079484,-0.004494,0.000209,-0.028294,0.047467,-0.043162,0.052060,-0.027601,-0.050744,-0.069918,0.024258,-0.040233,-0.061575,-0.010841,0.078695,0.060341,0.077094,0.034411,-0.041242,0.032150,0.041527,0.011707,-0.044067,-0.054388,-0.091691,-0.002412,-0.027971,-0.044145,-0.036443,-0.043035,-0.050421,0.005486,0.093841,-0.029793,-0.042939,-0.106299,0.038807,-0.022517,0.036171,-0.070173,0.025539,0.005169,0.080393,-0.068497,-0.080381,0.008248,-0.042546,0.028257,0.009222,-0.036304,-0.056614,-0.008984,0.034526,0.111278,0.004572,0.045530,0.082303,-0.017292,-0.055496,0.025189,0.116706,0.014572,-0.073864,0.081251,0.030175,0.093281,-0.014673,0.044958,-0.061325,0.075049,0.018804,-0.069127,-0.043662,-0.080745,0.003580,-0.022819,-0.085449,-0.058450,0.028819,-0.064024,-0.002823,-0.089060,0.007834,-0.034198,-0.054573,0.050092,0.057456,-0.046268,-0.022664,0.037143,-0.023877,-0.005335,-0.057887,-0.004690,-0.073162,0.072561,-0.015445,-0.006079,-0.075649,-0.059538,-0.023170,0.036383,-0.014508,0.069855,-0.052026,-0.090497
0.008892,0.060600,-0.027728,0.028680,-0.046764,-0.058878,-0.082604,0.027335,-0.029105,-0.014147,0.001905,-0.045214,-0.062994,-0.049088,0.008790,-0.077328,0.085427,-0.067015,-0.042389,0.059058,0.053228,-0.024751,-0.009986,0.038665,-0.036610,0.022525,0.116809,-0.029196,-0.070251,-0.025760,0.045392,-0.067335,0.023393,0.056056,0.028456,-0.030981,0.070080,-0.064178,-0.014613,0.030140,-0.095231,-0.088687,0.054391,0.052229,-0.076880,-0.048722,-0.117223,-0.054418,-0.051358,0.062744,-0.004330,0.067064,-0.015539,-0.094870,0.001415,-0.005431,0.034084,-0.089532,-0.004633,0.006844,0.005726,0.012480,0.037332,0.067916,0.048895,-0.058368,0.002304,0.023024,0.007966,-0.070849,-0.028058,-0.008306,0.057596,0.008370,0.064257,0.078925,0.007025,0.007189,0.021473,0.019011,0.010861,0.086103,0.111913,-0.000709,-0.052477,0.044871,-0.021927,0.053566,-0.039018,-0.053726,0.093673,0.133360,0.010160,-0.017188,-0.051568,-0.058905,-0.021517,-0.037402,0.048091,0.070312,-0.015074,0.001929,-0.019440,-0.105404,0.022974,0.007681,-0.002670,0.025069,0.006152,0.019274,0.072731,0.003614,0.010190,-0.100620,0.001142,-0.017624,0.070619,0.028694,-0.000631,-0.093176,-0.074991,0.081513,-0.087030,0.061270,0.116960,-0.012170,0.109125,-0.090255
-0.054856,-0.042761,-0.014712,0.007003,-0.017564,0.020337,0.078593,0.000579,-0.030465,0.087496,0.013996,-0.030432,0.045377,0.014646,-0.001996,-0.003760,0.006166,-0.104417,-0.073047,0.073720,0.005545,0.077415,0.006378,-0.049768,0.023994,0.013561,0.085221,0.093657,-0.056434,-0.009249,-0.059051,-0.021273,-0.035769,0.032278,-0.004607,0.046305,0.033257,0.037217,-0.104165,0.078282,-0.015425,0.034492,0.022828,-0.017582,0.009879,-0.021228,-0.062811,0.039464,-0.063282,-0.068958,-0.052791,0.042657,-0.013543,0.038790,-0.037924,-0.048302,0.064459,-0.038041,-0.083188,0.048101,-0.012985,-0.007325,0.028684,-0.045367,-0.082900,-0.082056,0.021421,-0.040006,0.033164,0.000131,-0.004744,0.014278,-0.064408,0.055463,0.045876,-0.022293,-0.047071,-0.003310,-0.075421,0.012863,0.022538,-0.005849,0.073748,-0.034039,-0.030335,-0.000871,-0.049350,0.034039,0.072699,-0.055097,-0.032905,0.038193,-0.069442,0.048039,0.001730,-0.004611,-0.051497,0.054333,-0.017735,-0.015655,0.079845,0.048806,-0.027177,0.009918,-0.013092,-0.061813,-0.077331,0.001745,0.023827,-0.034437,-0.045249,0.077348,0.048393,-0.041680,-0.063194,-0.070281,-0.052073,0.022797,-0.068478,0.034198,0.008156,0.053504,0.107326,0.067651,0.086920,0.016730,0.015226,0.032730
-0.090941,0.016030,0.081219,0.011662,-0.061822,-0.029676,-0.038648,-0.016741,-0.034351,0.057481,-0.090372,-0.086350,0.062636,-0.063868,-0.062188,0.052390,-0.073380,0.053043,0.071609,0.112094,-0.016097,0.072219,-0.059904,0.037013,-0.026190,-0.045078,-0.081649,0.050965,0.094935,0.018954,-0.009119,0.078816,0.073051,0.035516,0.009405,-0.042177,-0.086403,0.040861,0.024051,0.076464,0.005728,0.069673,-0.101490,0.025211,0.059836,-0.106177,-0.026648,-0.075607,0.066148,-0.018880,-0.067260,0.066669,0.080330,-0.013416,0.038110,-0.006398,-0.026389,-0.075841,-0.082250,0.034054,0.097058,0.056510,-0.003046,-0.033965,0.024517,0.013400,-0.038180,-0.036452,-0.037815,0.045803,-0.028832,0.026895,0.059102,-0.057263,0.081401,-0.065894,0.059683,0.010100,-0.005849,-0.097155,0.076006,0.011971,-0.014169,0.028741,0.063488,0.049732,-0.025544,-0.020532,0.001979,-0.047430,-0.010794,0.055806,-0.033198,-0.038303,0.019020,-0.057337,0.081654,-0.050246,-0.084375,0.049548,0.036077,0.047909,-0.045616,0.048338,0.045873,-0.048511,0.100214,-0.002679,-0.075768,-0.004396,0.080599,0.073176,-0.068929,-0.012913,0.011701,0.088968,0.095949,0.026532,-0.020337,0.041605,-0.038827,-0.031964,0.002932,0.038102,0.080305,0.031432,-0.045928,-0.037007
-0.043980,0.004889,0.075976,-0.031293,0.045502,0.003355,-0.045771,-0.057879,-0.019043,0.104825,-0.025030,-0.076493,0.006437,0.041518,0.011721,-0.036595,0.015511,0.079472,0.071048,-0.015786,-0.073682,0.059508,0.049653,0.069791,-0.009303,0.081847,-0.070219,0.083201,0.069004,0.029307,-0.017607,0.088734,0.003099,0.135990,0.016805,-0.057825,-0.086333,0.065205,-0.013898,0.056813,0.076514,0.061929,0.054778,-0.044929,-0.018141,-0.032709,0.056599,-0.024377,0.055534,-0.022572,-0.054211,0.009140,0.008462,-0.017544,-0.053638,0.045631,-0.077612,-0.056419,0.036972,0.104471,0.016263,0.040842,-0.002171,0.037376,0.076199,-0.042360,-0.022026,0.030451,-0.003117,0.007588,0.078805,0.004315,-0.059943,0.099957,-0.009079,0.022351,0.051316,0.066089,-0.000181,-0.043516,-0.020284,0.007324,0.061154,0.033898,-0.092109,-0.029137,0.027366,0.060788,0.036795,-0.035063,-0.088383,-0.048372,0.080689,-0.072320,0.063650,0.106442,0.009484,0.110419,-0.028503,0.007064,-0.090961,-0.031740,0.030369,0.006185,0.067728,-0.013774,0.064885,0.060264,0.008987,0.024648,0.018572,0.092751,-0.084212,0.118328,0.003698,0.059895,0.035239,0.090602,-0.035727,-0.029126,0.090008,-0.013625,-0.046953,0.019575,0.082780,0.038782,-0.043862,0.001906
0.040551,0.002170,-0.044373,-0.028884,-0.006220,-0.040309,0.067780,0.039868,-0.045555,-0.084175,0.009591,0.002409,0.093768,0.049882,0.016327,-0.067320,-0.021807,0.071231,-0.073327,-0.002468,-0.038694,0.067274,0.080326,0.056486,0.048817,-0.003392,-0.011089,-0.046371,-0.049773,0.075373,-0.002288,0.062865,-0.018748,-0.120055,-0.001642,-0.062176,-0.080446,0.011680,0.006043,-0.019513,0.012499,-0.065525,0.001769,0.035277,-0.090956,0.030742,0.072706,0.054066,-0.034250,0.086523,0.152269,0.085984,0.012067,0.058429,0.050077,0.017287,0.067064,0.027508,-0.023561,-0.076045,0.048851,0.072835,0.028515,0.000154,0.005249,-0.043244,-0.015177,-0.078541,-0.004155,0.000896,0.043971,0.010542,0.047244,0.072531,-0.072392,0.021016,0.057679,0.043050,0.081504,0.027823,0.103740,-0.052296,-0.083137,0.006807,0.048094,0.082185,0.033828,0.063638,-0.012971,0.041222,0.093007,-0.044268,0.014402,0.020412,0.081685,0.010832,-0.045447,-0.050730,-0.118065,0.015773,-0.010887,-0.110245,0.003251,-0.023943,-0.018953,0.001942,0.041684,-0.100088,-0.084892,0.013394,0.066770,0.035686,-0.012764,-0.009421,0.026993,-0.031111,0.107003,0.066959,0.089001,-0.035471,-0.034034,-0.011539,0.030025,0.002150,-0.017207,0.043733,0.097949,-0.076167
0.050947,0.060487,-0.035332,-0.086019,-0.052405,0.002739,-0.012849,0.020730,0.026659,-0.028755,0.040537,0.090389,0.025728,0.062612,-0.060182,0.076666,0.054416,0.044321,-0.050431,0.006294,0.011047,-0.051808,0.031591,0.011641,-0.009652,0.041178,0.060500,-0.067424,0.026255,0.056273,-0.107823,-0.002200,-0.017351,0.005187,0.066253,-0.047155,0.040791,-0.011832,-0.033968,-0.017537,-0.075004,-0.121628,-0.041390,-0.056844,-0.095102,-0.033417,-0.034556,0.019030,-0.069399,0.037232,0.143777,-0.060827,-0.043066,0.064458,0.058334,-0.016271,0.042803,-0.028290,0.111326,0.015552,0.064550,0.080429,-0.010065,-0.096880,-0.038732,0.026443,0.065747,0.025375,0.057323,-0.002084,0.077390,0.037458,-0.048254,-0.025776,0.034112,-0.080972,0.088543,-0.029031,-0.067816,-0.051025,0.057849,0.063794,0.045068,-0.075728,-0.034015,-0.082530,0.047379,-0.078169,0.087873,-0.029158,0.029947,0.051480,-0.072440,0.014673,0.057335,0.023879,-0.054417,0.110086,0.081338,-0.066172,0.128176,-0.071854,0.003120,-0.039088,0.050327,-0.105617,0.003778,0.059046,0.062238,-0.082876,0.028812,0.108536,0.025368,-0.038044,-0.041204,-0.033577,-0.003410,-0.036534,0.075654,0.032642,-0.007380,0.078852,-0.012455,-0.008313,0.133254,0.065792,-0.053459,-0.089012
-0.060769,0.018319,-0.065092,0.071600,-0.010326,0.025989,-0.051681,-0.040409,0.031334,-0.032321,0.023274,0.051792,0.041195,0.120135,0.011739,-0.025617,-0.068940,0.006416,0.027324,0.116423,0.069142,0.082501,0.028693,-0.062052,-0.019054,0.046549,0.065835,-0.058403,0.063225,-0.010483,0.033938,0.068261,-0.032735,0.037624,-0.054106,0.028065,-0.019762,-0.053266,-0.121459,0.096468,0.070223,-0.107951,0.007993,-0.005113,-0.051524,-0.072544,-0.014942,0.089809,0.077072,0.002377,0.086816,-0.032064,0.030508,-0.015595,-0.014809,0.004747,-0.070502,0.014628,0.042676,0.031592,-0.097169,0.088284,-0.063453,-0.055989,-0.016689,0.010478,0.054380,-0.042473,-0.101381,-0.064592,0.024799,-0.073877,-0.021535,-0.112976,-0.016205,-0.104620,-0.081074,0.057367,0.060199,-0.090750,0.052018,-0.092189,-0.028034,0.045030,-0.014786,0.010409,-0.106446,-0.065542,-0.068104,-0.110853,-0.021762,-0.047179,0.054639,0.031370,0.066228,0.055029,0.017112,-0.093221,-0.082671,0.097450,-0.039846,0.013894,0.033624,0.026088,-0.087303,0.038662,-0.060685,-0.040343,0.044298,-0.047705,-0.038367,0.084107,-0.044529,0.087751,-0.037772,0.061687,0.107361,0.022252,-0.011310,-0.067580,0.043997,0.011224,0.078439,-0.060212,0.013618,-0.068303,-0.008093,-0.018250
-0.009609,0.053801,0.068338,0.046211,0.077194,0.081223,0.066989,0.007466,0.022879,0.032757,0.055578,0.088292,0.042994,-0.029079,-0.034071,-0.004534,-0.033902,0.058443,-0.072830,0.037958,0.097831,-0.050285,-0.047859,-0.102771,-0.059850,-0.070018,-0.064193,-0.053357,-0.080721,-0.049273,0.013287,0.002281,0.025763,-0.015833,0.022850,0.046071,-0.019959,0.012789,0.065304,0.041715,0.020732,-0.084748,0.028365,0.004256,-0.004564,0.038540,0.023108,0.001552,0.070188,-0.025869,0.066272,0.063544,-0.017767,-0.065697,0.030375,-0.000711,-0.053575,0.019847,0.074055,0.012852,-0.041870,0.039630,0.004270,-0.037154,-0.042913,-0.040561,0.101316,-0.025047,0.068108,0.061994,0.089737,0.076627,0.094710,0.010199,-0.064964,0.072493,-0.014748,0.041169,0.043587,-0.049425,0.017011,-0.123443,0.072181,-0.077951,-0.109213,-0.036168,-0.015197,-0.024619,0.054173,-0.060965,0.005053,-0.021899,-0.103590,-0.048677,0.112285,0.014094,0.042964,-0.055181,-0.081899,0.066912,0.029504,-0.033635,-0.032780,-0.018072,-0.082706,-0.002507,-0.002774,-0.013779,0.073169,0.046156,0.018282,-0.012566,-0.086050,-0.029542,0.002240,-0.103390,0.000622,-0.011609,-0.035419,-0.046526,0.038069,0.002429,0.020122,-0.054861,-0.088921,0.054336,0.008631,0.015495
0.080460,-0.097377,-0.035604,-0.037257,-0.023002,0.043797,0.058598,0.041541,0.021777,-0.023309,-0.021966,0.004673,0.069532,-0.009288,-0.036489,-0.025644,0.011688,0.002945,0.011509,0.042286,0.069635,-0.015999,-0.041655,-0.055538,0.030350,-0.074675,0.025079,0.046410,0.080377,0.085681,0.030650,-0.003317,-0.047562,0.044259,0.048418,-0.019935,-0.051440,-0.075347,-0.019678,0.000378,0.057821,0.019018,-0.061842,0.019750,0.073001,-0.050104,-0.055328,-0.071404,-0.085291,0.049489,-0.080213,0.081404,-0.036635,-0.068317,0.007130,0.075455,-0.017910,0.047959,0.031831,0.065686,-0.040547,0.040901,0.074398,0.104824,-0.075671,0.062181,-0.039732,-0.086377,0.026625,0.006404,-0.067311,-0.008038,0.075233,0.078733,0.012703,0.044687,-0.037685,0.012683,-0.029296,0.023750,-0.065184,-0.045384,-0.051444,-0.048413,-0.055567,0.072716,0.069627,0.071758,0.058076,0.045217,-0.059804,-0.089060,0.036571,-0.010853,-0.055020,0.021502,0.072065,-0.008306,0.064049,0.046115,0.119442,-0.011381,0.008550,0.019269,0.043551,-0.067201,-0.043547,-0.075985,0.030616,-0.043424,-0.066048,-0.066159,0.050246,0.005467,0.022094,-0.030771,0.029403,0.060196,-0.015128,-0.075007,-0.052818,-0.059400,0.050517,-0.019793,-0.010849,-0.012658,-0.011986,-0.009143
-0.013478,-0.026143,-0.086305,0.069076,-0.026595,-0.012341,0.000297,-0.025127,-0.077150,0.007500,-0.045534,0.041121,-0.053514,-0.035057,-0.046613,0.007635,0.034078,-0.058364,0.069474,0.079763,0.020685,-0.033119,0.006227,-0.063755,-0.040388,-0.067792,0.080038,-0.017122,-0.015996,0.041175,-0.099098,0.003912,-0.077463,-0.069221,-0.000607,-0.043582,-0.036031,-0.043317,0.040337,0.078528,0.018467,0.012992,-0.032005,0.115567,0.031510,-0.082538,0.004009,0.098494,0.007029,0.026231,-0.017561,-0.108154,0.099454,-0.022086,-0.043668,0.027026,0.022566,0.015067,0.070572,0.048335,0.003179,-0.018358,0.089565,-0.052203,0.016573,-0.058269,-0.002969,0.068487,-0.092828,0.027770,0.005859,0.002009,0.054442,0.039386,-0.007180,0.051168,-0.076188,-0.027945,0.053967,-0.019838,-0.080951,-0.051709,-0.068718,-0.069718,0.014192,0.017205,-0.017652,-0.033249,-0.070027,-0.064466,-0.012323,0.064395,0.136924,0.040720,-0.052932,0.023298,-0.001624,-0.001474,-0.105363,0.037744,0.062639,-0.025682,-0.078326,0.017288,0.074226,-0.069929,0.000939,-0.016825,0.033565,0.032674,-0.025718,-0.038882,-0.080322,0.078142,0.026288,-0.058539,0.063697,-0.054224,-0.056992,0.083606,0.077608,0.103119,0.024751,-0.026543,-0.013259,-0.011737,-0.005410,-0.057765
-0.043567,0.058487,0.071061,0.100943,0.041714,-0.045679,-0.071812,0.059101,0.090127,-0.070342,0.064746,-0.059275,-0.010326,-0.014273,-0.045422,-0.008862,0.061907,0.029150,0.008366,-0.000229,-0.039476,-0.001671,0.073878,-0.033842,-0.104538,-0.032559,0.049037,-0.067421,0.062119,0.054045,0.008476,-0.054492,-0.053606,-0.091400,-0.022968,-0.008174,-0.009917,-0.017276,0.051965,-0.048159,0.131263,0.013418,-0.033484,0.056349,0.094492,0.026907,0.011635,0.023924,0.079711,0.054412,0.003197,-0.033846,-0.051826,0.088816,0.107008,0.010328,-0.016403,0.056366,-0.060550,-0.051422,0.061355,-0.053530,-0.057557,0.028101,0.050262,-0.074124,-0.073097,-0.015269,-0.080748,-0.069715,0.072639,-0.036990,0.046547,0.043204,0.053959,-0.001796,0.017425,0.050848,-0.099412,0.029560,0.003853,0.074854,-0.013709,-0.052151,0.073898,0.017518,0.029014,0.039363,0.044229,-0.027115,0.078136,0.067350,0.070210,-0.045832,-0.045226,-0.011509,0.056725,0.049078,0.008663,-0.034449,0.003238,0.051856,-0.050895,-0.015550,0.091761,0.116492,0.041832,0.044303,-0.009001,0.109808,-0.032830,-0.002839,-0.028771,-0.068349,0.039031,-0.023821,-0.078245,-0.060866,-0.019330,-0.031086,-0.040947,0.002292,-0.067729,0.056840,-0.108944,-0.032439,-0.017785,-0.038560
-0.038319,-0.066990,-0.041457,-0.010698,-0.005072,0.001731,0.065519,-0.070962,-0.038481,-0.018742,0.045385,-0.016784,-0.066665,-0.000525,-0.078722,0.050817,-0.052093,0.039975,0.019052,-0.053279,-0.068078,-0.088361,-0.036910,0.023051,0.032931,-0.098800,-0.016446,0.037988,0.008876,0.081156,0.055928,-0.014091,-0.018944,-0.085237,0.014819,-0.022752,0.011856,0.101829,0.018741,-0.046123,-0.005707,0.067821,-0.082663,0.016942,0.045957,-0.039201,0.026309,-0.066763,0.041219,-0.003871,0.040752,0.009627,0.051401,-0.025462,-0.023962,-0.063740,-0.093280,-0.023474,-0.008157,-0.019198,-0.065464,0.111602,-0.017430,-0.042015,-0.020530,-0.015602,-0.049448,0.062093,0.039592,0.024716,0.052080,-0.057116,0.054264,-0.028678,-0.049982,0.046727,-0.050731,0.004136,0.093666,-0.044459,-0.067023,0.047349,-0.055714,-0.090423,-0.064657,-0.030228,0.092246,0.041946,0.014431,-0.008501,0.009206,-0.106419,0.028317,-0.022288,-0.015940,0.097993,0.014281,-0.005580,0.100694,0.096959,0.057836,0.049743,-0.062697,-0.062191,0.086029,-0.000923,-0.040259,0.038835,0.075536,-0.009176,-0.078237,-0.101226,0.088930,-0.070477,-0.012528,0.098873,-0.012604,0.016091,-0.003539,-0.058500,0.011644,-0.029645,0.004429,-0.087149,0.056637,0.042622,0.020657,0.038519
-0.110133,0.059155,-0.051134,-0.013427,0.066583,-0.033374,0.014579,-0.004428,0.027106,-0.039131,0.011553,-0.033864,-0.003319,-0.003024,-0.020489,0.033584,-0.048155,0.028358,-0.059469,0.036328,0.042482,0.045703,0.037101,0.023903,-0.037885,-0.038985,-0.039616,-0.011350,0.107723,-0.009498,-0.023259,-0.042163,-0.100746,0.044531,0.036660,0.048480,-0.070985,0.080834,-0.001284,-0.038019,-0.022344,0.093968,-0.009545,-0.058645,-0.036517,-0.057812,-0.044393,0.007290,-0.021701,0.006583,0.082426,-0.049867,0.072704,-0.042611,0.069778,-0.038555,-0.027687,-0.081290,-0.070873,0.011135,0.072621,0.063701,-0.007632,-0.051083,0.096466,-0.022040,-0.051802,-0.033310,0.094394,0.037394,-0.002424,0.031715,0.033782,-0.070271,0.071800,-0.054530,-0.030765,0.008063,-0.060201,0.002827,0.008157,0.046384,-0.023292,0.084196,-0.000320,-0.060658,0.077754,-0.068258,-0.001443,-0.037256,0.079167,0.017251,0.038056,0.057324,0.071364,0.072749,0.103550,0.009629,0.093147,0.083231,0.047961,-0.002976,0.023897,0.035479,-0.034719,-0.043456,0.007050,0.033795,-0.028369,-0.025307,0.060421,-0.000469,0.012874,-0.080122,-0.000205,-0.022046,-0.003055,-0.056265,-0.105931,0.049937,-0.012603,-0.013918,0.016896,-0.102188,-0.070864,-0.088687,-0.062922,-0.019903
-0.009638,-0.012475,-0.064837,-0.055417,-0.067269,-0.084455,0.025383,-0.054225,0.023210,-0.039220,-0.037365,0.019226,0.061197,-0.063255,0.073704,0.006975,-0.079877,0.035547,0.046518,0.017511,0.063426,0.008042,-0.010490,0.013702,-0.106565,-0.092457,0.064744,0.038822,0.017888,0.039961,0.017918,-0.053935,0.007841,0.048771,0.111239,0.051759,0.075269,0.066558,-0.056964,0.004783,-0.066176,-0.019722,-0.073169,0.066729,-0.000626,0.022672,0.080080,-0.009851,0.014635,-0.072246,0.029592,-0.065755,0.095219,0.010734,-0.025770,-0.065139,0.072126,-0.116421,0.046373,0.025473,0.037176,-0.042109,-0.030836,0.076358,0.019647,-0.090922,0.036739,-0.060864,0.029445,-0.025495,0.062161,-0.041133,-0.029675,-0.035842,0.054598,0.035707,-0.059623,0.068590,-0.064208,0.006142,0.034325,-0.044178,0.015836,-0.056892,-0.049157,-0.058032,-0.040246,-0.084901,0.078977,-0.047585,0.047665,-0.064082,0.014580,0.025287,0.017462,-0.026989,-0.071589,0.058487,0.102250,0.042305,0.003255,0.058737,-0.090285,-0.089923,-0.020980,0.045638,-0.049912,-0.024906,-0.037075,-0.074948,-0.031073,0.019011,0.071437,-0.080789,-0.078347,-0.091429,0.051062,-0.040250,-0.099969,-0.096226,-0.003290,0.020234,0.077716,-0.065415,0.045517,0.049268,0.002636,0.070825
0.013692,-0.079757,0.075119,0.059657,-0.073394,0.001525,-0.020434,-0.045190,0.056325,0.058248,0.052025,-0.020843,-0.001374,-0.038629,0.091984,-0.027649,-0.044364,0.018917,-0.033643,-0.053669,-0.009691,0.029632,-0.028435,-0.023197,-0.038669,0.017427,-0.084206,0.073905,-0.032613,-0.077710,0.069898,0.013461,-0.062653,-0.086581,0.011744,-0.032192,0.074003,0.010816,-0.053019,0.053339,0.001042,-0.027993,-0.046030,-0.056262,-0.035330,-0.044571,-0.060783,0.121123,0.063241,-0.000405,0.068753,0.055403,-0.008085,0.022137,-0.062932,-0.001335,-0.004441,0.001986,0.007374,-0.009742,-0.079350,-0.053607,-0.097483,-0.021577,0.017708,-0.034173,-0.040089,-0.081238,-0.037958,0.047220,-0.010628,-0.074428,-0.044527,-0.044639,0.079085,-0.033344,0.019399,0.015600,0.052231,-0.060700,-0.073071,-0.071819,-0.055485,0.007523,-0.088069,-0.004145,-0.027735,-0.056151,0.076454,-0.086821,0.025358,0.067745,0.097020,-0.036025,0.039775,-0.089619,-0.007251,0.049527,0.002159,0.075143,0.030421,0.040215,-0.073949,-0.049884,-0.004409,-0.056310,-0.013665,0.020151,0.027964,-0.006051,-0.025273,-0.039565,0.042549,0.004426,-0.039727,-0.071257,-0.030515,0.004692,-0.006582,0.033142,-0.024947,0.012719,-0.071714,-0.017502,-0.093266,-0.017523,-0.053916,-0.058364
0.055054,-0.048040,0.001129,-0.048241,-0.007660,-0.013672,-0.021408,-0.005331,0.032326,0.013045,-0.038888,0.042948,-0.005711,0.069514,-0.051498,0.023937,0.075975,0.019620,0.042708,-0.006814,-0.043195,-0.021199,0.046022,-0.054073,0.047934,0.027956,-0.009587,-0.091787,0.029039,-0.036678,-0.013289,0.031745,-0.116112,-0.033513,-0.036104,-0.079162,0.025801,-0.027931,0.045232,-0.007910,0.052869,-0.012574,-0.005827,-0.003800,-0.096966,-0.042555,0.006757,0.021374,0.010824,0.049461,0.016278,-0.063591,-0.012325,0.026922,0.033385,-0.055352,-0.045545,0.067570,-0.038345,0.032933,-0.086752,-0.092536,-0.042960,0.015262,0.132925,-0.063170,-0.004555,0.028367,0.028459,-0.033368,-0.004740,-0.019170,0.060587,0.035508,-0.028753,0.079746,-0.027976,-0.039507,0.051435,0.002676,0.025064,0.101820,0.058961,0.101292,0.067117,0.063285,-0.074311,-0.078731,0.005541,-0.026003,0.056323,-0.023651,-0.064695,-0.096486,0.055922,-0.084662,-0.001627,-0.001274,0.049606,-0.003272,-0.018699,-0.000334,-0.011287,0.029877,-0.015936,-0.050510,0.013580,-0.013207,0.002282,-0.011570,0.071374,0.085528,0.088135,-0.064389,-0.054717,-0.004289,-0.017842,0.028318,0.049681,-0.008908,-0.002300,0.006425,0.051144,0.069916,0.091838,-0.053027,-0.059167,0.015544
-0.080523,0.012363,-0.018682,-0.025964,-0.033545,-0.016503,-0.035966,-0.023285,-0.037646,-0.043301,-0.063315,0.073012,-0.022471,-0.040419,0.078124,-0.019563,-0.006091,0.049895,0.025574,0.011961,-0.054126,0.054566,-0.003778,0.063138,0.058653,0.071075,-0.069966,0.053066,-0.094460,0.081105,0.043248,-0.078629,-0.022573,-0.045615,-0.070401,-0.056820,-0.066420,0.084367,0.016026,0.004335,0.040699,-0.108298,-0.085323,-0.047878,-0.015015,-0.049478,0.046228,-0.048801,0.049482,-0.013567,-0.119448,0.051506,0.064143,-0.050631,-0.040040,0.071694,0.080254,-0.021069,0.040483,-0.029617,0.068647,0.029378,-0.072293,0.137130,0.094581,-0.050836,-0.031806,0.073744,-0.005394,0.000245,-0.068508,-0.087333,-0.077350,0.028543,0.088642,0.015558,-0.000386,0.012645,0.007036,0.089597,-0.049064,-0.053911,0.057292,0.012125,0.068963,0.033075,0.019172,-0.044769,-0.029305,0.018121,-0.039181,-0.004224,-0.113926,0.019972,0.018682,-0.047247,-0.043514,-0.026079,0.042312,-0.068142,0.093246,-0.021542,0.019380,-0.028284,-0.065424,0.039910,0.023102,0.083118,0.067136,0.059708,0.060598,-0.013390,-0.055770,0.046609,-0.022304,-0.005513,0.053436,0.027852,-0.036730,0.028940,0.038176,0.003500,-0.054239,-0.052452,0.077862,0.054612,-0.063195,-0.063930
0.054588,0.057523,0.023728,0.017226,0.067287,0.032650,0.069324,-0.033725,0.071152,0.074113,-0.076262,0.079591,-0.034818,-0.023807,-0.035329,-0.054865,0.026126,0.075999,0.055159,0.030844,0.017224,0.026535,0.088874,0.002707,0.033182,-0.082947,-0.083367,-0.045383,-0.005523,-0.056825,-0.037244,-0.059794,-0.006652,-0.006170,0.065701,0.076003,0.054585,0.056808,0.047738,-0.076820,0.013133,-0.067852,0.011008,-0.062176,-0.004924,-0.080410,-0.014446,-0.068143,0.040612,-0.044750,0.011384,-0.032088,0.050671,0.058434,0.029588,0.027288,-0.049289,-0.042090,-0.068498,0.083485,-0.004987,-0.056216,-0.039405,0.035263,0.081183,0.044114,0.082027,-0.000075,0.041661,-0.012915,0.036452,0.012881,0.006003,0.097953,-0.078407,-0.068678,0.071721,0.070772,-0.079614,0.011296,0.057502,0.020641,-0.001146,0.048483,-0.062625,-0.038726,0.037687,-0.037387,0.037480,0.076002,0.086185,0.052617,-0.002797,-0.107826,-0.011224,-0.054021,0.063155,-0.055159,-0.081573,-0.053828,0.020868,0.049950,0.071338,-0.086283,0.101139,0.011478,-0.004096,0.073224,-0.048318,0.072382,0.074888,-0.040987,0.081354,0.040169,0.035628,0.078610,-0.057217,-0.001539,0.014189,0.014017,-0.003185,0.050533,-0.020517,0.012111,-0.133711,0.076206,-0.115478,-0.016239
-0.078349,0.005112,0.057553,-0.095659,0.015154,0.027061,-0.044800,-0.066960,0.042506,-0.093728,-0.002688,-0.038357,-0.035092,0.022206,0.113290,-0.009312,-0.019417,-0.072096,-0.061055,-0.053701,-0.077586,0.045253,-0.092429,-0.101372,-0.002034,0.050681,0.059556,0.021257,0.060602,-0.033482,-0.002025,-0.077689,-0.001769,-0.050045,-0.049083,-0.061674,-0.075862,0.052757,-0.022407,0.033798,-0.025892,0.047441,0.006591,0.012967,-0.038776,-0.006062,-0.000792,0.053803,0.003774,-0.058632,-0.050943,0.004295,0.067370,-0.007836,-0.028128,-0.069047,-0.060632,-0.060078,-0.015107,-0.053062,-0.057655,0.024088,-0.077658,0.002745,-0.016683,-0.047553,-0.012474,0.068050,-0.031749,-0.025718,0.057197,0.010492,-0.031996,0.139445,-0.065223,0.070170,-0.086906,0.067546,0.002374,0.060144,0.024052,0.035112,-0.024703,-0.076556,0.021463,-0.026069,0.050166,0.051366,-0.085353,0.076099,-0.035475,-0.074050,-0.084729,0.041284,-0.008530,-0.028947,0.033920,-0.097343,0.030740,-0.061882,0.021072,-0.036275,-0.037802,0.038399,-0.072803,0.047980,-0.111170,-0.087115,-0.006492,-0.049007,0.040959,0.015520,0.015052,-0.057565,0.065380,-0.000192,-0.043126,0.010261,0.054679,0.004030,0.032390,0.014232,0.058498,0.012842,0.031002,0.019451,-0.025914,0.042328
-0.079171,-0.038302,0.066693,-0.056054,-0.058785,-0.049219,0.086796,0.038838,0.078940,-0.047619,-0.061824,-0.148380,-0.046397,-0.010627,0.092173,-0.051723,0.047130,0.005888,0.043917,0.009039,-0.000361,0.003847,-0.021606,0.032478,0.087493,-0.052186,-0.067902,-0.051208,0.037796,0.074234,0.047772,-0.016057,0.044247,-0.055428,0.000841,-0.044303,0.084839,-0.033067,-0.062814,-0.025131,0.023956,0.101100,0.073555,0.010866,0.089866,0.041240,-0.050842,-0.000659,0.004230,-0.059779,-0.082436,-0.058870,-0.076647,-0.027968,-0.015822,0.066792,0.053278,0.059645,-0.013720,-0.010276,0.086424,-0.016382,-0.044681,-0.083662,-0.024652,-0.042058,0.013999,-0.064699,0.040612,0.060828,0.016606,0.105934,0.001828,0.056296,-0.005083,-0.007399,-0.034915,-0.010710,-0.057619,0.063878,-0.029323,0.062099,-0.051652,-0.055771,0.010735,-0.039926,0.060022,-0.093830,-0.100329,-0.042525,0.088672,-0.000014,-0.063197,-0.053339,0.077519,0.007846,0.015397,0.073178,-0.086734,-0.048716,-0.010011,-0.010235,-0.009955,0.078003,0.124426,-0.043539,0.036983,-0.036496,0.049450,0.077567,0.004845,-0.002631,-0.092483,-0.053850,-0.002371,0.037298,-0.004521,-0.069165,-0.074637,0.059961,0.082922,-0.022014,-0.070772,0.013068,0.007295,-0.046147,0.017481,-0.067860
0.073191,-0.057211,0.024030,-0.107157,0.027889,0.058373,0.054490,-0.081540,0.016389,0.098674,0.019684,-0.005544,0.098207,0.093536,-0.091090,-0.006013,-0.034291,-0.028804,-0.069782,0.064491,0.053946,-0.058872,0.056353,-0.044658,0.041133,-0.029860,-0.084071,-0.058501,0.133242,0.049063,-0.026308,0.078851,0.055952,0.081867,-0.029969,0.079901,0.027047,0.013914,-0.070683,0.007521,0.002922,0.028963,0.001798,0.028032,0.014670,0.012844,0.022610,-0.048840,0.018807,0.038110,0.050284,-0.051995,0.097896,-0.056765,0.021701,-0.041834,0.101021,0.018994,0.051406,0.048314,-0.063391,-0.016242,0.018296,-0.031705,0.053036,0.021068,-0.005309,-0.000035,0.032226,0.018336,0.006372,0.042535,0.042750,0.005385,0.047385,-0.037303,0.061061,0.002362,0.015046,-0.014075,-0.070881,0.068206,0.033340,0.046381,0.021151,-0.090110,-0.086782,-0.054135,0.000259,-0.024829,-0.025280,-0.038141,0.046213,0.032546,0.066611,0.005792,0.016553,0.071082,-0.019179,-0.015582,-0.013323,-0.026983,-0.012804,-0.016472,-0.031736,0.006730,0.075171,-0.084844,-0.011325,0.059828,0.026746,0.001510,0.018466,0.000574,0.006133,0.010598,0.027116,-0.048454,-0.106786,0.016160,0.078116,0.064596,-0.066263,-0.001055,0.117614,-0.031559,-0.007511,-0.000959
-0.062491,0.070009,0.037310,-0.068396,0.085318,0.098058,-0.075245,0.092841,-0.002773,-0.032927,0.025380,0.020727,-0.052354,-0.001221,-0.026205,0.107403,0.028552,-0.032266,-0.077566,-0.078852,0.093279,0.040674,-0.071310,0.002663,-0.019937,0.010595,-0.080343,0.063969,-0.004600,0.002410,0.058333,0.096625,-0.061842,0.025787,0.040088,0.088617,0.017065,0.018052,0.046741,0.004924,0.010259,-0.081383,0.054038,0.003339,-0.044596,-0.019859,0.070406,-0.006417,-0.041879,-0.002168,-0.000605,0.003298,-0.031351,-0.005979,-0.066472,0.028371,0.085734,-0.024234,0.057344,0.022381,-0.016049,-0.034326,0.016940,-0.046383,0.001958,0.011459,-0.000613,0.049657,0.078094,0.093931,0.049756,-0.039221,0.058236,-0.041944,-0.093118,-0.017465,-0.006857,0.012002,-0.041457,-0.000922,-0.073489,-0.016011,-0.041958,0.062873,-0.034472,0.077423,0.040834,-0.008280,-0.026337,-0.061282,0.058782,-0.007562,-0.006017,-0.054261,0.063721,0.023497,0.036224,-0.082605,-0.054602,0.073558,0.072382,0.051133,0.071568,0.042125,-0.086252,-0.016822,0.021959,-0.023022,-0.033718,-0.063129,0.067459,0.014804,-0.043502,-0.033013,-0.085607,0.008925,0.022425,0.020952,0.009622,-0.040424,-0.062612,-0.163677,0.004333,-0.005747,0.044446,0.012317,-0.047509,0.044252
-0.019256,-0.075973,-0.030380,-0.000956,-0.039138,-0.040392,0.022796,0.074181,-0.074876,-0.060024,-0.031663,-0.035090,0.037390,0.067770,-0.088033,-0.051828,-0.098575,0.011269,-0.045969,0.071728,-0.020679,0.076203,-0.026380,-0.091056,0.040214,0.079893,-0.002413,-0.016376,0.010053,0.034745,0.015470,0.056673,-0.002902,-0.008907,-0.069461,-0.045898,0.060948,0.023790,-0.091094,-0.037601,-0.100848,-0.120788,-0.007922,-0.027612,-0.034652,0.030705,0.004728,0.029164,-0.038737,-0.057975,-0.058999,-0.016682,-0.072849,-0.054950,0.004532,-0.076664,-0.012507,-0.074380,0.092093,-0.063579,-0.051403,-0.108090,-0.003311,0.009313,0.060115,0.004186,0.026265,-0.067536,-0.003857,0.029733,-0.009532,0.073724,-0.029626,0.043026,0.008318,0.001269,-0.065141,-0.115713,-0.094291,0.006770,0.013057,-0.040387,-0.119866,0.087782,0.026729,-0.013047,-0.056876,-0.024556,-0.070722,0.045548,0.074210,0.064263,0.075026,0.066635,0.041807,0.052383,0.074485,0.067261,0.011763,0.011587,0.090209,-0.084991,0.014287,0.024773,0.028814,-0.037710,-0.075261,0.048998,-0.043496,-0.034850,-0.080732,-0.008242,0.011026,0.008562,0.061534,-0.036016,-0.037001,-0.037490,0.071845,-0.018764,-0.002261,-0.119893,-0.055877,0.014987,-0.031928,0.039247,0.016416,0.021925
0.117750,-0.041166,0.014794,0.029526,0.021569,0.046400,-0.120486,-0.015933,-0.040684,0.098237,0.027775,-0.038081,-0.080023,-0.022419,0.084856,-0.059732,0.069940,0.084618,-0.005001,-0.041156,0.090186,-0.016409,-0.089254,-0.010217,-0.039598,0.045055,0.090795,-0.015249,-0.003485,0.056952,-0.083247,-0.036220,-0.041130,0.038302,0.030014,0.000254,-0.070986,-0.022209,0.067715,0.047941,-0.008707,0.028776,-0.005251,0.009949,-0.055711,0.028048,-0.024160,-0.064279,-0.010257,0.057301,0.073794,-0.046588,-0.049835,0.001826,-0.063297,0.070077,0.076353,0.035238,-0.073253,0.043335,-0.041832,0.037044,-0.022924,0.068851,0.018853,-0.018581,-0.013718,-0.074024,0.072064,-0.026040,-0.006990,0.035327,0.023474,-0.009844,0.058696,-0.047422,0.036305,-0.082642,0.012882,-0.056493,-0.081605,-0.089485,0.069124,0.015498,0.026929,-0.010036,-0.025977,0.027638,0.010961,0.078371,-0.066690,0.039152,-0.009651,0.003400,0.023195,0.039308,0.094168,-0.016405,-0.046891,-0.016808,-0.001404,0.001778,0.012607,-0.079082,-0.033921,-0.013252,-0.094478,0.006799,-0.061976,0.045191,0.089673,-0.004448,0.007020,0.043858,-0.003050,0.072848,-0.024827,0.045808,0.131566,-0.019877,0.004310,0.047076,0.017721,-0.004378,0.054224,0.062809,0.062076,-0.090563
-0.040869,0.085024,0.039238,0.022245,0.065312,-0.037918,0.037945,0.024194,-0.017743,0.103863,0.063287,-0.043887,0.103585,-0.006529,0.063475,-0.013787,0.026455,0.000645,0.006244,0.005767,-0.082776,0.028196,0.040065,-0.065128,-0.089008,-0.017378,-0.048044,-0.054858,0.007478,-0.004719,-0.020895,-0.004424,-0.059739,0.049840,-0.015229,-0.064419,0.064197,-0.054448,-0.036787,-0.020582,0.024559,0.101133,0.045729,-0.068881,-0.060551,-0.045347,-0.051695,0.016871,0.090835,0.022752,-0.054647,0.059292,0.027528,-0.111899,0.136293,-0.042707,0.019079,0.085096,-0.065606,0.041164,-0.107691,0.094727,0.026522,-0.020286,-0.006385,0.068649,0.021946,0.073709,0.026547,-0.044685,-0.073230,0.023327,0.063084,0.105480,0.003019,-0.006167,-0.022203,0.039009,0.006993,-0.035324,-0.047526,-0.020111,0.037568,0.066887,0.036580,-0.084663,0.049087,0.051486,0.078951,0.124006,-0.072728,-0.089957,0.040546,-0.040127,-0.028371,0.054900,0.001157,0.027377,-0.021539,-0.000329,0.013977,0.017577,0.071478,0.017016,0.014928,-0.069203,0.058935,-0.010148,0.013798,0.008699,0.045715,-0.044359,-0.013773,0.061464,-0.048634,0.010738,0.048528,0.011932,0.085890,-0.055110,0.022293,-0.025667,0.001634,0.020152,-0.059585,-0.086097,-0.085703,0.019301
-0.023738,0.041095,0.022884,-0.075591,-0.029258,-0.119075,0.050856,0.002995,0.004792,0.033767,0.080435,-0.014283,0.090243,0.027534,0.063622,0.078102,-0.002393,-0.045424,0.048361,0.026345,-0.033343,0.011596,0.054390,0.033146,0.050293,0.049782,-0.059303,-0.041534,0.044345,0.026402,-0.018960,-0.070597,-0.012025,0.045734,0.046440,-0.102298,0.091655,-0.034090,0.040404,0.022273,0.007298,-0.101696,-0.023539,0.037407,0.098070,0.065698,0.104336,0.073273,-0.042543,0.061109,-0.044745,0.026602,-0.057021,0.037047,-0.096111,0.092133,0.078576,-0.103810,-0.033615,-0.074396,0.036610,-0.080369,-0.083901,0.018701,0.046589,0.083209,-0.141042,0.077271,-0.114820,0.000804,-0.105248,-0.031980,-0.022718,0.026050,-0.036708,0.091612,-0.033286,-0.020771,-0.003903,0.001668,-0.083879,0.053720,0.000382,0.073301,0.101406,-0.040415,-0.016295,0.055880,0.029613,0.080985,0.010817,-0.002422,0.042528,-0.068253,-0.024807,-0.024777,-0.093539,0.109029,0.012492,-0.062955,0.029551,-0.073228,0.022988,0.080808,0.010085,-0.054923,-0.047828,0.011644,0.036955,0.070727,-0.035649,-0.067329,0.065657,0.084261,0.060957,-0.019548,0.027372,-0.023255,0.053149,-0.048573,0.052949,-0.007728,-0.008101,-0.058240,-0.078545,0.055714,-0.088622,0.043757
-0.065829,-0.082109,-0.029304,-0.100553,0.016763,0.019004,0.064556,0.057687,0.066103,0.026537,0.028893,-0.039703,-0.001845,0.015683,0.000392,0.062932,-0.081059,0.001217,-0.024791,0.016992,-0.004990,-0.054177,0.014784,-0.042539,0.010438,-0.079371,0.015369,0.023712,-0.042141,-0.073502,-0.079137,0.081938,-0.054368,0.077334,-0.023995,-0.002729,-0.066567,-0.071160,-0.080639,0.083862,0.052339,-0.027070,-0.029266,0.115114,-0.029765,0.053430,0.084250,0.045767,0.072563,-0.032286,-0.012326,0.037897,0.045688,0.062169,0.095915,0.023660,0.028417,0.027616,-0.063055,-0.044802,0.078533,-0.079580,0.016102,0.022923,0.020124,0.064123,-0.049358,-0.021880,0.001158,-0.061984,0.006111,0.000921,-0.004895,0.024278,0.045286,0.069303,0.050383,0.056563,-0.019577,0.027834,-0.105567,0.081354,0.057799,-0.050575,0.010497,-0.088250,0.054549,-0.060700,0.065960,0.038664,0.087150,-0.037802,-0.031109,-0.003852,0.018875,-0.089020,0.086862,0.040810,-0.050197,-0.065677,0.073271,-0.077734,0.026276,0.036309,0.012342,-0.020090,0.034028,0.008012,-0.020781,-0.013959,-0.055231,-0.030735,-0.061549,-0.053809,0.073439,-0.053058,-0.034646,0.095484,0.063608,0.048927,-0.052038,0.052712,0.063444,-0.012663,-0.037657,-0.015413,-0.023722,0.041703
-0.059392,-0.048554,0.015685,0.056247,-0.035972,0.064739,-0.066594,0.013962,-0.005997,-0.043586,0.050584,0.047668,-0.028236,0.008224,-0.073954,-0.077354,-0.041332,-0.030124,-0.049454,0.041127,-0.015883,-0.050712,0.031145,-0.007989,0.031508,-0.023857,0.030904,-0.015290,0.031854,-0.014662,-0.053050,-0.049444,0.003053,0.025501,0.096024,-0.082684,-0.086816,0.039293,0.062929,-0.000390,0.085250,0.017793,0.086843,0.050727,0.017972,0.057891,-0.034998,-0.010975,-0.048476,-0.036263,0.008422,-0.033611,-0.017915,0.007382,0.066219,-0.029783,0.094936,0.087066,0.055385,-0.086047,0.040682,-0.075100,0.083513,-0.023502,0.028175,0.022618,0.052131,0.046576,0.006293,0.024340,0.048827,0.021422,0.077453,0.026143,-0.070727,-0.006300,-0.074196,-0.015422,0.094852,0.049527,-0.016335,-0.002388,-0.005786,-0.065264,0.076511,0.050292,0.072451,0.031681,0.023900,0.000480,-0.018979,-0.045661,-0.003222,0.017705,0.069065,-0.100058,0.012875,-0.001745,0.050630,0.031760,0.021778,0.090963,0.011815,-0.053631,0.010734,-0.019918,-0.041572,-0.033507,0.041168,0.021821,0.056217,0.043075,-0.064859,0.037777,-0.054645,0.083862,-0.037269,-0.029787,-0.061921,-0.005521,0.045423,0.050342,0.079189,0.068867,-0.037798,0.028578,-0.000617,-0.046811
-0.061887,0.056944,0.031670,0.002413,0.045402,-0.040833,-0.068575,0.006377,0.054873,-0.011586,-0.008795,-0.031918,-0.074315,0.001647,-0.036348,0.038387,0.089996,0.055545,-0.056725,-0.077106,-0.046604,-0.052992,-0.022661,-0.000115,-0.045764,-0.093615,0.062473,0.058347,0.030283,0.032529,-0.028400,-0.021045,-0.004154,0.026207,0.078062,0.031698,0.028241,-0.046607,0.004642,0.021959,-0.010199,0.003990,-0.048534,0.039568,0.083978,0.015425,-0.038026,-0.045079,-0.024258,-0.060424,-0.015949,-0.046424,0.054601,0.062326,0.084339,0.063455,0.004169,0.034471,0.042660,-0.018837,0.012145,0.024436,0.005213,0.016270,0.058633,0.004531,0.003637,-0.046476,-0.051235,0.034899,0.066500,0.039161,-0.065138,-0.093954,0.033054,0.003244,0.031665,-0.056295,0.016001,0.020650,0.043392,0.094783,-0.011184,-0.038889,-0.018396,0.031802,0.040445,0.031413,0.029134,0.029570,-0.018394,0.005097,0.062304,0.042588,-0.094015,-0.025144,0.101913,0.012177,-0.030681,-0.055035,0.040071,-0.092734,-0.015498,-0.065464,0.019042,-0.014398,-0.003645,-0.041713,0.017018,0.002952,-0.052717,0.025935,-0.099281,-0.119705,-0.043054,0.072332,0.027477,-0.042980,0.038599,0.095268,-0.023891,0.016330,0.026273,0.009921,0.074290,-0.082388,0.051111,0.000436
0.031691,-0.087873,-0.059511,0.043027,-0.002837,-0.056787,-0.008922,0.038048,0.033600,-0.076089,0.042918,-0.034266,-0.041020,0.032422,-0.037475,-0.049194,0.052064,0.082770,0.002836,0.030320,-0.020048,0.023843,-0.071106,0.051165,-0.096157,-0.026858,0.068882,-0.067389,0.061643,0.011893,0.068276,0.078087,0.022603,-0.000532,0.012625,0.116826,-0.030464,0.044851,0.031490,-0.011324,0.063810,0.063784,-0.065021,0.019035,-0.021734,0.005652,-0.071817,0.047840,-0.041631,-0.083597,-0.066680,-0.010668,-0.054550,0.043526,-0.073684,-0.105883,-0.040462,0.028021,0.096195,-0.063081,-0.001817,0.028614,-0.057862,-0.033295,-0.100742,-0.088971,0.022906,0.008279,0.018015,0.087507,-0.008248,-0.005881,0.051177,0.045333,-0.094085,0.040976,-0.045794,-0.004560,0.070379,-0.101230,-0.005966,-0.050380,0.038372,-0.011779,-0.072833,0.055452,0.001932,-0.086050,0.013707,0.063216,-0.040289,0.031424,0.019418,-0.025098,-0.010934,-0.020143,0.001778,0.033092,0.022098,0.025288,0.033177,0.034307,-0.105048,-0.085554,-0.078161,0.054771,-0.020703,-0.043517,0.003139,0.052741,-0.011708,-0.085375,0.053837,-0.067282,0.016080,0.054406,0.048756,0.010662,0.005568,-0.077491,0.054661,-0.064151,-0.004370,0.038712,-0.005181,-0.030051,-0.085949,-0.045685
0.042332,-0.002539,-0.061408,0.039540,0.052947,-0.017749,0.005692,0.046524,-0.012708,-0.006000,-0.097051,-0.086684,0.088277,0.026715,-0.058004,-0.091060,0.028412,0.074057,-0.051074,0.062048,0.034974,-0.059141,-0.030525,-0.048916,-0.098443,0.034309,-0.015770,-0.085374,-0.033698,0.035677,-0.041519,0.067893,0.049245,0.036405,0.036839,-0.054484,0.037414,0.076921,-0.021545,-0.087493,0.110151,0.015345,0.072963,0.093693,0.046539,-0.009967,-0.063262,-0.099794,0.044424,-0.102605,-0.078556,0.013523,0.008840,0.008689,0.007688,0.118507,-0.009312,-0.020475,0.064383,0.006754,-0.029876,-0.034459,-0.043845,0.072960,0.015013,-0.052080,-0.035625,-0.010733,-0.063726,-0.008014,0.075401,-0.092047,-0.050706,-0.006925,-0.013111,-0.049193,-0.010953,0.017629,0.016428,0.057544,0.029642,0.034475,0.099255,-0.067103,-0.063637,-0.060180,-0.107021,-0.052974,0.029764,0.017535,-0.056355,0.040503,-0.084318,0.029861,-0.108995,-0.022969,-0.004708,0.090634,-0.119307,0.073857,0.026870,0.033642,-0.034668,-0.049659,0.062497,-0.015533,-0.022729,0.019228,-0.074117,0.054698,-0.055798,0.006040,-0.079406,0.047068,0.046970,0.000322,-0.073243,0.067260,-0.060021,-0.045467,0.037707,-0.004456,-0.075232,-0.017937,0.022465,-0.094219,0.055987,0.082178
-0.076990,0.027105,-0.105147,0.076576,0.064981,0.076040,-0.037372,-0.041537,0.038359,0.022299,-0.068571,-0.022374,-0.029507,-0.066027,0.019245,0.052447,0.066672,-0.052237,-0.001341,-0.020792,-0.076361,-0.036319,0.042240,-0.058772,-0.045164,0.020656,-0.056869,-0.019501,-0.026348,-0.070416,-0.022484,0.044231,-0.022557,-0.013429,-0.096182,-0.081072,0.027083,0.080894,-0.062641,0.005716,0.095287,0.004222,0.032628,0.002006,-0.014243,-0.042779,0.013771,0.015957,-0.011449,0.030469,-0.099791,0.006401,-0.045882,-0.045398,-0.011814,-0.033038,-0.038219,0.073379,0.038577,0.059547,-0.123164,0.028667,0.009548,-0.066013,-0.006640,-0.015175,0.029398,0.003972,0.008724,-0.052899,-0.034018,-0.112696,-0.049271,0.025840,0.010984,-0.076948,-0.100011,0.060252,0.029555,-0.022963,0.080074,0.042787,0.065774,0.003012,-0.031367,0.016906,0.099207,0.065964,-0.007229,0.024381,0.040959,0.048440,0.105806,0.064478,-0.092103,0.099172,0.091316,0.018618,-0.028867,-0.011990,0.075322,0.041181,0.044052,0.077178,0.018464,0.106443,0.042862,-0.039403,-0.069312,-0.015834,0.029880,-0.103268,-0.033070,-0.105333,0.026162,-0.062590,-0.018288,-0.045636,-0.051877,-0.068806,0.025150,-0.038296,0.014944,-0.053046,0.086468,-0.022743,-0.050683,0.000390
0.030418,0.015224,-0.111125,0.041766,-0.092954,0.011207,0.020965,0.017716,0.034754,0.034696,0.017988,-0.004185,0.033782,0.001895,-0.056397,0.006551,0.003567,-0.032665,-0.027914,-0.013295,-0.081005,-0.003843,-0.088089,0.013318,0.022330,-0.002483,-0.072861,-0.019012,0.038171,0.030930,0.028740,0.061951,0.078826,-0.088900,0.045147,-0.012811,-0.055981,0.046246,-0.035303,0.024307,0.021555,0.037149,-0.022375,0.122196,0.062651,-0.007312,-0.017160,-0.097171,-0.007627,0.004687,0.024208,-0.029467,0.071387,-0.059593,-0.057603,-0.048351,-0.071340,0.078861,0.010184,0.056521,0.085132,0.103635,-0.077253,0.031555,0.042172,0.068314,-0.011310,-0.018559,-0.060418,-0.089335,0.035826,-0.114436,-0.055690,-0.048388,-0.070604,-0.089159,0.019172,0.081376,-0.018887,0.063533,0.033043,-0.022348,-0.062300,-0.015551,0.053899,0.042682,0.071582,0.035592,0.003606,-0.010796,0.067673,0.097657,-0.068772,0.025286,-0.075707,0.059903,0.053115,0.078811,0.033183,0.068216,0.055307,-0.037681,-0.066457,0.033602,0.023860,0.058239,0.053206,0.086761,-0.033180,-0.053824,0.017677,-0.053057,-0.000533,-0.050971,0.027028,-0.078405,-0.039781,-0.018439,-0.051481,0.081079,-0.007111,0.092142,-0.008588,-0.008133,-0.032070,0.016030,0.029835,-0.007563
0.012797,-0.030965,0.068092,-0.079132,-0.032533,-0.093219,0.016197,-0.024673,0.046892,-0.076724,-0.137271,-0.082259,-0.058584,0.046622,0.034478,-0.070160,-0.040385,-0.059474,0.026673,-0.012336,0.040788,-0.053756,0.030736,0.042800,-0.094614,-0.090517,-0.073236,0.018677,-0.081308,0.067808,-0.001899,0.107529,-0.031521,-0.016769,0.000925,0.027384,0.031409,-0.031199,-0.043949,0.052301,-0.040933,0.052419,0.051151,0.060158,0.039134,0.009701,-0.003577,-0.066409,-0.064116,0.030099,0.055940,-0.069308,0.052028,0.082747,-0.031344,0.019443,0.071844,-0.050242,-0.083274,-0.024484,0.067576,0.063676,0.012112,0.061117,0.070664,-0.039672,0.115305,0.039744,0.014243,0.051371,-0.013842,0.013805,-0.064405,-0.054515,0.002061,0.074351,-0.034130,0.088114,-0.062018,-0.011814,0.034635,0.030431,0.027610,0.069474,0.021022,0.060391,-0.092710,0.085682,0.004647,0.065874,-0.046419,0.031185,-0.029751,-0.068413,0.041068,-0.105665,-0.001872,0.080276,0.014525,0.041137,-0.014041,-0.009520,-0.054832,0.080927,0.058171,0.020679,-0.035414,-0.068215,-0.036340,-0.008046,-0.029906,-0.052667,-0.085391,-0.013772,-0.024219,-0.059260,0.062369,-0.004036,-0.075102,0.051036,0.026291,0.004820,0.070720,0.056995,0.028952,-0.022820,-0.039607,-0.046566
0.111496,0.061734,-0.030728,0.011818,0.005493,-0.025448,-0.075803,-0.016819,-0.063486,-0.059161,0.007377,-0.064185,-0.109750,0.031717,0.000455,-0.036621,-0.004161,0.035853,-0.030306,-0.075847,-0.011363,-0.095438,-0.078220,0.013011,-0.001648,0.017938,0.096922,0.062922,0.085723,-0.020348,-0.033448,-0.018806,-0.037818,0.028927,-0.017281,0.053525,-0.018270,0.002667,0.010330,-0.041450,-0.026892,-0.055346,0.076780,0.055018,-0.071755,0.001396,0.121948,-0.019670,-0.041866,0.105657,0.003536,0.044992,-0.056836,0.020703,-0.067525,0.086413,-0.020012,0.043733,0.005779,-0.021565,-0.027623,0.029480,0.003609,-0.002410,0.086026,0.021275,-0.054610,-0.031262,0.033838,-0.034516,-0.045248,0.050438,-0.094269,0.000068,-0.050692,0.047086,0.034723,-0.009523,0.038507,0.073873,0.048494,-0.009115,-0.034332,-0.041887,-0.007289,-0.122054,-0.006234,-0.061800,0.008058,-0.018527,-0.061031,0.057636,-0.039450,-0.058326,-0.013340,0.006666,-0.017051,0.040587,0.088708,0.071595,-0.062878,0.058835,-0.024070,-0.065623,0.058532,-0.094246,-0.024151,-0.083678,-0.034580,0.003993,0.098866,-0.045155,0.054732,-0.073085,-0.055682,-0.020990,-0.029491,-0.029110,0.032712,0.000357,0.078427,-0.001093,0.038329,-0.030800,0.045952,0.050300,-0.012800,0.057539
0.013354,-0.050206,-0.060263,-0.070166,0.086239,-0.004963,-0.057130,-0.034737,-0.060040,-0.053070,-0.076359,-0.054278,0.011629,-0.053174,-0.038320,-0.026886,0.004592,-0.047794,-0.073266,0.013714,0.090977,-0.046058,0.047932,0.009220,-0.072308,0.091346,0.059348,-0.043603,0.001234,0.091387,-0.036843,0.030655,0.061549,-0.007449,-0.019826,-0.074094,0.006434,-0.052181,-0.105948,-0.063909,0.051844,-0.022951,0.072778,-0.014614,0.022234,-0.031437,0.076878,-0.025668,0.052997,0.002232,0.056944,-0.075390,-0.013925,-0.071299,-0.018366,-0.052516,-0.048698,-0.005254,-0.037546,-0.055999,-0.081206,0.043764,-0.040226,-0.003590,0.017657,-0.037071,0.047308,-0.045997,-0.044468,-0.053753,-0.089179,-0.059394,0.048557,0.007418,-0.001561,-0.098134,0.040146,-0.022962,-0.064662,0.084069,0.043047,-0.022410,-0.075114,-0.066519,0.079634,-0.068419,-0.051256,0.061570,0.016835,0.055500,0.050241,-0.035131,0.100377,-0.069207,-0.043222,0.075358,-0.053747,0.052939,-0.060751,-0.064439,-0.138454,-0.087098,-0.005949,0.030074,0.001788,-0.009446,-0.018209,-0.073126,0.048110,-0.049872,-0.009110,-0.057578,-0.077015,0.026348,0.005156,-0.087056,0.007466,0.064524,0.069887,0.025033,-0.053959,-0.019788,-0.090014,-0.036410,0.005616,-0.004593,0.050494,-0.017281
-0.003805,0.015129,-0.023909,0.027777,0.044343,0.022313,-0.076760,-0.018324,0.048899,0.009973,0.014336,-0.045493,-0.084923,0.110130,-0.012916,0.069925,-0.035204,0.003348,-0.052189,-0.044016,0.055720,0.010990,-0.070779,-0.088620,-0.045686,0.074396,-0.075752,0.015097,0.055652,0.097156,0.068246,-0.069459,-0.070950,0.044073,0.011257,0.095842,-0.091856,0.048876,-0.072053,-0.033867,-0.003998,0.097916,0.056348,0.002074,-0.049926,-0.014629,0.047927,-0.069541,-0.067826,-0.015141,0.040646,-0.019509,0.031845,-0.062516,0.057807,-0.026457,0.043977,-0.026893,0.068008,0.018365,0.027058,-0.042373,0.000280,0.056027,-0.067166,-0.053936,-0.064658,0.023659,-0.086588,0.069778,-0.000146,-0.030817,-0.092090,0.011320,0.108741,0.041707,-0.023748,-0.065192,0.052260,0.013022,-0.037033,0.103029,-0.067942,0.068314,-0.020548,0.037208,0.018132,0.031263,-0.015870,-0.015356,0.021963,-0.071548,0.020263,-0.064449,-0.017137,-0.030110,-0.062538,0.074119,0.033161,0.005204,0.020205,-0.027863,-0.078768,0.086719,-0.015942,0.009414,0.066774,0.070329,-0.011344,-0.074325,-0.038485,0.015580,0.113197,-0.092613,0.044442,0.020600,-0.042787,-0.066353,0.050753,-0.024728,0.067364,-0.045012,0.045069,-0.081382,0.016603,0.092295,-0.046351,-0.074804
0.014781,-0.057627,0.047888,-0.039093,0.093761,-0.000163,-0.027278,-0.051515,-0.021351,-0.012448,-0.123009,-0.047447,-0.054672,-0.045250,0.019773,0.049274,-0.012210,-0.009104,-0.048464,0.060200,-0.091046,0.088567,-0.105349,-0.047733,0.014098,0.009661,-0.106737,-0.065941,-0.033061,0.042960,0.023864,0.051230,-0.071962,-0.008901,-0.063190,0.061371,0.042357,-0.010568,0.051751,-0.029060,0.087762,0.016946,0.014084,-0.076699,-0.012458,0.026002,-0.009003,-0.033053,-0.068595,0.091261,0.022116,-0.075295,-0.030729,-0.047107,0.066565,0.049182,0.011585,-0.093885,0.055302,0.060631,-0.088340,0.085038,-0.028948,0.060919,-0.049061,0.044713,0.058675,-0.027571,0.073719,-0.027027,-0.100747,-0.070355,-0.022694,-0.072731,-0.058238,0.074491,0.077764,0.044281,-0.054499,0.016582,-0.054693,0.030148,0.082571,0.005256,-0.036322,-0.009039,0.079574,-0.081525,0.055995,-0.029435,-0.060679,0.063609,-0.018442,-0.004361,-0.055379,-0.020882,0.011716,-0.100317,0.015599,0.022702,-0.028028,0.044921,-0.036950,0.020000,-0.053713,-0.076225,0.087955,-0.039376,0.080382,-0.022979,-0.005036,0.001368,0.050991,0.055855,-0.045374,-0.021076,0.057429,-0.104829,-0.006212,-0.098338,-0.021961,-0.020061,0.024910,0.023588,-0.015585,-0.059660,-0.040524,0.071941
-0.032762,-0.071993,0.114129,-0.008049,0.116623,-0.023505,-0.087531,0.006339,0.003164,0.009767,0.031897,-0.007973,-0.068107,-0.051439,0.012236,0.062825,0.085721,-0.006232,-0.032502,-0.028633,-0.033211,0.044587,0.033026,0.017482,-0.064271,0.073004,0.025345,-0.076837,0.005225,-0.045839,-0.051557,0.078651,-0.021664,0.022985,0.060039,-0.053776,-0.029020,0.031812,0.006826,-0.057433,-0.012840,-0.031801,0.064062,0.016549,-0.020252,-0.046554,-0.079508,-0.001543,0.103270,0.022625,0.050461,0.032719,-0.016687,-0.027598,0.085923,0.042889,0.061011,-0.053206,0.040451,0.045342,0.009677,0.049519,-0.061471,0.032257,-0.040628,0.025856,0.089432,0.060866,0.024058,-0.035388,-0.107588,0.080633,0.071095,-0.064653,0.054610,-0.028501,-0.095891,-0.118267,0.021250,0.060969,0.025326,0.099539,-0.013782,-0.087098,-0.002894,0.001990,-0.077327,0.051523,0.036020,0.076281,-0.019203,-0.016046,0.025514,0.004587,-0.054843,0.017648,0.079416,0.066439,-0.175777,0.023380,-0.125517,0.045870,-0.001692,-0.044379,0.054093,-0.080535,-0.056460,-0.040986,-0.031024,0.025494,-0.074681,-0.043443,-0.124545,-0.075444,-0.074918,0.006492,0.076005,0.016328,-0.004390,0.066636,0.030736,-0.015701,-0.033712,0.043322,0.056345,0.063984,0.015601,-0.017913
-0.013591,0.047712,0.059575,-0.012032,0.053834,0.078300,0.041462,-0.027677,-0.063846,0.106556,-0.045660,-0.053291,0.064921,0.008424,0.030593,0.042532,-0.009580,0.013871,-0.068942,0.087247,0.020169,0.020149,-0.034002,0.056288,0.013546,0.035293,-0.026060,-0.059116,-0.027646,-0.048335,-0.076784,-0.084430,0.055681,-0.075997,-0.015081,0.030571,-0.075236,-0.023290,-0.062924,-0.018338,0.015656,0.016029,-0.044258,-0.080944,-0.010891,0.120739,0.068530,0.044789,0.076456,0.072468,0.048393,0.057963,0.048571,0.055085,0.074348,0.034532,0.064866,0.033953,0.049883,-0.014973,0.045589,-0.074681,-0.011204,0.038705,-0.093974,0.028598,0.017684,0.030622,-0.091504,0.024850,0.025706,-0.021648,-0.041874,-0.055996,0.045137,-0.032944,0.004305,0.041055,0.058002,-0.089737,0.033916,0.019504,0.004844,-0.045091,-0.050666,0.028418,0.083233,0.037392,-0.066030,0.105445,-0.027724,-0.105983,-0.052149,-0.081979,-0.034072,0.096844,0.007135,0.103230,-0.062328,-0.074249,-0.057142,-0.025340,0.058588,-0.098047,0.053681,0.002262,0.019367,0.045023,0.021073,0.048106,-0.073275,0.045719,-0.076144,0.004769,-0.021353,0.033816,-0.104332,-0.011881,0.003055,0.071072,-0.073441,0.015036,-0.074256,-0.083010,-0.007662,0.029921,-0.039623,-0.066160
0.085806,0.019672,-0.062266,0.017294,-0.058170,0.072907,0.055342,-0.067528,0.048166,0.024722,0.009020,0.001456,0.058883,0.094408,-0.042119,-0.012793,-0.071455,0.037197,0.070624,0.037825,0.006866,-0.000580,-0.063349,0.066597,0.086277,-0.007593,0.072811,-0.085526,-0.069158,0.001815,0.070756,0.070475,0.043070,0.006375,0.060757,0.030325,-0.085616,-0.046317,0.070083,0.023416,-0.012364,0.004136,0.025879,0.021885,-0.055936,0.045915,-0.015170,0.056448,-0.010991,-0.087068,-0.007243,0.067601,0.092361,0.048759,-0.054190,-0.021935,0.085825,-0.073847,0.079930,0.085649,-0.097255,0.027178,0.062870,-0.000842,-0.047049,-0.075422,-0.078110,0.036662,-0.085194,-0.067532,-0.092501,-0.060908,0.047800,-0.032683,0.049800,-0.037565,-0.011465,0.027423,-0.069947,-0.042765,-0.035956,0.068322,-0.020642,0.040799,0.006921,0.009213,0.021324,-0.038040,0.029080,0.072040,0.042510,-0.138422,-0.001165,0.086191,0.028211,0.021197,-0.082414,0.041288,-0.020701,0.075761,0.003468,-0.043869,-0.048606,0.000643,-0.089403,-0.067314,-0.056670,0.010494,-0.080261,-0.074655,-0.031904,-0.005145,0.049832,0.074755,-0.095616,-0.004838,0.006450,0.036863,0.093670,-0.071062,0.027862,0.083082,-0.084436,-0.032481,0.063759,-0.025177,-0.006167,0.013392
-0.004508,-0.095369,0.005739,0.029834,0.030028,-0.041201,0.072865,-0.029296,-0.043925,-0.045524,0.084802,-0.007500,0.090432,-0.002213,-0.080262,0.033320,-0.037522,0.015188,0.004505,0.064333,0.089439,-0.029099,-0.061422,0.065926,0.146498,0.043185,0.100672,-0.064978,-0.076564,0.047215,-0.066164,-0.022924,0.068672,0.014991,-0.034839,0.011396,0.002605,-0.072876,-0.028148,0.028723,0.017635,-0.025024,0.037909,0.082027,-0.046671,0.048540,-0.007666,-0.043842,0.044090,0.068861,0.064460,0.003475,0.053054,-0.053281,-0.040070,-0.093566,-0.031659,0.028059,-0.044107,-0.020899,-0.052360,0.053409,0.020514,0.043577,-0.073157,0.067964,-0.034568,-0.046738,-0.065698,-0.011260,-0.048703,0.003758,-0.006925,0.072650,0.022802,0.061956,-0.054040,0.043407,-0.048067,0.024314,0.043799,-0.080132,-0.002801,-0.021970,-0.022760,0.006910,0.053922,-0.041270,-0.019003,-0.040504,-0.048586,-0.047888,-0.054907,0.019586,0.046831,-0.015487,-0.018437,-0.064315,-0.013774,-0.052293,0.080087,-0.091214,0.083425,0.090699,0.083417,-0.011730,0.041301,0.032425,-0.057865,-0.048782,-0.010188,0.015772,-0.016524,-0.082355,0.010281,0.001976,0.053225,-0.021920,0.015045,-0.058362,0.011252,-0.020986,0.016133,0.048072,-0.008529,-0.007389,-0.067165,-0.083435
-0.057123,0.070573,0.060751,0.051833,0.047941,-0.144650,0.062084,0.010136,-0.010020,0.028378,0.111093,-0.007212,-0.046156,-0.029715,-0.035929,0.023446,0.052321,-0.005328,-0.027567,0.108477,-0.035269,-0.015953,0.055702,-0.002346,0.039355,-0.021206,-0.020189,-0.075107,-0.009892,-0.064782,-0.049584,0.079786,0.020209,-0.009992,-0.047228,0.041716,0.066172,-0.015717,0.069356,-0.065552,0.023574,0.012296,0.023838,0.026636,0.081635,-0.074561,-0.045898,-0.028042,0.098439,-0.016609,0.058255,-0.034909,0.047297,0.088737,-0.016798,0.000652,-0.008350,0.068414,0.013056,-0.071936,0.080190,-0.038091,0.066368,0.052797,0.050695,-0.002229,-0.023365,-0.045236,-0.102146,0.093312,0.014004,-0.049047,-0.015792,0.082393,0.031540,0.043638,0.036574,0.076080,-0.029599,0.110738,-0.101660,0.009721,-0.016458,0.058133,0.098033,0.094273,-0.024147,-0.084560,0.053038,-0.096051,0.112699,-0.039529,-0.001479,0.077653,-0.099413,0.013725,-0.061347,-0.054858,0.000412,-0.039310,0.021152,0.098474,-0.073712,-0.084943,-0.001044,-0.036266,0.087657,-0.035950,0.081821,0.020665,-0.014312,0.033326,-0.031650,-0.016154,0.028635,-0.039881,-0.121299,0.018921,0.136229,0.014028,0.027487,0.027921,-0.052197,0.065278,-0.079721,0.025180,0.067354,-0.019965
-0.059669,-0.009453,-0.010248,-0.009544,0.038265,0.003127,0.019651,-0.107434,-0.050343,0.091112,0.014973,0.082701,-0.007802,0.018814,0.008419,-0.050301,0.066789,0.042490,0.052892,-0.051037,-0.105989,0.032312,0.074094,-0.054095,-0.029391,-0.072782,0.004101,0.032378,-0.086901,-0.012410,-0.093827,0.066440,0.000756,0.028422,-0.007878,-0.061134,0.009855,0.001681,-0.086284,-0.012170,0.032116,-0.087738,0.092661,0.044708,0.078217,0.009784,-0.034356,-0.054293,0.110092,-0.046920,0.019399,-0.050293,-0.075960,0.084345,0.019492,0.015900,0.003841,0.080308,-0.085089,-0.109071,-0.002427,0.011265,-0.036655,-0.068501,-0.070199,-0.049721,-0.052838,-0.018955,-0.098655,-0.042674,-0.006898,0.051235,0.000056,-0.057284,0.107345,0.038839,-0.049273,-0.043066,0.035583,0.035860,0.011136,-0.053616,0.012902,0.101717,-0.004659,0.114073,0.013460,-0.080196,-0.043287,0.053636,0.057880,0.048100,0.056695,-0.010717,-0.055047,-0.070106,0.070401,-0.059975,-0.055496,0.007815,0.012581,-0.008682,-0.056460,0.045714,0.036399,-0.075948,0.014343,-0.031628,0.025840,-0.047250,-0.023263,-0.088085,0.072000,-0.039836,-0.035251,0.069654,-0.095032,0.030631,-0.038242,-0.058975,0.076087,0.005266,-0.007885,0.012366,-0.062321,0.038165,0.018502,-0.094291
-0.005529,-0.025373,-0.062528,0.034388,-0.000985,-0.002018,0.049234,-0.013768,-0.062046,-0.050257,0.086683,-0.076679,-0.007065,-0.042312,0.105402,-0.048571,0.060034,-0.020212,0.023275,0.090074,-0.098970,0.041275,-0.074125,-0.041305,0.044886,0.066165,0.054262,-0.006275,0.018219,-0.037260,-0.057977,-0.041093,0.055619,-0.046568,-0.088218,-0.076335,-0.073557,-0.048585,-0.004078,0.059897,-0.038384,0.017592,-0.021233,0.096817,-0.064691,0.087789,-0.049253,0.047796,-0.002313,0.027006,0.055915,-0.064983,0.045046,0.066370,-0.018642,-0.077327,-0.046529,-0.033593,-0.057262,-0.074146,0.058952,-0.030859,-0.077719,0.004900,-0.066078,-0.030019,-0.015324,0.029353,0.057956,-0.054801,0.060171,-0.030171,-0.065279,-0.098971,0.054245,0.018530,-0.042769,0.067190,-0.001106,0.001401,-0.100492,-0.056402,0.068796,0.060493,0.107859,0.053033,0.081377,-0.052210,0.002521,-0.024616,-0.107023,0.036266,-0.089724,0.097248,-0.089334,-0.036624,-0.050376,0.018824,0.002694,-0.016532,0.001082,-0.020993,0.075289,0.043997,0.041011,-0.033178,-0.068990,-0.001069,0.010513,0.016948,-0.048562,0.045175,0.003148,0.002080,0.131314,-0.031130,-0.024647,-0.001436,0.138437,0.006003,0.066950,-0.007584,-0.041256,-0.008269,-0.046813,0.010163,0.014840,0.009472
-0.035687,-0.128204,0.072909,-0.062357,0.037656,-0.028285,-0.044966,0.038076,-0.051793,-0.067726,-0.074342,-0.086439,0.027386,-0.029392,0.089154,0.059985,0.069906,0.058003,-0.009878,-0.072260,-0.059446,-0.045511,-0.068320,-0.028888,-0.093483,-0.024425,-0.008820,-0.026146,-0.040150,0.023844,0.008168,0.024520,0.016279,0.026802,0.056744,0.043820,-0.092677,0.029003,0.100831,0.071010,0.048635,-0.053396,0.118405,0.008876,0.080096,-0.091585,0.014244,-0.052417,0.018578,-0.107433,-0.003473,0.048868,0.024274,0.070189,-0.034766,-0.089522,-0.032242,0.035950,0.085948,-0.051484,0.067944,-0.088517,0.037805,0.010206,-0.079306,0.017949,-0.095220,0.078321,-0.017861,0.069203,-0.061933,-0.055821,0.041418,-0.072800,0.106339,0.007517,-0.022097,0.034858,0.065878,0.006186,-0.110575,0.038373,0.060287,0.005632,-0.011373,0.076186,-0.090767,0.037621,-0.040017,-0.063415,-0.102394,0.075198,0.033932,0.052481,0.035592,0.022495,-0.017648,0.014663,0.036813,0.006727,0.030283,-0.029452,0.070012,0.012775,0.025853,-0.018622,0.039567,0.086376,-0.052810,-0.105409,0.102341,-0.038981,0.000700,-0.094397,0.056321,0.090986,-0.064508,0.083543,-0.044809,-0.000896,0.016141,-0.005425,-0.014057,0.044308,0.056931,-0.032385,0.059304,-0.117704
-0.043375,-0.103185,0.041345,-0.037441,-0.035595,-0.005889,0.069713,-0.083487,0.072309,-0.068493,0.004965,0.025369,0.011648,0.007948,-0.032702,-0.085324,0.011983,-0.066454,0.086853,0.007495,-0.003092,-0.019135,0.053795,-0.023248,-0.008193,0.103698,0.053425,0.000810,-0.068242,-0.040049,-0.062672,0.071652,0.052310,-0.017720,0.062963,-0.015562,0.019839,-0.013391,0.072634,0.001348,-0.056075,-0.028991,0.024835,0.022643,-0.011485,-0.007322,0.068060,0.066349,-0.004780,0.079492,0.020504,-0.021234,-0.048966,-0.002700,-0.088025,-0.065779,-0.046008,-0.056182,0.009198,-0.048291,-0.038770,-0.057597,0.024344,0.083538,0.058202,0.006615,0.025651,-0.039902,0.004412,0.026099,-0.052237,-0.065397,0.017009,0.078340,0.064109,-0.043855,0.021248,0.014394,-0.059412,0.034794,0.082491,0.062349,-0.043689,-0.060558,0.108478,-0.014814,-0.072091,0.016852,0.049374,0.031984,0.030424,0.107027,0.016220,0.006492,0.040973,-0.008421,-0.015941,-0.107349,-0.080057,-0.006273,-0.014028,0.067807,0.033063,0.002466,-0.007010,0.069424,0.074026,0.122669,0.050096,-0.083756,0.017707,-0.045329,-0.021125,0.022643,0.021383,-0.043304,0.051242,0.003666,-0.080463,0.049835,-0.025303,0.046296,-0.103571,0.053232,0.019481,-0.057131,-0.025186,-0.053727
0.014591,0.065453,0.003943,0.001869,-0.031029,-0.028923,0.013223,0.053354,0.064850,-0.003340,0.024252,-0.102183,0.000933,0.051815,-0.062696,-0.074643,0.037250,-0.030001,-0.014679,-0.028664,0.000608,-0.087507,0.023595,-0.105542,-0.073978,0.042729,0.081571,0.059997,0.034510,-0.091670,-0.059229,-0.055550,0.033737,0.018620,-0.057486,-0.038563,-0.011042,0.062348,0.038279,-0.102323,0.006430,-0.021422,0.068792,0.022289,0.016338,0.053980,0.078359,0.030836,0.004040,-0.075995,-0.061434,-0.057484,-0.001166,-0.066171,-0.088222,-0.054853,-0.022134,0.086242,-0.073377,-0.036896,-0.027640,0.020922,-0.074500,-0.004779,0.035701,-0.058111,-0.051800,-0.008387,-0.066310,0.088715,0.063900,0.092181,0.009713,0.045574,0.039612,0.078434,-0.022744,-0.047673,-0.014451,0.069907,0.019429,0.056940,0.066793,0.092569,-0.012854,-0.075735,0.114650,0.028159,0.101194,-0.009058,0.061597,-0.023182,-0.004941,-0.052765,-0.008149,-0.034646,-0.006269,-0.094625,-0.016906,-0.005935,0.016366,0.062093,0.042909,0.064288,0.089735,-0.042238,-0.040583,-0.003950,0.047404,0.080433,0.024383,0.064277,-0.003461,0.069665,-0.002763,0.049610,-0.005458,-0.111366,0.069274,0.022016,-0.018565,0.071391,-0.109186,-0.077953,-0.027806,-0.060334,0.028536,0.033003
0.063603,0.027963,-0.056215,0.040153,0.001322,-0.022116,-0.007702,0.078500,-0.028396,0.015617,0.114044,-0.053869,-0.129998,0.093070,0.082590,-0.003937,0.054955,0.048057,0.084003,0.007582,0.035696,-0.057868,0.009466,-0.004966,0.062479,-0.101295,-0.068694,0.016532,-0.010309,-0.079572,0.030026,0.045435,0.041406,-0.027099,0.056785,-0.101631,-0.027943,0.063038,-0.064937,0.066652,0.046576,-0.059679,0.061297,0.006452,0.065151,-0.062558,-0.072299,0.021045,0.007766,0.067999,0.038460,0.029002,-0.043217,-0.081564,0.042556,0.023371,-0.020727,0.058403,-0.079304,-0.053549,-0.061034,0.007293,0.023722,0.068880,0.021264,0.015398,0.048322,0.056101,-0.037917,-0.020429,0.067218,0.002809,0.077223,0.035207,0.004929,0.018228,0.006618,-0.111329,0.019488,0.012060,-0.086912,0.065121,0.073093,0.083940,-0.033852,0.023662,0.063955,0.039885,0.114293,0.031819,-0.066762,0.074090,0.037038,-0.003423,0.060791,-0.013080,-0.077756,-0.069430,-0.014609,0.032916,0.086402,-0.075921,-0.042131,0.040895,-0.047629,0.020914,0.033625,-0.067137,0.067386,0.069776,-0.015059,-0.001262,0.095835,-0.048214,-0.056537,-0.017626,0.045160,-0.036490,0.100992,-0.059331,-0.083879,0.018036,0.026791,-0.052815,0.043531,-0.067861,0.099669,0.007909
0.001273,0.007878,-0.015868,-0.011174,0.020301,0.062948,0.086957,-0.023168,0.064996,-0.067627,-0.046312,-0.091717,0.013518,0.081093,0.020862,0.001862,0.049017,0.051933,-0.077633,-0.028352,0.085459,-0.068585,-0.107916,0.056800,-0.009409,-0.042327,-0.091414,0.096818,-0.090810,0.032235,0.061471,0.004743,-0.025897,-0.059908,-0.083492,-0.106441,0.016763,-0.038032,0.088239,-0.000978,-0.014071,-0.033686,0.054963,-0.068344,-0.074569,0.018860,0.034901,-0.052051,-0.083536,0.037839,0.078996,0.027624,-0.077538,0.057184,-0.086440,0.060807,0.044907,-0.076447,-0.036004,-0.037295,-0.030417,-0.007531,-0.076040,-0.067561,0.096130,0.002731,0.061261,-0.009701,-0.113156,0.101318,0.137172,-0.069106,0.026027,0.075348,0.006897,0.059917,-0.014221,0.001222,-0.023191,0.005476,0.006765,-0.083811,-0.001459,-0.022885,-0.003147,0.070064,0.011510,-0.030286,-0.039536,-0.023496,0.040028,0.020714,0.006135,-0.024227,-0.053920,-0.055427,-0.030063,-0.064654,-0.014544,0.017391,-0.072707,-0.104266,0.095796,0.040992,-0.021787,-0.037240,-0.070206,-0.043769,-0.015278,-0.041221,0.005624,-0.050754,-0.032746,-0.036077,0.072388,0.042225,-0.054720,0.032928,-0.045576,-0.061548,0.078034,-0.009807,-0.077870,-0.047703,-0.023503,0.088025,0.089987,-0.010688
0.060648,-0.075438,0.072226,0.086927,0.040659,0.033707,0.105606,0.009958,0.089030,0.045859,-0.062500,0.025458,-0.037587,0.051600,-0.075489,0.015927,-0.009451,0.050211,0.044419,-0.020544,-0.056872,-0.108093,-0.031524,0.022184,-0.040260,0.043452,-0.021004,-0.001613,-0.081268,-0.030878,-0.033338,0.017311,-0.046965,-0.099184,-0.066084,-0.083236,-0.059724,0.074837,-0.051292,0.039135,-0.063781,0.097496,0.056345,0.091527,0.059923,0.084319,-0.042255,-0.012166,-0.065859,0.058418,0.042542,-0.052836,-0.046747,0.048091,0.054553,0.018882,-0.068519,0.076738,0.018968,-0.042301,0.105962,-0.056082,0.016838,-0.057793,-0.044729,-0.040003,0.047624,0.077263,0.011638,0.028222,0.098960,0.097484,-0.003636,-0.017349,-0.055427,0.048989,-0.049042,-0.006626,-0.056059,-0.103463,-0.016228,-0.017014,-0.022271,0.005061,0.042184,0.065793,0.011237,-0.016572,-0.013558,-0.028914,-0.035863,0.054928,-0.101287,0.008521,-0.055465,-0.004181,0.016754,0.020964,-0.001666,-0.007708,-0.026866,0.032400,0.020236,0.063257,-0.002744,-0.054584,0.022084,-0.026406,0.076550,-0.057217,0.020923,0.060146,-0.072594,-0.046443,-0.057308,0.022518,-0.104742,0.019198,-0.030341,0.039919,0.031829,-0.065082,-0.092516,-0.060826,0.007757,0.014918,0.061343,-0.002700
-0.095924,0.053653,-0.001710,-0.005929,-0.081757,-0.011452,0.030843,0.037358,0.001109,-0.024796,-0.041829,-0.050826,0.077272,0.035130,0.015991,-0.048144,-0.054638,0.046402,0.003517,-0.070796,-0.062577,-0.093818,0.044636,0.053271,0.010669,-0.046768,-0.018546,0.018986,0.028358,0.011555,0.038876,-0.016945,0.057089,0.035222,-0.053530,-0.028472,-0.003692,0.002569,-0.070390,0.008560,0.028719,0.054991,0.028331,-0.060082,-0.036932,0.040152,-0.009249,-0.013013,-0.012795,0.045462,-0.052201,0.001894,0.047863,0.011330,0.058792,0.044114,-0.006193,0.068097,-0.034517,0.020924,0.075471,-0.041107,-0.039865,0.088350,0.026269,0.029980,-0.060466,0.070913,-0.038439,0.062349,0.023282,0.045933,0.028270,-0.114807,0.015279,-0.085817,0.055800,-0.059512,0.019226,0.003692,0.024837,-0.022897,-0.017806,-0.011079,-0.002237,0.081405,-0.023570,-0.040272,-0.052010,-0.002063,-0.001960,0.038372,0.026940,0.056258,-0.029393,0.013590,-0.079069,0.017631,0.023701,-0.095714,-0.097432,-0.066371,0.038895,-0.018076,0.028318,0.047386,0.067759,-0.002103,0.064765,-0.068081,0.022991,0.089595,-0.061068,0.042298,-0.007879,0.006344,0.060666,0.043647,-0.009178,0.010728,-0.052115,-0.068289,0.019143,0.056448,0.068064,-0.046042,-0.050831,0.091961
0.047684,-0.063239,0.029826,-0.081271,0.037715,0.079350,-0.064128,0.088259,-0.023022,0.060051,-0.066043,-0.044159,0.027036,-0.018542,0.069429,0.071614,-0.046118,-0.034056,-0.039245,0.042912,-0.005391,0.034617,0.040064,-0.016093,-0.036009,-0.030297,-0.023790,-0.056917,-0.066878,-0.081349,0.018029,0.038297,-0.022114,0.011526,0.054810,0.037977,-0.007177,0.032467,-0.056636,-0.027675,-0.028377,-0.059324,-0.004865,-0.010570,0.009874,-0.068024,-0.006861,0.006493,0.040117,0.121823,-0.001270,0.044203,-0.006940,-0.063684,0.025741,-0.069518,0.047813,0.065097,-0.052087,-0.100349,0.007626,-0.039760,-0.032713,0.036808,-0.036636,-0.059858,0.035726,0.039018,0.003360,-0.028574,-0.034496,0.034811,0.063782,0.062457,0.019053,0.084201,0.040474,-0.066481,0.064947,0.052696,0.092581,-0.072719,0.011778,0.048390,-0.042718,-0.003569,-0.081209,-0.098060,0.035674,0.031513,-0.052629,0.065263,0.008226,-0.052345,-0.030376,-0.098912,0.014888,0.074436,-0.019148,-0.047025,-0.059713,0.074260,-0.042130,-0.067821,-0.046660,0.040272,0.084449,0.013471,0.040086,0.044172,-0.034729,0.038363,-0.014580,0.012686,-0.079839,-0.057397,0.066037,-0.053523,0.058128,-0.050171,-0.030151,-0.032579,-0.040210,-0.064599,0.060727,0.046483,0.047523,0.043859
0.055444,0.065591,0.063156,0.070365,0.009286,-0.093010,0.049733,0.026250,-0.008953,-0.063646,0.003254,0.025713,0.056178,-0.022308,-0.062098,-0.025369,0.096441,-0.023345,-0.089008,0.040904,0.001559,-0.036594,-0.121964,0.048044,-0.034450,0.048917,-0.043704,-0.044179,-0.042632,-0.007115,0.032887,0.016906,0.006654,-0.123232,-0.000308,0.057707,-0.000171,0.062431,0.027570,0.043525,-0.051200,-0.073154,-0.064718,0.062292,0.034384,0.022475,0.075016,0.055194,0.064212,0.108912,-0.095100,-0.023341,0.064792,-0.082511,0.022817,-0.007732,0.050928,-0.061538,0.013124,-0.040590,-0.008614,0.087781,0.017327,-0.087224,0.035417,0.011218,-0.021475,-0.015264,0.059739,-0.049807,-0.068938,-0.062728,0.065471,-0.006769,-0.106919,-0.064849,0.035762,0.077493,0.016773,-0.064009,0.000693,-0.082595,-0.025363,0.015755,0.094226,0.042489,-0.014426,-0.012966,0.040932,-0.100981,-0.000767,-0.032983,0.004097,0.071520,0.002301,-0.061033,-0.034017,-0.005814,-0.014514,0.036805,-0.038649,0.040251,-0.036118,0.049510,-0.032130,0.067679,0.012261,0.038446,0.027882,-0.079025,-0.020229,0.063903,-0.004876,0.064829,-0.077749,0.038694,-0.024920,-0.070909,-0.038511,-0.006480,-0.111521,0.022726,-0.031400,0.051837,0.018174,-0.005820,-0.031813,0.088182
0.012976,-0.006335,0.024266,0.039093,0.011571,-0.014774,0.035053,-0.055664,-0.015699,0.030249,-0.018695,0.020538,0.016621,-0.067425,-0.026435,-0.052930,0.016465,0.026930,-0.001821,-0.014849,-0.043817,-0.062408,-0.057536,-0.063044,-0.126957,-0.073517,-0.079873,-0.029324,-0.058411,0.018280,-0.100962,-0.049634,0.086842,-0.087722,0.030683,0.092255,0.104814,0.023533,-0.002446,-0.029219,0.023991,0.013611,0.020710,-0.024975,0.001548,-0.018853,0.008083,-0.015095,0.008072,0.048403,-0.082351,-0.087612,0.002848,-0.033308,-0.054412,0.118719,0.038765,-0.004086,-0.028237,0.028317,0.083467,-0.090326,-0.006986,0.087623,-0.029128,0.079970,-0.082266,-0.045451,-0.005849,-0.023525,-0.030655,-0.007029,0.025523,-0.088881,-0.056084,-0.017372,0.075409,-0.028448,0.042606,-0.015544,-0.021330,0.072102,0.034392,0.055632,-0.037007,0.014038,0.032846,-0.078514,-0.082133,0.052769,0.028838,-0.013351,-0.064720,0.014282,-0.073071,0.027143,-0.029395,0.054988,-0.028116,-0.010932,-0.109051,-0.082106,-0.026377,-0.061166,0.019633,0.008035,0.017720,-0.054805,0.050744,0.040979,-0.016226,0.039508,-0.004743,0.022304,0.034581,-0.070446,0.086208,0.057019,0.076099,0.078501,-0.046018,-0.068285,0.039814,-0.088620,-0.064218,-0.036691,0.054738,-0.045328
-0.038439,-0.028059,0.089492,0.015679,-0.035015,0.084460,0.049623,0.137227,0.026166,0.013244,-0.069834,-0.026429,0.047937,-0.070712,0.099186,0.009744,-0.057359,0.053790,-0.042298,-0.041593,0.066696,0.041735,-0.010208,0.012135,0.025738,-0.033621,-0.080305,0.086069,0.057612,0.041613,0.053638,0.048862,0.111656,-0.107819,0.044873,0.114101,-0.019581,0.028272,-0.033249,0.040987,-0.055465,0.045497,0.090521,-0.120046,0.019380,0.032733,0.199562,-0.092609,0.030970,0.127013,0.089339,-0.010135,0.097077,-0.064906,0.051093,-0.036113,-0.007446,-0.026809,0.042739,0.032853,0.009320,0.031039,-0.045998,-0.013143,-0.102001,0.009770,-0.002072,0.013349,0.085076,0.077570,0.051855,-0.021005,0.048454,-0.057118,0.076705,0.054162,0.094081,0.004278,-0.081490,-0.058475,0.083434,-0.031614,0.054574,-0.033325,0.041053,-0.008736,-0.084985,-0.013029,-0.001126,-0.033438,-0.008914,-0.049845,-0.083277,-0.089925,-0.044661,-0.093912,-0.044170,0.070677,-0.036926,0.090838,-0.102338,-0.019828,0.024620,-0.079527,0.007207,0.052915,-0.078496,-0.047782,-0.076529,-0.030770,0.094250,0.059553,-0.014563,-0.028302,-0.099605,-0.007768,0.029804,-0.047599,-0.005192,0.088845,0.071049,0.071181,-0.049878,0.041607,0.070047,0.090658,0.006655,-0.094252
-0.054459,-0.017360,0.060454,-0.034792,0.001685,-0.026036,-0.008903,-0.023042,0.057797,-0.044213,-0.010441,0.020053,-0.028006,-0.048994,-0.013501,-0.072078,-0.031278,0.035189,-0.030807,0.097370,-0.050983,-0.120575,0.052184,-0.032937,0.047030,-0.085187,0.082450,0.001461,0.051127,-0.016715,0.023769,-0.008191,-0.021042,-0.037621,-0.045341,0.033047,0.019236,-0.040451,0.013883,-0.000702,-0.095242,-0.032353,0.040355,-0.023057,0.021272,0.055833,-0.053175,-0.045499,-0.046058,-0.073208,0.014185,-0.077209,-0.025328,-0.038604,-0.052866,-0.070525,0.045151,0.079480,-0.004687,0.055447,0.037369,-0.116339,-0.093309,-0.044125,-0.065413,-0.073317,0.035057,-0.001316,0.045010,0.089192,-0.038210,-0.033140,-0.072985,-0.081807,0.015499,-0.060574,-0.094451,0.009592,-0.080310,-0.052030,-0.023158,-0.007901,-0.054999,0.100455,-0.014832,-0.089652,-0.040399,-0.058164,0.016199,-0.033575,0.032523,0.026776,-0.069607,-0.005399,0.020519,-0.083538,0.009832,0.081848,-0.006361,0.037228,-0.077840,0.001331,0.018795,-0.083603,-0.014934,0.030838,-0.054603,-0.020773,0.031911,-0.074101,-0.004807,-0.070650,-0.083595,0.016737,-0.064561,0.058018,0.013162,0.015948,-0.032825,-0.046974,0.010513,-0.068252,-0.084976,0.004520,0.005568,0.085337,-0.053802,0.048674
-0.044355,-0.017100,0.066826,-0.004951,-0.080493,-0.070302,0.001320,0.011180,-0.093826,0.069494,0.002557,0.014900,0.017781,-0.092477,0.036474,-0.074291,0.066780,0.066347,-0.040076,-0.033545,0.064200,-0.019011,-0.042792,0.014786,0.147215,0.069511,0.080676,-0.002528,-0.033451,0.048482,0.098071,-0.022903,0.049346,0.046251,0.032660,0.064907,0.016555,0.004253,0.013896,-0.069452,0.049371,0.081683,-0.011048,-0.042194,-0.076351,0.112630,-0.075974,0.100618,-0.028370,-0.015477,-0.033684,0.028614,0.064664,0.060248,-0.043403,-0.067169,-0.087469,0.024072,-0.050891,0.033392,-0.094511,-0.009707,0.027254,-0.034378,-0.109233,-0.080156,0.017856,-0.002342,-0.044609,-0.059664,-0.085034,0.018225,0.009845,0.070943,-0.070588,-0.057885,0.007192,-0.025732,-0.108219,0.044440,0.039104,0.034273,-0.012147,0.056468,0.042444,0.005721,-0.012045,0.043639,-0.078325,-0.014751,-0.091464,-0.020597,-0.074182,0.049309,0.035761,0.011949,0.017866,0.030071,0.063779,0.080889,0.095334,0.001266,-0.056388,-0.024778,-0.044215,-0.088914,0.089892,-0.019104,0.008128,-0.078912,0.041345,0.029392,0.008255,-0.000229,-0.043769,-0.089186,-0.027708,-0.013682,0.062117,0.062453,0.056180,-0.039500,0.019582,-0.054787,-0.012704,0.072134,0.079905,-0.056456
0.023101,-0.011811,0.056622,-0.075216,-0.003617,0.013623,0.010465,0.012930,0.096446,0.084107,-0.044907,0.011592,-0.061321,0.024242,-0.022775,-0.081221,-0.056466,0.046669,-0.084223,0.031631,-0.093838,-0.126476,0.067996,-0.025933,0.032987,-0.058726,0.102671,-0.046289,-0.013104,0.090626,0.077891,0.044496,-0.043224,-0.009782,-0.048494,0.015716,-0.060710,0.022494,-0.064640,-0.042859,0.050239,-0.100532,0.021256,0.051671,0.117454,-0.031552,0.002693,-0.008564,0.016931,0.020737,-0.048847,0.017773,0.002093,-0.096652,-0.073606,-0.112124,-0.093846,0.007745,-0.061558,0.088905,0.029303,0.022791,-0.038869,-0.096901,0.043928,-0.024364,0.051909,-0.085095,0.019421,-0.012797,-0.066499,0.078890,-0.084029,-0.071323,-0.052854,0.064720,-0.020846,-0.096510,-0.074539,-0.012288,-0.039411,-0.077324,-0.051052,0.022711,0.064126,-0.050783,-0.018647,-0.081769,-0.051200,-0.023066,0.068684,0.017740,-0.069017,0.054835,-0.032263,0.045009,-0.048143,-0.043676,0.051868,0.058604,0.004546,0.021050,0.064200,-0.067672,0.096729,0.060307,0.077432,0.091932,0.009148,-0.080812,-0.021146,-0.056578,-0.004124,-0.104764,0.007536,0.028795,0.012808,-0.027944,0.099074,0.046989,0.029764,-0.051735,-0.069381,-0.029122,-0.014010,0.054188,0.064177,0.031943
-0.015272,0.008139,-0.006654,0.077439,-0.044447,0.028826,-0.025132,-0.108802,-0.087728,0.025320,0.057255,-0.005281,-0.061750,-0.000246,-0.040293,-0.114609,0.007323,-0.046950,-0.041679,-0.068932,0.001769,-0.063541,0.058669,0.070526,0.045810,-0.079456,-0.041393,-0.002454,-0.039621,0.059482,0.041401,0.032361,-0.067360,-0.087719,0.033840,0.026460,-0.029892,-0.047235,0.019756,-0.063967,0.079956,-0.024539,-0.080658,-0.001700,0.021182,0.028284,-0.019149,0.035296,-0.029024,-0.114924,-0.036211,-0.055184,-0.004938,0.032813,-0.090878,0.010804,-0.023260,0.026590,0.050029,-0.050550,0.012167,-0.013007,-0.033614,-0.022784,0.094436,0.012492,0.049641,-0.068173,-0.007911,0.037575,0.001324,-0.021658,0.007688,0.077435,0.013516,-0.050073,-0.105825,-0.041349,-0.050035,0.067448,0.018330,0.046848,0.031792,-0.016205,-0.008623,-0.041941,0.008703,0.074647,0.030195,0.010179,0.001851,-0.026063,-0.046969,0.093468,-0.011119,-0.001689,-0.069272,0.073013,-0.045725,-0.011114,-0.091795,-0.063982,-0.025826,-0.021696,-0.083459,-0.007195,-0.119330,0.040420,-0.051642,0.012546,0.054262,0.057729,0.032682,0.000138,0.097702,-0.008052,-0.048731,0.094077,0.007815,0.068822,-0.070183,0.021664,-0.080307,-0.071622,-0.059263,0.008982,-0.045533,0.071710
-0.031971,0.033910,0.048909,0.035637,-0.044771,0.046104,0.061402,0.049045,-0.046885,0.055681,-0.046419,-0.026062,0.058069,0.038225,-0.065593,0.046294,0.042262,-0.009201,-0.001534,0.047131,-0.024309,0.083575,0.059439,0.071757,0.016566,0.011857,-0.012870,0.080342,-0.053173,0.024334,-0.070706,0.023124,0.047320,0.045526,-0.014063,-0.024726,0.063259,-0.016336,-0.065012,-0.114900,-0.027638,-0.101765,-0.066501,-0.074225,-0.020783,0.043827,-0.092460,0.075978,0.094660,0.005994,0.025931,-0.111102,0.016896,-0.004547,0.104536,0.064769,0.030946,-0.082668,-0.007521,-0.029862,0.054027,0.020994,0.093018,0.010285,-0.032114,-0.074673,-0.043503,0.016724,-0.023002,-0.025807,-0.061922,-0.023704,-0.062553,-0.026244,-0.032467,-0.006524,-0.043083,0.009494,-0.072177,0.033368,0.009569,-0.047279,0.099204,-0.007794,0.087417,-0.030180,-0.082904,0.004797,0.032191,-0.001243,-0.020193,-0.042386,0.073771,0.010537,-0.019113,0.035225,-0.028726,-0.024109,0.027155,0.009587,0.069940,0.049690,0.111457,0.042527,0.088490,0.073423,-0.089733,-0.012950,0.015710,-0.057182,-0.073649,0.001952,0.008931,0.047387,0.077306,-0.020215,-0.051127,0.002859,-0.073360,0.087660,-0.095085,-0.041326,-0.055344,-0.042463,0.008933,-0.046740,0.008548,0.035645
0.073206,0.013397,-0.086200,0.059293,-0.035989,-0.093207,-0.061529,-0.100450,-0.012958,-0.041642,0.010443,-0.064158,0.068133,0.084596,-0.024363,-0.069924,-0.070618,-0.007544,-0.082626,-0.025768,0.062983,0.037700,0.032018,0.046308,0.070737,-0.034317,-0.065431,-0.050694,0.007177,-0.016276,-0.074596,0.043956,0.111309,-0.067153,-0.006244,0.048457,0.063896,-0.014232,0.053438,0.074062,-0.039791,-0.010959,0.023280,0.086719,-0.047446,0.003037,-0.011899,-0.069079,-0.048493,-0.095496,0.046562,-0.038509,-0.041848,0.023724,-0.036983,0.011407,-0.052095,-0.029281,-0.010950,-0.001005,-0.089686,-0.011428,-0.014949,-0.025739,-0.044192,-0.082495,-0.105361,-0.072591,0.034263,-0.072221,-0.089409,0.025804,0.048101,0.089992,0.067061,-0.046555,0.041833,0.062394,0.019007,0.003320,-0.130286,0.014735,0.032662,0.076363,-0.116902,0.031996,0.001664,0.005252,-0.061950,-0.015163,-0.018922,-0.024140,0.061689,-0.018366,-0.074900,0.072747,0.000700,0.001141,-0.053328,-0.078307,0.019430,0.060483,-0.013187,-0.042628,0.012925,0.041520,-0.068049,0.000797,0.054711,-0.059586,-0.067438,-0.011661,0.050654,-0.026641,-0.075812,-0.013040,0.050291,-0.103130,0.017932,-0.059338,0.077678,0.112065,-0.039152,0.082994,-0.086567,0.026946,0.082256,-0.088199
0.070929,-0.037655,0.039334,-0.018862,-0.004450,-0.036804,0.054278,-0.005333,-0.002651,0.063022,0.058815,-0.017866,-0.027011,-0.070701,-0.026995,-0.090175,-0.049971,0.027615,-0.076316,-0.034079,0.001575,0.049311,-0.038466,-0.068103,-0.050246,0.027031,0.042286,-0.069920,0.018630,0.059679,-0.008743,0.022018,-0.016792,0.005560,-0.063850,-0.047526,-0.070963,-0.012745,-0.044232,0.035675,-0.093784,0.051445,0.019179,0.006063,-0.059908,0.116238,0.059274,-0.038515,-0.002841,-0.066251,0.041026,0.037835,-0.068881,0.020568,0.062329,-0.036185,0.024101,0.067868,-0.072046,-0.008329,-0.031188,-0.044655,-0.050985,-0.031598,-0.081705,0.036374,-0.035494,0.009421,-0.082884,0.014954,-0.052199,-0.092639,-0.031507,0.011014,0.067912,0.069793,0.014774,-0.061624,0.061851,0.064973,0.036439,0.032216,0.040220,0.042846,-0.007378,0.079707,0.020767,-0.053882,0.077482,-0.065195,0.047577,-0.065300,-0.091029,0.009909,0.010574,0.066611,-0.060412,0.051283,0.046871,0.004436,0.005039,-0.024608,0.027884,0.053663,-0.037800,0.054118,-0.105032,-0.007800,0.035623,0.059450,-0.082146,-0.097584,0.024362,-0.062400,-0.010686,0.100628,0.053893,0.055248,0.012510,0.060585,0.062933,0.089637,0.001456,0.061568,-0.019019,-0.063031,0.051320,-0.009391
-0.063977,0.027540,0.038437,-0.036136,0.037650,0.055080,-0.018452,-0.071618,-0.070910,-0.045421,0.052654,-0.001810,-0.033146,0.010221,0.041245,0.060248,-0.085566,-0.054723,-0.086313,-0.021447,-0.063095,-0.014744,-0.120686,0.058940,-0.012051,-0.003485,-0.006893,0.083202,0.062489,0.037813,-0.074287,0.042950,-0.053198,0.037864,-0.019057,-0.011474,-0.065801,0.008739,-0.022887,-0.050265,-0.044399,-0.132698,-0.022183,0.041196,-0.020089,0.062981,-0.002220,0.065820,0.029228,0.021643,0.025087,-0.126996,0.029034,-0.061204,0.007761,0.038200,0.021093,-0.022586,-0.057412,-0.103252,0.055002,0.009287,0.098299,-0.052214,0.029541,0.037795,0.095244,-0.054486,-0.060170,0.096736,0.008645,0.017927,0.012663,0.030926,0.003732,0.033189,0.064521,-0.015492,0.030969,-0.023375,-0.081604,-0.083660,0.001288,-0.058710,0.075617,0.024150,-0.024082,-0.012623,0.045418,-0.066561,-0.004858,0.039596,-0.013441,0.041226,0.044313,-0.070589,-0.027814,0.037435,-0.018794,-0.025531,-0.021553,-0.025126,-0.013029,0.041180,0.055636,0.063162,0.046259,-0.096629,0.035109,-0.041873,0.025277,0.069959,0.009157,-0.028364,-0.011715,-0.012863,0.066418,-0.119126,-0.028653,-0.112116,0.091174,0.077282,0.022326,-0.038371,-0.075563,-0.050525,-0.100217,0.064256
0.095529,0.027598,0.041606,0.048488,0.098412,-0.080954,0.101798,0.075384,-0.093530,0.017551,0.124300,0.060914,-0.016403,0.057382,-0.062669,-0.015062,0.070099,0.069182,-0.004840,0.017156,-0.045863,-0.014348,-0.074913,0.019776,-0.026778,-0.036723,0.020409,0.098862,-0.042384,-0.044713,-0.054416,-0.016021,0.041248,0.041120,0.051112,-0.097522,-0.038482,-0.013542,-0.049356,0.071041,-0.093819,0.024965,0.065789,0.063835,0.059222,-0.052713,-0.111156,0.051696,-0.061209,0.029829,-0.012292,-0.038422,0.066223,-0.082576,-0.022696,-0.075637,0.032903,0.039707,0.051867,0.016808,-0.004841,0.057751,0.029740,-0.051776,0.069146,-0.008273,0.020996,-0.060399,0.082812,0.031391,-0.029238,-0.095144,-0.021396,0.000285,-0.155091,0.044709,-0.081475,0.024767,-0.061723,0.089528,-0.068196,-0.078516,0.071598,0.057768,0.033044,-0.073906,-0.003095,-0.052558,-0.043547,0.035403,0.040367,-0.057487,-0.040836,0.053736,0.112926,0.018776,0.036452,0.027694,0.030232,-0.036311,0.005569,-0.068279,-0.012687,0.046856,0.021206,0.080398,0.047975,0.031349,0.037380,-0.008603,-0.030191,0.045268,0.073309,0.056509,0.044656,0.054900,0.111306,0.023505,0.062966,0.024934,0.005187,0.050938,-0.026582,0.070993,-0.055898,-0.051289,0.008618,-0.065239
0.058183,-0.074965,-0.027229,0.106507,0.077854,-0.024805,-0.035294,0.097501,0.006402,-0.075013,-0.010698,-0.055023,-0.031700,0.025209,0.026147,0.055247,0.083871,0.067450,-0.058807,-0.015542,0.099645,-0.056151,-0.029431,-0.005042,0.021544,-0.035010,-0.098701,0.007849,0.045327,-0.069731,-0.029340,0.021407,0.065570,-0.044535,-0.040960,0.030936,-0.044486,0.011526,-0.041196,0.062244,-0.068915,-0.031254,0.037741,-0.010165,0.068343,0.045142,-0.050779,-0.063911,-0.072889,-0.053595,0.008589,-0.020244,0.057040,-0.057111,-0.062729,0.021505,-0.106695,-0.019154,0.011428,-0.017316,-0.047101,0.143015,0.068475,-0.089107,-0.010901,-0.004302,-0.024834,0.059058,-0.064232,-0.005187,0.067735,0.016411,-0.032797,0.107805,-0.039892,0.022912,-0.063818,-0.051963,-0.057213,-0.088533,-0.006734,0.028883,-0.032178,-0.026177,0.066000,0.024002,0.076927,0.074128,-0.053268,0.062814,0.026607,0.028149,0.027942,0.069084,0.031772,-0.050639,0.028227,0.041424,0.095292,0.012003,0.027573,0.033959,0.077093,0.045268,-0.067401,-0.033211,-0.038762,-0.003705,0.019252,-0.095085,-0.035641,-0.042741,-0.037041,-0.096787,0.030282,-0.025844,-0.049846,0.007378,-0.036111,-0.067267,0.073535,-0.047805,-0.001512,0.096575,-0.002573,0.024283,0.041257,-0.038531
-0.022467,-0.027537,-0.050484,-0.082988,-0.048018,-0.095693,0.069013,0.026527,0.035507,0.082342,0.010294,0.086265,0.036804,0.015867,0.076482,-0.085110,0.022621,0.009037,-0.004903,-0.030947,-0.017002,-0.018032,0.005409,0.087515,0.017028,0.024915,-0.097394,0.006081,-0.090043,0.025858,0.003816,-0.035800,0.036012,0.089107,0.118763,0.024364,-0.027308,0.082902,0.033054,0.019210,-0.040656,0.107530,-0.071242,0.086028,0.026449,-0.024567,0.059244,-0.127526,0.027951,-0.001373,-0.066971,0.032637,0.069531,0.049536,-0.033576,-0.036220,-0.061600,0.017457,0.103239,-0.025801,0.066827,-0.016086,0.049454,-0.008545,-0.036329,0.063987,-0.019983,-0.075854,0.079001,-0.059632,0.012555,0.054845,-0.088429,0.031071,0.080664,0.084473,-0.068098,0.058468,0.074730,-0.001299,0.010301,-0.078899,0.000020,0.019187,-0.072601,0.091798,0.029324,0.077910,0.034585,0.014868,-0.014873,0.032260,-0.023082,-0.006373,-0.059882,0.083232,0.030098,-0.054178,0.083049,0.029115,-0.113215,-0.037472,0.032350,-0.006286,0.041067,-0.060918,-0.057619,-0.026272,-0.037959,-0.045846,0.019050,0.035866,-0.042716,-0.088737,0.031215,-0.082827,0.004648,0.102844,-0.008480,0.071985,0.068655,-0.010772,-0.066854,-0.004457,-0.012829,0.067870,-0.003883,-0.046406
-0.008878,-0.054534,0.016124,-0.052762,-0.052566,0.004291,-0.050846,0.120034,0.019098,-0.007571,-0.050529,-0.075493,0.086953,0.051787,0.025495,-0.019113,-0.090458,0.032859,-0.014528,-0.009759,-0.037102,-0.068941,-0.088212,0.129140,-0.080130,-0.049317,0.055503,0.038309,-0.084693,0.025746,-0.041213,0.010283,-0.008645,0.076312,-0.040038,0.025471,-0.056077,-0.073069,0.012414,-0.034127,-0.009396,-0.059243,0.009561,0.008649,0.011336,0.080065,0.013983,0.058433,-0.017350,-0.052941,-0.058471,0.022906,-0.017906,-0.062826,0.007454,-0.038521,-0.034309,-0.062483,-0.065692,0.022023,0.047770,-0.059028,0.088183,0.097732,-0.058405,0.079406,-0.025073,0.010940,0.058466,-0.001740,0.058545,-0.089862,0.100777,0.040529,0.016091,-0.063285,0.025934,0.086931,-0.054349,-0.001245,0.027636,-0.086597,0.057216,-0.053791,-0.016102,0.020912,-0.050732,0.007108,0.067428,0.010522,-0.043440,-0.054650,0.017369,-0.005639,-0.083291,-0.042842,0.026370,0.117900,0.019985,0.043235,-0.059711,0.080675,-0.014483,-0.063577,0.035178,0.061031,0.048273,0.058073,0.034192,-0.038168,-0.060460,-0.025663,0.043504,-0.089004,-0.048440,-0.059817,-0.006919,0.091533,0.070302,-0.071006,-0.015359,-0.002977,-0.021550,-0.033791,-0.114948,0.048146,-0.061156,-0.047523
-0.048482,-0.009915,-0.046069,-0.042918,-0.053846,-0.203847,-0.025814,-0.021062,-0.020445,-0.003746,-0.057110,-0.039590,0.097747,0.068141,0.044432,0.039781,0.037154,-0.047522,0.079198,-0.017440,-0.106744,-0.000886,-0.073867,0.033029,-0.017036,0.076180,-0.083907,-0.043043,-0.060112,-0.076013,-0.017971,0.023394,-0.092069,0.069477,-0.052893,0.050543,-0.052976,0.004187,0.034584,0.034477,-0.058228,-0.071675,-0.051679,-0.094912,-0.053887,0.087256,0.055532,0.025213,-0.084229,-0.057019,-0.016794,0.122989,-0.071890,-0.049565,0.084926,-0.010009,0.021437,-0.052109,0.013835,-0.037440,0.019321,-0.001057,0.062092,0.029003,-0.035607,-0.075730,-0.095693,0.042109,0.071312,-0.081882,0.037118,-0.061908,-0.067057,0.062005,0.027399,-0.044995,0.103494,0.051036,0.023338,0.021107,-0.031620,0.033756,0.096332,-0.037347,0.036697,-0.047653,-0.002769,0.000760,-0.049403,0.039051,0.068841,0.005688,-0.022518,0.080053,-0.075360,-0.041529,-0.036419,0.071040,-0.041992,-0.060628,-0.072174,0.043724,-0.026171,-0.040837,0.007569,-0.033829,0.029065,0.004940,-0.001872,0.095173,-0.118756,-0.041021,0.092556,-0.012325,0.002890,-0.008699,-0.014434,-0.100840,0.062222,-0.016265,-0.101890,0.038439,-0.080627,-0.000247,-0.038168,-0.017357,-0.041506,0.063146
-0.023742,-0.003516,-0.010155,0.103842,-0.020390,-0.045177,0.073001,0.075743,0.031138,-0.036060,-0.079973,-0.007470,-0.021463,0.022177,-0.002603,0.074392,0.063775,0.046980,-0.032295,0.047324,-0.098803,0.004771,-0.085975,0.099500,-0.024257,-0.042634,0.059864,-0.043385,-0.036581,0.068521,-0.007004,-0.083167,-0.047964,-0.062245,0.047859,-0.105981,0.027856,0.069799,0.070199,0.097368,0.015060,0.034844,0.047947,-0.041769,0.038291,0.072861,0.035815,0.046051,-0.051215,0.017540,-0.040602,0.013670,0.044841,0.043314,0.130204,-0.098616,0.012929,-0.030628,0.088501,0.065766,-0.025717,-0.030402,-0.093470,-0.036267,0.036391,-0.091762,0.007199,0.024929,-0.066001,-0.084789,0.023121,0.018720,-0.003410,0.004658,0.054508,0.007165,-0.046325,0.008760,0.034691,0.026469,0.043334,0.065146,0.012818,-0.017222,-0.036838,0.037128,-0.078252,-0.005722,-0.037868,-0.053255,0.084972,0.024679,0.018619,-0.045852,0.014057,-0.008140,0.028112,0.001203,0.079521,-0.010876,-0.059946,-0.065318,-0.017582,0.018330,-0.053892,0.106419,0.055570,0.075664,0.084611,-0.027778,0.066995,-0.028680,0.111196,-0.035793,-0.011875,-0.069942,0.029896,0.024784,0.025183,0.047143,-0.103984,-0.055342,-0.025836,0.012309,-0.009282,-0.018475,-0.088372,-0.012034
-0.031117,-0.066074,-0.064445,-0.022799,0.003022,-0.073832,-0.040744,0.015812,0.019368,-0.053501,-0.054808,-0.030582,0.012048,-0.047688,-0.087876,0.040533,-0.061333,0.069753,0.081158,-0.093279,0.011240,-0.062136,-0.019039,0.039881,0.034256,-0.063664,0.037303,-0.016768,0.017640,-0.027687,-0.007888,-0.005117,0.048691,0.011939,-0.044882,0.006998,-0.003346,0.101474,-0.036773,-0.041832,-0.046806,-0.021525,0.024660,-0.087611,0.065738,0.000637,0.063439,0.038456,0.008046,0.004313,0.015824,0.019581,0.051461,0.031809,0.007265,0.022205,0.000863,0.092938,0.089989,-0.020139,-0.043385,-0.072362,-0.026687,-0.000630,-0.041605,-0.008876,-0.042603,-0.037026,-0.051132,0.041168,-0.017807,0.023886,-0.021508,0.023986,-0.023619,-0.058747,0.079502,-0.067032,-0.039646,0.012783,-0.036985,0.055190,-0.050813,0.028923,0.097703,0.016725,0.014624,-0.061964,0.023985,0.042330,0.081212,0.017469,0.083298,0.090891,-0.065399,-0.089973,-0.054286,0.058028,-0.107311,-0.009969,-0.061143,0.068065,-0.042150,0.024871,0.003178,0.125426,-0.023762,-0.085408,-0.069960,-0.045018,-0.037752,0.068972,-0.015086,0.053370,-0.040533,-0.015550,-0.072987,-0.034923,0.067033,-0.050516,-0.022115,-0.016714,0.064581,-0.019621,0.035998,-0.022555,0.038664,-0.013461
0.001497,-0.093338,-0.098328,-0.027297,0.052410,0.021367,0.013778,0.072332,-0.004133,0.027247,0.034442,-0.103161,-0.023148,0.070315,0.021805,0.041712,0.094239,-0.067465,-0.077816,-0.029823,0.003670,-0.039620,0.056690,0.064587,-0.052285,-0.023812,0.085276,0.005967,0.088747,0.003062,-0.016452,0.010761,-0.111169,-0.087265,-0.057692,0.000451,-0.047525,-0.002180,0.093968,-0.047246,-0.081013,-0.065468,0.009257,-0.046882,-0.036719,-0.024020,-0.031891,-0.047553,0.082712,-0.036515,0.096808,0.043211,-0.036942,0.060211,0.078872,0.039955,-0.058279,-0.006402,-0.041490,0.055533,0.073001,-0.077194,0.063936,0.018966,-0.111103,-0.030300,0.081744,0.037929,-0.077066,-0.049717,-0.085858,-0.058579,-0.018883,-0.005335,-0.037020,-0.085249,0.095644,-0.084672,0.029171,-0.056812,0.068526,0.095549,0.056663,0.016617,0.008495,-0.102093,-0.020218,0.068056,0.054079,0.068603,0.016989,-0.014339,0.057857,-0.077212,0.080746,-0.152825,0.040724,-0.006275,0.044555,0.044430,-0.063118,0.060840,-0.057068,0.053290,-0.107187,-0.004722,0.061274,0.008995,-0.069498,0.064970,-0.045623,0.079155,-0.048792,-0.024819,-0.012398,-0.054022,-0.014080,-0.007687,-0.081637,0.018812,0.031711,0.015537,0.038592,-0.065990,0.004696,0.003069,0.020044,0.052465
0.061788,-0.035301,-0.079063,-0.023775,0.065824,-0.032679,-0.092294,-0.056038,0.031906,-0.047948,-0.068037,0.054170,0.023044,0.011392,-0.014372,0.047568,0.045467,-0.026514,-0.050154,0.027414,0.067183,-0.075659,-0.012276,-0.118815,0.070593,-0.089734,0.036474,0.034231,-0.092051,-0.037726,-0.101476,-0.061854,0.029840,0.045334,0.040626,-0.030472,0.031653,0.006997,-0.001653,0.043464,-0.007794,0.015433,-0.049496,0.071116,-0.005334,0.022322,-0.133832,0.031259,-0.021124,0.029973,0.013639,-0.010889,0.022583,-0.052315,0.046408,-0.067630,0.028343,0.041805,0.058737,0.115716,-0.073502,-0.053611,-0.033015,0.024458,-0.109110,0.043544,0.032628,-0.006228,-0.074796,-0.005720,-0.014402,-0.075304,0.020422,-0.010949,-0.016133,-0.019677,0.003138,0.035759,0.049196,-0.058242,-0.023766,0.090247,-0.005735,-0.010974,0.055550,-0.055403,-0.024900,0.009740,-0.062184,0.055442,0.023986,0.083367,-0.002772,-0.020303,0.025096,0.018142,-0.019311,0.144457,0.016658,0.021680,0.074677,-0.008684,0.025108,0.042475,-0.066382,0.106441,0.014394,0.031116,0.044014,-0.007519,0.073228,0.052496,-0.069040,-0.041837,-0.037175,0.001091,-0.040513,0.027806,-0.006029,-0.073803,-0.066054,0.038365,0.042291,-0.101334,0.024252,-0.064942,0.062799,-0.011540
0.104687,-0.011308,-0.085581,0.078556,0.056055,0.031877,0.091444,-0.085343,-0.108584,-0.048409,-0.049603,-0.058307,0.093834,-0.093968,0.069244,0.032139,0.046850,-0.072538,0.077060,-0.027675,0.009143,0.052159,0.008887,0.000319,0.049839,-0.021058,0.053895,0.028470,-0.092752,-0.003476,0.070804,-0.016837,0.051606,0.087493,-0.055072,0.010191,0.079615,0.049682,-0.027429,0.042744,0.022780,-0.017234,-0.038408,0.087390,0.067950,0.014131,-0.072712,-0.045315,-0.044585,0.048743,-0.041723,-0.064776,-0.035807,-0.024008,0.028213,-0.059926,0.029002,-0.038115,-0.041499,0.090483,0.026942,0.022113,0.006572,0.039327,-0.048982,-0.060005,0.064805,-0.032421,-0.081498,-0.079997,-0.019450,0.055182,0.038181,-0.018308,0.139911,0.012315,-0.041345,0.062702,-0.011104,-0.030453,0.061093,0.018877,-0.017442,-0.093080,-0.030541,-0.024679,0.013126,0.049045,0.059633,-0.083153,-0.005459,-0.018878,-0.015464,-0.042036,0.025784,0.067165,-0.077511,0.011189,0.038993,-0.044749,-0.065192,-0.020330,0.113924,-0.041838,-0.054224,-0.066179,-0.050826,0.042252,-0.057927,0.033630,-0.059832,0.009706,0.000597,0.080925,-0.069335,0.021409,0.088550,0.111469,-0.010383,-0.046638,0.036985,-0.059000,-0.066103,-0.072174,0.034275,-0.032180,0.070942,-0.052700
